1314 128
146 -0.09752706 -0.08576146 -0.14462918 -0.14159448 -0.011478823 0.08229123 0.18121067 -0.13883984 0.26704118 -0.02320616 -0.31938586 0.05427082 0.08896992 0.061332498 -0.31056225 0.09970864 -0.12748128 0.024018984 0.077181086 0.029923052 -0.07832641 -0.14822893 0.20910498 0.14205071 -0.38428193 -0.033142667 -0.09817817 0.11257915 0.32868162 -0.11210489 0.18010803 0.035406236 0.06619722 -0.047223218 0.089318894 -0.00072949304 0.13294077 0.03475897 0.13881958 -0.15702924 -0.15204102 0.17629264 -0.04194647 -0.21401106 0.18657479 0.0060469084 -0.3221763 -0.07760439 -0.035271894 -0.11816493 -0.0806465 0.03416534 -0.005934027 -0.11121528 0.047483522 0.03284319 -0.058564655 0.1448244 0.010283188 0.06948578 0.13348532 0.00053096085 -0.048092637 -0.037497085 0.02454014 0.0077956556 0.05666392 -0.12641387 0.042651348 -0.01413416 -0.58158046 0.1607028 0.18586315 -0.0010712465 0.1431489 0.057148732 -0.093956776 -0.017129328 0.19457617 -0.21433917 -0.11412908 0.012162817 0.014801651 0.1478151 -0.059412252 -0.022269666 -0.07785225 0.14313544 -0.03354921 0.080053255 0.24933569 0.1667995 -0.1225403 -0.05717548 0.13112505 0.10264935 -0.03631084 0.037016407 0.09256641 0.27242288 -0.07651091 -0.08105563 0.058809295 -0.023783779 -0.294495 -0.22032012 0.04976932 -0.0032925005 0.03813316 0.0074962587 -0.12540303 0.10757444 -0.006287703 -0.0887707 0.10842544 -0.0224133 -0.07056947 -0.018579837 -0.019253394 -0.027765607 -0.13342328 -0.13905284 0.015790652 -0.024073355 0.16681612 0.18844163 0.3652331 0.1369691
1103 -0.16719918 0.17413266 -0.017665057 -0.13122146 0.06626699 -0.21480681 -0.03439397 -0.25618073 0.1856705 -0.033353765 0.1161336 0.026301859 -0.16543983 -0.021904161 -0.25600088 0.18580696 -0.060164496 -0.044014324 0.058892503 0.19896287 0.08877055 0.25149852 -0.12782425 -0.23110253 -0.0050471653 -0.0042613316 -0.19418223 0.15523814 0.043169197 -0.19039021 0.03501757 0.10459738 0.2803095 -0.07800367 0.12489943 -0.20190339 0.027014572 0.071594864 0.015119939 -0.22571337 -0.040682208 -0.09403971 0.10366472 -0.24225993 0.08361186 0.05556368 -0.3402951 -0.20664781 -0.018771995 0.16616878 -0.1925476 -0.065922976 0.23416813 -0.08760367 0.03781117 0.049826514 -0.1326169 -0.022893636 0.006137749 0.06459402 0.03612497 0.12413614 0.048640717 -0.008470063 0.05322514 0.09716087 0.14152394 -0.17410238 -0.057831485 -0.33244163 -0.25204393 0.012034058 0.12190784 -0.10660187 0.03550152 0.134251 0.029317321 -0.021280318 0.070822544 0.16385284 -0.1998987 -0.09749662 -0.2027293 -0.050208364 0.20320211 -0.03398408 -0.05271522 0.001479183 0.013793231 0.13019268 -0.0069716317 0.06856907 0.12823318 -0.103702314 0.09040019 -0.001219269 0.00807925 -0.11311821 0.12718087 -0.09696629 0.36229542 0.023521353 -0.07958469 -0.017755952 -0.028114356 -0.12963578 0.056222726 0.14943512 -0.30490807 -0.20749997 -0.17548504 -0.031226503 -0.03028281 -0.28869724 0.15140434 0.14907667 0.014637508 -0.03454396 -0.055661473 -0.10272519 0.3670254 -0.057024714 0.025864994 0.17080133 -0.14154428 -0.16857518 -0.0075702798 0.08055781
802 0.055239294 0.12099989 -0.35725698 0.11663755 0.08242944 -0.27122152 0.33331934 0.027807467 0.18455397 0.17048815 -0.040079553 -0.15860936 -0.26147038 -0.33609623 -0.16502967 0.03308175 0.11861709 0.0026275371 -0.02971385 -0.057732176 0.09645376 -0.13690367 -0.070956975 0.07057203 -0.2968019 -0.21185535 -0.36393094 0.05794201 -0.12476704 -0.044784375 0.028843634 -0.25851727 -0.38161343 0.14012611 0.22248733 -0.23792197 -0.03197685 0.04136819 -0.018635653 -0.2638142 0.097559616 -0.19932757 -0.060326863 0.17605321 0.11368175 0.09680201 -0.15124892 -0.021476738 -0.14081214 0.14173871 -0.067580305 0.3226077 0.039544724 0.009187054 0.14024282 0.07503791 -0.09682088 0.31147805 0.10963947 -0.013222577 -0.07750093 0.18304363 -0.30039352 -0.2346183 -0.03657713 0.053529836 0.1425595 -0.23480687 -0.034460977 -0.069224596 -0.04516873 -0.0059374287 -0.056177486 -0.29837134 0.120867595 -0.034828298 -0.05535716 0.06084622 0.0696258 0.15345193 0.04244017 0.033399396 0.0025073853 0.17992929 0.008264459 0.23183963 -0.002368307 -0.08580346 -0.07168597 0.20068267 0.16687036 -0.16140886 -0.06387156 0.058076665 -0.0016835746 0.08969612 -0.08829083 0.030000268 0.15560569 -0.088283725 -0.20615506 0.26275602 0.009531734 0.2786913 -0.069205664 -0.10152772 0.30756786 -0.16192909 -0.112249315 -0.17604308 -0.15484196 -0.19401819 -0.047101848 -0.026239641 -0.111937456 0.031704128 0.0037570472 -0.03926915 -0.24681047 0.07008121 0.12023488 -0.057305608 0.019337857 0.1698817 -0.08850269 -0.078141786 0.1574712 0.30957237
337 -0.07778059 -0.11642147 0.12768187 0.049735308 0.018247826 -0.086816125 0.15285191 -0.035336923 0.34766442 -0.17191774 -0.070042364 0.20336452 -0.27603695 -0.05588687 -0.0173522 -0.044531304 0.049616713 0.11929738 0.0594522 0.16757 -0.114470914 -0.20584619 -0.03352812 0.04222811 0.004490206 -0.052025277 -0.07605475 -0.057846308 -0.004179842 -0.12489774 0.0020164652 -0.11726676 0.14431153 0.18257289 0.03476921 0.037539437 0.08749579 0.10996084 -0.018364277 -0.18828511 -0.09335036 -0.03844243 -0.16334267 -0.03054884 0.0024023557 -0.10230399 -0.13884678 -0.1727235 0.010005779 -0.027162861 0.035126567 -0.15825921 0.25650725 -0.021930765 -0.0567693 0.11036978 -0.28123525 -0.02729274 -0.17414764 0.04156478 0.0338711 0.1720644 -0.07421351 0.18284847 0.13316603 0.18319887 0.09287857 -0.2620501 0.09284635 -0.11394119 -0.18276754 0.10753479 0.1977128 -0.057315305 0.02142131 0.13870116 -0.074940145 -0.13094012 0.13544422 -0.02005003 -0.05865591 -0.031570606 -0.0011659123 -0.08300944 0.153638 0.050025415 0.09540608 -0.18508576 0.14049059 -0.10955966 0.27476177 0.17168528 -0.037830804 0.19729175 0.043357052 0.03956708 -0.081088305 0.26197618 0.3859991 -0.04879926 0.2129069 -0.095261306 -0.028450407 0.159535 -0.11423074 -0.15949006 0.12348696 0.09522081 0.15771304 0.16538279 -0.099548064 -0.15086515 -0.29901057 0.192596 -0.056894872 0.06533324 -0.042666987 -0.16700955 -0.071357735 0.23789097 -0.034993686 -0.33384362 0.03347397 -0.016909411 -0.05523459 0.09914568 0.17266694 -0.1097972
37 0.16081367 0.0452924 0.11955574 0.14217915 -0.01972269 0.19247161 0.08050838 -0.02995539 -0.12932436 0.04933151 0.16960578 -0.109187014 -0.3875583 0.29253572 -0.30928552 -0.15172069 -0.03174602 0.11246878 -0.083757065 0.22749566 0.030318994 0.029011806 -0.14149879 -0.27014637 -0.00253323 -0.22172232 -0.13563868 -0.1669598 -0.17345347 0.056971174 0.06157671 -0.07827187 0.082999565 -0.0023134814 -0.046390425 0.04172171 0.2469137 0.013888266 0.041617732 -0.31090283 -0.05119878 0.15669227 -0.034485925 -0.018906208 0.034629982 0.23176911 -0.2991333 0.003338973 -0.20161392 -0.10255151 0.18094759 -0.13398795 0.075090975 -0.23884249 0.0031765683 0.106760845 -0.056734532 -0.017054593 0.037542697 -0.05533013 -0.23423184 -0.20177178 0.019445896 -0.16853568 -0.11515167 0.24301215 -0.120590016 -0.10915412 -0.14196105 -0.10134851 -0.23352453 0.23240924 -0.021926422 -0.0405947 0.2310674 -0.045240466 -0.3125246 -0.24615659 0.039332956 0.035737608 0.31638488 -0.20155466 -0.049639758 0.21031982 0.21013916 -0.1517957 0.029099995 -0.005242052 -0.091478206 -0.1416209 -0.0047444263 0.10760405 0.024136158 0.019567495 -0.11723774 -0.18086772 0.032249458 -0.035869174 0.03194626 -0.12785152 -0.113057666 0.14847957 0.0019324005 0.07553485 0.24183561 0.12331267 0.13081527 0.16144642 -0.09298598 0.06564794 0.019633653 -0.10269738 -0.040712822 0.026504686 -0.18802696 -0.0054563363 -0.044540722 0.076403186 -0.059266247 0.027480789 0.036851138 -0.15067787 -0.032499377 -0.13674064 -0.110007375 -0.042127226 0.21543148 0.23238392
838 0.00075463264 0.08867245 0.055688493 0.08258626 -0.022102851 0.17057659 0.13178858 -0.0121581955 0.41842446 0.11385402 0.12165449 -0.1441385 0.18467906 -0.19691563 -0.13176528 0.06329955 0.08784643 -0.10864146 -0.28688705 -0.029538102 0.21597263 -0.1174596 0.043929383 0.09248484 -0.03634188 0.02694698 -0.053793646 0.00080869015 0.021007566 0.16784056 -0.05647161 0.00532404 -0.13492958 0.2312444 0.052014906 -0.35109153 0.019433156 0.1862433 -0.00914416 -0.011479874 0.04781465 0.05257985 -0.02100746 0.010174791 -0.048458967 0.03578197 -0.07424178 0.0963263 0.0076265726 -0.059582055 0.070108876 0.065061145 0.22377521 -0.22231515 -0.20072196 0.22095023 -0.30849147 0.13228416 -0.041074228 -0.08961559 0.20526445 -0.057996403 0.024932766 -0.095895916 0.10727235 0.09430572 -0.054146636 -0.017388565 0.28685373 0.013177019 -0.19049571 -0.063347325 -0.027040128 -0.08342656 0.100865416 -0.03907982 -0.27525306 -0.11977405 0.026517428 0.18112881 -0.01694895 -0.101764545 -0.0077278744 -0.06993876 0.025148436 0.0011047069 -0.07366508 0.10422329 0.17657967 -0.23610479 -0.04599645 0.011559286 0.40737367 0.03469551 0.23830701 0.13639829 -0.018237045 0.020613788 -0.004083203 -0.015884355 -0.056364242 0.019941557 0.13702717 0.06855653 -0.246465 -0.4440103 0.20706882 -0.1140165 -0.22046867 -0.01586273 -0.10215966 -0.25558266 -0.39915892 0.015421326 -0.012638761 -0.009858269 -0.12616703 -0.021851774 -0.187159 -0.059445497 0.09578918 0.021119772 0.15118375 0.1636441 0.061677333 -0.064567626 0.11459092 -0.053294115
450 0.18484215 0.053180862 -0.016972115 0.00595124 0.19998053 -0.020101218 0.35433814 -0.041233394 -0.020904161 -0.081795655 0.036552012 -0.012785975 -0.0935247 -0.10558486 -0.1717357 -0.11532049 -0.04155329 -0.021377413 -0.08038609 0.08041932 0.33108652 -0.030219903 -0.1487445 -0.1512953 0.11978241 -0.05635022 -0.18232296 -0.0638113 0.037436802 -0.13457374 0.047668498 0.20574604 0.025203351 -0.14129551 0.057425525 -0.054864634 -0.04636071 -0.0366242 0.051671915 -0.20834492 -0.00794367 0.21536735 0.01170702 -0.02531712 0.064252175 -0.03434216 -0.2312246 -0.18784058 -0.03561434 -0.23755704 -0.052806668 -0.19557513 0.22697951 0.002861898 -0.12376344 0.055348482 0.050967034 0.080936946 -0.10643472 -0.042585503 -0.15604429 -0.06596871 0.093438394 -0.037478436 0.016326204 0.005428959 -0.09819948 -0.33131734 -0.08544434 0.0022519748 0.07218784 0.08230358 0.1505759 -0.06568228 0.15481196 -0.07528047 -0.22210467 -0.27117804 -0.18458945 0.20364907 -0.23526905 -0.3423424 -0.024228662 0.12172408 -0.095089704 0.03198107 -0.08606518 0.08398214 0.027532017 0.27608073 -0.32240874 0.14180502 -0.06726104 0.0343551 0.23968053 -0.02836308 0.18759637 -0.23183125 0.027732695 0.13568708 -0.08906946 -0.013333303 0.052891012 0.13777868 0.11596676 -0.082116045 0.0720135 0.2248103 -0.020731755 0.15230517 -0.047076378 0.15723594 0.024018241 -0.38134417 -0.073826686 -0.034817707 0.07814744 -0.1488456 0.08877682 0.10366693 -0.008326103 -0.09480234 0.0838482 0.13822111 -0.12232629 -0.061584637 0.054395664 0.19989602
1287 0.018288452 0.016327579 0.015731515 -0.19972672 0.017622976 0.047651455 -0.107758924 0.008590772 0.2598214 0.032059755 0.061941233 0.041314468 -0.3108557 -0.119183354 -0.11722407 -0.1493131 -0.0020714733 -0.25584096 -0.0014456182 -0.2276728 -0.033417884 0.19182837 -0.015107379 -0.08451343 -0.103373 0.072209686 -0.11535106 -0.05072855 -0.15780172 0.001998189 -0.09554698 0.2409589 0.0024591829 -0.065276705 -0.17079091 -0.08117312 0.104149185 -0.11484245 -0.17891914 -0.046330232 -0.13840102 0.08116167 -0.0572929 0.1761658 0.015414547 0.058383055 -0.35322607 0.08012771 -0.07074671 0.0626057 -0.08258043 -0.1624564 0.08210974 0.11577347 0.16911438 -0.11900899 -0.1647922 0.0514364 -0.029033843 0.11790763 -0.13249516 0.06253284 0.13236928 0.007038858 -0.04174782 -0.02582424 -0.041001882 -0.116052486 0.021440387 0.20030576 0.019853141 0.19769405 0.22967699 -0.18523419 0.26591843 0.022647575 0.124482416 -0.055127557 -0.41933975 0.0063817445 -0.110919334 -0.18443006 -0.15163895 0.17171885 0.082373075 0.27197695 -0.2820269 0.15929967 0.28326038 0.09842526 0.20285957 0.3552374 -0.038553804 -0.18277863 0.11071115 -0.17953403 0.14736764 0.0012775052 0.1299393 0.07195075 -0.40330702 -0.05510662 0.28590754 0.0022756078 0.23160678 0.02915092 0.1320104 0.0011691974 0.028545437 0.050914206 -0.21583831 0.19776003 -0.27434072 -0.051424336 0.053083103 0.03404167 -0.15860006 -0.14124092 0.08978481 0.018407512 -0.032156743 -0.15693887 0.009523885 -0.013569856 -0.3240047 0.15459047 -0.048844036 -0.06774456
406 0.2611835 -0.25632164 -0.102273814 0.03659513 -0.036450025 0.12418265 0.026494753 -0.29273883 0.19321802 0.053815816 0.005280403 0.031483263 0.017913109 -0.10505705 0.1041872 -0.025874536 -0.267866 0.1486163 -0.27033785 -0.08081663 -0.06370701 0.1497682 -0.0014078763 0.027412377 0.106071815 -0.12752688 -0.08703297 -0.06800988 0.1381625 -0.1411503 0.22398712 0.04997919 -0.09779162 -0.019204544 -0.15914227 -0.2702317 -0.100167625 -0.30317232 -0.040018454 -0.0744613 0.0012639461 -0.16688055 0.04639819 -0.054082762 -0.13798973 0.004143499 -0.027737755 0.18254197 -0.038373917 -0.12739597 -0.17346206 -0.07204156 0.05693323 -0.15171827 0.16789289 0.071363375 0.09984909 0.13141517 -0.3677852 -0.04162233 0.09448106 -0.07752957 0.1385834 -0.34544346 -0.048390694 0.21249172 0.17607187 -0.11654942 -0.030605266 -0.15746479 -0.2709454 -0.14324944 -0.2752448 -0.03224578 -0.14530003 -0.005388468 0.012984033 -0.03388674 0.03905494 0.04027856 0.09458176 -0.029872773 0.12703389 0.13321827 -0.046817612 0.05916637 -0.14995813 0.04628179 0.12637523 0.13215087 0.01121436 -0.08104269 -0.032085188 -0.10627284 0.07026713 -0.20879138 0.10868579 0.09793446 0.346746 -0.16083983 -0.13558282 0.062287886 -0.059584115 0.015618266 -0.02464901 -0.044859726 0.12047987 -0.010999963 -0.16624181 -0.102442555 -0.02029501 -0.08240478 -0.25418028 -0.29366443 -0.1023182 -0.09975289 -0.18989557 -0.14757825 -0.45308188 -0.008052992 -0.08100452 0.13505334 0.055985436 0.12611398 -0.22206862 -0.08661013 0.16983886 0.010586143
972 -0.035507206 -0.10762377 -0.09780645 -0.051267743 0.17992117 -0.11079424 -0.008987345 -0.06550382 0.21678999 -0.15460393 -0.1453639 -0.034611482 -0.002052625 -0.06890411 -0.35039005 -0.12866147 -0.06288975 -0.020235645 -0.2543995 -0.113848686 -0.069401555 0.26745355 -0.050752044 0.2514636 0.105435215 0.04127119 -0.14012885 -0.08340723 0.23514986 -0.030869579 0.25602308 0.14136714 0.0024567798 -0.106442265 -0.13430567 -0.019810172 -0.009339473 0.016353225 -0.08115405 -0.13614857 -0.12531145 -0.020955352 -0.14925325 0.01365083 -0.06686404 -0.045533404 -0.3416404 0.11546211 -0.048409704 -0.08310497 -0.19409361 -0.047252078 -0.039282057 -0.29916304 -0.30253124 0.08331439 -0.21023417 -0.0303902 0.322736 -0.050874326 -0.055452526 0.027649943 -0.035767443 -0.18093747 -0.10291867 0.43280426 -0.14545792 -0.085303426 0.042660322 -0.05395989 -0.096275695 -0.023031598 -0.026604446 -0.032530498 0.057421904 -0.19781116 0.021248763 -0.15132222 0.09657123 0.024732528 -0.19987519 -0.30495262 -0.0132484855 0.09912387 0.018150762 0.04527979 -0.23685098 -0.15847749 -0.07458011 0.04316212 0.05209138 0.25438574 -0.084621504 -0.062408917 -0.15068646 0.23974164 0.01199172 -0.15761308 0.15898806 -0.17675078 -0.25749323 -0.16764791 -0.12660481 0.041902516 0.06617774 0.16891816 0.041392952 0.06451271 -0.0004995602 0.13406606 -0.22392637 0.15539528 0.019787997 -0.05557891 0.12778622 -0.053119693 -0.29236475 -0.2965417 -0.088953696 0.09115081 0.17701806 -0.08772443 -0.23653863 0.019534081 0.13166857 0.013910778 0.060326386 -0.020361776
1329 -0.10062053 -0.046624854 -0.20355119 0.042085465 -0.018813986 -0.27425388 0.060944468 -0.083535075 0.18899171 0.123365305 -0.055028535 0.084900565 -0.13792506 0.201417 -0.16266757 -0.17202616 0.069908746 0.08368029 -0.019833863 -0.2248645 -0.015312388 0.028990896 -0.023021515 -0.24040006 -0.052005377 -0.030234631 -0.15535799 -0.022126256 -0.061583906 -0.14488098 -0.18538092 -0.13377543 -0.07972677 0.069819264 -0.059594072 -0.104029 0.1802392 -0.11070978 -0.018834397 0.17773615 -0.13035703 0.3136369 0.14872834 -0.19540684 0.082353964 -0.1920894 -0.017041355 -0.17599663 -0.05408998 -0.028535066 -0.045197792 0.07480701 0.13207334 -0.23019116 -0.08632274 0.06314059 0.054342672 0.14022866 -0.08744615 -0.10714643 0.2003701 -0.09336797 -0.1072619 0.0073071453 0.03624939 0.23604694 -0.013839653 -0.0969396 0.1671806 -0.23994853 -0.0474213 0.05993994 -0.22059259 0.15421195 0.14914015 0.10751037 -0.050039455 -0.03815866 0.20084128 0.44346234 0.0851142 0.23033446 0.042648673 0.019761471 0.25071082 0.25038525 -0.10080876 -0.013897287 -0.021863554 0.3272781 0.04372998 0.010741736 0.3301657 -0.033477705 -0.044297166 0.11022848 -0.40008134 -0.03835035 0.008280306 0.019453479 -0.09945965 0.0818797 0.030930316 0.22404294 -0.087579444 -0.1216303 0.16840862 0.0018618124 0.022207337 0.19543451 0.06088611 -0.103848726 0.034085307 0.1503538 0.2332053 0.06181488 0.16005048 -0.11104197 -0.1338606 -0.2281314 -0.24520986 0.010706589 0.03425836 0.04718867 -0.15947545 -0.11321247 0.1489205 -0.041888528
1288 -0.009533847 0.025442356 -0.11502793 0.09676312 -0.09386626 -0.0009863847 0.008153156 -0.23405288 0.19412754 -0.072421506 0.0058861035 -0.051950425 -0.09843413 0.03113861 -0.13656591 0.078821555 0.00419483 -0.10507339 -0.22994676 -0.061577242 -0.23543166 0.0102424435 0.10675212 -0.21252252 -0.10642944 0.13346013 -0.055300914 -0.21369717 -0.056585483 -0.02030704 0.057843674 0.2088731 0.07245001 0.15381996 -0.10634709 -0.10087109 0.013638415 -0.2888562 -0.0131642725 -0.04075917 0.015143819 -0.039050236 -0.030575871 -0.045896817 0.13026896 0.051951233 -0.060358793 0.0109281475 -0.08999132 -0.101444684 0.0061962637 -0.06804356 0.40314865 -0.19678201 0.08347826 -0.0037998485 -0.06367248 -0.40993428 0.029550709 0.044520047 0.15580754 0.10442613 -0.053888954 -0.15845907 -0.19800636 0.1929118 -0.044299528 0.022654954 0.07102582 -0.03804615 -0.12186123 -0.10035594 0.17283677 0.0566535 0.20526506 -0.053559653 -0.3599669 -0.20562476 -0.20672897 0.29574153 -0.12850277 -0.20158923 -0.007115986 0.17950623 0.067573905 0.063394584 0.10471975 -0.02986103 -0.004276769 -0.0032705416 0.11671859 0.1593874 -0.006591678 -0.04162258 0.2541225 0.0049698083 -0.010791087 -0.11066914 0.04873656 -0.024991868 -0.12115983 0.044494588 0.046947923 -0.12026552 0.16513613 -0.2075752 0.0011993772 -0.02066469 -0.06512003 0.027500745 0.028009396 -0.20525092 -0.28882995 -0.07807707 -0.12267227 -0.10079239 -0.16694482 0.022833306 -0.076961346 -0.17477763 0.15697275 -0.10242889 0.15674536 -0.07604165 -0.08501079 -0.04605855 0.17862448 -0.14241822
342 -0.120017305 0.082138665 -0.18550019 -0.048242636 -0.032068398 0.06674612 0.20953187 0.05728839 0.11672113 0.19425829 -0.036513947 -0.19998375 0.13564762 0.113984585 0.08366467 0.033168174 -0.13622962 0.11583108 0.015543181 0.14741671 -0.02901505 -0.06873196 0.032721743 -0.027415017 -0.079765305 -0.383132 -0.34006104 0.062812865 0.16331698 -0.018583091 -0.12784922 0.08867851 -0.16650262 -0.106650785 0.0059742075 -0.25347447 0.12693992 0.062412947 -0.13065276 -0.063010596 -0.13598745 0.00069796556 -0.08186715 0.07396231 -0.09787931 0.14765216 -0.32792225 -0.26587105 0.0008834768 0.12569436 -0.15053952 -0.2686324 0.0191009 -0.09832243 0.20683622 0.015982812 -0.013330082 -0.08011053 0.014098303 -0.1583739 0.09432027 0.04348192 0.13226259 0.077119015 -0.02481382 0.1663725 0.10761244 -0.24777505 0.30632502 -0.13513458 -0.06512019 -0.0778734 0.051909983 0.05812899 0.00050025695 -0.05774505 -0.2085129 -0.07846813 -0.032211155 0.3034613 0.23112307 -0.107523866 0.050676722 0.099586636 -0.06851295 0.15169567 -0.009686364 -0.14129308 -0.21880184 0.07094491 -0.16551559 0.29718032 -0.027147323 -0.027086103 0.07913173 0.103282094 0.10095157 0.04399804 0.059393525 -0.0010989321 0.16016737 0.012310626 -0.08612414 0.070790485 -0.1343222 -0.17785038 0.112347804 -0.26945475 -0.075332776 -0.054950256 0.04065012 0.21393965 -0.15148641 0.018204078 0.1015575 -0.12144353 -0.06089633 0.004278558 -0.14817525 -0.07896001 -0.18823013 -0.020833911 0.095571265 0.009605826 -0.2351115 -0.046278983 -0.20228007 -0.09085672
356 -0.012990719 -0.14299712 -0.105741434 -0.012775097 0.037140474 -0.038085442 -0.06719769 -0.04857043 0.17417237 0.038392365 0.00702624 -0.13707897 0.05049699 0.11276737 -0.10393341 0.20215233 -0.008389013 -0.15139017 -0.21958151 -0.12221652 -0.00048418035 -0.20041378 -0.06686528 0.0066339676 -0.019550791 -0.06758318 -0.27928618 0.1394258 -0.13924451 -0.103113875 -0.24989341 -0.1578729 0.09265936 0.024721269 0.0057353703 0.18019582 0.19891027 -0.0008062762 -0.11035949 -0.11884284 -0.22849178 -0.18470262 0.009271949 0.15021878 -0.032346267 -0.06856707 -0.1758404 -0.14983813 -0.048541877 0.02601227 -0.26965463 -0.16099003 -0.05194184 0.17106923 -0.11534924 0.024449326 0.062245402 -0.044956144 -0.09216868 0.014283118 0.06674377 0.13973817 0.02047872 0.0081282295 0.031539872 -0.015407591 -0.059894547 -0.25489482 -0.2286647 0.19837515 -0.004244777 0.12770548 0.14068717 0.16361116 0.17862898 0.05986951 -0.05964473 -0.22593804 0.26469302 0.10793297 0.022219326 -0.17616883 -0.09594621 0.1808116 0.11455877 -0.07449363 0.011650601 -0.10346787 0.1339898 0.03757241 -0.021399215 0.14132969 -0.13248606 -0.077039 0.15603699 0.0128343 0.19305204 -0.13591297 -0.026969189 0.2492693 0.06486599 -0.10709469 -0.02330849 0.12157805 -0.04713539 0.10827332 0.29156482 -0.19695081 -0.18503882 0.057295576 -0.05254539 0.10998645 -0.11953236 0.052670565 0.13856553 -0.15105717 0.059867825 -0.05281309 -0.12530869 -0.0806817 0.1144556 -0.1950526 0.093326524 -0.21628067 -0.0025311916 -0.061549213 0.045706317 -0.08805407
239 -0.059906214 -0.033158403 0.19701138 -0.13358092 0.11475866 -0.27064815 0.03198577 -0.22322677 -0.07074127 0.062390734 0.13991173 -0.020689825 0.025117101 -0.12896106 -0.1022967 -0.02805876 0.03763921 -0.30368823 -0.21273695 -0.14359897 0.06244412 -0.2522842 0.14091375 0.119413346 -0.14371891 -0.2902049 0.035569824 0.20789726 0.14402665 0.006231607 0.08501565 -0.21867229 -0.15112503 0.040467236 0.024063108 -0.0072262306 0.04927431 0.014655652 0.08526649 -0.20298484 -0.1030451 0.14705077 -0.15330839 0.060557883 -0.16567956 0.21648577 -0.14663236 -0.21373506 0.14573883 0.006614737 0.1161999 -0.048073266 0.010663292 -0.16729034 0.11589731 0.07747669 0.06596849 -0.040308975 0.027129691 -0.101018704 -0.17184737 -0.20857891 -0.07696533 -0.08255259 0.11092282 0.3320785 0.19080257 -0.21726824 -0.15909974 -0.10035882 -0.50804895 0.09449175 0.050914712 0.24962544 -0.16706869 0.12400804 0.036677584 0.068861574 0.25197583 -0.03360212 -0.09932817 -0.17644109 0.07073028 0.19763109 0.017588573 0.16546492 0.021039734 0.008791996 0.42348003 0.17981616 -0.0064265793 -0.004608372 0.14307907 -0.18834445 0.26638356 -0.14534354 0.09875304 -0.1543575 0.04803348 0.23150185 -0.090430275 -0.0045114146 0.081319004 0.038523447 0.051927526 0.10395468 0.17940307 0.007848225 -0.11079132 0.0593865 -0.002514753 0.1187871 -0.10714215 -0.13692334 -0.023898736 -0.1195987 0.12705642 0.045946088 -0.09736529 -0.024373963 0.1739877 -0.1792287 0.03289412 -0.11508185 -0.15739909 0.091969125 0.107857816 -0.091679215
1308 0.0579888 0.017232586 -0.023575723 0.108026 -0.009941414 0.121587105 -0.025256688 0.00932251 0.045442693 0.050158367 0.054295544 0.013694669 -0.20090675 -0.20495246 -0.16892785 0.04336824 0.12412243 -0.019439157 -0.12029597 -0.1681345 -0.07522053 -0.04435433 0.20171796 0.2615098 -0.21157344 0.09776648 -0.066229716 -0.032157272 -0.03844743 -0.24558024 -0.05862203 -0.19731623 -0.2806181 0.29355752 -0.048599094 -0.1528914 0.10289264 0.07794595 -0.038654663 0.05866867 -0.15937011 0.07141049 0.19590932 -0.08723261 0.0688524 -0.12191212 -0.17676227 -0.16042258 -0.033941165 -0.0011164749 -0.3759896 0.16031246 0.34808347 -0.089423954 -0.18156976 0.036952622 -0.05321026 0.40536872 0.19648172 -0.1296528 0.15353492 0.010455242 0.10458571 -0.085338585 -0.07301794 -0.14134844 -0.103112005 -0.019743564 -0.08771231 -0.09025681 -0.11549469 -0.21394628 -0.1251991 -0.22985937 -0.20701215 0.033597637 -0.044673268 0.068300396 -0.02582062 0.013553501 -0.17735268 -0.09287195 -0.20689332 -0.20021373 0.12865442 0.2572153 0.07506488 0.06437071 0.015031239 0.15542974 -0.19446333 0.081362695 0.25305462 -0.009625602 0.2370144 0.23443285 -0.032452367 0.14523765 0.08890096 -0.116871506 -0.28915212 -0.20428099 0.1159856 0.12907597 0.14813237 -0.25075054 -0.16501716 -0.22029965 -0.042635895 0.197311 0.07047392 -0.0036512385 0.049605794 0.12989974 -0.12555659 0.20188822 -0.20964342 -0.2773598 -0.47043392 0.11055145 0.015113088 -0.10951619 0.037834324 -0.01778372 -0.069166176 0.093188114 0.15200634 -0.27417985
934 0.02692716 -0.12185765 -0.0366116 0.07776537 0.19400343 -0.054066584 -0.09473626 -0.22249253 0.27934483 0.2870722 0.06477971 -0.024883518 -0.22192937 -0.05924227 -0.22590858 -0.029603975 -0.12709193 -0.07503359 0.060329814 0.035174638 0.015072773 0.014865112 0.10317198 -0.038981896 0.16141957 -0.035920333 -0.15282293 0.0053425715 -0.045232173 -0.053864017 0.13850573 -0.09005573 0.043432776 -0.08042615 -0.12067021 -0.15290704 -0.0007803933 -0.10177886 -0.09139215 0.005930854 -0.15420085 0.0689521 -0.14214312 -0.16868562 0.014389102 0.03913781 -0.12084593 0.073135 0.095881626 0.08446464 -0.2072578 0.09983588 0.3702201 0.058189336 0.200322 -0.22891504 -0.18875463 -0.12514086 0.008836008 0.06767251 0.058715183 -0.1244758 -0.068727724 -0.026675206 -0.17630376 0.20181166 -0.025715979 0.10948599 0.15261954 0.11170988 0.116593726 0.021912197 0.025068348 -0.1435118 -0.16319405 -0.027007421 -0.17153709 -0.10417558 -0.056161117 -0.004149227 0.050300088 -0.29930294 -0.21833955 0.10130298 0.075928345 0.24085161 -0.11057468 0.069300815 -0.011263685 0.096837014 0.18534982 -0.22664213 -0.073819526 -0.06901417 0.27756792 0.105503336 0.1719025 -0.009787841 0.16710898 0.03553431 -0.005257051 -0.13151678 0.17341135 0.10530051 -0.066262856 -0.08143671 0.13261402 -0.16581944 -0.10750362 0.08407442 -0.19643013 0.150853 -0.20274404 -0.14254132 0.023444057 -0.11347533 0.05696504 -0.059197154 -0.22594064 -0.13681969 0.006012789 -0.014951002 0.0050376137 -0.26724467 -0.11312698 0.10143208 0.011099078 -0.043488298
941 -0.09256572 -0.20070258 -0.059752688 -0.10542435 -0.22002369 0.16938701 0.04301754 -0.005837079 0.13248855 0.10736134 0.04295829 -0.14032497 -0.3698528 0.11453285 -0.15553193 0.16776708 0.05628193 -0.0039627356 -0.14715683 0.04147831 0.029036395 -0.12736206 0.12187053 0.008237616 -0.03234632 0.054543264 0.40229538 0.08936183 -0.15847723 -0.03888017 -0.35088798 0.13349138 -0.082130045 0.007866496 -0.060876314 -0.31000903 -0.31221923 0.15264553 0.0059939623 -0.013257079 -0.018009204 0.07944253 -0.028465662 -0.021776278 -0.08353631 0.13160466 -0.24437672 -0.08551155 0.04175982 0.054541253 -0.028298823 -0.15763202 0.42919165 -0.17274703 -0.027094036 -0.025248563 -0.12790285 -0.11366924 0.39226538 0.1552916 -0.144217 0.2679535 0.04622131 -0.22282222 -0.19587247 0.19449557 0.14464466 -0.18442851 -0.3073633 0.08505663 -0.24968964 0.051883075 0.0722271 0.15404177 0.15111564 0.04571987 -0.03181162 0.20778745 -0.041275848 -0.0821708 0.047755636 -0.17642985 -0.3965653 -0.17453586 0.35403484 0.025354085 -0.16358711 0.27948654 -0.013739692 0.1807933 -0.051116996 0.4058617 0.090120375 -0.11508733 0.2760803 0.18767297 0.055818208 0.024470525 -0.07918714 0.08681099 0.0100824395 -0.19705476 0.09334177 0.31119138 0.085831754 0.014439921 0.1375901 -0.29077843 -0.0062309727 0.04860639 -0.02734694 -0.07991136 -0.09953421 -0.11489248 0.30409545 0.061554927 -0.38536245 -0.18026635 -0.12367028 0.18483855 0.081461854 -0.12181314 -0.31229332 0.10845899 0.17884608 0.10622731 0.10600392 -0.023505926
466 -0.04617366 -0.075538516 -0.19956343 0.052405678 0.09738691 -0.06837483 0.07232641 -0.15698232 0.13698362 -0.18464333 0.0965904 0.061617896 -0.23826295 -0.053446725 0.04429337 -0.027433662 -0.18303101 0.20437977 -0.23898558 -0.29306 -0.07659297 -0.17722812 0.028750898 -0.05637803 -0.30492717 -0.12566496 -0.024067659 0.102365375 0.15817417 0.09871529 0.013216941 0.16683684 -0.20651506 0.074338734 0.05189854 -0.22870992 -0.089388534 -0.07129287 -0.16592158 -0.24531524 0.01185767 0.10244459 -0.15108411 -0.118262365 -0.07349812 0.0051369965 -0.28936005 -0.099824615 -0.24762146 -0.0484788 -0.028986644 -0.017391814 0.20439902 0.054475196 -0.18389446 0.3069615 -0.12171461 0.036381993 -0.14963225 -0.024116533 -0.19194923 0.16964781 -0.37631467 -0.021297818 0.05939461 0.19712773 -0.008338535 -0.14714238 -0.11119928 -0.024401901 -0.06975455 0.05145408 0.067533806 -0.0021181242 -0.023453532 -0.23109534 -0.06338962 -0.03809451 0.19997628 -0.036288884 -0.13347223 -0.10959089 -0.044490937 0.18337741 0.16842103 0.10470431 -0.035807926 0.019121947 0.021000292 0.08024804 -0.0024914497 0.25493824 -0.0858432 0.036133006 0.07225608 0.02744751 -0.08252595 0.09261231 -0.23303144 -0.14642657 -0.08251086 -0.019140443 0.011930575 0.24975339 -0.074774615 -0.05075583 -0.06320069 -0.12756753 0.13135125 0.024131197 0.0028023254 0.09252624 -0.10640795 0.025337815 0.16817114 -0.00026571343 -0.10776372 -0.07848962 -0.22942817 -0.09303664 -0.02869354 0.032203216 -0.07439252 -0.20000781 -0.09389262 -9.634917e-05 0.04285492 0.035172723
128 0.095445186 -0.20729671 -0.15707526 -0.035316985 -0.1487391 0.026389243 0.022904474 0.07201657 0.099832535 -0.27186313 0.18055898 0.038436398 -0.22954237 0.06944701 -0.12640353 0.0004715031 -0.10400226 0.18257517 0.1372479 0.076264195 -0.102883086 0.061697338 0.009012643 0.026243357 0.11730579 -0.101377234 -0.35593927 0.041295085 -0.0018803366 -0.10688735 -0.05841931 0.17013724 0.05821358 0.13851562 0.0456111 -0.098193005 0.09611538 0.2252626 0.15501948 0.06655316 0.06330444 -0.01914211 0.14578597 -0.048463766 0.018923491 -0.0024635794 -0.02581247 -0.1627786 -0.17590421 -0.19115886 -0.1078199 0.0712986 -0.03462024 0.28865966 -0.0979122 0.07808921 0.035460748 0.38875198 -0.0118396785 0.0059527145 0.22650553 -0.009627043 0.069593206 -0.13749304 -0.054330546 0.19030958 0.27714574 -0.39335862 0.098982506 0.04236282 -0.23967753 -0.11503752 -0.06929759 0.1200933 -0.07914685 0.113630585 -0.16992617 0.060161 -0.20223337 0.08179263 -0.119027376 -0.3025809 -0.05398907 0.07572209 -0.08358313 -0.021947928 -0.2603575 0.11030147 -0.002107316 0.06310437 0.022880156 0.16552128 -0.0041774483 -0.09353067 0.11372518 -0.039550982 -0.13001938 0.14955208 0.14366162 -0.23871754 -0.07967604 0.084896356 -0.032868177 0.15824029 0.17675354 -0.16666782 0.34744588 -0.1125072 0.011008794 0.2884015 -0.18103625 0.05527806 0.09059499 0.20085303 0.20708847 -0.06197699 0.16916323 -0.014458612 -0.17751832 0.06460888 0.139825 0.11534281 -0.043989312 0.11538522 -0.092195675 -0.020499503 -0.026883883 -0.29061398
868 0.001380913 -0.06329299 -0.150815 0.0055488353 -0.03774518 0.25139773 -0.009095098 0.009911697 0.20736282 0.17719577 0.14217822 -0.045512166 -0.055755865 0.020139014 -0.33406395 -0.19559169 -0.13895644 -0.101619706 0.007917753 -0.05698131 0.1430871 -0.026971761 -0.2747898 0.06291255 -0.033671446 0.028078727 -0.112169795 0.13719425 0.095368885 -0.009418464 0.039328102 0.002306639 0.10591511 0.030807352 0.16349715 0.014605004 0.11326033 0.14094757 -0.114772424 0.073305756 -0.19829045 0.023869231 -0.03577735 -0.21631743 0.08653007 -0.14932673 -0.2972836 0.07724293 0.2854345 -0.18834075 -0.2416712 0.07611745 0.07535994 -0.17475997 0.049243413 0.093855284 -0.020461112 0.08265347 -0.021978483 0.29748 0.055052634 0.2538111 0.044116855 -0.14524904 -0.060846265 0.0602487 0.22256503 -0.10290324 -0.031099033 -0.12537366 -0.013826252 0.15382199 -0.20505154 -0.13343002 -0.094470784 0.12373543 -0.020985017 -0.20730716 0.123028345 0.06855197 -0.14211716 -0.15888318 -0.032537382 0.2711619 0.19897513 -0.14827858 -0.01787961 -0.036706388 0.07334418 0.2920047 -0.021143828 0.08988757 0.2402068 0.03349436 0.021250153 0.06313997 -0.23554474 -0.08716664 -0.25898984 0.14111736 -0.10838687 -0.10466392 0.14189036 0.03576302 -0.08612121 -0.16004269 0.062821396 0.025038663 -0.10558526 -0.14936681 0.09665549 -0.0038332173 -0.0126366 0.04190754 -0.21923153 0.067219645 -0.046962477 -0.27730343 -0.11883518 -0.17480113 0.043829788 -0.09955341 0.17495231 -0.15492114 -0.21894863 0.07580513 0.124466754 0.01812795
1238 0.1484066 -0.04004386 0.104802236 0.035127327 -0.108274415 0.039540164 0.12081175 -0.005972033 0.2879992 0.09833669 0.037736673 0.015180703 -0.02263312 0.014911157 -0.33701503 -0.12477415 -0.10569317 0.23616116 -0.0883896 -0.042325564 0.010373082 0.18164252 0.13346364 -0.030680608 -0.054852292 -0.2598446 -0.36950076 -0.084641226 0.071450986 -0.032515604 0.004937423 0.05495348 0.057317257 -0.008084307 -0.03650922 0.10784669 -0.12802924 0.0971004 -0.15107653 -0.1943941 0.16665842 -0.014851518 0.22293404 0.04346811 0.07268081 0.083155826 -0.12236136 -0.2156957 -0.1896964 -0.053367563 -0.06328073 -0.20746604 0.24871893 -0.14987153 0.07131971 0.14162226 0.052148797 0.14162202 -0.052477308 -0.01602157 0.10463501 0.08672002 -0.014448563 -0.24557902 0.0777135 0.021760965 -0.09516936 -0.058508433 -0.08382704 -0.35637707 -0.20175306 -0.09307635 -0.03403426 0.01163703 -0.007505343 0.07041865 -0.07218628 0.04655324 -0.13068025 -0.0140444925 -0.03339482 -0.10506611 0.17242594 0.11725516 0.10581006 0.13139799 -0.08915464 -0.08498961 -0.13612755 0.21178485 -0.061094005 0.040482298 0.028132215 -0.019533055 -0.14944504 0.25384265 -0.09022465 -0.1398196 0.19690211 -0.12881127 -0.031869967 -0.19856852 -0.019731473 0.19718513 0.042322576 -0.23738284 0.25276715 0.17563368 -0.03846738 -0.07224036 -0.11355121 0.050922744 0.16048531 -0.35366768 -0.13661692 -0.0834559 -0.19852059 -0.03188412 -0.19579132 -0.12935525 0.16290998 0.13092999 -0.034617934 -0.22159414 -0.060341697 -0.023340013 0.024459364 -0.02274012
416 -0.07041368 -0.09579622 0.16690677 0.08562951 0.046243783 -0.11373874 -0.109026 -0.058599517 0.034357246 -0.022076879 0.016467212 -0.14885876 -0.021287315 0.049797025 0.0068452363 0.013587319 0.0074449284 -0.18268172 0.16995141 0.100840926 0.07500849 -0.017718088 0.066379726 -0.12071224 0.037978925 -0.21952769 -0.1492263 0.04212654 -0.009673693 -0.13442878 0.15830125 0.047059044 -0.14879209 0.06966096 -0.03826511 -0.18386964 -0.26956865 -0.03172644 -0.02822739 -0.14143658 -0.1948533 0.08911348 0.04316686 0.27366984 0.084185064 -0.06813879 -0.2895671 -0.12915657 -0.03494181 -0.09442173 -0.07148719 0.059078258 0.20489329 -0.31028232 -0.105183214 -0.014577835 -0.010483911 0.029289788 -0.17681088 0.0014006944 0.18308072 -0.25128052 -0.08185603 -0.07864943 0.09739554 0.18194003 -0.02633463 -0.1377222 -0.015761342 -0.23445526 -0.041774265 -0.25994638 0.08163005 0.058893837 0.20392637 0.30533242 0.07166912 -0.21955131 -0.010665432 -0.0031744165 -0.026259193 0.08244776 0.059296522 0.1843985 -0.024482815 0.2075768 -0.04176107 0.010496808 -0.12273847 -0.17071694 -0.020448275 0.31464508 0.038235836 0.0141953705 -0.040256493 -0.041121837 -0.08027671 -0.11651027 0.26306638 0.07323041 -0.013859853 0.14879718 0.008217303 -0.048230547 0.29038695 -0.042124204 0.116443716 -0.07584154 0.052560452 0.16834192 -0.017258555 0.07781414 0.12479019 -0.019490017 0.18771565 -0.052331 -0.27870977 -0.007612475 -0.35756946 -0.23469448 -0.14985132 0.00796375 -0.0011330344 0.03731934 -0.39828047 0.033925734 0.29360798 -0.06705734
1267 0.27291563 0.014276296 -0.054780733 -0.14083686 0.0042511486 -0.0014868955 -0.031997204 -0.15858567 -0.06703765 0.020852739 -0.04262364 -0.12301312 -0.20460244 -0.041548602 -0.22507471 -0.022151524 0.029308094 0.07667522 -0.0026380578 0.003057446 -0.2012654 -0.04597138 0.09999108 -0.042492952 -0.19852966 -0.07633423 -0.21185513 -0.23796006 0.04949068 -0.12393665 -0.34968823 -0.16878925 -0.101992466 0.07545284 0.2188786 0.024011644 -0.12610804 0.009510896 -0.20320877 -0.07213881 -0.05900113 -0.12796813 0.017226532 0.03850575 -0.12221854 -0.057475455 -0.24418013 -0.109605566 -0.06458731 0.002712176 -0.1297791 -0.021129768 0.47664773 -0.1404246 0.09355718 -0.06960328 0.162608 0.007838038 -0.03308653 0.1679128 -0.0894386 0.08861567 0.12546276 -0.013653253 -0.13454318 -0.031244982 0.028607912 -0.028034132 0.12029822 -0.10423477 0.00890584 0.07234439 -0.1185916 0.0842023 -0.08125697 -0.20265335 0.028441358 0.064836875 -0.020262368 0.057274997 -0.09542227 -0.36658406 -0.06448822 0.024529673 -0.041430235 -0.027352385 0.030341305 0.17246658 0.19527593 0.09467213 -0.048832487 -0.03515302 0.074011 -0.017587798 0.120850176 0.023881935 0.19648528 -0.03381273 -0.023496665 -0.02472324 -0.3479059 -0.17742375 -0.15242481 0.018142905 -0.1211117 0.01688502 -0.13468583 -0.25862944 -0.052034557 0.0468789 0.016663386 -0.04478197 -0.27992588 -0.26681408 0.14160408 -0.2990066 -0.05589168 -0.053657744 -0.5206368 -0.012120136 0.123331584 0.0051726312 -0.014382688 0.21854101 0.16421282 -0.06393527 0.087263115 0.103261895
71 0.07766588 0.056189742 0.002503762 -0.034316592 0.12447674 -0.25157216 0.06121766 -0.09368148 0.14978616 0.06875404 0.05557755 0.08375199 -0.247897 0.08463477 -0.15499164 0.0074939844 -0.005184758 -0.023277253 -0.20587105 0.03159887 -0.08926149 -0.10434899 0.009212031 -0.024595844 0.039754335 -0.27604282 -0.09923904 -0.1125232 -0.058226656 -0.11675987 -0.09148479 -0.04362113 -0.20079646 -0.06818006 -0.31776497 0.21996588 0.37282902 -0.02938024 0.05789558 0.20081435 -0.124892905 0.22946706 -0.014366436 -0.0029105672 0.040310405 -0.06051416 -0.31708977 -0.04131651 -0.04788406 -0.2400121 -0.08164517 -0.042454157 0.14690283 0.06302901 -0.16973868 0.09402234 -0.24683924 0.2633501 0.10658964 -0.026159871 -0.07975412 -0.08105842 0.01107364 -0.1353287 0.04516999 0.23175508 0.2178457 0.08600561 0.10432001 0.20215374 -0.12683745 0.1276537 -0.0070028096 -0.017272668 -0.08892304 -0.26511395 -0.058514025 0.08810131 -0.0685548 -0.06974748 0.04121072 -0.11754926 -0.018266208 0.123027936 0.049304016 0.106374554 -0.031196345 -0.13462381 -0.0007167898 0.24413486 -0.038029917 -0.10010619 0.16660249 -0.18748912 0.014604766 -0.01797483 0.112846665 0.01683902 0.37185675 0.118511416 0.09553032 -0.10021919 -0.042607855 0.020643035 -0.1050236 -0.1201343 0.080316104 0.13087092 -0.20804529 0.2746258 -0.23317814 -0.10844588 0.14228904 -0.07268213 0.09315552 -0.08668704 0.01878336 -0.20833638 -0.037889306 -0.16260336 -0.06052149 -0.19217345 0.083363906 -0.33066544 -0.04418348 -0.10383919 0.1671588 -0.047923714
211 0.2528565 -0.0018107734 -0.21958517 0.022692366 -0.11081769 0.0123388935 0.016181529 0.17725681 0.16591567 -0.060802378 0.08524818 -0.013044641 -0.25603864 -0.067746155 -0.2869523 0.025249584 -0.060940262 -0.1549189 0.13467306 0.035130564 0.045927048 -0.29004517 -0.061324187 -0.08910192 0.10095707 -0.0712746 -0.015861092 -0.13027273 -0.006606101 -0.19338863 -0.11405806 -0.13642198 -0.10265932 0.061653595 -0.05466504 0.058158897 0.16631582 0.0042368993 0.10980684 -0.21139525 0.030983495 0.16386682 -0.22951466 0.15410231 -0.12522355 -0.033599645 0.0022635194 -0.06205729 -0.10043278 -0.21640918 -0.09936559 0.016324602 0.07739288 -0.24034834 0.07623152 -0.11607821 -0.14015433 0.07358968 -0.12367476 0.00713649 0.28414673 0.031600643 0.20730191 -0.15677506 -0.10754711 0.07387712 -0.04392292 -0.13676709 -0.0652073 -0.20654869 0.03658774 0.05244394 -0.027086027 -0.08444608 -0.21232665 0.2109507 -0.13636398 0.028380439 0.09650907 -0.06009272 0.20906843 -0.22409002 -0.0692614 0.229088 -0.14219958 0.08406282 0.084834725 -0.18786924 0.07223755 0.01611141 0.10694238 0.18208195 0.0075977854 0.12054535 0.1721605 -0.0720502 -0.040344156 0.026982225 -0.13047235 0.06681414 -0.13406897 -0.032790426 -0.27143887 0.1086853 0.080332845 0.060532283 0.046573307 0.22367406 -0.036933906 -0.06460648 -0.017055333 0.022742061 0.07293743 0.05987868 0.14344214 -0.08350523 -0.160496 -0.20067123 -0.30840853 -0.012087119 0.26272517 0.040578313 -0.027730104 0.057913188 -0.05096935 -0.07149874 -0.013689242 -0.02053685
515 0.1795068 -0.065062776 -0.10657794 -0.14339751 0.12909943 0.06197321 0.02270541 -0.15377773 0.24178159 0.034467496 0.1465479 0.15385962 -0.054793112 0.014806544 0.026187472 -0.09357545 0.04526328 0.021431254 -0.15394558 -0.22196905 -0.04489063 -0.48501402 0.07881836 -0.08458116 -0.1251651 -0.049766816 -0.076572336 -0.09124278 0.07968091 -0.06966907 -0.1021249 -0.059471417 -0.20451567 -0.116105944 0.16569734 -0.2573876 0.16807693 -0.0030144816 -0.063266546 -0.070878886 -0.22492015 -0.25570402 -0.027911162 -0.15706325 -0.051212147 -0.19868502 0.07819463 0.04360694 -0.014157011 0.026238464 -0.33376172 -0.13068335 0.29614177 -0.21755025 0.13907118 0.09713355 0.029363029 -0.15462027 0.2457994 -0.06504602 -0.099330924 0.06203195 -0.13302156 0.05330482 -0.14678232 0.1391807 -0.14694963 -0.2601174 0.0137786595 -0.018256849 -0.15812746 0.15680844 0.0043565584 -0.030492442 0.22108135 0.19907227 -0.038543373 -0.26360604 -0.038569648 0.12655565 0.20682174 -0.106988005 0.13577569 -0.08590495 0.02327119 0.37068167 0.08120169 0.17433427 0.06608151 0.16232099 -0.21611822 0.14198457 -0.11486051 0.16949609 0.078226715 -0.047629207 0.033050116 -0.24927574 -0.107441396 -0.030419659 -0.073564574 -0.052776657 0.15081213 0.16667107 0.029435884 -0.040661816 0.07863503 -0.012233716 0.0053458395 0.12860301 0.08265876 0.048600506 -0.0653129 0.15201318 0.16747372 0.043480888 -0.17394808 -0.1104109 -0.14173672 0.08343816 0.016944315 -0.06515933 0.16503929 0.015159671 0.05863956 0.061705552 0.12789018 -0.16818869
571 0.13202721 -0.23057249 0.05035324 -0.009974794 0.035073146 0.1805444 0.17441542 0.07446443 0.44732305 -0.0011416493 -0.09589509 0.2553425 -0.1461153 0.017353255 -0.08428777 -0.0035654013 0.035901442 -0.008452828 -0.05215338 0.16749758 -0.019418014 -0.14571328 0.03477984 0.13403969 -0.07324968 0.040816687 -0.084556095 0.087495 0.0048962473 0.04275241 -0.09561894 0.12836574 0.07026621 0.25423434 -0.22700337 -0.011063241 0.008444691 0.21972603 0.108568706 0.087445036 -0.17061092 0.12763654 0.17221433 0.13326193 -0.28982428 0.0844052 -0.20514776 -0.18192464 0.17044018 -0.22567984 -0.058922607 -0.22937566 0.15683368 -0.029125143 -0.010242461 -0.24694169 0.119486615 -0.030813226 0.09506367 0.08761666 0.119727515 -0.0967417 -0.011526087 -0.089881085 -0.0022122497 0.07873374 0.027472043 0.1422929 0.04595498 -0.065807335 -0.14259765 0.006241967 0.009306814 0.08525112 -0.20997237 0.15985216 -0.13154466 -0.26412788 -0.030154586 0.10754122 -0.002915686 -0.08906199 -0.0026796344 0.18983169 -0.06894911 0.12663616 -0.2574491 0.05426306 0.28775698 0.11298017 -0.04272151 0.13021328 0.13666688 -0.22334626 0.112553254 -0.015444408 0.25625703 -0.03125584 0.20371853 0.1346349 -0.021491926 -0.26405445 -0.056181002 0.17582427 0.08582635 -0.16824205 0.12015202 -0.12760015 -0.05063636 0.100849606 0.05911622 -0.1717988 -0.2634407 0.18060106 -0.18371852 0.0244794 -0.008771015 -0.08590327 0.020086965 0.06588102 -0.058730166 0.03416628 0.13208762 0.13014768 -0.08213519 -0.10199254 -0.025928155 0.019785507
158 -0.07402891 0.024202503 -0.18761055 0.03294498 0.1531676 0.06726152 0.05888785 -0.14559898 0.049952164 -0.006491992 -0.28344974 -0.123467796 -0.05819066 -0.18816043 0.03710937 0.10745549 0.15003355 0.081703216 -0.19809076 -0.076615855 -0.16068381 -0.30956718 -0.0064678392 0.09374603 -0.08702481 -0.10620747 -0.22262423 -0.02102311 0.09923703 -0.31920344 0.0036269086 -0.05038375 -0.10486683 -0.24746682 -0.18003927 -0.013243859 0.01310863 0.18943328 0.009422737 -0.17926547 -0.17878284 -0.040364265 0.080803126 0.091630965 0.03705498 -0.13711552 -0.3167383 -0.24886332 -0.02322835 -0.23477478 -0.08019539 0.034977738 0.1399786 -0.048446134 -0.061671503 0.2590637 -0.08047019 -0.054924175 -0.1230765 -0.07770438 0.09383763 -0.039089367 -0.0333523 -0.3313585 -0.1412794 0.015454293 0.0237594 0.005812647 0.0017653821 -0.19774908 -0.1194941 -0.07298035 0.1926363 -0.12377301 0.027210772 -0.05950733 0.0073841284 -0.0830385 -0.064373836 0.08397785 -0.03398046 0.034844674 -0.27022114 0.111631155 -0.23349218 -0.032035913 0.09767924 0.083334684 0.10362248 0.03293743 -0.021738335 0.07964477 0.05531138 0.06959712 0.10376853 0.054521494 -0.2466898 0.018750152 0.25495803 -0.10895008 -0.11195308 -0.0678256 0.0078755235 0.1825173 0.07052403 0.13217926 0.19000255 -0.014345923 -0.15680279 -0.05204708 -0.12353565 -0.1023252 -0.07866722 0.027139185 -0.1274883 -0.12756467 -0.033194784 0.06681775 -0.1786038 0.0016809549 -0.073503986 0.1501903 -0.1663627 -0.31475165 -0.11979485 -0.023613337 0.0065413504 -0.19068709
1330 -0.09800702 -0.11463663 -0.12744537 0.06801911 0.05794829 0.14187023 0.012227172 -0.0447906 0.0651214 -0.2912328 -0.22124493 0.033229694 -0.03576444 0.008739208 -0.0892055 -0.06938579 -0.12355876 -0.07100599 0.052058008 -0.020433538 0.030319475 -0.02714428 0.28154877 -0.06174995 0.052146114 -0.08693901 -0.023313144 -0.06790986 0.21797806 -0.0960382 -0.12348528 -0.15108943 -0.13015859 0.042691473 0.070497 -0.16149998 -0.011139376 -0.044787515 -0.26964682 -0.05359711 -0.19937845 0.26809347 0.06612417 0.06124315 -0.07491661 -0.19722633 -0.1877201 -0.06298779 -0.3162861 0.09419159 -0.061327204 0.060376186 0.086472735 -0.04145002 -0.038028978 -0.042259727 -0.18671972 -0.061748475 0.11487081 -0.10671 -0.0039855465 0.16707738 -0.08978113 -0.16703887 0.06827037 -0.020874765 0.08678124 -0.17213844 0.1033133 -0.3786828 -0.19489507 0.10958042 -0.050180484 -0.0663271 0.1759468 -0.015701428 0.06084829 -0.15124565 0.13106051 -0.018143794 -0.1280267 -0.04820416 -0.091419056 -0.107931934 -0.08371051 0.071419 -0.012270404 -0.03093396 0.09799477 -0.21785969 -0.051114168 0.31577748 0.025854321 -0.04087007 0.1143774 -0.055763166 -0.04037525 0.028079519 -0.040191326 -0.06461115 -0.049150415 -0.015379322 0.22806457 0.11375581 -0.008187073 0.113409184 0.26690736 -0.314323 -0.1959202 0.11333971 -0.026967844 0.03607324 -0.24484453 -0.13571805 0.11765676 -0.07833571 -0.1275038 -0.088677905 -0.0736208 -0.0074841515 0.034581203 -0.11946681 -0.0466986 -0.05574212 -0.13175884 -0.212351 0.1055544 0.059181888
282 -0.025455661 -0.0062877266 -0.00039103115 0.1324817 -0.38474002 -0.018939454 0.19287117 -0.3309313 0.18320918 -0.058077335 0.0554732 -0.10846325 -0.026916828 0.14551374 -0.14899133 0.13492398 -0.014092656 -0.08585355 -0.34477034 0.17340621 0.044812027 0.29974046 0.07343255 0.1333743 0.16482581 0.05457003 -0.1638749 -0.08119556 -0.106026895 0.11994864 0.025546482 0.24090986 -0.051410392 -0.19014889 0.058654644 -0.12370999 0.2840444 -0.14121313 -0.13563833 -0.09461191 -0.14091803 -0.08789836 -0.12903145 0.047282405 -0.037433196 -0.13601168 -0.05201246 -0.2828887 -0.031898465 -0.053767677 -0.18768361 -0.08860111 0.10501289 -0.048672102 0.122227445 0.035204247 -0.043323155 0.06351552 -0.3268359 0.15459642 -0.020003991 -0.08059394 0.14535505 -0.059554704 -0.16126265 0.47044203 0.20595545 -0.23141032 0.3512708 0.0148791475 -0.016228624 -0.19463207 -0.014005437 0.08248498 0.0467596 0.26523075 0.09904678 0.02385311 0.03291066 -0.0134670455 0.084839165 0.11141872 -0.14763667 -0.095398314 -0.031510733 0.28682527 0.064781256 -0.19122942 -0.029729819 0.14062282 -0.0149757285 0.1281716 0.056033544 0.107747644 0.16179745 0.11635105 0.032345593 0.16855912 0.115922056 0.21515717 -0.07952996 -0.05326967 -0.03644166 0.23547584 -0.2854007 0.16103424 0.1814602 0.11970584 -0.22644317 0.1523506 -0.053748608 0.012100837 0.15311278 0.15392971 -0.05586378 0.028664084 0.013692212 -0.0796609 -0.2247088 -0.090620756 -0.15998101 -0.37980056 -0.008139074 -0.074181646 -0.13552661 0.035022628 0.08195682 -0.27820966
827 0.042684946 -0.0918818 0.018754419 -0.06451141 -0.11085204 -0.18211311 -0.06055254 -0.21595381 0.14615096 -0.115212075 -0.0444026 0.23407108 0.062539235 -0.05019301 -0.038932618 0.051435467 -0.03572973 -0.07962284 -0.35264587 0.009187532 0.29437453 0.05163346 -0.089969195 -0.0029733113 0.102397636 -0.13759671 0.09126513 -0.14767389 0.020108696 -0.22612824 -0.15956612 0.109061494 0.008290426 0.033055317 0.09844007 -0.01742762 0.098845124 -0.015433088 0.090295166 0.019307327 -0.20258965 -0.12383324 -0.23444425 0.27864584 -0.1286696 0.21722084 0.008196272 -0.27088636 -0.19713122 -0.3753665 -0.14586052 -0.1417045 -0.04175701 -0.14073418 0.07341232 0.05882047 -0.050469115 -0.15024954 0.15934668 0.06858325 0.26947287 -0.013876153 0.071222305 -0.15938503 -0.29446 0.054414526 0.109903835 -0.17905585 0.01630264 -0.258331 -0.2457082 -0.08442073 -0.1391116 0.14407507 0.041380707 -0.03353565 -0.05302443 -0.10040728 -0.114043534 -0.036793653 -0.1776746 0.0136530055 -0.031069312 -0.020945752 -0.07741231 0.2543797 -0.057622444 0.10351354 0.007525028 -0.20886514 0.16636606 0.050545357 0.048498526 -0.059510984 0.018766286 0.28178677 -0.0084655285 0.055769667 -0.00080556644 0.1413297 -0.13415563 0.066001125 -0.036575545 0.10863374 -0.09576772 -0.10125693 0.00011021568 0.05838253 -0.3628113 -0.071669206 0.0008552832 0.08888519 -0.18479897 -0.08876817 0.11013995 -0.1185448 0.2132778 -0.15565076 -0.17522998 -0.07396295 0.12679785 -0.11322882 -0.106380634 -0.07163786 -0.1672201 -0.11268508 0.116307564 -0.13401341
1140 0.15741913 -0.09435611 -0.01986079 0.029680377 -0.051698666 -0.10682949 0.08620935 0.093401685 0.020733003 0.07787731 0.026536036 0.19562258 0.14416796 -0.02226513 -0.24768339 0.34668294 -0.14298308 -0.33192754 -0.12088655 0.020248838 -0.10796676 -0.016300559 -0.119842716 -0.1550489 -0.08236203 -0.08030866 -0.11850589 -0.003599119 0.16297746 -0.33032757 -0.15849486 0.1709352 0.051546488 0.08292379 -0.22735485 -0.14220534 -0.0138132945 0.004330532 -0.100142814 -0.3092152 0.085225336 0.11207622 0.10623869 0.104747765 0.06714456 0.08654727 0.06471526 -0.19100046 0.20758162 -0.12149672 -0.18652757 -0.2348146 0.38202798 -0.06300236 -0.06273541 0.07818373 -0.099178135 0.12555946 0.12856044 -0.19425867 0.064490125 0.06328582 0.03073826 -0.075270385 -0.020756619 0.04309072 0.20773391 -0.06549087 -0.042207908 0.13517424 -0.145913 -0.15789954 0.07748806 -0.0057805637 0.053215984 0.012466036 -0.32140827 -0.012571531 0.27742535 -0.12104855 0.060223736 -0.07671514 -0.1366075 0.26831838 -0.21260542 0.054591566 -0.1661374 0.12904868 0.15635394 -0.014418942 -0.054909505 0.1012613 -0.11177156 -0.32571194 0.096236266 0.11138811 0.0013060368 -0.1619324 -0.0025154206 0.16645417 -0.15955913 -0.18117085 0.064535014 -0.10774225 -0.19867364 -0.10289608 0.12620775 -0.014801718 -0.029097876 -0.008070573 -0.1705624 0.32177112 -0.046490412 0.06667529 0.06246652 0.02149146 0.07996777 -0.14222708 -0.0014059246 0.05041856 -0.059184052 -0.020376347 0.004036658 -0.0018806387 -0.25815177 -0.14824551 0.07741431 -0.14268272
916 0.008029511 -0.09070413 -0.1372466 -0.14688006 -0.13862015 -0.03939961 -0.20059948 -0.122893825 0.20996454 -0.04797642 0.34163833 -0.10362365 0.047897127 0.22127756 -0.20708445 -0.23876362 -0.024363471 -0.09126642 -0.07154706 -0.044996817 0.106969774 -0.15105909 0.12809627 -0.010892323 -0.105343424 0.10618945 -0.1358667 -0.061925463 0.17894578 -0.17578138 -0.21664348 -0.1114922 -0.24004322 -0.08536039 0.16907355 0.037073754 0.09714721 -0.20105541 0.03260115 -0.038343046 -0.027751556 0.17265701 -0.012538508 -0.1557309 0.081518 -0.19306631 -0.05785014 0.038642325 -0.08175983 -0.1231909 0.18597685 -0.2664052 0.20995459 -0.2466003 0.1360793 -0.036113877 -0.1619698 0.11777429 -0.060588423 -0.0925174 0.027630784 -0.110735185 0.09576285 0.025088139 -0.111565694 0.108760096 0.25285769 -0.075769655 -0.016237136 -0.14279954 -0.15375704 -0.12932453 -0.1426415 0.04101056 -0.21259406 0.06926908 -0.058445696 -0.09855533 0.10434586 -0.024601761 -0.033537485 0.06895136 0.1645797 -0.009911414 0.2116505 0.06973233 -0.070492126 -0.07752236 0.039524492 -0.07986154 0.17396852 0.24120082 0.16697128 0.033703066 0.082200155 0.20218477 0.034112044 0.16277668 -0.10681722 -0.22092476 -0.024339229 0.12664786 -0.10213762 0.14397176 0.06495488 -0.1543755 0.33283058 0.11785802 0.004673676 0.22648141 -0.19478713 0.035331678 -0.055314872 -0.40437436 -0.0011930688 0.068208866 -0.26900288 -0.029382128 -0.27096194 0.016933667 0.13693587 0.097718336 -0.10322422 0.094993554 -0.07715309 -0.06256944 0.31733263 -0.16880721
647 -0.26043534 0.03319088 -0.11974537 -0.25041834 -0.13000296 0.0032542741 0.11675289 0.119620785 0.20717017 -0.03580036 -0.023360342 0.19160534 -0.13140249 0.014734791 0.17998749 0.24722895 -0.0025682445 -0.0971122 -0.3426006 0.12092813 -0.19277981 -0.20561287 -0.01828778 0.06733 -0.257679 -0.12765768 0.12855767 0.20228606 -0.09444125 0.017855404 0.16339672 -0.082382075 0.24403837 0.08037753 -0.1904988 -0.28564867 0.09025994 -0.028150817 -0.11606674 -0.21510042 -0.019498093 0.09960544 -0.007230785 -0.11336764 -0.08413917 0.05909776 -0.0133394115 -0.10683584 -0.10376686 -0.15970968 -0.11276817 -0.01912178 0.21426 -0.055670146 0.13597766 0.024707118 0.12809587 -0.021081723 -0.033229604 -0.10941258 -0.14476831 -0.05550741 -0.23193513 -0.18321095 -0.0813337 0.41368124 0.25281462 -0.039590124 -0.111255355 -0.19894624 -0.26649758 -0.10595938 -0.10811046 -0.04330695 0.060398366 0.044334996 -0.2844287 -0.09839582 0.020305505 0.1767745 -0.054171775 -0.09746689 0.039302997 0.006725701 0.21367092 0.1966776 0.071364775 0.087055154 0.005038735 -0.054281786 0.072235115 -0.11179874 0.13463514 -0.065598495 0.03361417 0.09741323 0.118605345 -0.02152241 -0.049769834 0.22301851 -0.25244763 -0.020925406 -0.06079318 0.035615265 -0.008579003 -0.21630985 0.06693653 0.02098237 0.0041934005 0.030073313 -0.03853114 -0.081180505 -0.08874742 0.12186131 -0.10594749 -0.05400483 -0.24076146 0.26412556 -0.19807588 -0.07185141 0.25720268 -0.14298892 0.1727334 0.16434771 -0.22945632 0.17913367 -0.020367179 -0.03378451
847 0.13184623 -0.18961856 0.051475838 0.28422648 0.22434293 0.023525558 -0.09212318 0.04439165 0.15575616 -0.23939642 0.23359028 -0.12882689 -0.23133174 0.100066565 -0.06466009 0.10626272 0.06461563 -0.0028075438 -0.03249027 0.34659436 0.16442022 -0.17268851 -0.0454365 -0.09544088 -0.011520658 -0.043102346 -0.1297452 -0.06735282 0.010340092 0.09399678 0.108415775 -0.13135384 0.05408813 -0.02514085 0.15066686 0.017431488 0.34626833 -0.05378444 0.07816409 -0.07949868 -0.22411397 0.06578388 -0.18210915 -0.08120735 -0.017787699 0.14236805 -0.026510766 -0.012554101 -0.0558645 0.14857507 -0.26188004 -0.05187801 0.12697847 -0.11427212 -0.026810635 -0.11558002 0.17724366 0.13053681 -0.11027907 0.0007126041 0.047575504 -0.04486222 -0.24546683 -0.17550781 -0.100627586 0.035671424 -0.058313906 0.078237645 -0.11099853 -0.10840001 -0.084763974 -0.049431037 0.09694323 -0.13552476 0.06863533 0.13025416 -0.24151471 -0.07391017 0.038953256 0.013717034 0.085824884 -0.16477485 0.023625508 0.13492823 -0.02624545 0.026899917 -0.13390493 -0.030487008 0.07190822 -0.1092072 -0.0833537 0.19887602 0.13230832 0.009327434 0.16890529 0.13136214 -0.021787427 0.013688235 -0.062623315 0.20851259 -0.08002021 0.07588808 0.27263576 0.30506006 -0.1852401 -0.1664981 0.45717323 -0.29785433 -0.20948718 0.07407656 -0.020419918 -0.07201483 0.0056676194 -0.009807909 -0.08716514 -0.095143765 -0.07251595 -0.110155836 -0.062456332 0.15804738 0.038391434 0.06462582 -0.14248717 -0.24933583 -0.1165115 0.03736332 0.07221072 0.037896436
137 -0.025079044 0.26228097 -0.1399895 -0.054206792 -0.07457468 0.062544405 0.07852901 -0.12282021 0.09494418 0.0034954362 -0.012748835 -0.10972135 -0.044954274 -0.1997221 -0.2750437 0.023903826 0.042059075 0.06674639 -0.07045474 -0.108314656 0.21717554 0.057587158 -0.034794975 -0.16908556 0.122591145 0.010155316 0.10182856 -0.0234665 0.087580085 -0.10625706 0.066479295 0.15701722 -0.082924046 0.12606576 -0.30696675 -0.07682351 0.2613788 0.041193668 -0.08973661 0.057614096 -0.119343214 0.11592781 0.14694841 -0.10130008 -0.06069173 -0.17934175 -0.27532464 -0.1710715 0.046304166 -0.3556722 -0.20321599 -0.1389355 -0.06250725 -0.10704378 -0.06351968 -0.18929295 -0.011572047 0.050671853 -0.034673955 0.05085564 0.11685378 0.20628032 0.033747327 0.012651076 -0.2531288 0.061481416 0.054465227 -0.24832991 0.10042892 -0.23895144 -0.13362806 0.031987626 -0.030123783 -0.06742734 0.2529439 0.10106813 -0.10383298 -0.017346788 0.0019465113 0.1972461 0.16619782 -0.25516745 -0.25588208 0.024191482 0.03753473 0.15041523 -0.08186842 -0.040986687 0.13061947 0.048474018 0.2538162 0.0797979 0.11861388 -0.08708159 -0.048326958 0.10200427 0.054653775 -0.12853582 -0.009412233 -0.15753937 -0.0772945 0.10250858 0.059277374 -0.02079284 0.094686516 -0.15168709 0.07289258 0.124848574 -0.08433914 0.0075978977 0.013158043 0.08475894 -0.11648106 0.035283074 0.0010221511 0.030420959 -0.087613374 0.124335565 0.04623925 -0.018589044 0.084637135 0.13896953 -0.0059290845 0.12229242 -0.045860372 0.12342858 0.17100856 -0.1812494
277 -0.016516907 -0.19685774 -0.027635677 0.111472495 -0.1254632 0.09668074 0.030485298 -0.16618077 0.016824864 0.12932464 0.08596139 0.19477156 -0.032642003 -0.15017867 -0.15884976 0.09297033 -0.115362704 -0.010131758 -0.32388785 -0.12794065 0.22112007 -0.046017557 0.023700394 0.05648482 0.041297592 -0.070502475 -0.28710663 0.058673624 0.15482722 0.16522124 -0.1527694 -0.20227593 0.032279436 0.035421327 -0.02352269 0.0779895 -0.13878952 0.023959387 0.042088903 -0.33327836 0.13919784 -0.04890542 0.14889397 -0.027608747 -0.048320103 -0.14350598 -0.43720177 0.0003372128 -0.02997574 -0.17343782 0.0749788 -0.08489888 0.057984274 0.18909481 -0.01627118 0.02533994 0.00474079 -0.12930754 -0.10223078 0.006665638 -0.18522769 -0.02527641 -0.2321443 -0.15791835 0.041475914 -0.024264501 -0.23129028 -0.021276154 -0.048895434 0.05179354 -0.047901243 0.30599257 0.14353585 -0.028792163 -0.12893723 -0.07544036 0.02585184 -0.115504816 -0.064550295 0.07391135 -0.14718437 -0.050079394 0.13551883 0.1932689 -0.19017048 0.25464934 -0.067134544 -0.14361538 0.15670207 0.2931146 -0.03084606 0.15730573 -0.012093101 0.099255934 0.17996605 0.18155879 0.014480299 0.28301534 -0.12061369 0.011762183 -0.09530311 -0.12933005 -0.16314073 0.20125511 -0.21765342 -0.18494433 0.19663464 0.18795417 -0.078478694 0.054106407 -0.20408972 -0.03455147 0.01756637 0.15367398 0.16551436 -0.16508575 0.011700218 -0.040824912 -0.37821674 -0.16185239 0.020435616 -0.07713745 0.12760618 -0.055204164 -0.05577479 -0.0076925717 -0.07778226 -0.19704188
341 -0.06530544 0.01835295 0.07788001 -0.14237298 -0.07449297 -0.06444214 -0.1730071 -0.24540184 0.1721458 -0.007211092 0.15631787 0.12355491 -0.027764078 0.04228194 -0.063179515 0.15202959 -0.0062891375 0.084693916 -0.21238126 0.12812907 0.11133761 -0.018088292 0.16412187 0.1657569 -0.034705408 -0.22665404 -0.08934874 -0.0016785044 -0.15934375 -0.0028456883 -0.107543826 -0.011420236 0.020653937 0.08814775 -0.15588324 -0.13171981 0.038037427 -0.08010934 -0.27509344 -0.11685129 -0.10715248 0.2991793 0.003749476 0.019308964 0.13246761 0.027196107 0.033976205 -0.33420876 -0.029852819 0.021394335 -0.060827114 -0.15740506 0.026591545 -0.02576577 0.07417111 -0.099419 4.0198713e-05 -0.1369003 -0.055658404 -0.034535687 0.015934346 -0.32223916 0.02854904 0.15746877 -0.030979801 0.19303708 -0.007935273 -0.26245672 0.0050489465 -0.085126825 -0.15778315 0.111025326 0.1392274 0.058722205 -0.10243315 -0.0063286773 -0.033888977 -0.04571513 -0.04142709 0.1358834 0.0369202 -0.23961262 0.089779876 -0.099966496 0.004046365 0.28481022 0.057827424 -0.046280023 0.051822815 0.05885508 0.078914285 0.18932916 0.04523756 0.1426601 0.037996393 0.18894516 -0.07717243 -0.08787602 0.13223977 -0.011725387 -0.17449184 0.0029552 0.29998887 0.35391697 0.12881531 0.07819321 -0.022262711 -0.019559849 -0.047487356 0.23344804 -0.07063667 0.13237387 -0.093055286 -0.13172753 -0.099211864 -0.06290104 -0.20304947 -0.073781066 -0.11912711 0.006163937 -0.013983486 -0.13380828 0.24661003 -0.3273477 -0.055741947 0.0702862 0.258115 0.05456786
350 -0.023075324 -0.2875522 -0.047828525 0.10127872 0.0016146024 -0.025679506 -0.02809379 0.034827664 -0.0031740048 0.02111104 0.19389132 -0.13134784 -0.13235028 -0.32776397 -0.32598627 -0.14974019 -0.07209252 0.076662205 -0.07979428 -0.06043671 0.21856791 0.044136237 0.119386576 0.026900453 -0.16049844 -0.01374072 -0.17403784 -0.13919924 0.034359023 -0.18025814 -0.20035255 -0.04445305 0.05165289 0.23457956 -0.07017848 -0.0519042 0.0026018915 -0.10974264 -0.21843973 -0.0763852 -0.03711672 0.112621464 -0.10254038 -0.05340117 0.14431837 0.12413644 -0.12723963 -0.27546325 0.061320905 0.026165014 -0.16496682 0.08787638 0.12439993 -0.23354755 0.16674134 -0.096557595 -0.21812911 -0.12754327 0.08832793 0.17169957 0.010527509 -0.047409244 -0.16364919 -0.18491645 -0.021537118 0.029195663 0.03799908 -0.012155005 0.028267404 -0.0211919 -0.1917485 -0.024724307 0.102569714 -0.05823821 0.20145348 0.02744807 -0.03401855 -0.1659875 0.13071878 -0.09073212 -0.08427774 -0.11028365 0.023664238 0.07681621 -0.15323706 0.21419711 0.011388468 -0.12068862 0.07438806 -0.017532324 -0.102980524 0.15938152 0.019603048 -0.1437677 0.01466626 0.14734517 0.019120188 -0.032725785 -0.14278367 -0.12805481 -0.06111689 -0.026959954 -0.009540735 0.22828695 0.029853033 0.05013056 -0.047212925 -0.012822049 -0.10951652 -0.061247177 -0.03660027 0.101563975 -0.16177312 0.18959308 -0.0103805885 0.10062081 -0.11285265 0.123912476 -0.05778708 0.018634856 0.2563492 0.074773125 -0.12669362 0.1847277 -0.091167994 0.26851514 0.30020905 -0.015274159
793 0.23235744 -0.08650112 -0.11493832 -0.14089295 0.15669551 0.0657193 -0.09202739 -0.105418734 0.23189071 -0.035513494 0.10523969 -0.06997948 -0.1708557 -0.27200007 -0.11285647 -0.2894622 0.18168284 -0.07783552 0.18713191 -0.06756795 0.062147208 0.1045596 -0.051241774 -0.09649447 -0.11464922 -0.092083596 -0.019273777 0.3345388 0.08032701 0.00045686454 -0.04845278 -0.28410745 -0.1893495 -0.12973091 -0.16674352 0.07078497 0.17398684 -0.10303093 -0.021224216 0.09380508 0.02658295 -0.04241397 -0.16321652 0.15352078 0.13817193 0.04708398 -0.17187622 0.003568845 -0.1871501 -0.17349146 -0.133503 -0.07414467 0.12862067 0.0076050577 0.015875606 -0.06156437 0.03341422 0.19203603 0.18627626 -0.05070041 0.040957548 0.13122353 0.044231594 -0.100599416 0.15302488 0.05218917 0.07445078 -0.22582865 -0.08577085 0.13962422 -0.11664229 -0.055536337 -0.21501794 0.056363568 0.03292731 -0.0011899008 0.16635688 0.0074774357 0.072283186 0.104143284 0.08254764 -0.09325919 0.19997996 -0.050130665 -0.010187972 0.2573046 0.026706953 0.043768395 0.001629009 -0.04159541 0.01760691 0.045547765 0.2253547 -0.0348236 0.08760832 -0.09656889 0.13001475 -0.0446648 -0.008992628 0.22936906 -0.24857049 -0.12965061 0.1257306 0.27048028 0.23435806 0.008417566 0.22557151 -0.0939862 0.075475395 0.20742913 -0.028741466 0.094542325 -0.41955563 0.088131495 0.23660144 -0.21287955 -0.25005412 -0.31239048 -0.042902004 0.026189195 -0.028083427 -0.050097745 -0.011728271 0.05761912 -0.28060022 -0.08405277 0.13749239 -0.21011889
1088 0.16025738 -0.009115448 0.08885876 0.08969732 0.06240424 0.038569488 0.13110194 -0.11461505 -0.0152781345 -0.05586098 0.13116738 -0.14748055 -0.13851763 0.07091963 -0.31215632 -0.10940252 0.05996924 0.010252585 0.027842963 0.08527996 0.16498728 -0.027506841 0.02480095 -0.1022176 -0.041622173 0.023069251 -0.13327412 0.34284323 -0.026528826 -0.038373046 0.06826116 -0.13894075 0.041550905 -0.26156268 -0.25923228 -0.053488135 0.15449932 0.121006094 -0.11580465 -0.15035379 -0.24554127 -0.11398793 -0.21874496 0.16247566 -0.18087108 -0.16085094 -0.16628988 -0.12831041 0.11333902 0.052844882 -0.10105254 -0.2168314 0.14107797 -0.16254047 -0.034851987 0.028285455 -0.18402661 -0.22060752 0.023636062 -0.048271082 -0.116797246 -0.026400572 -0.2535161 -0.1257555 0.1643063 0.101024464 0.09785577 -0.14297359 -0.05533037 -0.012259231 -0.13485445 0.23191802 0.09797479 -0.20347425 0.26064077 0.061759498 -0.01591682 -0.15809765 0.0042727147 -0.15202464 -0.09697218 -0.15080886 0.23083797 0.029954521 -0.2010906 0.13251914 -0.26214063 0.08624544 0.022571197 -0.1374378 0.032715537 -0.19174014 0.020652069 0.3534132 -0.069473565 0.34101558 0.069413446 -0.05419712 0.016515967 -0.008928252 0.10819417 -0.0036428676 0.17732914 0.3547951 -0.014104485 0.15201296 -0.044422157 -0.11319835 0.009210075 0.018092483 -0.037706494 -0.07208845 -0.18352367 0.11932402 0.15537384 0.14617999 0.17038983 -0.23573826 -0.21559934 -0.11067711 -0.0044825524 0.003160043 0.049327813 -0.19593158 -0.21164271 -0.10324356 -0.10864193 -0.1665505
426 0.24053834 0.13527153 -0.035382982 -0.033603817 0.15639533 -0.23696202 -0.1858685 0.25546443 0.38320735 0.028764827 -0.008198649 -0.027614335 -0.056729432 0.10755177 -0.23134682 -0.06621464 -0.038340103 0.029679514 -0.14625539 0.22454523 -0.10183745 0.14610991 0.0009108005 -0.13851751 0.042474154 -0.112303704 -0.06778 0.15235956 0.27821973 -0.21169786 -0.048799835 -0.18012029 0.081555255 0.026499135 -0.003129593 0.026233774 -0.2449849 -0.10556759 -0.11166314 0.030099442 -0.15710849 -0.04217681 -0.0069063636 0.3154554 0.121147536 -0.21413893 -0.32328922 0.10530849 -0.056600727 -0.05183977 -0.0099858055 -0.1441578 0.1569806 -0.09706767 0.044914283 0.22611433 0.030310145 0.10059737 0.0850589 0.06610558 0.011693498 -0.08070346 0.045461815 -0.11356187 0.12107123 0.019099753 0.08675594 -0.18023165 -0.069993146 0.03801798 -0.2525542 -0.16159269 -0.033107672 -0.025474325 0.31154743 0.14362453 0.09071679 -0.011237112 -0.041484326 0.13324966 -0.016004436 -0.27372658 -0.13598561 0.20873155 -0.14019462 0.020469053 0.19835612 -0.13593185 0.17423467 -0.05499256 -0.16260912 0.198664 0.071498424 0.05052588 -0.028604383 -0.18050542 -0.14489189 -0.005340093 0.044844456 -0.08710216 -0.10670702 -0.14230786 -0.09613537 0.078512885 0.099551894 0.00022920084 0.024998764 -0.011530711 -0.08688942 0.13771862 0.028860718 -0.01874026 -0.2692205 -0.04513026 0.027028812 -0.17886963 -6.304581e-05 -0.28754905 -0.2545145 -0.27810508 -0.0071271867 0.11321755 0.1863195 0.023459328 -0.22972439 -0.22476122 0.11918938 -0.025582064
1065 -0.022976538 -0.014368938 -0.33553532 0.07012142 0.15277576 0.068049595 0.09099057 -0.092806675 0.18588454 -0.061143607 -0.032609798 -0.019424751 -0.27656335 -0.13411899 -0.2280585 0.07057764 0.13201904 -0.0724383 -0.2649764 0.15642641 -0.1903627 -0.18657552 -0.09802845 0.12910818 -0.30785203 0.060931373 -0.20782785 0.0087441495 0.045006122 -0.057678316 -0.14302914 0.0748904 -0.15493323 -0.004641283 0.034833092 0.046712525 0.08546674 0.28396228 -0.040572893 -0.13256852 -0.028162977 0.1652416 0.3031683 0.1846903 0.07445506 0.15108004 -0.33739945 -0.10064301 0.17795236 -0.05074824 0.026625378 -0.008180573 -0.055297576 -0.018327216 0.04597911 -0.05728811 -0.006646462 0.03308671 -0.040063124 -0.10509642 -0.068582594 -0.19727144 0.031926192 0.012190351 -0.025291791 0.05803841 0.13491791 -0.32100126 0.0037946198 -0.23176746 -0.24569264 0.3564631 -0.008944559 -0.14417595 0.13174556 0.19613051 -0.073789835 -0.087819345 -0.17224497 0.03919272 -0.107732154 -0.037824087 0.050270624 0.044765454 0.11226571 -0.14462325 0.005595407 0.03262224 -0.13039258 0.076904096 -0.16607337 0.058261726 0.016306825 0.015613756 -0.09527923 -0.14193626 -0.11900045 0.025862243 0.15006396 -0.11847553 -0.116686136 0.33337995 0.00023509031 0.11698751 -0.15945305 -0.23111832 0.06598457 0.03312564 -0.10598507 0.10409273 -0.011304265 -0.09109877 0.13218856 -0.17240198 -0.15352228 -0.02862623 -0.10412043 0.020114323 -0.18497841 0.032748193 -0.13731718 0.22562894 -0.053392313 0.08028908 -0.27069882 0.10858106 0.22929071 0.062078312
584 -0.04556138 -0.14328489 0.074003264 -0.053094447 -0.06787358 -0.16219352 0.1704623 -0.07947548 0.13629642 -0.2836293 0.018084746 -0.06107359 -0.23168801 -0.28129068 -0.15851425 0.038957212 -0.041312046 0.035107907 -0.26133958 -0.13068588 0.04001534 -0.21609539 0.024571657 -0.23786768 0.08917664 0.035694547 -0.13537589 -0.070962995 -0.09620667 -0.107548036 -0.07460327 -0.016168147 -0.36738 0.17531414 -0.17377974 -0.10705648 0.2372761 0.06311855 0.07769962 -0.2878416 -0.19262113 -0.06893302 -0.038727473 -0.12317739 -0.1346434 -0.042799465 -0.12397627 0.018165242 -0.16820198 0.044934127 0.10866563 0.0063344887 0.053720858 -0.17298788 0.16021854 -0.1579644 -0.044817 0.108945996 -0.08890486 -0.23624569 0.0404473 -0.097328685 0.0242396 0.15844016 -0.15130714 0.029220017 0.10916188 -0.039800428 0.02519897 0.0390788 -0.31679252 -0.006200506 0.10129739 0.2373289 0.08803119 0.095964275 -0.010712789 -0.25211057 0.1507702 -0.047990233 -0.05603375 -0.14320047 -0.16082318 0.17466177 0.010562944 -0.025249379 -0.06762207 0.1880022 0.15702361 0.08574202 0.0618431 0.15325451 0.33364755 -0.015296885 -0.04603406 -0.2006598 0.03517499 0.0100804735 -0.13128561 0.08504458 -0.28369266 0.11772924 0.013239356 -0.077378735 0.035626862 -0.0066043697 0.06405672 -0.039455567 -0.17046341 -0.061875675 0.045181513 0.034445945 0.09082357 -0.22757144 -0.07640578 0.124822736 -0.083307534 0.14087644 -0.06797806 0.15805024 -0.031587277 -0.06725596 0.0526044 0.1728161 -0.15208764 -0.07791585 0.0047491533 0.022173073
879 -0.12870383 0.023805406 -0.0828618 -0.13218254 0.18665272 -0.004284744 0.03205817 0.029972449 0.2023213 -0.026798274 0.090216525 -0.10630061 -0.13645206 0.1665593 -0.10855382 0.16472302 -0.09890778 -0.04508704 -0.12107765 -0.1128189 -0.27994525 -0.1206173 -0.23604958 -0.21804576 0.22755097 -0.06586295 -0.1788777 -0.09816388 0.096943244 0.11332045 -0.027313905 0.14837639 0.07314907 0.22778128 -0.11520811 0.15045907 0.14957231 0.18223195 -0.2024088 -0.07498195 0.103489295 -0.099319 -0.022671614 0.13622831 0.0061288932 -0.023882654 -0.1359934 -0.13102311 -0.036522835 -0.18115602 0.09805978 -0.02689697 0.092521295 -0.01004687 0.16791351 -0.08889185 -0.099673845 -0.12812218 -0.14942335 -0.35671943 -0.023837632 -0.001675285 0.07859509 -0.15526947 0.035239756 -0.010519639 0.12188887 -0.1412937 -0.09955776 -0.0463013 -0.22759092 0.11773406 0.09365254 -0.06947639 0.24738498 0.22040266 0.025502782 -0.1430684 -0.22858569 0.12173829 -0.20888197 -0.17196395 0.11177831 0.04731012 0.005636283 -0.06989154 -0.11007803 -0.02040644 0.28333327 0.17791064 0.0125035625 0.027364135 -0.055223152 -0.040842086 0.110144764 0.054165665 -0.032434445 -0.04465168 0.09246901 -0.04491931 -0.058052834 0.04361387 -0.04578715 0.12881993 0.25209805 -0.060361028 0.073249444 -0.04562628 -0.0940712 0.037205838 -0.0027107808 -0.011881809 0.015579355 0.14588764 -0.0083365 -0.084992215 -0.14347835 0.11481952 -0.48941088 0.062643036 0.06296799 -0.15231948 0.18942527 -0.19525163 -0.19004509 -0.011041812 -0.068984486 0.20049044
451 -0.041947406 -0.100668244 -0.14976642 0.023247603 -0.07043937 0.15920506 -0.012139034 -0.1695398 -0.04683631 -0.16199072 -0.29651463 -0.055485204 -0.14643352 -0.2681232 -0.05108862 -0.03557421 0.044955887 -0.087931804 -0.042710174 -0.11712223 0.08557164 -0.042538542 0.0894077 0.0201454 -0.031492487 -0.19126755 -0.2646305 0.0018536886 -0.09178071 -0.08076588 -0.31974584 -0.18065894 0.038036514 0.21244505 0.05872978 -0.08658271 0.100030236 0.05536922 -0.030124152 -0.071060374 -0.15640216 0.08975617 0.03523381 0.064729534 -0.032986175 0.2435461 -0.3476438 -0.15373243 -0.024676606 -0.20396778 -0.15486912 0.009535796 0.246008 -0.02033366 0.11742136 -0.046953592 -0.117007576 0.06851873 -0.27024955 -0.20952708 -0.14125745 -0.15387022 -0.24756336 -0.0866163 -0.15040004 0.1457853 0.13232547 0.03821052 0.19232397 -0.14514881 -0.07015139 0.03074255 0.14378624 0.066410005 0.038268942 7.1552364e-05 0.10183583 -0.020993808 0.071556255 -0.010436421 -0.103255436 -0.18306693 -0.11276312 0.027681826 -0.08709807 -0.061482556 0.13188174 0.0006688813 0.26858416 -0.1183449 -0.119686276 -0.058965012 -0.0074134585 -0.18082654 0.21692492 0.17303127 0.0925785 0.005804224 -0.22985329 0.2253552 -0.16054007 0.0008865243 -0.027089149 -0.020009426 -0.013790431 -0.05639183 0.0028299408 -0.066435054 -0.06991376 0.21638756 -0.07282972 0.092139766 -0.10821472 -0.027361866 -0.0171704 0.03331469 -0.17397486 -0.14395614 0.08140905 -0.15580921 0.07552283 -0.02523863 -0.036109567 0.026903585 -0.12570095 -0.049393017 0.036902003 0.091351844
217 -0.05147932 -0.0061137835 -0.074363135 -0.11368403 0.024650134 0.0905095 0.09376616 -0.19955541 0.0025678044 0.061435528 0.20708296 -0.058431935 -0.0771203 -0.23036806 -0.23376247 0.056359455 -0.26154906 -0.0034558603 -0.19890432 0.079774134 -0.047739767 0.0734767 0.21149334 -0.097503304 0.09046767 0.03447878 -0.029932529 -0.0076151052 -0.16024719 -0.15596166 0.21461047 0.030010024 -0.061066467 -0.14802678 -0.042911936 -0.09983414 -0.08083422 -0.12364749 -0.07879898 -0.11946303 -0.098287135 0.04419124 0.12724568 0.16082817 -0.077526376 -0.074373476 -0.24930182 -0.0132445535 0.058053717 -0.08751166 -0.24946882 -0.10436739 0.11141681 0.014645315 -0.16462187 -0.012063033 -0.20305012 0.1698051 0.053676933 0.21454215 0.065546304 0.10337599 -0.31489342 -0.100730695 -0.2751708 0.103792265 -0.079333276 -0.10657435 -0.07447147 -0.21498926 -0.1270894 -0.10536998 0.060214534 -0.111877926 0.1995396 -0.048285495 0.065921426 -0.091076806 -0.082161516 0.14993162 -0.2770018 -0.13353413 -0.025984198 -0.16403347 0.038619768 0.048637677 0.21059047 0.0999755 0.05521169 0.0051430175 0.15645836 0.2733545 0.2312165 -0.17533652 0.14017239 0.19115886 -0.008670058 -0.11765439 -0.06441189 0.062438615 0.20768395 -0.07470915 -0.18331733 0.025870621 -0.020240223 -0.12685376 -0.11094919 -0.108266115 -0.2496029 0.024001043 0.08081163 0.08299117 0.04456918 0.15127565 -0.05849247 0.18679893 -0.14760455 -0.06570812 -0.17545801 0.11812663 0.0015619554 -0.05858072 0.0320076 -0.15954876 -0.22803025 0.018132087 0.3244103 0.019051751
28 -0.019475086 -0.097759575 0.012408125 -0.0040576244 -0.0066604 -0.03635722 -0.034800157 -0.05466153 0.39800715 -0.26835662 0.020280566 0.061634608 -0.09230458 0.090811074 -0.0029633886 0.08744391 -0.025283515 0.20883767 0.01745912 0.055133075 0.31291592 -0.18151286 0.08920645 -0.012720707 -0.36099637 0.11746984 -0.09176961 -0.07306095 0.114598155 -0.21343087 -0.14117762 -0.035211954 0.062378015 -0.058943804 -0.030728806 -0.19587833 -0.036290266 0.20293549 -0.026121784 -0.116571136 0.04092447 0.1309194 -0.2255371 0.122919925 0.07317717 -0.17438243 -0.44936833 -0.33243185 0.047795344 -0.01867166 0.35764274 0.010060187 0.20466259 -0.043935467 0.21935867 -0.009181309 -0.07099152 -0.05238041 0.13609445 -0.24178077 0.059699364 0.13464217 0.088900305 -0.03779279 -0.2575403 -0.14023377 0.14963865 -0.37485123 0.15079816 -0.19604306 -0.2671719 0.24142978 0.24636307 0.1639169 0.13656299 -7.962967e-05 -0.16307771 -0.13285118 0.17142208 0.01802274 -0.18267275 -0.11170342 -0.10808927 -0.09050729 0.05433092 0.06487843 0.11229928 0.1702009 0.16473614 0.051835317 0.05526867 0.033764943 0.27152508 0.047303878 -0.03354349 0.16763993 -0.024096202 0.058815897 0.07270384 -0.038817104 -0.052890025 0.039913144 0.020993209 -0.0047613382 0.02235549 -0.3807572 0.16019394 0.013519966 0.12821072 0.070887536 0.09074272 0.13788426 -0.01416018 -0.13863721 -0.12038391 -0.06123261 0.15324745 0.076882556 -0.016832676 0.18019085 -0.23645273 0.08288306 -0.049453016 0.015083838 -0.113820925 0.1715895 -0.15979484 0.17671376
1324 -0.16124657 -0.042778283 -0.12780167 0.032517795 0.038670518 -0.108935535 -0.03504327 -0.07642874 0.11328529 0.0995205 0.13595092 -0.031151112 -0.03642688 0.08914287 -0.1866508 0.22938357 -0.18028885 -0.21295263 -0.0033491591 -0.15521188 0.12219381 -0.0978105 0.19552428 -0.14609748 0.024307452 0.027346801 -0.11452244 -0.045676146 0.10555845 0.19448715 -0.25331938 0.022154534 -0.28495303 -0.057988524 0.022852333 0.07276996 0.019811977 -0.11234348 0.019087067 -0.28210205 -0.24275912 -0.031378545 -0.06230839 -0.06659248 0.055093016 -0.18475772 -0.15687151 -0.30228162 0.00067253085 -0.10265083 -0.030397287 -0.18265796 0.06464904 -0.20998237 0.17555034 -0.05347917 0.08971333 0.08726179 -0.04689593 -0.07823852 0.07138999 -0.0125298835 -0.09111111 -0.083522074 -0.23539847 0.1704452 -0.040481456 -0.10652162 -0.013870634 -0.08264055 -0.11920833 0.3043955 0.08878666 -0.0034500167 0.04968989 0.015609385 -0.044218358 -0.22644162 0.12365016 -0.093086205 0.07175731 -0.063753225 -0.10190282 0.07319984 -0.014423773 -0.03135202 0.0002625592 0.05362128 0.10807413 0.16992551 0.09055458 -0.052893363 -0.062563986 -0.09206719 0.120602265 0.052629814 0.10417157 -0.024842486 -0.014502991 0.026697801 0.02930777 -0.05959781 -0.05797359 0.039688647 0.18272927 0.082675986 0.13629338 0.31060946 -0.017112777 0.025919197 -0.18150775 0.02126223 -0.12977165 -0.0855233 -0.06947519 -0.0803227 0.033049352 -0.0059475047 -0.21996105 0.09352468 -0.1611381 0.005149888 0.079481654 0.16930695 -0.2060812 0.07848611 0.03398128 -0.015760431
287 -0.01295792 -0.20949249 -0.14641401 0.25434116 0.27398884 0.16519567 -0.03549922 -0.036500864 -0.011067386 -0.0278624 0.17945538 -0.058928512 -0.12985495 0.12620898 0.058938194 0.19544032 -0.1388299 0.16017592 0.0032798436 0.087997794 0.08607187 0.2029865 0.092769854 0.04164823 0.2100784 -0.0703595 -0.022179201 0.14416224 0.15652819 -0.06215066 0.22796698 -0.13256077 -0.029127952 -0.04384776 -0.30500823 0.033383757 0.0030851066 0.06210165 -0.051902812 -0.1849822 -0.21805046 0.09231593 -0.071449794 -0.16623269 0.15676054 0.015748188 -0.5461004 -0.14990236 -0.03803484 -0.19570297 -0.21164154 0.0989282 0.1810648 -0.08573082 -0.11256367 0.22260925 -0.0857764 0.13768739 -0.25688902 -0.14988033 -0.20892371 0.079847336 -0.0129377805 -0.20284899 -0.054445118 0.21318494 0.21147975 0.046193723 0.2328048 -0.08942461 -0.05504834 -0.12523463 -0.20770432 -0.012748757 -0.06379498 0.34303704 -0.20283963 -0.052619025 0.10123323 0.10634194 -0.11918661 0.021616392 -0.1079181 0.09151533 -0.17876305 -0.022169622 0.006875071 0.090356685 -0.069129795 0.12491833 0.101431616 0.1142055 0.3513862 -0.039599158 0.10558068 -0.1888303 -0.19444802 -0.016072595 -0.015057182 -0.038251944 -0.21074606 0.12489958 0.10069075 0.16987634 -0.14139415 -0.023263052 0.18757378 -0.123127796 0.08432411 0.23074049 -0.1255534 0.012955241 -0.15405028 -0.043180823 -0.14023358 -0.11387297 -0.18152949 -0.018566119 -0.025324613 -0.04563136 0.011530689 -0.21589224 -0.18350531 -0.091075815 -0.20743571 -0.08521268 -0.07661871 0.0020155667
1098 -0.17977057 0.04388377 0.20203742 -0.11479824 -0.08767151 0.28587964 -0.0891254 -0.32341424 0.08688013 -0.108406544 0.15862945 -0.1277321 -0.17517555 -0.008889594 -0.2691729 0.06450128 -0.18791294 -0.17890948 -0.12304562 0.03968261 -0.18366416 0.03527701 -0.08260275 0.034470093 0.19619082 -0.12381578 -0.08949692 -0.12850206 -0.045899775 -0.20101134 -0.04723191 -0.10591539 -0.17577246 0.053383637 -0.031076096 -0.06213643 0.1720305 0.06783372 -0.069961704 0.235516 -0.019803561 -0.05320058 -0.02136493 -0.1709765 -0.012010985 0.0402962 -0.32423636 -0.1776844 0.24051292 -0.099138476 -0.18619917 -0.11846325 0.1814482 -0.18686382 -0.09348283 0.0988425 0.17639396 -0.14295256 -0.029686276 -0.009340159 -0.043522846 -0.14468767 -0.3149675 -0.20379603 0.11991341 0.021321181 -0.025769163 -0.19366331 -0.20617929 -0.10806317 -0.07748979 0.3132128 0.049439207 0.048388228 0.14580242 -0.050306942 0.06585717 -0.1809 0.19824737 0.19866233 -0.069733866 0.06167144 0.0851187 -0.13783965 0.03712975 0.12217035 -0.2818712 -0.13338515 -0.029503508 0.14548795 0.111532435 -0.058112178 0.22435883 0.090012744 0.29646382 0.007950898 0.0700157 0.014395789 0.03870019 0.009175772 0.07444433 -0.1644885 -0.030793376 0.11551871 -0.018432057 -0.16091728 -0.006649444 -0.06495919 -0.13924679 0.10847775 0.024256561 0.1130123 -0.061141644 0.14264718 0.076593354 -0.25009066 -0.07221986 -0.13986172 -0.120993115 -0.025239173 -0.17080465 -0.11178972 0.18600674 -0.14529884 -0.03144408 0.26312625 0.09147911 -0.014117204
346 -0.20678723 0.025099313 0.09426951 0.028923087 0.012862623 -0.003392255 0.03290775 -0.16053562 0.21852025 -0.0024826047 0.034563616 0.03289863 -0.3144272 -0.21417588 -0.13949654 0.024373313 0.0035085983 -0.07734658 0.067670606 0.09642829 -0.06581762 -0.19339623 0.06223408 0.14442383 -0.108142346 0.058116008 0.08473427 -0.05460292 -0.048847232 0.06710915 -0.13491122 0.2341326 -0.013283611 0.14709048 -0.10227581 -0.08854682 -0.13351308 0.20579822 -0.08837358 -0.16226856 -0.0601125 0.18239793 -0.20556208 0.063390605 -0.01753519 -0.088228 -0.20199782 0.09465031 0.23866849 -0.07003148 0.12606277 0.12546517 0.114778616 -0.20379579 -0.16766082 -0.05669275 -0.19098477 0.14388414 0.04164167 -0.10676399 0.02859958 0.12317865 0.13658103 -0.069877386 -0.35064924 -0.027680103 -0.030294944 -0.25028422 0.053140316 -0.23965329 -0.14786206 0.2444335 -0.17851941 0.21341553 0.095419556 0.013988994 0.037018854 0.040993325 0.18340375 0.21505389 -0.0549392 -0.15716305 -0.033515304 0.17378093 0.19863258 -0.1672631 -0.040414695 0.06567285 -0.07905099 0.08792178 0.23667778 0.031874508 -0.14754401 0.0025111507 0.14330496 -0.061247405 -0.005743066 0.04790673 -0.024583822 0.011172489 -0.038966462 0.050781846 0.0731502 0.25720814 0.19525324 0.0021577592 0.14107648 -0.16625167 -0.2005318 -0.009930104 -0.08521968 0.051422272 0.21113506 -0.12766851 0.12040891 0.13859206 -0.031761967 -0.23201942 -0.26626852 0.021951579 -0.1376224 -0.059495043 -0.043620825 0.031204283 -0.20233119 -0.18040231 0.2547119 -0.16809759
330 0.16523685 -0.16241421 0.049802728 -0.054612048 -0.038500577 0.060120422 0.21588838 -0.1121521 0.25738582 0.1195497 0.23230626 0.009833231 0.0042623593 0.08641584 -0.15350859 0.019648941 -0.07307193 0.0675429 -0.05529712 0.27485988 0.012088014 0.12396255 -0.17844473 -0.20610023 -0.07915151 -0.24778247 -0.21706146 -0.014019017 -0.030072287 -0.10251148 0.12227189 0.05576823 -0.02583961 -0.033410303 0.06520835 -0.066870764 0.02300239 0.24325854 -0.09948697 -0.029223146 -0.19349046 0.2006246 -0.121880956 -0.24257952 -0.06642194 0.14457671 -0.08203942 -0.15434273 -0.11528443 0.0012350653 0.08727162 -0.08327745 0.17967707 0.006383091 -0.22954078 -0.007032629 -0.03121257 0.07500157 -0.0064329114 0.0037187524 -0.06852787 -0.124549344 -0.17111981 -0.13151921 0.028617552 0.079040706 0.018146731 -0.093681514 -0.39882815 -0.14051682 -0.0028853898 -9.345684e-05 0.04735666 -0.12126569 -0.13140896 -0.19276011 0.081924304 -0.28556135 -0.09516045 0.024011752 -0.025690403 -0.016174253 0.053085197 0.15923966 0.08536313 0.06842038 -0.050691836 0.12587506 -0.19375095 0.09266569 0.034271214 0.23574968 -0.014805823 0.0133581385 -0.04990228 -0.021914804 -0.16185541 0.040311437 0.07838152 0.1498551 -0.15168288 0.10964285 -0.043541268 0.052498773 0.08757172 0.14103684 0.14178737 -0.09346928 -0.11128055 0.119887985 -0.33129108 0.08482994 -0.09047554 0.07595228 -0.0025017406 -0.16609581 -0.18050312 -0.23409177 -0.10422682 0.014985601 -0.25194493 -0.2684472 0.04067555 -0.004438357 -0.073201954 0.08880591 0.32005256 0.18175347
1001 0.08116834 -0.18205543 -0.114486136 -0.17546381 0.106543586 -0.13497247 -0.036563016 -0.06766598 -0.0941659 -0.047795765 0.08591671 0.112048954 -0.1660229 -0.12796773 -0.1324003 -0.13511068 0.10525773 0.17661242 0.052053954 0.13006732 0.1032661 -0.3465148 0.024096347 0.08728602 0.17446145 -0.03133046 -0.24161044 0.08950412 0.06737403 -0.172402 -0.32713997 -0.031579666 -0.07391081 -0.27347273 -0.008275913 0.069553606 -0.055900924 0.17497066 0.1643612 0.0026256936 -0.27903566 -0.047292937 0.045254968 0.14335667 -0.03482463 0.0938224 -0.14491254 -0.1708243 -0.01998481 -0.14222078 0.24019998 -0.09566164 0.18281122 -0.021225344 0.020759353 0.0025301818 -0.07777483 -0.07303739 -0.019786373 -0.36089683 0.3064791 -0.058213618 -0.26304835 0.059518456 -0.05103386 0.17388545 -0.10689718 -0.07043584 -0.08690165 -0.3250994 -0.24525498 -0.050814178 0.10964888 -0.119612366 -0.014627908 0.03219347 -0.06029356 -0.08086271 -0.030065961 0.20651975 -0.09068083 0.0076346677 0.03771353 0.07730532 0.026108176 0.06828786 -0.22313946 0.15892164 0.0516614 0.024840323 -0.024774458 0.2353385 0.021852963 0.016522607 0.033203993 0.05234602 0.056300655 -0.09842032 -0.006833642 -0.17991748 -0.05813293 0.0025160243 0.07371144 0.04081309 0.14669728 -0.01853096 -0.052240063 -0.08846164 -0.11902972 0.06648453 -0.15272464 0.03949101 -0.19026814 -0.06711704 0.054224852 0.05488004 -0.04677275 -0.18910377 0.04445976 -0.07947319 -0.0516183 0.06363392 -0.11186439 -0.033355225 -0.30495134 -0.017737582 0.22627746 0.060267445
718 0.16350701 0.08246477 -0.1222744 -0.08037469 -0.23456146 0.07125327 0.07150385 0.049232725 -0.053558055 0.13567683 0.11282272 -0.06903667 -0.118803814 -0.2608432 0.13062124 0.035148982 -0.09905538 0.25627574 -0.09895346 -0.071635686 0.11299949 -0.045787692 -0.03635759 -0.07223162 -0.016804045 0.018379312 -0.36424977 0.005188053 -0.07589904 -0.055716947 -0.059630707 -0.0258306 0.17746803 0.08447598 -0.09297527 0.0920345 0.07172995 -0.11600335 -0.1530471 -0.14185122 0.10291738 -0.19373415 0.067282245 0.023508219 -0.17817721 -0.1059315 -0.24752612 -0.1655128 -0.14771523 -0.09142515 -0.12957804 -0.13415983 0.26760456 -0.20325622 0.1808568 -0.06307121 -0.107048586 0.019815816 -0.19143936 0.08784203 0.27567458 -0.013290854 -0.018786427 0.24565183 0.11651127 -0.14616953 0.0738521 -0.013571873 0.03485407 -0.04938962 -0.22377077 0.13018651 -0.1464955 -0.027434107 -0.026765311 0.08496049 -0.40598398 -0.18004572 0.12170524 0.1781103 -0.20686162 0.03305557 -0.12811814 0.3861703 0.18396845 -0.04574821 -0.11703735 0.10403882 0.0046408894 -0.08625686 -0.009664943 -0.08884259 0.09241811 -0.03617083 0.106905006 0.18613046 -0.007895347 0.10624183 -0.047717415 0.1528127 -0.024436498 0.027737848 0.111319184 0.20877285 -0.038933184 -0.17910361 0.017468393 -0.14783768 -0.16288187 -0.072060205 0.04581915 0.18696094 -0.022173194 -0.0909104 -0.0353728 0.10566454 0.15733458 0.11345564 -0.27658567 0.08718009 0.08608327 -0.16274412 0.1741302 0.07002389 0.021018567 -0.15866755 0.0750123 0.11787751
577 -0.09813673 -0.27415183 0.0063443035 0.01234538 0.09863111 -0.05971951 0.10092446 -0.13105291 0.25154644 0.08391729 0.09060072 0.0544744 -0.124719106 -0.09201796 -0.09072357 -0.04346265 0.04442678 0.16676919 -0.19764501 -0.023057876 -0.034764484 -0.05908971 -0.1871793 -0.0534063 0.12160573 -0.20659779 -0.26289845 -0.056174446 -0.119679265 0.060502682 -0.12051992 0.0034738579 0.0058804452 -0.02232135 0.17511818 0.0982118 0.11785116 0.15055826 -0.072717346 -0.1690751 -0.20343187 -0.070208244 0.084372 0.1721962 -0.023788413 0.18354203 -0.094643995 -0.04413822 0.014987536 -0.12847878 0.09032019 0.07717487 0.10355328 -0.027030852 0.11496254 -0.0361795 0.042353246 0.018834239 -0.07422764 -0.083416894 0.061067272 -0.12494139 -0.018630613 -0.19384387 0.013786207 -0.19782026 0.024450881 -0.12008273 -0.04676758 -0.39680418 -0.07341848 0.106200665 0.124779925 -0.033496596 0.07737887 0.02442687 0.0996554 -0.028770622 0.13143405 0.10730768 -0.2928714 -0.07893632 0.0066708387 0.34746206 0.121517204 -0.028908338 -0.07685037 0.064271905 0.11327893 -0.09458007 0.1100709 -0.150696 -0.061383188 -0.046530407 0.15630974 0.12987572 -0.044060517 0.1417818 0.14759311 0.1827468 -0.028818067 0.043433614 -0.062039003 0.081820235 -0.10033615 0.023160595 0.042795084 0.11150396 -0.07221993 -0.01601521 -0.04804281 -0.046090838 -0.18203877 0.17422791 0.16969047 0.05860164 0.21242383 -0.077214465 -0.22885333 0.043716673 0.12292045 -0.18788762 0.13731275 -0.054036297 0.04276824 -0.07946239 0.18616691 -0.16373686
273 0.09204985 -0.109464176 -0.09312384 -0.0508517 0.06424138 0.099938385 0.1166196 -0.18242484 0.55917776 -0.019410545 0.08557595 -0.018497188 -0.027930778 -0.055658102 -0.11578751 0.05561934 -0.079224214 -0.13943316 -0.096558526 0.009682338 0.049687766 -0.069213554 0.30624768 -0.07770573 -0.030356992 -0.18758039 -0.13719858 -0.08694363 0.1785518 -0.05803123 0.13192119 0.14009054 -0.124467425 0.1537051 -0.14391837 -0.17274936 0.0855179 -0.24737138 0.21616028 -0.07274584 0.024900973 0.056939453 0.12569569 0.05165272 0.059393313 -0.13962679 0.18075931 -0.060956046 -0.14950594 -0.28729102 -0.0073821056 0.082960494 0.12635998 -0.078515574 0.059201013 0.022684338 -0.1300732 0.17324634 -0.078837305 0.083797686 0.08371792 -0.057022497 -0.10519929 -0.21571112 -0.14787823 -0.21638994 0.013511943 -0.20237999 -0.043125384 0.03568737 -0.10401411 0.19787964 -0.18567345 -0.064725965 0.066472314 0.12481352 -0.056900267 -0.18848987 0.119456075 0.09675686 -0.26834616 -0.023319505 0.0005641562 0.37314197 -0.04956228 0.1564122 -0.1676171 0.03702778 0.26447985 0.09190401 -0.056552812 -0.07364789 0.087679505 -0.18748096 -0.0761237 0.09494161 0.020263007 -0.026010768 0.021157747 0.046763327 -0.071568586 -0.032864388 0.027547691 0.17254356 -0.17734765 -0.05513363 0.056561735 -0.016366927 0.015764117 0.15760314 -0.2393218 0.1867535 -0.0635251 -0.12690312 0.23712479 -0.19091369 0.012668494 0.0008522942 -0.09177883 -0.0107851 0.1759243 0.12893811 0.3044885 0.0007872006 0.107317366 0.04358515 -0.008079521 0.00038752053
326 -0.010908142 0.053059537 -0.084201954 0.018884761 -0.08929397 0.058651555 0.18663573 -0.2802887 0.32898664 -0.13885775 0.031652395 -0.033666007 -0.15176107 0.22136362 -0.048987515 -0.01817762 0.08672383 0.32124868 -0.13446328 0.13745049 0.1121388 0.004106373 0.0033785007 -0.03847023 -0.27738658 -0.16471791 -0.18617588 0.022189865 0.060307685 -0.065525346 -0.25887826 0.05589264 -0.36483338 0.04782466 -0.18848227 -0.13666578 -0.20875393 0.13416892 -0.21679488 -0.06566232 -0.36867756 0.03286697 0.0026381284 -0.13559368 0.25698867 -0.040959794 -0.201627 0.110914186 0.011152026 -0.057586487 -0.105378635 0.07377074 0.28893292 -0.11229245 0.03144852 0.12209274 -0.025748095 0.10840161 0.017341262 0.01956546 0.008123683 0.13042246 0.123174325 -0.09486015 -0.08330349 0.21810246 -0.082191676 -0.007724035 0.07895238 0.33437335 -0.22686416 0.22315294 0.054639477 -0.03350655 0.007293633 -0.004000978 0.24374186 -0.10640657 0.32156822 0.10369956 -0.019027969 0.016169373 0.05741114 -0.04755389 0.07947217 -0.096493505 0.09389649 0.157746 -0.115013346 0.08045688 -0.27561235 0.086910844 0.070685364 -0.083991714 0.1404849 0.17413001 0.04539325 -0.037063792 -0.14146495 0.030005226 0.04597871 0.041865617 0.15528604 0.044826273 -0.09614019 0.03659738 -0.038386483 -0.011088605 -0.28677475 0.0522924 -0.16616985 -0.17992038 0.08728583 -0.07417904 0.045694288 0.1409159 0.003759572 0.069974214 -0.28152725 0.11810615 -0.08452108 0.041175988 0.047668792 0.15712322 0.023176415 -0.006754716 0.1996603 -0.055900145
893 -0.0076748324 0.068365805 -0.12969685 0.0473129 0.030973151 0.12696551 0.15001398 0.036851604 0.0653161 -0.026066257 -0.17744629 -0.15759665 -0.020561188 -0.107069 -0.3987085 -0.011509387 -0.10886262 -0.0865127 -0.15960038 0.0037938978 0.4005436 -0.039199807 0.06666039 -0.13397542 -0.191702 -0.23402144 -0.035735816 0.12863374 -0.12515329 -0.0058828564 0.13093747 0.06817779 -0.13382949 -0.11884506 -0.07340998 -0.09815633 0.12873584 0.06396506 -0.14028104 -0.049395066 -0.037170198 0.06668163 -0.10591059 -0.14168724 0.089774944 -0.11392195 -0.08818419 0.032223295 -0.24741952 0.057336558 0.13363947 0.009598163 0.3226553 0.33332577 0.07669298 0.10871247 -0.033632696 0.25319344 -0.011833266 0.10155058 -0.11506135 -0.058695007 0.05782718 0.025300281 -0.12757501 -0.09610625 -0.06405566 -0.10704298 0.0062070237 0.077019185 -0.16466953 0.23327258 -0.16846572 -0.28702164 -0.24371232 -0.22668196 -0.1902671 -0.13063015 -0.010667113 0.17030121 -0.1668163 -0.17364474 -0.14935204 0.23029706 -0.1532632 0.0069829854 -0.0006136125 0.118548974 0.20962125 0.19141875 -0.17197944 0.07061502 0.07538117 0.06552681 -0.04313704 -0.0125784045 -0.113804266 -0.04933281 -0.025153497 -0.19357972 -0.1270468 -0.11492628 0.15255082 -0.0038815695 -0.083506495 0.0070465095 0.19383141 0.14918044 -0.16704409 0.052623805 0.0048940703 0.2485023 -0.07619679 0.18098488 -0.05517185 0.3157798 0.008304542 -0.19734706 -0.21955703 0.15424232 0.07069949 -0.03621147 0.03950111 -0.06882847 -0.42974415 -0.21448259 0.010139702 -0.004392873
988 0.028489305 -0.2877439 0.048615716 -0.051799886 0.18511902 -0.15874846 0.038487732 -0.20199727 0.0963738 0.026138697 -0.11310462 0.1479742 -0.25009665 -0.0149884885 -0.25798815 0.042767808 -0.08064103 -0.060649645 0.11987027 0.02325192 0.017858582 -0.19038488 0.08013987 0.0665622 0.18811204 0.03909386 -0.18296626 0.061113592 0.095994405 0.04780441 -0.07017548 -0.07810015 0.17800738 0.1308921 -0.107189626 0.16472225 0.067922905 0.08393183 -0.059225127 -0.12479809 -0.12380125 0.15616749 -0.053378627 0.025601102 -0.011943185 0.18041766 -0.15233852 -0.059357606 -0.09724883 -0.07486518 -0.22977228 -0.1567839 0.19323589 -0.00879706 0.04227067 0.20021714 -0.16779837 -0.08517693 -0.060974628 0.10950388 0.10448213 0.06920544 -0.20013186 0.08569994 -0.15011795 0.20390314 0.025216766 -0.20239642 -0.30632365 -0.20157444 -0.12653036 -0.040461086 0.07633821 -0.040214036 -0.0009399595 0.045263678 0.15626575 -0.26157376 -0.06576914 0.14125618 -0.053558134 -0.24837537 0.16084135 0.022566764 0.0046141394 0.035852652 -0.17201613 0.070533566 -0.108249456 0.014652222 0.26815346 0.010405839 -0.24782643 -0.13120331 -0.11968026 -0.08817969 -0.089223206 -0.20252629 -0.077685945 -0.12035734 0.07792744 -0.1220125 0.019746762 -0.045882326 0.17783985 -0.021321198 0.06077733 0.100397974 -0.018352669 -0.05226203 0.008872636 0.18805012 -0.31006646 0.26746058 0.0028528601 -0.36958864 -0.26115966 0.13255922 -0.34563178 0.266556 0.12847301 -0.23132701 0.07717739 -0.1233699 -0.050572664 0.0126978615 -0.030703748 -0.15910952
773 0.1610721 -0.09473062 0.16460536 0.0019320323 0.07518097 -0.0057643712 0.11238729 -0.12603618 0.06118359 -0.015335493 -0.06855201 0.1413971 -0.2511126 9.4416886e-05 -0.04020674 -0.06888839 0.005774588 0.10725188 0.1269053 0.049314275 -0.005003985 -0.167838 -0.017034462 0.10671747 0.2190728 -0.056255963 -0.447994 -0.03395939 0.11540457 0.08982207 -0.14169551 -0.06857376 -0.10702801 -0.007848563 0.02306774 0.15950496 -0.094686426 -0.030435931 -0.07504925 -0.09930021 -0.10157333 -0.17365569 -0.11877917 0.12316113 0.058198635 0.12764744 -0.3729618 -0.07774143 0.10748491 -0.08707626 0.018176775 -0.052497502 0.38292673 -0.044915684 0.0235639 0.044997077 -0.20046657 -0.027913991 -0.057473283 0.012702326 0.022382744 0.030727925 -0.11982494 -0.07918459 -0.0844259 0.14616469 -0.07791896 -0.058399078 0.02193594 0.08171852 -0.11666747 0.08341333 -0.1000312 -0.22560075 0.057253707 -0.242347 -0.04129623 -0.060848963 0.1536173 0.13587151 -0.03873943 -0.1617647 0.18138006 -0.002773353 -0.013605906 -0.027988661 -0.036561605 -0.0017413083 -0.09078031 0.05996263 0.23183541 0.0010566339 0.0048546502 -0.10801842 -0.19737165 0.07510144 0.22096717 0.026498681 0.11053953 -0.18597494 -0.17648394 0.04284084 7.955399e-05 0.0717593 0.3575922 -0.18040721 0.20779246 0.06348854 -0.036121447 0.024440693 0.02819224 -0.13592799 -0.16558029 0.032775838 -0.06164096 0.10577026 0.038795076 0.030990962 -0.14043777 -0.034297816 0.17685989 -0.28319356 0.040649876 0.16374908 -0.11571225 -0.11136397 0.13279197 -0.18117861
811 0.039104708 -0.30718264 -0.27253595 0.16523084 -0.075622864 0.14741383 0.053726558 0.08288348 0.37813616 -0.19047241 8.0313104e-05 -0.08773214 0.00017640833 0.09550413 -0.045920704 0.00083895767 0.00479903 -0.017931474 -0.05909686 0.06579763 0.007327291 -0.12873621 -0.066776 -0.30868685 -0.05038248 0.14792244 -0.104881905 -0.17936574 0.035980817 -0.19145411 -0.081445634 -0.04718321 0.0073233442 -0.11277912 0.082895875 -0.064960316 0.22388524 0.00836915 0.0449198 -0.33944625 -0.25575668 0.11710439 0.1429636 0.01132863 -0.0079680225 -0.068892404 -0.118827686 -0.15958054 0.058512893 -0.0816064 -0.12922944 -0.15374334 0.25690714 -0.24534675 -0.13591535 -0.18644764 0.023531215 -0.12209299 -0.03407555 0.023151405 0.15032369 0.055440243 0.0022802914 -0.061739508 -0.13307911 0.18591085 0.04740725 -0.14876935 -0.106555454 -0.13408655 0.16533409 0.23782875 -0.2858878 -0.07983114 -0.029042443 -0.10290209 -0.2430576 0.00458041 -0.13112295 -0.14270191 -0.117630236 -0.113596976 0.018973399 0.051254436 0.124384396 0.07757356 -0.08838599 0.06896862 0.07458268 0.06408566 -0.15610969 -0.11263733 -0.049697388 0.15117534 -0.029826583 0.099834755 -0.25844705 -0.09486502 0.007380052 -0.14319612 0.11252357 0.15649045 -0.08686073 0.13224334 0.14243177 -0.113385 0.13660002 -0.10318845 -0.21217409 -0.09847705 0.098532476 -0.22586372 -0.029657198 -0.08795974 0.20464015 -0.03212011 0.031596538 -0.20346846 -0.19088225 -0.01633919 0.17293172 0.20375311 -0.06056549 0.009304819 -0.12354388 0.17104773 -0.018055137 -0.0754265
89 0.2052499 -0.06470409 -0.23086052 0.041552015 0.117014304 -0.021982132 -0.0044250493 -0.12934853 0.11083277 -0.12760273 0.0044186795 0.010498597 -0.12807271 -0.04755085 -0.010137933 -0.20554738 0.0031138305 -0.0075024916 -0.10224229 0.16849923 0.13773794 -0.025215197 -0.027206425 -0.112829395 -0.077324495 -0.046658773 -0.11597227 -0.17285663 -0.12101009 0.11028499 -0.021748886 0.0458052 -0.072276704 -0.18489479 0.064481996 -0.14956309 0.11630659 0.12864436 0.15149944 -0.0068139555 -0.34361008 -0.039733376 -0.047179762 -0.09345339 -0.2587199 -0.081698984 -0.22564124 -0.28363892 0.028982522 -0.12706697 -0.049019895 0.106413655 0.08686658 -0.13774966 0.08040337 -0.109254405 -0.00887885 0.18963984 -0.10159689 -0.080152966 -0.011985729 0.0916047 -0.092151985 0.10055868 -0.09608629 0.16072069 -0.11259837 -0.22246654 0.025485521 0.06561753 -0.18322358 0.25653762 -0.01049235 0.06024597 -0.18943398 0.12478907 -0.20878257 -0.051812876 -0.1467067 0.08508519 0.006794418 -0.14578047 -0.30972284 0.08219352 0.025266295 0.17114334 -0.22661471 0.08470208 0.15541355 0.02784187 -0.08593104 0.048712127 0.010372729 0.17291246 0.0056820926 0.057198703 -0.05976161 -0.057841748 0.10476578 -0.27530253 0.15827571 0.10054325 -0.037580032 0.16057436 -0.10682839 -0.03191163 0.040872723 0.043191563 0.13184239 0.049329754 -0.12736502 0.16020459 -0.30566466 -0.19543971 0.1049607 0.09033442 0.08605195 -0.16977136 -0.3008697 -0.21919188 0.31200802 0.10561497 -0.10668599 -0.16860963 0.084334314 -0.19073543 0.0683153 -0.12784885
875 -0.08639233 -0.17810841 0.21614474 -0.07101539 0.011910059 -0.04872373 0.10427476 -0.19492276 -0.060509063 -0.09928199 0.023589853 -0.25903952 -1.8077591e-05 0.07837646 -0.20898852 0.05533544 0.109577104 -0.1143469 -0.1330267 0.07131989 0.14743511 0.06678551 -0.052669067 -0.009475835 0.028091004 -0.17122185 -0.050924093 -0.07329966 -0.022766955 -0.18227094 -0.1623305 0.041131034 -0.13084258 3.040409e-05 -0.12556313 0.013704875 0.3645497 0.14024813 0.16807228 -0.22376007 -0.21051271 -0.047949873 0.03839352 0.08103175 0.010529345 -0.03960258 -0.06618008 -0.26753432 0.014601131 -0.13610084 -0.046200898 -0.03684334 0.49032107 -0.09599517 -0.09765694 -0.21663924 -0.044018652 0.21470857 -0.07139624 -0.12397101 -0.22049733 0.031922076 0.05777943 0.05474447 0.028111616 0.020539664 0.024685329 0.043236423 -0.03483227 0.034053512 -0.14103717 0.0021746645 0.024844928 -0.19914874 0.22211067 -0.052474726 -0.17347743 -0.012153092 0.06381432 0.10657559 -0.07821142 -0.022270657 0.13611335 0.06499298 -0.1789431 -0.051601175 0.003168297 -0.1286857 -0.068724014 0.18376546 -0.15394497 -0.055789344 -0.04036361 -0.0034757007 0.098551616 -0.068049595 0.10719644 -0.05189979 0.027178425 0.1003067 -0.071192175 -0.0033176113 -0.060140457 0.16423155 -0.1035915 0.055832814 -0.06122427 -0.13773441 -0.19898935 0.29913145 -0.086746104 0.02776273 -0.20124762 -0.023595303 -0.008148232 -0.003479981 -0.033327598 -0.20765653 -0.2541275 0.14246774 0.042336892 -0.086835116 -0.10422519 0.049368646 -0.104526915 -0.062671155 0.054684732 -0.08146732
