2381 128
1615 -0.054436263 0.004168183 -0.13156153 -0.18915914 0.14277032 -0.10782554 0.10869382 0.09607056 0.00409737 -0.03785878 0.16721918 -0.048694618 0.1395807 -0.20186424 0.15081182 -0.19800298 0.24784194 -0.213058 0.01810356 0.007234558 0.28402695 0.083954155 -0.28280413 -0.19096522 -0.24704756 0.16841069 -0.017631205 -0.26640218 0.33357033 -0.059798867 -0.110728934 -0.17568828 0.0020731555 0.06598104 -0.01726173 -0.097942166 -0.17762727 -0.011895694 -0.004499308 0.13283746 0.30550867 -0.034148254 0.0074600275 0.20957972 0.13414894 0.028836062 0.069824666 0.055731542 -0.06824512 0.058775876 -0.100942984 0.050616514 -0.1394468 -0.15304197 -0.027849777 0.21417485 0.066093765 0.030222079 0.15750305 -0.1025022 -0.111762546 -0.09146532 -0.08376199 -0.023537885 -0.11175521 0.036186453 -0.04952541 -0.13136193 0.20774277 -0.360625 -0.16568789 -0.12050666 0.0028935536 -0.17266074 0.10437475 -0.2029256 0.16806667 0.20723201 -0.19623666 -0.009155506 -0.11341578 -0.05738707 -0.035216577 -0.068098225 0.00984327 0.11212803 0.30068472 0.09176392 -0.034296878 -0.07410268 -0.13886486 0.0013316327 0.016226556 0.22514239 -0.073913485 -0.13719237 -0.15397409 -0.15825607 0.035394464 -0.21045697 -0.15404563 0.3113442 0.16306843 0.0032672542 0.16936277 -0.28813955 0.06455097 -0.32241365 -0.1469091 -0.24448061 0.039776567 -0.041607242 -0.16680181 -0.14570081 0.07594911 -0.14137335 0.11445573 -0.07393727 0.076023355 -0.098143235 -0.010345309 -0.13854653 0.06042498 0.19871679 -0.09057736 0.3101554 0.022293806 0.110208035
2221 -0.31570715 0.2488887 -0.14687908 -0.25408474 -0.08853248 0.09629259 -0.29895005 -0.23080918 -0.12732905 -0.07425826 -0.17476127 0.059793815 0.026276343 -0.09416736 -0.00090852875 -0.10687241 0.2618023 0.06874438 -0.01090822 0.1754686 -0.10373455 0.2798206 -0.059290018 0.12107335 -0.004537502 -0.036798716 0.18995412 -0.044264816 -0.023898082 -0.15649581 -0.33877233 -0.0003767342 0.08462648 0.015772643 0.16706736 0.2059183 -0.110228375 0.11905883 0.16893621 0.3272543 0.12618613 0.041206907 -0.08350636 0.069388635 0.06016278 0.06316887 0.15661769 -0.09862311 0.09033344 -0.07561494 -0.030528 -0.060670912 0.08288148 -0.057227366 0.25356287 0.14576314 -0.0647178 0.1296568 0.096973315 -0.19869675 -0.13494758 0.05681664 -0.10096427 -0.25976178 0.0037885043 -0.24572073 0.20364921 0.17302512 -0.21106581 -0.24785808 0.21167195 0.25071183 -0.12935595 -0.056139186 0.19664031 0.09769938 -0.115162194 0.16388384 0.15810195 -0.016763994 -0.12746082 -0.20345664 -0.022831734 -0.1996756 -0.28749633 -0.004728452 0.08547221 0.10438959 -0.14159493 -0.0002245765 0.21709824 0.21211219 0.020363368 -0.024959862 -0.35507193 0.0152093135 0.066980064 -0.22146088 0.14049657 0.07774448 0.05107234 0.06804103 0.08484444 -0.044331852 0.030905232 -0.110991426 -0.0514581 0.07292144 -0.12939791 0.018957635 0.2111993 0.013043956 -0.06549352 -0.34721228 0.015148942 0.02281223 -0.08590576 -0.2857315 -0.21856238 -0.031259462 0.07343041 -0.11088643 -0.115730114 0.09250061 -0.12316239 -0.31861725 -0.04601701 0.0304071
761 -0.13580249 0.23737884 -0.032728694 -0.08451113 0.124337554 0.011729911 -0.019968715 -0.29026628 -0.31591475 0.16701077 -0.15735102 0.21230981 0.18903017 -0.10362378 0.11371257 -0.09846028 -0.12966566 0.0047110156 0.048135933 0.13320976 0.49231544 0.15242977 -0.06821082 0.0027668236 0.018105436 0.015862871 0.17202179 -0.15474343 0.024920093 -0.20021343 -0.03817005 -0.33276504 0.11413883 0.32478556 -0.18205866 0.19477436 0.08947524 -0.10951833 -0.1113681 0.008063859 -0.039217178 -0.015995188 -0.16321452 0.07916612 -0.09214256 0.26156175 -0.21621214 -0.21062067 -0.10403436 0.0486429 -0.24600323 0.056996245 0.05026072 0.04533878 -0.087991074 0.10390355 -0.15344074 0.04560562 0.15088162 -0.15448098 -0.060240403 -0.08990548 -0.0932491 0.0035848247 -0.079088025 0.028604351 0.048549566 0.00449092 -0.07896179 -0.15606105 0.0068995263 -0.34441543 0.24052736 -0.040097516 -0.067662574 0.032362144 -0.037443638 0.11084774 -0.24529062 -0.026282601 0.09715276 -0.026982106 0.32825527 0.22145495 0.11642485 0.015784612 -0.057175823 0.006515316 0.062452752 0.06802297 0.017041696 0.0028855316 0.021790532 0.02632338 -0.19414815 0.14546195 -0.22861408 -0.15227944 -0.054424416 0.07429703 0.08956411 0.1675003 0.101449564 -0.055117074 0.11132328 -0.019620446 0.27666903 0.36256668 0.14314844 -0.006778251 0.11501535 -0.072891556 -0.025596254 0.0813882 -0.27738097 -0.38489902 -0.09633941 0.013889686 0.015997017 -0.10255551 -0.12012381 -0.007102162 0.08279268 0.06887356 -0.21635169 0.17890331 -0.065024085 0.1913735
1034 -0.14282487 0.30928952 -0.12258722 -0.041081183 -0.044376038 -0.068452 0.2637801 -0.23952721 -0.04962441 0.016708862 -0.17918648 0.114418745 0.07545803 -0.12082527 0.10554573 -0.14277726 0.27473155 0.035156578 -0.1537601 0.34437987 0.26073548 -0.08494661 0.14078636 0.31966224 -0.057759393 -0.10068065 -0.010409077 -0.05852502 0.17606641 0.1331396 -0.07378923 -0.035200927 -0.07360994 0.2283287 0.18074998 -0.20053577 0.34647766 0.34482184 0.0006352557 0.23179592 -0.114528224 -0.05442355 0.11342544 0.043098435 0.1273035 -0.039139953 -0.018063894 0.17111738 -0.064098164 0.23962605 0.014056575 -0.06792182 -0.20001376 0.07579998 0.043701734 0.22301072 0.26029027 -0.3141961 0.017037408 -0.18638511 -0.14770487 -0.032329645 0.04162309 0.006272514 0.027709652 0.0765772 -0.0053246478 0.052035883 0.08176106 -0.09687566 -0.0657375 0.19216049 0.08567455 -0.1662254 -0.053166408 0.1244435 -0.01493113 0.10300164 0.23915578 0.00065252796 -0.0932552 -0.17270848 -0.102847576 0.1038777 -0.092708014 -0.13682126 0.2122253 0.16514431 -0.008673949 0.49824494 0.003313503 0.07071067 0.30365992 0.023249878 -0.2969956 0.06051572 -0.38380656 -0.27122536 0.1880222 -0.16877201 0.22887105 0.13155824 0.13795343 0.055485304 0.13177672 0.20084241 0.09100902 0.11500689 -0.035736084 -0.2167245 -0.004724102 0.029989377 -0.052966937 -0.15417233 -0.018059745 -0.000713034 -0.029797131 0.00047269327 0.1296279 0.089664444 -0.17360024 0.24711561 0.041836295 -0.14591433 -0.10238618 -0.24885014 -0.03055596 0.13387837
1011 0.023454871 0.037967414 0.07225203 -0.084518924 -0.024542343 0.04050017 -0.029523242 0.19173747 0.08194447 -0.12282825 0.048355468 -0.07083837 0.22917877 -0.18554449 0.19743776 0.093776554 0.19771743 -0.047666475 -0.18573716 0.23604241 -0.038301907 0.03194079 -0.10491148 0.22477989 0.15313827 -0.19981004 0.0858292 -0.14174092 0.10750508 0.0035216033 -0.015983984 -0.045890238 -0.011761898 0.0709362 -0.29053295 0.1171744 -0.08437289 0.22615385 -0.10528965 0.030604579 -0.059410468 -0.10678894 -0.23056732 0.44518664 0.19501625 -0.21733482 -0.22676216 -0.12426533 -0.16751124 -0.21112509 -0.16315584 0.08210093 -0.20389728 -0.16633289 0.039310295 -0.019091679 -0.012833338 0.15921707 0.26324698 -0.04371612 0.014011845 -0.05806166 -0.20460206 -0.10175683 0.011013355 0.026412563 -0.066063054 -0.119555004 0.049625747 -0.2282951 0.002790693 0.11838543 0.15017894 0.023093281 -0.23046732 -0.056614023 -0.08607695 -0.05015291 -0.1688726 0.054618973 0.05437543 -0.072213404 -0.030564137 0.06592694 0.031346686 -0.14579156 -0.009861136 -0.06326903 -0.14744283 -0.13190542 0.058482025 0.13634016 0.036057513 -0.04873258 -0.21229094 -0.13799751 -0.14385338 -0.1490248 -0.10991487 0.00276395 -0.14781278 -0.17231855 0.09566919 0.15992144 -0.028475633 -0.118512824 0.15130733 -0.0041894144 -0.08782461 0.12063127 0.20441991 -0.04850666 -0.02359201 -0.11387229 -0.03926815 -0.040589213 0.025656333 -0.100482486 -0.16783905 -0.0051373905 -0.08768005 0.01401152 -0.26824877 -0.2222549 -0.1196179 0.08183883 0.05937461 0.17382555
1319 -0.13263497 -0.027026448 0.013789812 -0.49413207 0.1972187 -0.26161492 -0.1081879 0.29853037 -0.07938165 -0.03990436 0.09758017 -0.101504855 -0.020081716 0.050849248 -0.33675745 0.053057004 0.046102278 -0.28031304 -0.14713873 0.19700117 -0.104714476 0.23125803 0.12878968 -0.045962162 -0.36190212 -0.087983534 0.17817806 0.083843306 0.22637926 0.10798938 0.16837037 -0.050586015 -0.18517977 -0.09033041 -0.16158186 -0.15102245 0.09466349 0.16880466 0.057609364 -0.08933306 0.0854232 0.2480432 -0.021231983 -0.024347726 0.27833584 0.108612716 -0.059397444 -0.14175688 -0.17553096 -0.04940576 0.0042950674 0.107378386 -0.023479177 -0.2818068 0.056110628 0.23717798 0.18435332 0.13233496 0.044134248 -0.08620024 -0.10396366 -0.057685677 0.020967122 0.065424345 -0.05281429 -0.16121449 -0.039158646 0.1963186 0.04766406 0.13839963 0.40831313 0.21882091 -0.14382008 -0.10829182 0.060531195 -0.0026006156 0.20692232 0.06328642 -0.24845813 0.07531899 0.38429245 0.018865786 0.16972159 -0.2076092 -0.26607713 0.053908907 -0.06779138 -0.026000846 -0.12544104 0.16327506 -0.09767292 0.020774394 0.095224485 0.08187782 -0.07665666 -0.40552628 -0.03417554 -0.17006695 -0.10164292 0.17549732 0.15948386 0.2517008 0.27997193 0.07539129 -0.09629678 -0.1950917 0.35735077 -0.22288515 0.05806075 -0.07210615 0.18225767 -0.087519184 -0.076308355 -0.14219749 0.11926609 0.109187126 0.232361 0.013765339 -0.041915394 -0.12375775 0.022044947 -0.0144841755 0.21732998 0.08394921 0.0041950988 0.028442582 -0.10344661 0.1919483
60 -0.08207892 0.28213084 0.0074247317 0.16857095 0.08004752 0.07040679 0.080755636 0.034734823 -0.12768751 0.020527596 -0.04984967 0.22870919 0.19511305 0.2021875 0.12250027 0.00027149226 -0.303406 -0.24012579 0.06205779 -0.06381813 0.19854517 -0.020604946 -0.06124999 0.2793668 0.130975 -0.026921185 -0.12706429 0.021933021 0.18959287 0.045414664 0.16095714 0.1583867 -0.2916027 0.17808782 0.11896933 0.010528595 0.019524194 0.46228665 0.076986074 0.26192558 -0.04116664 0.19309036 0.02682217 0.15700018 -0.059750434 0.29698253 -0.16207138 0.022031846 -0.033251014 -0.011256605 -0.1619467 0.20965686 -0.18014857 0.008216822 0.1012939 -0.0019774816 -0.045297287 0.05624681 0.212848 -0.0076904185 -0.042202264 -0.16782041 -0.13196948 -0.10103685 -0.020274397 -0.0021528455 0.1801127 0.095369756 0.0021597617 -0.04389891 -0.06858823 -0.18091317 -0.012622104 -0.12922889 -0.34230542 0.051183708 0.019253766 0.07502566 0.14030081 -0.07573903 -0.036652833 -0.3146112 -0.16330534 0.15915057 0.0876372 0.21353094 0.41255873 0.055054404 -0.11375611 0.24943309 0.13474204 0.30649218 -0.15859672 0.21978559 -0.107966006 0.1227847 0.040503833 -0.05931123 -0.25082025 -0.042237602 -0.09012318 -0.2608293 -0.057917833 0.085718386 -0.24436352 0.17991331 0.2722918 0.022318643 -0.06523012 -0.06653779 0.14315724 0.22483487 0.016295439 -0.123604424 0.13436195 -0.17092042 0.26844457 0.04725734 0.23286298 -0.10176917 -0.06560557 -0.011659513 0.0723643 -0.17110178 -0.04223362 -0.13257211 0.03244787 0.082681425
1117 0.14789529 0.39948526 -0.19239537 -0.118568584 0.11611752 -0.08620341 0.07682299 0.02580992 -0.07175787 -0.03406736 0.043912366 -0.07277785 -0.065476105 0.22227605 0.095070966 -0.05999862 0.116761 0.055787448 -0.22548969 0.24778505 0.21857661 -0.12344595 0.062364113 0.35573465 -0.19342437 0.06676676 0.13140549 -0.06123019 0.007214241 0.039900374 -0.15964858 0.0109555535 0.03054901 -0.13644637 0.049837448 -0.11696313 -0.03266055 0.12350152 -0.06665584 0.082744524 -0.071101435 0.19723089 0.05209878 0.44934195 -0.08555803 0.01758484 -0.017796747 -0.14418648 -0.08683648 -0.06850166 -0.35156634 -0.30936068 0.0054940693 -0.02918457 -0.28590718 0.039950736 0.06605841 9.055814e-05 0.29341516 0.030894523 -0.23905568 -0.23645067 -0.04908275 -0.09129513 0.016630327 0.11257903 0.09356892 -0.09147207 -0.21054451 0.07983295 -0.023653096 -0.0388906 -0.17339452 -0.3630491 -0.17874753 -0.055654317 -0.18033774 -0.13225704 -0.40621263 0.18655081 0.1438801 -0.21166573 0.049634248 -0.14822197 0.006088828 -0.02047873 -0.06555306 0.22993635 -0.1049194 0.041655365 0.0685521 0.24230331 -0.050930817 0.09929753 -0.2325442 -0.042916328 -0.027292788 -0.06898717 0.024874996 0.06789836 0.034976438 -0.027533034 0.10686864 0.18401162 -0.05048559 -0.07509928 0.38494098 -0.24394436 -0.09218987 -0.031587552 0.11214453 0.058454994 -0.038941257 -0.048200794 -0.13479188 0.0017784019 -0.08913692 -0.074469596 0.13055357 -0.2599412 0.018252335 0.22154059 -0.55040693 0.22088745 0.10225691 -0.12757416 0.04956613 0.012379899
1032 -0.2567979 0.031253632 -0.008739345 -0.12580128 0.16076137 -0.14964005 -0.140425 0.0056742327 0.24291672 0.08314901 -0.122420445 -0.13061264 0.17668614 -0.0846628 0.2726862 -0.03024744 -0.11723027 -0.21189438 0.30375448 -0.08837398 -0.09247942 -0.06258831 -0.041068923 0.14540118 0.09351406 -0.31346643 0.15193304 -0.13284919 0.077777795 0.10061823 -0.15751202 -0.0134789925 -0.0543029 -0.0196714 0.2641268 -0.10816554 -0.073222764 -0.024206556 -0.077055424 0.17778291 0.04452752 0.0542804 0.061077572 0.045443214 0.22340243 0.10530913 0.2760176 0.101646006 -0.08977014 -0.03640054 -0.043480176 0.15186593 0.06286945 -0.058751512 0.19361234 0.15906271 0.31980148 0.039118595 0.339585 -0.021537306 -0.45217654 -0.13447699 0.28416783 -0.106834844 -0.118731916 -0.28523955 -0.0986441 0.007137714 -0.20738767 -0.1133275 -0.13663666 0.006977049 0.030629931 -0.032005697 -0.08575689 -0.104095526 -0.039041273 0.18674761 -0.20331943 0.03600927 0.0019277697 0.1879172 0.09318803 -0.09639255 -0.04495231 -0.22788784 0.19886492 0.3167024 -0.010577563 0.09703962 0.07170426 -0.35345867 -0.2119644 -0.14807309 -0.2983576 0.08950514 -0.24286678 -0.08089433 0.18781117 0.021289302 0.16953199 0.09513457 0.23569083 0.16297735 -0.119621396 -0.3001377 0.41200638 0.14252155 -0.036529362 -0.066889 -0.06969447 0.09773504 0.22791006 -0.019843904 -0.12922546 -0.17503339 0.045293752 0.035378214 -0.012362475 0.11531848 -0.04177217 -0.14469871 0.17146033 0.058120284 -0.08165617 -0.10489787 -0.19680469 -0.10153371
1347 -0.27446145 0.16467226 0.113170005 -0.123228475 -0.052897222 -0.15754879 0.006189927 0.07880828 -0.011430376 0.044453543 0.1816365 -0.11471098 0.019393174 0.19680823 0.24659441 -0.1381708 -0.01409738 -0.06637932 -0.06792057 0.005071922 0.012979176 0.18907738 -0.106360525 -0.0036298956 -0.10977583 -0.30667314 0.2471765 -0.101976 0.2006945 0.1052551 0.056835707 0.10333855 -0.04682211 -0.02507839 0.1557177 -0.10824495 0.23387152 -0.19724287 0.19574901 0.23417227 0.13771619 0.26905403 -0.27388394 0.023899239 0.028243337 0.03763423 0.00906675 0.21716927 0.30013528 0.04943895 -0.24841712 0.11955496 -0.079771645 -0.06731013 0.24411005 -0.08980765 0.06741804 0.013094614 0.25470698 0.06432333 -0.17339644 -0.06418324 -0.27962777 0.28017145 0.060154453 -0.2177894 0.1620222 -0.027635513 0.12156392 -0.07030909 0.13522278 0.18632907 0.22925533 -0.047750637 -0.12590885 -0.20843098 0.14918096 -0.059386563 -0.12708034 0.0004315775 0.07195832 0.16334257 0.32371405 0.020995082 -0.07154935 -0.052335035 0.24875651 0.059409544 0.008517418 -0.076711535 0.07617991 0.11631576 0.14020859 -0.32941097 -0.16634315 0.029053165 -0.18140928 -0.15559372 0.16671617 -0.13812491 -0.089628436 0.028870195 -0.041243173 -0.08265618 -0.016456801 -0.32780036 0.16823411 0.12928005 -0.07681199 0.14698374 0.19449098 -0.12653293 -0.0065582446 -0.24179879 -0.027045818 -0.08823726 -0.105597116 -0.04355163 0.091497116 0.28517064 0.018532423 -0.033479616 -0.044194687 -0.019274706 -0.25753996 0.089396216 -0.09684876 0.17533478
1200 -0.19924842 0.054006323 0.23012447 0.03266175 0.08293665 -0.09784433 -0.046336256 0.32477942 -0.38154778 0.12760058 0.09719229 0.0934315 0.0588099 -0.35670316 0.15810409 0.08985705 -0.283746 -0.22060151 -0.0858247 -0.009186971 0.058079615 0.11077016 -0.021762762 0.028767213 0.02084783 0.11777825 0.06336553 -0.07573826 -0.020521266 -0.08637476 -0.087761246 -0.03432549 -0.14049481 -0.048675515 -0.09649631 -0.11732817 0.104348265 0.305479 0.13034314 -0.14658438 0.19566739 0.17608552 -0.12648337 0.14913566 0.20324756 -0.0003290241 0.24326763 0.031013453 0.31072104 -0.07395927 0.09541176 -0.0073565533 -0.13302535 -0.40769532 0.25182784 0.42172906 0.18644215 0.015394884 -0.029234579 -0.21108533 -0.07335227 0.037393123 -0.08787796 -0.11074148 0.025664574 -0.12267817 0.23056188 0.06370866 0.09752408 -0.09703526 0.11617556 -0.043254305 0.12854429 0.051557653 0.031084161 -0.11445173 -0.10338317 0.19935492 0.086675875 0.03449547 0.16433045 -0.14684363 -0.2645336 0.008691753 -0.15055202 0.09745146 -0.09174399 0.10046823 -0.052227944 0.1725329 0.029596318 0.101483144 0.010285854 -0.078792386 -0.04984857 -0.08703139 0.16740254 0.12850684 0.095768526 0.15509754 -0.09863775 0.34511006 0.3066362 0.15848048 0.024524365 0.18636045 0.069523215 0.07717214 0.016151594 -0.079227105 0.08459419 -0.019548655 -0.10496108 0.16632807 -0.0016989182 -0.034089234 -0.05946346 -0.059184186 -0.08626644 -0.16367848 -0.16410121 0.099661164 -0.053637948 -0.0016680108 0.093059696 -0.099418275 0.31307513 0.06678821
2159 -0.049180154 0.044861972 -0.00015790248 0.01502354 -0.33286443 -0.17881858 -0.061802004 0.15336403 0.101747274 0.116441436 0.028141856 0.113764554 -0.03300354 -0.10902866 -0.067306325 0.03756067 0.04391536 -0.13201094 0.20251153 0.14991827 -0.088643126 0.29874116 -0.1972655 -0.15715909 0.21190731 -0.047139417 -0.036661 -0.17676792 0.16340353 -0.1206917 0.19758809 -0.1010283 0.15762405 0.08579923 -0.078113355 0.1815987 0.13546601 0.17685941 -0.10894403 0.17422669 0.2542087 0.1379582 0.15699331 -0.30219853 0.037198324 -0.057520915 0.015169499 -0.013657237 -0.20558892 0.007808352 -0.30292672 -0.030549135 0.01662125 0.022921897 0.027265895 0.16625325 -0.06649828 -0.24111657 0.22942622 -0.16153663 0.13776344 -0.24678104 -0.14738807 -0.017821886 -0.11742836 -0.07122524 0.26429087 0.035240978 0.1639495 -0.13371922 0.1480632 -0.16120398 -0.028541641 -0.3495024 -0.1450385 -0.2401042 0.04745617 -0.050333913 -0.03499036 -0.16019145 -0.07258013 -0.04721072 0.13703473 -0.05375295 -0.10282366 -0.20214735 -0.07566012 0.18991627 -0.2870189 -0.27132437 -0.00021502304 0.26343885 -0.17122269 -0.11815978 -0.3155722 -0.25139812 0.045841523 -0.13004701 -0.057053648 0.1599081 -0.15465233 0.12638015 -0.038687855 0.10163635 0.11415708 -0.058968842 0.07479336 0.21036753 0.06860564 0.096810594 0.17151302 0.07092961 -0.083191216 -0.04879714 -0.036721114 -0.38946173 0.06819879 -0.14330482 -0.20208082 -0.022399032 0.15998568 -0.13880967 0.11416288 0.010180868 -0.27644303 -0.122625686 -0.07310957 0.13211882
1325 -0.16830596 0.23790199 0.05016212 0.121613376 -0.27502728 0.13327621 0.15484403 -0.3324348 -0.10142501 0.086968385 0.015114317 0.09554179 0.2417085 -0.022267148 -0.069533184 -0.13515618 -0.24019203 -0.18362524 -0.12567982 0.10528408 -0.02922706 -0.017877758 0.11086471 0.09022177 -0.14313297 -0.2850231 -0.13291478 -0.23176168 0.13532692 -0.17357871 0.14319539 -0.15384525 0.14541256 -0.2509951 0.1535381 -0.09179574 0.17845973 0.049527258 0.14238812 -0.10823736 -0.16164665 -0.09224021 0.08659215 0.34026405 0.024588846 -0.041856024 -0.3413748 0.02187705 0.0022694755 0.01779557 -0.21131387 -0.05771099 -0.005925964 0.019694284 0.040415056 0.10520514 -0.013264171 -0.21067432 0.015665526 -0.22718868 -0.17719512 -0.21124615 -0.1630294 -0.10852515 -0.17758301 -0.15416655 0.11709033 0.060874425 -0.022264263 0.024575759 -0.015331585 0.067087494 0.18896578 -0.27012596 -0.19730948 0.0730897 -0.16219766 -0.09445508 0.09410681 0.100071 -0.18658164 0.14973356 -0.13036424 0.13625716 -0.25200474 -0.12861176 0.037257556 0.2522682 0.022885537 0.054775763 -0.43139267 0.08435295 0.020609977 -0.0069810823 -0.07876148 -0.07052961 0.074053824 -0.07388882 0.12063965 0.19082925 -0.23275174 0.08560462 -0.06801776 -0.047770172 -0.2107897 -0.063884765 0.21075249 -0.1966918 0.005334027 -0.09094394 0.16017228 -0.1297585 0.060660698 -0.22454081 -0.095863685 -0.20867094 -0.17416857 0.15654843 0.030377813 -0.02161541 -0.2111598 0.22681455 -0.22423778 0.031538036 -0.17202172 -0.017333902 -0.13605006 0.17250477
239 -0.08357131 0.09655068 0.08017613 -0.028011141 0.029365422 -0.20481512 0.13778077 -0.03317946 -0.276329 -0.039024603 0.18512759 0.13293396 0.06683545 0.11030542 0.13477948 0.04261201 -0.013561757 -0.02934187 0.047362097 0.045496766 -0.40936565 0.06102674 0.027368426 0.3375239 0.08815733 -0.17008282 0.14929655 -0.12160053 0.27076584 -0.08117637 0.234786 0.061818995 -0.13651416 0.19909753 -0.29146552 0.11571166 0.075610355 0.18951142 -0.18336359 0.09722 0.28265584 0.025952304 -0.38493574 0.04164654 0.015013963 0.07039705 0.03608443 -0.0986419 -0.041426387 -0.0874931 -0.10778789 0.03952952 0.03886859 0.13581683 0.06839688 0.34140474 0.08217338 -0.11394138 -0.18099475 -0.22470818 0.08205135 0.010957229 -0.1476689 -0.039580513 0.03164126 -0.30786756 0.114974216 0.0841458 0.23807746 -0.10735439 -0.041149408 0.07046925 0.10147301 -0.015968451 -0.09423578 -0.02833228 -0.048283793 -0.15397751 0.200742 -0.11728232 0.2364024 -0.06114007 -0.21608959 -0.16486195 -0.2828465 0.22466941 0.18420674 0.005007193 -0.022896571 0.15094294 -0.19124271 -0.012171162 0.12174549 0.28106102 -0.14673622 0.0848897 -0.2162015 -0.25240064 -0.07675946 -0.11045648 -0.2350628 0.123177044 -0.14925367 0.08532027 0.18186049 0.0018006917 0.22759268 0.18263467 0.13159068 -0.15421867 -0.06756611 0.035308935 -0.110505685 0.09443917 -0.06490021 -0.21754155 -0.12865372 0.091101475 0.08261135 0.28918377 0.011857891 0.08132628 -0.06788808 -0.06431491 -0.20516646 0.09804761 0.15852042 0.13972807
1366 0.036078963 0.01736164 -0.19626397 -0.070665896 -0.06254124 0.044925135 0.038545307 0.019085823 -0.18821183 0.1352112 -0.07315827 0.2702158 -0.07868695 -0.017640663 0.08774804 -0.28709385 -0.019931285 -0.062288154 -0.41145006 -0.094640166 0.15790324 0.24477749 -0.21390846 -0.17774153 -0.0005958359 -0.07949486 0.08494983 -0.13844825 0.3067991 -0.043254655 -0.10698113 0.09654985 0.0011926183 0.05156216 0.054947916 0.18584597 0.013435878 0.13974124 0.010951323 -0.042376332 0.036723092 0.0409345 -0.08138172 0.2619434 0.09068642 -0.08814485 0.13660806 0.025464138 0.09334429 0.20656884 -0.1803025 0.022828016 0.0008438409 0.093207315 -0.08219719 0.2305037 0.05494896 -0.051195204 -0.002990887 0.16826427 -0.34133217 -0.040785648 0.09940469 -0.00051852094 0.013280066 -0.2315851 -0.06229051 -0.009590231 0.04547591 -0.21307385 -0.18175799 0.028889382 0.19932176 0.009325483 -0.20841613 -0.12559511 -0.24128045 0.2221059 -0.035589203 0.0690061 0.013905089 -0.07792812 -0.1326849 0.12630095 -0.10380402 0.058272887 -0.020681625 -0.08148804 -0.05326814 0.13081835 0.05249284 0.09102684 -0.09561116 0.118653305 -0.038239237 0.21440749 0.08249492 0.14880541 -0.16776456 0.23606879 0.06703854 0.042056844 0.025278669 0.3744331 -0.1354764 -0.12490451 -0.03562412 -0.05802003 -0.0029238472 -0.22691736 -0.002305476 0.036120195 -0.26133844 -0.014725824 -0.23211782 -0.083772324 -0.08090661 0.20725094 0.22953722 -0.1281378 -0.014478247 0.42681065 0.034755602 0.14108448 -0.07138511 -0.19572361 -0.0742143 -0.13325316
1354 0.027859664 0.0788351 -0.117899485 -0.24356514 0.08294304 -0.039624948 -0.015524123 0.20569661 -0.2587438 -0.014352188 -0.1688268 0.21820846 0.012117311 -0.06714061 0.05291767 -0.165291 0.2524196 -0.092137076 0.01790589 -0.14479002 -0.10500726 0.14063677 -0.08145907 -0.19894207 -0.14072436 -0.08306861 0.15220994 0.19064143 0.16263472 -0.061770942 -0.21355036 0.1812996 0.12486567 -0.05330357 0.02936292 0.10955143 -0.011635124 0.2546876 0.12266407 0.12429046 -0.06858817 0.09657123 -0.15298533 0.09380509 0.25179183 0.05039336 0.027897697 0.031381294 -0.015631361 -0.09298227 -0.01953919 0.09068457 -0.00033833264 0.07270427 0.1556089 0.043984845 -0.08056169 0.23395404 0.123955205 0.091036744 -0.050288703 -0.078527875 -0.15240484 -0.012794053 -0.049748696 -0.35239822 -0.07921144 -0.019542674 0.0046109217 -0.1461989 0.23996474 -0.21179877 0.28739756 -0.032614026 0.036577564 0.018762263 0.0156046245 0.05553026 -0.2899401 0.08163583 0.11881198 0.029235577 -0.10198573 0.18490231 0.03433836 0.0034251758 0.12342569 0.08971553 -0.07968544 0.123780884 0.013900553 -0.14068781 0.12753038 -0.09682201 -0.21122813 0.06462581 0.06945973 -0.030497938 -0.041958164 0.08133392 -0.10349485 -0.014122101 0.01457105 0.12720905 0.030537857 -0.093802616 0.30287838 -0.24267276 0.0032896153 -0.22328739 -0.09248984 0.21389578 -0.20213754 -0.0054660486 -0.004570093 -0.18688759 0.22066697 -0.08329684 0.22532377 -0.12213279 -0.1389337 0.2888485 0.06598572 -0.12292334 -0.04526324 0.08408617 -0.09991926 -0.027029468
1632 -0.06316325 0.22710145 -0.029148826 -0.0251389 0.101246044 -0.040310174 -0.35662663 0.032981012 -0.20984642 -0.1028455 -0.02212252 -0.09086105 0.024250558 0.15652288 0.029867603 0.28302005 0.16892391 -0.014561728 -0.13297091 0.013829622 0.040105786 0.08679849 -0.02044908 0.1245254 -0.12742105 -0.20809257 0.07726802 -0.22443639 0.2834677 -0.030220872 0.0026177405 0.23302214 0.06587542 0.01611657 0.19343454 0.17743838 0.033008445 0.06020677 0.099708386 0.13513872 -0.28712595 0.39450765 -0.13622853 0.17532746 0.02618763 -0.031301737 -0.09064244 0.15154527 -0.2622979 0.15332249 0.0038698963 0.00047093013 -0.040103234 -0.13954237 -0.026993962 0.22299191 -0.30962214 0.11602898 -0.13199171 -0.04701726 0.06958963 0.04124804 -0.07019045 0.15275204 -0.16135532 -0.085032985 0.0049940445 0.22065152 0.18536133 0.1455168 -0.1413722 -0.21912569 0.019221665 0.18949094 0.024654444 -0.0067918487 -0.13101636 -0.025832064 0.016990466 0.019431964 0.06189824 0.20741966 -0.07414624 -0.023817025 0.04529589 -0.086402446 0.028134225 0.28145605 0.08842422 0.026667649 -0.023376724 -0.116939224 0.05163873 -0.13929972 -0.061914574 -0.26980564 0.10188861 -0.08569322 0.20218244 -0.089356184 -0.022463981 -0.037920892 0.121187605 0.047076523 0.29685962 0.12504786 0.14958559 -0.15333846 -0.21639973 -0.25075573 0.031837866 0.19612324 -0.13836744 -0.26419413 -0.25828794 -0.14881611 -0.06543223 0.04104623 -0.17538823 -0.09568289 -0.06449637 -0.08605926 -0.053226143 0.02462893 -0.47057873 -0.14879921 -0.1602947 0.009928678
317 0.16625758 0.2470166 -0.12888892 0.025680957 0.039825268 -0.17088209 0.17799424 0.04498437 -0.33030376 -0.01975553 -0.21175878 -0.15010135 -0.0852885 -0.3647915 0.1321952 -0.058208056 0.10649563 -0.15018602 0.06578019 0.091294296 0.09496653 0.13270141 0.0037599658 -0.13960029 -0.026932465 -0.22512442 0.108361006 -0.09403883 0.057896625 -0.1786954 0.050379883 0.10718195 -0.14572772 0.28170803 -0.31739837 0.23037107 0.29505503 0.024799276 -0.0022874034 -0.15190403 -0.069857664 0.189734 -0.22445919 -0.0056719207 -0.098805085 0.11992841 0.28007028 0.029739784 0.07994444 -0.005359394 -0.10236824 -0.07152338 0.091144085 -0.053680006 0.15178972 0.12888308 -0.10787087 0.065715514 0.17003682 0.11459172 -0.08465824 -0.09844273 -0.19235359 -0.032552272 -0.022601966 0.08321844 0.029147351 0.1357709 0.040120818 -0.05278687 0.14642164 0.025791278 0.06100313 0.09492689 0.015458496 -0.090907626 0.2914188 0.25565937 -0.12745155 -0.01409659 -0.075419486 0.003935429 -0.08446698 -0.04971812 0.1099533 -0.18542807 -0.00672041 -0.12993497 0.057198465 0.17392069 0.07766757 0.024279363 -0.09371102 0.07219068 0.10791673 -0.07159474 -0.044547502 -0.05905289 0.10847707 -0.019776618 0.10259023 -0.035593357 0.056517076 -0.06803819 -0.12028713 0.024039932 0.17605902 0.1656954 0.036177836 -0.055101153 0.12474357 0.15575479 -0.061034758 0.051981702 0.14073011 -0.13167466 -0.1857288 -0.029391693 -0.1369387 -0.08549791 -0.044884842 0.07782334 -0.15375026 -0.083152905 -0.38911387 0.04885028 -0.055250756 -0.07347846
1726 -0.069028206 0.24612461 -0.33437517 -0.018379437 0.15945776 -0.20622556 -0.13635458 0.07103766 -0.25150064 0.024256647 -0.12355959 -0.058176074 0.17709787 0.030306805 -0.14620584 -0.058084454 -0.25784415 -0.28954384 0.12798011 0.12324024 -0.08366459 0.15090112 0.1434552 0.117839135 -0.047569577 0.11825899 0.01268376 0.19248487 0.13304827 -0.13669813 -0.21552917 -0.13260476 -0.03432753 0.20171362 0.10359138 0.25198796 -0.30464408 0.08193612 -0.0023884794 0.16149431 0.006619895 0.09534409 -0.112858005 0.2659254 0.21167353 0.13721311 0.14479595 0.00086853874 -0.03433586 0.11095324 -0.07964631 -0.065512046 0.005129017 -0.24270195 -0.028203182 0.057436578 0.064819574 0.15829207 0.12748499 0.024211656 -0.09864979 0.042273182 -0.1271028 0.032869253 -0.14968282 -0.07552526 0.28307196 0.039341796 -0.019353446 0.078439474 0.12267187 -0.009167064 0.12069445 -0.16623202 -0.19528534 0.18074805 -0.19335096 0.09534516 -0.14949384 0.18715137 0.4767229 0.0013919177 -0.24405995 0.057368264 0.1083446 -0.17037854 -0.13418789 0.024118753 0.1760426 -0.009977294 0.01893235 0.09134492 -0.00032439397 -0.045237273 0.024482468 0.06906986 -0.2221115 0.035093352 -0.24961028 0.040924646 0.20237924 0.06386234 -0.068326496 -0.34115505 -0.34944484 -0.011801662 0.0875415 0.18399414 -0.003662254 0.021261971 0.11234342 0.01613899 0.0041274657 -0.057017315 0.35109589 -0.23026739 -0.07190245 0.021820039 -0.2999968 -0.04198238 0.004857835 -0.1306486 -0.043192722 -0.17097227 -0.013518456 -0.02308249 0.06264417 0.21211426
1097 -0.11750955 0.0257026 -0.09342731 0.04996777 0.3205761 -0.2159439 -0.1326769 -0.025818761 -0.024916355 0.17151591 0.16710758 0.14100161 0.05781404 -0.1119682 0.21174186 0.010476314 -0.05015095 0.09605609 -0.11172617 0.16192666 -0.04404223 0.02222255 0.10689209 0.19069262 -0.0064049307 -0.26191854 -0.016943434 -0.1992869 0.18276098 -0.12785326 0.04644537 -0.20811817 -0.13306187 0.09341993 0.054661173 -0.12502868 -0.016748354 0.014174362 -1.2213441e-06 0.07268307 -0.060244985 0.36632726 -0.24868156 0.08191889 0.22290061 0.15021074 0.18999366 0.086898275 -0.12633623 -0.045717154 -0.034863513 -0.13893025 -0.026919605 0.023788719 0.033221684 0.22726154 0.15091491 0.09557686 0.23557508 -0.02668085 -0.11496901 0.028616058 -0.0021426089 0.09663866 0.09690188 0.07460084 -0.31328556 0.1571407 0.10692105 -0.2009916 -0.09209998 0.15276763 0.07426693 -0.15786795 0.044144362 -0.13870919 -0.17185108 0.30077425 -0.15490913 0.0698619 0.035214074 0.029601488 0.028558379 -0.16271245 0.21569006 -0.19857225 0.0736434 -0.040403444 -0.078670494 0.05220231 0.13820465 -0.13536365 0.012628926 0.17686401 -0.05871578 -0.13763869 0.05689869 -0.11711061 0.06814351 0.069754824 -0.16334487 0.002116146 0.17328455 -0.12040034 -0.054593533 -0.06978657 0.39775172 0.048206102 -0.064560965 -0.19345604 0.06655614 0.17256573 0.16169973 0.044292524 0.061444547 0.12946567 0.19522603 -0.027296819 -0.17502767 0.110819735 0.0663017 -0.058123037 -0.015642358 -0.25753787 -0.1269629 -0.024497878 -0.028124578 -0.056449603
1297 -0.31428272 0.30610332 -0.041248746 0.06360703 0.025475599 -0.0417263 0.029382266 -0.10982591 -0.035420343 -0.115901545 0.18825063 -0.25747427 -0.053033475 -0.281931 -0.036361113 -0.044210095 -0.06332033 -0.08611237 0.14275792 -0.05173685 -0.13658871 0.10838321 -0.14837359 0.31364217 0.15301722 -0.15506403 -0.010668136 -0.008672682 0.14548972 -0.3413833 -0.27299124 -0.10040351 -0.183707 -0.09228837 0.016510446 -0.0043552383 0.017252674 0.14150657 -0.2676903 -0.15128475 -0.20669569 -0.04420243 -0.12601507 0.093442604 0.029382026 0.0153249055 -0.21754025 -0.09470087 -0.3554234 -0.01961923 -0.03745115 -0.1627744 -0.052504823 -0.19964276 0.23341079 0.15101536 -0.10601521 0.17443375 0.23712276 -0.15347503 -0.20541616 -0.16603433 0.12729777 0.094502494 0.07156637 0.11881653 0.053034652 -0.26975113 0.23901322 0.06977195 -0.092015214 0.11061702 -0.049580373 0.015182549 -0.046977002 -0.12909184 0.049883183 0.1564147 -0.34972453 0.087627925 0.33026603 0.2007649 0.12020309 0.14749002 -0.11874221 -0.158483 0.20639 -0.024929926 0.0038461918 0.034188695 -0.023526814 -0.4087022 -0.060078736 0.2548995 0.09699751 -0.17603073 -0.020553216 -0.20487957 -0.08624585 -0.019584855 -0.09208562 0.061047852 -0.20771639 -0.005207047 -0.0485014 0.002510753 0.39876208 -0.0032229456 -0.11356453 -0.3178117 0.21735415 0.05692093 -0.11820596 0.17102641 -0.14981273 -0.19674858 0.02364513 -0.048662037 0.06741426 0.09271517 -0.15075156 0.13048571 0.10597608 0.04471693 -0.138824 -0.2218866 -0.25225952 0.08136413
1289 -0.14782007 0.16843043 -0.04225686 -0.012444401 -0.18356138 -0.21312371 0.07418824 -0.018679798 -0.12070912 0.05507559 0.17085955 0.0031048234 -0.17035267 -0.00795986 0.11623022 0.11586813 0.16845773 -0.12295255 0.14788195 -0.17788489 -0.01276805 -0.06670039 0.15137629 0.028450672 -0.029431809 -0.15199512 0.12512383 0.13097307 0.13423134 -0.11501377 -0.06819093 -0.0873109 0.05790903 -0.1184817 0.07004817 -0.055414252 0.11697037 0.103973575 0.12001691 0.026675342 -0.19908422 0.0130845485 -0.09404042 0.034239873 0.10459394 -0.14470553 -0.14812493 -0.007981863 -0.017789107 0.12424578 -0.15130326 -0.04531434 0.05684183 -0.270267 -0.018443538 0.13259923 0.010959654 0.38519198 0.10273122 0.08809861 0.06550416 0.06622791 0.048013054 -0.046487883 -0.26305914 -0.17295995 0.1461581 0.15998173 0.13175142 -0.3530669 -0.1255049 0.011502822 0.124184325 -0.14706437 -0.15287954 -0.28160343 -0.25539473 0.14931205 0.08819255 0.20221812 0.1656182 0.11804249 -0.06016321 -0.08568657 0.15019275 0.00052785984 0.03201665 0.21371871 0.009234742 -0.03539112 -0.35336724 -0.114131205 0.059859097 -0.06622905 -0.045558672 0.006641653 0.001933049 0.08484482 0.08057276 0.017456647 0.14994113 0.112329185 -0.05254983 -0.010031578 -0.036900267 -0.053351827 0.18543889 -0.04869427 -0.025478505 -0.2925282 -0.029799014 0.3785185 4.9683265e-05 -0.2380992 0.063741066 0.02256877 0.15904774 -0.05090418 -0.2541151 -0.00022727688 -0.062437575 0.14169037 -0.018498005 -0.09010227 -0.30252245 -0.102962576 -0.17159808 -0.24155433
1802 0.15457283 0.20291372 0.014125515 0.07512461 3.3695367e-05 -0.0689796 0.1349775 -0.07551282 -0.4499313 0.08830375 -0.111031495 0.11458754 0.04016113 -0.24482171 -0.05018385 -0.2755666 0.22648655 -0.034022126 0.11542102 0.031202955 -0.007259116 -0.10183495 -0.18319435 0.019695764 -0.008812168 -0.072294876 0.16939399 -0.090952046 0.091307566 -0.009064294 -0.075053856 0.18848848 0.082881466 0.22822703 -0.09115717 0.07038507 -0.11116205 0.21357332 -0.13888578 0.0018218957 0.06594924 -0.09311482 -0.033067722 0.10907913 0.18470612 -0.29175767 0.14951424 -0.010507722 -0.034217358 0.2313462 0.12240366 0.018915918 -0.10814266 -0.018696446 -0.09036707 0.19318262 0.0022162844 0.046063498 0.1916469 0.07663054 0.10402281 -0.06962599 -0.06466172 0.071876936 -0.25136197 -0.112426125 0.100424334 -0.050124608 -0.15914409 -0.047606174 0.11954679 -0.3284477 -0.06763128 0.05063086 0.0037279709 -0.25486055 -0.11089758 0.06040075 -0.07139107 -0.034064885 0.14470735 -0.23205194 0.08875452 -0.05265634 -0.40158468 -0.16322255 -0.22292401 0.1100502 0.13848542 -0.18391477 0.056154538 0.19491775 -0.10142537 0.14250739 -0.055049274 0.04355188 0.14791346 -0.11882149 0.10390174 0.09027298 0.10556471 0.17242461 0.06959376 0.29243743 -0.08298562 -0.06272052 0.13990785 0.03155249 -0.3208044 0.09834548 0.07929306 0.040737994 -0.14881995 -0.12968859 0.13257927 -0.17319655 0.27972433 -0.13789198 -0.20514303 -0.22853597 -0.034229267 0.15009823 -0.16733192 0.27754015 -0.1832653 0.076049834 0.15695094 0.021633008
175 0.031735398 -0.09328624 -0.20618796 -0.2554086 0.054180823 0.06532651 0.22030136 0.21384308 -0.024023619 0.018992791 0.12856595 0.060187276 -0.06733536 -0.14539067 -0.084447674 0.16477154 0.101304784 -0.14129522 0.046944294 -0.23397568 0.045010094 0.07085814 -0.429753 0.22608092 -0.012364764 -0.22190456 -0.086475484 0.24084319 0.014786565 -0.21374622 -0.006793969 -0.04860001 -0.010055993 0.15781416 -0.15195428 0.14018117 0.06643077 -0.12973036 0.17354858 -0.1452912 0.05098544 0.30669916 -0.27631736 0.15458879 0.1326499 -0.24169448 0.12951675 0.009942612 0.09470435 0.010293816 -0.14951903 0.036593165 -0.16293323 0.10464618 0.2619986 0.026557075 0.073543824 -0.059538957 0.12193892 -0.09647706 0.16407 -0.057456404 0.1880494 -0.1321046 -0.15316351 -0.27800778 0.020316163 0.0438015 0.050563693 0.13389722 -0.00658609 -0.11264884 0.07190258 -0.06749918 -0.028175455 0.1204026 0.015068018 -0.018231131 -0.16991667 -0.0038884461 0.06274283 -0.10727678 -0.056508403 0.13955416 -0.10321683 0.037314057 -0.027482757 0.2524492 0.033275936 0.07189738 -0.08683432 0.0033312724 0.042418245 0.17671345 0.0006432865 -0.09214718 -0.11852229 -0.11540822 0.10708723 -0.00023633373 0.04922283 0.17072204 0.07323201 0.19083896 0.05053768 0.064763695 0.13640743 0.10129922 0.057083067 -0.14888573 0.30727735 -0.121737964 -0.20675482 -0.093078926 -0.11851696 0.1016156 0.15354198 -0.054447558 0.089580946 -0.024501435 -0.03557389 0.25520673 -0.02200013 -0.2033573 -0.2853389 -0.08184474 0.003533399 -0.06323141
651 -0.21062766 -0.024699194 0.0016438129 0.03361193 -0.15787101 -9.153496e-05 0.011181655 -0.08081983 -0.16867144 -0.22470933 -0.093760446 0.15134218 -0.29688895 -0.15840913 0.13249527 -0.46265033 0.25725645 -0.26664674 -0.0868169 -0.11751405 0.020568946 -0.062686354 -0.13222325 0.4300454 0.18308683 -0.0011625546 0.06055767 -0.019574733 0.21963799 -0.007875235 0.065148644 0.17778848 -0.08106505 0.06944593 0.06365304 -0.020583527 0.024954306 0.026870433 -0.13874932 -0.08972374 0.013264557 -0.020098625 -0.14713633 0.28628752 0.22843777 0.05408802 0.23851441 0.046076752 -0.025527313 -0.13579156 -0.08900654 0.13295552 -0.22306232 -0.15289967 -0.23450324 0.04019526 0.10149465 0.009279755 -0.0038061955 -0.14198212 -0.02535479 0.008790911 -0.20120814 -0.28758195 0.08831898 -0.080173485 -0.16211022 0.036820732 -0.08297612 0.08400359 0.16348065 -0.05123079 -0.16326764 0.020079281 -0.20425974 -0.2668133 -0.058315635 0.27173972 0.020223051 0.02173121 -0.011999216 -0.04993439 -0.008169393 -0.08887155 -0.024975069 0.038145717 -0.103582054 0.13468097 -0.117685385 0.012398316 -0.30773816 0.06867815 0.05491548 0.15032281 -0.1192999 -0.002528848 0.063996635 -0.21835925 -0.022756968 0.08397563 0.03886498 -0.046277657 -0.0067634364 0.26393327 -0.0036501992 -0.25829926 0.026145475 0.13281168 0.055035315 -0.031117344 0.0993619 0.046037562 -0.009667027 -0.44228578 0.027859563 -0.2665426 -0.023372076 0.20042191 -0.23040389 -0.11859683 -0.13492522 0.26713324 0.02573033 0.0011595254 -0.2346653 -0.06141054 0.13785595 -0.01694746
1633 -0.017921425 0.20112431 0.15254381 -0.05661474 -0.06081148 -0.09425349 0.21927327 0.08740481 -0.020416474 -0.13323711 -0.041754566 0.13158378 -0.05913316 -0.08042849 -0.06639667 -0.1411014 0.19381253 -0.13508001 0.14384651 -0.21511333 0.008916719 0.4225398 0.13135692 0.086379334 0.15431003 0.050173182 0.09033631 -0.0077080955 0.11125337 0.0028983715 -0.18873708 0.06325949 -0.016644685 0.018334858 0.0022558267 0.25974208 -0.08132077 0.08266401 -0.026245901 0.012452143 0.036159422 0.16518958 -0.23308015 0.004688604 0.018449726 -0.12253108 -0.12883112 -0.07561739 -0.07368211 -0.007439543 0.40088472 -0.15512732 0.06910379 0.030737625 0.058963094 0.11446274 -0.0066409158 -0.08824047 0.3000078 0.15162694 0.054341476 -0.17415024 0.10185166 -0.2798997 -0.060447123 0.12539078 0.15720977 0.073715396 -0.010478307 -0.07403697 0.0038935211 0.38856095 0.13832226 -0.19169784 -0.07159841 -0.13201433 -0.1772582 0.10578551 -0.22673719 -0.16980475 0.068494655 0.051590636 -0.019241432 -0.24943614 -0.107622586 0.11190624 0.031067941 0.04977639 -0.00762315 0.03652313 -0.054935917 -0.09324721 0.15057983 -0.25145867 -0.41352296 -0.17601229 -0.2792615 -0.27344286 -0.04828567 0.11925452 -0.21861729 -0.19477591 -0.11645359 0.22752792 -0.20640366 0.034811433 0.024991395 -0.052328113 0.09306693 -0.10797417 0.42781743 0.032378014 -0.10772087 -0.102678224 0.0036336207 -0.23398079 0.19202493 0.17803414 0.052445736 0.0011418862 -0.12379523 -0.03474463 -0.27844512 0.094914846 -0.0077929776 -0.07524529 0.1009902 -0.11205099
479 -0.17722161 0.017488405 -0.1460519 -0.27794254 0.13186623 -0.24027196 0.014239305 -0.15997528 -0.01753627 -0.24132831 0.14562154 0.10593521 0.06908798 -0.12787585 0.18371566 -0.011819147 0.196497 -0.09391598 0.05300214 0.2431711 0.14031702 -0.10706745 -0.30229303 0.12421814 0.020377118 -0.04859884 -0.14490242 -0.22178805 -0.078075126 -0.0725947 0.26843444 -0.095721185 -0.14861618 -0.13306159 -0.340619 0.08661552 -0.08960584 0.034000464 0.10205529 -0.065007254 0.00707142 0.34283087 0.014647288 0.16242382 -0.093991585 -0.107784994 0.0060207797 -0.20766774 0.11674521 0.18261062 -0.11173663 -0.27691868 -0.22855058 -0.06694654 0.16243911 0.13597359 0.24269615 0.26936865 0.18535408 0.104632355 -0.092468604 0.05110503 -0.30856356 -0.01774379 -0.046024356 -0.1612822 0.1520841 0.3508063 0.13079944 -0.13796704 0.024849856 0.12733838 0.15770161 -0.00966083 -0.27478942 -0.11476911 -0.05384079 0.034429535 0.016697835 0.0998223 0.032528218 0.05055359 -0.062383402 0.06650188 -0.07388102 -0.3004823 -0.22729221 0.04427251 0.027293481 0.14181347 -0.10117213 0.19167054 -0.011608323 0.002589501 -0.05894154 -0.039145812 -0.1501274 0.17788042 -0.05956675 0.118609354 -0.19241826 0.14676183 0.119796425 -0.04065718 -0.020344492 -0.008458503 0.08003112 -0.017089983 -0.09903215 -0.35484785 0.11883044 0.04446216 -0.050650615 -0.073695205 0.13488503 0.057903744 -0.058855977 -0.26139542 0.031606387 0.047460858 -0.09476738 0.017381469 0.19207418 -0.019610485 0.12341492 -0.049351227 -0.2912455 -0.11603049
1259 -0.16588591 0.19122203 -0.058369163 0.030041259 0.08252469 -0.35992834 0.10749798 0.24441917 -0.092591226 0.19667485 0.015463675 -0.1584263 0.025032297 0.20668425 -0.054800037 0.17428344 0.16977713 -0.22209223 -0.2263244 -0.0558517 0.06591516 0.22633816 0.058229152 -0.029130068 -0.009869403 -0.11436612 -0.08884683 0.036725976 0.19613396 -0.09868754 -0.053787533 -0.0118747875 -0.11526012 0.22771403 -0.084199466 -3.6471873e-05 0.24758248 -0.08191415 0.0503466 -0.025533685 -0.03181995 0.25224975 -0.15965825 -0.08657464 0.22626558 0.09668861 -0.15511182 -0.106529154 -0.10680493 0.03736673 0.23423378 0.20854804 0.1191611 -0.06227714 0.24680665 0.030841948 -0.15332092 -0.064665586 0.27136058 -0.2540083 0.117742956 0.0005818566 0.07448337 -0.06485226 0.13208248 0.13414034 -0.0041871467 0.039532024 -0.1041558 0.07567756 0.08748479 0.011083954 -0.12978324 0.049656734 -0.25616336 -0.13392256 0.18802398 0.08321688 -0.21396588 -0.18516721 0.053500224 -0.14779754 0.08165211 -0.094880454 -0.28244844 0.24228273 0.15280946 -0.037204392 -0.052669298 0.12474999 -0.056689575 0.14790568 0.049734727 0.049988244 -0.28136575 0.16884491 0.15615706 -0.18776466 -0.097647116 -0.071965724 0.090880185 0.30457827 -0.07416718 0.08001707 0.11762683 0.19424327 0.11882604 -0.009293776 0.059082612 -0.19706781 0.1827911 0.021570064 -0.025179617 -0.39326742 -0.11352751 0.1722905 0.20166574 -0.23900965 -0.07988424 -0.2546154 -0.15726963 0.23915862 0.0749155 -0.083342895 -0.13645983 -0.041717105 0.016794063 0.009311513
2166 -0.2584453 0.2053406 0.29973263 -0.047688775 -0.13453034 0.02520197 -0.022778679 0.12385384 -0.03996953 -0.1285466 -0.22617196 -0.20107947 -0.010684604 -0.31810793 -0.008736209 -0.16780004 0.19330405 -0.09006023 0.046482697 -0.050764542 -0.1876788 0.09081443 -0.23462468 0.007891891 0.2788926 -0.050268885 -0.1905488 -0.17233881 -0.20524487 -0.21914391 0.28475603 -0.07927932 0.15987372 0.17048553 -0.08263595 -0.12199303 0.17024209 0.085092865 -0.08104508 -0.10833851 -0.04237388 0.24684459 0.08988898 0.16739792 0.009528379 0.16919439 0.37094167 -0.09066126 0.19963726 0.1979745 0.24488658 0.43508285 -0.25180364 0.074865855 0.11668928 0.37834466 0.021172047 -0.030463982 0.05376118 -0.06679862 -0.25040796 -0.33411187 0.13380727 0.2584028 -0.22054802 0.06384231 0.00469735 0.31261086 -0.06301826 -0.092527874 0.08861894 0.10525231 0.13255082 -0.08857261 0.052837573 -0.05358416 0.0777004 -0.04114402 -0.24456768 -0.01954541 0.25741667 0.0237462 -0.17500685 -0.092288926 -0.16130652 -0.034332354 0.2140229 0.15270814 0.3008558 0.05974403 0.02906728 0.10343948 0.027050233 0.11334939 -0.116355196 0.21503736 -0.20839544 0.02439324 0.12714624 0.08806517 -0.0072836024 0.28598306 -0.11584172 0.07139388 0.13909198 -0.21750781 0.17115821 -0.09873325 -0.06728479 -0.16583838 -0.16937768 0.046676442 0.30725965 0.0745488 -0.18091384 -0.23128144 -0.057919227 -0.10175144 0.1249763 -0.065997586 -0.04188891 -0.019635638 -0.11450163 -0.23813011 -0.048720073 0.03114624 -0.13129722 -0.039623357
123 -0.18631715 -0.025589433 -0.18233398 0.35908067 -0.04177561 -0.22402585 0.027660675 -0.11191598 -0.03900276 -0.0053796875 0.17686999 -0.08322613 0.021121152 -0.17993468 0.13016042 -0.028256807 -0.03850734 -0.4631458 0.07829237 -0.24753654 -0.049898222 0.12856212 0.15414824 -0.085199885 0.012052505 -0.19964963 -0.04615041 0.13638613 -0.036581658 0.14534879 -0.09899174 -0.10994624 0.06857663 0.17077345 0.070727296 0.1629652 0.0006575578 -0.16923937 0.13743718 -0.23936537 -0.15737006 -0.049421556 -0.114227675 0.023353526 0.17193279 -0.027591353 0.3483962 -0.128816 -0.29747185 0.1463272 -0.109067544 0.05706774 0.026761567 -0.07591032 0.15182081 0.105830126 0.1137888 -0.06140337 0.022756908 0.11432115 0.10816506 0.0023940278 0.15087467 0.16547292 0.25353238 0.03332149 -0.016388683 0.082604654 0.1949357 -0.0972822 -0.22868931 0.054835804 0.20935729 -0.09665484 0.03752845 0.07472547 -0.38018847 0.3053345 -0.17080525 -0.093013376 0.0866043 0.0748779 -0.10477617 0.053526662 -0.12566169 0.20758007 0.1291509 -0.04893438 0.06522494 -0.0646423 -0.053722005 0.15862337 0.10356238 -0.21768202 -0.1897352 0.03081928 -0.24664924 -0.2981262 0.1582364 0.16134684 -0.15450995 -0.05216323 0.0572537 -0.100563146 -0.10855382 0.08523348 -0.051084932 0.013012398 -0.17555793 -0.037082333 0.25053942 0.062307615 -0.09204095 -0.20376043 0.032664318 0.03266741 0.21548577 -0.3327382 -0.2635347 -0.14910373 -0.038372096 0.16806194 -0.12001547 -0.1724346 -0.115271054 -0.17675443 -0.1832226 0.099849336
363 0.088515155 0.24190947 -0.20806964 -0.13787751 -0.13729954 -0.20298408 0.07863059 0.2051132 -0.19657995 -0.102964014 0.036692742 0.11644244 0.37187654 0.0337886 0.10117089 0.012417644 0.020330934 -0.30278188 0.14907049 -0.05336219 -0.044236846 0.21710548 -0.083202615 -0.2729596 -0.25962994 -0.02828218 -0.039225418 -0.06471947 0.24359843 -0.07115287 0.15450136 -0.18043421 -0.1626607 -0.04683097 0.116824955 -0.016150873 -0.14861764 0.2781686 -0.17913176 -0.23738107 0.25772166 0.096428536 -0.06657506 0.26307952 -0.033272557 -0.17872252 0.3342069 -0.39671442 0.09392189 -0.03224509 -0.025393873 0.078938134 -0.17376788 0.050308697 -0.053391043 0.039843455 0.034636166 0.06729415 0.24603169 -0.035470385 -0.00525259 0.0063925073 -0.062232226 -0.011758286 0.09896242 -0.04400027 0.11411771 -0.052128214 -0.13089538 0.0033420438 -0.02493503 -0.16824023 0.16181758 -0.2768426 0.042639945 -0.078084335 0.1982502 0.11008226 0.30023915 -0.21883701 0.22412178 0.0956547 0.26537147 0.011087844 -0.13200957 -0.07811231 0.05386686 0.29133603 0.2541767 0.046157625 0.16589834 0.19938575 0.16579248 0.0774464 -0.1461868 -0.39441916 -0.28870463 -0.26177758 0.08796796 -0.010894638 -0.109135546 0.13083684 0.2675984 -0.1804496 -0.18981972 -0.22579128 -0.04238149 0.039208557 -0.21286185 0.093767524 -0.026217852 -0.051262125 0.044082902 0.08704626 -0.13740264 -0.103452004 0.003980795 -0.23396598 0.25030386 0.08186251 0.042441804 0.07351625 -0.08081975 0.057145357 -0.20311122 0.028537128 0.13522808 0.20411263
1004 -0.034032743 0.18239121 -0.16143097 -0.05951809 0.098066635 -0.19328395 -0.23246612 -0.15961862 -0.07938675 0.09205747 0.114369065 -0.04155629 -0.0721815 -0.14287959 -0.1824978 -0.09509559 0.04436948 -0.05502951 0.06032283 0.3178085 0.114265196 0.07261591 0.0957525 -0.14964536 0.0027729755 -0.25013134 -0.076634526 0.03456732 0.1853223 -0.014102387 -0.12202637 -0.05748999 0.1573043 -0.08534234 0.07413626 -0.03451231 0.07159287 0.3258609 0.22484395 0.16426395 -0.01000564 0.16682504 -0.040783074 0.17030045 -0.20587747 0.11753636 -0.011741394 0.14550452 -0.08630954 -0.14507209 0.050214596 -0.0012016582 -0.023451509 -0.008417635 0.18996552 0.32921708 0.034641232 -0.04105405 0.25571945 -0.10220679 -0.20515415 -0.13397846 -0.03713249 0.13133307 0.111251734 0.11704137 0.19404295 0.12036188 0.06483418 -0.038593438 -0.14646411 -0.08609158 0.06315596 -0.023339698 0.23890471 -0.103850245 -0.1463781 -0.05680651 -0.15169539 -0.10689669 0.23656265 -0.27544376 -0.17557748 0.036332317 0.027818484 -0.06337772 0.1743796 0.18691592 0.013152585 0.083285615 -0.0014107823 0.13598926 -0.11706493 -0.05120288 0.20748432 -0.073241755 0.08312704 -0.03757854 0.090567134 0.09985814 -0.14991242 -0.19864583 -0.21170843 -0.049057055 0.11569614 -0.028401254 0.3413306 -0.025989812 0.052521456 -0.29192823 0.3769845 -0.03609161 -0.11231377 0.1588566 0.16809824 -0.35450056 -0.06338962 -0.38666463 -0.07393199 0.17527613 0.14209624 0.15573987 0.030110255 -0.06364037 -0.3679598 0.18857087 -0.045449037 -0.25257337
1583 -0.27785757 0.32679743 0.014665597 0.067875795 -0.009001248 -0.15039901 -0.14828931 0.28486848 0.019649105 -0.104013406 -0.0731707 0.2506728 -0.011994214 -0.002501726 0.20376207 -2.929972e-05 0.041711126 -0.20339032 -0.08890086 -0.18324474 0.146072 -0.1381681 0.027123742 0.112163395 -0.009193945 -0.14802428 0.19822088 0.04025918 0.055323806 -0.41667905 0.049149074 -0.011081809 0.07192767 -0.08884597 -0.06745987 -0.21768337 0.15964195 0.089935586 -0.065957084 -0.05749645 0.05933904 0.2652305 0.13465351 -0.057602804 0.21246578 0.05039764 -0.21906908 -0.10012153 -0.016036268 -0.03234143 -0.24634016 -0.15343654 -0.17906144 0.2943256 -0.087535724 0.31031758 0.15868554 -0.20961617 0.19394013 -0.08955592 0.022878662 0.04987876 0.0066201594 -0.11164247 0.06221374 -0.25035825 0.12358639 0.060517963 0.04360744 -0.13015765 0.03054991 -0.41050902 0.013508177 -0.32284045 -0.05739743 -0.031881895 0.1608569 0.12958193 0.03078978 -0.17927708 -0.039679497 0.18700805 -0.040908806 0.19882174 -0.18240467 0.103003755 -0.15355542 0.13148437 0.007038244 0.002828018 -0.06102643 0.1349652 -0.14006121 0.18053813 0.037391964 0.07254647 -0.20132416 0.10419924 0.17084803 0.07088008 -0.025502054 0.11474957 0.31336015 -0.07984083 -0.12353665 0.036339484 0.09613353 -0.072267175 0.029812988 -0.2303841 -0.010638964 -0.04946432 0.1321943 -0.23752359 0.0019922159 -0.20854108 -0.0085236905 -0.17048728 -0.08780978 0.103954196 0.1584734 0.068021744 0.14563431 0.08157692 -0.15803494 -0.089471 -0.09979027 0.073795885
1395 0.0012943926 0.07683809 0.16472237 -0.0073599536 0.037033424 -0.16011272 -0.31532148 -0.30786896 -0.08854991 -0.12019666 -0.17533556 0.2082608 0.016672526 -0.0001319061 0.18961658 -0.2103789 -0.027304696 -0.34991932 -0.20948839 0.008931381 -0.01008464 0.064151004 -0.03607488 -0.22559735 0.25355446 -0.11918105 0.3840265 -0.13238503 0.26154798 -0.20527841 -0.20615605 -0.052086655 0.17926884 0.0947609 -0.020067848 -0.17252551 -0.06314969 0.01863778 -0.014917004 0.119826734 0.06747039 0.06365537 0.14757712 -0.047816616 0.048607886 -0.03422089 -0.0890975 0.1951897 0.033773247 -0.041877564 -0.11643804 0.06810829 -0.03913301 -0.26817417 0.09527248 0.3483361 0.108088724 0.16202551 0.23429541 -0.136541 -0.025427738 -0.31052724 0.0046904464 -0.009576009 0.083280064 -0.07460304 0.015787166 -0.14572078 -0.026557293 0.18005654 0.159163 0.080424346 0.36471316 0.04678367 0.032791723 -0.09339085 0.09184716 0.06336622 -0.06546047 -0.011350147 -0.044963323 0.12358779 0.08265267 -0.072290465 0.079800494 0.1443166 0.07247905 -0.16432954 0.18892756 0.18934205 0.06607852 0.38468587 0.0289482 0.05662679 0.0026805503 -0.19892797 -0.21046434 -0.08390288 0.03533947 -0.025207428 -0.017929725 0.1785072 0.120806254 0.12394305 -0.016468067 0.018502677 0.35257632 0.10069671 -0.1155148 -0.35562864 0.19176564 -0.06503731 0.030043565 -0.09805883 0.2527683 -0.1741337 0.090592526 0.21688868 0.07283081 -0.10388538 -0.253414 0.047354348 0.09096328 0.050648425 -0.15924545 -0.08018549 0.05891845 -0.08998956
1458 0.05047528 0.08602983 -0.008519881 -0.10879542 0.16747779 -0.120746665 0.007624952 0.025209516 -0.10394005 0.23086482 0.035971858 0.041557986 -0.0007716184 -0.13688402 -0.06850261 -0.23391543 0.195298 -0.04149455 0.034819108 0.022404429 -0.1107272 0.204659 -0.093422554 0.11203643 -0.22483446 0.019239623 0.061344773 -0.071377605 0.14141266 -0.23647548 -0.03495199 -0.008122037 0.1455693 0.2172767 -0.20200512 0.096441925 0.09793689 0.017554563 -0.053665806 0.16444172 0.17750825 0.06098137 -0.1639799 0.13144183 0.21850716 0.03016972 0.010775395 0.11327357 0.009225808 -0.023114773 0.04919738 0.074891075 0.06398288 -0.056438424 -0.17921185 0.28800207 -0.09450566 0.014068636 0.20220898 -0.14370431 -0.13909255 0.04159408 -0.017510917 0.06313636 0.012602252 -0.0041574035 0.27298194 0.2461574 0.30876318 -0.18416636 0.11718808 -0.07667043 0.06893401 0.12434102 0.099308 0.05067037 -0.11747462 0.159115 -0.13252123 0.049170386 -0.0901144 -0.20465688 0.03763806 0.10431014 0.19233173 -0.20819725 0.05262435 0.31589183 0.13809508 -0.039985362 0.03578395 -0.07068753 0.17783949 -0.028200993 -0.28939787 0.15829204 -0.17687124 -0.14873645 0.027491624 2.1762012e-06 -0.10232129 0.28589243 0.06990417 -0.0992615 -0.3104863 -0.105276026 0.007903555 -0.12363749 -0.1381854 0.122000374 0.14131849 -0.27308667 -0.053027228 -0.16765353 0.2118527 0.21672125 0.1683006 -0.26161173 0.085533984 -0.13761146 -0.021405485 -0.066795535 -0.24610914 -0.12306286 -0.07686377 -0.1327079 -0.032515142 -0.022973819
1743 0.021140458 -0.09614258 -0.0016865309 0.05003896 -0.13737233 -0.24716197 -0.17241511 -0.14562285 0.10525755 -0.28136215 0.12648511 -0.10279621 0.1641069 -0.084679596 0.05602123 -0.060901675 -0.12763768 -0.20600636 0.024442598 0.15219033 0.030099843 0.21745317 0.06248645 -0.15264344 -0.054264568 -0.27754968 -0.04501613 0.14860584 -0.060852576 -0.030605616 -0.117933124 -0.05633359 -0.02146389 0.02483185 -0.16472194 0.21640705 -0.15651716 0.028237266 -0.09986673 0.12539285 -0.071695626 0.3236262 0.008999873 0.22405903 -0.04470675 0.04074346 -0.22156769 -0.0010474876 0.083397955 -0.010367524 -0.11209959 -0.020021852 -0.33838794 -0.011043107 0.19321792 0.18300176 0.011752887 -0.046184525 0.18015547 -0.21418573 -0.051581915 -0.067338 -0.05463632 -0.0942121 0.12573597 -0.04045543 0.1378262 0.05044551 -0.051333535 0.085535124 -0.07174601 0.00334402 -0.101928346 -0.087611645 -0.40786043 -0.1242673 0.033670984 -0.1939227 -0.08241757 0.0735825 0.067565516 -0.25242174 -0.12535378 -0.029970624 -0.03827853 0.19109032 0.033745736 0.13333756 -0.27973238 -0.06697409 -0.23747501 -0.24558161 -0.21187 -0.0124541605 -0.31080613 0.010502632 -0.028341573 -0.07002656 -0.108372755 0.16125445 -0.15877385 0.3032733 0.22156979 0.045823492 -0.0091010565 0.046416245 0.13073228 0.0058704317 0.14736614 0.05678192 0.06467978 0.2848849 -0.2664401 -0.05349079 0.018019311 -0.1614462 0.052280426 -0.12660034 -0.040106677 0.02468761 0.024184346 0.15050322 0.06350304 -0.032639142 -0.28195372 0.041268084 0.09130855 0.20378283
1010 -0.33698913 0.09526666 -0.1856115 -0.103496484 0.24124387 -0.2535967 0.14640227 0.31196678 -0.03794309 -0.089905724 0.17611212 -0.05605906 -0.04766739 0.030061094 0.06987614 0.16394313 -0.035653207 -0.15924114 -0.12710892 0.06330457 -0.03684549 0.062657736 -0.009398974 0.17922011 -0.14100604 0.02692455 0.24737965 0.018135803 -0.03506079 -0.14302346 0.07047412 -0.053551614 0.010066622 0.026724016 -0.03171657 0.17689706 0.32618472 -0.061967697 0.05703823 0.06416742 -0.076331645 0.24351175 -0.06148152 0.022851238 0.3705714 -0.14603168 0.14762422 -0.06754528 0.16508117 0.045106377 -0.16434057 -0.15691084 -0.09000224 0.05799535 -0.15976322 0.21670498 0.23520237 0.14266403 0.32398704 -0.028845698 -0.21675499 -0.04931888 -0.024333451 -0.3569177 0.038262073 0.057440683 0.06698327 -0.21112818 0.11930951 -0.18969336 -0.100748785 -0.03741247 0.20899262 -0.30610657 0.031688128 0.18341458 -0.03944776 -0.16564594 0.1557355 -0.17823753 -0.17498864 0.14914124 -0.10566145 -0.18618679 -0.008112191 -0.034675486 0.09860055 0.103653274 0.14849025 -0.022529805 0.31466472 0.11390736 -0.21126126 0.022107767 -0.02897292 -0.18512912 0.23653427 -0.2026669 0.14098106 -0.17998183 -0.101948775 -0.07700159 0.07145424 0.045416772 -0.20415038 0.19776107 0.16260134 -0.026365453 0.08681123 -0.27226892 0.23642553 0.080338165 -0.15248986 0.19661257 -0.07515579 -0.13649057 0.22945595 0.20231003 -0.34577727 0.16001526 -0.14260009 -0.09936431 -0.06116976 0.012671989 -0.03120382 -0.024719056 -0.2247762 0.1706904
1306 0.14416824 0.25277278 0.08432297 -0.06308491 -0.037660524 -0.008525808 -0.16685227 0.20965503 -0.42932743 -0.030148838 -0.13340908 -0.019831551 -0.09277955 -0.028984323 0.085394815 0.066971526 0.14749677 -0.15802915 0.0008541611 -0.0251424 0.019288398 0.006259601 0.25012755 -0.021092102 -0.13199101 -0.08062936 0.103181824 -0.15300259 0.4021453 0.15595327 0.0054327887 -0.14480083 -0.1296564 0.08513952 -0.22182469 -0.10121934 -0.06431428 0.014819012 0.14682974 0.028857667 -0.0435507 -0.0035628367 -0.0082723545 0.010315211 -0.12076204 -0.06239317 0.10926074 0.10741982 -0.044534083 0.079004765 0.17446333 0.04987738 -0.055215158 -0.21401192 0.048392747 0.005955953 0.0447447 -0.17337832 0.29833987 0.13197662 -0.12820825 -0.10924757 0.09496832 0.07158337 -0.018728131 0.06502095 0.26010334 0.08992577 0.123552606 0.15294193 -0.26167464 0.0040608486 -0.25193307 -0.210828 -0.07880119 -0.11431569 -0.09783556 0.05714459 -0.18016842 0.029473968 0.032385115 0.14338064 -0.07246983 -0.07418728 0.11661576 -0.1839522 -0.018719317 0.087816246 -0.099182025 0.14947295 -0.009723572 -0.11356726 -0.20544313 -0.08900608 -0.19875072 -0.354594 0.21662226 -0.030052496 0.23151289 -0.11844123 -0.29097265 0.06093401 0.008592982 -0.011474284 0.0051011606 -0.24233074 0.2800127 -0.008449848 -0.2011097 -0.13342704 0.2120756 0.22210388 -0.007917417 -0.005996307 -0.08911164 -0.0075876047 0.029956961 -0.004405754 -0.06518827 -0.10642421 0.013043676 0.00014161906 -0.10975575 -0.12854223 -0.2671128 0.03554682 0.07974744 0.31577057
1638 -0.065191925 0.23150913 -0.16110535 -0.18466136 -0.13995619 -0.11722141 -0.11146896 0.052486442 -0.284348 0.16461639 0.024285821 0.06745793 -0.1440946 0.25152594 0.09977479 0.02555843 -0.03588482 -0.26928636 -0.1573046 -0.048953485 0.15357792 0.20813966 -0.043121044 0.34372947 -0.0040785633 -0.01851117 0.10258923 -0.049126003 0.07574017 0.089195356 0.04187055 0.0773258 0.09596941 0.08749751 -0.15483695 0.27035964 0.04771139 -0.13945022 0.22706756 0.14272095 -0.05003403 0.19884677 0.00899273 0.091202624 0.385898 0.23879999 0.18628561 0.038745593 0.18689072 -0.16208133 -0.12045211 0.17541526 0.09998906 -0.08067762 -0.002442104 0.034459963 -0.1696496 0.18016596 0.3215069 -0.15517367 -0.29719782 -0.23521236 0.075302795 -0.107612416 -0.07962333 -0.033346154 0.13090755 0.09442807 0.02121911 0.2636538 0.3602412 0.09410824 -0.23509046 -0.059647266 -0.15753542 -0.1507398 -0.024272192 0.1444062 0.02856542 -0.28952265 0.046303753 -0.06457355 -0.04982449 -0.2861975 -0.1410312 0.11317516 -0.042489655 -0.075170286 0.1339799 0.00768064 -0.18806984 0.19804269 -0.16124344 -0.16404843 0.03174875 0.112262286 -0.1527224 -0.105329275 0.061258134 0.12152631 -0.115540095 -0.023878586 0.19128175 0.058746103 -0.13328774 0.008795314 -0.021113327 0.25983146 0.14262706 0.02121866 0.13061517 0.022297049 0.014394463 -0.024248146 0.22070964 -0.01344165 -0.17650138 -0.050623126 0.11109389 -0.04552091 -0.09153839 -0.0070438012 -0.16001654 -0.066602714 -0.40619433 -0.055393673 -0.067306325 -0.14768896
1093 0.14434782 -0.02722072 -0.035558805 -0.046550665 0.060957577 -0.21299699 -0.019694565 -0.15157267 -0.4717267 -0.066051304 0.36428443 0.35773882 0.21874718 -0.14501603 -0.038052518 0.08684595 -0.06374517 -0.017307706 0.12919 -0.106926866 0.07290614 0.17531703 0.018200448 0.059397332 -0.0392396 0.08259342 0.06508697 -0.058193285 0.06711293 -0.13627373 0.013219271 0.15336563 -0.11903535 -0.09769186 -0.29554105 0.026069194 0.06224644 0.12646487 -0.061053697 0.07775155 0.1447325 0.06082229 0.10713702 0.29723313 -0.12395853 -0.28240103 0.27642626 0.054974835 -0.027805848 0.11181353 -0.0023632864 -0.24379039 0.060670726 -0.0065163355 0.09160886 0.090472944 0.1147993 -0.18790776 0.22466968 0.17534666 -0.20475191 0.040428765 0.026000636 -0.0021434238 -0.1675796 0.021090055 0.14918481 0.102909096 -0.17278816 -0.08223902 0.09443243 -0.2332187 0.06092487 -0.16202222 -0.055729788 -0.16127984 -0.0028960528 -0.11216207 -0.20154566 0.13704963 0.16248976 -0.073669784 0.09410378 0.21922599 -0.017761076 -0.10032885 0.20124707 0.033183444 -0.06912904 0.2367982 -0.06468743 -0.12291813 -0.1413219 -0.027843995 -0.09090618 0.09239417 -0.01507917 0.052807413 0.23060107 0.095316686 -0.055338264 -0.037515007 -0.08024132 0.03941071 -0.28009146 0.11934557 -0.044117533 -0.11278099 0.07408744 -0.11431148 0.101227894 0.18107753 -0.17449239 -0.036073666 0.028956478 -0.0675109 0.18909761 -0.18466802 -0.119456165 -0.16778104 -0.071877465 -0.21238558 -0.084590755 0.121364124 -0.36480188 0.16313812 -0.19537108 0.106362
891 0.025653422 -0.15123963 0.2143696 -0.2560996 -0.037269704 -0.18602698 -0.20785785 0.059105337 -0.029246727 -0.10835707 0.07794604 0.03581785 0.05091817 -0.18264598 -0.056765605 -0.13785216 0.28024766 -0.23799685 0.008509129 0.022622317 0.11939863 0.06104238 -0.04096789 0.1363732 0.23989059 -0.2908126 0.016532386 -0.09303731 0.04339831 0.0062703225 0.052798107 -0.04651789 -0.13408078 0.21446891 -0.10981589 0.23608834 -0.03871299 -0.15479273 0.111419976 0.111649215 0.02166783 -0.2176346 -0.2879206 0.21259864 0.13264686 -0.32421288 0.004154808 -0.021317981 0.30137467 0.06363356 0.033335898 0.017036362 0.017674178 0.029623706 0.09018311 0.25270545 0.18553016 0.065562 0.027755018 -0.21957666 -0.19907793 -0.10083598 -0.027255977 0.15330036 -0.06792555 -0.032459483 -0.051488604 -0.08345699 0.08392695 -0.3241303 0.009359019 -0.1883562 -0.055383738 -0.11231913 -0.1424778 -0.09487614 -0.10371044 0.09218988 0.04279677 0.1251707 -0.11525243 0.016014995 -0.121720366 -0.04470817 -0.35388047 -0.14610374 -0.048446525 -0.32215577 0.014326241 0.07722083 -0.058147766 0.027126981 -0.23011874 0.23012994 -0.26423824 0.07672524 -0.19082026 0.049816877 0.007391308 0.030124461 0.033370152 -0.40537623 -0.139822 -0.024191825 -0.09573102 -0.009218202 0.101644754 0.07821506 -0.17457534 -0.3259596 0.0336908 -0.12681663 -0.06859769 -0.01506657 -0.108412035 0.17081252 0.18160136 -0.18466198 -0.03250393 -0.061062593 -0.26039332 -0.013660221 0.060939364 -0.21697597 -0.29309982 -0.04545297 -0.4444658 0.1307031
1128 0.029764831 0.23469566 0.021610893 -0.21969184 0.11623812 0.08902628 -0.26670536 -0.072780654 -0.2977026 0.049295325 0.2113536 0.056198042 -0.012864336 -0.024405105 0.258872 -0.22001323 -0.0817783 -0.03794159 0.034700133 -0.015851488 0.027691156 0.03498714 -0.2898579 -0.008052529 -0.17200053 -0.2999893 0.06376984 0.030805107 -0.063031495 -0.0916918 -0.27593037 -0.008716441 0.01459802 -0.058183856 -0.081330016 -0.023340149 0.12255734 -0.04020236 -0.058949485 -0.039267253 0.08142183 0.005990164 0.10108612 0.097839095 0.0107490765 -0.29987934 0.007137851 0.10431121 0.03717279 0.012284934 -0.01973168 -0.00050181465 -0.036697462 0.030035399 -0.010580228 0.3205167 0.25686392 0.21263559 0.08494203 -0.07659017 0.021934984 -0.11980794 -0.031082802 -0.032896265 0.03869812 -0.35219502 0.18627203 0.20470211 -0.1320826 -0.13245408 0.017302357 0.061059453 0.063440435 -0.04697304 -0.15010263 -0.043807305 -0.03865946 -0.16259006 -0.123702325 -0.06391417 0.019464673 0.0015177524 0.03046122 -0.04609952 -0.12435822 -0.06013267 0.15715517 0.09869408 -0.17698364 -0.1427413 -0.15738131 0.046075404 -0.030470077 -0.0905604 -0.16885135 -0.18697909 0.044611488 -0.06056014 0.25603983 -0.26612782 0.038142122 0.27988994 0.24589737 0.111894436 0.12777166 -0.0062413146 0.30328345 0.17706886 -0.063298464 0.037084475 0.039474074 -0.15963753 0.039351445 0.026723156 -0.11635528 -0.24021159 0.18557607 0.12736745 -0.11002279 -0.019709839 0.07786688 -0.028674968 0.16229407 0.06252859 -0.15588284 0.0895942 -0.21279575 0.15846157
1340 -0.34372973 0.28179 -0.14145425 0.01742549 0.041410573 -0.09768589 0.098655 -0.016682386 0.05003972 0.062489484 0.10246058 -0.10837545 -0.03975397 -0.055160917 0.08790882 -0.06209407 0.12781847 -0.016572773 0.01762748 -0.18829206 0.10642245 0.17795609 -0.06671374 -0.0559964 0.17212637 -0.025213627 -0.09786265 0.17881648 0.13434467 0.10330089 -0.013295529 0.026720475 -0.03670859 -0.0566988 0.085313804 0.056121062 0.1676677 0.024980005 0.27614343 -0.068623506 -0.18869068 -0.11304322 -0.035298113 0.24845646 0.15612902 -0.3014405 0.092980646 0.042955585 -0.23175427 -0.076811746 0.09104409 -0.18101296 -0.05185426 0.00035394978 0.084182605 0.3093592 0.060728125 -0.08067013 0.020761702 0.15174189 0.040716823 -0.21557735 -0.035441276 0.014358797 -0.101888366 -0.04803703 0.023953572 0.009021606 0.14623287 0.10544838 -0.07216852 -0.22736682 0.21529919 0.09053486 -0.11156346 -0.22122732 -0.30785567 0.21015806 -0.20018587 -0.15927999 0.11898687 -0.20230141 0.020845328 0.03236443 -0.079060964 -0.07582326 0.3298466 0.2813331 0.12651154 0.1590431 -0.03793362 -0.09817792 -0.056574583 -0.08321426 -0.3290635 -0.19393694 0.06036635 -0.06610953 0.2553668 0.06819981 -0.118649095 0.2571112 0.036486488 -0.11189557 -0.10006112 -0.05153396 -0.05334635 -0.019664418 -0.10551855 0.1913634 -0.16132315 -0.11164505 0.032482106 -0.14122233 -0.14803405 -0.1103708 0.024730913 -0.011354908 -0.047164075 -0.028459433 -0.06565571 0.0890765 -0.048315156 -0.22456212 -0.1644859 0.046336822 -0.32986513 0.27144766
959 -0.30534956 0.36635506 -0.10079116 -0.08821957 -0.018816521 0.14494169 -0.01343792 0.03867108 -0.06417017 -0.14873438 0.18637834 -0.16125725 0.017273089 -0.06978675 -0.051750015 -0.04411161 0.13245443 0.11411141 0.20212202 -0.057694465 0.10267698 0.35683966 0.0011747712 -0.06184421 -0.063473195 -0.11092083 -0.06698664 0.17094271 0.33498323 -0.30597562 0.023415485 0.041247156 0.16125837 0.10578922 0.08035517 0.01112882 -0.026098942 0.23394068 0.08141782 -0.09434345 0.1092502 -0.06372213 -0.08130225 0.019723894 0.17705457 -0.07449954 0.1493221 -0.122125104 0.08313169 -0.16214594 -0.12912302 0.13081253 0.3057337 -0.13562654 0.06386645 0.17998007 -0.14591306 -0.17517854 0.23603824 0.058862984 -0.22556391 -0.03459338 0.037251472 -0.015171491 -0.18358825 -0.20784378 0.10788433 0.09321426 0.17532691 0.051230386 0.07549376 0.021683672 0.18981788 -0.029274464 -0.042776704 0.0036303818 -0.24474503 0.26818475 -0.271118 -0.012031669 -0.06661346 0.12962227 -0.08014878 -0.25429678 -0.18731976 -0.024011774 0.282796 -0.0064125676 0.101155795 -0.04335459 -0.043395385 0.08649641 0.040162124 0.06647654 -0.008742486 -0.13823728 0.16441873 0.22906572 0.22856605 0.19830565 -0.23530188 -0.026428748 -0.057370145 0.07529813 -0.123587936 -0.15361044 0.07079513 -0.14379987 0.1074353 0.19617276 0.19842498 0.15683602 -0.2069492 -0.072131574 -0.18657687 -0.009634241 -0.04563378 0.12941428 -0.06448011 -0.25338864 -0.27488977 0.017557802 -0.21425626 0.09729608 -0.12146368 -0.18584864 0.07296406 0.028737351
2406 -0.17198347 0.0653961 0.14670381 -0.13805717 -0.010695399 -0.27389148 0.09888987 -0.16695288 -0.09240632 -0.1486141 0.19569775 0.046114687 0.034349807 0.030192982 0.12612365 0.25538173 0.36597452 0.08726584 -0.04724357 -0.21484521 0.10989425 0.055169202 0.035016064 0.20462243 -0.020456526 -0.095163375 0.18869342 -0.023890847 -0.092404395 -0.022983106 0.07178541 0.20618361 0.16653569 0.10530378 -0.07836686 -0.05254341 0.08020207 0.05990451 -0.143621 -0.15045266 -0.041416712 0.28632396 -0.34746048 -0.06600522 0.06646609 -0.20802686 0.053803265 -0.07931612 0.06355087 0.09970926 -0.1012487 0.10577243 -0.13488136 -0.0831442 0.12927864 0.07927786 0.13042754 -0.14490686 0.10837548 0.08460494 -0.16031046 0.08397111 0.04250526 0.096006 -0.18701224 0.030196285 0.114450954 -0.055202533 -0.13347185 -0.084260926 -0.22451778 0.17497373 -0.13959551 -0.1703363 -0.098323144 -0.12098846 -0.2881886 -0.11117224 -0.13266268 -0.27515393 -0.03296473 0.26761073 -0.31669003 -0.06346073 0.07264218 -0.14516145 0.06682216 0.03483824 0.065361395 -0.02324753 0.19284114 0.15354581 0.047571085 -0.012060712 -0.17574193 0.036093432 0.020898856 -0.22661588 0.25258425 0.12973262 0.08148586 0.08181151 -0.042497855 0.23540065 -0.08981691 -0.03555147 0.119887605 -0.030175569 0.017139439 0.08723074 0.24626525 0.16243407 0.0117315 -0.058506798 0.043134093 -0.06403603 0.017839257 -0.034151953 -0.06164285 -0.028556189 -0.053709585 0.12750849 0.14813647 -0.08013906 -0.16393246 -0.280087 -0.13905762 0.015965018
1999 -0.22697484 0.005956678 -0.0102453055 -0.038081437 -0.36387864 0.051459473 -0.15387204 -0.037587006 -0.15839554 0.05746123 0.11083994 -0.09498569 -0.022126257 0.014556493 0.014874852 -0.20127001 -0.1624963 -0.21470615 -0.12466216 -0.10009527 -0.018067483 0.21516128 -0.09364377 0.13331455 0.13352847 0.021744939 0.07041855 -0.07824133 -0.045669757 0.062422782 0.13180271 -0.15943822 0.028871963 0.15736987 -0.18346263 0.007678533 -0.0024412216 0.12024996 0.043320537 -0.081790976 -0.006657414 0.29665416 0.10514025 -0.0053441906 -0.18789005 0.025771104 0.11383552 0.021333456 -0.06348678 0.24413177 0.039572515 0.06806544 -0.027281953 -0.09714766 0.17399992 0.06167416 0.18599097 -0.095651045 0.1744709 -0.00096768443 -0.14337516 -0.1524655 0.09497577 0.040395536 0.031474475 -0.042472847 0.05490096 0.2707991 0.14837828 0.051417664 -0.06781443 0.043649454 0.06429597 -0.21572885 -0.24891968 0.07925252 -0.15761708 0.27406806 0.19175698 0.15674059 0.17226702 0.25377983 -0.081664234 0.10821542 -0.045699332 0.117866635 -0.09772531 0.012979657 -0.10710162 0.1272217 -0.077763885 -0.021255098 -0.12116183 -0.23951024 -0.06241456 -0.070730984 0.14088508 -0.23245753 0.30457798 0.17771004 0.21251774 0.033351067 0.12375005 0.16569261 0.008613773 -0.11589324 0.12730058 -0.12556343 -0.06544261 -0.19674033 0.00095876283 0.14804655 0.120613545 -0.1240283 0.06334894 -0.0562111 -0.011056147 -0.0006159168 -0.11171802 -0.076920725 -0.19712155 0.18458982 -0.061146118 -0.10409779 -0.1717579 -0.09840236 -0.06723091 -0.23680103
196 -0.22852425 0.20534055 0.0813775 -0.18739437 -0.025324829 -0.0007569914 -0.0051790364 -0.2241802 0.24716361 -0.027658692 -0.15424664 -0.16943963 -0.06346899 -0.085767604 0.11464271 0.13826898 -0.15137881 0.020468298 -0.13439798 -0.052427858 0.041983053 0.07361804 -0.1529736 0.24348226 0.07318989 -0.16282418 -0.15894718 0.050956123 0.14468569 -0.2411949 0.13209341 -0.028212205 0.10483235 -0.067957126 -0.1431982 -0.17903547 0.23111103 0.12762703 0.06345706 -0.028824592 0.124343894 0.33475828 -0.06344995 0.15418415 0.042962283 -0.21303187 0.1362956 -0.108034275 0.0706742 0.23562756 -0.08512404 0.09920296 -0.1706803 0.111941576 -0.2320637 0.0019862098 -0.03300516 0.1822265 0.06703739 -0.15945567 -0.16975941 -0.093041435 -0.3132483 0.06964827 -0.06988673 -0.027219119 0.015381026 -0.09928028 0.0047389693 3.7571943e-05 0.014802097 -0.13486087 0.110935 0.21017979 -0.13603987 -0.08095497 0.041845754 -0.07472536 -0.14428146 -0.1424565 0.18507473 -0.23133427 -0.0853545 -0.24497202 0.0021461886 -0.20673831 -0.09486579 0.07965817 -0.045637608 0.15078914 0.19613585 0.036767367 0.033605207 -0.08853326 -0.3680059 -0.05934192 0.07573612 -0.067212366 0.0029803987 0.013795747 0.09512088 0.07953784 0.06637146 -0.14722967 0.20959306 0.1260323 0.16050039 -0.1627223 0.003212498 -0.04730966 0.036668997 -0.029753635 -0.111356884 -0.05921137 0.3355839 -0.17935386 -0.12129512 0.05826185 -0.08573813 -0.10353681 -0.080643415 0.19743587 0.119545445 -0.17569979 -0.45690197 0.0051734443 -0.094550654 0.0023469892
1067 -0.00753778 0.06790016 0.13111785 0.172399 -0.072795026 -0.16712922 0.12356027 0.027142532 -0.3466157 0.027278842 -0.2302227 -0.18785785 0.042275246 0.23831052 -0.008348139 -0.05854292 0.1363797 -0.20746641 0.08520899 0.12879312 0.13689388 0.23587726 -0.35968158 -0.002640946 -0.1601694 -0.20201625 0.04062404 0.0027630597 0.16759342 0.0034279956 0.08469446 -0.07908677 -0.06721787 -0.13237254 -0.17658094 0.13408265 0.0041382257 0.08031061 0.18322736 0.035756536 -0.21294792 0.053468604 -0.24590209 0.1200602 0.05015645 -0.22655241 -0.11786611 0.11949725 0.12986806 0.12453261 -0.12397519 0.05449391 0.16967048 0.10969873 0.09514942 0.1663927 -0.23221605 -0.028365057 0.25188127 -0.056876276 0.0030012464 -0.22872925 -0.1330543 -0.1861262 0.014983138 -0.055111248 0.09139721 -0.060922112 0.12499672 -0.029339628 -0.087468915 -0.051301546 0.12104342 -0.07005856 -0.10263612 0.038644623 -0.120047666 -0.0013680978 -0.06155113 0.09854259 0.0947079 -0.015265471 -0.082913764 -0.024593305 0.042977042 -0.22887507 0.13797583 -0.11986002 -0.050382063 0.12298039 -0.18485856 0.070356205 -0.124548525 -0.1400329 -0.16612586 -0.019784303 0.14902782 0.18409213 0.14032975 0.08710975 -0.0058090594 0.1114822 0.040054914 0.06235005 -0.2397435 0.123256005 -0.108356595 0.0060304785 -0.07782267 -0.19421765 0.1709767 -0.16646764 -0.18743321 -0.23017786 0.046752304 -0.030945854 0.17205964 0.14018966 -0.06660334 0.19992654 0.12775724 0.35797575 -0.13841273 0.03604174 -0.08927839 0.024791734 -0.1454235 0.047609918
2030 -0.37727293 0.31623876 0.029857464 -0.18953255 -0.41320583 0.097631276 -0.19529356 -0.017357115 0.011643053 0.012190937 0.077420734 -0.26008156 0.083754145 -0.048944723 -0.19872324 -0.048067324 0.078227274 -0.07608411 -0.12876755 0.061479222 0.16273698 -0.28013334 0.06306397 0.17193872 0.03233701 -0.06101569 -0.08460745 -0.06462325 0.01880889 -0.09030342 0.119786575 -0.063408256 -0.010879703 -0.08650194 0.09838227 -0.18860057 -0.07371991 0.28751463 0.33225662 -0.17980498 0.17769574 -0.043381285 0.0671209 0.16610613 -0.0026497652 0.10214855 0.16138469 -0.20137635 -0.08123908 -0.0414258 0.027858535 0.027255556 -0.00058804505 0.09115643 0.20790401 0.08214735 -0.040346753 -0.1714034 0.27595186 -0.01575158 -0.15229303 -0.046228483 0.0032977078 -0.13519822 -0.027017768 -0.049110547 -0.113458395 -0.033132687 0.067198396 0.008102653 0.25611302 -0.1137902 -0.18671712 -0.1707391 0.14357832 -0.08974516 -0.008655184 0.106632546 -0.12204104 -0.15294084 -0.0012882284 0.14458904 0.020488458 -0.13112956 0.036037765 0.041658755 0.3071603 0.15633665 0.052167006 0.06296493 -0.016076714 0.3014644 0.07678505 0.010681944 -0.052622356 0.19143471 -0.007873053 -0.1206407 0.27829698 0.15422301 -0.14101085 0.19010685 0.27943838 -0.07873938 -0.15956478 -0.084104694 0.25579137 -0.021212056 0.09854176 -0.043673847 0.20861953 0.03831874 -0.3153668 -0.03323843 -0.087485395 -0.3485042 0.054015074 -0.00036840647 0.0784778 0.061931994 -0.09317279 0.23910058 0.018188778 -0.07613726 -0.102911204 -0.06123317 -0.29608676 -0.20736638
1285 -0.045632765 -0.010706805 -0.010032691 0.008773676 0.10641964 0.1581666 -0.19357961 -0.023497047 -0.16442196 -0.20540583 0.025431763 0.054011427 -0.060313072 -0.13357344 0.20010327 -0.18656744 0.007600408 -0.072919235 -0.23135497 0.09212383 0.032805897 0.109619826 -0.39188182 0.20766236 0.010255536 0.010200598 0.16307892 0.0526314 0.20822126 -0.07863171 0.028351758 -0.15588167 -0.013310435 0.10001433 0.070982076 0.23950171 0.059215788 -0.091004044 -0.05018455 0.03775148 0.032069623 -0.035075318 0.03318938 0.027370494 0.20802614 0.1663767 0.12607966 0.20319922 0.12380754 0.00654623 -0.116306424 -0.18262056 0.08231129 -0.054648373 -0.027927244 0.22999349 -0.13869292 0.090539746 -0.08325907 0.05820269 -0.05434854 -0.14855254 0.021968154 -0.2536246 -0.0724478 0.039576564 0.1348546 0.14096986 0.16040404 0.13591878 -0.114839874 -0.016539462 0.36063787 -0.14131789 -0.10946403 0.1780251 0.046431396 -0.33142674 -0.0026789226 0.23206224 -0.10128142 0.019254085 -0.17175475 -0.035668783 0.10393429 0.029821554 0.07414635 0.10605844 -0.13131985 0.18307558 -0.031063985 0.20034537 -0.12885265 -0.06094161 -0.19113943 -0.022813298 0.13774805 -0.04300227 0.06577619 0.025494467 -0.060982637 0.029409 0.12104794 0.29968238 -0.33774316 -0.11806256 0.21226735 -0.2383475 -0.2267558 -0.0228101 0.030768635 0.0057046013 0.047952995 -0.08561038 -0.19174047 -0.2628086 -0.14997342 -0.055142812 0.2084853 -0.12748897 -0.09643586 0.040368065 -0.3314646 -0.043906294 -0.06728225 0.14513901 0.048347417 0.3651183
2 -0.017750207 -0.19104388 -0.016363414 -0.24046434 -0.12462427 -0.22409967 -0.21563417 -0.115636796 -0.14783956 0.013546275 0.08192428 -0.062066894 0.15879893 0.060280807 0.064903505 -0.24806136 -0.13131896 0.04898415 -0.21485119 -0.06619921 0.03220415 0.117373414 -0.008306439 0.28335106 0.23570211 -0.30675733 0.092672884 -0.040825505 0.10468815 0.033362273 0.068568565 0.02899013 -0.04110312 0.2593241 -0.076592974 0.2050551 0.37427962 0.38658184 -0.0086991545 0.039627846 0.11046254 0.04091515 -0.16609715 0.12137853 0.29191786 -0.1177026 0.18311605 -0.17920147 0.061309792 -0.11573494 0.036633752 0.22511378 -0.0918947 -0.12957922 0.054186646 -0.0012394307 0.009158873 0.24750936 -0.07647366 -0.042829633 -0.09903282 -0.082949154 -0.038028862 -0.18010636 0.11563677 -0.23418549 0.0760464 -0.15703486 -0.02218948 0.011303966 0.10281791 0.112631574 0.09415712 -0.3195423 -0.12967211 -0.04234803 -0.06851804 0.023996808 -0.18324621 -0.14297926 0.114344984 0.105708525 0.16549209 -0.13176003 0.008519547 -0.13049744 -0.14712708 0.09112269 0.046572898 0.039242078 0.06824399 0.33343688 -0.07392626 -0.13377875 -0.106972314 -0.07859492 -0.0042133415 -0.09688246 -0.019218303 -0.12820667 -0.0015234954 0.034709558 0.14310847 -0.007457845 -0.087077186 -0.13956773 -0.10607077 0.021027643 -0.059012175 -0.3396068 -0.018943744 -0.12312404 -0.21695986 -0.1031524 -0.11851233 -0.22566502 -0.025838716 0.038898695 0.1109475 -0.22417115 0.06712075 0.06653072 -0.09920492 -0.20852971 -0.21340187 0.028409583 -0.011142522 -0.09407187
1280 -0.17254846 0.2604678 0.017576292 -0.3181542 0.1316739 -0.12668656 -0.08596821 -0.07754814 -0.26680347 0.15032744 0.0061783637 0.012706409 -0.13556015 -0.039852533 0.09579478 0.2854071 -7.276049e-05 0.027480587 -0.010062135 -0.11242788 0.16625461 0.2574879 0.03241489 -0.24708195 -0.05875545 -0.21006176 0.019678965 0.007969894 -0.019795498 -0.009131317 -0.09115556 -0.017304543 -0.13409124 0.07470753 -0.047010764 -0.012676203 0.2974479 0.06290123 0.0009967027 0.0064060753 -0.10836158 -0.067313105 -0.37509045 0.08825468 0.16346149 -0.08763291 0.293952 0.075396106 -0.29902384 0.22144108 -0.0781323 0.056356993 0.019489614 -0.049619753 0.08300764 0.200929 -0.10376843 -0.042987037 0.18668222 0.26944587 0.06405568 0.16712847 -0.06477132 0.202214 0.014327564 -0.04063782 0.07503834 0.2287125 0.17864648 -0.1435864 0.07996793 -0.3089424 -0.033438914 0.130013 -0.09450681 0.11522688 -0.03154275 -0.027357388 0.11488723 -0.24414596 -0.047855254 -0.18736522 -0.005319215 0.06724897 -0.36017138 -0.0847835 0.046529997 0.30496538 -0.15475711 0.15376957 -0.015880292 -0.05373182 -0.17598109 0.13056274 -0.433302 -0.014146153 -0.012007216 0.13146125 0.14442173 0.02171939 -0.18901321 0.0077037937 0.24784583 0.057199385 -0.13454217 -0.190459 0.04882326 -0.10162594 -0.13320425 0.048266593 0.056311857 0.12503736 0.15872297 -0.094000265 -0.14425622 0.1174932 0.30618867 -0.03898558 -0.027719468 0.049976617 -0.18730997 -0.12303169 0.07465634 0.20799308 0.0081354445 0.08006052 -0.096323036 0.103553526
1732 -0.16689292 0.18531299 -0.14802851 0.19787942 -0.13445199 -0.0063993623 0.027889723 0.06525283 -0.03307947 0.1696692 -0.09880057 -0.2469283 0.037875764 -0.24570484 0.24359222 -0.004227703 0.12008859 -0.08522594 -0.073884405 0.16004483 -0.17140545 0.0734462 -0.093515 0.1622256 -0.095361464 -0.057599057 0.39114094 -0.045476034 0.19831268 0.16078098 -0.13285054 0.07892422 0.0009397059 0.24108297 -0.08776534 0.04132943 -0.37369767 -0.029760519 -0.09785633 -0.0914488 -0.17810313 0.01231025 -0.025559893 0.119172364 0.15048572 0.14712562 -0.0864982 0.026796253 0.032342434 -0.10651082 -0.062400423 0.05342738 0.0058569456 0.15124784 -0.27990243 0.38146803 0.12770171 0.07008442 0.14756845 -0.04540176 -0.11701983 -0.08950683 0.11448032 0.025512455 -0.1403918 0.06145278 -0.03668336 -0.041671637 0.073241875 -0.20723481 0.07947517 0.24955325 0.003996269 -0.090008624 8.5098545e-05 -0.125803 -0.19955808 0.021498224 0.022189904 -0.16872959 -0.063386045 -0.09382079 -0.21169971 0.06470671 -0.36493537 -0.025818033 0.2383805 0.1880847 -0.06844957 0.036634184 -0.14473188 0.12686725 -0.01634244 -0.26156878 -0.2741503 -0.12669177 -0.12870097 0.025848476 0.005574919 -0.11179373 -0.16583583 0.040375873 0.10084548 0.1666506 0.05990233 0.14296989 0.09875922 0.09545311 -0.033802856 0.078936 0.31677923 -0.11140906 -0.055687934 0.007638461 0.072648026 -0.091070436 0.07078526 0.18534611 -0.20271173 -0.0031516012 -0.19121654 0.23797296 -0.0031275614 0.049379963 -0.15437573 0.12791552 -0.1103636 0.10508486
1058 -0.0036806355 0.09338035 0.09177973 -0.054328874 -0.26613212 -0.04294359 0.05124669 0.05112683 -0.14858495 -0.20504254 0.12511177 0.019921297 -0.011319717 -0.18614632 -0.029825693 -0.2992929 -0.12625878 -0.0026836996 -0.22668909 -0.107260525 0.08484766 -0.057817828 0.11165839 -0.09049764 0.07562209 -0.16870844 0.022856355 0.050558135 0.37046483 0.070774496 -0.24181896 -0.018971046 -0.029591247 -0.085726984 -0.10281927 0.22514482 0.057860862 0.136688 0.04557554 -0.087946616 0.031740118 0.07713878 0.063758954 0.5866757 -0.12643568 -0.047355052 -0.25572115 -0.03128486 -0.15424933 0.13741474 -0.18579286 -0.05484334 -0.07447015 -0.23080415 0.048604842 0.00929126 -0.040944893 -0.06224239 0.12270473 -0.023035537 -0.19287683 0.051270466 -0.090694666 -0.20547366 0.07368768 0.07936882 -0.21135922 0.28955823 -0.055291984 -0.15521438 -0.212902 0.19859196 0.10901462 -0.35327744 -0.13420299 -0.18780947 -0.056204833 0.018978227 -0.108143725 0.102446996 0.11089014 -0.23247018 -0.023952417 0.13448033 -0.101241335 -0.21202666 0.16941601 -0.22303829 -0.26195538 -0.07005853 0.25019228 -0.009888225 -0.048601225 0.20358069 -0.099637076 0.028123228 -0.28865448 -0.10315404 0.12221088 -0.31742105 0.20047314 0.003988145 0.05281664 0.043646593 -0.006210931 0.013892572 -0.04598529 0.03487996 0.05067791 0.013896452 0.20710063 0.049385093 0.006218253 -0.001913699 -0.059756264 -0.18419887 0.010682052 -0.013495997 -0.08560685 0.1583325 -0.1416609 0.105701804 0.06492794 0.055439323 -0.24345165 -0.03312384 -0.11120939 -0.114554435
435 -0.14508395 0.051745605 -0.07785171 0.036503073 0.11482686 -0.10859157 -0.029707702 -0.088346176 -0.29214746 -0.081442624 -0.19394735 -0.052624468 -0.13084407 -0.21062762 0.18984376 -0.026696479 -0.27883643 -0.26707467 0.11339616 -0.0666017 0.032442696 -0.038166184 0.2213712 0.16961683 -0.090160854 -0.17749673 0.00014007134 0.06116557 0.43093416 -0.15174495 0.027348246 0.028232446 -0.085004315 0.029414523 0.08513382 -0.0313834 -0.15342405 0.01768722 0.15621494 -0.028963378 0.10685718 0.2411259 -0.10515867 0.28097463 -0.21291645 -0.06937278 0.34574705 0.011686827 0.010563151 -0.2195545 0.111072704 0.11564872 0.08769738 0.056085236 -0.09871644 -0.08526926 0.08016753 0.12245838 0.20872164 -0.0053994013 -0.26797056 -0.18399751 0.1937086 0.15093604 -0.06677109 -0.042621292 0.2873915 0.123554386 0.016879832 -0.1402236 -0.07842899 -0.021674644 -0.16931419 0.23157534 -0.21967772 0.03119578 0.13645838 -0.22681275 -0.32554063 -0.08167102 0.039458755 -0.19979835 -0.11750571 -0.13473025 -0.13479218 -0.057758946 0.13869692 0.03718192 -0.10414338 0.1733429 -0.11730471 -0.19993956 0.04941081 -0.0056998087 -0.18138403 -0.13927965 0.23980933 0.10994944 0.06415629 -0.0065650134 0.074501574 0.15086453 0.10041014 0.3824068 0.08777913 0.19785643 0.18767132 -0.2501196 -0.0442964 -0.19208 0.17112665 -0.08830523 0.13532059 0.11007232 -0.11928701 -0.10215522 -0.021194689 0.06403886 -0.13703516 -0.003797214 0.15543742 0.024531059 0.10932847 -0.09611384 -0.018988121 -0.106323 -0.016548693 0.023991028
88 -0.13075347 -0.11416826 -0.1299275 -0.017765017 -0.17550018 0.075267464 -0.12742062 -0.21564925 -0.33521128 0.070164 -0.18329658 0.006171469 -0.21247815 -0.20100866 0.13966402 -0.30054283 0.17740013 -0.1760391 0.1930469 0.02475918 0.06671226 0.13668457 -0.25039047 0.18325768 -0.04010677 -0.40056515 -0.13300882 -0.06089826 -0.12036732 -0.0108273085 -0.045842163 0.06161533 0.07467818 0.109190516 0.40204737 -0.11438014 -0.08832776 0.12277772 -0.10138997 0.08798309 0.022031773 -0.050264098 -0.13172886 0.009389163 -0.09158932 -0.009226996 0.12032475 -0.022985145 0.12006725 0.04055981 0.03349841 0.24857624 -0.2518015 -0.15669893 0.2616709 0.09346428 -0.12704441 0.14295346 0.14825307 0.16602147 -0.124508075 -0.04133983 -0.004038415 -0.0071703247 -0.19228485 -0.15113679 0.10744345 -0.07245666 0.052388564 -0.16910821 0.16540222 0.19607054 0.16152908 -0.050941188 0.015655471 -0.05374167 0.018536033 -0.25319615 -0.15516414 -0.12055282 -0.07054048 0.041279197 0.0075483015 -0.07200421 -0.0052007884 0.028964441 0.020180792 0.13959675 -0.03259028 0.013870159 0.13142624 0.15260938 -0.06999248 -0.042711984 -0.16809224 -0.06028258 -0.2946712 -0.15207537 -0.0109983105 0.028458018 -0.16437548 0.34742156 -0.12415944 0.07024365 -0.07784662 -0.33786532 0.0146230385 -0.09665384 -0.2980838 -0.35498416 -0.16363846 0.07826851 -0.09631917 0.03584594 -0.08272315 -0.24753396 0.118403345 0.094206266 -0.029839646 -0.044176858 0.09524805 0.11330232 0.17538323 -0.40165123 -0.060856793 0.1616987 -0.3759997 -0.026576849
2350 0.028457377 0.18461317 0.05652033 -0.40595755 -0.0416238 0.0335023 -0.023870744 -0.008432156 -0.02653599 0.17531557 -0.18675324 0.36535782 -0.15845312 -0.22168446 -0.4095843 0.1236916 0.06963145 -0.28693196 -0.08603166 -0.28362805 0.07938638 0.23313342 -0.087002434 -0.20030364 -0.3096439 0.24017519 0.078159 0.17672633 0.24373315 -0.37779653 0.2692787 -0.33579102 0.12179068 -0.012164091 -0.098495066 -0.2289731 -0.20481904 -0.06523597 -0.12359864 -0.08246761 0.05348187 0.076162465 -0.2904228 0.07458281 0.056802336 -0.26508325 0.14404775 0.14879504 0.0030280186 0.18138754 0.021725353 -0.11305253 -0.08916094 -0.22386275 0.051306963 0.11798331 0.068341024 0.030157313 0.05100774 0.07870282 -0.09928471 -0.126484 -0.015770795 -0.08589539 -0.0019233993 -0.023490353 0.062220495 0.15241095 0.045260265 -0.03103416 -0.08041833 -0.23435964 -0.28297442 0.07408947 0.08558566 -0.29103154 -0.15585282 0.062078085 0.075202875 -0.10096496 0.20688345 0.2159523 -0.0231295 -0.0861013 -0.005770127 -0.099931665 -0.046656083 -0.15286072 -0.059229936 0.0776919 -0.12466417 -0.07085429 0.0032013804 0.10855755 -0.28043488 0.07686143 -0.35072234 -0.2868557 -0.07237551 0.10581404 0.21017279 -0.07773371 0.058171783 0.033980902 -0.12629928 -0.16420941 0.2899588 0.0028770536 -0.06777197 -0.0503097 0.078475215 0.1782504 0.021363232 -0.17448875 0.09298616 -0.016109662 0.17813154 0.10630717 0.042101823 0.15065835 0.089850545 0.37044832 0.033287603 -0.11605743 -0.28865522 0.07165359 0.026741775 0.012733571
957 -0.052478135 0.09132665 0.31296748 -0.018896608 -0.07078829 -0.061916642 -0.15129116 -0.114317425 -0.14562456 -0.047073472 0.16557261 0.011468619 -0.011580638 -0.33205128 -0.09487108 -0.06202474 0.2209867 0.12262806 0.07490743 -0.18758695 0.13090204 -0.019505158 0.10424388 0.009327827 0.07133277 -0.0020571488 0.055059418 -0.06783722 0.31008425 -0.117075406 0.08297092 -0.30601656 0.15710439 -0.040951025 -0.02798528 -0.012932699 0.06913275 0.16207644 -0.17290504 0.045335196 0.05256443 -0.15481648 -0.12177137 0.16430496 0.10261111 -0.17236966 -0.2705446 0.15935825 -0.07143775 0.0799258 -0.15062663 0.19164366 -0.04965123 0.15474282 0.094523504 0.08531529 -0.23089226 0.10776648 0.17935349 -0.16175519 -0.43246943 -0.10534189 -0.05163549 -0.2558446 -0.10900284 -0.13912126 -0.042402226 -0.17092511 -0.028214602 0.026698986 -0.09539154 -0.2823378 -0.1898579 0.18989204 -0.36330464 0.039096028 0.043490972 0.07031847 0.09059928 0.13339806 0.025531698 0.2206093 -0.057666384 0.12686056 0.11304063 -0.06464849 0.15376851 0.1617891 0.051477574 0.08037309 0.22715546 0.2700755 -0.0500997 0.1675222 -0.20186728 -0.14973652 0.12389556 -0.29811445 0.27054554 -0.050524876 -0.06080674 -0.003710935 -0.053935833 0.15623145 -0.032357305 0.08382707 0.046953414 -0.27602434 -0.23072928 0.06310333 0.11905694 0.19614112 -0.02531315 -0.21443354 -0.09631392 -0.2410331 0.24166457 -0.07560208 -0.2878224 0.058075845 0.027357107 -0.05796033 0.15597819 -0.16338313 -0.27740481 0.03503759 -0.18540743 0.20299798
96 0.0022448304 0.22431737 0.037426725 -0.188743 0.12367335 -0.26167735 -0.11089703 -0.00014700276 -0.16856308 0.072614335 -0.19546835 0.12997721 0.086454764 -0.14861457 -0.0045959163 0.1688488 -0.19968708 -0.17128566 -0.065582536 0.22284272 -0.08546287 -0.023142405 -0.22554256 0.31393573 -0.06700948 -0.034672733 0.21346822 -0.008344832 0.13858138 -0.26779622 0.0081514055 -0.19045494 -0.050718073 -0.21706463 -0.013722791 0.08863812 0.05161809 -0.055905834 0.0405947 -0.2104031 0.3219133 -0.06589576 -0.008624774 0.11963789 0.29591534 0.019118093 0.2452928 -0.10387357 -0.12007578 0.008670244 -0.102336735 0.21275084 -0.29643708 0.011844832 -0.14554796 0.24837081 0.019021006 -0.18018754 0.17744035 0.27132127 0.099619195 0.1502837 -0.4921496 -0.15166456 -0.06743267 -0.012148654 0.099735774 0.15569839 0.11245201 -0.18390913 -0.17164773 0.04487404 -0.10081098 0.15688449 -0.051772542 -0.013364874 -0.100788005 -0.03998583 -0.11393728 -0.08647256 -0.20061374 -0.079656675 -0.21017748 -0.05367759 0.054613303 -0.13438693 0.03575939 -0.0014687827 0.07250881 0.1990941 -0.12957655 0.34019026 -0.179773 -0.115368485 -0.049037542 -0.2514097 -0.0373407 0.17004691 -0.20894855 0.010342062 -0.20004432 0.08335556 0.16018462 0.067687266 -0.03167507 -0.029806161 0.038138967 -0.028351372 -0.12691942 0.008728381 0.13977157 0.1376063 -0.15140788 -0.22535564 0.068295605 -0.08010186 -0.16096507 -0.035860848 -0.05656934 0.16546015 0.11093966 0.081828944 -0.062663496 -0.09545911 -0.13374907 0.09853942 0.12490271 0.057185378
560 0.04829088 0.17213395 0.039749444 -0.061617594 0.13671182 -0.077264376 -0.1028237 0.034684632 -0.033909995 -0.087355524 -0.030416293 0.07026679 -0.32880777 -0.008092832 0.13306679 -0.088739395 -0.039423898 0.07198898 -0.06755624 0.0016594853 -0.122733064 0.122988835 -0.07433283 -0.20220213 -0.14501669 -0.078829706 0.015097231 -0.11119518 0.32595742 -0.019065889 0.08511414 -0.06934368 0.023260191 0.041665435 0.23819393 -0.038535602 0.08294888 -0.041472893 0.046868786 0.2055271 -0.08054125 0.23562382 -0.2012737 0.26418594 -0.008603175 -0.13570687 0.018992405 -0.0046360204 0.07487393 0.19827414 -0.12201403 -0.07307924 0.041336607 0.33108464 0.13549997 0.24278572 0.13299485 0.05854581 0.34484035 0.3001331 -0.03382815 -0.02941515 0.07205905 -0.02917034 -0.03580627 -0.047795456 -0.058160823 0.0031761357 -0.06943001 -0.10155183 -0.16817264 0.025049843 0.40904856 -0.17267604 -0.404532 -0.16518311 -0.006650684 0.009526005 -0.13910401 -0.013360377 0.10242468 0.17497374 0.09781746 -0.08641669 -0.17443249 -0.06906918 0.22025749 -0.03355892 0.11906324 0.18831357 0.114173956 0.13557442 -0.1345528 -0.19653678 0.045986187 0.17626293 0.04200756 0.008307655 0.04813793 0.0972883 0.11257836 0.24160305 -0.07665478 -0.0061685713 -0.3006761 -0.06395569 0.15542358 0.04095257 0.11888614 0.1721244 -0.123075195 0.051937785 0.07079185 -0.05654164 -0.07955364 -0.09150178 -0.02844489 -0.2041945 -0.0664856 -0.107778266 -0.1557649 0.084984146 -0.11284117 0.072505035 -0.13621935 0.1256906 -0.2517774 -0.07817783
578 -0.018601047 0.03637749 -0.26337457 -0.053444985 -0.0005982431 -0.0051407716 -0.33171722 -0.16077092 -0.112922706 0.01157337 0.023584783 -0.33186707 0.028358815 -0.28493765 0.03709199 -0.052077886 -0.020672522 -0.007851162 -0.14410359 -0.007503833 -0.064995214 -0.13264008 0.14444256 0.31246206 0.015414161 -0.00972358 -0.2154843 -0.09642023 0.0663389 0.077213876 -0.16201401 0.26113984 -0.031829767 -0.064917475 -0.22311729 -0.0817449 0.12584913 0.26784226 -0.038373146 -0.12355476 0.053611774 -0.092701204 0.25165027 0.1764015 -0.08453574 -0.3231312 0.036038153 0.0058405492 0.07571077 0.01653887 -0.108463615 -0.15770364 0.08000505 0.22373623 0.044289876 0.06334076 -0.07156542 0.019610144 -0.04490632 -0.06087401 -0.117587656 -0.22517167 0.18969586 -0.10132901 -0.04129755 -0.036311388 0.18720171 -0.09925337 0.089806624 -0.17778228 -0.23949623 0.018035572 0.3310633 -0.22324844 -0.1743856 -0.04212593 -0.06535256 -0.0446917 -0.14206763 0.04370414 -0.12544882 0.02516088 -0.28941962 0.0044922694 -0.10510727 0.14234607 0.030778838 0.030567804 -0.21011846 0.21902467 -0.18696561 0.49532565 -0.27689275 0.044031344 -0.21464856 -0.1550776 0.03306354 -0.36466563 0.075029254 -0.08960068 0.17039715 0.058764033 -0.054434307 0.1042554 -0.16380702 -0.17136997 0.339993 -0.03352492 -0.10529251 -0.050180573 0.18327409 -0.05750365 -0.41604602 -0.023887167 -0.15002382 -0.029320579 0.11077619 -0.19096184 -0.1374864 0.03993312 0.11906093 0.08897317 -0.04869115 0.037363246 -0.11252103 -0.04365116 0.008237061 -0.22677222
86 0.0817814 0.07091594 -0.2910094 -0.03340734 -0.09400272 -0.09598084 0.029145671 0.069196045 0.22443567 -0.21023498 0.11364529 0.13347144 0.087781735 -0.08757702 -0.0041180635 -0.07150246 -0.1452824 -0.29822806 -0.063742876 0.04220624 0.30503786 -0.2808375 0.10484385 -0.073005795 0.12951705 0.11644663 -0.124321766 -0.0027725413 -0.0023807469 -0.26461515 0.044281397 0.07270577 0.06947535 0.19693823 0.02633082 -0.11622324 -0.14219624 0.022283526 0.025095388 -0.18725418 0.09324094 0.16689412 -0.06874492 0.2771349 0.23835139 0.12590554 0.00085588766 0.1045854 0.24435571 0.040070906 -0.21267468 -0.05562642 -0.12572429 -0.06982145 0.36091504 0.117986634 0.38988543 -0.1660917 -0.087600626 0.037632044 0.03684621 -0.07047052 0.13773698 0.13940252 -0.114820756 0.13361116 0.09279531 0.33988538 -0.030103074 -0.13180429 0.104136705 0.010532993 -0.1328646 -0.3023418 -0.09797281 -0.020928986 0.015337911 0.09746389 -0.3887675 -0.22541681 0.0119105205 0.06397361 0.06107076 0.0062288223 -0.07361989 -0.27105844 0.28868756 0.07702899 -0.18378495 0.014619354 -0.13290656 -0.05767498 0.14065291 0.044295996 -0.28846452 -0.13586295 -0.15435605 -0.1408556 0.17911913 0.18788753 -0.054309227 0.023020139 0.07631793 -0.22939089 0.06355101 0.07036812 0.22324143 -0.25642446 -0.08129306 0.043161657 0.030628024 0.14128691 -0.12145658 -0.028604114 0.06322156 0.17710125 0.09993454 -0.028028823 -0.14213972 0.08343761 0.20410158 -0.010750355 -0.022178948 0.0834048 -0.2783292 -0.022306086 -0.14948474 -0.019865539
693 -0.122556455 0.0908775 -0.028530361 0.029450333 0.1638392 -0.006273264 -0.06040187 0.06199348 -0.14429379 -0.3219587 0.009452878 -0.17256974 -0.071197115 -0.31557736 0.11729438 0.13453409 -0.057997033 -0.1736662 -0.25276846 0.19782192 -0.2069886 0.023800464 0.1373609 0.17628655 -0.16798848 0.054234527 -0.15201157 -0.045053154 0.13484064 0.123442 -0.07735059 -0.04359178 0.0130864475 -0.04731205 -0.099117376 0.04733115 -0.24863133 0.16890371 -0.06755732 -0.011652354 0.25526702 -0.066575825 -0.1633605 0.06664723 1.465764e-05 0.061753497 0.2381741 -0.09560103 -0.17889255 0.062156823 -0.13641545 0.07624394 0.011401353 0.016711349 -0.09374262 0.10925428 0.08070611 0.061225694 0.39755082 0.048749283 -0.13877279 0.03909959 -0.1152203 0.13100636 -0.07719858 -0.20034443 0.17755388 0.08767204 0.0420205 -0.3000996 0.015104641 -0.04417025 -0.00031523925 -0.092836566 -0.121688664 -0.1397929 -0.11679891 0.028744835 -0.2813554 0.012074046 0.04072024 0.13515598 -0.016723076 -0.20354672 0.14180428 -0.009824614 0.010917614 0.11636016 0.14776756 0.011960299 -0.057121873 0.11265456 -0.017372608 -0.117247276 -0.13520859 0.21863484 -0.14125562 -0.20601517 0.20780787 -0.05499767 0.30504876 0.061889704 0.049160533 -0.1710478 -0.10616827 0.10602557 0.11773204 -0.28507715 -0.03047683 0.053179573 0.27393186 -0.17463712 -0.019574068 0.061699383 -0.003602777 0.0060123 0.04612014 0.12246781 -0.007588876 0.02476603 0.19459789 0.042747755 -0.17990983 0.10486204 -0.15175042 -0.10785857 -0.10408823 -0.0048847417
1380 -0.009432698 0.28460068 -0.21356417 -0.28569204 0.12226309 -0.08346636 0.080917016 -0.10313725 -0.42434892 0.026534006 -0.4270618 -0.22539352 0.07949743 -0.094144985 0.060152765 -0.02381625 0.15389323 0.08925877 -0.23608914 0.04269691 0.09021878 0.097300366 0.04286832 -0.10295334 -0.11535152 -0.2952996 0.34273866 -0.11660282 0.22342843 0.15292233 0.024734206 0.091682605 0.07228473 0.16398549 0.12399721 0.04190391 -0.08164528 0.10108267 0.27750832 0.028121553 0.17562445 0.3401872 -0.088610806 0.09497297 -0.11622023 0.13623449 0.108629465 0.034436204 0.3934959 -0.08683527 0.033395253 0.18257655 -0.15292595 -0.012126736 -0.18744633 0.18232945 0.085185654 -0.14807719 0.21765628 -0.3317213 -0.03094219 -0.015748428 -0.056966905 0.10373025 0.1421076 -0.20159352 -0.028579688 -0.09760397 0.099059455 -0.24965774 0.06920967 -0.11033986 0.22870259 -0.10102615 0.030911302 -0.10230355 -0.17184119 -0.19667079 0.06405115 -0.13896991 0.047391206 -0.14217502 0.22389464 0.039043255 -0.067495674 -0.030434577 -0.02247707 -0.12662649 -0.00282024 -0.14246215 -0.0752833 0.2550626 -0.0821225 -0.017245324 -0.100180686 0.102337815 0.2069524 -0.1503638 -0.04830198 0.15488169 0.085621126 -0.11279602 0.18458442 0.22841454 -0.17467582 -0.10524878 0.11615052 0.118183315 -0.20415528 -0.06868973 0.13923728 0.17978229 0.15786216 0.05929825 -0.24845763 -0.095168754 -0.0075857425 -0.10850976 -0.19818085 0.14296575 -0.01911792 -0.05974172 0.111442655 -0.26179034 -0.114338376 0.22624138 -0.09823983 -0.11251402
2402 -0.24921519 0.17090935 0.25569186 -0.046798505 0.18316104 -0.05926252 -0.11929269 -0.005160694 -0.29848492 0.0030779527 -0.0722623 0.079957165 -0.0697219 -0.09841261 -0.004895903 0.17132828 0.25472516 -0.13096753 0.14120272 -0.016992977 0.1474731 -0.001678144 -0.2991878 -0.002761568 -0.0466386 -0.09547171 -0.0019770719 -0.062211793 -0.03729962 -0.30524474 0.015325224 -0.040624 0.16054606 0.23523232 -0.1568129 -0.21194729 0.078806825 0.047254305 0.2483769 -0.09020192 0.034278113 -0.00032815334 -0.072959766 0.29745477 -0.115027376 0.3833669 -0.03228558 0.0062087965 -0.030972179 0.18578069 0.039501116 -0.08609342 -0.068728 0.22657159 -0.05826658 0.11375922 0.11891569 -0.059351668 0.13136151 -0.025184933 0.06949123 -0.01800444 -0.12211547 0.12265437 -0.21036354 -0.08952576 -0.07794229 0.21460097 0.08627616 -0.3075891 -0.22633502 0.092366375 0.2401103 0.11523237 0.098422475 -0.0174834 -0.065356195 0.07140715 -0.048216365 0.07412242 0.2409975 0.35132602 0.12274905 -0.012285794 -0.106972806 0.16668817 0.16688581 -0.042708013 0.21875003 -0.073266014 0.13003297 -0.2052413 0.049422532 0.42507452 -0.14725526 0.021551587 -0.16930775 -0.15090594 0.18032216 0.015696868 0.2743964 0.0848728 0.03993326 0.055451013 -0.08973125 0.23375037 0.33886868 0.36886945 -0.12572008 -0.11605049 -0.019421134 0.0040112985 0.11840032 -0.008447546 0.096131414 -0.112541296 0.08617569 -0.041705463 0.040128116 0.05596693 -0.051024914 0.21156728 -0.068351105 -0.24817032 -0.23439226 -0.056685444 -0.22196995 0.2653189
2261 -0.008550934 0.23870313 0.23050575 -0.12549846 0.014141358 -0.102600805 -0.062247574 -0.15590233 -0.21363743 -0.18618436 -0.0346229 0.11825733 0.21446575 -0.093051285 -0.119112164 -0.08988314 -0.055782337 -0.036948025 -0.21753532 -0.23488629 0.21525088 0.1669547 -0.09218175 0.09373922 -0.02510216 -0.06504146 0.05807571 0.04874009 0.009260489 -0.10271464 0.05218885 -0.13708614 0.27056584 -0.0057234606 -0.15756923 0.026078435 -0.20372553 0.12479998 0.012163175 -0.038266208 0.27627414 0.02753711 -0.109681055 0.026084878 -0.011080604 0.21961157 0.12890029 -0.009520493 -0.11764024 0.116683796 -0.0567609 0.052069735 -0.24668168 0.015346957 0.0920407 0.11420183 0.10889784 -0.32951382 0.113102004 0.067131884 -0.13689551 -0.00430876 0.1577801 -0.14602068 0.05695917 -0.03592661 0.08187584 0.0067210933 0.23783891 -0.21938096 -0.14040476 0.13215825 -0.08600691 0.027021717 -0.07853023 -0.14979452 -0.109860696 0.10570115 0.0089127235 -0.03812761 -0.06394523 0.01279801 0.08365921 -0.1635214 0.26014423 0.04662566 0.08564502 0.13129963 -0.008408757 0.26505327 0.14892596 0.036636528 -0.09939521 -0.05236267 -0.4903301 -0.079586 0.09680106 -0.21681206 -0.09953263 0.24716735 0.03082113 0.07931374 -0.08072173 0.16639507 -0.16796894 0.008859579 0.11836067 0.20399338 0.013798876 0.1705245 0.09169573 0.021055289 0.09182396 0.0014280062 0.02698335 -0.18276213 0.08161464 -0.16308758 -0.21863969 -0.08954081 -0.104075804 -0.04107116 0.27776134 -0.09444764 -0.16809678 0.27845165 -0.11548485 0.10680728
