1518 128
1054 -0.016200598 -0.069526225 0.049900416 -0.18309009 0.42239523 -0.005291821 0.19145359 -0.10753832 0.08859891 -0.10084728 -0.14097042 0.08144699 0.059960827 0.05902882 -0.071790524 0.012676579 0.0030519408 0.04446178 0.090288445 0.21652903 0.116126195 -0.2381201 -0.055620164 0.21311752 -0.21450551 0.081422076 -0.07981024 0.038492665 -0.1285644 -0.029771587 -0.049503032 0.14447662 0.20005131 -0.38852113 0.16310655 -0.024777012 0.14016779 0.07587405 -0.09914328 -0.105111286 0.032398444 -0.2011875 -0.21036011 -0.2421574 0.049092017 -0.023294218 0.07846794 -0.15615092 0.045839462 0.031570446 0.085282385 0.36779103 -0.0469517 0.12075539 -0.10887452 -0.022907736 -0.028426073 -0.037372526 -0.003143407 -0.004160328 0.005927107 -0.19253588 -0.21675271 -0.12911347 0.025387712 -0.013544301 0.07191307 0.056700636 -0.059724543 0.017778957 0.019530961 -0.08682352 0.07770025 0.33290672 -0.28936765 0.12010169 -0.0679916 0.18588835 0.2409389 0.11898739 0.031392608 -0.13273932 0.110066846 -0.30554193 -0.0011516212 0.09503089 0.25370532 -0.17466871 -0.10196134 -0.06684182 -0.10225554 0.1328939 0.008018566 0.03321754 -0.03487383 -0.08417984 0.09807662 0.11180284 0.1113548 0.23973313 0.18425775 -0.08139038 0.04947897 0.07349429 0.08156747 0.11482342 -0.007923699 0.062347084 0.054863885 0.3621693 0.055792578 -0.011453649 0.113132484 -0.24414963 0.11159949 -0.18481894 0.06237806 -0.07109257 0.0999454 -0.04025587 -0.32899338 -0.100635394 0.04005002 0.023582198 -0.07266466 -0.111327745 -0.050354768 -0.08916789
954 0.016289894 0.14967175 0.03966054 0.049796633 -0.083372705 0.048301354 0.088454895 0.010434719 -0.11349162 -0.024823079 0.22942686 0.013785316 -0.06371831 -0.026724676 -0.13833141 0.06113443 0.10914154 -0.07097178 -0.117828175 0.061271343 0.035799425 0.11175658 0.02841116 0.03356499 -0.065780215 0.027813349 -0.030071916 -0.07131895 -0.3419678 -0.3272369 0.12445673 -0.15312971 -0.04773414 -0.07894162 0.037571985 -0.17492993 -0.13225256 0.20929255 -0.13806644 -0.09862676 0.024149034 -0.14921904 -0.10750447 0.17223188 0.24219207 -0.20265004 0.14054492 0.01635277 0.20935819 0.34098202 0.12077421 -0.17593816 -0.04422079 -0.07543262 0.042359732 -0.15364307 -0.08170455 -0.0082983365 -0.019858053 -0.031225976 0.00030447874 0.10200702 0.061949648 0.02629428 0.18514563 0.06487151 0.18287246 0.06701497 -0.089793265 0.16606915 0.06470546 0.07038259 0.110051416 0.40427122 0.13511558 -0.015401355 -0.10102093 0.036427125 0.07782116 0.2813239 -0.19870348 -0.19210279 -0.019803135 -0.07519711 0.109368704 -0.011083772 0.0038094884 0.0566144 -0.11392112 -0.13028757 0.056505885 0.14485054 0.14387472 0.4210686 -0.094606325 -0.04601692 -0.008607958 0.23203231 0.24993956 0.13040608 0.09798677 0.22490261 -0.092389084 0.17970222 0.15444228 0.1636274 -0.26851976 -0.046230443 0.016826274 0.030186351 0.10206919 0.23586135 -0.16460757 -0.14938562 -0.04643439 0.17760399 -0.22395226 -0.17229837 0.28273186 -0.078687124 0.09173469 -0.009880002 -0.0002916896 -0.25511187 0.1081661 0.027288591 0.07865958 0.06846288
1549 -0.023203738 0.105082765 0.06595658 -0.034213074 -0.22581594 -0.035710964 -0.11421055 0.12534818 -0.047455844 -0.12216313 0.22370209 -0.017358968 -0.19855945 0.033711042 -0.074889556 0.0068363994 0.076493606 0.047441572 0.0785828 0.2469346 0.020329837 0.21046236 0.08704147 -0.12554501 -0.13276963 0.039936107 0.10186977 -0.0031635377 -0.13691984 -0.029774278 -0.24446669 0.027937127 0.14791617 -0.051774126 0.08096513 -0.014674946 0.12727219 0.1772723 0.17561564 0.21141078 -0.027570544 -0.0406531 -0.05311728 -0.0846979 0.1631843 -0.029238913 0.10641391 -0.020849567 -0.1263137 -0.087910056 -0.124696225 -0.17264754 -0.03780784 0.22158416 -0.12857307 -0.13880868 -0.2745103 0.09133671 -0.20743802 -0.14338925 0.06697923 0.18028009 -0.068394564 -0.07413756 0.16072965 -0.026681047 0.018267527 0.10918954 0.0056625633 0.031733308 0.06324429 -0.16776812 0.068313956 0.0070741586 -0.05594559 0.35807967 -0.12074251 0.17909604 0.15712786 0.18116552 0.16948435 0.038636222 0.039108895 -0.18217161 0.033887763 0.23132567 0.12006382 -0.17570952 -0.06802371 0.021860648 -0.041146874 0.17135425 0.06826218 0.13910626 -0.08789562 0.092498116 0.036800522 0.1854618 -0.0009153738 0.15653725 0.06188034 0.13070387 0.078034945 0.19300564 0.14466341 0.24964292 -0.07898502 0.20442584 0.19381763 0.33822477 -0.19172578 0.00023070953 0.18791349 0.046379097 0.08692825 -0.14586031 0.019241411 0.0152846845 -0.08971191 0.049210336 -0.010019621 0.2605921 0.11510077 0.0719006 0.1527115 -0.2181697 -0.19706598 -0.000102000144
1437 0.098815635 0.20388637 0.10004466 -0.16779146 0.011049146 0.097124584 -0.17927848 0.23941903 -0.10473499 -0.10197467 -0.0854988 -0.012159147 -0.013154308 0.083268926 0.17124031 0.14670523 0.25720358 -0.2119571 -0.2406747 0.19522913 -0.13672875 -0.110635415 0.09121991 -0.066335596 -0.011801005 -0.08683838 -0.07136279 0.09645646 -0.14992233 -0.2072696 -0.23538129 0.01498189 -0.05140127 -0.17108378 0.27861392 -0.1978472 -0.1603228 0.29028186 -0.050736636 -0.2245151 -0.076269776 -0.0015147014 0.0075999745 -0.114185326 0.1494289 -0.010401017 0.08184891 0.056964155 -0.1057267 -0.14687781 -0.04591339 0.24239038 0.06411459 -0.0201112 0.14192806 -0.23799577 -0.07902221 -0.1291169 -0.057938375 0.059700623 -0.09725322 -0.01900023 -0.19044311 0.116533734 0.13678294 0.035532862 0.010364928 -0.0879075 -0.21468411 0.032444067 -0.0018881264 -0.10120816 0.008347995 0.03157324 0.20372465 0.14291711 0.02358713 -0.07857795 0.15938096 -0.0084897345 -0.02670723 0.18423814 0.05412404 -0.4423102 0.025122494 0.085280925 0.2022194 -0.0016038262 -0.06649141 -0.25831074 -0.047521327 -0.22108515 -0.00913987 -0.110207774 -0.12660255 -0.11742969 -0.0912981 0.02749065 0.062410742 -0.03762222 0.011657022 0.014254016 0.37364942 0.25992534 0.10695336 0.17371824 -0.116996996 0.15735783 -0.08896897 0.110776536 -0.09566431 0.15149553 -0.04081015 0.05375112 0.014095688 -0.0754328 0.024710627 0.18073379 0.022807738 -0.4000052 -0.115352556 0.17378108 -0.1997601 0.14315192 -0.11157059 -0.172752 0.15272313 0.120743126
1037 -0.044912953 -0.15352228 0.088512704 -0.18740796 0.005826305 0.047917128 -0.14143158 0.1493348 0.029024383 -0.16971697 0.13945414 0.037455067 -0.075192735 0.092570014 -0.15392849 -0.08480612 -0.1428055 0.14885642 -0.008132673 0.044526882 0.10254653 -0.26823053 0.013250964 0.08018192 -0.12618484 0.19926746 -0.3232183 -0.101119325 -0.09875357 0.037202395 0.036619887 0.06472809 0.18033427 -0.2613946 0.08434416 0.10607032 -0.20374446 -0.082790166 -0.086501546 -0.24854778 -0.027127862 -0.03166433 -0.15892406 -0.24051195 0.21450916 -0.016407566 -0.23213063 -0.037741616 0.029256914 0.044515777 0.15685977 -0.27793851 -0.06624326 -0.16756782 -0.09303651 -0.36227012 -0.030559316 0.08234246 -0.04446551 0.08090919 0.20992266 0.004380936 -0.03413062 0.06605519 -0.040765595 -0.19332065 -0.0045102863 -0.10578335 -0.08630646 0.06056647 -0.010675542 -0.24134924 0.13790923 -0.06072757 0.22627765 0.17860796 -0.20673133 -0.07590152 -0.009832753 0.12016554 -0.18373574 0.40764278 -0.17637624 -0.1088521 -0.05082371 0.09492451 0.1534864 -0.15647331 -0.035996318 -0.009665792 -0.061208848 0.10952714 0.097761184 0.13621049 -0.043931056 0.056172848 -0.044634722 -0.030963602 0.021911072 0.15752885 -0.11120158 0.25838754 0.051983915 0.20267569 -0.1920178 0.45176587 -0.012578181 0.039959397 0.042527117 0.06405983 -0.07331222 0.042620193 0.05168661 0.07241517 -0.12401268 0.07154915 -0.04153753 0.01769945 0.23806784 -0.0807913 0.044385575 0.038275044 0.057881076 -0.122437365 0.17831148 -0.08110838 -0.04433784 -0.059978105
375 -0.115077466 0.042080022 0.07930901 -0.1306963 -0.09507383 0.013363083 0.06577318 0.16507302 -0.2308525 -0.30884543 -0.1668964 0.18004785 -0.11730244 -0.027201042 0.015669303 0.07289086 0.18313807 0.09899882 0.06810831 -0.09659198 0.022243425 0.06898823 0.0808684 -0.010688951 -0.109554954 -0.06008898 -0.14227277 0.057083644 -0.10918114 -0.047993325 -0.10373946 -0.03042956 -0.032447554 0.019215345 0.12731576 0.15562566 -0.07992982 -0.066831306 0.031894907 -0.06752458 0.041057594 0.067699514 -0.14436957 0.14695346 0.26186886 0.040964436 -0.07268837 0.15359859 -0.049420703 -0.2274431 0.15150046 0.10495657 -0.20795612 -0.031346012 0.11048331 0.10263736 -0.011177833 0.10610274 -0.012556042 0.31119847 -0.08990058 -0.12452891 -0.14337654 0.28553188 0.07612292 -0.09263669 0.040690996 0.0836853 -0.14983681 0.1633647 -0.01909761 0.23862776 0.2028204 -0.0062318165 0.12626907 -0.017963162 -0.37108454 0.009775656 0.1616984 0.28793767 0.09043201 0.01688667 0.21414803 -0.08120106 -0.015674926 0.06475326 0.15592264 0.010685394 -0.0018744549 0.019649532 0.021166462 -0.17810535 0.23533429 0.11571609 0.060275465 -0.017449832 -0.15142412 -0.010690868 0.119458705 0.09175116 0.07983163 -0.06855521 0.12073777 0.14912827 0.06311939 0.076839946 -0.20589179 -0.15381998 -0.020399056 0.120186366 -0.1440317 0.021942021 -0.21518916 -0.24733427 0.061455823 0.072943136 0.11879795 -0.27092177 0.12895466 -0.024378223 -0.15493126 -0.14329663 -0.20313679 0.0125133125 0.11832991 0.06618014 -0.3143915 0.039224062
734 0.064453736 0.20024928 -0.15240903 9.884426e-05 0.038922776 -0.10757914 0.08880557 0.24142618 -0.082548074 -0.036020037 0.14051712 -0.020180125 -0.12224092 -0.06352111 0.1445255 -0.17970327 -0.12972881 0.088026784 0.039144166 0.0721581 0.08937705 -0.14513454 0.04101666 -0.092596866 -0.20808706 0.11094671 0.339555 -0.020490741 -0.07720118 -0.01076953 0.10125955 0.075738624 0.037096936 -0.1648036 -0.2613814 -0.17502625 -0.037742365 0.11417936 0.12293546 0.06456797 -0.010777471 -0.1916758 -0.11593034 0.022825703 0.06954394 -0.2490824 -0.0022662436 0.25016722 0.087075956 0.1367792 0.039838858 0.083996706 0.16739564 -0.040604237 -0.2597284 0.24004844 -0.18612811 -0.074042566 0.15644953 0.16052952 0.1145107 -0.018794604 -0.13135844 0.16806003 -0.03187025 -0.058913715 0.006346689 0.11857946 -0.060122933 0.3031104 -0.30344027 -0.114516854 -0.06573466 0.10096352 0.16930832 0.18982777 -0.2492699 0.15207283 0.1438797 0.22769223 -0.15223232 -0.051044665 -0.05391101 -0.24422632 0.22708872 0.17871805 0.08045504 -0.06924635 0.023859413 0.20950003 0.20248073 -0.05417421 0.20824133 -0.070579775 0.35546476 0.07250265 -0.15003851 0.23867272 -0.12925716 0.19878918 -0.09238148 0.10705043 -0.15922484 0.14368469 0.09403263 0.20724653 -0.26003614 0.1990299 0.03899406 -0.111016765 0.058471087 0.036050443 -0.048063852 -0.0792924 0.1194511 0.03618464 0.104633905 -0.31510425 0.22950481 -0.17034695 -0.046216402 0.2485781 -0.058371425 -0.297767 -0.05282306 0.14427967 0.08518658 0.11796258
1478 0.04490634 0.03894772 0.0445784 -0.16293947 0.11987841 -0.06364885 -0.007432759 0.09185089 0.09535484 -0.04922802 0.128727 0.15461041 -0.059951983 -0.013804833 -0.1744031 -0.17395107 0.094208986 0.02126603 -0.018894885 -0.017509427 0.0042836578 0.012932446 -0.11971321 -0.20467915 0.02254063 0.05430919 -0.17179638 -0.28643468 -0.23360613 0.069114916 0.09015642 -0.11718505 0.2501862 -0.20642714 0.09581779 0.16892183 -0.33139452 -0.105334885 0.08909202 0.044763032 0.17038405 -0.024689054 -0.16747627 -0.03485604 0.09366248 0.06899405 0.20131727 0.108434446 -0.111319914 0.06272451 0.0105276 0.15275718 0.047652535 0.079881676 0.22412409 -0.22812282 -0.048727233 -0.24534048 -0.01366745 0.00523977 -0.17544274 -0.024581201 -0.22592668 -0.007313397 -0.035933398 0.19038676 0.12616576 0.22910328 0.08640687 0.24746098 0.04400517 -0.009185802 -0.017570745 0.23597115 0.21915773 -0.1433153 0.058882043 0.10194427 0.028477116 0.27857026 -0.13935886 -0.010545006 0.032055553 -0.0679635 -0.031532202 0.116874516 0.09080096 -0.026401363 -0.11159279 -0.0172446 -0.07324931 -0.18509464 0.050943144 0.12025172 -0.09058451 0.2219098 -0.15838808 0.007940343 -0.022170415 0.34353507 0.17210367 -0.014951433 0.14558122 0.0231398 0.032909628 0.115426935 -0.1841611 -0.14228216 0.075976625 0.031369083 -0.060396116 0.017656282 0.10961312 0.18300764 -0.1863489 -0.23628195 0.22770388 0.090143144 0.046358187 0.077140816 0.18634014 0.21761508 -0.15903024 0.019216204 -0.0878621 0.06202269 0.02889164 -0.028876225
351 0.1167069 -0.06287164 0.293694 -0.2616257 0.18097821 -0.25031033 -0.21197365 0.05486731 0.07266487 -0.105982944 -0.10837578 0.06447211 0.0020589249 -0.2058924 -0.044594325 -0.16801384 0.06870355 0.1851 -0.1472396 0.1682159 -0.1511727 -0.39040765 0.04191571 0.007974923 -0.03613255 -0.005725518 0.10790397 -0.05671656 -0.050802954 0.15097149 0.21987215 0.058620714 0.18811066 0.16202657 -0.059252076 -0.033116635 -0.27486584 -0.17346044 -0.20856029 0.07424193 -0.029825607 0.02124591 0.1441106 -0.027498964 0.13858105 0.03814254 0.11693011 0.08571019 0.07952782 -0.25820538 0.07328553 -0.015154772 -0.20730239 0.249434 0.17055835 -0.12540282 -0.050505057 0.015080478 -0.051902857 -0.034467038 -0.15857418 0.054808456 -0.10228551 0.015598723 -0.10107441 -0.2827103 0.1690192 0.067615494 -0.16937138 0.16416362 -0.028774127 -0.034547832 0.11032289 -0.011616633 0.034638707 0.010925065 -0.12968946 0.033878054 0.15831423 -0.0034548847 0.028229391 -0.042872246 -0.090675056 -0.0224262 0.05148002 -0.13115476 0.13388085 -0.051012266 -0.20199224 -0.015230878 -0.16208477 0.121104315 0.097031154 0.025338989 0.05584308 -0.14279307 0.24608934 0.116612434 0.052544452 0.058339935 0.115561515 0.04440672 0.16274498 -0.15503684 0.11516058 0.1821323 -0.295829 0.07917193 -0.08482522 0.23501948 0.019668415 0.10640085 -0.030308723 -0.16689265 -0.06018639 -0.09923806 0.27792794 0.08709193 0.1798321 -0.21360838 -0.12775752 0.4350088 0.107030556 -0.061831657 0.22392672 0.34860048 -0.117710255 0.04401854
173 -0.02655403 -0.13487813 0.0592793 -0.19151857 -0.14453295 0.054235704 -0.27259567 0.13892372 -0.07260391 -0.026367426 -0.11815814 0.017351897 -0.11841991 0.2278678 -0.0805971 -0.024250146 0.10233941 0.012040235 -0.08800455 0.20298176 -0.15682946 -0.11875082 0.16935064 -0.00419569 -0.19529366 -0.032831736 0.08205265 -0.21760991 0.103633866 0.04083294 0.08901949 -0.013625862 -0.09617053 0.008848659 0.28309193 -0.059358943 -0.06883058 0.12573506 -0.0029261636 -0.010491949 -0.11234149 -0.026058765 -0.23791088 0.2377057 0.0052476926 -0.20975311 0.29247946 0.050874967 0.060396403 -0.14128384 0.07506811 0.1029773 -0.13072489 -0.058166247 0.055558372 -0.2530594 0.06686788 -0.015059617 -0.10695778 0.049642473 -0.10366736 0.026060008 -0.25721243 0.1648819 0.06263582 -0.1463566 0.14497209 0.10149818 -0.06781769 -0.01149442 -0.030863129 0.10943358 0.10812603 -0.001548936 -0.10668174 0.06627664 -0.113813445 0.29795608 -0.17136137 0.037076723 -0.3155052 -0.03941627 0.10233494 0.017297948 0.10663435 0.413682 0.08557504 0.3053588 -0.152882 -0.017249504 0.4885463 0.062750876 0.17462899 0.061199795 -0.038901202 0.09549082 -0.028837146 -0.25263005 0.10075015 0.3228966 0.10717078 0.11575417 0.22349106 0.26535445 0.19738652 -0.10772528 -0.11097683 -0.2166588 -0.12581122 0.093237035 -0.007260853 -0.11298265 -0.015948327 -0.036565103 -0.10098088 -0.15919493 0.10277877 -0.14485185 0.032353625 0.030250112 -0.20723727 0.11637933 0.011754573 0.056290846 0.03490225 0.052666273 -0.024375089 0.0051214686
646 0.15088147 0.016852006 0.21833342 -0.13890207 0.13120523 0.04844487 0.054631606 0.15945822 0.23519477 0.03076788 -0.018580088 0.13066095 -0.07500929 -0.18474047 -0.106892236 -0.1796016 0.04658489 0.12294314 0.10498154 -0.08987559 -0.09149216 -0.120221294 0.14639114 -0.15571378 -0.06955847 -0.0038463231 0.059251215 -0.15120241 -0.21952154 -0.16707815 -0.32318938 0.20088941 0.17095718 -0.1499767 0.005233403 0.13102585 -0.18371609 0.2711997 -0.033262208 -0.059098594 0.12184928 0.1158978 -0.06105366 0.15174317 0.29457587 -0.2868035 0.17497824 -0.024694659 0.07661175 0.017405456 0.054829456 0.15126806 -0.026527686 -0.000635234 0.19943248 -0.13049869 0.10926385 0.057864826 -0.1981409 0.11907397 -0.15680675 -0.031913787 -0.2605574 -0.12057361 0.069796905 0.09136468 -0.03713832 -0.011102359 0.122873336 0.0152744055 0.13651606 -0.060582932 -0.0495702 -0.028165003 0.05091844 -0.038970716 -0.089900404 -0.00055068487 0.11144475 -0.08900091 -0.11967763 0.04659355 -0.23599014 -0.18381871 -0.20247123 0.05914558 0.1476467 -0.04727548 -0.22083035 -0.14259993 0.14659145 -0.14608523 0.0070611443 0.138998 0.03388652 -0.106361404 0.24334219 0.1404977 -0.009896511 0.04014172 0.040307555 -0.05544601 0.06619311 0.06841369 -0.28106025 0.37652853 -0.0069116554 -0.046510458 0.020471944 0.0053665945 -0.10117209 0.09779031 -0.09987478 0.055270478 -0.109424405 0.110645324 -0.1102995 0.003663308 -0.17665412 -0.10007038 -0.027651947 0.061532695 0.12771478 -0.20292477 0.11944159 0.028352248 0.0025897464 0.16489252
1000 -0.15121868 -0.25854257 0.096452124 -0.16641611 0.12029324 -0.027266858 -0.1944041 0.07603581 -0.1272248 0.08722943 0.15718557 0.17573753 -0.06832988 0.111000784 0.0007624094 -0.29701224 0.1357484 0.17578721 0.15416923 -0.06136167 -0.083810546 -0.09554008 -0.05684413 0.14833295 -0.24595481 -0.106744654 -0.06931519 -0.085933365 0.04448521 0.1053438 -0.27056357 0.065530166 0.35260612 0.00053406926 0.10390296 -0.15363264 -0.15796335 0.057909813 0.019900411 0.15080631 -0.017848559 -0.31118798 -0.23863965 -0.009770209 0.093898304 0.016807023 0.20203958 -0.080631904 0.08525806 -0.109481394 0.030336767 0.11756531 -0.21655427 0.07791607 -0.07695237 -0.24969801 -0.045997422 -0.06027861 -0.23929705 -0.041191667 -0.19136626 -0.09319113 0.05488716 -0.051460203 -0.042964764 -0.0373774 -0.0625565 -0.0741803 0.02124685 0.058417436 0.11642934 -0.21137068 0.27564886 0.249382 -0.05291514 0.065956295 -0.29112247 -0.004200335 0.21344125 -0.116897866 -0.08161637 -0.19367935 0.08375289 -0.017472276 -0.20406124 0.040018093 0.24595267 -0.059495825 0.0052274857 -0.23488581 0.0036808832 -0.10298081 -0.096954644 -0.19293289 0.024384268 -0.15649262 0.28196207 -0.025803778 0.23687051 -0.0431959 0.14984 0.14869583 -0.007839629 -0.11638272 0.2902971 0.11522184 -0.04246107 -0.13397297 -0.06553604 -0.083096124 0.0304197 -0.017388232 -0.030847784 0.022088971 0.06113028 0.04572529 -0.12787047 -0.03694483 0.13573888 -0.21561249 -0.046306733 -0.023048826 -0.04191727 -0.1627202 -0.12381246 -0.0788155 0.060351245 0.3216251
975 -0.07370833 0.1277189 0.09419001 -0.40456378 0.094997235 -0.10404709 -0.0061786673 0.17290002 -0.12527266 -0.050175034 0.20908523 -0.010272374 -0.11964332 0.086892106 -0.008619259 -0.054987404 -0.05295308 -0.09938666 0.102120176 -0.008999173 0.05222168 0.08712689 0.17368455 -0.13710207 0.20747752 0.04031567 0.05218925 -0.15657069 -0.1472577 -0.09421116 0.0743275 0.2832248 0.16658776 -0.15683359 -0.1140768 0.12963194 -0.082518965 0.17726058 0.025857456 -0.24516732 -0.08891692 0.07631194 -0.06544851 -0.22284965 0.24098226 -0.34449175 0.2064112 0.06457436 -0.01633898 0.12784217 0.14107963 0.11215737 -0.3551238 0.06339257 -0.021113409 -0.015655264 -0.124307916 0.14162269 -0.227991 -0.104237996 -0.08210302 0.106084645 0.0010440688 0.24331804 0.092682384 -0.10333939 -0.068899244 0.0377181 0.20964988 -0.044873685 0.14848638 -0.012653523 0.07818322 -0.184624 0.20591395 0.10808324 -0.31125453 -0.051320087 -0.035546385 0.31289655 -0.21079122 -0.1400208 -0.05686511 -0.0055514346 0.056235924 0.19686727 0.2592261 0.29593757 0.058624033 -0.03018927 0.11778945 -0.018052176 -0.13571687 0.08581611 0.12667145 0.14782768 -0.16951273 0.058344696 0.008719349 0.2384972 0.124546714 0.048054155 0.04446302 -0.02872747 -0.13368383 -0.025839707 0.0867934 0.20998901 -0.018013846 -0.05219554 -0.19221678 -0.1730892 0.13276817 -0.050655577 -0.02340124 0.23342521 -0.0021439202 0.033753254 0.055173792 -0.17823312 -0.04283995 0.0023746816 0.15240072 0.009501099 -0.13732703 -0.03623598 0.08272739 0.10918724
669 -0.013854413 0.061292 0.1303939 -0.28788608 0.26567182 0.090967394 -0.11554327 0.11876963 -0.005927352 0.0767875 -0.0027374043 0.056226145 -0.09356934 0.3025433 0.11584679 0.06494861 0.18318091 0.20004939 -0.01542016 0.0048100683 -0.022405595 -0.089775704 0.070851326 0.06826188 0.038661472 0.22198594 -0.2770257 0.15074587 -0.05092996 -0.19481395 0.11616436 -0.08268111 0.0040853783 -0.23413661 0.22535819 -0.010382234 0.32802737 0.07495809 0.11976649 -0.12676312 -0.058694135 0.08823313 -0.035204258 -0.026610063 0.089594916 0.01546522 0.31033102 0.25148064 -0.11611029 0.16325913 0.19466972 -0.11273464 -0.18808024 0.055000354 -0.1755256 -0.3987239 -0.138206 0.14465517 -0.001975932 -0.03360366 -0.23536935 0.057777356 0.013510633 0.115692236 0.117369585 0.090218194 0.0068712663 0.10461919 -0.0822512 0.06534392 0.02468381 0.07253606 0.043517444 0.031941198 -0.17289288 0.20592058 0.30937332 -0.009417336 0.048999444 -0.07741567 -0.2680525 0.09841697 0.2956229 -0.15784281 0.036067113 -0.029450264 0.061685715 -0.011749223 0.1059568 0.055924375 0.19217023 0.04760308 0.0048218113 0.0929758 0.31903607 0.2332216 0.30629328 -0.18764052 0.06912703 0.057189092 0.003493023 0.3031647 0.008997994 -0.03184133 -0.08868054 0.10485169 -0.25706533 -0.024703445 -0.07007916 0.010313862 0.110262044 -0.08572039 -0.36054447 -0.016469348 -0.019281879 0.18916436 -0.1972807 -0.0553111 0.066764995 -0.32953542 -0.031097243 -0.10053774 -0.0065198573 -0.10764746 0.25768116 0.035500813 0.01183391 -0.104942136
361 0.034260385 -0.04281566 0.32515305 -0.073184915 0.14236909 -0.03584499 0.014614733 0.026079156 -0.09869894 -0.20818406 0.20953327 -0.20880818 0.3189896 0.062010083 -0.056282915 -0.1367474 0.1361898 -0.021154355 0.010332141 -0.099095024 0.12032187 0.103001125 0.013005062 0.27126223 -0.017583458 -0.06820516 -0.051962018 0.20481394 -0.061528374 -0.04849152 -0.031586617 -0.096982695 -0.23437202 -0.096714005 -0.0208304 0.2244965 -0.14356819 -0.011900411 0.0049452432 0.102762826 -0.03053485 0.051288042 -0.14245352 -0.13347976 0.2241769 -0.23839706 0.033635996 0.33676448 -0.09193336 0.090188846 -0.16418685 0.0064325472 -0.24863322 0.01278225 -0.21075991 -0.2942145 -0.1643108 -0.006177939 0.10365836 -0.07054084 -0.3143824 0.14325076 -0.3489848 0.17626166 0.10579302 0.22879569 0.061464306 -0.08902813 -0.109235846 0.052101333 0.0069974256 -0.19131441 0.1224763 -0.26085985 0.192085 0.05534829 -0.19601335 -0.1872207 0.29534358 -0.031968936 -0.011118668 -0.09789365 0.0733762 -0.1257369 -0.045037888 0.1132414 0.052717496 0.08101943 0.015740389 0.021634629 0.143684 -0.1946348 -0.090382434 0.07433181 -0.20469388 0.17222269 0.1033215 0.08164145 0.0888177 0.038403403 0.12747283 0.05850719 0.25696847 -0.09166415 -0.19038151 0.24914287 -0.11793013 -0.21083456 0.17003657 0.0902989 0.03767366 -0.1508272 0.14817373 0.20407616 0.04855942 0.050381966 0.091607064 0.103953 -0.048693877 0.0062596416 -0.033970088 0.032808542 0.08614804 -0.29985902 0.025264477 0.37223652 0.06933723 -0.030510116
1189 -0.027438745 0.099477716 0.122615084 -0.22155285 -0.13632818 -0.115442865 -0.13709612 -0.119346924 -0.17769542 -0.016473562 0.01672271 0.20964491 -0.17871194 0.15821302 -0.16853833 -0.2073483 0.20003974 -0.30240786 -0.13594534 0.007814572 -0.031912744 0.0956695 -0.015883464 -0.03377071 0.028632948 0.15270138 0.06717158 0.024230601 0.005389243 0.051267955 0.11537953 0.23939854 -0.19773345 -0.21728504 0.15721491 0.067259416 -0.064912274 0.008489236 0.009275368 -0.08023396 0.06118032 -0.018643863 0.06279544 0.23369163 0.020273555 -0.08729671 -0.0015241156 0.17183544 -0.031795386 0.07492122 -0.2530993 -0.169746 -0.42035523 0.21015306 0.059452903 -0.23625103 -0.019950034 -0.06808238 -0.02035991 0.20334476 0.17281856 0.13662808 -0.057570945 -0.05130285 0.09072348 -0.058345616 0.016408134 0.022256523 0.20121685 -0.094576925 -0.028898723 -0.15749183 0.19972883 0.15527995 -0.0652083 -0.013424242 -0.19889946 -0.03494502 0.2774423 0.12146371 0.13232416 -0.036292836 0.13991936 -0.17315058 -0.021436112 -0.055030525 0.14834417 0.02690928 -0.056179844 -0.18084355 0.10246799 0.018368084 0.2052222 0.22045505 -0.1563887 -0.032115385 0.3859382 0.06836136 0.12874945 -0.1365783 0.1543231 0.20866698 0.041798275 -0.06147742 0.06813596 0.18563528 -0.18430959 -0.13724396 0.0690582 0.16201705 -0.11666183 0.010381484 -0.01545591 -0.19637741 -0.06272314 -0.07622322 -0.21280898 0.02117838 -0.23282975 -0.048469637 0.14530593 0.17036147 0.045828283 0.16511486 0.18949509 -0.14478996 -0.060322836 0.093324885
559 0.1777308 -0.032158274 0.06247729 -0.12537073 0.030158635 -0.06592436 0.0437223 0.010848621 -0.0016448984 -0.08024511 0.06614036 0.020617636 -0.044167463 0.093920305 0.0041615344 -0.026384346 0.10819585 0.34160575 0.16974764 0.13415724 -0.17953408 -0.121868014 0.014623949 0.16930395 0.15797277 0.32005075 -0.123636566 0.056128096 -0.13522467 0.046218835 0.037576772 0.4093107 -0.02190283 -0.20454797 0.06653279 0.16623472 -0.21589333 0.05845908 0.053592116 -0.012978062 -0.10151551 -0.010103295 -0.022314768 0.1933468 0.23737715 0.076860234 -0.022185462 -0.020673444 0.05816991 -0.08237919 -0.041042984 -0.05285173 -0.13279586 -0.097416766 -0.039387163 -0.07260231 0.11078262 0.15980002 -0.003381562 -0.0044600437 -0.2841407 0.06564245 0.01759968 0.08213501 -0.23391868 -0.29310596 0.4711951 0.07909335 0.02012699 0.13249193 0.069927074 -0.06492813 0.044161387 0.11866412 0.029152913 -0.061392426 -0.03316433 -0.021840533 0.11543571 0.29689962 -0.28795317 0.10378531 0.113479786 0.027377669 -0.23560554 -0.07291167 0.104911454 -0.058951054 0.04167025 0.087963924 -0.08663903 0.17775626 0.12549017 -0.07835017 0.33318517 0.040223897 0.22589381 0.03897313 0.15504442 0.30546167 0.07342252 0.06662409 0.15501751 0.16688249 -0.03723498 0.038670287 -0.14016165 -0.10800104 -0.11797207 0.17678626 0.09618873 -0.058876663 0.025647888 -0.07860249 -0.076082125 0.04151789 -0.038095515 -0.044537198 0.13314044 -0.0719592 -0.0009551518 -0.027878447 -0.2740965 -0.01512152 -0.01919731 0.12839653 0.10825827 0.26341596
713 0.0786736 0.0052058916 0.20544508 0.24091887 -0.074562155 -0.0029464585 0.031181535 0.13089995 -0.08133062 -0.099738546 0.12417032 0.16601731 -0.052193955 -0.02632743 -0.17127249 -0.06719023 0.24727368 0.07116855 0.03819552 -0.03516591 -0.034644593 0.086086884 0.09955539 -0.159966 -0.12644954 0.36887652 0.19209991 0.106574416 0.2255458 -0.03364554 0.020821944 0.07939224 0.18845913 -0.1424109 0.06858178 -0.12514447 -0.015676294 0.08606817 0.12528491 -0.23386686 -0.07281961 0.091786586 -0.2624431 -0.065010756 0.31951424 0.03852412 0.05393539 0.108238146 -0.008807684 -0.09224012 -0.15203184 -0.22518457 0.03587399 0.17142265 0.024359277 -0.14071119 -0.054017123 -0.18498632 0.06685162 -0.001087785 -0.05943927 0.05732332 -0.16818032 0.063505165 0.06860883 0.27485603 0.26804665 0.13191804 0.18587664 -0.09992543 0.14748639 0.18362853 -0.030595541 0.18764639 0.15435188 0.024686387 -0.15064123 0.062557116 0.041454203 0.21065016 -0.26951417 0.1352049 0.03514292 0.04100529 0.014601695 -0.116878584 0.07801254 0.06395778 -0.095474236 0.03223979 0.13512284 0.06961795 0.096535064 0.118038 0.2428023 0.06351251 0.09952632 -0.16203883 0.10892637 0.09916268 0.1444035 0.029688612 0.16734552 -0.22784802 -0.022787945 0.36465228 -0.23387489 -0.05453015 0.40888637 -0.049503963 0.0724529 0.2690623 -0.053050596 -0.15786888 0.28316703 -0.22425574 0.14140339 -0.15803564 -0.016566882 -0.07120827 0.037291568 0.054912586 -0.11034424 -0.055480372 0.05841024 -0.052856814 -0.14428282 0.15026534
542 0.09465676 -0.29546782 0.17554781 -0.36936647 0.13318668 -0.051331382 0.1276506 -0.05373219 -0.088021144 -0.30516133 -0.13285989 -0.09121602 -0.19953631 0.057268936 -0.0937624 -0.43515694 0.05957743 0.02393239 0.02124174 -0.117891386 0.052631564 -0.045320474 0.06716754 -0.084924676 -0.20530948 0.03206863 -0.23251587 0.017022677 -0.3349265 0.08850094 -0.02956398 -0.06935172 0.0001787249 -0.30744803 -0.033934705 0.076600544 -0.1271859 -0.28390354 -0.07508361 0.0147772245 -0.08271027 -0.051443554 -0.16081986 0.020015141 0.14650716 0.030066581 0.1344972 0.13785502 0.098710455 0.21853854 0.096369244 0.23569454 -0.097906254 0.030423645 -0.078984916 -0.18698363 -0.08196606 -0.27161622 0.014106604 0.1133549 -0.04261888 -0.23079674 -0.1193035 0.053874347 0.29648474 0.043385454 -0.049499992 0.16962408 -0.105381444 0.04103494 0.19707678 0.14730819 0.036941968 -0.2306792 0.08678246 0.024535576 -0.02707246 0.1640034 -0.0045986357 -0.058517136 -0.09294193 0.038948976 -0.22552678 -0.15552458 -0.121464506 0.29013747 0.029396137 0.34825552 0.2374627 -0.08516778 0.29141253 -0.09304335 -0.14136297 -0.07460705 -0.12787725 -0.028404338 0.1525768 0.16189797 -0.12800474 0.012080167 -0.2216732 0.060080957 -0.08960516 0.20264381 0.04685155 0.12437509 -0.09049322 0.17294675 0.12465603 0.2670891 -0.12034625 -0.059071686 -0.08677996 -0.29983318 -0.14982925 0.06776195 -0.17804757 -0.07607949 0.33006352 -0.05481829 -0.1253969 0.039395034 -0.038605038 -0.14086133 0.16324392 -0.033130407 -0.17124254 0.064039044
443 -0.05069247 -0.11293211 -0.024977297 -0.11947773 0.068077244 0.054705545 -0.31220245 0.023816017 -0.095408484 -0.014998917 -0.18449774 -0.040724732 0.084043555 0.14991537 -0.25290442 0.2045802 0.086299 0.06332881 0.05186985 0.13778621 -0.06683409 0.015572862 0.07957125 -0.21954663 -0.30058345 0.31975392 -0.15097369 -0.08037287 -0.15113099 0.020143732 -0.14669318 -0.12674682 0.071357235 -0.1388083 0.037150055 0.020510675 -0.19667794 0.13564557 -0.009026497 -0.0143932225 -0.0865204 -0.083520845 -0.09984966 -0.06613552 0.28036785 0.021014052 0.36598092 0.02155163 0.017226273 0.26559845 -0.015875295 -0.21613191 -0.11601745 0.24680427 -0.08800215 -0.046092976 -0.07009624 0.04409204 -0.039460197 -0.15308309 -0.09921803 0.2567819 -0.1720643 -0.024547463 -0.07841924 -0.033031452 0.37222898 0.12091703 0.18013568 -0.08990302 -0.06765956 -0.12010552 0.11181437 0.16893971 0.11737236 -0.1526072 -0.017708998 -0.009103122 0.2623286 -0.042996906 0.14778212 -0.1135162 0.17659883 -0.017334566 0.0489459 0.18224269 -0.05924897 0.039549235 -0.13384148 -0.13037859 0.13744968 -0.09062708 0.030120468 0.16794127 0.203788 0.21009982 0.24980797 0.12013177 0.11357307 0.13731216 -0.09106544 0.07455783 0.012589173 0.18317872 -0.088841215 0.07215374 -0.064306 0.07922356 0.06785425 0.10019504 -0.1823817 0.049892657 0.029852489 0.09464076 0.0048495485 0.1321083 0.11700667 -0.06253769 0.110792615 0.1366687 -0.081404954 0.1759462 0.10950486 -0.025274353 -0.13371469 0.051708307 -0.052873075 0.06801328
1316 -0.019086706 0.19583717 -0.002062382 0.07627896 -0.08319576 0.024606308 -0.15867442 -0.1444516 -0.023710325 0.1402795 0.47727048 0.08071902 -0.2686378 -0.22033094 0.0671443 -0.23855658 0.0011097656 0.048532035 0.0031469623 -0.08294397 0.07696547 -0.036707647 -0.042788245 -0.05262641 0.0301687 0.0069981767 -0.15052968 0.0070046005 0.014273153 0.1589512 -0.20635335 0.08287287 0.048366517 0.009318297 -0.021387052 0.015261714 -0.320265 0.0013914594 0.03234908 0.11650287 -0.12085541 -0.03415176 -0.09396902 0.099722296 -0.13665465 0.010796651 0.32838055 -0.07050535 0.13700758 0.03990063 0.0044452823 0.06664531 -0.11157491 0.0014387583 0.17006321 -0.32001218 -0.0085724285 -0.09400497 -0.17158067 -0.016324356 0.05429145 0.13889171 -0.0014618222 0.3619753 0.2468753 -0.088786155 -0.039254293 -0.08731917 -0.25580043 0.25487182 0.16991414 -0.08664572 0.25409782 0.0864068 0.25525367 -0.01958098 -0.13041534 0.23272048 0.12711574 -0.100749835 -0.1503548 -0.052588552 0.18203141 -0.056483418 0.05438633 0.10794936 0.039857432 -0.029633561 -0.015040889 0.03994784 0.22362392 -0.28391495 0.03489166 0.024991544 -0.052591987 0.057061654 0.06379792 -0.19612679 0.024950868 0.08802048 -0.048327055 -0.025384216 0.2601796 0.14007847 0.1178959 0.16600256 -0.23090628 0.30062592 -0.12246618 -0.05777477 -0.20830464 -0.052469064 -0.14452206 0.07226309 -0.053398374 0.13242182 -0.0010883479 -0.14972852 -0.19822954 0.0818922 -0.038888894 0.040070966 -0.04102298 -0.16442104 0.18274933 0.116904184 0.046341036 0.10786272
836 0.11540848 0.11163686 0.23545124 0.098774865 0.020593768 -0.07891799 0.038502686 0.1374692 -0.028690908 0.09856789 0.0456879 0.044520587 -0.17884056 -0.096502185 0.065512896 0.019233352 0.16166069 0.16529445 -0.057208236 0.02854637 -0.0058099 -0.30301654 0.124602504 -0.15342948 -0.02009384 -0.2543451 -0.037937567 0.10694715 -0.12578672 -0.12583905 0.09595146 0.16681144 -0.011419196 -0.11742304 0.045296762 0.03903547 -0.08405179 0.17781018 -0.09572867 -0.053658962 -0.07027587 0.21818264 -0.03571397 0.08819314 0.045180287 0.04585463 0.03730232 0.11464244 0.13976726 0.2082807 0.06784446 0.31039977 -0.16273096 0.3653866 -0.060291626 -0.011812138 -0.034643643 -0.3357463 0.018956698 0.0023933528 -0.15278983 -0.12252258 -0.12254326 0.07952927 0.2123266 -0.21931604 -0.021131486 -0.0009031368 0.03811753 0.057370532 -0.111930504 0.0797838 0.08141368 0.17252046 0.10404401 -0.11572064 -0.033239886 -0.049020827 0.14017531 0.27472547 -0.17964439 0.09156728 0.13580725 -0.09590814 -0.024983132 0.15175621 0.23890896 -0.011479094 0.10656899 -0.2188908 -0.07473407 -0.05189092 0.05556399 0.12717474 -0.21905395 0.098295055 -0.10921202 -0.034829836 0.13958275 0.03892883 0.22384553 -0.058873143 0.084445536 -0.027258022 0.3158963 0.098648645 -0.07163632 0.03005133 -0.14860564 0.017070616 0.031095328 -0.09897119 0.045931384 -0.09565249 -0.2059817 0.11840665 0.063018166 -0.12813683 0.018356847 -0.2667816 0.03481255 0.0013451547 0.0610437 0.123178646 0.06644043 0.046551086 -0.12725393 0.10414884
240 0.069171354 -0.046729695 0.41740558 0.0060446733 -0.0072303335 -0.24316823 0.025713285 0.15119231 0.12104171 -0.0028753385 0.16233055 -0.013498953 -0.13408127 -0.20778047 -0.25562602 0.14182983 0.15368398 0.22889392 0.088450424 -0.25754905 -0.027749395 0.018131519 -0.057975437 0.04085651 -0.040270027 0.20481154 0.08256165 0.13203563 0.020488081 -0.13795303 -0.061458312 0.020523038 -0.054476023 -0.20432112 -0.007078286 0.008588483 0.036698192 0.024143217 0.02936227 0.19904505 0.051088713 -0.003547009 -0.0014724771 -0.0451745 0.0963913 0.023246417 -0.014193777 0.036121115 0.1687428 0.19678599 0.05973744 -0.0071589337 -0.05819555 -0.15020423 0.04734567 -0.04534888 -0.0109313 -0.19502841 0.016703209 -0.19077374 -0.058393892 -0.056711093 -0.18702292 -0.036940284 0.11586492 0.038686577 0.13228847 0.106048934 0.051640492 -0.09568082 -0.038498383 0.09104056 0.02418846 0.0827635 -0.02919028 0.12562157 -0.03256524 -0.03163886 0.14195897 0.30687708 -0.07315693 -0.12970884 0.23560655 0.027175382 -0.2168775 -0.20732367 0.16511834 -0.028215365 -0.013582687 -0.25406766 -0.028150113 -0.043401066 -0.04283151 -0.03072073 -0.029587751 0.18889727 0.13105008 -0.1554283 0.07458576 -0.11409353 0.18901286 0.12475849 0.15642473 0.028158922 0.061010465 0.3151468 -0.32810616 0.17724574 0.050133575 0.06325286 -0.10869739 0.07199541 -0.22521326 -0.009931028 0.11369113 0.22197264 0.02937239 -0.15924262 -0.075849466 0.018054413 -0.1150115 0.32598206 0.044066116 -0.25418714 0.08995772 -0.02714166 -0.28923705 0.07567253
1343 0.052878316 0.18049464 0.08445322 -0.018649435 -0.08176437 -0.14443895 0.07877572 0.0025067737 -0.2680551 -0.27222025 0.30641732 0.272274 -0.12089581 0.16534622 0.09608229 -0.16320866 -0.120586246 0.017037528 -0.011938881 0.22922033 -0.15575005 -0.010204527 -0.030433355 -0.20877555 -0.24292979 0.13891982 -0.18896264 -0.15915324 -0.18538012 0.04155192 0.08944763 -0.19359784 -0.06689956 -0.04383021 0.14451395 0.22878829 -0.24120882 0.046707086 0.025018968 -0.04228395 0.113832995 0.045931 0.050744373 0.24066526 -0.122327104 0.102885686 0.082122214 0.27316618 0.18117109 0.22445309 0.15425374 0.027182994 0.04796814 0.26762745 -0.019030185 -0.038072456 -0.031293552 -0.01904838 -0.066905856 0.017930066 -0.1413266 0.12577337 0.030527445 -0.0885498 -0.259252 -0.13770743 -0.0061585004 0.16605936 0.11637252 -0.07916964 -0.10026054 -0.07294744 0.09124922 0.10445144 -0.22964625 0.04265754 -0.1020919 -0.085622065 -0.050339345 -0.0043226373 -0.36394298 -0.28035727 0.046617888 -0.30458605 -0.1362025 -0.043311633 0.14511798 0.009760633 0.22832052 -0.06017427 -0.03631876 -0.3819559 -0.08512542 0.20565784 0.0656032 0.292246 0.027087232 -0.08380123 0.08910973 0.27959025 0.03701546 0.2439796 0.38339955 -0.0626157 -0.031458728 0.25230527 -0.05583486 0.09265118 0.08440998 0.035471696 0.08711333 0.006971377 -0.22868578 0.15885444 -0.067745164 0.15587296 -0.13687328 -0.037810903 -0.011486058 -0.17052875 -0.08129582 -0.0067345253 -0.23032376 -0.07982707 -0.11098795 0.034998313 -0.26990044 0.012245
1014 0.032427825 0.06599769 0.23857102 -0.1394693 -0.029451884 0.013741123 0.075820945 0.14481714 0.22374295 -0.119168065 -0.3244303 0.03340187 0.0687273 -0.08029297 0.03841896 -0.08899272 -0.13455877 -0.004038025 0.10154948 0.1381321 -0.05095447 -0.122008696 0.11069645 -0.13531081 -0.16183734 -0.06468021 0.037429262 0.032228976 -0.1304751 -0.23320009 0.20557906 0.025984833 -0.06485049 -0.23777376 0.05234306 0.16382703 -0.17083906 -0.19314863 0.24042884 -0.066560976 -0.32262954 -0.09966449 -0.18520354 -0.036654416 0.031485416 -0.017016169 0.07178869 0.112293504 -0.04615807 0.09515019 0.028987922 0.057570893 -0.2523919 -0.13085942 -0.085467584 -0.051693268 0.111330114 -0.12647945 -0.11832486 0.14609022 -0.04398868 -0.048447736 -0.03231768 0.14292137 0.18811142 0.09301618 0.115526624 -0.06376211 -0.1104679 0.09377605 -0.021532487 0.15629652 0.34547445 0.10438036 -0.018010639 0.3199543 -0.19912079 0.26891017 0.060337815 0.37298462 0.08418584 -0.18807131 0.18721028 -0.16190612 0.16070421 -0.02557713 0.10185732 0.08108225 -0.19685996 -0.29910055 0.06374156 -0.09270975 -0.119455256 0.120359465 0.022349602 0.040645987 0.122741126 -0.16132674 0.10605187 -0.16517447 0.121218584 -0.030521346 -0.05415211 0.089990005 -0.22980091 0.5055785 -0.26477265 -0.1258735 0.048979133 -0.1877492 0.019618288 0.32370967 -0.2660357 -0.030919682 0.13748986 0.1863446 -0.099598624 0.20476203 -0.2403291 -0.01661446 -0.25482312 0.11263839 0.07060178 -0.038144127 0.12421848 -0.05907198 -0.06393388 0.031995658
869 0.08680137 -0.05540685 0.074305445 -0.17157128 0.17395692 -0.20654425 0.08797624 -0.025433451 -0.14044161 -0.2686802 0.049538355 -0.13902609 0.03826363 0.21196303 -0.20428246 -0.23034902 0.076506674 0.04025973 0.16268466 0.11168611 -0.07523431 0.026914546 0.09924145 0.17837027 -0.07402916 0.08979857 -0.062436096 0.1437674 0.05160367 -0.06437878 -0.06847025 0.048198365 0.053197242 -0.06619722 0.105625644 0.21155202 0.022561122 -0.13141738 -0.1003537 -0.1659879 0.07584029 0.08876602 -0.27307597 0.038285177 0.070939526 0.09844197 0.07037307 -0.095253825 -0.10238839 -0.1874236 0.07271188 0.10637983 -0.19451459 0.17622484 0.07803558 -0.20072722 -0.10454472 -0.17432171 0.094108306 0.025709912 -0.23276742 -0.28351447 -0.12069708 0.3198143 -0.07747777 0.0043951417 -0.05730805 0.02750866 -0.09856759 0.05031338 -0.119669974 0.011081243 0.088910386 -0.030627469 -0.016360614 0.011698564 0.19058871 -0.21740699 -0.10418634 0.050068542 0.016439598 -0.08141861 0.23869093 0.031934984 -0.055323586 -0.018662537 0.09278452 0.121258005 -0.19956616 0.043845072 -0.00946995 -0.15830512 0.019529039 0.20854641 -0.0022637856 -0.09325839 0.13346009 0.2828128 0.046567123 0.23066099 0.054644827 0.06826446 0.007754659 0.006262396 0.12404949 0.12358196 -0.2710694 -0.04209996 0.15453719 0.15001605 0.014067355 -0.122226134 -0.05684646 0.14984307 -0.0008225015 0.11889561 0.009450324 -0.2086261 0.30420837 -0.042102575 -0.03124421 -0.042885084 0.20778728 -0.09054822 0.07679594 0.050521247 0.15658726 0.039283153
1027 -0.038979907 -0.02840449 0.17332962 -0.36428523 0.019967958 0.19490129 0.10641449 -0.038307797 0.035002947 -0.31401655 0.2742031 0.22532187 -0.24448706 -0.030030942 0.08579345 -0.06873282 -0.10234381 -0.10145834 0.0073150806 0.16014093 0.019393489 0.09916032 -0.123954415 0.14628656 -0.070775524 -0.16268285 0.22206344 -0.015876697 -0.21485466 -0.027210496 -0.15060727 -0.11003797 0.12153998 0.15097669 0.23460545 0.13979927 0.014165183 -0.04439776 -0.07361914 -0.09109795 0.25174034 0.0115372585 -0.101425976 -0.10229164 0.016413732 -0.20516457 0.14426304 0.09134576 -0.05802993 0.12007994 0.10242521 0.10300758 -0.09251325 -0.07784006 0.21976852 -0.39868587 0.14459366 -0.0073428913 -0.09715063 0.044999927 0.07781605 0.102522776 -0.012010298 -0.09246773 0.027881712 0.096305616 0.14157893 0.017591262 -0.047527168 0.06276527 0.08315744 -0.012873658 -0.1331488 0.20512015 -0.09457994 0.051732816 -0.034085333 -0.00048721881 -0.14686906 0.19238849 -0.38187224 -0.09460896 0.17996843 -0.1263214 -0.13602373 0.0719071 0.25390813 0.093682915 0.043607846 -0.11680742 0.123778656 0.04023244 0.069163896 0.21365473 0.01605962 0.005298874 0.17192684 0.18980856 0.040469106 0.15713124 0.08698466 0.070575766 0.09536067 0.11434066 -0.08253755 0.19762093 -0.25019795 0.03849162 0.27462515 0.014967519 -0.118945226 0.22372638 0.115462035 0.1892648 0.10960523 0.17144294 -0.31550586 0.019963022 0.06652103 -0.1894519 -0.0050450824 0.055050205 0.057080004 -0.13569607 -0.35526183 -0.08477326 0.061185926 0.06729836
338 -0.009893095 -0.087765135 0.020482773 -0.14586177 0.048387814 0.08380032 0.018767603 0.003310608 -0.1439322 -0.12254514 -0.006123093 -0.2622718 -0.024136068 0.09387305 -0.0034497075 -0.0780285 -0.1400459 0.033479203 0.014695382 0.1203647 -0.2994866 -0.073417746 0.08210376 0.048896793 0.1306087 0.073547296 -0.20058061 0.11044884 -0.027574798 -0.17533128 0.050852925 -0.14260063 0.34972566 0.011776403 0.11715904 0.031003898 -0.0829012 0.079199135 -0.05420198 -0.20062461 -0.0034600103 0.20226231 -0.06874326 0.10171305 0.06616847 0.04915643 0.1790649 0.009999319 0.06620769 0.1263587 -0.12384573 0.13285919 -0.11656914 -0.03186887 0.24681947 -0.011040529 -0.020787092 0.12194299 0.0060838815 0.05118641 -0.035702482 0.018848922 -0.18953454 0.044696912 0.035950664 -0.030226232 -0.041320805 -0.08992852 0.031902865 0.24083352 -0.26514077 -0.13602266 0.067078665 -0.15181369 0.0031489036 -0.009313287 -0.047647018 -0.09874109 0.18344727 0.19075291 -0.2348665 -0.0019385663 0.13195772 -0.18994737 0.074131705 0.13294938 0.17255934 -0.049569592 -0.043279834 -0.07568445 -0.16688287 -0.19892868 0.12200639 0.0017538464 -0.0008887942 -0.15541519 0.24002248 0.08830469 0.026644394 0.2298164 0.26528153 -0.12831134 0.038013123 0.2915389 0.21671854 0.24919273 -0.18077458 -0.0380272 -0.004272836 0.18602365 -0.23102331 0.020746423 0.14537601 0.15033127 -0.21892723 0.1057742 0.18803927 -0.087782 -0.13296673 -0.11897129 -0.12138286 0.043576505 -0.050305415 -0.0009878145 -0.21436307 -0.22541201 0.155878 -0.19316253
1496 -0.09567519 -0.076579586 0.08455821 -0.1836126 0.0067360406 -0.2461003 -0.061486926 -0.09201516 -0.024819184 -0.2562143 0.13176973 0.23659584 -0.064589396 -0.2926866 0.0025966181 -0.19814438 -0.017005851 0.14490272 0.017978271 -0.13793512 -0.14469218 -0.3432136 0.08892849 -0.07093753 -0.14250161 -0.09145221 0.18074568 0.10062529 -0.19304721 -0.2559974 -0.36059186 -0.1587114 -0.013335835 -0.1266785 0.28031778 0.28710958 -0.2201174 0.27302355 0.085472524 -0.082125865 0.16941726 -0.16551644 0.030503578 0.0053157937 0.319047 -0.18772027 0.10516641 0.13561516 -0.17638598 -0.18889385 -0.14696884 0.1668424 -0.038349874 -0.30210397 0.027665704 -0.15423709 0.1778548 0.014434017 -0.14702761 -0.017982677 0.15343718 -0.079610445 -0.2058752 0.0701704 -0.04067421 0.04899198 0.080002666 -0.04082752 -0.14841686 0.00072719774 0.1903023 -0.02858671 -0.10346157 -0.06275559 -0.06778526 0.083823696 0.20004286 0.056190856 0.22932492 0.16710842 -0.39237624 -0.060499523 -0.042108685 -0.07334538 -0.09615288 -0.022239922 0.22866313 0.017408505 -0.13063219 0.10582969 0.11812185 -0.07298374 0.047857583 0.28316528 -0.11921956 -0.020135004 -0.086344175 0.03841066 0.030454354 0.11901049 -0.08137738 0.0714024 0.08517177 0.05892823 0.22102204 0.09909791 -0.17029445 0.019947408 -0.006786341 0.07596961 0.073127374 0.043663133 -0.0063735093 0.09552945 0.012021259 -0.047819246 0.14787938 0.100580685 0.046246618 -0.06618749 -0.096508406 -0.041891783 -0.13436836 0.11130301 -0.013032996 0.23934197 -0.08358852 -0.11581905
942 0.026493035 0.05853955 0.07928332 -0.23926635 0.101134956 0.07158193 0.052450515 -0.09989779 0.04117553 -0.24493381 0.12642328 0.03487048 -0.19479446 0.123610936 0.15622947 -0.2621576 -0.007782835 0.14717719 -0.120988555 -0.110013865 0.04728354 -0.00784501 -0.082891375 -0.0137055665 -0.015897121 0.15135692 0.04882669 -0.06837148 0.05535275 0.065602325 -0.0070142224 -0.079247795 0.29031134 -0.28550988 0.13912834 0.14726666 0.15884307 0.124517135 0.1384898 -0.23634313 -0.161021 -0.027734289 -0.20001641 0.097495615 0.20011577 0.025438294 0.15506016 0.024579482 0.08842713 -0.14808069 -0.16162132 0.07227613 -0.07945516 0.08055161 -0.04497456 0.025326993 0.09255855 0.10317489 -0.07993263 -0.29458392 -0.14721058 0.056892127 0.16281475 0.11537138 0.0059460197 -0.13965647 0.15447192 0.06142993 0.05996752 0.14107879 0.141144 -0.23747438 0.39464578 0.057585597 0.083650656 -0.17029071 -0.18208756 -0.040059198 0.44620398 0.08440353 -0.375834 0.14593695 -0.0986626 -0.17301284 0.19134347 0.0070397425 -0.030914167 0.060760528 0.008730712 -0.14968212 -0.0118742855 0.04975038 0.04157104 0.27244982 -0.024097273 -0.2873986 0.13322967 0.062376507 0.14241512 -0.0074291257 -0.0012637938 -0.11526952 -0.14474282 -0.12807836 0.11363669 0.17205223 -0.16939948 0.08476626 0.036087614 0.07335457 0.12660259 0.028171409 -0.040586255 0.009512394 0.13264363 0.014358823 0.0034100248 0.09052715 -0.0063721393 -0.3672527 0.014930539 -0.30849412 0.2177541 -0.039992087 0.24010575 0.11302918 0.03274418 0.05700554
531 -0.21286167 -0.118721575 0.1569852 0.019215016 -0.05330836 -0.12952384 -0.1727263 0.13832802 0.15270118 0.12694699 0.16092 0.1449284 -0.15057346 -0.11096379 0.077167146 -0.08018064 -0.25399575 0.17684561 0.06921675 -0.013306163 0.07981851 0.09847142 0.25632477 -0.059770748 -0.07915156 0.3778452 0.1593886 0.022246515 0.18856965 -0.11471587 0.017881824 0.25096744 0.16663638 -0.065630466 -0.09734229 0.018013682 -0.02828706 0.054940864 -0.050484505 -0.058700506 0.0066605327 -0.16203251 -0.13699393 -0.029741045 -0.041665114 0.04006484 0.37583533 -0.072804436 -0.12179973 0.18447304 -0.14249694 -0.2428285 -0.13752377 0.027134845 -0.022097373 -0.033711042 -0.17976794 -0.037349112 -0.055973858 0.1639812 0.08284538 -0.2680814 -0.2372592 -0.3043558 -0.15315056 -0.057220284 0.08157443 0.09656126 0.1805343 0.046875898 0.05676627 0.081511416 0.2867317 0.22955859 -0.044303946 0.30340973 -0.07829434 0.04245491 0.084672205 0.16235486 -0.20825145 -0.117584154 0.07228084 -0.05543315 -0.12926185 0.05189798 0.38034543 0.25141868 -0.17928988 0.26329798 -0.012863413 0.2416043 -0.11388832 0.08741032 -0.0008827414 -0.017962927 0.19294779 0.18445736 0.039886635 0.19590974 0.21226206 -0.034157343 0.1278186 0.073129594 0.027707847 0.2636937 -0.041140433 0.048606604 0.03588174 -0.019018063 0.08337256 0.080786385 0.043298554 -0.017209336 -0.018572113 -0.07356255 0.0004388157 -0.23363581 -0.23330879 0.104270205 -0.1026503 0.18986215 -0.016704623 0.028288394 0.08613087 0.05800987 -0.06261218 0.051055
971 0.12025489 -0.03341398 0.047082413 -0.10114396 -0.06215279 0.013447487 0.028478257 -0.003138989 -0.12024873 0.21314828 -0.02993101 0.13743469 -0.25378942 0.05013086 -0.0593329 0.038814742 0.12044441 0.14978886 0.18225466 0.23191835 0.11570688 0.2016903 0.14708954 -0.008963897 0.040884886 0.1714581 -0.17461728 0.10947889 -0.043250438 0.04629264 0.12680423 0.18992913 0.09774393 0.049867112 -0.05308109 -0.1944295 -0.16651374 -0.16388923 0.10019174 0.030930536 -0.1043788 0.082942426 0.031056209 0.23436083 -0.08092125 -0.18236835 0.18973462 -0.053367943 -0.06279351 0.10676276 0.19416724 0.028516933 -0.15176068 0.050771717 -0.011743478 0.043352474 0.018138707 -0.15082301 0.024243426 0.14521126 -0.18870758 -0.086707614 -0.2682561 0.0027867712 -0.022829084 -0.15213059 0.11799311 -0.044815928 -0.003452681 0.18222846 -0.104009666 0.08213868 0.21085685 0.016712697 0.1460736 0.33217123 -0.0435215 -0.19968022 -0.006475981 0.13506472 0.12801369 0.083835095 0.22241268 -0.21124989 -0.02724013 0.054810416 0.30531722 -0.11480483 -0.41772288 -0.14013973 -0.15466201 -0.0002508312 -0.14760642 0.14673974 -0.17186975 0.017309746 0.038698547 0.011429781 -0.18218505 0.06272954 0.0061553894 0.22718221 0.11234916 0.018152582 0.1306941 0.16659676 -0.06768886 0.053763993 0.07887291 -0.039540138 -0.3233958 0.04323688 -0.031166753 0.045833755 0.057514306 0.22708648 0.28633562 -0.06531285 -0.10934956 -0.0758851 -0.06833553 0.30716103 0.23999007 -0.1528981 0.25718692 0.015679702 -0.0036982652 0.037475266
760 -0.12288146 -0.056568116 0.36737737 0.08981268 0.22625181 -0.1262946 0.028438365 0.022571612 0.21415287 0.12447467 0.15216202 0.25723353 0.20270976 0.0020041268 -0.15381442 -0.1544982 -0.033947732 -0.03150364 0.043023523 0.23411584 -0.0028212224 0.2586554 -0.021798387 0.002415337 -0.04334227 0.0695704 0.29026422 0.07477618 -0.37316683 -0.0039839596 0.18031992 -0.04685969 0.101178944 -0.20924897 0.11631613 0.067621686 0.017950742 0.15222543 0.3395206 0.10443159 0.0509481 -0.026938694 -0.088625416 -0.08065195 0.29392385 -0.042159434 0.0858555 0.017072327 -0.12689932 0.028755262 -0.1982274 0.07687515 -0.21044968 -0.21730734 -0.1611121 0.15089516 -0.10979287 -0.08004629 0.01016942 0.12003364 -0.056826614 0.0753942 0.047933362 0.028146602 -0.035360157 -0.07422534 0.02516499 -0.056974936 -0.3044593 0.1428557 0.06163009 -0.06877794 0.18238129 0.12529339 0.108251266 0.11399516 -0.10520817 0.027181415 0.42589265 0.22801627 -0.22020572 -0.15753305 -0.10195843 -0.07921468 -0.25753862 -0.17260784 0.05904437 -0.109801516 -0.20347254 -0.14291245 0.087862864 -0.1409236 -0.080740295 -0.023941463 0.0617298 0.03754982 -0.1056577 0.14778417 0.19630174 0.108674645 -0.08469948 -0.0417861 -0.010472544 0.16957346 0.0004009038 -0.15933964 -0.048825204 -0.13032942 0.0594508 0.11598148 0.016963476 0.101176135 -0.03519207 -0.031102803 0.10543443 0.03226034 0.045607846 0.12735198 0.22125615 -0.2680132 0.27845517 0.37071005 0.17327885 -0.23977657 0.008973124 0.0033791794 0.10631967 -0.053090956
398 -0.038478702 -0.05644199 0.09276034 -0.20362875 0.12920412 -0.039526265 -0.09825586 -0.11452889 -0.05035882 0.011139035 -0.11282122 -0.15348218 -0.050242055 0.07505595 -0.069912024 -0.018698486 0.11225817 -0.0217247 0.1567817 -0.077042565 -0.057294056 -0.18445951 0.23521541 -0.17731766 -0.037207015 -0.14168714 -0.14104651 -0.14846957 -0.001870533 0.2153679 -0.22737786 0.07411559 0.14633454 -0.084444195 0.41210854 0.13194491 -0.13218606 0.0625472 -0.15326975 -0.15456088 0.03982646 0.118289866 -0.09010852 0.10211904 0.19902214 0.044866983 -0.021722442 0.096313685 -0.04253449 0.06112258 -0.19421381 0.12292981 -0.111416295 0.03473283 0.06285498 -0.23263712 -0.113823086 -0.054408826 -0.13346377 -0.053241957 -0.06525659 0.1480546 -0.084849514 0.17216058 -0.06500789 -0.054404773 -0.06231329 -0.01622067 -0.10696935 -0.062697716 0.03903079 0.1378695 0.009497983 0.13261995 0.042083707 0.1321103 -0.15968023 0.12848902 0.28374523 -0.013438792 0.011083294 -0.02335479 0.04280577 -0.115335114 -0.0018926406 0.039458267 -0.025692433 0.039523676 -0.3338565 0.16779011 0.10603064 -0.2405697 0.07421637 0.011086186 0.08040364 0.007668313 0.15248267 -0.2004477 -0.14487731 0.0848148 0.11409464 0.27149054 0.14348863 0.023599753 0.094109915 0.21711224 -0.18717748 -0.15116465 0.08510583 0.13581187 -0.15261416 0.019208517 -0.19599557 -0.1378067 -0.02159686 0.14312515 -0.25614956 -0.109642655 0.008363638 0.005717513 -0.023249114 -0.026172198 0.03280452 0.20275302 0.007886751 -0.18053699 0.008915017 -0.005880909
1296 -0.19095603 0.099371366 0.027892526 -0.07260646 0.103079006 0.14011659 -0.03326333 0.09351933 -0.022281973 -0.1094425 0.1233609 0.018443268 -0.045477737 0.12049703 0.008946241 -0.30099425 -0.060318235 0.30706477 0.075980164 0.14146507 0.05113363 0.14247108 -0.036282748 -0.07277455 0.040506117 0.10581996 -0.35177138 -0.1564003 -0.026582895 -0.09532805 0.06238998 0.07281407 0.100362115 -0.18663597 0.0631048 0.030350674 -0.09402686 0.04586757 0.10105415 0.0077415435 -0.2392663 -0.20878437 -0.18672538 0.080203824 0.043832466 -0.045769826 0.13738133 -0.12323071 -0.03749724 0.24571148 -0.10493823 0.19451089 -0.22632259 -0.11350433 -0.06873625 0.020800889 -0.13540885 0.096107066 -0.111045524 0.20165746 -0.11631873 -0.2037411 0.07752551 0.15861468 0.30006906 -0.032477506 -0.046362095 0.022872757 -0.23166083 0.24708347 -0.07922075 0.15387654 0.13159107 0.013181706 0.07991728 0.07426174 -0.15561478 0.18996847 0.2664256 -0.057755437 0.19011062 0.047388293 0.057400372 -0.23095006 -0.023765713 -0.15949474 0.20258681 -0.07192606 -0.17926575 -0.047736038 0.064163886 -0.25020215 0.13332953 -0.011596626 0.14597164 -0.16013367 -0.08225259 -0.22814813 0.1111491 0.115105525 0.16726555 0.015290894 -0.06802971 -0.05835996 0.23318483 0.13846324 0.019936638 0.33358532 -0.018274946 -0.072398685 0.062297396 0.0528201 0.006926552 0.19218735 0.0021853736 0.022631673 0.008663406 -0.08340853 0.25052217 -0.036550518 -0.00016765954 -0.10172129 0.055203605 0.025504116 -0.006370023 -0.077691995 -0.09070471 -0.0040987586
1388 0.10207679 0.046137426 0.19148444 -0.2643139 0.053650115 -0.044819824 -0.07911269 -0.04234522 0.03055919 -0.14992373 0.06293878 -0.11445926 0.09390631 0.08456012 -0.25150204 -0.07724049 -0.14943574 0.053037196 0.028488819 0.04634351 0.22707485 0.10872519 0.1456644 -0.013582833 0.14643122 0.14856268 -0.029039335 0.0009796135 -0.2292885 -0.15885623 0.042726446 0.06001357 0.12919094 0.08763031 0.13769369 0.13566935 -0.15919544 0.1766373 -0.070170246 -0.23507194 0.0238292 0.11802095 0.09338745 -0.04120944 -0.01331404 -0.034634046 0.0441325 0.04467229 -0.08291141 0.20173945 -0.20550247 0.0022507338 -0.120954186 -0.023976624 0.012299637 -0.27439606 0.081324324 0.06705437 -0.01920259 0.08138849 0.3942112 -0.2198782 -0.29208452 -0.027635174 0.11323422 -0.20632891 0.11616216 0.026888777 -0.00281052 -0.009059039 -0.15298533 -0.042762533 -0.045276877 0.01610514 0.23484632 0.046525918 -0.25254506 0.21127963 -0.0665503 0.1637645 -0.025226783 -0.17116691 -0.087632105 0.09985252 -0.22389595 0.16102076 -0.0448416 0.23168236 -0.10728042 0.08619706 -0.09238607 -0.09408383 0.04891685 -0.0033507391 -0.20780206 0.13188875 0.1911375 0.19726276 0.05641528 0.1683265 0.15289335 0.06968439 0.0024266622 0.20062353 0.12636134 0.32968253 -0.12694909 0.15597352 -0.3433139 0.18734792 -0.10485072 -0.059708036 0.08072938 -0.022174802 0.10930209 0.12905917 0.2610266 -0.0721367 0.02317745 -0.042473648 -0.081932805 0.14789784 0.18780963 0.05913008 0.12873064 -0.05628828 -0.1354686 0.018654454
1502 -0.17485079 0.21813028 0.13732558 -0.07953629 -0.2715159 0.0589048 0.027050475 -0.35668835 -0.003902002 -0.0824955 -0.0026319108 0.15992156 0.2218152 0.016865624 0.023663476 0.054243047 0.23041116 0.19141164 0.049189255 0.03782052 0.061526906 0.19470613 -0.0058552427 -0.060651112 -0.22001664 -0.1003714 0.07716021 -0.007505284 0.01910704 0.1639808 -0.021033311 -0.007959475 -0.02269983 -0.11450318 0.11218614 0.09871815 0.17963012 0.14476223 0.13621275 -0.13706912 0.044391807 0.022579603 -0.0024588634 0.07653628 0.058721367 0.13632885 -0.006059539 -0.17553303 -0.2507731 0.104516216 0.0035966272 -0.07354791 -0.058105458 -0.04891545 -0.060706533 -0.10392213 -0.08675515 -0.10191559 -0.054356154 0.0688163 -0.07464777 -0.17570469 -0.004072434 0.011371382 -0.24109551 -0.12473261 0.037960187 0.099492535 -0.11875337 -0.15202533 -0.30549654 0.03252238 0.13034128 0.26089886 0.1138746 0.19994488 -0.22284926 -0.16095841 0.052267898 0.26467204 -0.116677165 0.24139197 0.31029147 -0.29255652 0.03047645 0.045161407 0.21742469 0.07846658 -0.1934668 -0.23698638 -0.0086195795 0.020803895 -0.0721965 -0.04138222 0.2156142 -0.1765461 -0.076085895 0.20785254 0.19046004 0.1733974 0.1724852 0.09740051 0.068403505 0.2691784 -0.06988744 0.24797177 -0.16099021 0.18318951 0.07322719 0.09322476 -0.18105753 -0.078074485 -0.21610628 0.140201 0.16518413 -0.03803687 0.06513448 0.10368491 0.13445555 -0.25515628 -0.19372496 0.054809377 0.21508226 0.04603957 0.04710178 -0.028887773 -0.09064608 -0.07281819
1007 -0.08332761 0.010199041 0.18020341 -0.09148175 0.054956444 0.20890763 -0.09069239 0.16007738 -0.10945892 -0.1104453 0.18757452 -0.01627233 -0.22062878 0.20217027 0.1284115 -0.20097907 0.28680068 -0.06632145 0.03820668 -0.08215653 -0.046305496 -0.31510848 0.07514772 -0.25595272 -0.28216985 -0.026342493 0.028081462 -0.042695403 -0.01709336 -0.25487694 -0.120379835 0.15147232 -0.14777195 -0.1369063 -0.075445294 -0.03678477 -0.029659035 -0.18664779 -0.09425612 -0.18375273 0.046275724 0.18801455 0.026264872 -0.060567867 0.20488773 -0.2933168 0.091696784 -0.06526009 -0.07156104 -0.15954368 0.008074679 0.26518056 -0.15108357 -0.08961137 -0.053586576 -0.34620777 -0.16739416 0.055975847 0.1221021 0.09096251 -0.1771542 0.068384245 -0.084683366 0.12795544 0.099975064 -0.21211067 -0.053478908 0.15276486 0.05914109 0.063030496 -0.17085129 -0.2514065 0.23851341 0.087865 0.024851684 -0.09589392 0.056465674 0.117011376 0.061381698 0.024855321 -0.0509138 0.13453577 0.2268417 0.13643563 -0.20690589 -0.07498125 -0.09000788 0.12578243 -0.13002488 0.10850773 0.11670226 0.026420223 0.3259818 0.24149574 0.33745843 0.12115193 0.1263708 0.0687641 -0.15097442 0.18961541 -0.002715688 -0.12604268 0.016903117 0.05840858 0.04486559 0.19600022 -0.07497279 0.22269619 -0.0959669 -0.038770247 0.009499246 0.14431782 -0.040333714 -0.11944831 0.20400296 0.15412751 -0.028497955 -0.28126454 0.014062558 -0.13782926 0.1932979 0.15638267 -0.15855247 -0.041712932 -0.05658803 -0.068678625 -0.053026337 -0.0064229425
643 -0.035840515 0.0779322 -0.059326418 -0.20005383 -0.015165902 -0.11889996 -0.0006345241 0.19770634 0.0016754474 -0.016100094 0.026208458 0.17212546 0.18975249 0.050045375 -0.120262146 0.13808727 0.09210141 0.33755127 0.06001949 0.117947824 0.003593262 -0.10424511 -0.04254649 -0.1026547 -0.042534985 0.29367158 -0.06394955 -0.15938321 -0.0733064 -0.105515584 -0.1418671 -0.0014230644 0.24269933 -0.11278274 0.36966664 0.20336357 0.057595704 -0.12683365 0.16965118 -0.028561523 -0.03393529 -0.21212469 -0.10916041 0.07010503 -0.010222704 -0.09063254 0.16280524 -0.09630383 -0.034576718 0.10631235 0.05431028 0.16315016 0.11685768 0.09309447 0.1644585 -0.071828246 -0.21032596 0.0062484 0.04516088 -0.21176319 -0.20456451 -0.06801769 -0.11651885 -0.051507633 -0.02821616 0.10869937 0.0418428 0.096344374 -0.07010767 -0.0143505065 0.17331006 0.12622307 0.27568212 0.051164594 0.07446087 0.22566554 -0.06460619 0.2000123 0.17350803 0.20686054 -0.11798384 0.051841453 -0.14269708 -0.20544983 0.1797394 -0.25863233 -0.025189357 -0.035171628 -0.051083956 0.1964604 0.17360763 -0.05041912 0.13368092 0.034997616 0.17631783 -0.02102785 -0.051638056 0.016008021 -0.030671537 0.027605336 0.096940406 0.15314226 0.277871 -0.240731 0.053616624 0.038292624 -0.046616443 -0.019066352 -0.16548379 -0.032865506 0.05302206 0.069693364 0.049063828 -0.22602828 -0.22650342 0.17599607 0.14618799 -0.06458004 -0.020334197 -0.30093908 0.076898634 0.2729349 -0.03680006 -0.008865091 0.08597584 0.21085268 0.1549551 0.4237778
553 -0.22674197 -0.052072827 0.13254246 -0.15626146 0.08436849 0.024149979 0.29287055 0.086055174 -0.034090172 -0.048930325 0.0622606 0.22756033 -0.08500584 0.078847684 -0.18612625 -0.13573925 -0.06620992 0.26696652 -0.13965896 0.16532436 -0.1150176 -0.09409399 0.11675065 -0.113283455 -0.041221987 -0.022454692 -0.2479209 0.059956755 -0.02369562 -0.12631823 0.04206927 0.042736378 0.1874554 -0.020662565 0.11334667 -0.119428135 -0.09549893 -0.14661299 -0.107099846 -0.011741056 -0.14099416 -0.099697545 0.18310541 0.12684976 0.06434194 -0.058250155 0.17563827 0.21371594 0.07398696 0.23059194 -0.25992215 -0.080854215 0.05301133 0.15059201 0.0259309 -0.1466329 -0.06485587 -0.22390631 -0.037998974 0.010618914 -0.16339509 0.015494573 -0.33125785 0.14470117 0.058803268 -0.14036205 -0.17135851 0.10995052 -0.076933056 0.3237256 0.06357466 0.20693292 0.14944631 0.00015695876 -0.068565816 -0.15981652 0.02046414 0.15355471 0.30090362 0.083188616 -0.053784214 0.16616865 0.072701365 -0.04905603 -0.09362145 0.18759651 0.014096715 0.09820201 -0.33821905 -0.21665633 0.15274303 0.2237808 0.08019423 -0.015544539 0.03184879 -0.05468758 0.0735956 0.06412567 -0.18756476 0.17907473 -0.24708788 0.18980835 -0.004680951 0.13837129 0.033150855 -0.023332587 -0.2697862 0.08768769 -0.001315302 0.10254622 -0.21953773 -0.15358196 -0.11757135 0.048460484 0.1360983 -0.055447582 0.04032055 0.03581182 0.042874333 -0.20011193 -0.10139922 0.1518017 0.14968853 -0.019596113 0.05678577 -0.019123731 0.02983887 -0.20233938
696 -0.033389352 0.035785004 0.05363519 -0.13197325 -0.38365197 0.06090365 -0.0069463095 -0.019533416 -0.11650655 -0.1707725 0.13502543 -0.12004741 -0.32525414 0.112143636 -0.08133126 -0.032860525 0.040071428 0.06652558 -0.106984355 -0.036071237 -0.1092056 0.078763455 0.089607425 0.011666323 -0.2031657 0.042113725 -0.116527826 0.054622617 -0.16394311 -0.21099234 0.103803925 0.06362239 -0.05399674 -0.09546342 0.0026082944 0.08489037 -0.06373798 0.28880563 -0.03990151 -0.20977692 -0.13330716 -0.038329996 -0.00063991814 0.073263705 0.035735324 -0.07898093 0.06862371 0.01503801 -0.11565175 0.14478077 0.13925885 0.021361679 0.006977654 0.059450354 -0.10607955 -0.06476613 0.13530284 -0.16192318 0.10368882 -0.1679706 -0.0059431796 0.15388432 0.038389344 0.085485615 0.16779433 -0.2035236 0.16781743 0.067767814 -0.13218814 0.16109276 -0.044780143 0.11609492 0.015485647 0.14547901 0.09776966 0.06040136 -0.066701405 0.013148064 -0.03086589 0.1499682 -0.1389816 0.04542177 0.055341505 -0.112137005 -0.23821862 -0.24982898 0.019419052 0.17531486 0.019153114 -0.059183635 0.19769694 -0.013651233 0.09050966 0.25759816 -0.015204188 -0.009822035 0.09142813 -0.01840069 0.22119282 -0.0735404 0.11289477 -0.2043413 0.24477015 0.23608774 -0.118436486 0.18706414 -0.263861 0.024104385 -0.13861194 0.2503215 -0.17915753 -0.14246455 0.05381564 0.15296227 0.15004028 0.34104988 0.014777375 -0.25631443 0.08849283 0.046298537 -0.1854955 -0.05898474 0.08164231 -0.06390372 0.32664162 0.004038832 0.18411581 -0.1713464
908 -0.10327894 0.050354682 -0.053450156 -0.1880828 -0.12175734 -0.07159921 -0.116436854 0.18944475 0.017293265 -0.16399944 0.008362179 0.04449084 -0.20626819 0.079141654 -0.107669376 -0.21879597 -0.2136658 0.03668768 -0.16651502 0.11376123 -0.21099736 0.012635789 0.04246036 -0.024705775 0.06199742 -0.0686303 -0.0024250136 0.18243861 -0.021282818 -0.1827295 0.30822212 -0.04138322 0.05968638 -0.18751581 0.12289207 0.07413465 -0.050055943 0.193649 -0.037608497 -0.12762791 0.20430978 0.14411595 -0.25148717 0.1411109 0.17464794 -0.19122185 0.1786573 0.19987582 0.2489739 0.0868586 -0.19574016 -0.017299833 -0.28674316 -0.19443238 0.15563071 -0.06657914 0.08074962 0.06863051 -0.007024997 0.17990476 -0.0036993467 -0.21163231 -0.019870106 0.12316189 -0.17904468 -0.054963246 0.16025002 -0.17377357 0.113891214 -0.058909312 0.0039827265 -0.084987976 0.16259764 -0.08298221 -0.25369212 0.26233536 -0.103627846 -0.15625471 0.1425385 0.22343597 0.027833864 -0.054631308 0.1936262 -0.11475817 -0.051539708 -0.12058951 0.26982182 -0.061451793 -0.15788628 -0.08606047 0.10705653 -0.3499625 0.07797416 0.25925142 -0.09714402 0.20368528 0.15552734 -0.09323657 0.046658453 0.05382111 -0.026620384 -0.04899576 0.0087259775 0.12507574 -0.19871683 0.005613365 0.09064677 0.16152565 -0.037134163 0.14140129 0.009337263 -0.04617022 -0.0050753457 0.021841412 -0.05539109 0.2000178 -0.08746053 -0.09142739 0.28417635 0.012647116 -0.07753186 0.046171572 0.082789294 -0.061549608 -0.102385305 -0.009449386 -0.1365161 -0.048805397
981 -0.12055646 0.12448725 -0.05408598 -0.008009626 0.05420547 0.035647012 0.10369362 0.11534663 -0.06798211 0.025843637 -0.24692413 -0.17058097 -0.27559698 -0.06756428 -0.00038010202 -0.15911615 0.005584866 0.027071439 0.072966136 -0.034353524 -0.12037316 0.025024043 0.061000325 -0.1381347 -0.171137 0.09028637 0.087914206 -0.04324865 -0.009115559 -0.17596541 0.038070843 -0.055932958 0.113911 -0.065210246 -0.062400624 0.037727106 -0.06860899 -0.024264283 0.024443794 -0.12702335 0.040661767 -0.06301297 -0.2061695 0.0575637 0.20725095 -0.16313565 0.2543013 0.08152853 -0.075490326 -0.036963277 -0.0058267736 0.3357854 0.1802583 -0.052475855 -0.2422719 -0.10933918 0.092341274 -0.17148542 0.048378628 -0.047880925 0.17325445 -0.16336474 -0.22879994 0.080240525 0.02280212 -0.039574593 0.25975284 -0.30195838 0.027835071 0.07529081 -0.19411922 0.08201209 0.12329805 0.15419376 0.1457006 0.3347723 -0.12652679 0.13744323 0.39003983 0.056327738 0.032212157 -0.13238314 -0.03060543 0.046553493 0.17076877 0.07981578 0.16867323 0.049865905 -0.0460835 0.15026633 0.072664715 -0.030789727 0.16021384 0.012897859 -0.08860706 -0.114624366 0.051422734 -0.045801826 -0.053518094 0.078644976 0.27701476 -0.20070732 -0.07865976 0.01139597 0.21376239 0.37560648 -0.18662767 0.26490566 0.051364936 0.16151705 -0.09580599 -0.12029229 -0.0601512 0.07726319 0.09976861 0.017540311 -0.03193561 -0.14991839 0.106651306 0.08205491 0.12464105 -0.038437642 0.3061144 -0.14626649 -0.13960707 0.048316732 -0.016397823 -0.26157582
731 0.047240146 -0.03146605 0.2162643 -0.0027207546 -0.045513563 -0.22518139 -0.082926504 0.20521937 -0.013784231 -0.10587001 0.11203387 0.2575397 -0.29185647 -0.13094813 0.060616802 -0.20778982 -0.04670878 0.07403754 -0.09797458 0.25677875 0.21472786 0.18254282 0.18852243 0.17204113 -0.17496116 -0.021901349 -0.120459944 0.059228595 -0.09186384 0.14718062 0.30000794 -0.022754354 -0.046051648 -0.25439483 -0.0058317604 -0.13653621 0.1450229 0.3130578 -0.0028888064 0.07492304 -0.04609408 -0.07230854 -0.089083165 -0.2967763 -0.027721256 -0.02175929 0.013422059 0.1250492 0.037313793 0.10552917 0.10183106 -0.07485467 0.021926103 -0.10440388 0.4206344 -0.17161174 -0.36836386 -0.089256324 0.0809551 0.18360376 0.026668344 0.071859136 -0.16024846 -0.099702924 0.21664675 -0.2539637 0.19906728 0.008284798 -0.007657376 0.12895268 -0.032621663 -0.20342678 0.15897234 0.11409772 0.22930536 0.385043 -0.10512816 -0.058233045 0.05454169 0.19912866 -0.00039241946 0.10488141 0.3993194 -0.073376365 0.1607865 0.15335084 0.06909224 -0.09231246 0.07539692 -0.07820526 -0.28461647 0.081528924 0.012045546 0.05216789 0.07753633 -0.006349014 0.11288327 0.015733836 0.23381892 0.19017248 -0.04573872 -0.015487638 0.00958939 -0.25067323 0.09825513 0.16088602 -0.032127813 0.45229965 -0.023738498 0.16007413 -0.09927064 0.13238582 -0.19136672 -0.04258927 -0.0080327485 0.08635859 0.012344375 -0.0448599 0.11494712 0.025732469 0.15084466 -0.07121852 0.0636898 0.060255382 -0.039923284 -0.052383058 -0.07174709 0.025380496
1099 -0.04190738 0.057565443 -0.0251034 -0.24488969 0.04975093 0.01325014 0.15804785 0.23774424 -0.213491 -0.08458713 0.05977155 0.06662755 0.11126246 -0.0038391575 -0.027271762 0.042703718 0.14425366 0.14020921 0.06550479 0.06606375 -0.09087192 -0.041588794 0.0043883654 -0.027981944 -0.2937588 0.1975643 -0.16624147 0.27216548 -0.15838207 0.01590642 -0.09004458 0.008305014 0.12361676 -0.14437336 0.17151572 -0.010629468 0.0025966272 0.18096533 0.02871656 0.11589215 -0.15163912 -0.017050035 -0.12546624 0.0477378 0.054534767 -0.1607968 0.1143762 0.14557846 -0.13779695 0.20611733 -0.17259291 0.04945339 -0.1360226 0.0040393774 -0.10095437 -0.07000074 -0.06476903 -0.15284836 -0.11831239 0.25259694 -0.09118258 -0.15064165 -0.2282022 -0.013372418 0.01830095 0.009966223 0.13850668 0.32301056 -0.16358113 -0.04495722 -0.115042076 -0.18219337 0.0783797 0.03395567 0.15031289 -0.11216543 -0.01737296 0.07303071 0.027737202 -0.01306586 -0.2523234 0.28924996 0.022605479 -0.066022076 -0.20773625 -0.073876716 -0.032724306 -0.20438239 0.009618342 0.11471979 0.15671709 0.09770796 0.07538272 0.02682886 0.17409633 0.14378187 0.28655648 0.30950183 -0.026147936 0.08069522 0.33111793 0.13202988 -0.003998226 0.015222774 0.008361085 0.17754239 -0.0077475896 -0.20635167 0.19453338 0.19994272 0.02644027 0.18870184 -0.106739804 0.0053402563 -0.008667084 -0.18747777 -0.22528704 -0.1017406 0.045502145 -0.14599425 -0.07724654 -0.28235543 0.45654365 0.017427009 0.007025505 0.09900457 -0.08058676 -0.36704165
419 0.11232917 0.004307258 0.14553474 0.19007812 0.038241405 0.25630504 0.13620679 -0.27802834 0.027010214 -0.2538002 0.06460436 -0.045878828 -0.14382619 0.095355175 -0.164834 -0.09189261 0.0260032 0.2769936 0.16573638 0.07244819 0.109015465 -0.051374324 0.2779355 -0.2045325 0.07417673 -0.18697053 -0.06909253 -0.042923495 -0.20165426 -0.0786678 -0.04500042 0.027493322 0.19604625 -0.30038488 0.12835987 0.14762618 -0.22545303 0.009129626 0.042682666 -0.09813263 -0.028130654 0.17586114 -0.038508635 0.20151865 0.21799706 0.048029184 0.13530356 -0.044329986 -0.06645021 -0.02805158 0.21032165 0.1465587 0.041431937 0.032197412 0.07078567 -0.15502337 -0.17757432 -0.059841447 -0.15642184 0.030977197 -0.031185007 -0.05819679 -0.020501794 0.20697102 0.21150851 -0.124689795 -0.16156854 0.08169084 0.10852989 0.10316909 -0.06402457 -0.11221987 -0.003219637 -0.0100863185 0.077254735 -0.06624082 -0.05467247 0.22828043 0.026213411 0.14734045 -0.23087102 0.06894522 -0.00905174 -0.22321302 0.019411104 0.21977884 0.1038328 -0.035642922 -0.19934803 0.052532274 0.15743138 -0.03693497 -0.12992455 0.09707134 0.0045355544 -0.0904707 -0.018488776 -0.09561073 0.0055391463 0.082308725 0.13735165 0.015056516 0.08694737 0.30045104 0.16557415 0.43354538 0.047375407 0.22077212 -0.14156267 0.13973634 0.09015946 -0.010097361 -0.05041032 -0.15432222 0.0984006 -0.13709036 -0.20168549 0.023223175 0.18679759 -0.07055993 0.0834104 0.16084829 0.032365475 0.1124942 -0.02587298 -0.030206567 -0.18105274 0.15085429
943 -0.0019247032 -0.111831345 0.15975623 0.012402706 -0.042280085 -0.01999535 -0.071726605 0.10521843 0.017405393 0.037641108 0.251338 0.15427639 -0.004270302 -0.07333208 -0.02804093 -0.24577242 -0.16315486 -0.0907558 -0.3076664 0.15669012 0.03605151 0.018151343 -0.16624342 -0.15739253 -0.04547685 -0.20565711 0.13902417 0.079834074 -0.18740825 -0.15774463 0.069446035 0.15175717 -0.14265074 -0.025717584 0.1395388 0.3061243 -0.23951496 0.07797446 0.061669692 -0.15218064 0.09162292 0.10453237 -0.1387165 0.02126242 0.4792968 -0.22617145 0.245364 -0.09796848 0.14946562 0.05232027 -0.11950803 -0.075974934 -0.16505839 0.1131834 -0.06554347 -0.028862013 0.08921683 -0.29090533 -0.0043808836 0.08743016 -0.14339694 -0.012825078 -0.11389921 0.19716412 -0.13013004 -0.32464024 0.1036293 -0.0019301559 0.065899126 0.11623049 -0.12760974 0.020139746 -0.23501371 0.13288857 -0.06934222 0.012275716 -0.099162504 0.00029140493 0.08991075 0.113735855 0.030906012 -0.0150214555 0.0923391 -0.11687277 -0.1791552 -0.0032388305 0.14959651 -0.056511622 0.05852814 0.0061342297 0.37387863 -0.24368042 0.16629615 0.018593058 -0.052787438 -0.030320164 -0.14390127 -0.015667997 -0.0659881 0.05905138 -0.16585243 -0.21368033 -0.16483203 0.036014583 0.1422816 0.27158305 -0.027767312 -0.017556364 -0.11227571 -0.0014871418 0.11067208 -0.13324165 0.021287039 -0.19465172 0.12734014 0.004500751 0.16952458 0.27765778 0.045913015 0.07777196 -0.1668452 0.32686472 0.059147336 -0.0689154 0.26682934 -0.0015867378 0.017586272 0.06282124
10 0.13468906 -0.09736349 0.1349572 0.11275496 0.018607674 -0.13879608 -0.22911108 -0.11436371 -0.010489536 -0.074123375 0.034413744 0.048852745 0.14679359 -0.17432342 0.043138105 -0.27341288 0.20506984 0.09478954 0.07922242 0.11974161 -0.25407904 -0.045796126 -0.08773193 -0.14784461 -0.12868828 0.3110776 0.033813957 -0.0339909 -0.09654539 -0.2835697 0.1544847 0.096885964 -0.1700715 -0.20543352 0.21979399 0.16185716 -0.31725067 -0.027517118 -0.04781669 0.07557552 0.20280115 0.17973454 -0.3358992 0.12657411 0.12980275 -0.013079114 0.19508427 0.26579005 0.05032213 0.10310954 -0.16739811 -0.054617714 -0.21371621 -0.012656758 0.08965231 -0.11508914 -0.028988853 0.06397068 -0.0012200238 -0.03276832 0.09984212 0.036471184 0.012119977 0.19394705 0.14723684 -0.11313232 0.04797179 -0.036380913 -0.07200433 0.04563325 0.033686634 -0.19992262 0.31496677 0.10052275 -0.10033588 -0.031136256 0.07964613 -0.0403814 0.01349777 0.0641622 -0.21476205 0.124939986 0.054113846 -0.10764045 0.09778956 0.07624582 0.044752043 -0.029255955 0.06216733 0.09443427 0.09730301 -0.19988011 -0.16354242 0.026102476 -0.09790815 -0.22942281 0.0018963811 0.004811504 -0.06430577 -0.0773213 0.0072287153 0.14241189 -0.23279236 -0.09862685 -0.12115747 0.28305745 -0.23387398 0.03354592 0.16669874 0.21460627 0.12535547 -0.048134465 -0.012108854 0.12064504 -0.17790182 -0.31743172 -0.11012851 -0.18158993 0.16719078 -0.053905267 -0.043350663 0.33646807 0.2517138 -0.15709648 -0.08251634 0.15764524 0.085848086 0.09277377
1121 -0.10771201 0.040705785 0.2035602 -0.27443227 0.12772082 -0.17695716 -0.19134247 0.20791389 -0.11974282 -0.042620365 -0.16378146 0.16169272 -0.028435212 0.022619162 -0.18781975 -0.32554433 0.002869892 0.16768165 -0.13117954 -0.0834141 -0.04533129 -0.08677621 0.04592633 -0.08257802 -0.06891716 0.06394735 0.21859871 0.035844445 -0.05405925 -0.059541367 -0.13767089 0.04953388 0.1279925 -0.078117274 0.03975191 0.085637294 0.029902287 0.16174808 0.026198868 -0.032964304 -0.039234057 0.036265824 0.0634201 0.2708576 0.13248277 -0.0965489 0.26246953 0.025322093 0.055576004 0.13833506 0.10860105 -0.081009425 -0.16538061 -0.078799255 -0.058277786 -0.41868827 -0.17914937 0.1243192 -0.009676043 0.08383406 0.10088977 -0.18385893 -0.32442072 0.097894825 -0.21551716 -0.0008573747 0.12391216 0.2558064 -0.045327764 0.1541821 -0.0023550608 0.17467967 -0.1558311 -0.09456327 0.16721082 0.09017527 0.18550704 -0.058097884 -0.031207751 0.17486885 0.15447773 -0.010269842 0.1945799 -0.111310706 0.123949654 -0.2100975 -0.08475212 0.15325889 -0.15140268 0.34085977 0.092461415 -0.21156734 0.12603858 -0.04359639 0.094416924 -0.08596741 0.1788731 0.21187344 -0.074436985 0.0346737 0.08402547 0.08635324 -0.045987915 -0.40969068 0.08211267 0.10549387 -0.08546654 0.041030135 0.23366243 0.13328989 -0.0052671754 -0.13934138 -0.009837366 -0.052297097 0.14350452 0.033766657 -0.095764376 0.014943081 -0.040622007 -0.13700907 -0.11586902 -0.072223544 -0.018345425 -0.16367975 0.06681269 0.17123537 -0.089961156 0.22531696
320 0.13099876 -0.104764216 0.08332415 -0.039135043 -0.08208674 -0.2042606 -0.046117596 -0.17130461 0.16472755 -0.16741136 -0.023671923 0.17511979 -0.31265292 0.08424976 -0.18235502 -0.09882902 0.21511324 0.14502788 0.06848593 0.05907044 -0.056458022 0.0076720063 -0.03438041 -0.12499682 -0.047407094 -0.00951223 0.09075094 -0.030253652 -0.0047189784 -0.08627119 -0.1426654 0.15441974 -0.02422549 -0.04680969 -0.07018889 -0.17767538 -0.029527541 0.18158431 -0.13275652 0.054039255 -0.0986564 -0.15056364 -0.11711098 0.028124118 0.1236389 0.028641365 0.049431033 0.14736824 -0.0025746354 0.027193213 0.019459413 0.1865805 -0.13484326 -0.018823603 0.048413232 -0.22035757 -0.21774644 -0.12974057 0.050568826 0.1466344 0.14634113 -0.026623806 -0.10391954 0.01738176 0.16720793 -0.16598763 -0.04525903 0.082292125 -0.007998543 0.25952923 -0.15498449 0.08388783 0.2855249 0.04205389 0.041806996 -0.16058569 -0.078580976 0.067232035 0.09199267 0.20112924 -0.07777243 -0.07878887 0.2770737 -0.12706938 0.02464377 -0.014828889 0.22226065 -0.10274522 0.0054903342 -0.027420439 0.07971677 -0.05596232 -0.14064686 0.14256358 -0.07616665 -0.0006625223 0.22372714 0.014715266 0.01954776 0.27733177 0.21405365 0.11895843 -0.10444681 -0.04827918 -0.060828943 0.11103031 -0.005455228 0.058446664 -0.10173393 -0.09798245 0.17612576 0.003208877 -0.12983008 -0.32909825 -0.22697313 0.10258117 -0.12772037 -0.24871852 0.06681151 -0.067727484 -0.00651847 -0.082303755 0.044414446 -0.21766584 0.21666564 -0.13119437 -0.17370905 0.10329474
1292 0.0014139216 -0.005680756 -0.040173944 -0.18660422 -0.0451837 -0.08266356 0.077197336 0.25729042 -0.17429663 -0.21247064 -0.062167183 0.13076812 -0.19298919 0.19595915 -0.06920353 -0.047408067 0.036346518 -0.061068136 -0.19187067 0.0869456 0.029787773 -0.054635793 0.16183668 -0.10505372 -0.10887407 -0.016735012 0.047504768 0.157635 -0.045650274 0.1524559 0.06411449 -0.021318706 -0.018405722 -0.08871793 -0.095240675 -0.027798858 -0.28220326 -0.036604643 -0.06431327 -0.053734444 0.0438104 -0.26974383 -0.012686859 0.036706846 0.05426793 -0.078489326 -0.002633192 0.092238896 -0.022638867 0.06403972 0.2265481 -0.032440398 0.2658993 0.052717865 0.007975174 -0.15392295 0.052159093 -0.23548134 -0.12194448 -0.11958191 -0.15855353 -0.17228149 -0.06846345 -0.052418504 0.25088823 0.1850514 0.12650925 -0.12416397 0.053555384 0.22071008 0.046411425 0.23270169 -0.045436844 0.16647002 -0.16804783 0.06970941 0.06644287 0.055729784 0.077499874 0.41226584 -0.08128547 0.2379202 0.14151287 -0.27421224 0.20410828 0.30914333 0.08352851 0.15332979 -0.0021117039 -0.03751071 0.08599703 0.03273568 0.11671192 -0.056968044 0.080581106 0.1892701 0.12702638 0.048132937 -0.11611952 0.23594207 0.18735306 0.15233946 0.14223063 0.101582445 0.23470074 0.0037446998 -0.2982676 0.06309941 -0.06301274 0.23938367 -0.09219282 0.06377399 -0.038874257 -0.0073729674 0.11315543 -0.08418405 0.33342996 -0.032756697 0.054599214 0.03384864 -0.13608839 0.20193571 0.0040512034 -0.096276335 0.023215119 0.069969624 -0.1231618 0.044067197
782 0.23737358 0.008483157 0.18784857 0.010299544 -0.07122336 -0.12638259 -0.1642462 0.1426672 -0.0061075566 -0.13873085 0.04174317 0.24316782 0.08925225 0.041509174 0.062007885 -0.054536518 0.05073982 0.010160783 -0.14287329 0.034820348 0.0014003682 0.0033165314 0.15305322 0.06643708 -0.30011255 0.058312673 0.12790678 0.12531596 0.023225578 0.13395083 -0.051098023 -0.17887725 0.06675511 -0.034115836 -0.04392041 -0.091754965 -0.1407813 0.19727753 -0.037677906 0.052238062 -0.21656968 0.14542176 -0.18127497 -0.08797834 -0.060599845 0.09491134 0.13889803 -0.107331686 0.11216621 -0.08753376 -0.21367157 0.12743345 -0.041949943 0.2511355 0.15193193 -0.13346729 0.012867495 -0.12780407 -0.16974404 0.10193233 -0.16241078 0.08993409 0.039081696 0.2548566 0.22013345 0.00965944 0.070421256 0.041661598 -0.13386829 0.1411283 0.110512376 -0.012283111 0.15120031 -0.008595349 0.03225307 0.33018374 -0.25531244 0.10629891 0.3300508 0.16972968 -0.12685387 0.19095288 -0.05303944 0.017968299 0.37026712 0.09244592 -0.062273078 -0.07454748 -0.19407451 -0.012609947 0.030729694 -0.07276303 0.10235869 0.11948565 0.24100576 -0.06766742 0.14768338 -0.11942235 0.010544779 0.2268171 -0.00574918 0.11163325 -0.09938163 0.1150573 0.045341786 0.28114033 -0.26016426 0.21354403 -0.10433284 -0.018861486 -0.19170047 -0.17899767 0.15587452 0.14051463 0.06129777 -0.111296006 0.040161263 -0.19310741 -0.16748172 0.035348352 0.03836003 -0.0814313 -0.008932714 -0.02444746 0.03138867 -0.06932865 0.095528424 -0.12507457
270 0.016379358 -0.060890395 0.22374636 -0.18629746 -0.07039315 -0.13965328 -0.14884473 -0.13789429 0.10242603 0.03143522 0.04768929 0.07381024 -0.08734555 -0.15468001 -0.0038454288 0.034638442 -0.012309923 -0.15781318 0.005652851 -0.1165264 -0.13748391 -0.012847986 -0.054381303 -0.18640104 -0.24207528 0.23749937 -0.090526134 0.12785622 -0.27809617 0.09140144 -0.08732097 0.12698664 -0.0018864141 0.0140696475 -0.17468886 0.15125273 -0.036040157 0.2168637 -0.05246217 -0.27329385 -0.018298427 -0.028603517 0.049552742 -0.22066256 0.06451634 0.14288455 0.10511987 0.11394291 0.01496778 0.1932765 -0.049684267 0.35267866 0.025276605 0.009736644 -0.031874068 -0.29170507 0.15148255 0.07524447 -0.047999423 -0.001216882 -0.1574647 0.10074756 -0.24880491 -0.025224755 -0.10751061 -0.195729 -0.18340553 -0.1786289 0.049994394 0.05838838 0.089017995 -0.10463021 0.38158008 -0.09398207 0.2329478 0.11497142 -0.2335259 -0.2943937 0.20700037 0.08380243 -0.2365142 -0.10546334 0.07197781 -0.17707404 -0.1104536 -0.127971 -0.016502414 0.13729869 -0.1650745 0.028562337 -0.0075316043 -0.10114567 -0.045142077 0.02321507 0.06947063 0.297662 0.2778015 -0.013386041 0.049687065 0.18348257 -0.06982622 0.028089503 -0.08496429 -0.121733025 -0.08844818 0.21577755 0.018419167 0.3405898 0.16027892 0.08695952 -0.28036687 -0.016143294 0.120065466 -0.09312191 -0.02016922 0.0081498055 0.1833472 0.2301029 -0.13450304 -0.20759253 -0.30059183 -0.09806947 0.058448706 -0.092753574 0.28994396 0.12709774 -0.03404214 -0.1090187
1040 -0.22242491 -0.02708551 0.3603644 -0.117159925 -0.21613437 -0.1332953 -0.062612005 -0.09848056 -0.049005486 -0.10897367 0.09422534 0.21914138 -0.028210688 0.12913471 -0.23630697 -0.031917974 0.0907908 0.08232863 0.06423694 0.026037628 0.14459682 -0.13505499 0.1709793 -0.061053988 0.27739415 0.11987986 0.09212502 0.15174359 -0.16229607 0.0067360774 0.051219676 -0.043723617 0.011791338 -0.19704567 0.066883236 0.055955812 -0.1274113 0.38086376 0.039256502 -0.016689334 0.26911467 0.0023363784 -0.09189207 -0.07198951 0.13535742 -0.08012102 0.19709852 -0.09554072 0.08075812 0.17056066 -0.0122430315 0.13709004 -0.03567876 -0.22742349 -0.33763045 0.110463016 0.097040534 0.18038715 -7.1082526e-05 0.019543923 -0.10402201 0.09144399 -0.21268916 0.103474416 0.030048199 -0.14221871 0.27415422 0.39449495 -0.07583573 0.042260088 0.19978058 0.14840458 0.059900638 0.1230895 -0.15010835 0.18219124 -0.33290258 -0.05213763 0.2939062 0.026558604 -0.18201704 -0.09685512 -0.09728359 -0.06795426 0.11571653 0.52808553 0.09070737 -0.19493325 0.18608095 -0.0026562116 0.07827713 -0.14765298 -0.20108041 0.07440285 -0.17301509 0.32375476 -0.08686353 0.11418676 -0.18548842 0.03104524 -0.08812189 -0.15517023 -0.024473665 0.001883303 0.2045232 -0.2575944 -0.020897543 0.12342718 0.1711933 0.24443589 -0.056365877 -0.009209624 -0.24812067 -0.023824342 0.0039768773 -0.039577615 -0.042824242 -0.17199624 -0.15201117 -0.19614694 -0.19294886 0.1999958 0.06236797 0.023068026 0.14970273 -0.073472284 -0.09922934 0.127942
1015 -0.2841125 0.12523998 -0.051692307 -0.0155152315 0.18354544 0.08798317 0.25344592 0.09655445 0.011229672 -0.08329319 0.023046207 0.18182419 -0.14774765 0.28227848 -0.10248249 -0.17191966 0.08485308 -0.08118444 -0.0038376804 -0.10621684 -0.10329584 -0.12943432 0.4481902 -0.0056229937 -0.09074069 0.067013025 0.17087252 -0.113269776 0.017440997 -0.06605952 0.01732634 0.08225365 0.23929355 -0.24944566 0.03512676 0.019025525 0.051787242 0.08202786 -0.07221787 -0.13425376 0.08275339 -0.20593192 -0.08909314 -0.047046855 0.2078355 0.11470514 -0.035044845 0.1273614 0.16265942 0.24544406 -0.18343073 0.23425725 0.0012509949 -0.010039883 -0.05553535 -0.042400345 0.03478514 0.19276586 -0.23553003 0.10332478 0.103295825 0.073064186 0.057132043 0.06468587 -0.14183751 -0.1605967 0.01733924 -0.040792692 0.08201284 0.28818834 -0.22731894 0.1697124 -0.18266365 0.11150382 0.065258004 0.16207029 -0.2428994 0.11238554 0.06604517 0.22572221 0.07506476 0.0893537 0.039510973 -0.082148336 -0.24613266 -0.11756317 0.4526762 0.03820357 -0.092725866 -0.027093407 0.12952721 0.061995033 0.17854835 0.19521679 0.18780741 0.05991486 -0.042213403 -0.14188896 -0.01807444 0.067537144 0.096719496 0.23534934 -0.12584549 -0.032516055 -0.014055033 0.056457754 -0.30141988 0.10520243 0.026677156 0.14749113 0.047418635 -0.18806179 -0.058727957 -0.23607913 0.43609974 -0.05253343 0.03032434 0.006641668 0.07525086 -0.24591605 0.09862204 0.1697229 0.09228003 -0.17140648 -0.002695355 -0.0039946805 0.045991994 -0.011459979
629 -0.20372958 0.06569745 0.0076092156 -0.07723011 0.12889697 0.0014067605 -0.13134865 0.07662698 0.06064926 0.17042954 -0.031441674 0.19715981 -0.13109678 -0.036167916 -0.05265095 -0.0042856033 -0.17315069 -0.01587123 -0.1751518 -0.09647351 -0.038706593 -0.29253256 -0.049641155 -0.041721065 -0.037928622 -0.2802669 0.10447982 -0.016836865 -0.067575924 -0.0012253426 0.19976467 0.19035368 -0.076001525 -0.040480528 0.16280316 0.12280488 -0.15419385 0.15930332 0.15100297 0.044591203 0.029759856 0.07086597 -0.14780872 -0.17081998 0.016136235 -0.10995966 0.22713162 0.07854404 0.0044133356 -0.061887573 0.13521053 0.07882874 -0.021291925 0.15918551 -0.18535727 -0.17343184 -0.21166235 -0.14992025 -0.22314994 -0.0079509765 0.002224931 -0.07965501 -0.025437308 0.14542219 0.2531368 0.017257089 -0.033631057 0.039256096 -0.075279616 0.08222991 0.14270127 0.06757107 0.17871831 -0.20198855 0.06658465 0.12579508 -0.016823532 -0.06918101 0.21459265 0.23732011 0.002265134 0.21055795 0.25196028 -0.10122201 -0.021173257 -0.08661947 -0.0012412409 -0.018957995 -0.026733125 -0.12193196 0.09845806 -0.19302085 0.090014584 -0.005154622 0.1588932 0.13863026 -0.13538973 -0.13502121 -0.34439117 0.11489704 0.1319921 -0.06458875 0.12658687 0.24842875 -0.04031254 0.20461388 -0.06194966 -0.02739576 0.0037590454 0.19728076 -0.03312443 -0.11351221 -0.023079159 -0.06611149 0.1507063 0.23077731 0.14294669 -0.07830888 0.14437899 0.01229255 -0.18075441 0.24544764 -0.038941003 -0.16076806 0.20356525 -0.06944134 -0.17060986 0.08447657
1545 -0.12291148 0.06347928 -0.065036915 0.04202235 0.05516928 -0.022675203 -0.09842527 -0.0047622416 -0.2105674 0.046357192 -0.0038829811 -0.0650042 0.12711547 0.039505295 -0.113090195 -0.31756076 -0.0011407293 -0.01336951 0.09079633 -0.06295144 0.26269832 0.026150646 -0.047679503 0.10385787 0.15569372 0.1444133 -0.02163121 0.16214913 -0.24475738 0.15999348 -0.059669968 0.18300071 0.28329977 -0.15761076 -0.038064446 -0.13117664 -0.08213286 0.2487391 0.14667352 0.20240392 -0.16977583 0.15150963 -0.17749463 -0.020030592 0.14552428 0.047485054 -0.009333673 -0.12967038 0.01396471 0.09271077 -0.09871301 -0.12815456 -0.09698528 0.08597765 -0.19968706 -0.15592486 -0.029714292 0.20363064 -0.3579466 0.06805533 -0.13567178 -0.3987126 -0.12545028 0.049892522 0.20491885 -0.3049093 0.4323203 0.01818213 -0.11946746 -0.11476988 0.030705718 0.09836422 -0.024328873 -0.24055995 -0.04118746 0.018155545 -0.105285436 0.002011561 0.13858628 0.25213513 -0.237265 -0.024211466 0.19536333 -0.28511438 -0.22459874 0.19603318 0.07118926 -0.15100785 0.042218667 -0.21468043 0.0919178 -0.18230206 0.08393153 -0.12127762 -0.25284138 0.23615877 0.09436735 0.11991359 0.026001347 0.04631198 -0.015182774 0.04897803 -0.049407322 0.011669137 0.01907332 0.053240318 -0.26680925 -0.07809315 0.2645549 0.07275431 0.10681918 -0.058827907 0.08453527 0.051569004 -0.02196616 0.15753278 0.049706746 0.180168 -0.1276821 -0.25137118 -0.14137943 0.30384192 0.11247666 -0.2174856 0.08493266 -0.036541484 0.019263886 0.055740174
668 -0.08027338 0.07499555 0.18579052 -0.30353007 0.1008242 0.074811734 0.19179049 0.077075675 0.14128333 -0.106300205 0.16318236 0.009380731 0.004029764 0.084920466 -0.077175215 -0.12690198 -0.1078449 0.13066712 0.1414853 0.030633982 -0.09997726 0.011940055 0.06041033 -0.024603363 -0.017038634 0.07345111 0.05205223 -0.19504221 -0.21782854 -0.1768945 -0.14547977 -0.18247011 -0.044224896 -0.19574857 0.14412038 0.057562914 -0.08508743 0.3388845 -0.058000654 -0.16438055 -0.100453906 0.07896117 0.02761815 0.05163966 0.23614192 -0.076712705 -0.15769148 0.046467744 0.045254454 0.21213903 0.13631833 0.24638025 -0.32446513 0.006374865 -0.23281708 0.049964298 -0.032290127 -0.29088032 0.030930474 -0.13386038 0.007259355 -0.17699347 -0.20614019 -0.018439906 0.1212468 -0.1302273 -0.008555577 0.082628585 -0.17232247 -0.12485718 -0.19963095 0.12142609 -0.060889136 -0.15580803 0.02828154 -0.08209355 0.11783565 -0.11472903 0.23842545 -0.011462833 -0.38127756 0.041839298 0.42132258 -0.3119756 0.16231 -0.049792975 0.2411866 0.05252604 -0.1290196 0.0133919455 0.1291881 0.039943665 -0.027031103 -0.17988095 0.043084163 -0.01121121 0.102648206 0.02755282 -0.17805098 0.16648911 -0.15598196 0.11969959 -0.04169848 0.21423909 -0.14652123 0.074427865 -0.094350845 0.092293754 0.0529055 0.17515841 -0.16312574 -0.20871153 0.038515795 0.2170964 0.1287323 -0.064156696 -0.039658144 0.10716258 0.022942785 -0.34229925 -0.16808543 -0.18045154 0.058588646 -0.059043992 -0.0017100547 -0.09628208 -0.108970754 -0.15758857
1005 0.038986508 0.011273617 0.2999917 0.11615878 -0.116966374 -0.009134869 -0.13998766 -0.018806808 0.06338735 -0.058656335 -0.104117215 0.09799848 -0.21913923 -0.073708996 -0.08846978 -0.1080028 0.04193905 0.055803377 0.25728223 -0.10945393 0.11734717 0.05053947 0.24422322 0.14172372 -0.026213003 0.13368845 -0.1722483 -0.041955605 -0.20294638 0.006080872 -0.26578906 -0.025160607 0.06202284 -0.022601323 0.16791447 0.08830677 -0.1604402 0.161558 0.21244779 -0.030465325 0.043679662 0.03585807 0.021143313 -0.06208053 0.03693482 -0.11339545 0.07477241 0.054531977 0.06437819 -0.15497237 0.07264769 0.1470407 -0.047963295 0.3388873 -0.11251423 -0.08736293 0.11926512 -0.188659 0.16861281 0.13416545 0.23748311 -0.0658534 -0.2182278 -0.0345791 0.037895504 -0.2348046 -0.036911003 0.1202988 -0.06776906 -0.026283594 0.083694935 -0.059437595 0.26042753 -0.008641357 0.22518952 0.08892769 -0.12938146 -0.06367478 0.09760402 0.082681514 0.014337678 0.22497721 0.19704618 -0.27855608 -0.016784543 0.07599046 -0.007690067 0.087061815 0.10122655 -0.0193337 0.094023414 -0.0347947 0.101959005 -0.04304121 -0.17873074 -0.034264278 -0.08957797 0.07449963 0.21196125 0.070845224 0.48695293 0.12516527 0.1039653 0.029365454 0.16385415 0.10195117 0.14474988 -0.027618993 -0.17724563 0.104251415 -0.0816008 0.05118372 0.4411948 0.003570091 0.19846962 0.12392783 0.12643921 -0.0029475344 0.16270739 -0.19119056 -0.03985541 0.13564257 0.13100272 0.08918555 0.27631876 -0.32237464 0.11067524 0.25219882
750 0.021004535 0.017576993 0.15882 -0.16140716 -0.06452477 -0.02155408 -0.00027696032 -0.13890038 -0.19622174 -0.051596314 -0.012405706 0.0069432408 -0.03435946 -0.19264196 0.080155045 -0.07345029 0.12114666 0.047279306 0.009269672 -0.11763953 -0.18045266 -0.08033983 0.044734754 -0.23217613 0.11273826 -0.18766995 -0.04046123 -0.012912026 -0.16636963 0.0023640038 0.13716756 0.13667044 0.25509658 -0.09786094 -0.07896969 0.06159725 -0.14424491 0.17468984 0.1585715 0.07722118 0.014288151 0.046516422 -0.0033309215 0.14949232 0.20618765 -0.0871349 0.017959034 0.19545667 -0.106153406 -0.0808031 0.1681449 0.25112155 -0.15316667 0.052884303 0.23975146 -0.1684005 -0.19003318 0.100571 0.16268483 0.21502976 0.02794399 -0.055339824 -0.099513926 0.25672558 0.10828157 -0.19789177 0.020399392 -0.042975027 0.31300163 0.07903212 0.04856369 -0.17069337 0.11540598 0.27547464 -0.0528262 -0.016602278 0.024907822 -0.07412153 0.22345799 0.1677046 0.058394745 -0.21590352 0.09751077 -0.09585022 0.0826133 0.07849071 -0.100096755 0.11281128 -0.041557778 0.10189648 0.068296924 -0.27319634 0.21507932 0.23059295 0.04642151 0.035280533 0.0967392 -0.0173547 0.14681797 0.06533417 0.18298241 0.32209033 0.086259946 0.03239242 0.09387612 0.13304017 0.056605425 -0.107674494 -0.3885673 0.24960275 -0.0022504516 0.082635954 -0.03856604 -0.07268786 0.064283855 0.089921325 -0.007414225 -0.00549856 0.27422425 -0.11456309 0.11537591 0.09073482 0.124857895 -0.042669836 0.14710777 -0.053763334 0.002063939 0.067822255
468 -0.037862837 -0.08593889 -0.001035647 0.029461944 0.26549283 -0.08607538 -0.20484237 0.018963061 -0.039690886 -0.10875673 0.2576876 0.20039631 0.10835119 0.19348142 -0.16378431 -0.12731567 -0.015374831 -0.13691859 0.0013135205 -0.026253821 0.06586302 0.32683563 -0.032480065 0.14393547 -0.1034622 -0.13907415 -0.07595811 -0.026516028 -0.07052501 0.028702643 0.20205809 -0.047074106 0.05412777 -0.25396746 0.15514332 0.014665226 -0.02366923 0.1425724 -0.035211466 -0.020551452 -0.07586249 0.0349933 0.18074216 0.13152885 0.17848997 -0.01972335 0.22436476 -0.11442001 -0.09313866 0.104558274 0.05066376 0.038782652 -0.17698625 0.11327217 0.046604935 -0.055234637 -0.08961615 -0.15599646 -0.024299178 0.03209044 -0.18015514 0.038059313 0.13990739 -0.026018597 0.21584843 -0.1224827 -0.1482221 0.05676442 -0.2063543 -0.07581393 0.069308154 -0.12441284 0.19360076 0.10977053 -0.032955915 0.07283316 -0.14937222 0.23728526 0.31098706 0.35876572 -0.09520992 -0.008466058 0.08915927 0.10345857 -0.025769565 0.1744206 -0.0660756 -0.027381828 -0.080885604 -0.026237248 0.009810929 -0.08258026 -0.120008856 0.22533458 0.116011396 -0.11084236 0.16899428 0.08796548 -0.04495985 0.16687436 0.27009365 0.1776099 0.15880537 0.048573438 -0.2044301 0.22086698 0.04951194 0.3397938 -0.06787253 0.17451373 -0.052953765 -0.14862941 0.10264941 -0.032855093 0.11161812 -0.0655342 -0.13127579 -0.18083686 0.12905635 -0.050045274 0.26662073 -0.023683125 -0.10623191 -0.08271772 0.20493422 -0.17125054 -0.072015285 -0.11666129
697 -0.13157853 0.14808868 0.10601157 -0.20720538 -0.1486788 -0.09892167 -0.18915907 0.09573369 -0.007496602 -0.12179191 0.19773497 0.18682879 0.116424404 -0.2152403 0.062041715 -0.11852058 -0.062342603 -0.08015264 0.033911534 0.021573631 0.165542 0.0007628075 0.36499107 -0.030532409 0.0193096 0.011435829 0.1730644 -0.20776896 0.07482397 0.13173726 -0.330089 -0.11004123 0.10221772 -0.028496804 0.026310012 0.119100176 -0.32672065 0.013275659 -0.08716897 -0.111927874 -0.18630147 0.17401454 0.0645793 -0.1074127 0.12764564 -0.010238776 0.15131156 0.03515795 -0.2766385 -0.15310231 0.1827462 -0.09093929 -0.047689263 0.07100486 0.077804014 -0.26112196 -0.26742464 0.1795305 0.040615868 -0.033314828 -0.091479376 0.060859375 -0.09006566 0.043253664 0.03333303 -0.46925968 0.15903878 -0.016815208 -0.21246302 0.08435317 -0.29718783 0.33503637 0.12748559 -0.122987874 0.27207193 0.033715434 -0.25020018 0.0038392872 0.22448291 0.19989352 0.029610675 -0.0115226945 0.17031696 -0.13584399 0.042796284 0.12718965 0.1780287 -0.0014214795 -0.40243942 -0.13017672 0.21691756 -0.069518805 -0.0095601855 0.0010753955 -0.022434367 -0.22930363 -0.09731495 0.10637683 0.026097905 0.084218405 0.1902673 -0.06137649 0.15620658 0.052308425 -0.012752779 -0.043613568 -0.008431228 0.14320481 -0.0068639857 -0.07986612 -0.05415333 0.09179782 0.03513211 -0.027318621 -0.022608442 0.020113297 0.034372542 0.115851134 0.045420732 -0.08180857 -0.07032261 0.010968406 0.16358821 -0.14685284 -0.097790055 -0.0058670044 0.057813212 0.15899973
472 0.02919619 0.039027374 0.114752434 -0.07802881 -0.014365668 -0.07676278 -0.06978734 -0.07452344 -0.15038438 -0.139354 0.067898095 0.15718997 0.028735846 0.063698694 0.2221451 0.07286925 -0.13246258 0.11197163 0.12716065 0.34357914 0.065258436 0.105956495 -0.06026949 0.15082848 -0.23437692 -0.09520387 0.102773875 -0.028910954 -0.03711529 0.08774546 0.115193054 0.16035305 -0.11924324 -0.10859214 0.29909754 0.23624203 -0.12980965 -0.11277573 -0.077416815 -0.01061513 -0.096708156 -0.07277445 -0.25796387 0.11327471 -0.03753313 0.036153067 0.13866453 0.24710289 0.05525052 0.19352075 -0.22903092 0.22017704 -0.004790406 0.09933641 0.027643712 -0.28654915 0.026835416 -0.002420988 0.015960453 0.13724014 0.2006028 0.0615101 -0.1739169 0.05360442 -0.09711561 0.025516154 0.058228284 -0.10065634 -0.15345165 -0.07833874 -0.23806465 0.10915298 -0.05579317 0.00029527314 -0.09318283 0.12816495 0.038409296 0.1195964 0.11003915 0.30075487 -0.15869641 -0.08881946 0.31581005 -0.21284325 -0.057871807 0.332279 0.19807509 0.12151022 -0.014994363 0.033313323 -0.023264436 -0.13164479 -0.062370412 0.058023524 0.09963453 -0.05223436 0.008399783 0.018732265 0.057622693 0.033084292 0.2877947 0.18254083 0.15187073 0.15607688 -0.039894275 0.052619737 -0.06898806 0.094523765 -0.05775619 0.12124791 0.03743622 -0.14789844 -0.0076220734 -0.040745437 -0.0775341 0.10755583 -0.10554854 0.09109771 0.019769931 0.15963961 -0.05225223 0.058957882 0.03836185 -0.038181074 -0.03303827 -0.064585336 -0.11035455 -0.045068633
1167 -0.14281328 0.061106343 -0.033029217 0.037234563 0.15964311 -0.06057432 -0.058870032 -0.16720699 -0.16894738 -0.115978636 0.050502114 0.14715452 -0.12433936 -0.01557394 0.12830892 0.100558415 -0.22382611 0.2728494 -0.20898362 0.0036104952 -0.13803932 -0.24697848 0.3109868 -0.2168222 -0.12964267 0.11744939 -0.05362974 -0.2141457 -0.40419504 0.05014003 -0.17941602 -0.1541753 0.3049005 -0.03312274 0.2842137 0.15317169 -0.097476095 0.38158745 0.14024438 0.17647767 0.027129931 0.04701426 -0.1630243 -0.09618656 0.20481169 0.37326646 0.19609274 0.29752284 0.00079846237 -0.07597093 0.08775821 0.20576829 0.08653253 0.061232995 -0.3086108 -0.20422147 -0.025812278 -0.13168687 -0.28694215 0.10244335 -0.069659635 0.24782802 -0.15355481 -0.013149255 0.05463561 -0.18509302 -0.0017871646 0.22960572 0.013754681 0.02099397 0.0039861035 0.033943113 -0.054841504 -0.0063664657 0.043059364 0.23325062 -0.0044529997 -0.02050433 0.11640316 -0.07098472 -0.20450658 -0.058113858 -0.06968 -0.2807324 0.017223485 -0.018669095 0.043991677 0.026477734 -0.0041659777 -0.13190912 0.0753741 0.06667294 0.10691364 0.24586545 0.1261747 0.06523265 -0.05226952 0.32279053 -0.02742483 0.22101906 -0.020902729 0.05414981 -0.22328494 0.18006489 0.03480621 0.14220554 -0.11919527 0.09138002 -0.06301154 -0.08788028 -0.28978947 0.08627696 0.24119826 0.055330954 -0.1278739 0.060195774 0.16518322 0.1544642 0.24406156 -0.22670463 0.11830831 0.072969265 -0.0694458 -0.060316175 -0.050308947 0.010234256 -0.0682748 -0.14587468
845 0.2510933 0.06551507 0.17644519 0.046475776 0.111019194 -0.014565924 -0.027015822 -0.15327443 -0.12378797 -0.20383157 0.29374477 0.22672844 0.016414933 0.14921759 -0.09103674 -0.060356513 0.23482113 0.04847163 -0.054489 0.08459756 0.05803199 0.12892483 0.042489663 0.013093919 -0.14254834 -0.072040014 -0.15460445 -0.099583566 -0.15683593 0.057078265 -0.013912341 0.086834714 -0.0068381815 -0.19431618 0.053704683 0.037219856 0.033767797 0.20873614 0.021783609 -0.15137248 0.23294485 -0.033938047 -0.14607023 -0.091771685 0.042547505 -0.18566008 0.2849831 0.07103898 -0.13700199 0.11752568 0.18656282 0.15499529 -0.018681005 0.15354764 -0.079762526 -0.23347913 0.11930122 -0.017528404 -0.23995832 0.20635065 -0.07276563 0.1982483 0.06549651 0.20001446 0.07022255 -0.15004018 0.2822979 -0.081198 -0.02978746 0.18216738 -0.13280313 -0.18986952 -0.14949805 -0.12462519 -0.060662493 0.1442125 0.08251255 -0.17730068 0.019761585 -0.07742989 -0.06409264 -0.048549633 0.16186334 -0.20734482 -0.014879833 0.11435612 0.06170054 -0.10190334 0.19847883 -0.03443796 0.018298795 -0.033919297 -0.092184156 0.114264265 -0.0659749 0.0062280893 0.13626258 -0.10477121 0.04677059 0.19423151 -0.044916213 0.23873024 -0.03320365 0.107252896 0.18735676 0.07065953 -0.12578836 0.07118063 0.013551148 0.16694233 -0.19504035 -0.18082088 0.20970532 0.025095958 -0.05963208 0.1305473 0.2858636 -0.026777714 0.018896772 -0.08762055 0.14647608 -0.07310096 0.09880031 -0.21430074 0.10615988 -0.09342079 0.12344389 -0.07795722
775 -0.09856259 0.03249804 0.043166235 -0.02927038 -0.09840041 0.077454805 0.1949692 0.18000434 0.06300696 0.096907675 0.15430291 0.2532791 -0.08109941 0.00250496 -0.046682894 -0.1904021 0.24102399 0.055485506 -0.06482045 0.050628383 -0.03710376 0.13722624 0.014618959 -0.16379952 -0.068470314 0.029518288 -0.128213 0.11891905 -0.13143246 0.19713762 0.16715029 0.06969968 -0.16661528 -0.032124717 0.13442908 0.3584374 -0.11899643 0.112140425 -0.007254373 0.006269378 0.052282296 0.03079671 0.05879191 0.00048748628 0.20364691 -0.12835751 0.11965312 -0.12862594 -0.04434396 0.102157354 -0.016563952 0.03596936 -0.04907702 -0.025772879 -0.11730393 -0.24648075 -0.13702364 -0.24614196 0.058824625 0.0765187 0.1928351 -0.05289018 -0.11948577 0.2352693 0.16904815 -0.23022959 0.068684906 -0.007428434 -0.0573217 0.21829662 -0.01331848 0.08514993 0.21713294 0.055388305 0.036829807 -0.030066552 -0.015452636 0.018411739 0.24633709 0.05704424 0.09098498 0.029754797 0.01290954 0.09772806 -0.059486426 0.21772106 -0.0071950755 0.043543097 0.18653658 -0.017483601 0.21692516 -0.2998933 -0.0056730355 0.07207846 0.11599833 -0.3037749 0.07756415 -0.02909541 0.019619556 0.26177192 -0.20305891 -0.041555915 0.022387287 -0.11105224 0.1142545 0.23897833 -0.078833446 -0.04070749 0.00011017553 0.041833684 0.09403276 0.10944084 0.28432554 0.094697155 -0.07765297 0.040760983 0.14034225 -0.076890625 -0.035401303 0.030000629 0.028215263 0.03207556 0.043239597 -0.13629398 0.06281685 0.100593485 -0.0016504085 0.14177637
