1917 128
1216 0.06023917 -0.145207 -0.07302636 -0.20621745 -0.105317116 -0.22977446 0.028165318 0.35951397 0.014198296 0.1800753 0.05321829 0.15369205 -0.30751634 0.15867752 -0.20049782 -0.0050692754 0.21915156 -0.030220777 0.3142778 0.09136944 0.40019888 0.06811246 0.0129814325 -0.034092538 0.1732714 -0.064379536 0.031654425 -0.023725193 -0.06863388 -0.16592705 -0.016753621 0.2773187 -0.14535812 -0.10160843 0.27933726 -0.17174871 0.08592284 -0.052783042 -0.007444044 -0.059467293 0.15296175 0.15589872 0.21480025 0.0013307416 0.37579593 0.1626519 0.19315639 0.079036586 0.045705404 0.07061964 0.04436982 -0.10493379 0.14098856 -0.02758763 0.15602864 0.06220233 0.2603913 0.031710252 0.024879128 0.079191 -0.010859679 -0.07693682 0.18892011 -0.34781218 0.011147949 0.032994844 0.059002876 0.010450382 -0.038003903 -0.025191532 -0.038140718 -0.11330202 -0.04248314 -0.20912413 0.043234054 0.18554702 0.24730894 -0.36150688 0.20930651 -0.14464466 0.0573457 -0.020022832 0.077664115 0.4196865 -0.016433472 -0.011904649 0.035199266 -0.074379526 -0.0965135 -0.010574846 -0.034994733 0.02069286 0.22153664 0.011164499 -0.072321035 0.267167 -0.04282023 -0.05465355 0.23305836 0.0040588947 0.18200485 0.09666646 -0.07895951 -0.041317683 -0.006009796 0.016580477 -0.04943536 -0.1782779 -0.11411247 -0.04010403 -0.004346039 -0.0345608 0.07398543 0.04346779 0.11979893 -0.06797573 0.024050875 0.04383894 -0.1868609 0.11145159 0.12858102 0.0008542239 0.10696121 -0.138805 -0.229208 0.024951309 -0.43300265 -0.026601678
1433 -0.18086125 -0.1477982 -0.1428146 0.22091949 0.14650837 0.19798042 0.15974846 0.16891754 0.20161311 -0.008343477 0.108059175 0.050926793 0.25029054 -0.12699366 0.01172564 0.20199275 0.055659723 0.36046478 -0.027496709 -0.13136129 -0.18712147 0.044295356 -0.04668381 -0.037423447 0.08253426 -0.11575828 0.18539496 0.078928106 -0.032623842 -0.0229621 0.044341363 0.0178778 -0.03645604 0.051766597 0.00911738 -0.11443868 -0.38619867 -0.09196702 -0.12527445 -0.089630604 0.14830686 -0.13723111 0.35201293 0.024776435 0.08356415 -0.14803463 -0.010743872 -0.015461583 0.09779438 -0.078977525 0.04718874 0.14476056 -0.028666645 -0.07489577 -0.09508387 -0.07905373 0.11562421 0.047683667 -0.23685381 -0.13351381 0.09430922 0.08306254 0.016938556 -0.15706603 -0.034813896 0.39928734 -0.061125133 0.12104027 -0.14631529 0.056891814 0.003951588 0.20980358 0.22486514 0.10926541 0.16380686 0.3330187 0.14816147 -0.42288873 0.29604137 0.099860184 0.19476537 -0.12948431 0.100815944 -0.16323894 0.30253395 -0.3601893 0.15749127 0.2968715 0.14732225 0.018967437 0.07406023 0.070854515 -0.06595137 0.014969988 -0.1805913 0.14187369 -0.0059206183 0.0844302 0.011207009 0.09044159 0.040011402 -0.14650793 -0.0833818 0.004998923 -0.23710062 -0.12644093 0.18432155 0.15302636 0.0014320454 -0.23762918 -0.07998577 0.0011124896 0.0689884 0.016655885 0.12015303 -0.07262526 0.21083349 0.021235758 0.23223267 -0.052929647 -0.17544127 0.1769158 0.50958186 -0.19661333 0.048691697 -0.05988899 -0.16300261 0.13777041
1837 -0.039143514 -0.016331213 -0.030579206 0.1241645 -0.10961209 -0.040275842 -0.07918247 -0.20944586 0.08115674 -0.0756772 -0.081751324 -0.019399872 0.008201922 -0.22525705 -0.04816055 0.02956584 0.32268348 -0.10799021 -0.105700225 0.16434112 -0.05853115 -0.08751871 0.0025926589 -0.06380436 0.1101725 0.14258347 -0.26671815 0.047256753 0.10543051 -0.15337302 0.032604896 -0.04069334 0.09387568 -0.045678746 0.06943217 -0.030054808 0.19939844 0.20984015 -0.15136664 0.029926777 0.09356055 -0.08418692 0.21454665 -0.029372172 -0.019628586 0.025226356 0.16900161 0.07875484 0.03213734 -0.30714446 -0.0034777753 0.23530868 -0.17604922 0.04392104 0.18497758 0.31316438 0.28033772 -0.15960273 0.051380914 -0.13210046 -0.008526858 -0.059068393 0.00849612 0.006364773 0.04149659 -0.07120862 0.17063217 0.22848344 0.2746951 -0.17645058 -0.005817025 0.091171406 0.25363922 -0.09075292 0.135241 0.043302126 0.11000255 -0.04571308 0.30064115 0.0744408 -0.054712713 -0.08174737 0.0044188895 -0.22398694 0.019608201 0.023206832 0.031209866 -0.06957884 0.03589358 0.1265991 0.22505508 0.35296413 -0.06502896 0.027040685 -0.08482045 0.15627204 0.054466598 -0.21309765 0.041964505 0.4308974 0.36435333 0.0069178455 -0.12339419 0.23516557 -0.054361045 -0.015788093 0.03816391 -0.3287449 -0.19657257 -0.051052198 -0.057996698 -0.14427328 0.06034406 0.012439625 0.1710574 0.13195458 0.28924975 0.18176128 -0.07598621 0.13641834 0.09858299 0.07738625 0.37005332 -0.012289278 -0.19940822 -0.049801618 0.11001448 -0.08510897
1357 0.13071287 -0.121969745 0.06523858 -0.21734852 -0.10778489 -0.12120051 0.04512911 0.21158129 0.10599636 0.10714482 0.1611149 -0.1584348 -0.06578346 0.03367639 0.12212202 0.17197672 -0.09183912 0.08856256 -0.0037417267 0.12160097 -0.048063304 0.025435908 0.21555455 0.111014485 -0.17387821 -0.17946903 0.13525212 0.113103874 0.11346677 0.018074268 0.342938 0.010624968 -0.13125312 -0.18383606 0.0618898 -0.028151304 -0.11718401 0.117495224 -0.37960806 -0.07712283 0.2768996 -0.2804304 -0.031389356 -0.14216222 -0.0019677903 -0.029439565 -0.015145352 0.110889666 0.23180442 -0.031060874 0.0130291 -0.059525583 -0.17314893 -0.17586781 0.11227307 0.016577931 0.27024508 0.07735411 -0.124238454 0.0058379187 -0.15091896 0.20296624 0.002581083 0.16284566 0.08304292 0.04845456 -0.15661721 -0.0027257768 0.14373572 -0.10000133 -0.0654541 -0.10449521 0.035035796 -0.090926215 -0.07422201 -0.08122621 0.013571413 0.06911892 0.24477415 -0.00037322252 0.15959638 0.07290519 -0.12785946 0.09627548 0.24137895 0.23547435 0.07424858 -0.13600677 0.0026852482 0.35270467 0.14094055 0.29258904 -0.07597507 -0.080897965 -0.14188933 0.18179856 0.039837174 0.10484477 0.06734626 0.29307416 0.033910055 0.14778982 -0.018559705 0.30457053 -0.1463926 0.1019115 -0.122422196 0.04487962 0.014201508 -0.07799967 -0.07527572 0.06154221 0.0014826657 0.17852694 0.28266457 -0.2505787 0.28169197 0.06843743 -0.079544365 0.008506175 -0.14271587 0.013391324 -0.018327955 0.022114256 -0.21967322 0.20802163 -0.21584988 0.061958566
1741 -0.05275761 -0.23841004 -0.16006726 -0.016213804 0.04580756 0.17277612 0.19509527 0.09298173 -0.11005971 0.28951833 -0.023310786 -0.027395336 -0.19123568 -0.105325036 -0.16935499 0.0028410875 -0.08000524 -0.0130265765 -0.17085232 -0.16031568 -0.13326328 -0.009838755 0.14919943 -0.053489868 -0.14975142 -0.15144502 0.06783062 0.10480952 -0.054210126 -0.06501233 0.3373294 0.043116774 -0.14116721 -0.14959244 -0.07949416 -0.052757513 -0.2662026 -0.06370347 -0.05904795 -0.1357842 0.12442545 -0.047771107 -0.036942285 -0.28584278 -0.19615346 0.0752652 -0.024695398 0.0980148 -0.0519149 -0.05738736 -0.13633014 0.1796549 -0.12963073 0.025735764 -0.09866286 0.06921531 0.19315071 0.061039615 0.20875269 0.0051986077 -0.07068766 -0.3178905 -0.02275761 -0.117121495 -0.046777215 -0.0022889858 -0.18149565 0.013536354 0.0883033 -0.10687294 0.11637047 0.048316754 0.018382011 -0.076372065 -0.121785685 0.074939534 0.17035568 -0.08375742 -0.046036858 0.056502968 0.4352542 -0.3281742 -0.036955148 -0.06928978 -0.023867112 -0.10492542 0.09270973 0.015329764 0.12121616 0.06442352 -0.10400445 0.11174992 -0.13547435 0.009706213 -0.36240342 -0.023181675 -0.17068778 0.094653666 0.16197915 -0.08051507 -0.062389273 0.03890396 -0.009456775 0.044118375 -0.119894736 0.059805643 0.17014146 0.07578055 -0.25654635 -0.10025477 0.036048923 -0.086342916 -0.17963374 0.20389618 0.16519059 0.2817134 0.13863628 -0.092561334 0.11721596 0.11217889 -0.053270023 -0.0717506 0.15587157 -0.04438873 -0.050603636 -0.32201293 -0.13401715 0.09498716
631 0.082768425 -0.2881021 0.057711277 -0.14383504 0.14628057 -0.04008408 -0.10105474 -0.036211345 0.018226704 0.046540365 0.047535423 0.15708795 0.010656766 0.15116094 -0.15664223 0.05376777 0.09028362 0.13297118 -0.01639243 0.040433325 0.07130167 0.07345181 0.23001555 0.019000817 0.017147744 -0.23358996 -0.10818057 0.32784143 -0.008230026 -0.016066054 -0.060732875 -0.10326796 0.063125156 -0.14426462 0.040762942 0.120053835 -0.004836761 -0.038890865 -0.054913916 0.18038936 -0.043629613 -0.16495326 0.007283353 -0.19110867 0.020808343 0.18583801 -0.0073148864 0.062928274 0.041465785 -0.12991491 -0.037610177 0.04069438 -0.08106519 0.32368842 -0.1922713 0.20897135 0.13430455 0.041639972 -0.19265701 0.007845188 0.07686219 0.105438314 -0.16288944 -0.06191055 -0.07633724 0.18607841 0.1172348 0.028364081 0.26413918 7.1545364e-05 -0.12413404 -0.15284732 -0.02772052 0.15429002 0.023422228 0.22710079 0.24391355 -0.17321873 0.19540639 -0.17411172 0.13796774 -0.23333186 -0.05278775 -0.14898914 -0.2001581 -0.22512695 -0.13442066 0.2528322 0.09777875 0.0025909669 0.0753295 0.15333211 -0.19687206 0.020137683 -0.0070196954 -0.19394939 -0.147121 -0.17045146 -0.04762419 0.081548534 0.08053855 0.20320894 -0.16798964 -0.045884024 -0.16576834 0.38161957 -0.15162213 0.21355546 -0.27048782 0.006559938 0.123269476 -0.034125745 0.10195157 0.063672885 0.18941046 0.05427437 0.067393616 0.07139775 0.082403496 -0.03188709 -0.24085203 0.40021068 0.29160437 -0.012524293 -0.020976111 -0.09929865 -0.03755828 -0.06656473
691 0.0337416 -0.04486244 0.047513444 0.07823648 -0.24989502 -0.08397005 0.009175134 0.21557623 -0.023432806 0.08433112 0.01999001 0.18026319 -0.4484876 -0.010158507 0.022638725 0.019109044 -0.0054429867 -0.08134085 0.064589694 0.19062467 0.34949416 0.028333135 -0.27781966 -0.01853176 0.092931174 -0.1950895 -0.15202379 0.060846537 0.024465244 -0.14914834 -0.033234086 0.049360722 0.07543072 -0.03437612 0.10314794 -0.13093948 -0.042654987 0.12519884 -0.20846581 0.0315918 -0.05932242 -0.09175343 0.0022182476 0.056903623 0.09691498 -0.19208188 0.07112522 0.06897592 0.11929867 -0.14973551 0.043190405 -0.029853296 -0.06157198 0.09086571 0.103091106 -0.018361803 0.25523227 0.08254962 -0.41977745 0.013721818 0.09518034 0.060022213 -0.14178939 -0.06602327 -0.041050084 0.04439973 0.039945986 0.03775851 0.17055476 -0.011907309 -0.20942421 -0.12984769 0.04483015 -0.18271215 -0.1823496 0.14518543 0.18594055 -0.11927688 -0.098691784 -0.023963945 0.12530851 0.22327812 -0.14866687 0.005481824 0.022048071 -0.16278519 0.2520131 -0.033360463 0.16400294 0.019510776 0.05654831 -0.04241532 -0.024410915 0.061501335 0.064046994 -0.06265505 -0.1926208 0.15688613 0.19989386 0.12476809 0.13075006 0.11398225 0.17900196 0.28378758 -0.41015518 -0.23864284 0.13553251 0.07161063 -0.010265316 -0.035352446 -0.21826181 0.019570595 -0.11912283 -0.05183429 -0.16968502 -0.14590289 0.17417304 0.27639085 -0.056686588 0.37784636 0.1635154 -0.21589577 0.29296064 -0.06331168 0.00063888007 0.105636396 0.034634076 -0.17242055
1050 0.04686832 -0.22625326 0.083440565 -0.22475296 0.17110921 -0.17453115 -0.15870225 0.2385909 -0.13523328 0.09772517 -0.07937875 0.1640673 -0.009033046 0.038698748 0.13912275 0.1724226 0.20570114 0.06914639 -0.19309495 0.12379998 0.09269484 0.06708082 -0.041632 0.033562057 -0.04568908 -0.008868209 0.20223057 -0.015644321 0.045866366 0.16621885 0.1455759 0.2776603 -0.24163389 -0.104810156 0.02324425 -0.056028955 -0.29587585 -0.035074256 -0.11033886 -0.02217058 0.149757 -0.30044696 0.09294062 -0.15010369 0.040322684 0.09861588 -0.05207742 0.043336943 0.15061009 -0.25287434 -0.060275655 0.30440274 0.15265888 0.31325847 0.12569816 0.15791379 0.3707775 -0.005196468 -0.39466295 0.24078833 0.17357151 0.11072164 0.12413505 0.12073028 -0.12524666 -0.082571834 0.19591603 0.4364048 0.095625535 -0.28012687 0.015163086 -0.062274784 -0.15266758 0.15727304 0.11187375 -0.0018709428 -0.10671442 -0.031837475 0.11784852 0.10676439 -0.3782612 0.07906153 0.0792682 0.17893824 -0.040918376 -0.10666193 0.09574936 -0.07703078 0.14884715 -0.022296729 -0.00849759 0.08592988 0.21450023 0.10482182 0.09913136 0.2206409 -0.33155784 0.07287362 0.04279686 0.12997653 0.25639918 -0.09176597 -0.12190406 -0.045030694 0.0071547674 0.11427643 -0.076949455 0.088942036 -0.0290999 -0.23685789 -0.12386778 -0.16688693 -0.11704818 0.023976043 0.13498704 0.19334444 0.026594058 -0.021889323 -0.028124468 0.19709164 -0.19999388 -0.047314607 0.06211572 0.19741057 0.12604974 -0.05672883 -0.090199575 0.18513502
2025 0.06318235 -0.3855941 -0.13181357 -0.029380776 -0.1199462 -0.059128 -0.17794089 0.14977401 -0.07071667 -0.004798176 0.17252512 -0.16931823 0.060230166 -0.24292064 -0.17628269 -0.14453696 0.07750048 0.052477904 -0.10587817 0.10621816 -0.07340452 0.08384019 -0.07621189 0.052503183 -0.038471974 -0.04467614 -0.032407396 0.07075797 0.23607399 -0.25039187 0.15549664 0.33889115 -0.1366161 0.064852476 0.054885574 -0.07662652 -0.11160463 0.3073745 -0.18633702 -0.18688789 -0.14483196 -0.08677477 -0.04337904 -0.14338712 -0.0033758816 0.10282635 0.13305417 -0.033439796 0.08363054 0.03950359 -0.062192176 -0.024909256 -0.16443016 0.19507818 0.14902556 0.059894763 0.091380745 -0.4188107 -0.045038782 -0.10714397 -0.15417276 0.20626596 -0.0971001 -0.14542794 -0.0978886 -0.21255004 -0.013782959 0.20746233 -0.041129023 0.16224414 -0.117196225 -0.110402934 -0.35570183 0.02047855 -0.02630728 0.2881693 -0.033790603 0.005515027 0.12847061 0.044780098 0.30217072 -0.035150632 -0.30897018 0.0677211 -0.23874156 0.061096318 0.14622203 0.0136941075 0.17003849 -0.05968754 -0.018881708 0.21303675 -0.066821195 0.010205439 -0.1522277 0.1316994 -0.101088464 -0.21689487 -0.13336441 -0.1268961 -0.18305343 0.060875557 -0.09253134 0.029855045 -0.24246764 -0.12218066 -0.1200504 0.039930042 -0.009830252 0.0011456907 -0.0039865184 -0.30573678 -0.058963694 0.09498948 0.07991837 0.11338839 0.19049668 0.07759882 0.15156868 0.0060363705 0.14604653 -0.062083222 0.16508788 0.02171963 0.026273003 -0.11090923 -0.23672745 0.10543152
1123 0.18773782 -0.024603367 -0.057743497 -0.06531564 -0.071447596 -0.051192604 -0.11041957 -0.037864614 0.062674806 0.07569769 -0.13541786 0.070496514 -0.4081916 0.1326858 -0.05922011 0.10774059 0.14032586 -0.030602429 -0.060515773 0.1953384 0.015771046 -0.049097985 0.023829572 -0.034507465 0.28351903 0.2561793 -0.050200064 -0.0057731145 -0.22540091 -0.06844285 -0.053670514 -0.13754363 0.3968699 0.047875937 0.174579 -0.054754335 -0.12817076 0.09417524 -0.051259104 -0.12802917 0.11268247 0.050481148 -0.06920247 0.014823603 0.13077357 0.035387382 -0.036639567 0.017505275 0.12408215 -0.2254502 -0.079294644 0.22478798 -0.1474602 -0.03143156 -0.11093619 0.022057071 0.25901014 -0.11332718 -0.07572935 -0.017177418 -0.09176221 -0.037942104 -0.21210288 -0.02965587 0.02566105 0.18280378 0.0988123 -0.00037437966 -0.036582556 0.10925955 -0.047776304 0.042331357 -0.106335364 -0.15247338 0.101173766 0.1957856 0.17088963 -0.1245868 0.08188519 0.042958405 0.42649662 0.12728779 0.0068932213 -0.2035867 -0.0636794 0.110718295 0.1347652 -0.0933855 -0.054885313 0.13866301 0.14683577 0.23430355 -0.108237326 0.08970571 0.0039512175 0.16544451 -0.023512304 -0.008271367 -0.096112005 -0.37252975 -0.06406452 0.06932825 0.07875893 0.2244532 -0.20957856 -0.002624466 -0.062263414 0.35107484 0.07593218 -0.13953525 -0.071404226 -0.097849905 0.1390161 0.19171812 0.12874737 0.12779203 -0.16688184 0.0866905 0.0014104559 -0.069480754 -0.4225897 0.084645696 0.045399215 -0.048757553 0.115798056 -0.15185317 -0.15134606 0.26543504
805 -0.027443578 0.11482669 -0.026463479 -0.08303605 0.11207838 -0.07871196 0.07851411 0.11675431 0.028213596 0.085587054 0.086804405 0.1464065 -0.11986291 -0.083864085 0.06976045 -0.19973165 0.07255352 0.17944607 -0.17927817 0.055628512 -0.17629904 0.18085922 -0.06685361 0.15121484 -0.13252056 0.07146328 0.011120289 0.16757518 0.0652114 0.111684345 0.21771252 0.08398012 -0.08055524 -0.05960606 0.043770794 0.32741222 -0.12557094 0.21332653 -0.121036746 0.17921312 0.106817424 0.04952517 -0.039995346 0.08408364 0.14408237 0.18823266 -0.030287376 -0.030460427 -0.23854162 0.08708793 0.09270309 -0.06425643 0.15223284 0.16948967 0.16372299 0.12803344 0.1398315 0.013665935 -0.19158642 0.31775224 0.07776978 -0.029606316 -0.06957641 0.015765928 -0.19302177 0.1954506 0.08414815 0.04599506 0.09289579 0.0795417 0.1953218 -0.097319126 -0.13223147 -0.16667016 -0.14018059 -0.0066666463 0.28261486 -0.17857333 0.009071344 -0.07426319 0.06677293 -0.02288091 -0.08508795 0.06191494 -0.13893081 0.21800222 0.0607657 0.119812965 -0.032860067 -0.05876968 0.18791474 0.17236234 -0.21045785 0.15188912 -0.21320346 0.04261765 -0.17374182 0.168125 0.0125472145 0.14733836 0.15970442 0.1080662 -0.052229583 0.21089758 -0.12082496 0.29812765 0.20630513 0.13128147 -0.09862682 -0.025992576 0.05486202 0.004144402 -0.10179625 0.030213881 -0.0006896567 -0.024980621 -0.03823093 0.095597185 -0.19144106 0.11859274 -0.017444776 -0.081116356 0.066367336 0.10224374 -0.262457 -0.074285366 -0.03011182 -0.17665231
1379 0.18818136 -0.2035936 -0.3489753 0.04554155 -0.013620007 0.20121944 0.10650805 0.027593995 0.0654505 -0.06967274 -0.09141601 0.111247 -0.14706947 -0.06327061 0.16249633 0.25949278 0.06391179 0.035209723 -0.14149842 0.36293554 -0.073987424 0.1744908 -0.29188892 0.28092942 0.022222692 -0.052735563 0.062098153 -0.39764062 -0.23213784 -0.22320062 -0.0152028715 0.09371744 -0.044684786 0.054564398 0.18752255 -0.0028289491 -0.11133773 0.018554492 -0.090436496 0.2745105 0.009399512 -0.11284288 0.14992754 0.026833342 0.08495466 0.12069505 0.16842666 -0.007871319 -0.23640308 0.12783456 0.06521965 0.21355756 0.13717547 0.024435272 -0.08236727 -0.035167657 0.2231562 -0.08349375 0.19786942 -0.11462163 0.09487414 0.18760051 0.09115849 -0.18828657 -0.010489128 0.2105231 0.06254451 0.22999264 -0.084960714 0.11618509 0.14490736 -0.037734248 -0.18849003 -0.25795832 -0.022081617 0.013918126 0.08432198 -0.3403198 -0.047613643 -0.06836491 0.25107995 0.013894937 -0.16687411 0.08891526 0.1481426 -0.14481589 -0.124063306 0.011271734 0.010623396 -0.14275259 0.09740875 -0.026877813 0.14840992 0.070312046 -0.05236043 0.16135153 -0.06837276 -0.10068283 -0.12612309 -0.022724083 0.085097045 -0.22543547 0.1589569 0.026724927 -0.17332569 0.20164539 0.010115329 0.021488946 0.09946602 -0.12464873 0.07134727 -0.32482076 0.1583862 0.031622935 0.092785425 0.30848444 0.15275946 0.02090843 -0.045466628 0.20701253 0.041638646 0.12272371 -0.094674245 -0.08162532 -0.26812488 0.14593302 -0.0060140807 -0.12632257
1337 -0.020521617 -0.095777854 0.028403372 0.08686559 0.09328311 0.03931266 0.119566396 -0.037203576 -0.067655124 0.013257589 0.20193192 0.006519231 -0.13274524 -0.08472283 -0.015201126 -0.12737887 -0.26831886 0.100338235 0.07073741 0.066094995 0.020452222 -0.14887437 -0.20457605 0.0651988 -0.013607466 -0.024120327 -0.19466314 0.18251646 -0.030985309 -0.010151498 0.26724958 0.06923184 0.05801198 -0.039281335 0.11662671 0.12836507 0.08066567 0.33973897 -0.17654033 -0.24441394 -0.14320973 0.20201218 -0.13248779 -0.040596217 0.31350577 0.20784993 0.10566925 -0.21399622 -0.0898203 0.100172274 0.14476436 -0.27717915 -0.21300182 0.025332358 0.16711949 -0.0598618 0.16204788 -0.19793308 0.09634245 0.004047603 -0.020385796 0.31846443 0.054971345 -0.18987116 0.088848 0.15225908 -0.07395091 0.15249555 0.012278005 -0.15982135 -0.23429789 -0.068039335 -0.18372178 -0.3022975 0.25480857 0.15210538 0.04683061 -0.2673821 -0.09004975 0.001302377 -0.043813303 0.017207934 -0.030424451 0.04087186 0.065521315 0.014066548 0.03867966 -0.023375476 0.27668875 -0.05865154 0.057127982 0.14925705 -0.06137981 -0.17981955 -0.017937465 0.02260172 0.032967698 0.31209564 0.19511618 0.099582605 0.23433541 -0.08478297 0.20277773 0.033774734 -0.04262935 0.17315283 0.0014314287 0.13157588 -0.38418928 0.10300383 -0.07254387 -0.00231309 -0.116243795 -0.0352808 -0.18274258 0.011126727 -0.014265501 0.1193885 -0.018056784 0.008177228 -0.20079124 0.18181193 0.38014805 -0.009407216 -0.20295665 -0.099331915 -0.05387108 0.3725676
993 0.33578002 -0.21447602 -0.23117696 -0.07437441 0.124976166 -0.08657343 0.26993957 -0.12856488 -0.22764313 0.12579799 0.21268018 0.4784265 -0.15987661 -0.11866591 -0.048278227 0.1368263 -0.12048235 0.16094117 0.074335106 0.09738364 -0.07846535 -0.29981914 0.011691214 0.084904455 0.07291609 -0.074397475 -0.23846644 -0.11273351 0.2573154 -0.13417637 0.07968549 0.014667074 0.14774686 0.20613858 0.13722306 -0.15754478 -0.15842138 -0.15467152 -0.15479764 -0.14418127 -0.039643828 0.014897922 0.21574974 -0.1638437 0.1445574 0.16912213 0.17810571 0.10546677 -0.17224453 -0.04141135 -0.082467586 -0.1610461 -0.29564977 0.06532963 -0.06554111 0.06806291 -0.09632033 -0.18378402 0.056438733 0.061757777 0.1540492 -0.21442099 -0.057955246 -0.031798095 -0.09716842 0.106671326 -0.043824144 0.20988867 0.09219944 0.051591318 0.009279945 0.1198489 -0.10311477 -0.15593168 0.029011214 -0.1715056 0.16302213 -0.41703373 0.04492953 -0.12615639 0.13104242 -0.09791528 -0.060918827 -0.107092984 -0.07463078 0.049197383 -0.22391608 0.047881253 0.27970213 0.14428371 -0.15647537 0.1307449 0.0023373617 0.2703453 -0.13188553 -0.048262395 -0.18179275 -0.21655655 0.01129601 0.08692589 -0.03457377 -0.14139841 0.0864904 -0.060908366 -0.2222739 0.190261 0.16762927 -0.15937637 0.028825805 0.0865947 -0.1316381 0.005061023 -0.2441903 0.044249248 0.18200952 0.07820144 0.1961213 0.12391113 0.04826596 0.0826497 -0.10005782 -0.12946232 0.026359966 -0.04533668 0.17849278 0.02626366 -0.30812454 0.114847235
1257 -0.046267197 -0.2330702 0.01979033 0.0585502 -0.07744104 -0.019075625 -0.087365106 0.25407776 0.1289018 0.026359184 0.054205675 -0.12771761 -0.19646013 -0.255737 0.11689927 0.13238785 0.12752573 0.19221213 0.1096104 0.07228522 -0.10677138 0.10745425 -0.046287205 -0.01950393 0.033382718 -0.12342691 -0.041367624 -0.27772805 -0.17791846 0.092563495 0.14215314 0.11692315 -0.25460982 0.08632026 -0.07493332 0.23297997 -0.14447977 -0.25967315 -0.15563796 -0.2573351 -0.2392719 -0.20917052 -0.10923227 0.18907686 -0.104373515 0.30892944 0.22018448 0.08125253 0.13381483 -0.033869192 -0.23371387 -0.010478076 -0.119656876 0.19923984 -0.09534579 -0.17629005 0.133209 -0.10412839 -0.09883766 -0.06494262 0.047171693 0.19827774 0.051383756 0.20296036 0.32681504 -0.019068474 -0.25242913 0.27382654 0.017094234 -0.062348876 -0.1523652 0.033956017 -0.043056995 0.10239167 -0.09274493 0.24438941 0.0027030518 -0.053951513 0.010684042 0.016411085 0.15961744 -0.106707774 -0.035506744 0.016537767 0.15893562 -0.14913182 0.3408698 0.11913171 -0.028446626 -0.14613059 0.41197896 -0.0070294435 -0.16107449 -0.018789971 -0.22615738 0.13406679 0.052548945 -0.011582996 -0.012076738 -0.041802667 0.20132315 0.20420364 -0.028889786 -0.05290367 -0.04267581 0.04328894 -0.0813561 0.33140323 -0.16795838 -0.046836294 -0.3062547 -0.051540487 -0.08772772 0.16107088 0.047593776 0.02280081 -0.1323283 -0.03554422 0.267122 0.100213334 0.038577303 0.12097692 0.2804677 0.039115395 0.007924957 -0.08825333 0.057284806 0.009935711
898 0.048593294 -0.01797459 -0.002457348 0.13823302 0.0029211135 0.011563841 0.06782472 0.19270532 -0.063600145 -0.12395737 -0.016782269 0.027522676 -0.19270794 -0.06481302 -0.020912204 0.07750236 0.20378447 0.21836837 -0.17561716 -0.107082486 -0.038023755 0.22315913 -0.040049966 0.007590594 0.104391284 0.03556069 -0.2568066 0.04461417 0.09142956 -0.08423173 0.25343105 0.03654962 -0.17168428 -0.07001523 -0.04623695 -0.084659055 -0.023916138 -0.14501694 -0.36634716 -0.14929591 0.22886167 0.2457675 0.059510343 -0.11945896 0.22418311 0.17466176 0.115619846 -0.21231529 0.041660737 0.004189444 -0.02773131 -0.14978467 -0.11055432 -0.05980275 0.068412095 0.2556451 0.1502852 -0.12446197 -0.2441407 -0.08434718 0.19481426 -0.021534756 -0.03782838 -0.049684864 -0.011652969 0.12712374 -0.093007766 0.32571125 -0.14561588 0.13288397 -0.062507436 -0.050400868 0.2155798 -0.06434754 -0.019364884 0.058515865 0.062367093 -0.038093306 0.04007536 -0.3038769 0.087451555 -0.18688656 -0.03991562 -0.24962233 -0.07733742 -0.11127375 -0.023115197 -0.08832829 -0.13165519 -0.034406114 0.237667 0.18148585 0.04833253 0.056652315 -0.11854096 0.3095428 0.016789794 0.16544238 0.016924001 0.21472566 -0.047538802 -0.17853259 0.12680002 0.1814153 -0.12470403 0.1724744 0.0573503 0.13242064 -0.22847009 -0.06589384 -0.007642918 0.038631026 0.12746163 0.17301564 -0.017830491 0.1181399 0.011382709 0.083403945 0.025634347 0.10752213 -0.00386469 -0.01084556 0.22843955 -0.08107827 -0.13722487 0.18836857 0.18395051 -0.19140658
1494 0.106145665 -0.09602478 0.19752502 -0.07290666 0.17166997 -0.13800742 0.36296862 0.09061373 -0.04883095 0.056793213 0.0026247976 0.2558098 -0.03061785 0.069358036 -0.16304277 -0.030966682 -0.12071775 -0.13165955 -0.28837708 -0.14162163 -0.06339385 0.15987597 -0.14716975 -0.04272055 -0.035340127 -0.068967536 -0.071872145 -0.29405212 -0.27213854 0.13088168 0.050776254 -0.09750348 0.061901398 0.07103896 0.16790406 0.050495043 -0.024708895 0.25426707 -0.26085478 -0.044353317 0.14673708 0.0044381428 -0.16413322 -0.06217897 0.16040228 0.20105474 0.25080106 0.20567483 0.005284814 -0.3157271 -0.19967185 -0.121767074 -0.010131935 0.16183248 -0.02684853 -0.09257688 -0.07160138 0.107365645 0.16456418 0.015983848 -0.10163284 0.33467144 -0.053256437 -0.098432794 -0.036192004 0.30115217 -0.08621221 0.2862506 0.030736737 -0.028030258 0.21129508 -0.04485232 0.12470168 0.20240763 0.04352829 0.16830349 0.1077633 0.12928505 -0.014698712 -0.18861172 0.08942713 -0.15974429 0.2086223 -0.09604473 -0.20242104 -0.15453671 0.096471794 0.1702853 0.041544545 0.2242829 0.14454338 0.37050244 -0.03522524 0.27078912 -0.04505755 0.3504463 0.096390374 0.120147735 -0.1026067 0.050426878 0.108117715 -0.17688003 0.06187848 -0.10225065 -0.1683511 0.18580085 -0.015531814 0.15790217 -0.11788786 -0.010312945 -0.22367623 0.016094308 -0.20746192 0.01483693 0.15858229 -0.07300673 0.08376779 0.11852586 0.030602647 0.3980654 0.0018858515 0.118860096 0.23376785 -0.14521584 -0.15670109 0.17742686 -0.06852314 0.11943149
2240 0.18212102 0.081399575 0.11064336 -0.20678368 0.076261304 -0.13185874 0.2954346 -0.09206399 0.00022045088 0.027768116 0.107357986 0.12119609 -0.15974174 -0.16879341 -0.20077619 -0.122247815 -0.034773987 0.10360117 -0.108287156 -0.11816629 -0.0024942323 0.053014763 0.28057414 0.30512366 -0.17096375 -0.025755655 -0.03408689 -0.06826703 0.10659343 -0.12620792 -0.0135982055 -0.015353721 0.17264396 -0.10555473 0.2031289 -0.08354953 -0.061112758 0.113158375 -0.09613069 -0.026393842 0.24185418 0.27102402 0.17906737 0.05411549 -0.22011043 0.08519779 0.15041217 -0.09313184 -0.25771785 0.032929897 0.121582456 -0.062771544 0.04789193 0.13391069 0.21981025 0.07438894 0.19821182 -0.034827653 -0.323463 0.06599082 -0.1490192 0.053702872 -0.22543615 0.13031185 -0.27644333 0.188504 0.1591018 0.04676975 0.14227264 0.058218013 -0.17184517 -0.21671095 -0.03118658 -0.07408974 -0.13862936 0.17556094 0.10771744 -0.25382224 -0.05271295 0.41794223 0.013857339 -0.13687322 0.091574095 0.28413793 -0.0059002168 -0.36586693 0.18551016 0.107572034 -0.11117749 -0.027589973 0.09225102 0.12996228 0.019540427 0.016202573 -0.34895355 0.24916537 -0.07246456 -0.21467051 -0.28718007 -0.002053531 0.050644737 -0.24207819 -0.029215153 0.4082471 -0.0038743112 -0.07083346 0.1516385 0.023096824 -0.18742804 0.002968277 -0.2761837 -0.14369956 0.016550535 0.11008742 0.11115082 -0.15571547 0.18492502 -0.02255287 -0.007927438 -0.10382416 -0.012806981 0.074412726 0.14124419 -0.06422174 -0.015333282 -0.11149431 -0.21582566 0.10946513
1165 0.12034699 -0.03046623 -0.042860266 -0.17186365 0.050775092 0.21630445 0.074438035 0.10876146 -0.03636506 0.21059836 -0.020906897 0.15006806 -0.47715986 -0.36839953 0.13469277 0.14778481 0.24894515 0.10503382 0.14410575 -0.086317904 0.0207559 -0.0046731485 -0.33213392 0.25310555 0.060627855 0.21144436 -0.11031682 -0.011490705 0.08323794 0.26895866 0.18687715 0.017287813 0.37500387 -0.033318672 -0.058209438 0.29494402 0.015474175 0.043090504 -0.3494254 0.11736772 0.37596354 -0.05958325 -0.0026895867 -0.054785684 0.13223326 0.09629051 -0.26415044 0.08688979 -0.01561342 0.019669801 0.16039683 -0.06597213 -0.037453655 0.25766215 -0.19829546 -0.010717518 -0.041084558 0.19077818 -0.14588946 0.11638931 -0.2776498 -0.11369155 -0.010549683 0.050425563 0.1952281 0.2893105 -0.19283593 -0.015583848 0.15420535 0.24417602 -0.006142311 0.010216079 0.22620398 0.028671043 -0.1929338 -0.05596822 0.2588118 -0.06956498 0.11861312 -0.12255074 0.32587403 -0.09751164 -0.10969069 -0.004166754 -0.07810031 0.17308275 0.040002495 -0.06854697 0.16869223 -0.14083913 0.26203448 0.17859805 -0.14444833 0.19981663 -0.18721287 0.3244195 -0.08090099 0.2363115 0.15117556 -0.13068834 -0.014682946 0.04792655 0.041874595 -0.12107228 0.13237742 0.046960097 0.058590695 0.082198404 -0.1167976 -0.0020309265 -0.12080642 -0.12435602 -0.244655 0.29280725 0.07737892 0.17437635 0.13995129 0.13380726 0.054857712 -0.112689085 -0.009321606 -0.12562557 0.001340186 0.09664826 -0.09656055 -0.014795059 -0.12602755 0.15958804
610 -0.08781914 -0.22057205 0.04153673 0.03180124 -0.110327825 -0.23328425 0.04907204 0.09479541 -0.11823516 -0.04616264 0.10974484 0.26342708 -0.09409629 0.074138716 -0.0569094 0.14880075 0.13003641 -0.041653376 -0.08213111 0.19647919 0.010929792 0.07567963 0.093706414 0.051307205 -0.031020671 0.021986278 0.18608163 -0.13036317 0.08081386 0.094912045 0.15640898 -0.13046351 -0.15109456 0.08056933 0.008504878 0.17863105 -0.16255914 0.16584504 -0.2942 -0.003664016 -0.046324898 0.099739514 0.021210358 -0.07795809 0.061592158 0.14735119 0.26900506 -0.054503057 0.25831923 -0.18543789 0.01733826 -0.009029816 -0.02295054 -0.3288323 -0.023753941 -0.045879517 -0.033286396 -0.24642321 0.05846157 0.11058968 0.106010646 0.19879776 -0.12632443 0.047737174 0.10154386 -0.034931354 0.059850138 0.011618646 0.2714821 -0.07462336 -0.13133426 -0.06228926 0.038651884 -0.119725525 -0.11882088 0.1712148 0.13578103 -0.18583372 0.036500797 0.12066018 0.16848187 0.19494288 0.2759553 0.013732774 -0.27969155 -0.00965157 0.06980034 0.051643167 0.13157989 0.16212818 0.08745428 0.062328298 -0.10307135 0.01690839 0.026571205 0.19458427 -0.11315517 0.08384118 -0.09649286 0.018139195 0.08814529 -0.07905176 0.20885825 -0.13918863 0.116522126 0.21926522 0.07281187 -0.009847122 0.11163107 0.08514753 -0.16638725 0.016817579 0.007884727 0.22251277 0.013054052 -0.023094034 0.030236583 0.02918898 0.09498149 -0.10331379 -0.03739438 0.1816446 -0.03691288 -0.21206836 -0.27238885 -0.32026908 -0.21718083 -0.017526846
950 0.012940565 -0.17343646 -0.057591148 -0.053506833 -0.089547954 -0.083094604 0.060801573 0.06491126 -0.02893854 -0.12881589 -0.022954764 -0.07027681 -0.2781493 0.10380736 0.007370264 -0.064992405 -0.21132416 0.09494999 -0.2556974 0.063343644 0.07321865 -0.07717002 -0.13607493 -0.01026199 0.04022294 0.14837149 0.0733239 0.052773293 0.12333089 -0.020081107 0.11375724 -0.022109004 -0.060453396 0.03558454 0.098399304 -0.16277632 -0.1208085 0.22357175 -0.15602246 -0.032905687 0.14313576 -0.13950388 0.13445085 -0.07569991 0.029106645 -0.09870125 -0.079152405 -0.17934495 0.18149161 0.018524462 -0.29904944 0.26544148 -0.21221712 0.02101529 0.096614756 -0.09152683 0.05103038 -0.003698386 -0.15739195 0.0104954885 -0.38192695 0.1508088 -0.09214076 -0.047760632 0.044589054 0.007302041 -0.052332807 0.17072785 0.035494696 -0.11029352 0.057922155 -0.14251359 0.07535899 0.05808487 -0.17320013 0.027794486 0.08787575 0.0114184255 0.06954177 0.024373762 -0.20675959 0.0075636553 -0.22524239 -0.10647057 0.040420484 -0.06907763 -0.13703126 0.16125235 -0.13191603 0.08877282 0.25702977 0.27343476 -0.15364544 0.15358187 -0.15330355 0.102699704 -0.12763888 0.021413391 0.11681203 0.17020145 0.094844244 0.17758532 0.07661619 0.07656653 -0.109813616 0.063642554 0.043739554 -0.018407485 -0.21388596 -0.13670394 -0.052963633 -0.115938105 0.0022039989 0.15792686 -0.19758062 0.1214144 0.23433791 0.015613176 0.13690594 -0.0051528723 0.022885274 0.05060963 0.19337738 -0.17507781 -0.02366111 -0.07124257 -0.36688358 0.0795991
1695 -0.035294484 0.073145926 -0.20905574 -0.087926626 0.28401634 -0.3186305 0.16663261 0.18533902 -0.017382154 -0.0780146 -0.03714493 -0.033325333 -0.28492296 0.15121154 0.05738425 0.005113933 0.07940113 0.0600851 -0.12967141 -0.14036703 -0.096026376 -0.13942675 0.11592793 -0.041446663 0.03792046 -0.22916988 0.11422773 -0.0010289908 0.008902855 0.13807677 0.28197202 0.119923785 -0.067247786 -0.07286354 0.26238143 0.10846086 -0.0976336 0.15496722 -0.14584018 -0.029669903 0.045510422 0.051454507 -0.24420978 0.33603257 0.010009797 0.031323258 -0.026561864 0.0630037 0.16991843 -0.028710105 -0.08002124 0.24796763 -0.06542975 -0.09475328 -0.15433396 0.009727929 0.29319927 -0.07824569 -0.069708005 -0.04332371 -0.16176353 -0.095303394 -0.006937554 0.029860135 -0.05883764 0.0008450927 0.0074346648 0.10229232 -0.11031151 0.020817917 -0.14970966 0.0197969 0.039919347 0.1561044 -0.08774735 0.06404903 -0.06772039 -0.23899743 -0.0095656905 -0.26836643 0.051490996 0.27275932 -0.0012840052 -0.13801175 -0.24808228 0.018445367 -0.024524892 -0.026100742 0.16361912 -0.22740822 0.1466862 -0.05643453 -0.04201203 0.1630259 0.052775923 0.30560666 -0.18951482 0.017734548 -0.20580551 -0.04176069 0.055277362 0.074389026 -0.06410198 0.03225033 -0.10641848 0.24010049 0.022619974 0.03980733 0.0043216324 -0.08145263 -0.34780157 -0.014931066 -0.094366744 0.27787167 -0.050432432 0.10772191 0.20024283 0.08521206 0.14280783 0.15219678 0.042815525 0.06327402 0.34820536 -0.15703806 0.0417813 0.01612649 -0.063309476 0.036776513
1054 0.15133387 -0.22861929 -0.18032975 0.07905318 0.09436822 0.23809682 0.16572428 0.19446954 0.09029894 -0.026098493 -0.26149318 0.15533692 -0.1515865 -0.12374606 0.0012444056 -0.0349048 0.046220794 -0.107180916 -0.31012303 -0.0314127 -0.291094 0.10187864 0.01763286 0.0011221458 0.07337927 0.058038034 0.08143985 0.19318761 -3.968116e-05 -0.08009711 0.06764684 -0.12886572 0.113195404 0.013428137 0.04118756 0.009190159 0.041888077 0.012091616 -0.1012437 -0.1825728 0.15016903 -0.10441578 -0.14108446 -0.15011893 0.13573653 0.22539759 0.10457328 0.04605283 0.047050465 -0.026942926 -0.23192246 0.1523222 -0.09017787 0.014036762 0.196863 -0.16223954 0.21707907 -0.2619586 -0.03281749 0.1347754 -0.11508054 0.13041607 -0.1060313 0.15939558 -0.012494351 0.2918449 0.0022739987 -0.066942856 0.11431377 0.07342447 -0.102463506 -0.06748635 -0.055489186 0.047795393 0.21428858 0.11005141 -0.03445038 -0.117297836 0.16833411 0.059055682 0.16067217 0.01861993 -0.26501793 -0.16318332 -0.27024734 0.027424742 -0.03881553 -0.08487296 0.10130975 -0.15853539 -0.018610492 -0.114012286 -0.010629988 0.20009126 -0.07633193 0.1593626 0.036349107 0.1133536 -0.030954799 -0.030581398 0.18134855 0.15625659 0.18167682 -0.011837672 -0.1749323 0.063256994 -0.22329651 0.27702418 0.079586685 -0.053023487 -0.09076266 -0.29151747 -0.402901 0.2346438 0.27331707 0.16953449 0.07285839 -0.05848475 -0.16690841 -0.33598137 -0.043240186 0.10381427 0.019697452 -0.015971519 -0.09966035 -0.1425172 -0.11792533 0.20038965
1522 0.10730112 -0.13288881 -0.23503794 -0.119520694 0.06736789 -0.23558833 -0.033031043 0.08754149 -0.17509362 0.21388647 -0.029353011 0.22044721 -0.041518033 -0.0764215 -0.25871193 0.036145106 -0.11206955 -0.16389632 0.035610117 -0.03125539 0.1622519 0.025199719 -0.06190315 0.14821842 0.08773999 0.26000538 0.24354193 -0.0047288137 0.09797898 0.07063297 0.13618283 -0.106032245 -0.20472836 -0.04897911 0.10396777 -0.04306423 0.08935332 0.07966679 -0.38290912 -0.029992195 0.06836642 -0.0363235 0.11694974 -0.04224392 -0.23122616 -0.032742612 0.09845685 -0.06816301 0.1763686 -0.1874326 0.012832522 0.08176425 0.014290358 -0.014799928 0.04352879 -0.105780624 -0.050070126 -0.19671771 -0.14106055 -0.17197357 -0.06381687 -0.0070331926 -0.13318026 -0.17056347 -0.07698908 -0.030865781 0.2364834 0.0932526 0.058566358 0.02947386 -0.09144765 -0.10166528 -0.033680618 0.10461572 -0.069553964 -0.016962422 0.2507914 -0.36569434 0.02060075 -0.07661449 0.12777796 -0.2597422 0.19171782 0.15990762 -0.3522844 -0.08298415 -0.19923733 -0.059179656 0.011626171 0.07297407 -0.001876176 0.11590562 -0.11528036 0.19483462 0.03669366 0.24066377 -0.06326658 0.070110865 0.038230322 0.30742046 -0.20114596 -0.12306996 -0.017695379 -0.038833763 -0.177236 -0.15133579 -0.1475901 0.3577711 -0.26134783 0.055575117 0.04488601 0.14157067 -0.12078467 -0.17257348 -0.04309832 0.105248675 -0.089286685 0.19503102 0.24080487 -0.098864704 0.1908738 0.041153807 0.0677852 -0.06184865 -0.20590077 0.05862845 -0.24071634 -0.030508528
1186 -0.08321913 -0.2212354 -0.03830845 0.019272817 -0.10036359 -0.108468674 0.018703163 0.14155827 0.034400366 0.086710796 -0.054177165 -0.14091396 -0.25396374 -0.057514496 -0.20897968 0.10947164 0.083796114 -0.052701034 -0.08693888 -0.06748803 -0.0098426705 -0.27635813 -0.20077525 0.17975527 -0.14706467 -0.13634712 -0.25909656 -0.05762465 -0.1185492 -0.025805198 0.05124259 -0.08217872 0.14935982 0.013866852 -0.028567415 0.08266051 -0.22541107 0.0032328963 -0.11262544 0.08574357 0.214718 -0.122408696 0.22132586 0.019143116 0.09813501 0.021471687 0.21134305 0.030406632 0.0025670072 0.044617865 0.08516154 0.033278193 -0.20521703 -0.048045665 0.2177386 -0.017966665 0.13912565 -0.22209938 0.014438381 -0.11866943 -0.04157048 0.064473145 0.028399613 -0.008378162 0.12966104 -0.010535465 0.22164331 0.18298088 0.30656967 -0.049816985 -0.24823289 -0.10640593 0.1589709 -0.12300855 -0.024688063 0.0685781 -0.057248145 -0.11010517 -0.0023542217 0.092060044 0.17054775 -0.21637033 0.09250169 0.026913166 -0.27126804 -0.016210299 -0.050080948 0.066057645 -0.14595552 0.04164394 0.0227088 -0.14894405 0.22620669 0.035665844 -0.12998778 0.08723844 0.105844386 0.26191252 -0.027730327 0.03197349 0.064638905 0.123707406 -0.17643234 0.031769305 -0.28442022 0.18374191 0.13668497 0.002991472 -0.20949446 -0.020687003 -0.03811046 -0.21527304 0.21054415 -0.01884067 0.16038394 0.1276536 0.29217678 -0.04275587 -0.17189962 -0.0832714 -0.1657501 -0.04827654 0.319128 -0.04011649 -0.24894555 0.22122627 0.0032121101 0.10105671
1914 -0.024122098 -0.13631284 -0.35483667 -0.09674983 0.09313167 0.053375352 0.30668172 0.11641163 0.031052293 0.001193349 0.06506232 -0.009157131 -0.4583078 0.20325552 0.0014144458 0.03297144 -0.12992011 0.035894405 -0.24959159 0.014300608 0.18677552 0.027905976 -0.21059811 -0.12761536 0.09034522 -0.21429609 0.202025 -0.026211072 0.0071230615 0.17126532 0.12078559 0.007273599 -0.0063189506 0.09447408 0.10205652 -0.0036542788 -0.29397067 -0.03021612 -0.3219883 -0.040454507 0.05193798 -0.023657802 0.2721346 -0.03483113 -0.059527438 -0.07591154 0.1613753 -0.04847417 -0.074215755 0.029240932 -0.09663702 0.006162983 0.045663513 -0.121209875 -0.058184702 -0.093943805 0.18334138 0.16829367 -0.060215715 0.2153547 0.100160755 -0.007195214 0.013457162 0.015013155 0.027739976 0.08600191 -0.109584294 -0.12857485 0.07698791 0.27589387 -0.27050254 -0.32328466 -0.1976051 -0.08472884 0.17563684 -0.06914744 0.37529728 -0.19936205 0.11429195 0.20249109 -0.109011054 -0.14009808 -0.20608404 0.020531157 0.16554561 -0.051489353 -0.0055527943 0.23971725 -0.16292553 0.18937224 -0.060222972 -0.019588437 0.22420484 0.08703842 -0.13052829 0.014068476 0.019688878 0.2140685 -0.051839065 0.24715471 0.19744009 -0.21459724 -0.15530512 0.24493715 -0.08723994 0.20972686 0.03299887 0.013276359 -0.34651586 0.16296369 0.037778985 0.096902795 0.17307363 0.24095589 -0.15116781 0.28064552 0.18740664 0.015313704 -0.08003495 0.025709154 -0.048652727 0.30928817 0.1436513 -0.10142281 -0.07384887 0.054150548 0.16965556 0.3376785
1049 0.07049942 -0.39033565 0.085097276 -0.06461694 0.019711416 0.013799735 0.28444427 0.009729232 -0.30341643 -0.08186101 0.18672559 0.0027981368 -0.3100651 -0.4364176 0.00572226 0.111425005 -0.07030902 -0.20026815 -0.09335317 -0.02704181 -0.095113456 0.02697437 0.17688441 -0.010845916 0.22851792 0.03896265 -0.012953669 -0.038674053 0.0669993 -0.04984517 -0.070361175 0.018611478 -0.052315537 0.22125195 -0.042659868 0.014950971 0.16389483 0.087035246 -0.025732504 -0.1917934 -0.13801192 -0.1847691 0.13895665 -0.0680115 0.14458744 -0.033739526 0.12498749 -0.016909156 0.035015743 0.15149201 -0.16477048 0.029263409 -0.071436025 0.19740155 -0.014309432 -0.04200796 0.16432954 -0.07392087 -0.118627295 0.087772205 0.17768893 -0.11054815 0.0917659 0.04785295 0.049278356 -0.001065546 0.2844935 -0.09327019 0.044553112 -0.058012668 0.031617045 -0.11497685 0.055162985 -0.03909372 0.0718672 0.086229585 0.013113629 -0.26811162 0.095543355 0.048795715 0.1568191 0.08963245 -0.19329418 -0.10513182 -0.17776679 -0.032786436 -0.056723204 -0.004471161 0.14046642 0.031866547 0.07685929 0.26163656 0.0663565 0.2525106 -0.10612367 0.12624222 0.027612535 0.036125723 0.1572763 -0.27172717 0.05622483 0.08010516 0.010315679 -0.14970478 -0.11627483 0.31510565 -0.061575737 0.1808736 -0.0006938937 0.016776448 -0.42754135 -0.071887136 -0.08750267 -0.07864529 -0.122260846 0.034497023 0.026734293 0.1617567 0.010597181 -0.16438328 -0.10925242 -0.058043797 0.06759185 -0.14973001 -0.12925898 -0.41452676 0.17876315 -0.16602847
1080 -0.12490716 -0.17259103 0.069555454 -0.053705364 0.003030912 -0.1310082 0.1336621 0.08568465 0.16682099 0.007318708 -0.10116586 0.033839736 0.1304049 0.13113882 -0.05259548 -0.01006981 0.060467567 0.010625496 0.116238 0.24418597 -0.34982306 -0.048020557 0.1804522 0.031828973 0.011617389 -0.2561419 0.119823344 -0.13426901 0.14885266 0.16221607 0.24523151 0.022167066 -0.14216542 -0.24449004 -0.0735969 -0.06335904 -0.0059770523 0.2646887 -0.06170831 -0.02287719 0.040979642 -0.098083094 0.11955635 0.064773984 -0.1451081 0.26887974 0.013388457 -0.108059876 0.008512643 -0.058186997 -0.025549611 0.11695974 -0.07345696 0.047523383 -0.08862626 0.05872297 0.065180205 -0.2504997 0.08256627 0.002797157 0.0046229973 0.3337945 0.058296736 0.15119372 -0.13903698 0.037919074 0.2864284 -0.15457489 0.030519132 0.06339408 -0.20228767 0.05854662 0.19352685 -0.053287283 -0.07667099 -0.15474054 -0.0029351315 -0.3396062 -0.15038714 -0.17374077 0.22299054 -0.025618808 -0.08867892 0.18433663 0.011487694 0.10143537 -0.13844573 0.021551058 0.087043844 -0.06768161 0.09190044 0.120600276 -0.10478996 0.13373476 0.058209218 0.11137149 -0.27249357 0.23273958 0.12238333 0.17713094 0.023567623 -0.19420679 0.013551265 0.028535513 -0.19915481 0.06071436 -0.16677569 -0.036793478 -0.042312756 0.15182433 0.013083381 -0.08804073 -0.060213733 -0.056332584 0.0015347541 0.26612243 0.048505064 -0.051578328 -0.024966301 0.07393776 0.07266744 0.18188685 0.09148765 0.024438342 -0.36854458 -0.32374015 -0.14545341 0.06461813
735 0.05280147 -0.14155075 -0.17542216 0.039683383 0.055213157 -0.2398505 -0.059340272 0.123209834 -0.044659104 0.013471235 -0.0054388964 0.1199387 -0.32176566 -0.27892637 -0.28310567 0.09183961 0.15732129 0.24315454 -0.1826715 0.10319316 -0.076312795 0.0073181954 -0.15807892 -0.099643014 0.020007845 -0.23044378 0.16579981 -0.040397536 0.03709217 -0.19059731 -0.11734557 -0.07391523 0.1090995 -0.052666392 0.04717091 -0.102821134 -0.2680812 0.013424904 -0.10743506 0.047532044 0.008887703 0.055795718 -0.08069149 0.19000968 0.17205201 0.1950793 0.12904784 0.06511428 0.4108236 -0.2640981 -0.026674623 -0.040034104 0.04393757 0.19925162 0.31817684 0.015152058 0.15411575 -0.03253111 0.031961612 -0.11940874 0.12588537 -0.13817057 0.020452552 0.01934552 0.096070975 -0.14617135 -0.16530937 0.1287082 -0.21538326 -0.19276993 -0.046049863 -0.10957944 0.027986674 -0.19345501 0.061041016 -0.027010707 0.078582264 -0.25249365 0.05685701 -0.13397032 0.3191351 0.10184602 -0.08128841 -0.057502452 -0.094242826 0.12483791 -0.06937152 -0.26545438 0.0050944886 -0.13019252 -0.22585575 -0.014046193 0.07024913 0.028706184 -0.0022730231 0.084804885 -0.21536237 0.10149177 -0.03405337 -0.035010826 0.19785626 -0.012269758 -0.19715004 0.04461438 0.05985114 0.102150135 0.052301448 0.08236951 0.12886237 0.062246736 -0.07621635 -0.22436081 0.008558674 0.12802893 0.07882226 0.20126288 -0.056347955 -0.023174686 0.13846037 -0.11571427 -0.08800419 0.006417809 0.20099533 0.13535956 -0.22557454 0.007372316 -0.073341385 0.021210974
2256 -0.08025334 -0.25305286 -0.07250594 0.044012867 0.013226112 0.123188876 0.18441987 0.29285416 0.08124102 0.00934402 -0.035571057 0.10529373 -0.17593104 0.0929106 -0.0033979432 -0.027978852 -0.015472334 -0.18408386 0.0684449 0.36744863 0.064202376 -0.119078055 0.2681377 -0.10078864 0.03111925 0.09863193 -0.14003007 -0.15202726 -0.14032069 -0.09814507 0.16876234 0.25409994 0.0957848 0.06544021 0.22338594 0.015220955 -0.071782626 -0.0621327 -0.24837308 0.20855942 -0.19117796 0.022371028 0.083359145 0.08085296 0.14017206 0.048974555 0.12732679 0.020306785 0.098989196 -0.23982015 0.21899132 0.05162142 0.08990413 0.1294427 -0.09376276 -0.01565167 0.1737283 0.09079501 -0.14646658 -0.10534735 -0.03164884 0.10824478 0.24608617 -0.13625506 -0.21030903 0.2173201 0.1724527 0.11440446 0.09243738 -0.25072718 0.098550476 0.121425316 0.14677216 -0.0048586633 -0.16296995 0.13852559 0.07298121 -0.051070333 0.011748709 0.26863527 0.03983596 0.11305034 0.33822137 -0.35726327 0.11144313 -0.20869748 -0.17878333 0.009349192 -0.08055483 -0.0783293 0.070883565 0.17342797 -0.05111593 0.24533872 -0.16376013 0.10908451 0.057196327 -0.10996158 -0.021582723 0.058388755 0.16259079 -0.15827109 0.22016117 -0.0016243292 -0.358849 -0.22738716 -0.082536325 -0.04220014 0.009911425 0.0023206102 -0.21960215 0.027475761 0.15502794 0.056957107 -0.1546384 -0.055756755 0.18286464 0.09546796 0.12211477 0.14204584 -0.31524444 -0.049772464 0.15560766 0.0901901 -0.015043618 0.023018418 -0.02849884 -0.0027886827
1200 0.1507033 0.12307534 -0.035491806 -0.18687598 -0.047149938 0.08748232 0.06268491 0.111012764 0.05941323 -0.09767012 0.081469595 0.057992898 -0.14343865 0.06781485 -0.13743359 0.07031348 0.06898442 0.105349526 -0.031992987 0.31059372 0.009712751 0.038859706 0.1410925 0.04366773 -0.058619265 0.10699817 0.13365395 -0.35304883 -0.0483391 0.045510843 0.1285965 0.25100678 0.0680992 -0.27974078 0.11073853 -0.099566616 -0.06050888 -0.06312001 -0.077489674 -0.32305425 0.24700639 -0.14493328 0.03170096 0.03267425 0.21759598 0.0064130067 0.09138267 -0.022793822 -0.0060770996 -0.09659556 -0.0069579086 0.15458584 -0.10569267 0.0933822 -0.08901219 0.17740144 0.20243743 -0.22468449 -0.088886105 -0.21922253 0.0017124389 -0.10282201 -0.025761217 -0.12280365 -0.18791711 0.059763495 -0.0007818401 0.042816833 0.15243772 0.033398703 -0.13210352 -0.0024680877 0.119232655 0.037267085 0.019805642 -0.13861737 0.24766448 -0.16451569 -0.09259572 0.30462658 0.03740245 0.079362735 -0.1968034 0.048560504 -0.040042665 -0.2251749 -0.043953966 -0.12139853 0.11919607 -0.11262344 0.037870627 0.0978952 0.018994175 0.02595235 0.15880787 0.023919828 0.17617401 0.17190465 0.068368986 0.13898888 0.09281759 -0.039645 0.1828783 0.2318422 0.042127468 0.19070326 0.25814664 -0.013099615 0.16918662 -0.06663102 -0.10782542 0.013542872 0.07963537 -0.13604283 0.23610489 -0.04399914 0.054068323 0.0920821 -0.104830705 0.2487453 -0.08087323 0.09084577 0.12568109 -0.024108578 0.06443966 0.061274666 -0.33868 -0.20189032
1053 -0.11246269 -0.32852212 -0.095242485 -0.030222306 0.17165236 -0.14460129 -0.054137513 0.13891882 0.09918181 0.015397131 -0.08305704 -0.20670132 -0.27977556 0.09884379 0.17284326 0.26635218 0.16069001 0.0027417205 -0.22541846 0.20799577 -0.14966361 -0.15123582 0.21130888 0.18242644 0.0742192 -0.09537439 0.003125967 0.048148684 -0.0064028036 0.07589187 0.02795609 0.032111038 -0.018035788 0.3260409 0.06562068 -0.08673145 -0.28768867 -0.09720297 -0.0993442 0.15342423 0.060980745 -0.14488965 0.17033222 0.06774857 -0.02685621 0.40425107 -0.005282815 -0.05261608 -0.05262014 0.2350639 0.082302704 -0.12474209 -0.009817808 0.14173509 0.2617213 -0.34281978 -0.0140769165 0.16668566 -0.17113413 0.008453247 0.16949001 0.07063466 0.10925753 0.35448554 -0.14426145 0.029298618 -0.09387347 -0.1702056 0.049981482 0.0028174235 -0.19680253 -0.0911695 -0.15848151 -0.037985794 0.075344585 0.1083793 -0.1269986 -0.45788187 0.095326595 -0.064980485 0.22601908 0.0012663805 0.08634846 0.095274456 -0.120717846 -0.25203604 0.19240609 -0.063255005 0.13950965 -0.18210386 -0.006058327 0.072985575 -0.17447053 0.1066485 -0.06042704 0.14009224 -0.103776015 0.09624449 -0.109624505 -0.38067105 0.13975614 0.1438942 0.15443419 -0.057008803 -0.2469896 0.12733503 0.18303302 0.2358139 -0.37972116 0.11326679 0.02297127 -0.19391795 0.0012377382 -0.08348946 0.20489675 0.04267055 -0.018175088 -0.20270266 0.22062533 -0.023095002 -0.078116216 0.12871453 0.31819016 0.022540674 -0.22370125 -0.15350807 -0.16606914 -0.009166664
1574 -0.093852855 -0.18958431 -0.030829052 -0.30618894 0.09339621 -0.14931467 0.033635926 0.08314749 0.22745094 -0.031731192 -0.13356443 0.27518842 -0.28320464 -0.15416107 -0.028379746 -0.21657567 0.18321584 0.044980638 -0.30430657 0.055585284 0.23791245 0.14510098 0.031837076 -0.028429585 0.02958786 -0.016483111 0.0014400565 -0.2519994 -0.20202932 0.012054359 -0.11863239 0.11764363 -0.14455892 -0.038802773 0.048325088 -0.12794322 0.02654948 -0.04900086 -0.10078298 -0.028374685 -0.27454284 -0.14566816 0.1840621 -0.04135899 0.073174365 -0.10641 0.034391537 0.009534072 -0.19315359 0.14056586 0.029812012 0.11556291 -0.14785656 -0.10246536 -0.0159339 -0.03500413 0.035253383 -0.16013193 0.1765082 -0.1166423 0.32375005 -0.064128876 -0.015541084 0.028634498 -0.088856585 -0.14169933 0.03261487 -0.12958375 -0.070823014 -0.20742716 -0.026257973 -0.33239692 -0.025600938 0.14450651 0.049300008 -0.08879576 0.43933415 -0.1405419 -0.16935946 0.1831874 0.186747 -0.117006846 -0.0642739 -0.02917266 0.07450942 -0.15240134 0.027000431 -0.016219938 0.08468833 0.10591767 -0.19329405 0.308273 0.055694062 0.17779468 -0.4237584 0.12697205 0.11154107 0.10716091 -0.1407507 0.022472542 0.24886197 -0.10879149 -0.22784406 -0.20266092 -0.21574907 -0.02537089 -0.1399937 0.23361625 -0.40112004 0.13023394 -0.13008608 0.07735596 -0.12381651 -0.0035120896 0.14027554 -0.043312393 0.0314473 -0.032900423 -0.045865178 -0.11770358 -0.08641992 0.090266615 -0.14580554 -0.17812507 -0.335975 -0.22715813 -0.0985131 -0.04305537
822 -0.019391404 -0.11914703 -0.029287947 -0.19964103 0.009535066 -0.08643929 0.11754244 0.2136193 -0.036432113 0.18515854 0.015031104 0.039934363 -0.042351626 -0.22752877 0.18787035 0.08166995 0.17264497 0.11717186 0.11635146 0.03671561 0.0332674 0.018985631 -0.13664496 0.12375936 -0.17765494 0.07810749 0.09546191 0.19795379 0.09143682 -0.18077004 0.06741979 0.21525802 -0.1666227 0.37113398 0.12015778 0.036121506 -0.14220224 -0.09169613 -0.12296754 -0.094432734 0.31532887 0.069573805 0.12438935 0.09669618 0.055596445 0.44277376 -0.014119514 0.09508514 0.059703637 0.04199891 -0.057287358 0.025099032 0.08925602 0.049300846 -0.07286721 -0.039151113 0.14611065 0.13509788 0.042494625 -0.11968616 -0.14335273 -0.053657614 0.07722588 -0.2693346 0.18270445 0.14259766 0.023475999 -0.02152748 0.12593149 0.12162755 0.14328787 -0.14038658 0.01544041 -0.14633095 -0.13416241 -0.23189071 0.29490864 0.019846348 -0.034699 0.2352677 0.12037339 -0.011845179 -0.12015536 0.10800533 0.15189749 -0.14743464 0.07284534 0.06015893 0.16662006 -0.42264244 -0.04869462 0.17977488 -0.013073567 0.031903576 -0.14442895 0.1324487 0.06766634 -0.031829253 0.038504146 -0.101945065 0.056785803 -0.035734802 0.30410308 0.092622235 -0.30757782 0.068382815 -0.08474739 0.34332466 -0.13410294 -0.27538174 -0.09858461 -0.049564138 0.23249935 -0.11715021 -0.028314726 0.14505158 0.054702308 0.20245926 0.2522021 0.2978279 0.019382032 0.04813991 0.3605462 -0.046752125 0.05876873 0.23970823 -0.37698543 0.10946996
1222 0.19004525 -0.14972576 -0.031715706 -0.07497306 0.10059005 0.2528115 0.18817899 -0.01998105 0.066744186 0.07659815 0.0381268 0.097801976 -0.32317212 -0.33564958 -0.18702418 0.03793285 0.26824042 -0.07745814 0.1302617 0.16753659 0.06314446 0.010515107 0.0004198862 0.15533863 0.08276262 -0.0501112 -0.008121349 -0.19069573 0.1167422 0.01807904 0.27795315 0.1940569 -0.023521073 -0.01254666 -0.22481917 -0.18118075 -0.13335724 0.13826698 0.015685907 0.08486782 0.12980886 -0.0441846 0.23843563 0.09273204 -0.34739155 0.05091756 0.41615486 0.02055163 0.028928522 -0.050428744 0.13341685 0.086100705 0.1749923 0.08794609 -0.11740019 0.056020766 0.2685584 -0.24798651 0.039312437 -0.0107774 0.13514785 0.039347317 -0.03928681 0.12246308 0.093078226 -0.03215873 0.043871887 0.11229635 -0.27650043 -0.44677314 0.21595731 0.051814467 0.073399626 -0.024861515 0.2447681 0.040842857 0.13117568 -0.3769492 0.08531004 0.09941709 0.040358588 0.08281438 -0.08922787 -0.061035633 0.14464733 -0.08342275 -0.047086064 -0.29653013 -0.023104817 -0.14151795 -0.10123209 0.0127706025 0.034636535 -0.08542746 -0.15305677 0.052086618 -0.106505014 0.0721664 -0.1334011 -0.36850253 -0.018192885 0.02119999 -0.0944814 0.11127435 -0.047304038 -0.25493002 0.024291163 0.15625477 0.058762863 -0.06602681 -0.31152076 -0.2707809 0.44852275 0.015893249 0.13483682 -0.01556901 0.09013403 0.08286581 0.007270925 0.088523485 0.15749969 0.15292017 0.24519654 0.06977609 -0.18487588 -0.40655687 -0.09233405 0.036600616
1923 0.19670455 -0.012536011 0.18334383 -0.1150323 0.058527894 -0.24220283 -0.001468518 0.17888789 -0.037668437 0.1133819 0.0663465 0.35464376 -0.044745713 -0.064307 -0.1294992 -0.08963158 -0.07842138 -0.08208918 0.07048452 0.012737805 -0.016030507 -0.108107366 0.09899955 0.062461425 -0.3396742 0.18796146 0.11631199 -0.08681546 -0.14835665 0.085241966 -0.0078050382 -0.14523204 0.009351918 -0.0758814 0.06599035 0.1029208 -0.12877375 0.046682615 -0.17772065 -0.14265342 -0.007881137 -0.020148337 -0.1871145 -0.09318056 0.15085949 0.10446528 0.17948031 0.022366073 0.056395214 -0.22936629 0.23356661 -0.024566522 0.31336406 0.14767057 -0.058085896 0.24996701 -0.059396062 -0.2186377 -0.21459961 0.00060292636 0.17983347 -0.16406853 -0.13950501 -0.05494532 0.085063025 -0.17112462 0.15518917 -0.06402415 0.08176834 0.1426786 0.035403583 -0.016502341 -0.059830733 -0.022077013 -0.24177788 0.082594946 -0.07842607 -0.19038077 0.119957805 -0.060654864 0.024863798 -0.17128693 -0.24146819 0.1447453 0.1700156 -0.40265504 0.0728963 -0.1071615 -0.1525372 0.053554717 0.41038328 0.2218462 0.034846805 -0.05933875 -0.2204229 0.106712155 -0.050893057 -0.05443755 0.14411691 0.12549013 0.14849815 0.15785919 0.067079425 0.1489653 -0.055309244 0.14432201 -0.11379418 0.014567957 -0.11828002 -0.013729754 -0.0008798185 0.0065959976 -0.18215089 0.1552459 0.18511632 -0.00088250084 -0.027408956 0.05876251 0.02580381 -0.09522904 -0.10989613 0.14336637 0.16802974 0.055282183 -0.06219131 -0.16659647 -0.02232302 0.20013101
1065 -0.042035192 -0.25639656 0.07232328 0.011136931 -0.072029196 0.006114576 0.10060979 0.058366552 0.015979752 -0.06713721 0.28526896 0.09830901 -0.018715529 -0.119654514 0.44242853 0.018789748 0.14005142 -0.017699959 -0.19319911 0.25164616 -0.09962127 0.035433557 0.018819978 0.2642983 0.008014145 0.051991083 0.09180877 -0.21442424 -0.08007561 -0.10986599 0.419226 0.11230065 0.014206288 -0.008868587 0.084241964 0.07734602 -0.103679076 0.062098097 -0.1720395 -0.069149375 -0.30829296 -0.21527687 0.07608193 0.12400785 0.017915614 0.097248755 -0.01884536 0.12024034 0.0353416 0.21405089 0.111178964 0.15207076 -0.07782471 -0.15230803 -0.025111455 -0.18482737 0.17392509 -0.15023778 -0.07786797 -0.025154468 -0.08309927 -0.14815275 -0.06480047 -0.044920284 0.103665106 0.14051491 0.14865065 0.16572908 0.15052721 0.20009665 -0.06860119 0.023367735 0.1178044 -0.13156956 0.087960556 -0.20271789 0.091130555 -0.08930203 0.17719223 0.17061704 0.27421585 0.053713765 -0.0774299 0.18921132 -0.10637846 -0.31003886 -0.027418846 -0.13539071 0.01467777 -0.051603295 0.2663254 0.24431926 -0.03264129 -0.13267176 -0.09158882 0.12416745 0.31714168 0.21627833 -0.03311502 -0.12849715 -0.0061864583 -0.08315019 0.061120193 0.029364215 0.10615301 0.32838172 0.075583495 0.23033719 -0.17485264 -0.13991968 0.1446914 0.022685286 -0.124161206 0.04431515 0.027254302 0.04285061 0.14722486 0.28039497 0.023927005 0.12695031 0.057825986 0.27781194 0.13548954 -0.11964058 -0.121084 0.03236233 -0.1106804 0.119731165
1526 0.17359598 -0.054872535 -0.093445085 -0.11258394 0.058595266 0.09093984 0.12693126 0.11179918 0.12138286 0.16416606 -0.11038884 -0.22624509 -0.1434642 0.08811053 0.16106518 -0.088432506 0.06701722 -0.18419538 0.0358353 0.084319785 -0.33611384 0.0886116 -0.10030409 0.0681437 0.20290163 -0.07047884 0.320265 0.115983866 -0.13715808 -0.034455735 0.19539998 0.013574046 -0.072974056 -0.0614784 0.057905726 0.0049866675 -0.15818389 -0.023766212 -0.37859026 0.062186036 0.26922977 -0.30460906 -0.21100536 -0.12153831 -0.05307505 0.038892824 -0.23315674 -0.13363607 0.27285203 -0.026856067 0.19078892 0.23099676 0.14935073 -0.0563333 -0.13048299 0.01789645 0.077412486 -0.053279206 0.004937565 -0.21245474 0.07071413 0.068854704 -0.15834549 -0.0051465067 0.310334 0.0028844401 0.13417262 0.20503423 0.141056 0.040468443 0.041501403 0.13094087 -0.11662427 0.25754377 0.075514436 0.03665639 0.03965808 -0.4189224 0.014521738 -0.10868477 0.10937372 0.0758572 -0.3665117 0.005063921 0.2680258 -0.08382593 -0.0052594882 -0.07687046 -0.03951795 -0.1596108 0.17525046 0.39095846 0.25314787 -0.0028828254 -0.14706104 -0.2224063 0.01583978 0.052649386 -0.24945593 -0.102282114 0.1358871 0.0033256304 -0.26587725 0.19816072 0.10145114 0.069268204 -0.12555389 0.108267725 -0.2846652 0.04157423 -0.26758572 0.14900643 0.14265718 -0.12558962 0.0109136645 -0.09313701 -0.059239443 -0.05182491 0.14968103 0.07789493 -0.1493063 -0.2225891 0.119732 -0.11707329 -0.101770006 -0.04643691 -0.2511672 0.13694054
951 0.014922547 -0.15543428 -0.19905297 -0.14514205 0.23991409 0.1353887 0.0675474 0.3340013 0.075952545 0.36419138 -0.12073619 -0.041246593 -0.17294279 -0.016858416 -0.1524869 0.07681409 0.10851222 0.26555014 -0.18028574 0.08642158 0.051343236 -0.07238622 -0.14243187 0.1086395 -0.17741515 0.18980995 0.02849823 0.12359526 -0.053015444 -0.06372298 -0.017061664 0.12924738 -0.08039494 -0.033077702 0.046587013 0.009782894 -0.13536733 0.017799638 0.05476134 -0.08292511 0.21884625 -0.17673285 -0.036359724 -0.24905276 -0.04579267 -0.02300183 0.07979367 0.15956527 0.21111329 -0.29250193 -0.023586344 -0.07894769 0.017671578 0.06357054 0.04188763 0.09062445 0.1869181 0.045255255 0.15093154 -0.16212782 -0.14984445 0.10957745 -0.034102872 0.087159485 -0.11809048 0.14609104 0.11268843 0.118367344 -0.07360456 0.044373386 -0.20951356 -0.11557606 -0.1835355 -0.20461254 -0.082563035 0.056870118 0.108424 0.059658427 0.118278414 -0.025851525 0.075547524 -0.13136859 -0.011907836 -0.009950207 -0.012877026 0.010023934 0.05669918 0.061318763 -0.2755387 -0.079406485 -0.11848213 0.18021779 -0.2323713 0.3075513 0.09074135 0.07676963 0.034115873 0.20325483 -0.07603971 -0.035388414 -0.019983923 -0.24093388 -0.14246584 0.04672669 -0.3696424 0.2390676 0.13836731 -0.103909686 0.015309866 0.09176278 -0.049370605 0.073443234 0.08322745 -0.09970033 -0.19568817 -0.06311286 0.15968873 -0.019704245 -0.014876267 0.097354114 -0.009469518 0.12692583 0.086154796 0.19392522 -0.014764241 -0.121753685 -0.3956861 -0.2064024
2065 0.21450251 -0.005166945 -0.0034247278 0.344961 -0.013942266 0.013796507 0.21440116 0.097957306 0.07862765 0.103869446 0.16324176 0.07398031 -0.16429518 0.06937061 0.06417696 0.06252411 0.00024104363 0.44155824 -0.14700362 0.18631195 0.006129808 -0.11816968 0.24560648 -0.100521274 0.11836479 0.08023685 -0.18091342 -0.09347633 -0.104422174 0.055755585 0.012652359 0.11535775 0.12786733 0.09479505 0.2800078 0.031346958 -0.0736939 0.13355973 -0.1664888 -0.071107455 -0.027509103 -0.21006142 0.036474016 0.00033462778 -0.15558185 0.21103112 -0.032037955 -0.037296597 0.0035020174 0.17709722 0.26562116 0.10167698 0.0471224 -0.025806626 0.025931103 0.12496589 0.048949145 0.19005579 -0.07512442 0.07216231 -0.0740218 0.23175956 -0.07361209 0.018415326 -0.20352237 0.11910945 0.051634394 -0.05582049 -0.057163034 -0.09008175 -0.045720473 -0.20001788 0.13068669 0.0072566723 -0.09537854 0.025064025 0.19839855 0.0024307733 -0.07420303 0.33035535 0.128503 -0.24416243 -0.1637172 -0.026448574 0.026978806 0.06478662 0.055184152 -0.057980653 -0.29334843 0.05318871 0.11365675 0.07648167 -0.27501062 -0.124004446 0.14518592 0.3501904 0.0695624 0.09250061 0.19995226 0.09619098 0.085530914 -0.033738878 0.086389646 0.43063816 0.05118978 0.06693078 0.04555457 0.025691997 0.04517168 -0.028701982 0.112793274 -0.06926539 0.1671821 0.17941679 -0.019576225 0.27046862 0.35553342 0.055624057 -0.027810736 0.046859875 -0.4221685 0.09187882 0.12266299 0.118257165 -0.12980033 -0.08209299 -0.2671249 0.1322402
1362 0.123317026 0.030188208 0.016695539 -0.1920785 0.07941264 -0.008434759 0.06578801 0.35609657 -0.064942144 -0.1100584 0.19454592 -0.103153996 -0.34113172 -0.13976455 0.06777712 -0.067648426 -0.10857581 0.21392916 -0.2630651 0.43730408 0.11296374 -0.093329065 -0.13542256 -0.072097994 -0.21452285 0.38241005 0.14316916 -0.068695165 0.001895899 0.0045902967 0.20660037 0.23524745 -0.21264939 -0.3175077 0.08651911 -0.005727762 0.09817637 -0.055849943 -0.08141702 -0.13415647 -0.13724233 0.045954235 -0.009971337 -0.23168725 -0.15496117 -0.0476467 0.22595087 0.035099123 0.16296102 -0.022582803 0.026302008 -0.08835034 0.0014503368 0.04336992 0.075651586 -0.094508715 0.18900333 -0.14947093 -0.030043816 0.041808955 0.010940325 0.13438702 -0.16817771 0.07069189 0.07380048 0.046819225 -0.09561279 0.27490935 0.22180252 -0.11856254 -0.18540747 0.168532 0.15342148 0.014016234 0.039013468 0.1452884 0.17988871 -0.17409219 0.33478105 0.08911202 0.1386407 -0.03555471 -0.015766945 -0.1205844 0.12803735 0.3040247 -0.067623496 -0.19365779 -0.16385056 -0.07138224 -0.08624208 0.10643883 0.11252442 0.03895757 0.040360205 -0.11497158 -0.16854557 -0.059759118 0.34246102 -0.035942186 -0.19352615 -0.14768435 -0.27489936 0.20340021 -0.30786642 0.30822167 -0.043303262 -0.24600327 0.028526021 -0.067852266 0.03472999 0.010101665 0.048377607 0.16612352 -0.062331013 -0.2312828 -0.10638475 0.010128743 0.050418567 0.067305416 -0.0012082213 0.14511462 -0.016321298 -0.024823073 -0.21148579 0.16560946 0.18573362 0.11341765
1204 0.12500884 -0.24959712 -0.113498636 -0.0532251 -0.055773977 -0.22179739 0.122634575 0.25112134 0.014744165 0.114050955 -0.001549825 0.1429066 -0.06981772 -0.123622715 0.058205586 0.14124009 0.18175541 0.010854679 -0.179337 0.08814748 -0.09657553 0.04616261 0.055191595 -0.07920945 0.13067266 -0.1581172 -0.091930605 -0.11265032 -0.15095831 -0.07964434 0.027520854 0.0016806476 -0.31166878 -0.2604064 0.23263723 0.069051445 0.010661059 0.102796175 -0.23368803 0.005412739 0.039647684 0.06777608 -0.07760298 -0.048945434 -0.10527039 0.11446696 0.06551125 0.012730654 0.056245405 -0.17151175 0.07685644 0.20094544 -0.050303444 0.16444784 0.06414499 -0.3376959 0.1902311 -0.10886935 -0.11862789 0.12711251 -0.017324554 0.18086435 -0.10875946 -0.15290792 -0.30241862 0.032321952 -0.025627714 -0.10583522 0.31060478 -0.17040846 -0.19732149 0.06606429 0.06907159 -0.029722132 0.2536721 -0.028702395 0.09564066 -0.16919866 -0.07453115 0.1410496 0.22014123 0.07977393 -0.13924316 0.28200263 -0.1062757 -0.028411727 0.1791805 0.046928637 0.2095703 0.15014389 0.20003076 0.21348342 -0.30805692 0.19852951 -0.15583302 -0.11719101 0.10168306 0.061164156 -0.041660216 0.013247828 -0.055570535 0.05949306 0.07959234 0.12464391 -0.02858259 -0.027499175 -0.038328074 -0.19430985 0.07832241 0.058826663 0.07515672 0.02491036 -0.11709131 0.019223405 0.1539262 0.06663793 0.14602141 -0.09295061 0.132907 0.16151232 -0.12695846 0.12302164 -0.007536179 0.13700373 -0.09266699 0.037362978 -0.054332756 -0.19054505
958 -0.01981157 -0.053410754 -0.01036505 -0.16943024 0.122946486 -0.015012892 0.06381787 0.11100931 -0.19867226 -0.022617234 -0.024006933 0.15979263 -0.13211012 0.071303576 -0.010333962 0.03883924 0.015089378 0.12166082 -0.18312697 0.13038638 0.12957945 -0.20149545 0.12215022 0.046993006 -0.077591896 0.034969043 0.06341807 0.056143165 -0.27656364 -0.000345577 0.11195237 -0.047669146 -0.0245884 -0.062359363 0.23295714 0.08204484 0.02406999 0.15353805 0.08042117 -0.012527134 0.14027092 -0.115509294 0.2543426 0.0043479204 0.005334962 -0.093904786 0.1337115 -0.155028 0.022386068 0.04120149 -0.118838586 0.07155996 0.257139 -0.068805 -0.09127146 0.070266604 0.3244341 -0.06437452 0.12810713 0.09218443 -0.3794829 -0.27000272 0.058025207 0.0054424983 -0.015977569 0.015784811 -0.13094242 -0.07691864 -0.051853932 0.04562611 0.20253184 -0.14094764 0.29204872 -0.1682263 -0.09526107 -0.039362893 -0.09177355 -0.4639538 -0.08517131 0.047578532 0.043651726 -0.13480835 0.111556105 -0.0489479 -0.026929414 -0.24291293 -0.23545128 0.03033011 0.1701688 0.32740644 0.044544052 0.022415137 0.046159644 0.015616316 -0.0043883445 0.13031444 0.014682473 0.12358633 0.2771141 0.06867064 0.123984635 0.047927484 0.015206743 0.08077724 0.013573783 -0.033935472 0.15122148 0.22178908 -0.16950423 0.021716781 -0.10441245 -0.19429627 -0.05619777 0.16499165 0.18491904 -0.0529014 -0.0277523 0.36719173 0.10043455 0.07241504 -0.15113226 -0.018236168 0.078755125 -0.006955939 -0.39784682 -0.07259111 -0.14871962 0.03179677
1967 0.042556807 -0.013637778 -0.015210305 0.037431285 0.2934059 -0.008124618 0.06519373 0.08663865 0.11196522 0.1524 -0.05470074 0.01853331 -0.20365794 0.023855645 0.030447531 0.025167402 -0.018115502 0.1029281 -0.309695 0.09793427 0.010530173 0.00053174805 0.03314583 -0.10651194 -0.09092807 0.059969954 -0.09738684 0.01437571 0.02145286 0.06592188 0.102320716 -0.25060013 -0.19866896 -0.13284792 0.11400472 0.097931065 -0.045497507 0.38426802 0.0417189 -0.1681501 -0.15254064 0.052035343 0.1684928 -0.122433126 -0.018727832 0.29290786 0.11568101 -0.080548435 0.10121955 0.016659636 -0.10063544 0.06837932 0.1428623 0.032698516 0.08158892 -0.08142357 0.041542124 0.015736409 -0.11927944 -0.17790346 -0.046670306 -0.061583847 -0.29558176 0.10876965 -0.10369222 0.026070066 0.058311686 0.2864101 0.29264802 0.10557167 -0.020565692 0.29580235 0.17122877 -0.1935809 -0.01562694 -0.093843706 0.2553507 -0.17344035 0.04198503 -0.050219245 0.17531873 0.018253537 0.041794457 -0.062109146 0.018419094 0.12060749 0.03655563 -0.036843076 0.22065775 -0.035145953 -0.065507166 0.18251678 -0.14979315 0.068947986 -0.017818622 -0.092828706 -0.13924032 0.03295006 -0.09398004 -0.08641821 -0.11658728 -0.2612971 0.10179777 0.040309716 -0.23220803 0.21615332 -0.00936133 -0.025821034 0.18595284 -0.042919867 0.036413338 -0.038401727 -0.078946956 0.19020721 0.42214224 0.1352821 0.1348035 -0.1256706 0.23296602 0.025314305 -0.18569097 0.09361733 -0.020193089 -0.24617656 0.0076259277 -0.268383 0.013860967 0.10787913
1610 -0.0055500176 -0.09359173 -0.24304268 0.052388962 -0.07797307 -0.048272423 0.002805408 0.1345432 0.14039992 0.14680143 -0.04299531 0.11816866 -0.0603735 0.07395959 -0.30087823 0.025394082 -0.23246096 -0.09476496 -0.021526486 0.0009461808 -0.14410426 -0.06467755 -0.19945094 -0.03766489 -0.11849721 0.0004851355 -0.0017765005 0.3893309 0.02249773 -0.14944306 -0.1252261 0.08059881 0.042629454 0.047122948 0.24790254 0.2901531 -0.23678942 0.037103564 0.008189862 -0.10785868 -0.026313981 -0.10954627 0.055970494 0.06416312 0.1563924 -0.12828563 -0.041390285 0.10422344 0.3638972 -0.117689595 -0.11206562 -0.12548582 -0.04360136 0.094648086 0.099382766 -0.20972551 0.05707664 -0.09408361 0.169262 0.10455646 0.084230796 0.113915965 -0.059244446 0.046231493 0.12066662 0.0870889 -0.28482533 0.030609109 0.24945445 0.06590101 -0.09129709 -0.19904579 0.20701946 0.07486723 0.05574246 0.0055060154 0.15338641 -0.16414912 0.10586148 0.025034651 0.3462821 -0.056452263 0.05546143 -0.0061100298 -0.019386671 0.030257342 -0.043323282 -0.01613755 0.035096396 -0.3867213 -0.0035645857 0.043150946 0.105096325 0.050582007 -0.20473416 0.004157506 0.06335811 0.19183846 0.19905342 0.00803446 0.048024952 0.09617304 -0.20473483 0.13245766 -0.17401697 0.12092599 0.01325812 0.1746943 -0.1182988 -0.080419034 0.07882378 0.01443555 -0.046716254 0.035215694 0.13899197 -0.02239114 0.29872862 0.213945 -0.10245129 0.2225468 -0.18794283 0.10788908 0.19092143 0.14790334 -0.15539812 -0.26456907 -0.20783184 -0.12279089
1206 0.0031333824 0.024000272 -0.17727679 -0.09470062 -0.08265135 0.11311712 0.10637721 0.16790435 0.1864813 -0.080589816 -0.012428643 0.16960852 -0.16464147 0.063953586 -0.25409627 0.011999678 0.14499506 -0.073632464 0.056469902 -0.02179533 -0.03188717 -0.0488426 0.3632387 0.19542854 -0.032052744 0.1732125 -0.16193306 -0.08192186 0.0139637375 -0.14937241 -0.041636407 -0.00612685 0.06721966 -0.21763931 -0.06786802 0.2908979 0.014349606 0.3085928 -0.031403508 -0.1720059 0.305087 -0.10710469 0.01313959 -0.1507058 -0.05231424 0.36356848 0.28216606 -0.27658042 0.19065063 -0.04370222 -0.08000018 0.23026079 0.21891986 0.029453207 -0.008923905 0.28219062 0.09198012 -0.23662643 -0.10797207 0.007893484 0.02375954 -0.16878134 -0.08833523 -0.067649424 -0.049808647 -0.079591334 0.21673183 0.2611747 -0.120313086 -0.1527698 0.08249484 0.2599115 -0.00020922715 -0.105882525 0.13867894 -0.046082266 0.149987 0.048459444 0.065868914 0.17170992 -0.20215857 0.069014475 0.19870253 -0.20498036 0.016860666 -0.24080433 -0.055741485 0.05225952 0.18424 0.013025302 0.15661985 -0.05340398 -0.0040732687 0.0859655 -0.032588437 0.11384297 -0.079210125 -0.008462874 -0.003195219 -0.21988158 0.13776544 -0.061104067 0.045309205 -0.09788469 -0.16273868 -0.06586271 -0.009629381 -0.08628478 -0.24813987 -0.040658746 -0.29964256 0.16906111 0.07021617 0.03635581 0.17700277 -0.073596515 -0.10638761 0.20255588 0.1358254 0.025727058 -0.22829784 -0.1984662 0.18522476 -0.25553378 -0.32968274 0.046622097 -0.07407371 -0.13226692
1341 0.13559721 -0.08547674 -0.022042388 -0.14513817 0.14399199 -0.15878263 0.34368384 0.18171364 -0.10561677 -0.07860936 -0.085687675 -0.15786973 0.07218391 -0.0057127685 -0.08370286 0.09445668 0.051056363 0.066330366 -0.0042238487 0.15953276 0.08442118 0.13193329 0.0618691 0.1303001 -0.20541698 -0.1588921 -0.04072925 -0.005183831 -0.3408904 -0.027048912 0.07569043 0.15358478 0.15095276 -0.12631918 0.030458163 0.23125021 -0.0077658603 0.19675878 -0.3573007 -0.19324493 -0.07952123 -0.02854202 -0.046696834 0.009944953 0.10288806 -0.070444465 0.07244699 -0.10797836 0.20230073 0.022352004 -0.17707509 -0.010810319 0.00785194 0.14083391 -0.13184057 0.2071722 0.09658417 -0.112567335 -0.12064341 -0.055634707 0.3094655 -0.0168807 -0.026798565 -0.110661015 0.060481537 0.10129817 0.111433096 0.11450952 -0.02032477 -0.09795226 0.054285992 0.2122864 -0.109915055 0.02650788 0.25336963 0.10754747 -0.02034449 -0.30347198 0.32903787 -0.07259499 0.061973926 0.22813934 -0.21206687 0.15507415 -0.16743523 0.0127779925 -0.11781477 -0.065017365 0.18205109 0.09211197 0.16967009 -0.0012585981 -0.12270184 -0.025321778 -0.08264578 0.055173177 0.034152567 -0.1948025 -0.059774835 -0.010771863 -0.0038756982 0.0135817975 0.07807274 -0.13416177 -0.21655104 0.08233686 -0.058938887 0.2066728 -0.32228294 -0.087200545 -0.04970125 0.11267801 -0.047896706 -0.06665128 -0.12483488 -0.12388233 0.081468284 -0.15388338 0.013448304 0.124564245 -0.17049298 -0.009256454 0.1976672 0.12105154 -0.17362994 -0.25429088 -0.063873604 0.18313463
1913 -0.1067926 -0.06913107 0.004976787 -0.0572398 0.033055034 -0.17941906 0.1343769 0.24019958 -0.096306235 0.09225439 0.03584653 -0.23710877 -0.22216348 -0.11931432 -0.22558738 -0.17861798 0.16448279 0.03614547 0.17212664 -0.12068807 0.0064252564 0.18266135 0.23055546 0.12168763 -0.03314257 0.10755928 0.09752673 -0.07925518 -0.19959491 -0.24527429 -0.051875666 0.16645329 0.079248846 -0.111978486 0.05864998 -0.10454761 -0.16729617 0.029179255 0.015588723 -0.26781124 0.17200305 0.05707496 0.09863667 0.113032706 0.064593054 0.037449025 0.10846979 -0.018991828 -0.052366138 -0.086687066 -0.25679553 0.12311213 -0.10112593 0.18578278 0.038092144 0.24723522 0.1965152 -0.08135846 -0.10571008 -0.00850166 -0.023431584 0.17513524 -0.16164415 -0.12378009 -0.051095527 0.2283674 0.039651334 -0.022031542 -0.07050908 -0.06872219 -0.0788304 -0.091957495 -0.2077973 -0.1523068 0.1928096 -0.16833207 -0.116526194 -0.31595412 0.014231451 0.04506973 -0.046619643 0.08394583 -0.098826826 0.078686036 -0.1350701 -0.19717413 0.04416204 0.08922981 0.06203485 -0.20145828 0.117653705 0.28592223 0.13541733 0.30557936 -0.16611533 0.18424067 -0.12892932 -0.0744888 -0.017105142 -0.019441074 0.030271731 0.073199645 0.06323174 0.13873483 -0.16112167 -0.08859335 -0.034361668 0.03587518 -0.18656678 -0.007283021 0.19201964 -0.07520613 -0.088489056 0.108344115 0.11341461 0.1057496 0.07336934 0.054152012 -0.12796547 -0.02538347 -0.097041465 -0.08428347 0.121331625 -0.25055513 -0.11382939 -0.011844363 0.2005619 -0.2261452
942 0.029486423 -0.19027516 -0.022536086 -0.29231167 0.33352593 -0.07262009 0.095808335 0.21450299 0.08088937 -0.11207861 0.106278785 -0.13790162 -0.23808037 -0.027916772 -0.08959028 0.3822243 -0.22202466 0.12172168 -0.140866 -0.07718208 0.064597994 -0.2718854 0.12745565 -0.020561224 0.01681178 0.05912255 -0.14942262 -0.19785137 0.0184575 -0.10508566 0.14031462 0.07793507 -0.027391696 -0.14395453 -0.15938348 0.034585584 0.103062935 0.13976574 -0.059268977 -0.025302747 0.064867795 0.20416962 0.20888056 -0.13542496 0.1078382 0.15625124 0.14078915 0.117393665 0.018023776 -0.0024113639 -0.147842 -0.16999549 0.3105844 0.3052023 0.021285575 -0.17671566 0.34616226 0.11055606 -0.012786315 -0.02254622 -0.082152925 -0.07000824 -0.039680153 0.07020407 0.012325188 0.053178694 -0.09843902 0.0887979 -0.002701969 -0.09106789 0.112316266 -0.08582434 -0.06431744 0.23211832 0.021143876 0.005568349 0.17915715 -0.19372842 0.083562754 0.13296317 0.37525815 0.08688415 -0.15192667 0.26153702 0.164996 -0.098883145 0.109303586 0.031232463 0.10059941 0.04339609 0.120752536 0.045311853 0.07627405 0.14052708 -0.11300283 0.047084387 0.2672826 -0.22024672 0.011268126 -0.07019866 0.08161588 -0.010631743 0.18761697 0.12898758 -0.15167587 0.27148476 -0.1526699 0.16327849 0.082663916 0.13747647 -0.28412306 -0.2439067 0.07369347 0.069341674 0.13586839 0.14125112 0.093765624 -0.019873878 -0.09636665 -0.063615195 -0.028879773 -0.18657705 0.39531106 -0.09269943 -0.07144128 -0.05565134 -0.014674351 -0.15986921
747 -0.009562308 -0.08887637 -0.1497791 0.09462006 -0.087464474 0.0042428426 0.19042882 0.18638447 0.075854756 0.061076786 -0.19809103 0.1669084 -0.20233499 0.0049664443 0.102869034 0.18808307 -0.015716955 -0.019858519 -0.018592179 0.07831647 0.054729562 0.11832816 0.016471641 -0.11653185 -0.043886125 0.14211203 -0.08778109 0.13009483 0.091087095 0.055667903 0.22036476 -0.15729067 -0.044803865 0.1697863 0.3057667 0.14332944 -0.007807857 -0.06648182 -0.24950872 -0.07362047 -0.14562522 -0.14461619 0.011239362 0.016762394 -0.06422199 0.28383908 0.37191498 0.074285045 0.070403434 -0.05966244 0.10187958 0.041776862 0.08346704 -0.07341327 -0.24939407 0.062096693 0.13412319 -0.33567885 -0.08822554 -0.01799176 0.025966022 -0.0037746958 -0.09982426 0.07697449 0.16556622 -0.0096793175 -0.060618274 0.20127082 -0.16517872 -0.24132937 -0.0013467532 0.13297501 -0.085794516 0.09879005 0.13999477 0.06663875 0.1903774 -0.21389669 0.09066202 0.09758529 -0.05022672 0.16630997 -0.12622909 -0.19702251 -0.01922286 -0.06684008 0.31785148 0.15102512 -0.12550911 0.093545385 0.056732345 0.09516591 -0.15970841 0.122409254 0.14302208 -0.047073737 -0.027957624 0.15423843 -0.06815298 -0.04905295 0.08190593 0.14194621 -0.16940886 -0.22226171 -0.16951571 0.2454539 0.15637732 -0.003992033 -0.01384444 0.20250195 -0.21382596 -0.1861299 0.012829346 0.06574938 -0.08639146 0.058698975 -0.061651386 0.1543 0.30130142 0.06829888 -0.023842525 0.019421076 0.12398889 -0.04093767 -0.17379968 -0.032700486 0.10190433 0.027137315
959 0.026446454 -0.341049 -0.083108276 -0.1432701 0.016732186 0.1929029 0.18503685 0.03951191 0.2863592 -0.01930613 -0.014749249 0.053913735 -0.094640024 -0.05143306 -0.27716023 0.13022777 0.12550281 0.05855356 -0.28822544 0.29992646 0.16934669 0.005495934 0.06228475 -0.11316779 -0.10628359 0.0078062103 -0.06528282 -0.049174227 -0.24829638 -0.14249383 0.20656998 -0.08487354 -0.12573111 -0.00468769 0.122683585 0.22967604 0.10236357 0.15665327 0.015024299 -0.033912174 0.30020747 0.3311892 0.0712737 0.26199916 0.057054833 0.18504624 -0.18120266 0.06091897 0.23539212 -0.2143994 -0.09227357 0.1630158 -0.039380107 0.0907087 -0.016923869 0.23937823 -0.13330482 -0.061842583 -0.05645002 0.009880818 -0.1740018 -0.0690506 -0.06579672 0.11077414 -0.063645385 0.11044505 0.07078562 0.0679359 0.116855286 0.032148793 0.14785598 0.025182346 -0.20104387 -0.18764332 0.105427556 -0.041408375 0.29729906 -0.1188841 0.06806853 0.027680514 0.2050319 0.10092884 -0.08806709 -0.03136267 -0.0053127008 -0.31608343 0.027333701 -0.21748091 -0.0319591 -0.013872854 0.14688784 0.07834188 -0.12662761 -0.0031396335 -0.27745983 0.11258186 -0.29968396 -0.046505813 0.0022008535 -0.1251886 0.15432708 -0.1279613 0.21400194 0.19026695 0.12032974 0.2871028 0.07954669 -0.18528843 0.002395296 0.22676575 0.0636093 -0.050322436 -0.21318486 0.18702963 0.06696615 0.44010314 0.09733908 -0.21704376 0.109158985 0.095478125 0.020792909 0.04627028 -0.026288 -0.012286994 -0.094912894 -0.048150092 -0.056160796 -0.18696007
479 -0.05808534 0.12145921 -0.28348726 -0.041762892 0.114024974 -0.0057294695 0.06176047 0.06244622 -0.08430637 0.10250822 -0.115451 0.019898714 -0.11702184 -0.28211367 -0.18093573 -0.21178941 -0.039833095 0.033931285 -0.084678 0.081162095 0.034481283 -0.21341752 -0.064772956 0.026508013 0.020943474 0.055925343 -0.016522143 -0.18535067 0.115424335 -0.087951384 0.10108271 0.13265541 0.06917021 -0.09983964 0.26624185 -0.10160721 -0.06586168 0.059102885 -0.20548604 0.08139367 0.014759485 -0.20997451 0.21701482 0.061318044 -0.015013473 0.3327472 0.018503904 0.14711702 0.020893162 0.08551232 0.16888084 0.061831947 -0.12825947 -0.027813932 -0.12337007 -0.025285302 0.34094098 -0.14463551 0.063180275 0.16262817 0.13597114 0.23396109 -0.030004984 0.0625815 0.02721834 -0.0709506 -0.083228685 0.007788726 0.27349907 0.09788005 -0.1411468 -0.15801778 0.18957727 -0.21407488 -0.012607533 0.14817141 -0.019704944 -0.08053873 -0.0476772 -0.04245723 0.068528175 -0.10032218 -0.044519696 -0.07156558 -0.05314118 0.084696785 0.10984876 -0.1610901 0.15948457 -0.07944052 -0.10118715 0.19651994 0.35471392 0.08851923 0.079220414 -0.08701741 0.02727044 -0.05357853 0.05283807 -0.07525083 0.07446991 0.12089784 -0.3715763 -0.05822148 -0.14200239 0.22155894 -0.079987675 -0.12149322 -0.17976905 0.19122472 -0.16489579 -0.0865722 0.19713975 0.05914218 0.119454056 -0.029279832 -0.0022533424 0.21845053 0.03374907 -0.11721622 -0.17343272 -0.08299464 0.04540493 0.08486515 -0.13838574 -0.15578283 -0.104617864 -0.19896166
1935 0.018732572 -0.119472116 0.3438856 0.27656072 0.07491129 0.17782034 0.050441887 0.12417254 0.01876398 0.06896344 -0.28002718 -0.011885361 -0.057937395 0.011275592 -0.0014713547 -0.16890733 0.16123626 0.098381594 0.059467528 0.14348035 0.17553367 -0.09537822 0.21100718 0.19622034 -0.01020639 -0.05544588 -0.0012360174 -0.035032786 -0.15185797 0.15071672 0.13166973 -0.110668235 -0.3664428 -0.015722537 -0.3034519 -0.0468296 0.030899731 0.17278613 0.055673435 0.04285552 -0.013770805 -0.041903973 -0.14390138 -0.26041213 -0.1672738 0.15455098 0.029598946 -0.10145263 -0.016477093 -0.021901412 -0.21331143 0.019615259 0.012260017 0.07631392 0.07331208 -0.07361832 0.19775936 -0.104297526 0.0053312695 0.18200004 0.18937282 0.039160565 0.07037992 -0.08181386 -0.1941591 -0.04975318 0.18830931 0.06564087 -0.17438814 -0.017513959 -0.15529169 0.17822139 -0.017030602 -0.31177342 -0.03797931 0.08854588 0.28293386 -0.43579292 -0.04657743 0.314649 0.3428426 0.044231288 -0.16114199 0.13260792 0.0070221503 -0.037924334 0.08131873 -0.027857227 0.25823918 0.048113503 -0.03499596 0.0022478693 0.024939843 0.3511168 -0.123855054 0.16193369 -0.07862742 0.09503101 0.08062436 -0.109521754 -0.008099333 -0.026455043 -0.21193977 0.057594575 -0.16813639 0.22260632 -0.25280657 -0.012702079 -0.25622544 -0.13137335 -0.23618005 0.18416867 0.22262794 -0.09300032 0.021334942 0.060753703 0.040416513 0.023921419 -0.44492882 -0.054270454 0.029981125 0.16437934 0.19137709 0.23025471 -0.113542855 -0.22904572 -0.21975847 0.16283107
1733 0.1219829 -0.15437172 -0.1308552 -0.095503174 0.055468094 -0.05308625 0.022540882 0.23482451 -0.17227666 0.10005815 -0.060121555 0.16697958 -0.17037646 -0.09590584 -0.2228401 -0.1348784 -0.0064756316 0.10581514 -0.09971801 0.25977176 -0.21479803 -0.10403527 0.11818361 -0.018423075 -0.04723362 -0.02796671 -0.07889324 -0.24725787 0.24484943 -0.16148385 0.009217659 0.17273551 -0.11362362 -0.087346695 -0.06473722 -0.23766409 -0.05114897 0.29682618 -0.10234586 -0.0015375348 0.15794624 -0.12939897 -0.12171373 -0.19751242 0.11407062 0.15451773 0.04621643 0.06633407 0.34786454 -0.1474688 0.3040285 -0.07292995 0.21564728 -0.22202773 0.030710243 0.22533594 0.12514196 -0.2243825 -0.11426903 -0.13526663 -0.32110894 -0.01255808 -0.25678134 0.21766064 -0.062527455 -0.07087662 0.03170853 0.019792233 -0.0008581473 -0.12867263 0.12701607 -0.24334429 0.19866166 -0.20822415 0.3957089 0.13062903 0.1411769 0.18767318 0.17563961 -0.037742782 0.25384927 -0.09245001 -0.10812349 0.15449055 0.13518195 0.1256136 -0.267768 -0.113106325 0.22622429 -0.2094956 0.20662057 0.093796365 0.22283491 0.14147489 -0.3010784 -0.1221152 -0.010749949 0.083344504 0.12305141 -0.038976144 -0.098948784 0.1069436 -0.035041593 0.1355957 -0.1721521 0.25347137 0.03320018 -0.25688377 0.16931234 0.14754836 0.03418569 -0.2994819 0.05819966 -0.1703986 0.005765314 -0.025049912 0.049998105 -0.18503547 0.1125633 0.1663256 -0.08442398 -0.2585505 -0.15140024 -0.043879963 -0.20446853 -0.10040571 -0.035756096 -0.0069445698
966 -0.07432087 -0.102074206 -0.027717138 0.038257767 0.07464386 -0.22015804 0.23258035 0.00044209938 -0.17513914 0.06627975 0.016479358 0.20648843 -0.0127728805 0.036047515 -0.45454517 0.024024246 0.1833639 -0.22299477 0.02547465 0.15328607 -0.30128425 -0.053031445 -0.24805292 -0.14163406 0.0551738 -0.064422 -0.00043364163 0.14875981 -0.053360157 -0.0064861677 -0.05817616 -0.16520995 -0.12591335 0.027493328 -0.17913544 0.11060743 -0.13963564 0.09352108 -0.12786718 -0.22150916 0.0010638859 -0.09285143 0.1937343 0.13097446 0.21123175 0.121801965 0.47841424 0.06323473 0.03491562 0.004088705 0.032788604 0.039851505 -0.06503639 0.08770223 -0.1484203 0.046598796 0.008863032 0.044669896 -0.02761125 0.07655587 0.05946947 0.23270309 -0.23734342 -0.14638412 0.0031561744 -0.057362914 0.061773144 0.09957774 0.2716873 0.09181639 -0.12227673 -0.051635448 0.023095094 0.110758066 -0.22565377 0.18370889 0.122429535 -0.1841595 -0.123196565 0.042117815 0.19608204 0.16851819 -0.0136804 -0.16863383 -0.07454845 -0.19347529 -0.04708004 0.26542178 0.047908876 -0.21384542 0.082637616 0.19072749 -0.19036561 -0.14158155 0.051449135 0.29607692 -0.043335155 -0.012087077 -0.113417074 0.0120978365 0.2136084 -0.1370021 -0.06605489 -0.031792827 0.07972899 0.15892564 -0.02871029 0.18335633 -0.16542354 0.26757917 0.0035962127 -0.23744568 -0.0050122184 0.19641976 0.08644263 0.25456232 0.033046525 -0.05100756 -0.22384788 0.23529729 0.07380631 -0.060504664 -0.14486584 0.18379396 -0.10194006 -0.10596294 -0.18799454 0.088670775
1244 -0.096788496 -0.012941878 0.07784951 -0.041709173 0.015598912 -0.20787099 0.20643827 -0.16349223 0.010500458 0.08495932 0.19729587 0.09289492 -0.30318856 -0.1529465 -0.21683674 0.07042556 0.010802669 -0.012646569 -0.005110642 0.0815638 -0.14042047 -0.13879833 -0.18431967 0.06363281 0.19312115 0.00980756 0.109405704 -0.1200454 0.13477646 -0.08334378 -0.16306382 -0.14962763 -0.08485821 0.082432084 -0.1213463 -0.0015859684 0.1270445 0.17812905 -0.36576006 -0.11519616 0.117598005 0.024033338 0.2230987 0.0012113419 -0.03893396 -0.015451254 0.47411206 0.20253092 0.11805954 0.07218535 -0.100580834 0.12880148 0.22646572 0.13543355 -0.053260736 0.09333929 -0.039363664 0.008143657 -0.2266594 -0.107456885 0.14087482 -0.20888177 -0.04764706 0.030287283 -0.072928965 -0.08296319 -0.07984739 -0.07472339 0.1350121 -0.062415663 0.2829453 -0.085782945 0.043735377 -0.20264079 -0.25775367 -0.065942675 0.07461278 -0.022509817 0.07123411 -0.10667397 0.18998718 -0.042553905 0.028457688 -0.22122788 0.016809039 0.20491198 0.007905185 0.08343492 0.04615976 0.08870134 0.124503784 -0.050084017 0.03791715 0.28928363 -0.013526289 0.09320023 0.036863085 0.3543366 0.298897 0.005019831 0.1860676 0.1462518 -0.46057773 -0.089160204 -0.14442387 -0.056817014 -0.1656203 -0.0743035 0.11204294 -0.00032366428 0.08682912 -0.21577029 0.11360697 0.11054606 0.15557793 0.14770068 0.16489294 0.35322854 -0.14183891 -0.1338639 0.007205341 0.08397388 0.1106362 0.0071165296 -0.5005752 -0.20966533 -0.022606108 -0.035974592
657 -0.057597987 0.10696841 -0.084143296 0.016573504 -0.08565799 -0.06822956 0.008441915 0.109382145 -0.10461204 0.20076382 -0.0456715 -0.16246623 -0.21557795 -0.08111423 -0.19377328 -0.0046703983 -0.08953734 0.03318202 -0.273174 0.2952295 0.20927049 -0.012448896 -0.052307796 -0.04639499 0.21846072 -0.16750848 -0.11097699 -0.23038107 -0.14501755 0.19403493 0.16838546 0.3423731 0.043879297 -0.18250005 0.275111 0.19128998 -0.031698614 0.21475142 0.018119944 -0.11952841 -0.031846043 -0.006400912 -0.11776977 0.08610665 -0.085576564 0.24887888 0.13321294 -0.014773098 0.09348548 -0.12919648 0.001373824 0.18959202 0.07978417 -0.017543133 -0.112272054 0.040913932 0.015594964 -0.14916886 0.051185098 -0.023304647 -0.2272927 -0.2443636 -0.07889526 -0.11870841 0.21116869 0.10947789 -0.33008105 0.25941628 0.090995684 -0.15289588 -0.16664353 0.039274488 -0.11458392 0.0320698 0.1974312 -0.012674631 -0.11805357 -0.332681 0.16314456 0.10395932 -0.10039965 0.04784913 -0.15206912 0.14007568 -0.07191726 0.016944865 -0.1792275 -0.05122385 0.056900583 0.10722217 0.116757005 0.5315683 -0.12865832 0.046224847 0.051871087 0.083206244 -0.044687897 -0.054802593 -0.021744214 -0.094667725 0.08432137 0.115714446 0.108314805 0.118017696 0.15250413 0.18775345 0.040511258 0.1452672 0.04597701 0.04080982 -0.13174027 0.08157274 -0.19064899 0.11103435 0.06510684 0.067386255 0.038950775 -0.064904906 0.015284744 0.18358214 0.21989891 0.04823434 0.21578704 0.09407632 -0.12595613 0.0069155404 -0.24997176 0.1798009
1338 0.1331727 0.09223048 -0.035866734 -0.3182206 0.20826346 -0.001565348 0.016631167 0.031916574 0.08227818 0.3242436 0.2333854 -0.29360613 -0.086375915 -0.3241696 0.07337122 -0.063912265 0.16339609 -0.012156966 -0.15446907 0.21927038 -0.28628176 0.025360547 -0.116977766 -0.071374424 0.034287505 0.10879154 0.08561319 0.15450245 0.0673514 -0.18167122 0.28868368 -0.1736611 -0.029460924 0.066604234 -0.12909774 -0.12322218 -0.081735276 0.22472905 -0.41847324 -0.1292695 0.3377584 -0.17889214 0.09395687 -0.04891724 -0.069291815 0.15496306 0.13222513 0.025913792 0.025840284 -0.14507996 0.0118549755 -0.021294532 -0.035763174 0.0031944476 -0.15508126 0.1668918 -0.092848085 0.20856938 -0.08227811 0.0315489 0.17854972 0.06560322 -0.26902223 -0.1464564 0.16391851 0.06145931 -0.08942251 0.18043385 0.16755939 0.05770087 0.1434817 0.04925686 0.049303286 0.064039856 -0.044151984 0.060862184 0.12254533 0.02098223 -0.008959501 0.07669308 -0.13826509 -0.06190987 -0.12873939 -0.028124321 0.21532379 0.017092777 -0.016670113 0.008987744 -0.076811075 -0.20336336 0.24003293 0.22315833 -0.2238592 0.40610522 0.06264387 0.15875928 0.13950066 0.112843245 0.24016345 -0.032031868 -0.23362795 -0.07060609 -0.12119138 -0.23254625 0.12074041 -0.0011804805 -0.06133374 0.0050062872 -0.20394635 -0.13613401 -0.2611162 0.025370736 0.19172099 0.14877273 0.3315873 0.11956879 0.1843368 -0.075643525 -0.014762015 0.3177808 0.13833234 0.0791831 0.06968134 0.016251436 -0.3389912 0.023106916 -0.19676074 0.023737688
1480 0.071038395 -0.05684154 -0.06467718 -0.14846307 0.16775137 0.0613644 0.105989315 0.13195086 0.020237856 0.26858798 0.16383569 0.20599678 -0.13280794 -0.12365868 -0.04609244 -0.32333 0.03489992 0.38351122 0.02899672 0.3749401 -0.003224126 -0.23425189 -0.013047588 0.06709921 0.24064223 0.15188451 -0.42476737 0.12087078 0.07405516 0.01487319 0.057332613 0.11196354 -0.13901897 0.11603244 -0.09861741 -0.06550376 0.11677698 0.18130039 0.066747025 -0.08022771 -0.15891968 -0.20059708 -0.16234773 -0.15127452 0.031123394 -0.0926582 -0.031820476 0.018183218 -0.036219712 -0.14884546 0.076855555 -0.096947856 -0.084646806 0.12332822 -0.18133561 0.22853498 0.0676597 -0.09022971 0.11263961 -0.0039949915 -0.0979014 0.08461735 -0.17088108 0.17144197 0.15813386 -0.16940175 -0.046546157 0.3281358 0.099191435 0.24452952 -0.023305938 0.078510605 -0.10501292 0.02958225 0.2178358 -0.029230682 0.14320242 -0.40560114 0.014254724 -0.0010707271 0.31945446 0.09738648 -0.062123623 0.04738353 -0.23988704 -0.14981307 0.065709494 0.0245687 -0.08619917 0.10071231 0.29119918 0.12254938 -0.08986125 -0.15450072 0.10011825 -0.15916413 -0.09590409 0.15825412 0.0109350765 0.039066043 0.0856327 0.13025095 -0.016811721 0.0026120287 -0.26241636 0.06601806 -0.0112600885 0.12457481 -0.0020957496 -0.18348062 -0.03209882 -0.024907794 -0.019432921 0.16550949 -0.113551326 0.15848847 0.0036671192 0.13151585 -0.26676652 0.10956002 -0.2114482 0.08488128 0.007615987 0.054419223 -0.02683533 0.1697478 -0.3271597 0.15289275
983 0.024187503 -0.36852077 0.06656438 -0.30836552 0.26552215 -0.22511333 0.06559931 -0.02326879 -0.093721814 0.044825323 0.04534531 0.13279718 -0.06938093 -0.31056848 -0.08120825 -0.15106758 0.109796844 -0.10795925 -0.13940647 0.07911758 -0.119065054 0.2055454 0.030989438 0.09096851 -0.22124204 0.019340994 0.06800406 -0.050834127 -0.024594134 -0.18503469 0.0887314 0.018576384 -0.06293059 -0.11282828 -0.15928765 -0.054510035 0.013490027 0.050910104 -0.24978152 -0.13064602 0.108072415 0.03993669 0.16556995 0.004854554 -0.006758947 -0.045718547 0.15878715 -0.061366208 0.08525701 -0.00397099 -0.26783842 -0.030310698 0.11419661 -0.061995547 0.09572964 -0.08949384 -0.100571096 -0.023065181 0.0663705 0.17619361 0.0011393069 0.19023602 -0.016642049 0.05371879 0.13352543 0.024515858 0.09579928 -0.026593054 0.03845605 -0.15159108 -0.23071648 -0.14831413 -0.053737786 0.044157673 0.15153919 -0.043978993 0.10262897 -0.22996764 0.28315645 -0.07137014 0.14908934 -0.05032592 -0.09899266 -0.076884784 -0.06306576 -0.08613224 -0.029359272 -0.13728642 0.14630596 0.16710427 0.2813206 0.38444766 -0.04092997 0.08545215 0.014510937 0.35434484 -0.020890497 0.12877254 0.17400345 -0.098283656 0.12528566 0.0608799 0.2628565 -0.09724343 -0.023661418 0.083486445 -0.043804508 0.19086157 -0.005396241 0.031286087 0.115595445 0.03843013 -0.20962338 0.1841361 0.027611786 0.0121608935 -0.22103603 0.041829094 0.04388312 0.0020409445 0.010125044 0.21140803 0.12609035 0.006557129 -0.22352889 -0.0035985645 -0.025946511 0.28556642
1210 -0.08690484 -0.2591311 -0.12498111 0.22005206 -0.07729165 -0.09223924 -0.25173426 -0.11515652 0.042754553 0.1958248 -0.16320962 0.08758314 -0.10136173 -0.043400396 -0.08621837 -0.07536088 0.12226775 -0.07466943 -0.16446556 0.08564238 -0.03834265 -0.06501126 0.017235983 0.30319294 0.064114705 0.28866938 0.023646548 0.087510556 -0.00018992099 -0.17239505 0.06880867 -0.0050581666 -0.11942288 -0.024845961 0.10093088 0.07844644 -0.15262437 -0.0142080225 -0.20467806 -0.17329082 -0.07696037 -0.11907525 0.08333686 -0.11920203 0.12403191 -0.04720937 0.10986398 -0.117638394 -0.12880063 0.01717382 0.08806139 -0.05675591 -0.35628614 0.033455558 0.013483896 -0.078652866 0.21398047 -0.33894235 0.15839013 -0.05260024 -0.008470729 0.3399765 0.034597088 0.26607293 0.0040854993 0.26809368 -0.02183499 0.080929555 0.3962105 0.23269191 -0.114294335 0.08537184 0.16606613 -0.083048455 0.023117248 0.38412693 0.08821092 0.06736803 -0.20621577 0.13391471 0.13129225 0.14686784 -0.018946871 -0.12223379 -0.111146234 0.4571954 -0.061340798 -0.027542187 -0.107299015 -0.14602104 0.1408636 0.084715694 -0.35065523 0.13591395 -0.038753543 0.1682234 -0.019872539 -0.029497446 0.05682371 -0.08773434 -0.07920068 0.008853976 0.027748534 0.07780939 -0.3466214 0.058913954 -0.18367957 -0.10906975 -0.18871164 -0.027339073 -0.20993957 -0.018401532 0.06917008 0.20597643 0.20582159 0.02417542 0.15511656 0.03352737 0.032755665 0.06332473 -0.31331965 0.121411316 -0.04427829 -0.07481761 0.019393826 0.14371692 -0.30304486 0.030505508
749 -0.05198083 -0.20929134 -0.07622786 -0.2100164 -0.23742074 -0.026588768 0.21920489 0.17296176 0.019966852 0.0029028975 0.05593102 0.13073155 -0.16159871 -0.08103531 0.061338905 -0.19734845 0.27567255 0.097485885 -0.0015469359 0.32176456 -0.0038847467 -0.13930741 0.11816462 -0.022030031 0.078490056 -0.00097129715 0.023126885 -0.1853586 -0.15121856 -0.050981604 0.35662445 -0.08721844 0.016272573 -0.037513915 0.078406006 -0.22643106 0.0448329 -0.00011010399 0.03231659 -0.11542792 -0.02273293 -0.12378512 -0.09137266 0.017729808 0.2441786 -0.017889684 0.1891781 0.06737601 0.0049226084 0.07102243 0.1434759 0.102247566 -0.20185986 -0.05260978 -0.06472208 0.13573048 0.14732772 0.086962976 -0.22221436 -0.2118849 -0.059636805 -0.15277731 0.05421501 0.047639806 0.09750336 0.14264193 0.009358582 0.067714036 -0.19521908 0.1515418 0.05653248 0.0065750843 -0.12268653 0.029041054 -0.12009982 0.20180982 -0.14808597 0.061675973 0.34093994 0.038473688 0.14557767 0.001266372 -0.07670508 0.010262242 -0.17620489 0.12596248 -0.11731518 0.09655878 0.21686083 -0.15688124 0.15891801 -0.03717891 -0.041257445 0.11977556 -0.13909724 0.22653204 -0.2946086 0.041189097 0.21336582 0.22569124 0.11642873 -0.098351985 -0.14406572 0.12485256 0.10395794 0.04101258 0.14698401 0.03379791 -0.03517168 -0.02087277 -0.29693452 0.07293594 0.13566327 -0.03592446 0.25478527 -0.14312118 -0.13848174 -0.018595187 0.13304828 0.17669371 -0.18457295 0.14080556 0.2947821 -0.087831706 -0.18013057 0.057253376 -0.06089276 0.23824047
1452 0.12261353 -0.04086308 0.03901389 0.25374842 0.061694138 -0.04244481 0.06707977 0.03376465 0.21718863 0.060256306 0.16520646 -0.12065398 -0.17671686 0.010225046 -0.11175123 0.03216228 -0.06672418 0.14164244 -0.036561012 -0.0810242 -0.13859662 -0.21523519 -0.072219275 -0.027178062 0.17379406 -0.029352065 -0.16756266 0.03671281 -0.13306119 -0.10764501 0.118004926 0.054360818 -0.30120024 -0.200303 0.09270271 0.027882729 -0.04959283 0.11155263 0.24127972 0.04979729 0.17690197 -0.001612302 0.16491838 -0.06163528 0.1542084 0.27690768 0.11306115 0.04776332 0.052933805 -0.058839783 0.06696963 -0.10758834 0.24460971 0.09651466 0.22482547 0.27239922 0.29311138 -0.06190677 -0.15229857 -0.03962953 0.027256588 -0.06960468 -0.36508882 0.113875255 0.29638013 0.11295677 0.06846913 0.23608564 -0.03385959 0.227636 0.24912553 -0.033096556 0.2633481 -0.23315096 -0.17401704 0.033638693 0.13795558 -0.35499793 0.049255885 0.0127020385 0.2545977 0.03632652 -0.20981151 0.01414922 0.19857614 -0.16581239 0.3045436 0.22054164 0.03328121 -0.1220941 -0.04678478 0.104867846 -0.028463297 -0.08329522 0.033633918 0.112075455 -0.008262986 -0.2693128 0.030903317 0.2968211 0.024624856 -0.1261557 0.11195848 -0.20425473 -0.22584285 0.03372434 0.003466451 0.026277624 -0.17284863 0.1972897 0.0742712 0.040906426 0.034865938 -0.17521538 0.054871682 0.035496153 -0.15802172 -0.010445486 6.0950217e-05 -0.29031032 -0.07808479 -0.117235646 0.35030708 0.18248793 0.038396668 -0.2149577 -0.119220935 -0.066019006
1486 0.04087048 0.019515174 -0.3457121 0.032152362 0.1886872 0.09865637 0.2090319 0.22604318 -0.17760506 -0.03385451 -0.042224083 0.010123495 -0.08042566 -0.17718995 0.32424653 0.15661055 -0.14764224 0.094792284 0.012303699 0.22163603 0.15605214 -0.06390357 0.16229795 0.17457804 -0.02420857 -0.17606139 0.028130466 -0.20897464 0.2017931 0.0074094124 0.13655336 -0.004723149 0.1685846 -0.20633788 -0.0071098777 0.04526204 0.012339581 0.06866904 -0.358465 -0.05825413 -0.026004214 -0.08434331 0.31750426 -0.022221938 -0.20742069 -0.02050644 -0.012941963 -0.14222135 0.10441373 -0.16028377 -0.103732206 -0.07378322 0.04887721 -0.046274845 0.19790116 0.07120762 0.19694088 0.00521932 -0.11795457 0.034237858 -0.05255878 0.15517548 -0.26097855 -0.17210999 0.15770133 -0.060405675 0.040468425 0.31396416 -0.11998579 0.033801362 0.055706553 -0.17244701 -0.05832466 -0.0010637401 -0.3151789 0.17893513 0.019545723 -0.29258227 -0.109709054 -0.021907913 0.12437135 -0.220806 -0.13466324 0.18660448 0.09822289 -0.08485182 -0.08661357 -0.31954014 -0.06712053 -0.06670931 -0.012608566 -0.05282046 0.021890953 0.11204659 0.10781663 0.16150472 -0.15411966 0.057354756 0.09120296 0.006559415 -0.14405742 -0.17846064 -0.24212356 -0.028750358 -0.22220221 0.07867741 -0.012097636 -0.17475283 -0.11483332 0.20238441 -0.15568931 0.16790408 0.09920475 -0.04288745 0.09294288 0.07652011 0.10883937 -0.15498987 0.142192 -0.016145634 -0.14997041 -0.120650366 0.031855643 -0.092693515 -0.09842704 -0.10858227 -0.11264262 -0.1621882
910 0.027758274 -0.07664833 -0.03361952 0.39656326 0.14453243 -0.21252406 0.16932955 0.10814223 0.030342788 0.092208154 -0.26946765 0.19951566 -0.25499314 -0.22381155 -0.31137145 0.23175168 0.029057024 0.07452843 -0.17281607 0.26295573 0.0215898 0.0213902 0.004413431 -0.18743734 0.052871894 -0.16669539 0.010215265 0.12520392 -0.014254906 -0.23073637 0.0006477013 -0.10304982 -0.15636419 -0.08847002 0.14055336 0.13186282 -0.13277446 -0.10828188 -0.36965385 -0.041046016 -0.07192413 -0.01152323 0.12603629 0.14680055 0.06616041 0.1450844 0.094273634 -0.038363263 -0.085182756 0.017044913 0.32895842 -0.18462358 -0.2408989 0.03646103 0.019919807 0.10344263 0.15468615 -0.20074998 -0.27776745 -0.07656946 -0.118215665 0.12954468 0.20743221 0.21226735 -0.26181036 0.05906569 -0.27630675 0.03729576 0.24976464 0.16561997 -0.14394438 -0.004143299 -0.047883153 -0.045094498 -0.1569732 0.20471546 0.22527294 -0.24285033 -0.009719086 0.12338817 0.058951627 -0.20439328 -0.22946532 0.113742664 -0.09353591 0.07409271 -0.18765357 0.28207228 0.050105985 0.007867434 -0.07199031 -0.13021238 -0.15854508 -0.007644616 0.09395332 -0.23050527 -0.3154008 0.05522791 -0.05632045 0.041056354 -0.029287985 -0.062630676 -0.23523615 0.23471186 -0.029288292 0.1508817 0.023328843 -0.08460838 -0.012649895 -0.09465259 -0.19257842 0.31354764 0.21323843 -0.18714406 -0.035612937 0.11653153 -0.0718729 0.24347425 -0.23528925 0.06714739 -0.06338305 -0.05188274 0.09200876 -0.03006598 0.052851852 -0.09344433 0.06236759 -0.07731629
1353 0.18797927 0.06091665 -0.19220516 -0.038267102 0.10587168 0.12500785 0.21248381 0.162458 -0.11029513 0.24460252 -0.032565467 0.048631463 -0.13425426 -0.099745244 -0.034651242 0.116014645 0.036980946 0.10402087 -0.2305682 0.2631429 0.14963295 -0.10171384 0.1126401 0.12345576 0.033303242 -0.09032009 0.0552634 0.11335978 0.14213459 -0.062321674 0.10776323 0.060680658 0.09506383 -0.061096217 -0.10237737 -0.0028572294 -0.09122904 0.1451587 -0.39389744 0.0048718303 -0.2562378 -0.2934445 0.08116701 0.13733703 -0.13632408 -0.040376954 -0.015267292 -0.10029329 0.11112921 -0.145517 0.017143043 -0.18238552 -0.094885334 -0.10184992 0.19091214 0.029222688 0.23452267 -0.08135169 0.16334136 0.03788431 -0.048381872 -0.19519885 -0.100176774 -0.16066092 -0.09473672 0.14834684 0.058450073 -0.1168643 -0.011538767 -0.20611197 -0.014724172 0.18394026 0.12076693 -0.057168104 0.05598406 -0.26389205 0.08160104 -0.04972913 0.02913805 -0.04228252 -0.048277248 -0.10077506 -0.18727264 -0.18371613 -0.14035943 -0.046239838 -0.0021414708 0.22489166 -0.0005700764 -0.02024095 -0.028303118 0.0040478236 -0.15573397 0.1425445 -0.14570038 0.12862645 -0.21440807 0.11979721 0.24633832 -0.00957113 -0.24594475 -0.08966444 -0.092362 0.15350989 -0.016081031 0.36572695 0.073117666 0.08645626 -0.17566617 0.20371939 -0.11724899 -0.07647495 -0.2412769 0.015043967 0.11069649 0.1353758 0.034326646 0.13726808 -0.1179868 0.0432315 -0.122184336 0.014933405 0.26926705 0.15741338 0.00039849302 -0.19853015 0.023535425 -0.32771152
