2586 128
1092 0.09026662 -0.2550877 0.23029812 0.008946955 -0.0015251685 -0.029457605 -0.10115268 0.1305132 -0.29772738 0.071742006 0.24575916 -0.3325558 -0.0036302388 -0.07060522 0.103619196 -0.048201233 -0.0788709 -0.1643156 -0.0340157 -0.24671888 0.106893726 0.03297976 -0.26350296 -0.13672206 0.13011679 0.29312044 0.03729349 -0.2613135 -0.057983756 -0.26398644 -0.08236398 0.001475372 0.117841154 -0.053431626 -0.05796405 0.0966431 0.1175544 -0.09234858 -0.07524513 0.0058975653 -0.28174716 -0.0043489323 -0.27899885 0.16025561 -0.120712556 0.11545312 0.034224454 -0.22498639 0.05363548 -0.0028284048 0.027867012 -0.25813577 0.16408984 -0.02558113 -0.0052931583 0.1679469 -0.1259061 0.12658162 -0.08760625 0.104269326 0.04499092 -0.049092375 -0.050978336 0.21732315 -0.06443851 0.1569554 0.08006119 0.28119433 -0.06580938 0.0141882645 0.006967009 0.2822671 0.10459644 -0.12023015 0.06968997 0.22249366 -0.2839685 0.1116379 0.087965146 0.2646195 -0.12504439 0.032167803 0.13293108 0.00981634 0.0027885244 -0.16224714 -0.30750063 -0.06007097 -0.061217222 -0.1679504 0.13786416 -0.0840142 0.21337889 0.04778992 0.08853543 -0.12798133 0.12577035 -0.049756788 0.20923024 -0.07595293 -0.11722559 -0.15063544 -0.15665676 -0.027556542 0.21300296 0.054557025 -0.21615337 -0.115566984 -0.38677973 0.0836055 0.01950782 -0.011550191 -0.15083839 0.1168045 0.040827695 0.17853329 0.1369356 -0.03711239 0.06892795 0.10827255 -0.021733064 -0.17051259 0.10072554 0.022299862 -0.25020328 0.02764126 -0.17809562 0.17910513
1623 -0.105580576 -0.045643862 0.2039655 0.07321456 -0.16994596 -0.049915493 0.026788464 0.108962364 -0.18191013 0.3860217 0.06499834 0.048673738 0.06870643 -0.113285996 -0.1257058 0.0879234 -0.18085766 0.22996315 -0.17935294 -0.2567029 -0.22810553 -0.10247777 -0.070830196 0.0047622756 -0.050868683 -0.05584492 -0.21008454 -0.13997151 0.22650136 -0.19318208 0.031105176 0.09403686 0.10721816 -0.04386173 0.15092303 -0.017952941 -0.046957288 0.17973627 0.06464918 -0.1448319 0.16260114 -0.13699493 -0.006699203 -0.018011112 -0.11760468 0.044326358 -0.100457594 0.06885689 0.28930542 0.09105494 -0.1576498 -0.20719191 0.19629493 -0.017231492 0.014451404 0.009649505 -0.11635019 0.2896065 -0.1345351 0.13461159 0.011363 -0.029114483 -0.05160321 0.08389822 0.2975994 0.03309544 -0.01974767 0.10888057 -0.15505753 -0.15140136 -0.13911672 0.27102366 0.21992916 0.040744435 0.04385811 0.26971227 -0.04499398 0.0061118025 0.14935109 0.044431467 -0.04681096 0.21201889 -0.10359995 0.03859778 -0.1879893 -0.14503096 -0.15111542 -0.0896458 0.014343551 -0.09785657 0.17712677 -0.09443468 -0.043883037 0.04075354 -0.093129806 -0.13802788 0.14871335 -0.29279354 0.22721319 -0.023906585 0.004369827 0.17765905 -0.27448007 0.09244652 -0.12862073 0.12202736 -0.06622162 0.106135756 -0.16608194 0.08591207 0.23628835 0.1667623 0.22409661 0.10004729 -0.24650249 -0.32814342 -0.20841011 -0.25542483 0.21822701 -0.14398737 0.009091684 0.08652314 -0.3905394 0.4125785 -0.065283306 -0.13737291 0.027055485 -0.0022120965
898 -0.11811037 0.3977994 0.12607236 0.001262898 -0.27519286 -0.004182615 0.12234659 0.12730986 -0.045784164 0.1081857 0.065595336 -0.0083113415 0.12637964 -0.104595795 -0.08373934 -0.12245674 -0.20590198 0.023612913 -0.047304932 -0.2526477 -0.005823195 -0.21206202 -0.022083895 -0.11520949 -0.011687479 0.10326204 -0.032562967 -0.103720345 0.04413778 0.028618127 0.23172498 -0.079975136 0.051773433 -0.21698852 0.04159498 0.14636578 -0.06960488 0.039671544 -0.08295288 0.036642056 0.12604432 0.31621066 -0.2661025 0.082433864 -0.052088093 0.04699334 -0.2116513 0.1646829 0.1088239 -0.22686598 0.038980775 -0.22634588 0.12300401 -0.17033924 0.46580988 0.09032249 0.079226 0.09264941 -0.19727482 0.12910008 0.05162232 -0.21723038 -0.16622584 -0.14971548 0.13991274 -0.10193327 0.01848703 -0.0319782 -0.17797482 0.30350402 0.10781017 0.31077304 -0.018367888 -0.21680194 -0.11362837 0.044758387 0.13903548 0.16349722 -0.19917521 0.18578073 0.023751523 0.09911722 -0.029799355 -0.1171942 -0.24393559 0.0047371928 -0.0745916 -0.056626868 -0.14508934 -0.09723901 0.18194185 -0.033450276 -0.19607352 0.019467682 -0.13068624 -0.0033835105 0.019660778 0.06776722 0.020396959 -0.04666987 0.34263825 -0.2806611 -0.29166466 0.0575458 0.2225552 0.03994283 0.011786783 0.21690401 -0.15463282 0.06990992 -0.13598216 -0.2921651 0.17400067 0.023027955 0.0865738 0.3944739 -0.09073471 0.09004234 0.23347989 0.0116110705 -0.043832775 0.21813338 0.10956165 0.08094778 0.12642956 -0.072514616 -0.12629785 -0.26470798
712 -0.29731783 -0.16228957 0.19632295 0.016057877 0.1671632 0.046781693 0.27137205 0.024287773 0.10070791 0.052682325 0.0030375747 -0.21872567 0.035930607 -0.07083004 0.22613874 0.04729978 -0.22696795 0.0153208645 0.21691583 -0.121146545 -0.12586117 -0.23911676 -0.08613069 -0.14452025 0.017848268 -0.0013853948 0.0061350362 0.035726994 0.019343186 0.15594684 0.07902487 -0.0875437 -0.06935387 -0.08526584 -0.020499155 -0.017128509 -0.0025539459 0.29244298 0.014404529 -0.26818305 0.063200906 -0.20742957 -0.035182264 -0.13036267 0.24302445 0.21027228 0.035473324 0.035204474 0.071383804 -0.10108971 -0.10795204 0.08837687 -0.109143674 -0.07748488 0.24502714 -0.004725748 -0.054751124 0.14612278 -0.026056822 0.17733277 0.22200815 0.04420365 -0.15784362 -0.050385587 0.041142758 -0.038117606 0.1988073 -0.064290226 -0.050054464 0.2821344 -0.36513862 0.102151915 0.00039688178 0.18592024 -0.07982505 0.08802978 -0.13771236 0.10825014 0.09057358 -0.08108553 -0.083792046 0.21253331 -0.20801546 0.03473906 0.20937485 0.1504903 -0.29134187 -0.28570697 0.09113072 -0.31453136 0.1083998 -0.20726019 0.050372455 0.04981893 0.23825318 -0.039695308 0.12620153 -0.029215816 -0.16778189 0.13715944 0.04637988 0.17015162 -0.027198141 -0.036175787 0.1052072 0.030999264 0.10547475 0.0726411 -0.15268259 0.2077879 0.06647677 0.05242737 -0.09467257 -0.06724393 0.0024009864 -0.1319635 -0.13412917 -0.036500584 0.11463445 -0.019026315 0.10543653 0.46526435 -0.0755818 0.16546202 0.024491439 -0.070693225 -0.15092762 0.045850717
942 -0.10635059 -0.104790844 -0.063515894 -0.1693371 -0.12095945 -0.023622368 0.12681626 0.25428873 -0.25726232 0.030712688 0.0034298112 -0.29981044 0.08391957 -0.10191523 0.2202864 -0.13399513 -0.27437192 -0.10658653 0.018422674 -0.10226186 0.054951847 -0.1466866 -0.36529002 0.056308948 0.047441833 -0.10995756 -0.21261464 0.05446047 -0.022208823 -0.14372408 0.05405495 -0.13624291 0.21891758 -0.2526365 -0.2089361 -0.029044585 0.11338798 0.13688101 0.06660661 0.14150979 0.10771636 -0.25594062 -0.061088987 0.013761973 -0.028449077 0.010275414 -0.006179437 -0.16270755 -0.075095974 -0.2853043 -0.034147505 -0.10653913 0.19343664 -0.21570152 -0.070364736 0.36062467 -0.09863873 0.15187158 -0.099510655 -0.092356555 -0.03878649 -0.18881205 0.064013295 -0.15026915 0.041189373 -0.17874216 -0.20057237 0.0713868 -0.022746827 0.118306875 0.16593803 0.20545612 0.017220208 0.033930484 -0.1678894 -0.03682299 -0.053528976 -0.23522055 -0.065629125 0.08461229 0.23061602 0.09747442 -0.027950963 -0.03951188 0.028309727 -0.12831686 -0.15154721 -0.1258973 -0.15479113 -0.037525535 0.04040419 -0.009336532 -0.14370242 0.20568436 0.012184058 -0.21185882 0.070253186 -0.11420589 -0.15368596 0.05342895 -0.4553883 -0.12473634 0.1637084 -0.15305845 0.1497448 0.1269454 0.062422726 -0.009307854 -0.06425871 0.011180132 -0.074010216 -0.008693043 0.09575675 0.15927806 0.24241117 -0.10976842 0.083386034 0.15189621 -0.13447273 0.11577596 0.18229699 -0.1643798 -0.10301988 -0.10049171 0.052391943 0.040664464 0.07588923 0.06318588
1595 -0.05565572 0.26511425 0.037927512 -0.27088854 -0.3365843 0.052029185 0.19183701 0.25500315 0.1379536 0.11765876 -0.14893715 -0.21459235 0.12322136 0.27052498 0.14653017 0.1193484 -0.068910204 -0.019774657 0.08868453 -0.15744495 0.082047805 0.2894157 0.12508978 -0.19431086 0.15569286 0.12994003 0.05079655 -0.030801535 0.30294794 0.05417693 -0.079216436 -0.2857396 -0.03138615 -0.024303533 0.05022332 -0.19193085 0.115260005 0.016895354 0.24156287 0.021324134 0.007284129 0.19045311 0.2063307 0.278643 -0.09823288 0.013410362 0.0647181 0.06600992 -0.1811871 -0.27473736 -0.101722926 0.052731898 0.14571045 0.065654784 0.16503571 0.17015013 0.025490409 0.14089347 -0.096970364 -0.042539727 0.030621532 -0.009666311 -0.1536939 0.0641888 -0.11236964 -0.21837161 -0.0997885 0.0133176 -0.4641825 0.18270971 -0.061775744 0.19322048 0.229823 -0.20466661 -0.041618053 -0.02150668 -0.23320523 -0.08319019 0.016870491 0.14195964 0.19271263 0.095555864 0.043015715 0.22869034 0.034930192 0.11246818 -0.122156024 -0.22778255 -0.07182071 -0.14055726 0.21344547 0.008133358 -0.1019484 -0.00872173 -0.05221549 -0.016139362 0.26631886 -0.14793918 0.19186872 0.014504709 -0.15587358 -0.10201057 -0.053564366 0.15903488 -0.018861244 -0.036548402 -0.104977876 -0.13480562 -0.19291143 -0.21395522 -0.211817 -0.30189115 0.09203865 0.03181205 -0.0029225529 -0.10193758 -0.12527965 -0.347257 0.28299397 -0.19845986 0.08769387 0.06750257 0.042557273 0.01523373 -0.065526195 -0.014160615 0.038701467 -0.16038941
1236 -0.12382839 0.14649354 0.213627 0.1589401 -0.073123366 0.0734808 0.036529463 0.051630147 -0.29690588 0.09317385 -0.24043497 -0.050779466 -0.15453283 0.16501684 0.046084598 -0.08732854 0.0005397937 0.09887204 0.183159 -0.2945517 -0.2921924 -0.26616603 -0.031996526 -0.058539625 0.09544243 0.15725271 -0.13738117 -0.06433383 0.16507179 -0.09304123 0.2064366 -0.012143144 -0.056961033 -0.066996306 -0.2703448 0.13497353 -0.12177872 -0.15951079 -0.14477056 0.047501292 -0.13012637 -0.018395957 0.022484375 0.14151973 -0.06888239 0.08488393 0.14017946 -0.17587905 0.1000521 -0.20262301 0.21305951 -0.122748 0.07243385 0.19781353 0.15497024 0.12086726 -0.042557478 0.24493901 0.08856514 0.32796794 -0.09449119 -0.031478904 0.22324717 -0.033897597 0.19799986 -0.18186814 0.10488808 -0.27314073 -0.01613435 0.14271757 -0.21966064 0.33319926 -0.03677527 -0.2985776 -0.22044688 -0.0015554174 -0.02493896 0.21579726 0.2024291 -0.055444222 -0.027269682 -0.14935243 0.025549507 -0.19976607 -0.051550623 -0.24032627 -0.21755877 0.10837988 -0.020280419 0.10018695 0.24469052 0.1784715 0.08823953 -0.022209063 0.124120906 0.11304524 0.09150324 -0.1712359 0.1877572 0.06391647 -0.09651478 -0.04866958 0.13857654 0.03289361 0.02364915 0.13488148 -0.023955312 -0.31948045 -0.08786415 0.21075435 -0.13439766 -0.052557223 0.14950517 -0.013582515 -0.029734066 0.06632547 0.10275795 0.08123431 0.06826416 -0.20745319 0.041022792 0.018911239 0.03040392 0.07989089 0.14454402 0.0957402 0.06523489 0.10960047
1251 0.16282743 -0.15813148 0.0177071 -0.022735843 -0.04762801 -0.10755521 -0.17091857 0.0765459 -0.1916608 -0.026624164 0.012840862 -0.06939219 0.24764408 0.06545328 -0.14953125 0.14756055 -0.1259346 -0.25513586 0.27624288 -0.1972764 -0.0031189814 0.15783621 -0.08836514 0.18539897 0.06928709 0.18558002 -0.06637902 -0.39290166 -0.020699726 -0.04255076 0.08017697 -0.0066291224 0.05260181 -0.06453421 0.0011684076 -0.14202894 0.14581254 -0.29135415 0.082261994 0.24951845 0.19617124 0.012597997 -0.06671875 -0.073836535 -0.19651757 0.08875372 -0.027634388 -0.1299773 0.31878024 -0.10646866 -0.114587724 0.02720419 -0.15151216 -0.20157939 0.3347226 0.036721773 -0.076878436 -0.0950413 0.10531425 0.35697564 0.04301834 0.16036618 0.21043894 -0.039846007 0.10227203 -0.08071282 -0.04866537 -0.26137352 -0.2835981 0.23831336 -0.22064658 0.16695368 -0.23128049 0.21562944 -0.010481746 0.23496258 -0.058624655 -0.021426367 0.21792993 -0.01696597 0.08407463 0.041239608 0.014658282 0.08505691 0.11562681 0.15569443 -0.21520928 0.028536247 -0.08287619 -0.13576156 0.102137096 0.06839863 -0.1100894 -0.09427962 -0.16393305 0.3380446 0.21731097 0.12180174 0.23042893 0.07350166 0.10882629 0.018823622 -0.19547737 0.06960786 -0.050062463 0.36446378 0.084575534 -0.026509024 -0.0032238923 -0.26073653 -0.07896533 0.1754323 -0.021382535 0.034117553 -0.13384941 -0.4885875 0.059064228 -0.0067286734 0.22789122 -0.094889715 0.35933757 0.23243213 -0.19838616 0.16873035 -0.35486737 0.07220378 0.36692432 0.20946544
2324 0.117996275 0.08439854 0.09146869 -0.12047251 -0.16197859 0.106146246 0.29597127 -0.14608884 -0.10909418 0.24014138 0.33837187 0.03671668 0.23556578 0.042459402 -0.02218149 -0.13363563 -0.020746278 0.10353044 -0.14199159 0.14164978 0.08390063 -0.07339506 -0.11334773 0.0024455234 -0.077295706 0.053616054 0.08396245 0.056422092 -0.0056256764 -0.16192387 -0.18292877 -0.21599065 -0.024898738 -0.17714414 0.16347902 0.07379263 0.48059246 0.15123056 0.13738506 -0.056476902 0.09308752 -0.16427606 0.11752466 0.08763439 0.0047126194 0.33325967 -0.32089126 -0.41276526 0.048649173 -0.11420861 -0.09110356 -0.036017854 0.26635462 -0.017203748 0.07722289 0.24385232 -0.08101416 0.1879048 0.09061016 0.004746464 0.09898715 -0.26333082 -0.069456324 -0.11183995 -0.056063622 -0.12812483 0.079807326 -0.046570417 0.22626814 0.26732484 0.28973404 0.2563475 0.16637558 -0.10153928 0.0707421 -0.116110414 -0.11607145 0.06451388 -0.20182 0.087031044 -0.19774888 0.12370709 0.15820253 -0.29501846 -0.045036357 0.09592126 -0.25836453 -0.21438147 -0.15463886 -0.31915653 0.15295662 -0.17824407 0.089869276 0.022403693 -0.27595997 0.05206543 0.17943239 -0.07811151 0.08597786 -0.17549986 0.3001918 0.025534654 -0.10364632 0.069787174 -0.12324544 0.27030173 0.07419526 0.19003968 0.04348146 -0.108396895 -0.17246896 -0.15036334 -0.10894399 0.10210105 -0.11823959 0.07097475 0.11254925 0.08609269 -0.03139991 0.08953564 -0.08226369 -0.010497412 0.22894034 0.059476413 0.04215468 -0.18839288 -0.12246608 -0.11008974
1393 -0.09638444 0.1492696 -0.28646487 0.09257449 -0.09494198 -0.06588838 -0.25668162 0.030985553 0.061123595 0.015109571 0.16982713 -0.18561111 -0.009418919 0.13481303 0.022824416 -0.09049096 -0.22053026 0.0817898 -0.02323913 -0.18940744 -0.21184367 0.035750248 0.3329678 0.35325125 -0.001560556 -0.107043765 -0.14810722 -0.1389984 -0.025057277 -0.03600897 0.18533944 0.06693423 0.050929684 -0.19821303 -0.02832066 0.30190393 0.1076719 0.21914765 -0.13093662 -0.24204776 -0.052585132 0.254308 -0.12438108 0.12256593 -0.13041122 -0.027069863 0.11404708 -0.11307526 -0.16963583 -0.14451769 -0.14569306 -0.046771884 0.15344411 0.17879504 -0.14766896 0.12331378 -0.25134206 -0.08433449 -0.1342481 0.15333664 -0.08153958 -0.21942529 -0.19126317 -0.17402568 -0.14035292 0.07245164 0.26433763 -0.15204722 0.09207771 0.39343667 -0.13439764 0.3012599 0.08292037 0.061330084 -0.35311744 0.010294911 -0.0071663577 0.056183357 -0.16500838 0.18233912 -0.15194888 0.016777828 0.16694216 0.056479704 0.19009835 0.202621 0.08927051 0.042474497 -0.21948127 -0.1853791 0.14317726 -0.11114482 0.13545278 0.054464396 -0.02520688 0.0060846014 -0.009772251 -0.1764915 0.02936388 0.0306502 0.029866489 0.12528184 0.026653444 0.08153058 -0.08139386 0.04634846 -0.17430528 -0.08462084 0.037540462 0.013495043 -0.13761449 0.12504368 -0.20384128 0.10946867 0.14258164 -0.13584116 0.06057974 0.19369875 -0.0411503 -0.12462512 0.17902632 -0.2325242 -0.03338033 -0.011813918 -0.2817309 -0.07870182 0.12453023 0.09189156
871 0.029375685 -0.072809845 0.35327798 -0.038338363 0.014140256 0.13231757 0.07646388 0.22730288 0.09139775 -0.15805395 0.077983476 -0.21649227 -0.06204686 0.2286467 0.30825242 -0.1410809 -0.11967695 -0.030192366 0.2416551 -0.067650236 -0.19457735 0.091992795 -0.117454894 -0.16739348 -0.33075762 0.12671536 -0.2544654 -0.20003362 0.016302004 -0.013400261 0.051379252 -0.10265039 -0.117512256 -0.2169908 0.0062626167 0.337487 -0.16967937 0.029569143 0.020647414 0.02115199 -0.17527415 0.025349086 0.0032705215 0.026222147 0.054855485 -0.02957503 -0.23009789 -0.31222758 -0.051141232 -0.13169426 -0.12170936 -0.07835472 0.09012166 -0.073607296 -0.09343756 0.052527595 0.27434143 0.24335822 -0.24008779 0.10735836 0.057239536 -0.029665323 0.08670837 0.056598052 0.0772522 0.14250705 0.094204895 -0.011226177 0.15293324 0.16360609 0.19691923 0.37209585 -0.10656615 -0.019746186 -0.29857156 0.16706537 -0.035694145 -0.36909387 -0.05629367 -0.045409784 -0.020069057 -0.24878342 0.23133509 0.24068905 0.12947454 0.086151615 -0.106876194 -0.08050306 -0.024627415 -0.043098886 -0.10982707 -0.34123042 0.20560947 -0.014219097 -0.10682094 0.002254309 0.11773793 0.17482889 0.15472017 -0.008289388 -0.12511832 0.048192523 -0.18075772 0.18926819 -0.01822107 0.17924531 0.029292764 -0.026667021 -0.20012847 -0.002760847 -0.060893472 0.036672153 0.2292214 -0.019596947 0.0152798975 0.07218298 0.09192093 0.13038662 -0.11010029 -0.046803333 -0.1314629 -0.10329958 -0.15113232 0.058255848 0.36336246 0.07124314 0.10359694 0.07424845
1829 0.08147328 -0.34279466 -0.055727094 0.14953038 0.016587539 -0.17451625 0.14437895 -0.12149474 0.07574963 -0.17791864 0.06788679 -0.26675254 0.0508562 0.4369867 0.061139055 -0.08346287 -0.10895538 -0.007772987 0.06813575 0.12769304 -0.10637933 0.25676426 -0.34893847 0.02906874 -0.04167361 -0.10321453 -0.19737028 -0.15856735 0.023832584 -0.062440082 0.008578482 -0.19031468 0.14328803 -0.32095015 0.0011054644 -0.12300135 0.009236181 -0.08207964 0.19451025 -0.072983816 -0.01685773 0.035696253 0.09707952 -0.01309538 -0.14199036 -0.039499443 0.024711166 -0.120969884 -0.008079491 -0.16913235 0.008304288 0.121627025 0.20328648 -0.0072625107 -0.11271987 0.3538281 -0.082063355 0.055146925 -0.036156707 0.26478574 -0.26295018 0.16532105 0.16541629 -0.101627745 -0.12990546 -0.055406276 -0.082627185 -0.1007567 0.03814771 0.058571372 -0.06879397 0.02676808 -0.048948865 -0.050591778 -0.0015243905 0.20605339 0.092242844 0.031394783 0.16862863 0.16699845 -0.081174456 0.06153115 0.13835241 0.08753173 0.2950705 0.086442485 -0.34408754 0.15244472 -0.07900733 -0.075468585 0.06181324 -0.09142229 -0.12881398 0.114147455 0.25262907 -0.11231404 0.11355179 -0.08961593 -0.34151635 0.25840437 -0.1294923 -0.18458676 0.034340013 0.3217919 -0.09465479 0.13278867 0.1896397 -0.023763845 0.19034563 -0.113827124 0.15703408 -0.06864876 0.12445822 0.14986031 0.18997757 -0.21478564 0.17585428 -0.0070072804 0.029836124 -0.2527423 0.06638858 -0.07688289 -0.13771386 0.19492799 0.19736415 -0.1699545 0.20606427 -0.10135104
941 -0.040573597 -0.15541053 0.028356763 0.03567772 0.0576486 0.14964661 0.06634257 0.11671075 -0.07396091 -0.1455329 -0.12050574 -0.2132485 0.101889364 0.1115357 0.10742427 -0.028890466 -0.25023928 -0.010283714 -0.017484322 0.17703253 -0.15997925 -0.06495647 0.19023862 -0.09009234 0.2676742 0.12546028 -0.27807644 -0.080654144 0.21483839 -0.055396866 0.18272509 0.1770263 -0.043922525 -0.23977551 0.15217733 0.15450749 0.07022718 -0.040334396 0.17790899 -0.0955824 -0.23885018 0.08011542 -0.17852348 0.09589058 0.07321161 -0.08399064 -0.023769507 -0.051298633 -0.14985566 -0.13976541 -0.01637945 -0.26449654 0.09528378 0.1797889 0.2812055 -0.080053516 -0.15329416 -0.08372588 -0.037688956 0.071343414 0.19147904 -0.23506893 0.035646144 0.16615798 0.0264725 0.11165792 -0.016194796 -0.2520065 -0.23772246 0.18270202 -0.11226455 0.19183594 -0.16113876 -0.08249563 0.15821213 0.030311689 0.14265724 -0.111541785 0.15523593 0.079410926 0.09800293 -0.053542007 -0.23356198 -0.086089484 0.023666924 -0.21656522 -0.12327722 -0.061514407 -0.3671952 0.06301503 0.16609123 0.107191265 -0.03260394 -0.13839461 0.2857744 0.11840581 0.22761779 -0.21018076 0.26181 0.06975304 -0.37965533 0.025064223 -0.015955927 0.08463075 -0.06712169 -0.13950339 -0.21581692 -0.213014 -0.28096494 0.07651968 0.10140927 0.07586908 -0.010520606 0.20964292 0.030053973 -0.053061064 -0.17658971 -0.02256964 0.3339646 -0.0005746224 -0.005126751 0.0009368308 -0.005703006 -0.028436184 -0.17849368 -0.022001334 -0.10302392 0.1240921
1620 0.11227179 -0.1055969 0.1751565 -0.16668771 -0.037469704 -0.035994295 0.074254796 -0.1608895 -0.099157035 0.030402046 0.21602811 -0.117690995 0.019665644 0.14731498 0.06694646 -0.196775 -0.26732913 -0.14328039 0.28848398 -0.17007339 -0.00021503906 -0.017778452 -0.14896914 0.02733206 0.16587491 -0.040288 -0.3683568 -0.18046923 0.09040532 0.16743812 0.31115556 -0.031243766 0.062020957 0.029328723 -0.09575131 -0.13216165 -0.06685464 0.2005559 -0.1455802 -0.058618974 -0.09628958 -0.14600784 -0.026555045 0.011172566 0.13884841 -0.0068061976 -0.008441951 -0.30878603 -0.18706992 -0.17401384 0.06558771 -0.050422102 0.2469906 -0.103908874 0.033440165 0.0046813046 -0.18214649 -0.015141108 0.061546665 -0.048336092 0.10691796 -0.1938809 0.08221566 -0.053766333 -0.0051567066 -0.13153994 0.12241336 0.08503914 0.089403816 -0.034299146 -0.20417191 -0.026534813 0.13376155 -0.16976127 -0.07451601 -0.05313937 -0.12510274 -0.15935543 -0.040922765 -0.27757186 0.021454252 0.29084197 -0.063340925 -0.19902611 0.0030752472 -0.15882505 -0.21526274 0.0059081265 -0.00305866 -0.06585774 0.24344827 -0.30569634 -0.104950674 -0.013758178 0.36146474 -0.007940386 0.04643103 -0.119681485 -0.0256366 -0.016498026 -0.16927907 -0.19261926 -0.15434003 -0.025412532 0.012136617 -0.11034253 0.0020384365 0.12010562 -0.14926118 -0.017889708 -0.017565925 0.16022922 -0.19769076 0.09270692 0.22289786 0.104557164 0.092255175 -0.045677684 -0.03893302 -0.20826025 0.03380134 -0.03685337 0.10467896 0.12328419 0.073330626 -0.10745813 -0.07315067 0.059504922
919 0.15683825 0.26640365 0.19382946 -0.036070812 -0.09859172 0.07156167 0.121040665 0.40372354 0.1020933 0.16210556 0.30158812 -0.16322678 0.08039907 0.10719936 -0.18507862 -0.0063373134 -0.053218734 -0.25098157 -0.07376526 -0.20538329 -0.046667892 0.08314333 0.23078468 0.13384563 -0.25986478 0.040924925 -0.0844421 -0.18247177 -0.004196746 0.07651713 -0.05097972 0.030579157 -0.0831828 -0.08312425 0.17866516 0.022645112 -0.04071796 -0.0047093662 0.21881077 -0.15134633 -0.07321387 -0.008037176 0.070297346 -0.05095141 -0.38369182 0.30312783 0.028130846 0.054413598 0.08193606 -0.23093556 -0.13210833 0.0060868305 -0.09994929 -0.2226132 0.16747643 0.1632941 0.24419796 0.0032540066 0.06899505 0.34489214 0.26780125 -0.15316059 -0.05374854 -0.14301232 0.21699284 0.013963846 -0.068124 0.011384799 -0.08892724 0.16981693 -0.078221165 0.06358628 0.08872184 -0.13316911 0.052692335 0.01484935 0.21711595 -0.2177575 0.079611026 0.07516631 0.11483447 0.033177275 -0.16345197 0.025554422 0.04149482 -0.18868156 0.06710172 0.023234604 -0.03467867 -0.07245939 0.36628553 -0.0557641 -0.078799486 0.0046852194 -0.23677255 0.06272996 -0.053706672 -0.26456898 -0.10057012 -0.08869588 -0.16143084 0.058393892 -0.22021839 0.08729936 -0.19625421 0.23352675 -0.14744699 0.21865256 -0.017421898 -0.033339635 -0.044621035 -0.060727216 -8.912051e-05 0.042646993 0.19466184 -0.0324893 0.26032966 0.17288494 0.005084448 -0.0841856 -0.09057862 0.08779832 -0.08208471 0.04133127 0.048412405 -0.061590966 0.027150737 -0.1384037
1404 0.0923365 -0.093099855 0.055420764 0.026609106 -0.07426019 -0.07929307 -0.0517908 0.1356192 -0.028452504 0.15309966 0.10577001 0.1430673 0.13780545 0.15812284 0.059694476 0.100002356 -0.024088377 0.20272993 -0.025493477 -0.0878645 0.07959959 -0.0009363002 0.100077845 0.27453566 -0.036844186 0.21329272 -0.16845848 0.14628819 -0.14226839 -0.04136275 0.13782954 0.18769717 0.08463702 -0.042722214 -0.06444902 0.0019058732 0.10125149 0.066210695 -0.22117487 0.1450871 0.015826968 -0.07722559 -0.40483776 -0.04450106 -0.018501388 -0.16799967 -0.12239204 -0.01893226 -0.28990328 0.24391772 -0.10295373 -0.04114715 0.06310345 -0.06924615 -0.03301439 0.20058918 0.027512955 0.13049036 -0.1560528 0.28075525 0.042042043 -0.14604744 0.018331846 -0.15192764 0.07665376 0.033653095 -0.12855087 -0.18190047 -0.013289202 0.14177358 -0.15428394 0.45956635 0.20107219 -0.08561493 -0.018130185 0.120833986 0.006555718 -0.01262746 -0.04392245 -0.20107712 -0.3306235 0.01945038 -0.062506944 -0.1951701 -0.05667506 0.26516396 -0.24792229 -0.22775684 0.0062746527 -0.04584884 -0.00020910893 -0.09804913 -0.008183757 -0.1288074 -0.00914308 0.15647393 0.21968731 0.07823159 -0.06777034 -0.12285131 -0.037672095 -0.01708882 -0.10996746 0.1943535 -0.06439633 0.24477789 -0.22898242 -0.10683423 -0.006916725 -0.048703823 0.0413818 -0.21842894 -0.06935032 0.023221789 -0.021336455 -0.07043662 -0.11253385 -0.19141479 0.14874071 -0.032861084 -0.015335983 0.17767754 0.09362997 0.20119256 0.023404285 -0.14015713 -0.0053706877 -0.003991729
1425 -0.06883929 0.14116426 0.0006679368 -0.14485246 -0.26493797 -0.09213135 -0.012116749 -0.05451625 0.11556489 0.39994425 0.09441089 -0.2699881 -0.09210559 -0.06994313 0.32905224 0.00074684195 0.08825279 -0.2226243 -0.03924758 -0.19588055 0.043927316 -0.087972455 0.18271002 0.08706203 0.026716873 -0.10692112 0.035688113 0.092058234 -0.11260719 0.26806748 -0.05155227 0.03305671 0.026665155 -0.19112502 -0.034839146 -0.17281179 0.14901885 -0.012606125 0.35915676 0.026023025 -0.1308787 -0.121210545 -0.1148756 -0.0042079934 0.22928049 0.08300588 -0.20823981 0.052579977 -0.08203924 -0.14029537 -0.10085174 0.03154214 -0.042679526 -0.017654363 0.06692025 0.2778614 -0.08296846 0.035769273 -0.07746181 0.07293827 0.26202026 -0.1477535 -0.03477202 -0.23024271 0.2787993 0.2565564 -0.29234043 0.13759343 -0.010716307 0.04952335 -0.20444554 0.40888616 0.1379066 -0.094514385 0.024170177 0.010634172 0.20845287 0.09876059 -0.10954581 -0.063545294 -0.2627386 -0.26340622 0.42004812 -0.030931452 0.14878494 0.26503733 -0.10616603 0.11748199 -0.11763357 -0.31672385 0.18531644 0.07066037 -0.17282058 -0.025758134 0.11358005 -0.0631055 0.24329151 -0.06040947 0.009717252 0.036681466 0.0014589011 0.086394876 -0.1351705 0.28660673 -0.032336067 -0.05154198 0.23090537 0.044926718 -0.029954217 -0.102810696 -0.18689322 -0.068468824 -0.018331164 -0.18150666 -0.11163909 -0.13411674 0.1280552 0.07883457 0.13510948 -0.021214077 0.14754465 -0.004890997 -0.11601221 0.12763722 0.10221443 -0.12516564 -0.09721882 0.04427786
1093 -0.058731593 0.019824503 -0.00892837 -0.1044694 0.19349697 -0.1952354 0.045327384 -0.004108987 -0.04506835 0.0063492237 0.12040236 -0.046192735 -0.15465479 -0.2125757 -0.0801646 0.019743906 0.01667846 -0.009310552 0.19965084 -0.10906471 0.11011316 -0.14757958 -0.15510403 0.22608899 0.0658167 0.07026849 -0.052343596 -0.13345312 -0.13263504 -0.1672941 -0.011505469 -0.12184067 0.121846996 -0.057287004 -0.038392674 0.015300234 0.12196506 0.06121225 -0.05854798 0.21243027 -0.010130851 -0.04517098 0.13584965 -0.041881647 -0.15720658 -0.010875048 -0.27660304 -0.19608971 -0.15429582 -0.067801 -0.038491935 0.027692739 0.107330665 0.20723791 0.078467764 0.043612633 0.022034073 0.020028811 0.016334184 0.3559014 0.21446626 -0.14219353 -0.027209997 -0.001983666 0.070102006 -0.21593478 0.3264227 -0.318532 0.31162545 0.17973757 0.26808536 0.1892846 0.305639 0.06978547 0.07805199 -0.13016388 -0.04447641 -0.16788727 -0.21045542 -0.044963893 -0.10418062 0.4175433 0.14379828 -0.035191383 -0.1212945 -0.06650287 0.08119367 -0.16429354 -0.33261546 -0.08604304 0.103631526 -0.21130723 -0.10400094 -0.051360358 -0.21026467 -0.03799323 0.30781412 -0.28278825 -0.03255332 0.2341051 -0.18562467 -0.11392114 -0.04614468 0.016968828 0.1707121 0.15581213 -0.20625281 0.041636847 0.03536798 0.23991339 -0.019955948 -0.20958482 0.05723251 -0.060276367 0.16473024 -0.079041675 0.08825651 0.09575512 -0.24879399 -0.1671735 0.18658231 -0.21085356 0.085888445 0.3335728 0.18533659 -0.027240446 0.0707967 0.10676269
1607 -0.2143586 -0.23339374 0.12327511 -0.29135725 0.04526163 -0.17651218 -0.16488439 0.10111699 -0.039202124 0.20291336 -0.15113997 -0.14887418 -0.05118186 0.11536255 0.22155674 0.07248077 -0.04595074 -0.019761112 0.1591193 0.0038939673 0.30072853 -0.1942489 -0.12880954 -0.003741555 -0.0649935 0.22468176 -0.05118337 -0.1507508 0.061856087 0.017029261 0.07809003 0.051137343 0.116110206 -0.0016987702 -0.014897697 -0.08873272 -0.006447294 -0.010229235 0.07884585 -0.2845004 -0.023911336 0.09514296 0.07098876 -0.037580863 0.098381385 -0.122020125 -0.14051606 -0.065242775 -0.09102195 -0.061294243 -0.027341511 -0.0681488 -0.09392474 0.22435945 0.18857674 0.13431576 0.19705243 0.21202804 -0.018730603 -0.033171237 0.11180409 -0.03426887 -0.03151623 -0.23533233 0.06953958 -0.04173028 0.07320462 0.0054699415 0.078891754 0.09715875 0.009133452 0.26244414 0.3412075 -0.17227978 0.044445943 0.08797475 -0.39545602 0.22215281 -0.08526465 0.041563183 -0.10762397 0.21781138 0.045072135 0.055511393 0.046889283 -0.06915205 -0.16709255 -0.019994508 -0.10650826 -0.1857566 0.41541332 0.12092497 0.02673183 0.16385789 -0.19146846 -0.2355085 0.039389417 -0.06299753 0.11236394 0.03878683 0.1779254 0.044852894 -0.09204359 -0.09884343 0.09922875 0.2759628 0.03063626 0.0027017815 -0.030535638 -0.052092154 0.1086495 -0.08071527 0.051877648 0.28347203 0.078739226 0.03217646 -0.16958597 0.3093223 -0.0603497 -0.23536634 0.05611756 0.016491966 0.21198803 0.1579203 -0.061529797 -0.001613362 0.043179642 -0.07237684
1715 -0.23884317 -0.012056311 0.019929664 -0.10853259 -0.13310862 0.077449575 0.07247293 0.038889006 0.14140585 0.2467806 0.08732273 -0.1533067 -0.0078734085 -0.043370087 0.10504348 -0.1879725 0.11930047 0.09563049 0.0037828793 -0.1545855 -0.093389235 0.25477976 -0.1607714 -0.06959604 0.16112195 0.01893996 0.17361553 0.15247564 0.042212307 -0.15563555 0.21478635 -0.09922228 0.095284835 -0.25884122 -0.04785095 0.18092452 0.17208157 -0.057334777 0.07209593 -0.1757098 -0.02350181 -0.042430524 -0.090391316 -0.0263239 -0.2517336 -0.1661915 -0.12513205 -0.075944155 0.07928214 -0.28219855 -0.21723327 -0.0009701763 0.1727864 -0.13288954 -0.0021871638 0.1826526 0.022650097 0.23469342 0.16580072 0.223 0.35325575 -0.0896611 -0.1306127 0.21597911 0.053190738 0.21940549 -0.02677103 -0.08296136 -0.1488582 0.1641644 -0.123718545 0.17853583 -0.3012294 0.033641655 0.08128244 -0.08552754 0.02960909 -0.054982435 -0.0859917 -0.1036668 -0.06918771 0.048972085 0.07231671 0.12618053 -0.02392675 0.07378261 0.06580603 -0.18687241 0.0694018 -0.22395886 -0.0050139106 0.09213553 0.15798905 0.069476895 -0.047110364 -0.040125933 0.32384732 -0.093790166 0.09753373 0.045842238 -0.056879766 0.11352788 0.02334055 0.04721469 -0.17094351 0.19232343 0.16448441 0.1463202 -0.019038733 0.13670339 -0.20397241 -0.10907363 0.325399 0.08230552 0.060993638 -0.12758525 0.0401178 -0.052929115 0.023125071 0.07173925 0.18492652 0.034756113 -0.111508705 0.37015882 0.096081756 0.12773047 -0.073201165 -0.41367227
1375 -0.09958507 -0.031178325 0.11874789 -0.088636726 -0.15919623 0.0070707574 0.063187145 -0.024413008 -0.023309471 0.07792952 -0.26046872 -0.30613402 -0.041214615 0.276883 -0.09090861 0.083586276 -0.22330445 -0.13915339 -0.10361679 -0.2843293 -0.29977906 -0.092646636 -0.15945207 0.17017247 0.06336919 -0.04359037 -0.05590597 0.018459138 -0.19430672 0.057181403 0.06704292 0.06573227 0.17297307 -0.24289915 -0.12241857 0.121624656 -0.06862256 -0.19694863 0.23193571 -0.09840394 -0.22628132 -0.10690151 0.3279 -0.053724207 -0.1425134 0.12533066 -0.1112423 0.0013953035 -0.14007898 -0.09501978 0.21496418 0.04023578 0.24014957 -0.004277511 0.03002397 0.24744503 -0.031706374 0.077957675 0.03271724 0.27902558 -0.037889864 0.035836395 -0.06265883 -0.04287615 0.20116208 -0.114097916 -0.044436995 0.10495468 -0.0900032 0.18869835 -0.10425105 0.23226047 -0.12403149 -0.18979856 0.07149419 -0.013250123 -0.0067725773 -0.25212356 -0.045502935 -0.13930766 -0.36234537 0.32438642 -0.05643486 0.20923528 0.114501536 0.027963495 -0.058124717 -0.13571225 -0.2468262 -0.26309395 0.04197627 -0.01834815 -0.08860257 -0.018094081 0.28053868 0.003018987 0.00035233778 0.26767102 -0.16178393 0.0107638985 -0.25795114 0.010412114 -0.13349049 -0.043038636 -0.11908381 0.10798114 -0.04973262 -0.0927886 0.1330204 0.098463275 -0.04224855 -0.15438855 0.020720035 0.116840795 0.23938985 -0.18451644 0.036575604 -0.053897947 0.14949636 -0.28778172 -0.16382311 -0.0712167 -0.048555486 -0.04742107 0.0545796 -0.14544563 0.061310515 -0.072032854
1944 -0.027193202 -0.08500381 -0.02764713 0.04025707 0.19630983 0.14963375 0.29213378 -0.00062729797 0.035059366 -0.12682937 0.049128518 -0.072329625 0.28016323 -0.13998424 0.27567744 0.08955934 -0.18457092 0.17734204 -0.07467256 -0.028840143 0.0015039325 -0.13428475 0.01984728 -0.07256628 0.02234346 0.09092445 -0.12673634 -0.19579828 0.16985428 -0.15288273 -0.10178901 -0.025423337 -0.101791404 -0.28122577 0.02019667 0.043428503 0.08942602 -0.2689834 0.033008732 -0.067200296 -0.24846274 -0.20381844 -0.24325024 0.09565783 -0.086433664 -0.14162248 -0.050738253 0.012055013 0.091532364 -0.0032430184 0.016836008 -0.32000482 0.0019266348 0.0034562391 -0.040622134 0.2221101 0.08029204 0.14567135 0.028241666 0.107396364 -0.157047 0.038108274 -0.076081194 -0.060262643 0.03670906 -0.07969483 0.107947014 0.07310191 -0.37611192 0.04869177 -0.18463722 0.20872298 -0.09609854 0.19523823 -0.09321099 0.107519 -0.03855763 -0.24645324 -0.17712013 0.020529706 0.07708212 0.1385611 0.028095847 0.12503557 0.050466202 -0.042443547 -0.3653958 -0.13870887 0.1223783 -0.16189265 0.1473132 -0.34963852 0.24623722 0.26814544 0.1680826 -0.086518705 -0.0817281 -0.09410153 0.0743824 0.02790191 -0.028103383 -0.079036914 -0.23334014 0.03937386 -0.26213738 0.130039 -0.24659017 -0.27941066 -0.33401492 0.095781855 0.033164494 -0.0060963486 0.44190186 -0.044979125 0.16679549 -0.035438713 0.21683316 -0.05450645 -0.14546716 -0.1227176 0.09069089 -0.07722115 0.021647427 0.29633278 -0.03645632 -0.0014529173 0.26477307 -0.035682425
2127 0.0901244 0.19514214 0.054739527 0.081044786 0.07786668 -0.015259686 -0.12022365 0.27081335 0.3061479 0.14429238 0.07939568 -0.38168445 0.1956878 0.10809994 0.029766228 0.060229186 -0.18081759 -0.12721449 0.022761166 0.009294916 -0.19131131 0.04482287 0.06661697 -0.3364176 0.39528933 -0.20447657 -0.07693388 -0.21295404 0.17911042 -0.01118932 0.13208161 -0.009116576 0.21134382 -0.06990927 -0.008167889 -0.0664292 0.06343101 -0.0013638431 0.16684763 0.015844783 0.2251428 0.10367532 0.09933848 -0.0053520645 -0.13657475 0.12808603 0.08698822 -0.22530766 0.19953626 -0.10692434 -0.085300535 0.098074086 -0.39696515 -0.04847399 0.037985723 0.48852777 -0.16979179 0.18670015 -0.12009421 0.019694967 -0.04838451 -0.09115805 0.10623025 0.20532727 0.10496724 0.10327154 -0.069837525 -0.05160116 -0.070102416 0.01679298 -0.14514197 -0.028661186 -0.032640677 -0.2640469 0.03696231 -0.08906454 -0.17500074 -0.1077997 -0.023412028 0.11214206 -0.021856485 -0.07383518 -0.14330573 0.24052079 0.3102923 -0.15200739 -0.17140229 0.13179548 -0.09573752 -0.120914765 0.28178486 0.12811258 -0.20444047 -0.3547209 0.028204158 -0.002918199 0.2466077 -0.13276881 0.046122346 -0.026478902 -0.41697714 -0.07503456 -0.43148595 -0.014287213 0.11097262 0.08753315 -0.0070587727 0.18385099 0.04480495 -0.106218584 0.09456172 0.07071393 0.04664352 0.2002511 -0.09280914 -0.14336187 -0.07753189 -0.127566 -0.18419848 0.026799692 -0.0478702 0.24123622 0.06036525 0.0065936884 0.08079088 -0.21635157 0.028711403 0.15756501
1097 -0.08211026 0.09379436 0.005334876 0.07804896 0.20374218 -0.053755496 -0.06432734 -0.17096783 -0.12748279 -0.15261348 0.33077806 -0.05287823 0.08718966 -0.029445127 -0.17401999 0.0389014 0.045859594 -0.12507147 0.1023816 -0.124681726 -0.33661103 -0.24295972 -0.0986296 -0.14952344 -0.07751345 0.1595046 -0.037165243 -0.021711245 0.012269714 0.058324516 0.17467535 -0.07713441 -0.13889518 -0.31941774 0.017663855 -0.013773265 -0.088021696 0.03105164 0.033161867 -0.23701844 0.12268153 0.13283743 -0.030222367 -0.018456414 0.086918004 -0.11601142 0.044994902 0.06738905 -0.047667205 -0.19599113 0.1270371 0.12420064 0.04934194 -0.15633692 0.0049028774 0.18372868 -0.02315112 -0.051423367 -0.21892709 0.2582946 -0.046771295 0.023766978 0.00086447125 -0.015227054 -0.14997967 -0.05488225 -0.102001175 0.024796655 0.0138820885 0.30692425 -0.18990201 0.37624657 -0.00039147498 -0.12951925 -0.037965678 0.046352327 -0.037994802 -0.035964094 -0.21208641 0.28346014 -0.10903776 -0.18821394 -0.15896922 -0.044158455 0.16179712 -0.06633772 -0.023110831 -0.13080911 -0.15293334 -0.21130359 0.07187694 -0.1577822 -0.094580054 0.25267896 -0.10553406 0.1721659 0.22751442 -0.063901864 0.017216634 -0.07165297 -0.2678564 0.16473733 0.027125342 -0.08201001 0.058461126 -0.012784364 -0.085362196 0.10890647 -0.23105413 -0.116109826 -0.10356662 -0.12508503 -0.16021635 -0.10717073 0.034561753 0.15889525 -0.38571998 -0.027660303 0.26614925 -0.17894304 0.093075916 -0.06201131 -0.08711737 0.007125622 -0.25724372 -0.32953182 0.23975289 0.23816033
1234 -0.07457882 0.03863689 0.16706446 -0.108737916 0.010863956 -0.21940598 0.33609793 -0.28969547 -0.17750631 0.06918277 0.20753153 -0.26362067 0.16149193 0.01866939 -0.16511236 0.12427039 -0.026231617 0.08518394 0.034607492 -0.06539331 0.04982918 -0.0763306 0.4553182 0.10011942 0.14573172 -0.09383195 0.2122242 -0.058275208 -0.01503549 0.17709325 0.0060982537 0.09670092 -0.20690586 -0.21829446 0.04492028 0.10388044 0.30366775 -0.218007 0.09854507 -0.08669648 -0.19229856 -0.071059294 -0.06895941 0.056151025 -0.081285335 -0.12531944 0.026399422 -0.035006188 -0.11585396 -0.012033956 -0.051305145 -0.07561099 0.26175663 -0.13060233 0.35455734 0.14985101 -0.021085639 0.17464706 0.120197296 0.04326025 -0.0036436187 -0.050781682 -0.12891851 0.11308529 0.105277345 0.056103107 -0.07876214 0.25202245 0.039517876 -0.07726083 -0.1683266 0.4290447 -0.06450364 0.07507396 0.08571385 0.02524408 0.065962955 -0.041451417 -0.1319969 0.16723439 -0.06740491 0.12154732 -0.04666894 -0.15661958 0.30614632 0.06493194 -0.042912852 0.033237558 -0.25580078 -0.14710237 0.23418629 -0.02215312 0.054317147 0.090033874 0.10219283 -0.115846895 0.070319846 -0.066906616 0.06195424 -0.1644727 0.037966505 0.05604352 -0.00503225 0.028023137 -0.1422117 0.17224237 -0.0029381171 0.052682336 -0.07320683 0.1489526 -0.0199455 -0.0828783 -0.0008828599 -0.047163032 -0.15496998 0.19385491 -0.036672357 -0.124561794 0.05686094 -0.03890431 -0.09446866 -0.085183404 0.17122154 0.1019631 -0.115191445 -0.21929029 0.2545205 -0.18279414
1581 0.096618086 -0.058653247 0.39218214 -0.015215083 0.22432943 -0.19637153 0.11363506 -0.14076188 -0.20460509 0.15148135 -0.103438795 -0.06567092 -0.14417252 -0.07726752 0.17000075 -0.0063317595 -0.15005319 -0.21760152 0.2664573 -0.16889669 -0.16629015 0.15268946 0.023610495 0.06039883 0.07807088 0.20671763 -0.25361767 -0.049325433 -0.1436777 -0.0053762803 0.051257562 -0.045204025 -0.30209965 -0.036045372 0.29934394 -0.0013250023 0.043749772 0.08092924 0.14795366 0.12761271 0.047855143 0.026244884 0.03862485 0.3938164 0.02521494 0.013526657 0.16272844 -0.31879735 -0.2961044 -0.24010552 -0.17327258 0.04258361 0.14068729 0.11415018 0.10401047 0.1414386 0.06062615 0.27269158 -0.021367343 0.0716027 0.15512033 -0.198088 -0.014856363 -0.019185988 0.074312456 -0.056401078 -0.19448678 -0.3001932 0.16129538 -0.20410724 0.057591707 0.14842933 0.1278351 -0.2090949 -0.019850517 0.10761786 0.16826403 -0.05642059 0.0014828978 0.09138451 -0.1274906 -0.06947591 0.11245922 -0.1152592 0.23839064 0.06179399 -0.09886439 0.0996122 -0.16629161 0.14350182 0.25833505 -0.087930486 -0.08647075 -0.10379769 0.117976956 -0.12859473 0.014567539 -0.062425647 -0.022179473 -0.036307953 -0.13946696 -0.42397547 -0.31388494 -0.092561945 0.13591483 -0.08030621 0.039691776 0.09989095 0.15344349 0.15452863 -0.081190586 -0.040809125 -0.062381033 -0.18028341 0.18956865 0.111093365 0.2143277 0.18718936 0.11511606 -0.16187628 0.059361544 0.32327148 -0.1885825 0.18530628 -0.25644988 -0.14268258 -0.02320334 0.25546423
32 0.3393451 0.14285056 0.14590834 0.15061969 0.24422595 -0.13454658 0.1107601 0.31529436 -0.0043075555 -0.08253006 0.3197112 -0.1186198 0.06145227 0.14898439 0.24789551 -0.012958692 0.10875227 -0.03059259 0.039505363 -0.047823202 -0.28025746 -0.0071747466 0.059150722 0.032468755 0.22230284 0.15421993 -0.40371776 -0.23601313 0.28391898 -0.16120858 0.1252075 0.024403686 -0.044818293 -0.1449755 0.03592571 -0.18724686 0.16103482 0.031027108 0.15460835 -0.051711462 0.12140797 0.2824253 -0.4075287 -0.15341622 -0.10378714 0.15336418 0.15637961 -0.016998217 -0.20705198 0.17272797 0.047632083 0.18000376 -0.085597016 0.020749785 0.23176594 0.15840414 0.13982832 -0.124940515 0.09424442 0.06732728 0.033311736 -0.051552244 0.015481093 -0.2805361 0.08652191 0.020683952 0.104117796 -0.23710842 0.07820865 -0.0081328405 0.22197813 0.15534063 0.22265615 -0.293488 -0.062384095 0.104869746 -0.0951744 0.14041848 -0.118913926 0.1345921 -0.24347553 -0.12479803 -0.03557316 -0.055482134 0.037333727 -0.13704409 0.1108577 -0.12883526 -0.066327915 0.035874322 -0.07462209 -0.20207715 -0.03506274 -0.056540154 -0.016334519 0.0049044895 -0.06587209 -0.381363 -0.22866091 -0.08465154 0.281219 -0.09823089 0.09392724 0.15845162 0.04596088 0.2624994 0.27431902 -0.076126486 -0.061784495 -0.02974686 0.20718041 0.17384829 -0.11421098 0.12589 -0.06640437 0.34968626 -0.122612424 -0.016947977 -0.16781761 0.117952846 0.2851304 0.099563695 -0.06520453 0.24142408 0.075109 -0.29439348 0.094569996 -0.028506981
1649 -0.05623991 -0.0063528023 0.17776087 -0.10096968 -0.19192679 -0.1941606 -0.06983877 0.32376754 -0.016144421 0.04322253 -0.08411519 -0.0070598354 0.07043279 0.10728859 0.0146945985 0.045799736 0.077242605 -0.11091229 -0.036160152 -0.066717625 0.033237495 0.16398193 0.0848407 0.0034381424 -0.019704547 0.0031426547 -0.07242283 0.033894982 0.034779876 -0.16630754 -0.10299322 -0.032310426 0.20638043 -0.08050503 0.027458386 0.14736435 0.0113440305 0.12301884 0.008803276 0.09214568 -0.21440089 0.07072665 -0.08170043 0.23979436 -0.09682895 0.19615196 -0.11030746 0.22287795 0.28320324 0.07008203 -0.14727414 -0.023582516 -0.03574793 0.03710988 0.21751177 0.062942296 -0.1132321 -0.1355267 -0.06613674 0.0792403 0.16754514 0.20271778 -0.11514268 -0.018584069 -0.063925 0.0007722964 -0.020667274 -0.1899132 0.34927046 0.24559882 -0.18894003 0.17365663 0.115607254 -0.22555329 -0.10606615 0.3431072 -0.054762404 -0.05966643 -0.3234138 0.28085685 -0.1452006 0.26159015 0.15799731 -0.2171271 -0.10910929 0.1315755 -0.10430443 -0.15012094 -0.18460898 -0.097351395 0.023276588 0.0006553782 -0.11767239 0.3213266 -0.0068300595 -0.061632134 0.11842228 -0.21398443 -0.082868025 0.4680925 -0.21391775 0.13153915 -0.08602108 0.076583676 -0.19797488 0.21938354 0.017035004 0.084070235 -0.04123098 0.16023241 0.03676161 -0.12570228 -0.024302071 0.08619741 -0.016741473 -0.065672725 -0.14562413 0.14763251 -0.039694265 -0.31744733 0.1745477 -0.25904793 0.12322283 0.151935 0.09642571 -0.24391371 0.007823302 0.09199506
700 -0.078945234 0.14940427 0.24096464 0.08281844 0.29000503 0.15607797 0.0013403842 -0.08522722 -0.15602414 0.056063373 0.2186139 -0.15049236 0.17438193 -0.036313605 0.007192144 -0.028512284 -0.1459037 0.23539081 0.19874312 0.006947795 0.0020677906 -0.11061128 -0.08599753 -0.04348882 0.16807418 -0.10366688 -0.11446164 -0.30281767 0.037679944 -0.17708117 -0.0040035737 0.017873684 -0.084930144 -0.0011809395 -0.18427615 -0.17745292 0.2124286 -0.30593747 0.00085355435 -0.03813741 0.07586482 -0.050105616 -0.21847716 -0.035374768 -0.054078322 -0.057451826 0.13849273 -0.0011588297 -0.26337358 -0.105424374 0.008093035 -0.11760744 0.2365224 -0.109357215 0.074305326 0.05260546 0.3493483 -0.0075035924 0.18945563 0.3200397 0.35719085 -0.3087052 0.034583632 0.110326715 -0.2538254 -0.08152868 0.035462514 0.07795324 0.2827197 -0.023615234 -0.08162706 0.26719075 0.022946883 -0.12827776 -0.20835827 0.159565 0.10125844 -0.06152925 0.03060631 0.15601483 -0.31040317 -0.0014730392 0.03898818 0.17579016 0.23425372 -0.0900141 0.00773935 -0.10740951 0.04304474 -0.18393794 0.03683455 -0.09930843 0.024928864 -0.054166254 0.021376299 -0.17633052 0.22576386 -0.10002169 0.12741534 -0.10165873 0.053565282 0.15501799 -0.17919868 -0.1436733 0.0015237936 -0.03351927 0.21628399 0.008594507 -0.27042302 -0.034149233 -0.09549779 -0.114546865 0.02337152 0.051382206 0.13933851 -0.008833778 0.1991441 -0.09402806 -0.024874758 -0.10296649 0.009057279 -0.21442649 -0.03046763 0.08151934 0.20918906 -0.2781402 -0.019837085 -0.009586009
1095 -0.063698985 0.17663954 0.025670255 0.0028695897 -0.06857078 0.22213213 -0.29866788 0.12088434 -0.16496572 -0.31787625 0.2231442 0.06625806 0.12086282 0.37649652 -0.049009554 -0.20694335 -0.31687334 0.07435176 0.045856252 -0.17857225 -0.00868718 0.10268784 -0.11753118 -0.2629489 0.12018344 0.16816819 -0.18509123 -0.3988375 0.022313168 -0.085560635 0.20781356 0.14463036 0.019936496 -0.06114775 -0.08453985 0.05698241 0.121250615 0.12185189 0.07706102 -0.09855678 0.19985792 -0.24935634 -0.09960128 -0.20334747 0.0014579294 -0.17570998 -0.098701075 -0.024099732 -0.088090174 0.072460175 -0.095935866 -0.02171851 0.28536838 -0.07269213 0.10057444 0.088782676 0.19257179 0.050445672 0.07375381 0.29773057 -0.08064708 -0.25784123 -0.123110615 0.11669924 -0.09125165 0.18151043 -0.23863238 -0.21601278 -0.17984971 0.13010031 0.015584829 0.044207692 0.17742509 -0.038514327 0.0018735531 -0.09693722 0.16436803 0.092661485 0.12799418 0.066933386 -0.08288551 -0.031539004 -0.17906247 -0.03344704 0.0031425937 0.14003913 -0.0953102 0.047866706 -0.07306572 0.0320244 -0.083481304 0.2326035 0.10819448 0.16890123 0.09652993 0.22314578 0.1402524 -0.08978709 -0.045055643 0.15970667 0.07674034 -0.084220015 -0.030267956 0.24034652 0.024561986 0.26310945 -0.12643613 0.07062933 -0.21428551 -0.06045079 0.0783214 -0.29822934 0.0144896805 -0.16273975 0.440471 0.26669624 -0.0050215567 0.10106496 -0.064069696 -0.110078864 -0.12560712 0.17917797 0.265411 -0.016804283 0.120793656 -0.10294428 -0.013614944 -0.065225706
1313 0.0071888994 -0.11652974 0.113784336 -0.11626074 -0.11127143 -0.01486342 -0.20661053 0.09294612 -0.24045695 0.027485913 -0.18972127 -0.29028773 -0.06328476 0.11902249 -0.15318377 0.070105955 -0.17788681 0.21225299 0.13793285 -0.4132971 0.049348842 0.23496076 0.019546662 -0.067532875 0.24896903 0.17710173 -0.22146845 -0.045668483 -0.29196644 -0.043457318 0.18976985 0.01816565 0.23421672 -0.14288957 0.13345775 0.036782492 0.03786432 -0.06763791 -0.06758264 0.31675312 0.019728111 -0.14775132 -0.06414203 -0.056799356 -0.031565145 0.34021613 -0.10267067 -0.0037022124 0.061247367 -0.18588929 -0.022111766 0.043661702 0.16908546 0.07990471 0.15595269 0.07817749 0.25491157 -0.073383816 0.13306096 0.13227712 -0.021218736 0.023394568 -0.08222512 -0.03826805 -0.0066151214 -0.044044234 -0.15524241 0.10417427 0.039764978 0.22510774 -0.034949936 0.098545514 -0.12737656 -0.062439617 -0.15199429 0.15507124 -0.19466004 0.17190231 0.03418085 0.044776138 -0.015198701 0.3718715 -0.00010879649 -0.020662636 0.14439087 -0.098674215 -0.28933483 -0.011564562 -0.07803709 -0.01540405 -0.13559592 -0.15513796 0.26232737 0.04226843 -0.0555726 0.097932234 0.05239203 0.28156596 0.122489594 -0.017395252 -0.17762934 -0.025458032 0.012068427 -0.044641793 -0.16618504 0.059864037 0.0460702 0.23261057 -0.12930663 -0.038124137 0.027101323 0.18134505 0.14696623 0.09362212 -0.021965725 -0.06566882 0.09597758 0.09512756 -0.20097277 -0.027508512 -0.04784297 -0.11117439 -0.039991062 0.13149413 0.1897112 -0.2779039 -0.076247916 0.06532982
888 0.0803465 -0.0071850913 0.21934216 0.02729613 -0.18370223 -0.026183613 -0.09026381 0.010532836 -0.1454839 -0.23881644 0.16354409 -0.20342515 0.098171875 0.03884315 -0.1997207 0.07745353 0.11944133 0.037868153 0.3255782 -0.13179773 0.19268622 0.07190677 0.017408954 0.04537093 0.013771751 -0.022807816 -0.09155496 -0.03893234 0.38314652 0.25440285 0.15551792 0.05413118 0.0045900643 -0.018835988 -0.008191672 0.17646511 0.037112586 -0.055760644 0.1643632 0.10830335 0.053095505 -0.24691775 -0.27217877 0.1344127 0.2625933 0.13255492 -0.17497505 -0.07952286 -0.115901396 0.13421361 0.12234578 -0.017508518 0.12840773 -0.021015594 0.1464964 -0.012540956 -0.13324273 0.20063613 0.1721421 0.37744135 0.16955097 -0.1399213 -0.07386974 -0.179723 0.068008475 0.08434389 -0.029238164 -0.04074322 -0.17599207 -0.09109782 0.16224097 0.02807682 -0.103067465 -0.14622118 0.026697233 0.18782823 0.17631209 -0.17354515 0.09717942 0.22839153 -0.09167257 0.19635974 0.048487276 0.20068537 -0.09037807 -0.32161114 -0.23091725 -0.009135534 -0.043627713 -0.16341853 0.1496263 -0.14961329 0.005177482 0.06567446 -0.18813208 0.1606532 -0.06397919 0.1230859 -0.080267645 -0.10424338 -0.06727778 -0.18081439 -0.09715705 -0.0044203103 0.16066334 0.07392864 0.11543979 0.075369395 -0.14890344 0.0041821874 -0.20352902 -0.13193925 -0.13058981 -0.13848943 0.15190744 0.0024877975 -0.036864236 0.11023983 -0.10787154 -0.0685331 0.01278163 0.09517591 -0.0073709763 0.26832694 0.06423356 -0.13135085 -0.100419156 0.12575032
1006 0.08195276 -0.07702168 0.34445727 0.024998557 -0.24000745 -0.24179943 -0.011887038 0.110385135 -0.1734879 -0.11385118 0.17516828 -0.21261068 -0.1884699 0.19095257 0.07796197 -0.10120156 0.04961492 0.2737846 0.13836718 -0.34740654 0.05778904 0.036381718 0.05148927 0.11957107 -0.07226911 0.1204465 -0.107719526 -0.029953495 0.28814977 0.04455942 -0.17297061 -0.085477814 0.16906886 -0.10463313 0.13277262 -0.21690695 0.022984968 0.12699805 0.18107525 -0.25821102 0.06536635 -0.14156789 -0.09223417 0.055009935 -0.095922545 0.06837793 0.23562191 0.049918223 -0.067939796 -0.1245976 -0.12579426 -0.16803828 0.08273121 -0.09405742 0.056535337 -0.06261918 0.009362328 0.17622444 -0.32516086 0.020826306 -0.006440165 0.13622525 -0.1439408 0.07718723 0.010046727 -0.09755888 -0.21740872 -0.10273295 -0.102387436 -0.030152347 0.05937425 0.19401495 0.094947346 -0.14934878 0.062158834 0.23122524 -0.06353448 0.3007482 0.2904043 0.20209035 -0.15396859 0.19062816 0.042308692 -0.08551856 -0.09391017 -0.30810428 -0.08288245 0.05690274 -0.14257786 -0.1425565 -0.058247324 -0.12231297 0.14041293 -0.059717506 0.02738307 0.07147059 0.24763606 0.0013351631 0.3562474 0.48212013 -0.087703206 -0.04187549 -0.14134422 -0.22131296 -0.044440478 -0.03936944 -0.21041305 0.07319571 -0.048657704 -0.1103836 0.102880724 0.0013700111 0.1607995 0.116287015 0.047547977 -0.06486508 -0.30535585 -0.13982813 0.06750803 -0.28517288 0.34160632 -0.123757 0.02437218 0.30720997 0.10682504 -0.047391657 0.047146175 0.124073684
1723 0.22660822 0.1584635 0.11806696 -0.07980082 0.27957 0.20097756 0.010324821 -0.07374499 -0.006921212 0.2937128 0.1376 -0.1109154 0.21634218 0.014902578 -0.059239052 0.013460403 -0.32526955 -0.21458353 0.14687416 -0.11302565 0.13373338 0.3326996 -0.029974133 0.14018664 0.14083196 0.009232146 -0.13427176 -0.0636824 0.076758996 -0.08087429 0.39613122 0.065588325 0.028178148 -0.24362701 -0.0871744 -0.2059215 0.03787137 -0.014996865 0.023664502 -0.049684986 0.11517724 -0.013432513 -0.009526524 -0.010299505 -0.014133443 -0.03018059 0.08684809 0.17893809 -0.30049247 -0.05839939 -0.028187698 -0.38742647 0.084154524 -0.010426978 0.020928474 0.17806193 0.088586584 0.10878496 0.13090247 -0.09884261 0.26785618 -0.08070629 0.06400642 -0.088423334 0.041743524 -0.2547564 -0.008919126 -0.03958036 0.0059382445 0.06292189 0.23005772 0.3228686 -0.028057817 -0.054735243 -0.13500437 -0.05590379 -0.22078238 0.07683833 0.16421697 -0.3307838 0.078921795 0.020624077 -0.098249584 -0.05992343 0.18022951 -0.06787154 -0.0712498 0.15967424 -0.21682976 0.013512649 0.044869732 -0.07708865 0.062481888 -0.07699871 0.17132092 0.26458645 0.1723043 0.10365772 -0.22509716 -0.11062581 -0.15393403 -0.24079852 -0.18066397 0.30502406 -0.060395144 0.32363185 0.10841729 -0.16905275 -0.053906266 -0.07614801 0.018455734 -0.21512662 -0.27746552 -0.16028224 0.2726137 0.06258961 -0.2569983 0.1506401 -0.016915452 -0.049097575 0.13541128 -0.04934374 0.011661967 0.05657885 -0.11415467 -0.25239834 -0.040818132 -0.09409581
599 -0.28752717 -0.08082331 0.088685535 0.018180972 0.1831838 0.2627873 -0.04836986 -0.015634172 0.073944196 -0.015838683 0.14583771 -0.20305948 0.061064262 -0.09479498 0.127047 -0.21777508 0.007054002 0.26589197 -0.12119735 -0.18092664 -0.09126141 0.05410887 -0.15455332 0.047604773 0.10125347 0.0020444468 -0.1024317 -0.09005772 0.3364368 0.12417676 0.031414032 -0.09646157 -0.049710564 0.0390169 -0.008294487 0.2113212 0.08353425 -0.003337014 -0.0762915 0.23559403 0.0066521615 0.06829357 -0.18631689 -0.0025141388 -0.098423935 -0.046431817 -0.044822134 0.0093395775 -0.011863271 0.11737904 -0.06267134 0.024876539 0.28245655 0.06726274 0.25775385 -0.117475994 0.17269458 0.2549886 -0.22655167 0.15898958 0.28065106 -0.1217861 0.04084992 -0.25636014 -0.023306338 -0.22442132 0.10136518 -0.06457637 -0.21019831 -0.00530137 -0.27380744 0.13335294 0.0428395 -0.15748642 -0.14473358 0.048060384 0.25995228 -0.005984243 0.035739735 0.22807539 0.012210719 0.009439717 0.050111033 -0.21131076 -0.0018787108 -0.12640615 -0.22439876 -0.22644717 -0.34503362 0.10805822 0.2556367 -0.17929952 -0.25016084 -0.16433702 0.061489124 -0.02173853 0.18129726 -0.17862937 -0.06889945 -0.25731772 0.09549608 -0.11305124 0.052637495 0.102248654 0.0028226138 0.17404477 0.01927375 0.06977001 -0.055889 -0.12849729 0.103782184 -0.17083767 0.012083884 -0.12523454 -0.3316712 0.28754777 0.007818918 -0.005812955 -0.024486022 -0.28904137 0.14965576 0.1594498 0.10218225 0.24246898 0.073501706 0.027697092 -0.11591993 0.018140202
1018 0.14930075 -0.112380974 0.17666847 0.10640261 0.05193519 0.02884419 0.17547943 0.26736766 0.00012998503 0.0025860341 -0.059392888 -0.49728507 -0.0673836 -0.19867666 0.038614184 0.105817914 -0.14771803 0.14518055 -0.017673776 -0.0127628725 -0.14939003 -0.043143485 0.18236671 0.07662746 -0.08518616 0.14759909 0.06620335 -0.19555141 0.13403545 -0.14673123 0.09627632 0.20160541 0.27695897 -0.11370652 0.07708661 0.026489794 0.11418206 -0.052103993 0.14447422 0.16573301 0.08739224 -0.36805388 -0.09032904 -0.085183434 0.04271718 0.17504156 -0.26207498 0.029408053 0.09841237 0.03159393 -0.04005153 -0.11034189 0.15959416 -0.048558734 -0.050051656 0.15718022 -0.19845851 0.0068347976 0.086273216 -0.02265489 0.23774636 -0.25976104 -0.025150398 0.07866133 -0.34135067 0.10488945 0.09318778 0.002587028 -0.082578905 0.114169225 -0.010220663 0.1873684 0.1416466 0.005972901 -0.145472 0.035572868 -0.20199096 -0.12944928 -0.19351608 0.17093396 0.037006795 0.065900385 0.009094113 0.07852277 -0.022763247 0.27601844 -0.38837707 -0.06706539 0.046020735 -0.012329165 0.22079016 -0.06810433 -0.00043821693 -0.016483268 -0.08868124 -0.04501119 -0.1108896 -0.12197342 0.15119033 -0.09968768 0.2173173 -0.1675183 0.020462038 0.18071079 -0.13739748 0.15370268 0.052653804 0.08514625 -0.22868484 0.09573292 -0.20420435 0.2232203 0.09628531 -0.08585287 0.20570481 0.107375935 0.044935267 0.1508572 0.033025507 -0.07601801 -0.22809365 -0.10722395 -0.093041696 0.15929049 0.15121451 -0.088437036 -0.002206748 -0.15158857
1823 0.011329221 0.08171859 -0.13251974 -0.06796666 -0.32835898 0.07401024 0.010004281 0.0688339 -0.26207715 0.3622572 0.31370634 -0.2571855 -0.02375767 0.13684738 -0.13194454 -0.08932711 -0.016075185 0.1303924 0.12635554 0.020267408 0.04667308 0.0013625347 -0.08839569 -0.056870088 0.021884613 0.06382689 -0.36922556 0.029205956 -0.2661502 0.00932373 0.06620432 0.12380568 0.15867232 -0.23873521 0.0341963 -0.0063417754 0.10837023 0.14836317 0.2271753 0.0040905774 -0.033338755 -0.07534735 0.09971837 0.10384689 0.017039867 0.081980094 -0.07078912 -0.43487826 -0.0357992 -0.08481539 0.21436259 -0.08468648 -0.019091267 -0.2679953 0.1873481 0.15511961 0.08091692 0.07275866 0.019570328 -0.031888515 -0.056165908 0.19286309 0.2000404 0.015054502 0.022382064 -0.07476329 -0.02576449 -0.19058669 -0.15998445 0.09405857 -0.1895026 0.20399606 0.2180742 -0.010111456 0.058700964 0.050033752 -0.09896678 -0.12491702 0.020860156 0.25909585 -0.17279041 -0.041757792 -0.10989476 -0.052878335 0.017788546 -0.07464952 -0.11396595 -0.023312878 -0.0005159027 -0.4476294 0.07891806 0.11886174 0.06766124 0.01161519 -0.109771 0.046581343 0.3067176 -0.20124286 0.16475429 -0.35924298 0.31980976 -0.18847792 -0.06252222 -0.020209605 -0.19736756 0.022828158 0.030588346 -0.07389842 -0.07178715 0.033864517 0.088092424 0.11862055 -0.024079656 0.20882708 -0.051654465 0.026103057 0.06823427 -0.04288799 0.020567834 -0.09586929 0.04912717 -0.16127051 -0.14202882 0.096318804 0.06418986 -0.012707219 -0.08565062 -0.15580788
993 -0.13078937 -0.13177167 -0.0034858068 0.023398103 -0.079547495 0.024865838 -0.14202668 0.15966243 -0.20014901 -0.06557348 0.08448645 -0.096422166 0.010681407 0.06498823 0.1287888 -0.12635867 -0.2167517 -0.1572874 0.11299183 -0.10362909 0.12703174 0.16980565 -0.09073644 -0.2164532 0.15176557 -0.11063682 -0.065553814 -0.1838115 0.2486761 -0.17844687 0.005332192 -0.08714943 0.35495973 -0.2173562 -0.14195298 -0.077517085 -0.057115514 -0.038615998 -0.112972446 0.052324254 -0.06790282 0.121910796 -0.034247756 -0.18477614 0.13268027 -0.27662954 0.25754854 0.06850164 -0.21811785 0.14379284 -0.22822432 -0.0516383 -0.07945966 0.28066492 0.14271645 -0.015770683 0.028088344 0.18570177 -0.029771814 0.23751615 -0.11136601 -0.045016263 -0.039579958 -0.16934115 -0.08174033 -0.24728653 -0.08236767 -0.0768433 0.11083028 0.2828832 -0.0042985464 0.33772534 0.24398193 -0.2136803 -0.036211427 0.30258724 0.19473402 0.15229577 0.06525071 0.03872457 0.100868754 0.17409408 0.14262174 0.030549105 -0.09179152 -0.251335 0.024666708 0.039338984 -0.1912429 -0.32134438 -0.0037823766 -0.054976147 0.19410762 -0.34140524 -0.026457777 -0.37126952 -0.17489226 -0.22949685 -0.0018037464 0.0294627 -0.038103625 -0.23341538 -0.26734695 0.03771642 -0.14096862 0.2673885 0.015449263 -0.074771814 -0.07492676 0.24257292 -0.08407381 0.30020803 -0.053371977 -0.09771268 0.08929991 -0.012461327 0.04315938 0.008169048 0.06597171 -0.12545219 0.20648895 -0.052471697 0.020465963 0.21555229 -0.18145129 -0.053684257 0.1331085 -0.07228202
1543 -0.0010585879 -0.3145638 0.11704319 -0.095420636 -0.16170295 -0.186364 -0.10998438 0.009222432 -0.13683128 -0.18075682 0.40950397 -0.07210728 0.011575952 -0.031243335 0.11423572 0.008029169 -0.120605394 -0.13488731 0.041834664 -0.48985124 -0.1455781 -0.09758322 -0.10001494 -0.02021553 0.112666965 -0.028560381 -0.19643648 -0.18601076 0.15494703 0.1301016 -0.08539043 0.078228526 -0.20418052 -0.14458388 0.15271814 0.024949295 0.112735234 -0.14541887 0.2330897 0.26415494 0.18810771 0.047555424 -0.23117909 0.08839181 0.14674275 0.04676347 -0.07149813 -0.42307433 -0.09708096 -0.032090906 -0.102585204 0.013178595 -0.012066696 0.0847879 0.15279822 0.13784967 0.36506575 0.19969667 -0.21934113 0.07428472 0.12888445 -0.30163652 -0.19420195 -0.17008355 -0.1312446 0.10709909 -0.022667972 0.19123738 0.004119397 0.109973155 -0.10740178 0.22827058 -0.11636711 -0.13211678 -0.062334068 0.05245073 0.13860042 0.031146847 -0.34451684 0.013669816 0.023794442 0.022922883 -0.11049908 -0.024365366 0.08726336 0.03359992 -0.06777692 0.052571658 -0.166727 8.254028e-07 0.21076325 0.008019745 0.04089856 -0.021403398 0.20336261 0.027173167 0.14433247 0.0066997483 -0.12583268 -0.16982952 -0.09238865 0.13289869 -0.024829783 -0.31717283 -0.07588716 -0.012944526 -0.020562574 -0.32475436 -0.26470694 0.33473858 0.3643326 -0.14286228 -0.047818962 0.22129272 -0.00844321 0.058439966 0.06686142 -0.23575896 0.11107756 -0.055458073 -0.038401663 -0.023671318 0.13495521 0.025436789 0.05430981 0.06090144 0.06611664 -0.02635966
895 -0.012176343 0.18941452 -0.092975564 -0.0721755 0.12798719 -0.08919254 -0.03900795 -0.007104362 0.028952798 0.12843762 0.016020142 0.1018909 0.21835646 -0.0074833543 0.066849835 -0.029463483 -0.07242506 -0.15403455 0.2961312 -0.12023362 -0.06972111 -0.1651783 0.017787958 0.034253888 0.18615146 -0.21257046 -0.30818692 -0.21791422 0.19692686 0.1040582 0.012987884 -0.101672746 0.016016476 -0.24074836 -0.20558867 -0.1459443 0.3007899 -0.23792966 0.010544588 -0.1924001 -0.06949341 0.19301024 -0.108410515 -0.17322671 0.058485948 0.1783508 -0.042551603 -0.106704995 0.18329011 0.042319644 0.20636934 -0.07496868 0.33109698 -0.07976462 0.0047207037 -0.04347587 0.073481254 -0.22141765 -0.03365917 0.16873379 -0.019512543 -0.12380882 -0.0144366175 -0.281471 0.38072956 0.18526903 -0.33325198 -0.50201756 -0.024638686 0.20043838 -0.17635775 0.07727292 -0.14694878 -0.06431621 -0.16037346 -0.23835318 -0.046870288 0.050960388 -0.1326004 0.081954576 -0.27781913 0.19150554 0.21609329 0.023765909 0.053522155 0.17929241 0.14149949 -0.075591795 0.09968367 -0.0665258 0.34545743 0.030255461 0.101540044 0.16867785 -0.025770454 -0.14827925 0.110874064 -0.09630026 0.290764 -0.052034196 -0.034452207 -0.037747044 -0.1716521 -0.1372728 -0.048388712 0.21629278 0.061345194 0.07670796 -0.2145255 -0.1131266 0.1383012 0.25946864 0.11433885 -0.07410668 0.14348854 0.1075007 -0.08793746 0.32329196 -0.039511204 0.01597416 0.32232085 0.048117615 -0.013392261 0.05141399 -0.15293004 -0.11600916 -0.22539172 0.27416313
1608 -0.026426556 0.011542252 -0.20278578 -0.071352534 0.0004063648 0.030015133 0.098700896 -0.030552251 0.13516344 0.15799671 -0.3079257 -0.024351686 -0.051919077 0.20568587 -0.15539177 -0.2280641 -0.24347618 -0.024251552 0.14783639 -0.10047946 -0.24971342 -0.0005727384 -0.27917784 0.27367085 0.13175216 -0.13884258 -0.35237455 -0.13705748 -0.076842874 0.105642885 -0.050372694 -0.08322905 0.13475904 -0.15701437 -0.20017023 0.0037619611 0.25368285 0.09215466 0.14633003 -0.09441648 0.1733798 0.0531445 -0.20241022 -0.06305043 -0.1881223 -0.081690274 -0.005623637 0.025162604 -0.24415006 -0.18607697 -0.038597073 0.1253471 0.25724858 -0.0690456 0.31171292 -0.25285453 -0.045588426 0.45407954 0.12661894 -0.01035121 0.10343479 -0.07457294 -0.33023998 0.077840246 0.16592221 0.1789988 0.15613097 0.1428538 0.04989565 -0.13026811 -0.04041809 0.051810894 -0.06397296 -0.103511676 0.12183813 -0.085852005 -0.04839465 -0.0950289 -0.26373962 0.010203201 0.07747601 0.09478907 0.21979386 0.121116936 0.16842075 0.15144914 -0.032937355 -0.08221223 -0.26988715 -0.11240128 -0.14408901 0.062357076 0.024502605 0.22457315 -0.05892132 0.13508241 0.3376198 -0.1564426 -0.059364602 -0.11421312 -0.06225408 -0.26012456 -0.16283241 0.078532465 0.1112084 0.21481198 0.1359512 -0.09869603 -0.23717438 -0.076770745 0.09164187 -0.036587734 0.20021927 0.09336877 0.042599898 0.025016794 -0.039668392 -0.16721937 -0.06993269 0.07375203 0.0679966 0.10173307 0.24722686 0.35874364 -0.15315779 -0.05569464 0.039641086 0.04801303
1070 0.20764194 -0.14971657 -0.014650419 -0.1427075 -0.031424616 0.2086423 0.08105697 0.19982453 0.062155165 -0.17749105 0.11034064 0.006937116 0.003366214 -0.029423492 -0.17050563 -0.047069352 -0.26142803 -0.097939126 0.27207038 0.065510094 -0.12112611 -0.0127805695 -0.14097984 -0.22072937 0.15354627 -0.18410645 -0.35690442 -0.20897377 0.06636673 0.35445973 -0.00090718636 0.121940486 -0.104658365 0.081215344 0.050553683 -0.05827753 0.3530169 0.041441437 -0.012079242 0.05889856 -0.1030645 -0.026155086 -0.26825723 0.078868955 0.09320694 -0.040004835 0.14442754 -0.10349353 0.024622262 -0.20106636 0.049312826 0.033464942 -0.13188812 0.03988175 0.0073415195 0.0015894594 0.05465412 0.030655686 -0.117597 0.33630103 0.19573581 -0.084610805 -0.1142598 0.105456844 0.10579533 -0.0073896893 -0.124614924 0.042756893 0.37952128 0.08563651 -0.18194674 0.038307205 -0.13655612 0.18248677 -0.06429787 0.11811573 -0.0345599 0.08227551 0.028032282 0.028540112 0.047870804 0.026369656 -0.08414786 -0.11047624 0.12421895 0.017333878 -0.24538675 -0.0011393704 -0.5265394 -0.018283678 0.052582975 -0.05481469 0.06486507 -0.1423288 0.0052935914 0.15459478 0.19487342 0.01596321 0.12200138 0.27011433 -0.0427361 0.03448859 0.14398235 0.30682096 0.065474756 0.022647575 -0.013923373 -0.16253276 -0.16690284 0.13902771 -0.10546977 -0.13313597 0.16619287 0.011460731 -0.18075518 -0.12065378 -0.09143848 -0.049201485 -0.2695407 -0.012467807 -0.0917224 -0.11984614 0.02122221 0.2003563 0.12201742 -0.17667727 -0.045582127 -0.21111175
1541 -0.22516492 -0.16875783 0.15268485 0.28596944 0.17258711 -0.160406 -0.042472873 -0.17404479 -0.26836166 -0.1624207 0.11910428 -0.1545503 -0.07976231 0.07960212 0.029551275 0.253532 -0.3700694 -0.048818544 0.15488152 -0.0423753 -0.029567612 0.07369805 0.046361364 0.12855186 0.14830112 0.19006908 -0.11266278 0.1353451 -0.08533003 -0.05354207 0.20227502 -0.029144404 0.07400876 0.38853636 -0.048010822 -0.11800064 0.28566927 0.19959404 0.09822162 0.13759442 0.015073261 0.06948195 -0.11530601 -0.115981504 -0.04653755 0.04164493 -0.17644812 0.026060162 -0.27167305 -0.087774016 -0.12275644 0.2694808 -0.023103911 -0.06007476 0.08162832 0.14645112 0.06573109 0.0912706 -0.095538825 0.13665023 0.080512226 -0.093762875 0.17978689 0.17647523 0.065335445 0.032727532 -0.05869028 -0.18709381 0.11195202 0.46492714 0.03620568 0.21385655 -0.06804508 -0.12094743 -0.15500407 0.16756375 0.26450142 -0.17952147 -0.24674875 -0.008714655 0.0072960868 -0.1413084 0.014723026 0.0030584265 0.18168014 0.28545862 -0.20317303 -0.32330605 0.1533818 -0.20024821 0.18040605 -0.011479258 0.023766061 -0.011369758 -0.038451105 0.04063736 0.02587442 -0.14502636 0.011598655 0.12602273 -0.17652781 -0.15133074 -0.27171522 0.15121081 -0.15087815 -0.11473554 -0.15938208 -0.120162174 -0.07906996 0.1129243 -0.14225571 -0.050726272 0.09912413 0.014619478 0.27210596 -0.021245306 -0.09403365 0.08217214 -0.13592456 -0.012475507 -0.118532754 0.24764794 -0.0007993847 -0.088208616 0.06097175 -0.12580776 -0.08811605 -0.059674524
1471 0.08703438 -0.19608824 0.034561604 0.06715634 -0.33472258 0.06284177 0.101719745 0.12259589 -0.034565702 -0.085988395 0.013378545 -0.2319911 0.29472792 -0.07527514 0.100068495 -0.06512587 -0.12058741 -0.003406737 0.61321604 -0.033242647 -0.1756221 0.058724396 0.04642239 0.0049919635 0.0727126 0.013185097 -0.05621377 0.052089825 0.20005041 -0.047009666 -0.0775102 0.035825927 0.049374286 -0.039547455 -0.02786573 0.035859138 -0.08536647 0.13909163 -0.1974167 0.030596167 0.28803447 -0.39251855 -0.2564065 0.007992978 -0.036921974 -0.026307873 -0.2337352 -0.20799418 -0.044576492 -0.18757878 -0.09849996 0.015283083 -0.15814471 0.10980491 0.08792366 0.034252368 0.051356673 0.3590189 -0.1176197 -0.12265401 0.4519205 -0.13605198 0.02834053 -0.12574118 0.05979464 -0.17735457 0.17334405 -0.2036114 -0.009332723 0.12865403 -0.040060703 0.16458604 0.029014625 -0.06509435 0.102927074 -0.3416398 0.25507835 -0.07597518 0.23801072 -0.010839138 -0.16544403 0.13454834 -0.0017436726 -0.24234398 -0.27862954 0.0027711007 -0.18819721 0.003366374 0.064320475 -0.27397725 -0.15744276 0.14818665 0.09647657 0.24996832 -0.18998782 -0.0075731087 -0.0093920035 0.02809138 0.067009665 0.0224433 0.004474955 0.08858558 -0.07304784 0.060869433 -0.008240401 -0.07433663 0.21053696 0.14136544 0.10131889 0.17254138 0.0020991522 0.18666285 -0.04272128 0.034491915 -0.06583074 0.13070515 -0.18956134 0.12130066 -0.19990689 -0.31505653 0.068829335 -0.0678307 0.20475091 0.44242015 0.02912132 0.12280908 0.15081128 -0.21740156
1011 -0.04166198 0.17720304 0.2550601 -0.26303676 0.19480708 -0.019836787 0.15829661 0.19969611 0.038447548 0.07342392 0.28371975 -0.01863555 -0.12907292 0.016220659 0.19902562 0.10801711 -0.08896813 0.09275362 0.328128 -0.3446806 -0.013475066 -0.07539522 -0.21142483 0.05993283 -0.13027406 0.08508685 0.12470503 -0.077996895 -0.08546642 -0.0175812 0.12783761 -0.15103461 -0.035835233 -0.11066465 0.20095569 -0.01720397 -0.15709493 -0.048071295 -0.10688237 0.11957494 -0.13001734 -0.14240378 -0.027119879 0.11567852 -0.049744025 0.15918109 -0.2628767 -0.21559441 -0.011260455 0.09265569 -0.11246522 0.08280953 0.07157882 -0.11056393 -0.035867676 -0.02021235 -0.06753079 0.21189895 -0.037957776 0.18671072 -0.07065198 -0.04551334 0.16739425 -0.27700913 -0.12662238 -0.12615724 -0.096852556 -0.37571022 -0.1840278 0.030088313 0.042708 0.28072533 -0.07624534 -0.164709 0.027430024 0.1522837 0.013811054 0.07066625 -0.16468665 0.005793525 -0.25635132 -0.0125740655 0.06882158 -0.12619476 0.19335012 -0.2308153 0.15110956 0.047440846 -0.1686306 -0.2113038 0.07675611 -0.22816573 0.057619058 -0.13336578 0.10312162 0.07028727 0.34225634 -0.10323999 -0.25169444 -0.078221165 0.06485313 0.2737226 -0.06388999 0.06160295 -0.044672772 0.10999795 0.06277861 0.05138714 -0.26148862 0.119133726 0.023444012 0.005330748 -0.19133893 0.1851185 0.030445075 0.06546949 -0.075365335 0.13650775 0.08360194 0.16636989 0.012105237 0.1923306 -0.12807941 0.12283756 0.059562445 0.011265687 0.050756656 -0.18265884
1545 -0.0038395848 0.08867709 0.028426042 0.080541514 0.00024795815 -0.09302112 0.024085946 -0.030251598 -0.15319198 0.19096468 -0.03569301 -0.19066842 0.27007043 -0.079337716 0.19947068 -0.15754835 0.011867128 -0.17761685 -0.05550339 -0.27642375 -0.22703795 -0.0015013249 -0.02399066 0.34855708 0.052392066 0.124282986 -0.1448013 -0.09488441 0.09918423 0.044809587 0.26769918 -0.10757103 0.07155329 -0.105537236 0.018113108 0.08405884 0.0568003 0.017963365 0.11760064 0.008398971 0.17658173 -0.25797197 -0.18542102 0.027760193 -0.2109689 0.14277339 0.0897694 -0.20330779 -0.06747733 -0.07214883 0.15366544 -0.060962476 -0.21916965 0.31285653 -0.16147357 0.038576197 -0.018118626 0.0746207 0.078085445 -0.0047141872 0.24676205 0.1970665 0.021632332 -0.21035233 -0.26965022 -0.08656995 -0.015211304 -0.023192788 -0.08316508 0.15530407 -0.12511218 -0.045167755 0.08348097 -0.11238314 -0.03479637 0.04319194 -0.12479442 -0.050457414 -0.06962575 0.28079462 -0.1539004 0.06856196 0.007138584 -0.08799219 -0.020721138 -0.18796968 -0.010295361 -0.12189828 -0.22376417 -0.27121422 0.047789406 -0.10704817 0.004542003 0.21392508 0.1274068 -0.2279261 0.12313293 -0.31640914 0.38472462 -0.22306497 -0.07637661 -0.12767324 -0.101512425 0.07997618 0.27932018 0.30596146 -0.067077965 -0.13003418 0.4407284 -0.16722316 -0.3681277 0.15059061 0.10069889 -0.038735818 0.015635058 0.2014198 0.30704445 -0.07509722 -0.09119869 -0.04316572 0.016765844 -0.0959814 0.1879859 -0.025741288 -0.13685441 -0.015979124 0.25148916 -0.054819748
1593 -0.05252919 0.14658059 0.09034995 0.080300264 0.0115383435 0.0064396383 0.12438401 -0.10736023 -0.010391809 -0.04403169 -0.0821162 -0.17265347 -0.23525809 0.1963174 -0.1379671 0.12272968 -0.054817587 0.039977446 0.02910247 -0.24978253 -0.06616388 0.28584716 0.077379316 -0.013974423 -0.019307898 0.14294171 -0.088993706 -0.015857933 0.026949603 0.15456982 0.13523503 -0.011138603 -0.051090878 -0.1907037 -0.10950914 0.15445231 0.18003808 0.13045283 0.036682066 0.014554186 0.077904314 0.04318668 0.06598627 -0.32384738 -0.42912686 0.25993618 -0.061243434 -0.010039679 0.15881461 -0.062305503 -0.0005376914 -0.02343384 -0.052056715 -0.060688805 0.091158055 -0.1967154 -0.16991875 0.002522151 0.2100555 0.05050769 0.025662228 -0.2653234 0.17141582 -0.12916197 -0.06005579 0.003284415 -0.032942593 -0.24297836 0.12817581 0.17133813 -0.08498868 0.16524296 -0.10570404 0.05270895 0.022253437 0.019932564 -0.13713801 -0.010543033 0.011444472 0.23388696 0.010934375 0.064706974 -0.033879533 -0.07399375 0.14629751 0.09560283 -0.29718432 -0.012707134 -0.39869246 -0.044474445 0.1683775 -0.08456877 0.10301925 0.08460699 0.014482398 0.019815497 -0.17429288 0.17439654 0.14696983 0.07392084 -0.23754694 -0.10042723 -0.18919298 0.43251598 -0.17438146 0.030829012 0.07583381 0.2021596 0.14435895 0.020153692 -0.33108595 -0.0839428 0.23178406 0.13064946 0.16943908 0.15658192 -0.15923262 -0.21865444 0.06765264 0.022364635 -0.1193844 -0.0046578725 -0.13817915 0.15400577 0.32451493 -0.049538642 0.25403687 0.047176927
1549 -0.15599464 0.061251774 -0.08249458 0.08962777 0.04459927 0.060615934 0.1602266 -0.01830115 -0.21271221 0.19924586 0.030695349 -0.012770171 0.10303158 0.1315934 0.18605012 -0.009334038 0.078579165 0.22294126 0.0068297684 -0.13118638 -0.022956992 -0.01563689 -0.10184044 0.11378914 -0.11988462 0.16404763 -0.31817836 -0.17200476 0.08222682 -0.1394876 0.11453704 0.03493219 0.114707045 -0.14133364 0.086496264 0.19808045 -0.06227352 0.13841899 0.00030199782 -0.22510004 0.11458348 0.01279598 -0.100975536 -0.033548523 0.018468877 -0.092720956 0.06700587 -0.16396487 0.15236795 0.07066179 -0.027950896 -0.18073206 0.2312837 0.14629567 -0.1967207 0.21262246 0.15486412 0.12957868 0.047605526 0.1263764 0.1029932 0.005719752 -0.12811615 -0.14324093 0.02488788 -0.20264891 -0.3030434 -0.07967339 -0.008950668 0.3393671 -0.093725264 0.044151824 0.048499584 -0.23627326 -0.008339414 -0.105520085 -0.20197625 0.034484304 0.086402595 0.06462879 0.00601433 0.044038452 0.1288949 -0.024216847 0.104836024 0.112732165 -0.18064637 -0.058240812 -0.11326133 -0.13922048 0.13912171 0.026118012 0.12686947 -0.0495567 -0.014813417 -0.36213854 0.2749671 -0.20489083 0.45589313 -0.22414935 0.091646746 -0.07372309 0.15658182 0.026697125 -0.1011131 -0.09934995 -0.21444239 -0.060576085 0.19779137 -0.19381931 -0.13315691 0.1250483 0.03593319 -0.18762238 0.21304332 -0.01198053 -0.10934995 0.17891592 -0.059563354 -0.233769 0.030502766 -0.20430209 0.1015151 0.25752673 -0.1037808 0.11128324 0.09019903 -0.044079266
1844 0.10445694 -0.05503023 -0.2713734 0.03645713 -0.16021837 -0.20837678 -0.23299696 0.15247825 -0.20750539 -0.002329876 -0.120015085 -0.0899449 0.11813731 0.060761783 0.19737902 0.0123070935 -0.1107036 -0.10287627 0.37217614 -0.090574354 0.0037495801 0.0425883 0.18242563 -0.14870654 0.0184401 -0.06778196 -0.07563867 0.09616965 0.074699305 0.10233157 0.22256501 0.08980338 0.05538577 -0.19633251 -0.03238255 0.39818123 0.06728437 -0.15666673 0.13469024 -0.107145555 0.06483984 -0.09873866 0.018963497 -0.12376739 -0.074872315 0.21018738 -0.14067124 -0.06391204 -0.09527516 -0.25872925 -0.004127736 -0.0788625 -0.033161655 -0.18775867 0.31115288 0.26526776 -0.071715936 0.22390479 -0.013307021 -0.20488636 -0.16496149 -0.06858444 0.09498793 0.035885204 -0.12098267 0.12386439 0.012800993 -0.124801084 -0.08479063 0.267416 -0.23541373 0.20455334 0.061767735 -0.18285553 0.0606325 -0.041239664 0.270773 0.08455246 -0.20577513 0.20532052 -0.20900302 0.12327835 0.012688201 -0.03665277 -0.000502127 -0.04912558 -0.07312846 -0.13417153 -0.08067485 -0.05619834 -0.15573646 0.081101336 0.504827 0.16871557 0.14842409 0.3497339 0.34860352 -0.19605072 -0.1331878 -0.17075945 -0.06554986 0.0009944432 0.008555519 -0.15171313 -0.20052636 0.09537921 -0.012876333 0.17702952 -0.048093826 0.053901948 -0.15127006 0.26762873 -0.10062654 0.1662317 -0.07657096 -0.0152555425 -0.101051874 0.082242824 0.10225116 -0.07546049 -0.03159141 0.031842336 -0.07335994 0.003017256 -0.01341862 -0.059268314 -0.015980538 0.23975928
1575 -0.15453784 -0.06862002 0.09789122 0.096872576 -0.2622482 -0.020352263 0.016729858 0.13748574 -0.35249832 0.05036104 0.23966503 -0.097300574 0.16349547 0.15768279 0.09832215 -0.09511245 -0.14045627 -0.34280673 0.05936533 -0.3631048 -0.29570198 -0.028629988 -0.06585201 0.19891368 0.19063085 0.28768012 -0.05274764 0.008474547 0.16815478 0.20168273 -0.121267475 -0.008797099 0.32312086 -0.070998415 0.06310218 -0.236521 -0.07009998 0.1597188 -0.022649985 0.108555265 0.08290883 0.13559213 -0.056048684 0.06020195 -0.133421 0.016165037 -0.26055104 0.051450614 0.2520756 0.19050682 0.011677591 -0.042538475 0.004983405 -0.18148227 0.11153587 -0.024816636 0.062207136 0.31518397 0.0022733076 -0.039301712 -0.026087549 -0.17192663 0.07573347 0.022462955 0.17743227 -0.09469848 0.10313971 0.00139585 -0.06497961 -0.08720622 0.14870837 0.3017556 -0.02650975 -0.22186008 -0.04380501 0.118861265 -0.31395227 -0.036101285 0.16673362 -0.13219102 -0.13296583 -0.15256901 0.296192 -0.14169584 -0.10449693 0.1332065 -0.07240729 0.22449838 -0.33468658 -0.16275637 0.14635536 0.27769226 -0.06830889 0.028861163 0.044608053 -0.14179794 0.15714602 -0.14124474 0.19001071 0.1721966 -0.11422601 -0.10390536 -0.06814665 0.15804978 0.045015827 0.26028877 -0.072987795 -0.03446424 -0.08374337 -0.04953557 0.029382603 -0.03706299 -0.1498619 0.068293236 -0.09494669 0.3173815 0.04106065 0.067611314 0.06801093 0.027653223 0.06575374 0.04674794 -0.17885439 0.12737328 -0.019393923 -0.15387647 -0.162311 0.032266106
1544 -0.08159545 -0.06993136 0.1924028 -0.06705956 -0.097119495 -0.087007724 0.20678288 -0.039719466 -0.27535442 -0.111570075 0.13381721 -0.19751416 0.18365426 0.093833484 0.05506599 0.24637039 -0.06482698 0.052815575 0.44254267 -0.16429785 -0.09804912 0.031748783 0.17914194 0.11199233 -0.06944882 0.09385517 -0.14612553 0.26314113 0.26176873 -0.20991327 0.257513 -0.29724163 -0.06481591 -0.22331628 0.07578809 -0.16472383 0.17932455 -0.08743561 0.039808508 -0.106099576 -0.07105144 -0.11231435 -0.26001137 -0.037263896 -0.08366578 0.008442128 -0.00010769408 -0.2857665 0.12576568 -0.073938824 -0.011403156 -0.06781505 0.1101198 -0.18549529 -0.23252684 0.120210685 0.14445774 0.1215175 -0.010813697 0.00056329096 0.20154855 -0.18075666 -0.31147012 -0.1682021 -0.095988154 0.11738448 -0.12802704 0.1900221 -0.1418395 0.2799024 -0.035101566 0.057785504 -0.1736368 0.028332561 0.12724161 -0.094029106 0.029144784 -0.22413737 -0.082081705 0.07973259 -0.063806534 0.017236538 0.16372561 -0.047002148 0.17590289 0.20370866 -0.13205357 0.051711228 -0.07800714 0.020156173 -0.004429493 -0.14282021 -0.1828695 -0.14105082 0.069739 0.15806603 0.11732443 -0.09210357 0.18588401 0.19734845 -0.119629286 -0.06251679 -0.030229937 -0.05248505 -0.12804358 0.14708535 0.08726608 -0.10909524 -0.041679114 0.11395926 0.07961888 -0.14038683 -0.1781641 -0.083018064 -0.20072962 0.017454399 -0.062175658 0.13065316 0.004021323 -0.24142486 0.020263892 0.061127175 0.05033851 -0.074350715 -0.06089513 -0.1076495 0.24256116 -0.081470884
907 -0.03137208 0.029794345 -0.01857296 0.3012229 -0.11782092 0.039609015 0.11633393 0.34426552 0.0011575437 0.050329905 0.248705 0.03411948 -0.012331187 -0.10413213 0.13129139 0.043601144 -0.05918471 0.32676947 0.039636165 -0.25450063 -0.030746147 -0.060916703 0.0085475715 -0.08746787 0.08333155 0.22124428 0.11043046 -0.21555287 0.01750253 0.1096651 0.15709293 -0.13125041 -0.03868029 -0.022657635 0.14419788 -0.15961787 0.0014937889 0.080055214 0.09186001 0.44419175 0.15335193 -0.1767786 -0.095694505 0.06990752 -0.021419046 0.018710978 0.17324354 -0.038531326 0.11064642 0.26471174 -0.10660263 0.16495453 -0.045035597 -0.10725545 0.112418786 0.03873796 -0.003725291 0.071125716 0.11130932 0.37290043 -0.024088753 -0.03733598 -0.024447676 -0.20606126 -0.0104832 0.050631095 -0.11958682 0.05107652 -0.03304189 0.008061491 0.0328666 0.31185234 -0.13413268 -0.26902008 0.098480195 0.25392154 -0.007699794 0.011305997 0.07534967 -0.0064555244 -0.21170126 0.044752195 0.07666916 -0.015548869 0.32934847 -0.060899045 -0.009860533 -0.1984049 -0.08929192 -0.0819002 0.14597268 -0.019454394 0.006464788 0.076554336 -0.12607755 -0.011757275 0.09151194 -0.17758754 0.05643503 0.046846397 -0.15508687 0.08341136 -0.12648486 0.022413919 0.032494105 -0.16679439 0.24575877 -0.26957083 -0.07100155 -0.15180139 -0.023419248 0.012066428 0.17927167 0.09342217 0.07820521 0.062182605 0.039464064 0.10069219 0.15968221 -0.3021377 -0.05300868 0.21534227 0.081755266 0.14245652 0.05842743 -0.26214293 -0.11768406 0.026699405
1297 -0.09466477 -0.17445919 0.13137318 0.0015959474 -0.046570722 0.1069953 0.3172584 0.12409665 0.11090947 -0.01136399 0.05640767 -0.019952392 0.19326502 0.001516591 0.15872888 0.13755901 -0.10608525 0.12783417 0.31270334 -0.1992936 -0.10264332 -0.0023053843 0.101395994 0.12384352 -0.027332263 0.06114792 -0.1401111 -0.2699873 0.16681147 0.13356885 0.15125115 -0.052737277 -0.116668254 0.026551293 0.053407308 0.038750168 0.12635303 0.31406292 -0.07983838 0.007231041 0.1872679 -0.085827 -0.0033181093 -0.09614758 -0.044121023 -0.23963442 -0.29075107 0.060600508 -0.23680724 0.054867428 -0.20112897 -0.015457586 0.057063796 -0.041227102 0.056140564 0.26013872 -0.0082888035 -0.035780735 -0.14416698 0.22516538 0.32069382 0.021211574 -0.18548636 0.018785711 -0.059336875 0.056873288 -0.547971 -0.24061055 -0.093638144 -0.13931376 -0.16244413 0.067697056 -0.007243863 -0.111380585 -0.04284578 0.07120858 -0.032896355 0.011187943 0.093498796 -0.102695346 0.12541649 0.010611313 -0.033317078 -0.12624842 -0.09564006 0.026080623 0.1178836 -0.015265082 0.14535116 -0.26650938 0.38050592 -0.078802936 0.118359275 0.10928651 -0.09796315 -0.2607993 -0.008708018 0.05956143 -0.059343208 0.06248094 -0.07977097 -0.036685295 -0.26304284 -0.12693651 -0.012262803 -0.05463119 -0.013370625 -0.058163676 0.014727891 0.038182486 -0.0066939746 0.028428467 0.008681684 0.20598151 -0.05378807 0.35430527 -0.18570562 -0.18716833 -0.1930019 -0.03913819 -0.15245518 -0.1378918 -0.3809814 0.12910351 0.15380953 -0.14839539 0.14619185 -0.19081661
279 0.1833257 -0.08062437 -0.21229307 0.11675907 -0.108804055 0.30309275 0.025841217 0.086779974 -0.23534606 0.06318641 -0.053910967 0.046900585 -0.12898137 0.059217565 -0.19781417 -0.11892025 -0.20581451 -0.18581048 0.32080576 -0.15087493 -0.04006319 0.037589572 -0.020012677 -0.014220078 0.04570108 0.04230587 -0.12872066 -0.23703724 -0.08382862 0.090802744 -0.22692871 0.12587799 0.08061025 -0.17448714 0.0074932924 0.20084381 0.33549383 0.2956545 0.09681235 -0.123076275 0.12213714 0.1747868 -0.056861933 -0.19813111 -0.038924035 0.25028524 -0.10048354 0.10589472 0.049799033 -0.27757674 0.060197845 -0.06589964 0.059254874 -0.10687568 -0.23064524 -0.016520604 0.1977053 0.09194796 -0.025044281 0.032943565 -0.06651133 -0.08228269 0.12336141 -0.048312955 0.012060871 -0.041061774 -0.050602373 -0.03783997 0.06992695 0.037589345 -0.20716485 0.37996724 -0.042372204 -0.00094602635 -0.024933703 0.11781616 -0.05856455 -0.0094529465 0.21650532 0.16546695 -0.25847894 -0.093417235 0.0547383 -0.17343402 -0.041772455 -0.12253279 -0.13942023 0.05916761 -0.3607961 -0.16538773 0.13985354 -0.10355555 -0.2006596 -0.1363431 -0.10332637 0.122495785 0.08549462 0.08460402 -0.22446576 0.20907116 -0.1468145 -0.051202405 -0.08897294 0.004897725 -0.07594008 0.31826302 0.12800175 0.13751175 -0.2555534 0.003806143 -0.18490827 0.16369292 -0.077041395 -0.09371432 0.17034937 0.009827457 0.18278304 0.062144432 0.19424553 0.18659452 0.10078425 0.0958669 0.22736984 0.23519447 -0.15451305 -0.4072001 0.013000578 0.05004485
1001 -0.014235687 -0.11002665 0.037161272 -0.0529129 -0.053830512 -0.09213466 0.028746087 0.17794064 -0.004798044 0.06573481 0.1528978 0.18564329 0.045773372 0.09556166 -0.012061983 0.06275973 -0.371935 0.012534938 0.15540405 0.026737493 -0.21698916 0.14394122 0.118318394 -0.014760639 0.14694467 0.1722518 -0.25639996 0.059894208 0.108550236 0.00557195 -0.11741714 0.20327945 -0.09906951 -0.052975863 -0.07644314 0.06347096 0.2391908 -0.10625659 0.129453 -0.18577091 0.05101364 -0.09125677 0.1530126 0.099867575 0.073186815 0.043154683 -0.037709743 0.10864685 -0.065912515 -0.23754552 0.19405957 0.098564155 0.12118724 0.07050815 -0.051584706 0.09464924 0.06248812 0.12724371 0.07216246 0.123294294 0.0064454083 -0.0843946 0.011077623 0.15097968 -0.08242604 -0.015273671 -0.18836467 -0.09430734 0.065180145 -0.02664328 -0.33901605 0.41305956 0.08703231 -0.032981653 0.16362347 -0.17027983 0.054792825 0.20306209 -0.06556371 0.01819825 -0.055515528 0.054442305 -0.05476662 -0.08988227 0.1512071 0.018718973 0.061236866 -0.2682151 0.05865587 -0.20003933 0.121689245 0.124223284 -0.04479493 -0.08346243 -0.008544028 -0.03131246 0.27500543 0.039759755 -0.016862124 -0.06626635 -0.20754729 0.026694518 -0.1796235 0.13746805 0.10801537 0.16646905 0.111071795 -0.061243303 0.013661773 -0.007987528 0.11604454 0.24242729 0.005738534 -0.08389911 -0.12767348 -0.012845742 0.11587639 -0.31094462 -0.22647864 -0.24297142 0.0022522027 0.01053987 -0.124179736 0.28792083 -0.01563173 -0.110453755 0.3184359 0.15552922
2008 -0.07140061 -0.19963543 0.105470136 0.050162207 -0.14912485 0.14338115 0.05318907 0.14692838 0.12813294 0.20845243 -0.069182634 -0.091632634 0.076587975 -0.10837168 0.00023680697 0.07907536 -0.22007427 0.061362565 0.19129816 0.019082785 -0.047836464 -0.07905268 0.17903942 -0.10009984 -0.055450957 -0.12531869 -0.16984423 -0.11063025 -0.053989813 0.12668735 0.34354576 0.27144086 0.13393728 -0.20647931 0.32125655 0.052474372 0.3163165 0.022860313 0.05200369 -0.041136988 -0.03700638 0.014189925 0.009610273 0.0022671686 -0.064914465 -0.10091566 -0.21769322 -0.24377346 0.08187383 -0.07715539 -0.21278924 -0.030724565 0.11001916 -0.28599748 0.0038230396 0.09021541 0.112607986 0.14673488 -0.23530416 0.0187529 -0.148691 -0.0023723997 -0.24608305 0.0998583 -0.02848128 -0.09851735 0.3125705 -0.20944957 0.014237692 0.03866523 -0.21814652 0.097259834 0.07629196 -0.22560503 0.082203284 0.18855402 -0.19562958 -0.14687617 0.14893591 -0.20452817 -0.017222859 0.15943564 0.01726603 0.102726884 0.30556616 -0.00455867 -0.31417444 -0.07989548 -0.08711227 0.113961205 0.07984244 -0.11519772 -0.14709143 0.07901203 -0.20536856 -0.051384386 0.4305647 0.2074265 0.07791171 0.039403208 0.091603614 0.04264537 0.11631243 0.11488474 -0.2737847 0.2409563 0.059615213 0.276179 -0.2374467 0.1443236 -0.19394779 -0.04048505 0.020548783 0.07676515 -0.11368757 0.1091612 -0.016626084 -0.18774514 -0.12026276 0.03704581 0.060256626 -0.14924091 -0.059195787 0.063375905 -0.026546998 -0.10860476 -0.20485689 0.14910759
1218 -0.32938182 -0.16746978 0.19748001 0.19124295 0.012010983 -0.10720275 0.17654155 0.06824353 0.119773254 0.012763499 -0.07460658 -0.23568182 -0.0860234 -0.16737022 0.013075738 0.23056029 -0.022957513 -0.028752267 0.10360214 -0.16215396 -0.03449862 -0.068014644 -0.21947207 -0.13430212 -0.36537012 0.10938903 -0.48118517 -0.13138488 0.00092892925 0.26096126 0.042215955 -0.24027956 -0.06144435 -0.013600207 -0.11471242 0.08812453 0.1434713 0.011052885 -0.068215355 -0.25149575 -0.110935085 -0.013038989 -0.11580611 -0.07980778 -0.08523172 -0.09251411 -0.14949492 -0.1307855 0.077471934 -0.15941875 -0.27706593 -0.0174407 0.38238326 0.0373084 0.33962327 0.40274483 0.02013211 -0.14006035 0.16792078 -0.09790511 0.11813084 -0.31221303 -0.035888914 0.07423701 0.02941554 0.1533764 -0.2025318 0.26347893 -0.15023376 0.021401461 -0.17883444 -0.0056058876 -0.09111641 -0.16979721 0.09669792 0.13241944 -0.39995596 -0.037309136 0.22768627 0.16608043 -0.04902909 0.13516009 -0.3308526 -0.008484493 0.20670001 -0.25910604 -0.18193212 -0.36677444 0.053144082 -0.09286392 0.12233671 0.047959507 0.09829511 0.14325671 0.0113287885 -0.05928673 -0.089532636 0.22554125 0.15288374 -0.19429442 -0.015411998 0.057481885 -0.0038692455 -0.048579525 -0.34493375 -0.053703945 0.2341414 -0.10265583 -0.10331215 -0.033543255 0.072666846 0.19945082 -0.08281835 0.43740863 -0.053085178 -0.20566623 -0.036135375 0.04381341 0.11979631 -0.11459122 -0.13329482 -0.2622836 -0.086743236 -0.007418853 -0.22835995 -0.10042169 0.26343417 -0.18947877
610 0.22655536 -0.020219816 -0.023348823 0.06175668 -0.08483012 -0.1426634 0.022435943 0.001401799 -0.3237223 -0.12559983 0.031428836 -0.071211465 0.09981811 0.17581242 0.017404433 -0.02805029 -0.2086389 0.018004 0.018944329 -0.18913734 -0.11933131 -0.067271404 0.12378501 -0.21934989 -0.22507922 0.25071403 -0.18395351 -0.06863061 0.0870171 -0.14220881 0.033289693 -0.05518825 -0.01161827 0.046123218 0.0048066936 0.22847296 -0.11681616 -0.03528011 -0.00995944 0.037598033 -0.119428985 -0.0282029 -0.039517395 0.049957763 0.08800958 -0.09171789 0.010433864 -0.08971949 -0.26682332 -0.029800447 -0.09130247 -0.19277674 0.32585177 -0.082148254 -0.013625414 0.072696835 0.20701095 -0.0030700658 0.223069 0.05640678 -0.04434488 0.1126634 0.16519536 -0.21070154 -0.03503356 -0.16890854 -0.17455128 0.107395984 0.09681468 0.25196898 0.018428586 0.30770642 -0.049503528 -0.21026891 0.23271425 0.13274504 -0.037514888 0.15510191 0.20731188 -0.019335736 0.20417552 0.1520297 0.04900947 0.2285639 0.02221319 -0.018252822 -0.15736806 -0.09190484 -0.3086108 -0.14832616 0.11660042 0.015149474 -0.054848965 -0.016220553 0.12988545 0.06311018 -0.0563635 -0.09380436 0.14875865 0.011393411 -0.10282535 -0.051026233 -0.20055948 0.09308986 -0.21501534 0.18077649 -0.00075405854 -0.2676571 -0.07734849 -0.017184375 -0.13924736 0.08493324 0.1516866 0.064817 0.13198525 0.113929465 -0.12367119 -0.20779438 0.005190208 -0.022601983 0.07228064 0.004371821 -0.2521467 0.19158067 -0.08033685 -0.24973291 0.13964663 0.08493675
1082 -0.1392527 -0.017519431 -0.07569526 -0.0018395236 0.16591847 -0.104655646 -0.021745212 0.46285564 0.032555062 0.063013144 0.21752799 -0.18665838 0.045471486 -0.11074748 0.055405326 -0.026491985 -0.20745319 0.27326792 0.14662898 -0.21927206 -0.109720334 -0.056830183 0.19786353 -0.18148138 0.03320501 0.038678564 -0.11588222 -0.07004572 -0.17375205 0.2108973 0.02640689 -0.03777559 -0.14647688 -0.031176675 0.045974918 -0.14965801 0.08994821 0.01617043 0.056476828 0.034605745 -0.17386894 -0.114851095 -0.022837209 0.1463877 0.04842867 0.1785006 0.09323453 -0.10188552 0.23036243 -0.11660957 -0.10092077 0.26480445 -0.12892489 -0.082361385 0.39514914 0.16286916 -0.14481343 0.021363081 0.047167942 0.09281058 0.17173558 -0.09412604 0.09464115 -0.16220398 0.27468088 0.27555072 -0.3938754 0.06813626 -0.020263057 -0.0636607 -0.067444295 0.23622693 0.083562404 0.0007812116 -0.016327824 -0.099493384 0.035300627 0.08265734 -0.18121673 -0.027512578 0.22680627 0.07443835 -0.08655946 -0.0015929064 0.27770656 0.038265385 -0.24913976 -0.12516917 -0.118715815 0.17511576 0.081803694 -0.13526577 -0.15650243 0.07598288 0.1625581 0.026627706 0.115486905 0.038856715 0.16310385 0.036899325 -0.2241665 -0.12650469 0.17020842 -0.14598162 0.3675542 -0.09364552 -0.06001103 0.015221552 0.07180438 -0.078231506 0.039604235 0.01315504 0.04438761 0.23177736 -0.012321774 -0.16512671 -0.08754985 0.03516817 -0.2912642 0.06801511 -0.041219585 0.41232923 0.1002453 0.24537295 -0.028806383 -0.57311755 0.15165305 0.14881597
1215 0.043422673 -0.11344743 0.23528731 0.109110676 0.05659024 -0.20636293 0.116983585 0.019322818 -0.007774724 0.24305335 -0.12803306 -0.12858836 0.20954014 0.10010693 -0.20295401 -0.09054961 -0.11431773 0.0009019343 -0.10052011 -0.124470636 0.06176212 -0.14425626 0.22040978 -0.14085793 0.027023807 0.036147304 0.018299244 -0.25857723 0.13500282 0.01790167 0.14570689 0.027255327 -0.11901328 -0.16632597 -0.12381658 0.20414588 -0.0963864 0.37110347 -0.069387384 0.07622749 0.18535154 -0.34886777 -0.22452816 0.08095435 -0.06988053 -0.20865509 -0.26643023 0.07948828 -0.084269136 -0.018763112 0.111236684 -0.03771037 0.21863581 0.054861993 0.1104814 0.41999492 0.018240599 0.23958398 0.14736903 0.0764781 -0.02657016 -0.2693593 -0.050948925 -0.028409712 -0.08913624 -0.11924789 -0.27548727 0.05722325 -0.13691346 0.0327391 -0.23030326 0.041782964 -0.1909403 0.026423538 -0.19823202 0.199649 0.32457745 0.09342942 -0.08276773 -0.15773202 -0.033183783 -0.016475243 -0.26113322 -0.18313515 0.10233285 -0.026028438 0.038008045 -0.006255717 -0.13398805 -0.24667619 -0.02730098 -0.0030936522 0.027510172 0.004380385 0.017103512 -0.049893152 0.0513695 0.03330954 -0.2531502 -0.13788494 -0.061969556 -0.011434143 0.032779414 0.18046708 -0.04258177 0.0838316 -0.10539447 0.04377516 0.038211595 -0.055305082 -0.19735697 -0.17121905 0.017627537 0.1785585 0.0121850325 -0.03822426 0.23398091 0.073717944 -0.078478284 -0.15734245 0.17303392 0.06596278 0.064992785 0.40260628 0.09276716 -0.022515612 -0.02440283 0.051736508
973 0.049190212 -0.15745793 -0.18446253 -0.11864791 -0.096610844 -0.18997185 -0.13337246 -0.15638487 -0.02949362 0.06321119 0.15495189 0.105361365 0.24134675 0.042383973 0.10978363 -0.055819746 -0.036196902 -0.13445717 -0.007425055 0.0699513 0.26973528 0.0014111844 0.10969437 -0.12090192 0.064955994 0.21197505 0.011207241 -0.301344 -0.024794778 0.23188695 0.17348574 0.13698584 0.009745272 0.06273179 -0.06555648 -0.060340222 0.10776258 -0.057492677 0.15780556 -0.12489842 -0.073122606 -0.14942232 0.068254635 -0.03224578 -0.068514146 0.011525956 -0.50935173 -0.28461358 -0.05643203 -0.028716497 -0.21946368 -0.0042109806 -0.004787724 -0.0007020316 0.020335792 -0.06323432 0.37629357 0.25206128 0.17665847 -0.088440105 0.10877915 0.084795415 -0.13153325 0.104329854 0.117953956 -0.053489223 -0.08592512 -0.33075494 0.16586113 0.00984645 -0.14385214 0.30254826 0.3436551 0.1248417 0.11658892 -0.06766505 -0.22852945 -0.16977301 0.068154976 -0.16068925 -0.013922265 0.043900114 0.07800765 0.15142547 0.14755824 -0.20823431 -0.08820346 -0.09721205 -0.20445669 -0.16094719 -0.042416394 -0.2061467 0.061901696 0.18621576 0.11601955 0.24236882 0.26742136 -0.297394 -0.058206003 -0.15812953 0.2134328 0.03917016 -0.18615343 -0.08250639 0.08975249 0.11949202 0.11194767 0.07718728 -0.4683986 0.06297975 -0.11389816 -0.024136214 -0.105727114 0.07057577 -0.019797573 -0.02485474 0.23320119 -0.065352246 -0.22701971 -0.19472502 0.067632146 -0.010350045 0.0112280045 0.26589814 -0.26465344 -0.40831575 -0.1009163 0.08125803
969 -0.18800822 -0.17162326 0.15268992 0.059376415 -0.16249515 0.01984483 0.09511722 0.22976054 -0.17799151 -0.07717831 -0.04720614 0.14217333 0.1972135 -0.2191041 0.10274137 -0.06463106 -0.2342556 -0.07209267 0.17648368 -0.21797419 0.08505607 0.037722163 0.054838214 0.040711775 0.01620105 0.12558132 -0.044492446 -0.17831837 0.06437614 -0.13595197 0.08973018 -0.14953148 0.13366899 -0.28690496 0.09534305 0.11380404 -0.1730145 0.02825868 0.06470852 -0.045098342 0.13599558 0.0023112367 -0.1263268 -0.026727745 0.030081507 -0.11312732 0.17766038 0.039979976 0.026477845 -0.12059813 0.052338492 -0.16693795 0.02302108 -0.1957303 -0.030483114 0.012509533 -0.14374705 0.116041794 -0.018828891 0.093641706 0.10366731 -0.3889927 0.08015904 0.12318911 -0.16943805 0.21350694 -0.08121393 0.06292087 -0.019733118 0.13411127 -0.110401034 0.29623684 -0.10541661 -0.26254418 -0.07802202 -0.15364252 -0.025753373 0.030455729 -0.018251434 -0.09627982 -0.043982696 0.14222308 0.017008003 -0.18316853 -0.030925738 0.031460743 -0.16673145 -0.018064365 -0.020595813 -0.12482933 0.20909682 -0.11285494 -0.08715312 -0.11133464 0.026452968 0.08099247 0.048081387 -0.14441742 -0.4301717 -0.062113322 0.1460579 -0.09679867 -0.26399034 0.25020465 0.020572813 0.047546506 0.033408567 0.047343917 -0.12423698 0.011169846 0.2256005 -0.11797763 0.23637043 0.13705292 -0.17686638 0.07411402 -0.20316093 0.124805905 -0.12670358 -0.25854382 -0.028477333 -0.24162844 -0.1438517 0.16325268 0.092249066 -0.06547574 -0.08377248 -0.0013505667
1548 0.15712254 0.09289767 0.16515425 -0.16940984 0.036449745 -0.03394632 0.16789748 0.08506193 -0.025598634 0.21429405 -0.04013884 -0.28876847 0.2658985 0.23270594 0.01953349 -0.10392354 -0.022508796 0.050585553 -0.14188066 -0.018226756 0.17435274 -0.027955059 0.29848343 -0.14334475 0.2073159 0.18661611 -0.26745144 0.09772491 -0.07700744 -0.006235854 0.0047860574 -0.121547416 0.014119192 -0.090758465 -0.009975246 0.26905483 0.032285843 0.23941897 -0.054518096 -0.12483661 0.2566195 0.2959713 0.22837302 0.2091738 0.14137112 0.013680753 0.022250157 -0.24984455 -0.046801504 -0.13828368 -0.20276366 -0.06779617 0.16557531 -0.33876213 0.0007070528 -0.038394652 0.044437975 0.31002393 -0.06425164 0.14647181 0.28034794 -0.2514245 -0.03714953 -0.099670164 0.01408931 0.09418855 -0.11032139 -0.054339286 0.3154758 0.13521291 -0.14865376 -0.15994346 -0.059760798 -0.33910692 0.012936818 -0.08120795 0.0065608583 -0.08777755 0.11390395 0.056633845 -0.13232036 -0.09000381 0.17345873 -0.15985936 -0.092872836 -0.048564497 -0.18921012 -0.024045883 -0.19863516 0.038416162 0.047566816 0.06221242 -0.23368032 0.16260211 -0.0269441 -0.31484658 0.23424673 -0.2812714 -0.005653684 0.15313825 -0.19762473 0.11994502 -0.14350758 0.26133603 -0.15096238 0.22166902 0.022254216 0.20383036 -0.023024598 -0.20530406 0.007993949 -0.109498724 -0.17637207 0.117696516 -0.033760548 0.09038668 0.15167823 -0.18876964 -0.089327656 0.08465865 0.078051105 0.027061896 -0.08079411 0.22122233 -0.121516466 -0.37771255 -0.028820071 -0.11586653
1647 0.020576196 -0.012077786 0.099221505 0.0376355 -0.18540324 0.06995824 0.05395315 0.081068605 0.040987216 0.11398258 -0.18251917 -0.28262645 0.2545888 0.32921845 0.11413989 -0.04731366 0.33882612 0.049375683 0.41802788 -0.12501135 -0.25597388 -0.09715798 -0.11806303 0.11905331 -0.057763502 0.02735041 -0.061770707 -0.078698136 -0.12302841 -0.14324054 0.28394538 0.06704124 -0.025008284 0.14814821 -0.11753931 -0.13471758 0.19315898 0.14323662 0.22599357 0.048784096 -0.035162494 -0.03100581 0.09967937 0.03807816 0.04515762 -0.16422476 0.14099291 -0.35285708 0.14787865 -0.29411086 -0.30398968 0.02212919 0.24524434 0.19272903 0.27707997 0.22388135 0.038587563 0.21386844 0.033274535 0.1590277 0.25509775 -0.05627061 -0.091527686 -0.049521405 -0.17366077 -0.2570981 0.104288876 -0.21779461 0.024686897 -0.17160623 0.28366095 0.07890691 -0.120700784 0.19131745 0.049520098 0.08268027 0.13170913 0.065716594 0.03491507 0.29061756 0.13352443 -0.11334321 0.32475704 0.16200864 0.23245364 -0.18292828 0.07914107 0.052043088 0.06368111 -0.27954873 -0.070935644 -0.2685342 -0.071678355 0.17657386 0.2884717 0.14479068 -0.058832683 -0.40614748 0.10171719 -0.07532264 -0.116158046 -0.12794946 -0.12993881 -0.05091797 -0.18451218 0.07347486 -0.12901996 0.120806836 0.002665662 -0.09304276 -0.070701405 -0.1264758 -0.30241093 -0.021875069 0.17592885 -0.11786711 -0.21373083 -0.061243985 0.06641475 -0.060759164 0.0382561 -0.015904339 -0.39455616 0.19782647 0.14235325 -0.13522573 0.07143459 0.23905484
908 0.06390605 -0.22982195 0.1165906 0.09046776 -0.029413052 -0.22566606 -0.017791584 -0.091292106 0.023820667 0.12268914 0.13802299 -0.15135808 0.11767866 0.06972661 0.009905399 0.105771676 -0.0094913505 0.049304694 -0.010355313 -0.4174043 -0.16289711 0.22112119 -0.12894091 -0.0363322 -0.08472936 0.0031122796 -0.028542325 -0.019693604 0.17194721 0.27558208 0.12895349 -0.35397443 0.09537353 -0.12539047 -0.03299101 0.007752657 -0.16095224 -0.029124936 -0.118930265 -0.051760796 0.03441431 -0.2618343 0.19548267 0.06499578 -0.050403286 0.07322102 -0.17228054 -0.0601274 0.03604113 -0.3795515 0.09190945 0.010348755 0.22540008 0.18163687 -0.05895244 0.08446959 -0.12829635 -0.010701618 0.32628912 0.08050403 0.11116637 0.07296476 0.2210725 -0.027629998 0.24049163 0.07151029 -0.07658973 -0.09808191 0.030969793 0.11469865 -0.23851958 0.12389648 -0.040976893 0.1234461 0.07553463 -0.00027886216 0.10319066 0.116781875 -0.12300268 -0.029754965 0.029141452 -0.093897186 0.20260479 -0.16147566 0.20923752 -0.15675814 0.030681776 -0.17878515 -0.27408227 -0.17250504 0.16174577 0.17328754 0.065541774 -0.05125044 0.032923035 0.26591393 0.21003827 -0.13331816 -0.03382341 0.04920815 -0.16440782 -0.073072165 -0.02731991 0.09063945 -0.2030389 0.21240921 0.23444243 -0.023835571 0.029661603 0.0011812602 -0.07965777 -0.06819741 0.024906646 -0.063184224 -0.0055755186 0.098324075 -0.04579804 0.07904617 -0.17011622 0.062414728 -0.13571763 -0.13428111 -0.13802552 0.09553101 -0.101238295 -0.15133543 -0.28018928 -0.032768074
230 -0.03372223 -0.15532766 -0.051468745 0.1656646 -0.008850109 0.0002640213 0.22100963 0.10711099 -0.012444544 -0.022492517 0.06560807 -0.16089717 0.12058127 0.48909092 0.21949038 0.25565243 -0.12109261 -0.09820578 0.22220421 -0.011239855 -0.09339553 -0.23836519 0.1425493 0.18031567 0.005525117 0.025045395 -0.20112751 -0.040503096 0.2674643 -0.015272283 0.1538997 -0.028476441 0.24158697 0.0061199456 -0.00080729986 0.1342 0.07743944 -0.008846898 0.09041248 -0.14435112 -0.10813111 -0.00033206708 0.09699676 0.000121252815 0.3120721 0.077496335 -0.21951276 -0.21783462 0.012814504 0.2574851 -0.21157536 0.030247087 0.09987559 -0.07618071 0.15188517 0.23485838 0.05673366 -0.028458886 -0.1210617 0.13280523 0.07968652 -0.11377466 -0.06912753 0.13667925 0.059859596 -0.08606133 -0.08083779 -0.11518586 0.18607983 0.051369473 -0.019500485 0.19877148 0.07963286 -0.18944384 0.022340788 0.0491133 0.087367125 -0.04497086 -0.047950417 -0.12568481 0.11348569 0.0049732174 -0.11141 0.13765286 0.0302321 0.10011863 -0.14272277 0.15766111 -0.30712858 -0.20436591 0.09212398 -0.40312248 0.03960853 -0.017924476 -0.11470404 0.03772539 -0.12005283 -0.16642827 0.19145766 0.053700183 -0.016765261 -0.10715116 -0.32747975 -0.01947542 -0.43915772 0.11186996 0.10096128 -0.09188643 0.064880535 0.016410029 0.037593774 -0.043905742 -0.111144595 -0.060882337 0.029059054 -0.09520714 -0.08259409 0.13423295 -0.17893067 0.009380098 -0.031993262 0.12543988 -0.1905271 0.15439813 -0.03236148 0.2522962 -0.024816776 -0.13597102
