1314 128
2 -0.390717 0.167360 -0.152758 -0.261378 0.178317 0.040444 0.205145 0.256837 -0.261845 -0.345648 -0.243940 0.619250 -0.149331 -0.148475 0.321631 0.029728 -0.083897 -0.109271 0.150377 -0.039824 0.351774 0.022563 0.098796 0.230337 -0.341033 0.243874 -0.248419 -0.042488 0.051996 0.377553 0.437252 0.084400 0.500622 -0.300902 0.131551 0.148848 0.315602 0.170028 0.200836 -0.428430 -0.272565 -0.183345 0.172682 -0.050159 -0.155417 0.357865 0.069312 -0.211632 0.188709 0.633994 -0.017025 0.287411 -0.358388 0.452956 0.012081 -0.432690 0.169554 0.056137 0.111903 -0.235829 0.298759 -0.051653 -0.567684 -0.233429 -0.050978 -0.029205 0.049463 0.108477 0.643565 -0.082347 -0.097363 -0.455719 -0.275882 0.517783 -0.105212 -0.737357 0.153322 0.047172 0.463871 -0.191633 0.408790 -0.289865 0.196083 0.249255 0.150042 -0.308316 -0.327681 0.427475 0.024975 -0.274571 0.569367 -0.343221 -0.112582 -0.443689 -0.237610 -0.284687 0.385636 0.065766 -0.127255 -0.607036 -0.070723 -0.182673 0.431024 0.470005 -0.552191 -0.309271 0.037552 -0.102365 -0.115173 -0.206124 -0.071423 0.280104 -0.045863 0.103108 0.238318 0.015415 0.122259 -0.369332 -0.115958 -0.120390 0.036272 -0.334051 -0.069103 -0.028314 -0.618507 0.567337 0.294438 -0.206539 
3 -0.318855 0.133050 -0.126433 -0.203747 0.150376 0.028028 0.172715 0.194058 -0.208460 -0.290111 -0.200689 0.515275 -0.138947 -0.128704 0.251417 0.017734 -0.066977 -0.093393 0.138206 -0.032709 0.268889 0.030699 0.099148 0.199386 -0.270817 0.196371 -0.192484 -0.017366 0.041126 0.300843 0.355698 0.072083 0.410049 -0.234481 0.122747 0.140408 0.272071 0.139822 0.172153 -0.364462 -0.236057 -0.137155 0.168297 -0.034446 -0.120217 0.269675 0.051924 -0.183840 0.157083 0.507104 -0.046195 0.237946 -0.296460 0.378808 0.007631 -0.362300 0.141737 0.050499 0.085070 -0.198167 0.254298 -0.042579 -0.437972 -0.196030 -0.064130 -0.002822 0.046114 0.105941 0.534380 -0.076886 -0.074779 -0.355554 -0.211992 0.437715 -0.102319 -0.604077 0.145572 0.053138 0.374954 -0.154520 0.312225 -0.240751 0.167876 0.199359 0.123874 -0.234452 -0.262386 0.344665 -0.001630 -0.235996 0.458158 -0.284917 -0.083881 -0.346917 -0.201851 -0.240811 0.326933 0.040244 -0.104451 -0.504293 -0.055509 -0.179771 0.365467 0.373304 -0.451908 -0.240848 0.024439 -0.061396 -0.119984 -0.151570 -0.052143 0.235666 -0.063957 0.079745 0.196880 0.010745 0.089259 -0.311211 -0.080275 -0.105825 0.019948 -0.269998 -0.062699 -0.002243 -0.496185 0.456516 0.256003 -0.165825 
4 -0.284473 0.123006 -0.115205 -0.193720 0.153801 0.009152 0.180746 0.173605 -0.186888 -0.278835 -0.205096 0.485476 -0.129475 -0.121457 0.227501 0.023315 -0.067407 -0.087647 0.136802 -0.018619 0.262254 0.013268 0.085286 0.183515 -0.259573 0.192921 -0.184475 -0.045372 0.026110 0.293091 0.325204 0.045518 0.393374 -0.246384 0.123646 0.156990 0.247009 0.136618 0.152651 -0.335286 -0.220382 -0.113079 0.160924 -0.033522 -0.114346 0.253520 0.049587 -0.174759 0.143716 0.478666 -0.044962 0.243259 -0.288268 0.350943 -0.010454 -0.349224 0.132130 0.029133 0.092876 -0.201054 0.227014 -0.043440 -0.421946 -0.184106 -0.074876 0.003191 0.064929 0.101295 0.507994 -0.065034 -0.093276 -0.347308 -0.196893 0.426728 -0.101966 -0.574790 0.118961 0.037287 0.335081 -0.138242 0.313807 -0.229736 0.152459 0.185836 0.130244 -0.242238 -0.234196 0.326304 0.006951 -0.202541 0.425002 -0.270836 -0.083294 -0.321524 -0.214837 -0.214128 0.310506 0.050706 -0.088163 -0.471762 -0.032607 -0.174448 0.367055 0.358099 -0.421291 -0.221710 0.025881 -0.058549 -0.120981 -0.143837 -0.050143 0.223380 -0.054327 0.091099 0.171130 0.028669 0.066816 -0.299268 -0.057470 -0.112379 0.025817 -0.251452 -0.075117 -0.001530 -0.477171 0.423119 0.244280 -0.176243 
5 -0.226701 0.110711 -0.104593 -0.134990 0.182890 -0.019333 0.204729 0.129808 -0.134964 -0.258056 -0.179222 0.400486 -0.141664 -0.079770 0.193362 0.062895 -0.068564 -0.091641 0.151577 0.000637 0.235364 0.008697 0.065466 0.183512 -0.211102 0.203484 -0.163445 -0.066760 0.011233 0.297317 0.279872 0.020448 0.313594 -0.245492 0.140483 0.163501 0.214818 0.131401 0.124161 -0.275039 -0.195759 -0.047413 0.144445 -0.065240 -0.094631 0.184334 0.049596 -0.161168 0.101888 0.410607 -0.071439 0.256620 -0.271712 0.314273 -0.025171 -0.332704 0.130981 -0.002107 0.055202 -0.185918 0.201047 -0.024381 -0.362964 -0.156667 -0.082894 0.026799 0.065823 0.084859 0.457226 -0.030161 -0.116455 -0.323292 -0.168667 0.390999 -0.120018 -0.489145 0.085468 0.032408 0.251137 -0.115138 0.276980 -0.181011 0.146940 0.168406 0.118515 -0.218945 -0.192128 0.300048 -0.010569 -0.162807 0.347890 -0.223963 -0.042114 -0.229810 -0.224582 -0.189938 0.243605 0.046520 -0.049943 -0.373478 -0.030014 -0.159115 0.334540 0.318750 -0.324677 -0.169995 0.019114 -0.046443 -0.116935 -0.103408 -0.051373 0.226968 -0.065029 0.115214 0.136050 0.039387 0.039937 -0.264995 -0.014456 -0.123137 0.018894 -0.226204 -0.084801 -0.011166 -0.394409 0.359899 0.219436 -0.206539 
6 -0.232027 0.098661 -0.103334 -0.134738 0.177856 -0.012348 0.218853 0.126836 -0.122943 -0.267892 -0.169699 0.407335 -0.145189 -0.080869 0.202139 0.064648 -0.069201 -0.100202 0.154998 -0.008711 0.228406 0.008432 0.071926 0.176257 -0.211058 0.206561 -0.163431 -0.069221 0.011415 0.293508 0.283291 0.018719 0.325350 -0.240814 0.134343 0.166909 0.217541 0.123915 0.116617 -0.274477 -0.193171 -0.046650 0.134712 -0.052168 -0.095699 0.194802 0.038287 -0.166877 0.110943 0.417101 -0.069622 0.256547 -0.271797 0.310184 -0.032972 -0.331204 0.132439 0.002434 0.060246 -0.188749 0.215044 -0.033380 -0.358245 -0.169464 -0.085760 0.017323 0.060533 0.082024 0.462659 -0.028394 -0.109423 -0.315150 -0.177851 0.398104 -0.111559 -0.483662 0.086381 0.031119 0.262611 -0.125878 0.279734 -0.180292 0.157990 0.169635 0.123931 -0.213144 -0.199401 0.307051 -0.017268 -0.164108 0.356092 -0.230845 -0.050327 -0.237822 -0.219165 -0.185419 0.258885 0.061081 -0.050045 -0.387694 -0.039328 -0.159876 0.342575 0.314329 -0.336912 -0.183027 0.023701 -0.057386 -0.113965 -0.112998 -0.062078 0.235467 -0.068682 0.117876 0.136141 0.046686 0.041403 -0.270021 -0.014551 -0.126981 0.025680 -0.222483 -0.077169 -0.005169 -0.399750 0.354420 0.222928 -0.200162 
7 -0.191139 0.084062 -0.090700 -0.095526 0.210843 -0.030268 0.233354 0.076783 -0.088212 -0.249017 -0.155334 0.361613 -0.158675 -0.068218 0.165380 0.078031 -0.068088 -0.099109 0.173911 -0.004792 0.203136 0.001240 0.055164 0.183220 -0.175622 0.210099 -0.137229 -0.088594 -0.013452 0.289238 0.244155 -0.004809 0.276758 -0.236705 0.124449 0.174245 0.202042 0.121499 0.089794 -0.224022 -0.153642 0.016638 0.123974 -0.068840 -0.079968 0.134358 0.036913 -0.154673 0.074733 0.357017 -0.093644 0.265525 -0.243459 0.278554 -0.064289 -0.309223 0.135755 -0.025582 0.033375 -0.185860 0.189461 -0.020137 -0.303640 -0.172855 -0.103295 0.030072 0.074156 0.061604 0.427628 -0.031945 -0.124498 -0.288555 -0.164212 0.360032 -0.117459 -0.415283 0.059487 0.011315 0.201876 -0.112292 0.251067 -0.158159 0.153460 0.161916 0.130321 -0.176358 -0.171845 0.279232 -0.016430 -0.113647 0.295590 -0.199938 -0.025395 -0.171684 -0.237193 -0.166620 0.219218 0.062887 -0.033959 -0.329553 -0.022554 -0.146417 0.330536 0.274037 -0.282723 -0.159404 0.012732 -0.054282 -0.119128 -0.081850 -0.064507 0.242682 -0.057790 0.121886 0.105729 0.076255 -0.004251 -0.252444 0.028839 -0.134274 0.030967 -0.197576 -0.098037 -0.003116 -0.366021 0.311197 0.209927 -0.221934 
8 -0.181457 0.087116 -0.081676 -0.100773 0.223237 -0.040982 0.247401 0.072595 -0.090404 -0.253667 -0.163542 0.372327 -0.157913 -0.069055 0.161979 0.076197 -0.060532 -0.103577 0.182002 0.002343 0.201391 -0.008654 0.064991 0.184937 -0.168662 0.214008 -0.126742 -0.094077 -0.024419 0.286930 0.233937 -0.016567 0.270914 -0.243980 0.132141 0.189591 0.210126 0.128733 0.084826 -0.225334 -0.150298 0.020204 0.128705 -0.083601 -0.077222 0.134437 0.038400 -0.146273 0.077101 0.353906 -0.088403 0.273778 -0.245743 0.280776 -0.073420 -0.318939 0.143400 -0.041268 0.036429 -0.193988 0.186258 -0.025296 -0.309335 -0.185220 -0.103102 0.041121 0.079980 0.056365 0.431763 -0.023711 -0.128791 -0.307298 -0.167305 0.357053 -0.114813 -0.420930 0.070833 -0.000587 0.202855 -0.105173 0.258606 -0.153890 0.139088 0.163930 0.124338 -0.181141 -0.166262 0.281687 -0.020184 -0.117872 0.296403 -0.209750 -0.017255 -0.170043 -0.240218 -0.178271 0.234566 0.061347 -0.031093 -0.346780 -0.012510 -0.151743 0.335540 0.276047 -0.277696 -0.155825 -0.004035 -0.046395 -0.125002 -0.065762 -0.062156 0.251416 -0.058001 0.123765 0.113052 0.074016 -0.006013 -0.257826 0.025703 -0.139866 0.027774 -0.199660 -0.097858 -0.000111 -0.371593 0.316911 0.213390 -0.235078 
9 -0.091878 0.070667 -0.061288 -0.054429 0.201542 -0.058045 0.246556 0.009653 -0.037417 -0.227342 -0.149925 0.322237 -0.147399 -0.079697 0.095734 0.062512 -0.018317 -0.090443 0.199358 0.057355 0.150205 -0.017090 0.078611 0.163673 -0.122770 0.179282 -0.050828 -0.064685 -0.052331 0.252375 0.130008 -0.049054 0.226085 -0.227435 0.165655 0.227599 0.154659 0.120581 0.075016 -0.180739 -0.097972 0.105527 0.175757 -0.067190 -0.046218 0.084038 0.042201 -0.122641 0.064216 0.246222 -0.109062 0.268494 -0.218283 0.230245 -0.102903 -0.291475 0.138451 -0.081529 0.018517 -0.163684 0.134098 -0.046121 -0.237585 -0.173197 -0.120819 0.066389 0.070304 0.085035 0.364151 -0.008071 -0.129196 -0.240716 -0.116398 0.305766 -0.106659 -0.314013 0.109459 -0.011506 0.155687 -0.056849 0.210159 -0.149451 0.136665 0.116336 0.089643 -0.152544 -0.104714 0.198674 -0.051456 -0.092622 0.183768 -0.202584 0.015706 -0.095493 -0.241386 -0.159222 0.203617 0.019446 -0.020332 -0.311808 0.032430 -0.151427 0.330714 0.186245 -0.192803 -0.104251 -0.028715 -0.005309 -0.131091 0.025340 -0.063394 0.251849 -0.088615 0.141014 0.095154 0.080938 -0.054193 -0.232806 0.070950 -0.159032 0.001946 -0.145941 -0.088454 0.028823 -0.281932 0.217153 0.204686 -0.222536 
10 -0.085130 0.079009 -0.058084 -0.053888 0.206926 -0.060373 0.245154 0.004103 -0.033999 -0.225858 -0.146381 0.326409 -0.154481 -0.082556 0.091272 0.055389 -0.019222 -0.101502 0.206119 0.061846 0.159055 -0.018303 0.070392 0.155214 -0.125448 0.169399 -0.047179 -0.074207 -0.048474 0.253378 0.124275 -0.059218 0.211288 -0.230224 0.155814 0.227924 0.150220 0.127889 0.084601 -0.167537 -0.100888 0.125454 0.186362 -0.072068 -0.032748 0.081306 0.045582 -0.136224 0.074665 0.253387 -0.099491 0.277406 -0.224286 0.223856 -0.107710 -0.302518 0.133270 -0.094283 0.018003 -0.168219 0.135882 -0.042976 -0.242533 -0.176846 -0.117619 0.078815 0.055356 0.085789 0.367082 -0.013487 -0.130796 -0.243950 -0.109999 0.300865 -0.102179 -0.310093 0.106236 -0.002695 0.155579 -0.052147 0.209079 -0.134949 0.134979 0.105846 0.090981 -0.158279 -0.100160 0.203705 -0.048060 -0.084502 0.178588 -0.193207 0.027708 -0.099845 -0.233957 -0.172240 0.200392 0.013206 -0.024104 -0.300206 0.047933 -0.162556 0.325454 0.196573 -0.197518 -0.115429 -0.037278 -0.001410 -0.130407 0.033171 -0.063610 0.262867 -0.083863 0.136000 0.097506 0.078303 -0.052776 -0.230656 0.064385 -0.157783 -0.012646 -0.143166 -0.079777 0.034880 -0.286885 0.223964 0.204670 -0.229828 
11 -0.051279 0.061974 -0.046563 -0.034615 0.200448 -0.075477 0.237602 -0.040848 -0.005838 -0.203302 -0.144289 0.295406 -0.161084 -0.075104 0.042217 0.062068 -0.008138 -0.100774 0.217354 0.070894 0.126317 -0.024045 0.084187 0.158598 -0.107047 0.171471 -0.010348 -0.071951 -0.075415 0.229690 0.075431 -0.066462 0.187337 -0.215178 0.176196 0.248293 0.137317 0.123582 0.078826 -0.147128 -0.071439 0.167119 0.204815 -0.077048 -0.031613 0.047988 0.041099 -0.117500 0.058630 0.184956 -0.139830 0.276627 -0.199027 0.197111 -0.124186 -0.272759 0.139086 -0.110799 0.004255 -0.160620 0.103212 -0.044945 -0.189078 -0.168379 -0.121223 0.088913 0.060082 0.095587 0.329770 -0.008471 -0.144401 -0.222713 -0.092928 0.276353 -0.102099 -0.262539 0.110463 -0.025155 0.114147 -0.035160 0.177440 -0.142366 0.133052 0.090659 0.093309 -0.130785 -0.073251 0.172510 -0.056881 -0.074267 0.129457 -0.185092 0.040099 -0.056108 -0.242984 -0.156486 0.175170 -0.008416 -0.019987 -0.279232 0.066149 -0.154475 0.325761 0.163046 -0.145373 -0.082349 -0.056741 0.024005 -0.140645 0.070792 -0.063434 0.250090 -0.106478 0.140090 0.080940 0.090900 -0.085051 -0.206311 0.088415 -0.173229 -0.015722 -0.139113 -0.092203 0.053275 -0.249820 0.175502 0.196581 -0.222607 
12 -0.037688 0.059120 -0.033058 -0.031182 0.219418 -0.110100 0.280173 -0.097787 0.026122 -0.223130 -0.178858 0.330747 -0.166226 -0.084153 0.042771 0.094393 0.018862 -0.136703 0.256081 0.055921 0.138966 -0.035770 0.089522 0.189208 -0.105069 0.190264 0.040857 -0.080352 -0.111505 0.248899 0.030029 -0.089766 0.178188 -0.271289 0.203463 0.293433 0.133500 0.144663 0.087720 -0.154440 -0.031805 0.244534 0.236684 -0.126426 -0.032853 0.041333 0.086676 -0.117825 0.065363 0.159941 -0.144557 0.315001 -0.214876 0.221388 -0.152404 -0.291515 0.147697 -0.166271 0.004875 -0.199782 0.067467 -0.068497 -0.213351 -0.187456 -0.110098 0.105481 0.059678 0.093472 0.353559 -0.014476 -0.192537 -0.250978 -0.098140 0.315247 -0.107299 -0.255865 0.149401 -0.083931 0.089026 -0.045176 0.196182 -0.159344 0.149666 0.106764 0.101010 -0.139049 -0.054854 0.171251 -0.054028 -0.070504 0.149483 -0.223381 0.084592 -0.068905 -0.296925 -0.182144 0.177820 -0.002440 -0.040515 -0.312902 0.078911 -0.146242 0.352410 0.157364 -0.146542 -0.095978 -0.084585 0.018828 -0.152284 0.101501 -0.082332 0.300853 -0.125229 0.174077 0.066332 0.091244 -0.111200 -0.223948 0.092751 -0.204698 -0.003366 -0.159235 -0.114164 0.069219 -0.260411 0.169941 0.218993 -0.281982 
13 -0.054610 0.054851 -0.044778 -0.024671 0.210474 -0.096965 0.241617 -0.075955 0.013212 -0.220011 -0.154771 0.316475 -0.166435 -0.080036 0.035115 0.072248 0.008732 -0.124569 0.233769 0.044604 0.141084 -0.018668 0.079665 0.172923 -0.112597 0.181089 0.026746 -0.075198 -0.088470 0.239253 0.050970 -0.077011 0.186793 -0.236532 0.180287 0.275837 0.126559 0.138633 0.089261 -0.153290 -0.045228 0.212440 0.215072 -0.103463 -0.048990 0.051303 0.076231 -0.121519 0.068424 0.175708 -0.143946 0.282225 -0.194699 0.216545 -0.143898 -0.276068 0.150193 -0.144466 0.004319 -0.186933 0.077536 -0.051787 -0.205763 -0.178750 -0.099208 0.089622 0.057361 0.099646 0.339296 -0.016392 -0.158837 -0.227903 -0.095241 0.305514 -0.111241 -0.268200 0.148807 -0.071462 0.091820 -0.037717 0.195396 -0.161333 0.136715 0.097925 0.094050 -0.125826 -0.062180 0.155527 -0.043570 -0.079406 0.150171 -0.202869 0.069058 -0.083389 -0.269062 -0.164121 0.169897 -0.009588 -0.035210 -0.297673 0.077098 -0.123653 0.335289 0.156295 -0.150851 -0.093091 -0.075203 0.015238 -0.134239 0.075764 -0.063659 0.271002 -0.114768 0.139387 0.073530 0.067296 -0.098814 -0.216013 0.094185 -0.191085 0.003774 -0.157302 -0.113324 0.058801 -0.253947 0.179745 0.206219 -0.252897 
14 -0.045803 0.044847 -0.046672 -0.031871 0.210359 -0.085109 0.255381 -0.086313 0.012122 -0.209148 -0.158388 0.313135 -0.156553 -0.086503 0.034951 0.075020 0.008205 -0.119053 0.222177 0.047143 0.127502 -0.022135 0.078176 0.172140 -0.113678 0.178432 0.025842 -0.077060 -0.083377 0.234470 0.047301 -0.077269 0.186493 -0.239579 0.179337 0.270242 0.129491 0.136236 0.082217 -0.154978 -0.039300 0.205445 0.217201 -0.089727 -0.036713 0.054072 0.074459 -0.107681 0.061746 0.173844 -0.146405 0.274571 -0.191716 0.217207 -0.138869 -0.263776 0.135191 -0.135286 0.011220 -0.186357 0.072575 -0.053762 -0.194126 -0.172260 -0.102742 0.092113 0.065548 0.102481 0.330378 -0.027752 -0.152014 -0.223878 -0.093403 0.298974 -0.106102 -0.260398 0.145474 -0.059588 0.095624 -0.039969 0.189157 -0.161976 0.129181 0.102699 0.090804 -0.114186 -0.056451 0.144725 -0.051010 -0.073692 0.146968 -0.198605 0.063515 -0.081154 -0.260749 -0.155434 0.175067 -0.003093 -0.047097 -0.302279 0.078534 -0.130751 0.334833 0.156499 -0.154683 -0.088623 -0.066783 0.018241 -0.141612 0.067039 -0.059591 0.259522 -0.129048 0.140654 0.071381 0.070688 -0.102933 -0.220721 0.096679 -0.178924 0.013630 -0.146288 -0.111916 0.060901 -0.254179 0.172108 0.220606 -0.235529 
15 -0.052888 0.044520 -0.047234 -0.019804 0.211433 -0.096343 0.250501 -0.088091 0.022598 -0.209055 -0.166786 0.322988 -0.160098 -0.085689 0.031977 0.085449 0.025186 -0.129537 0.248170 0.053334 0.142132 -0.034191 0.085364 0.178352 -0.103346 0.178035 0.031843 -0.067092 -0.098272 0.247946 0.039613 -0.093108 0.171690 -0.244909 0.193633 0.291583 0.133282 0.142707 0.085597 -0.142927 -0.044326 0.210137 0.219338 -0.111184 -0.029961 0.042629 0.079736 -0.109490 0.071671 0.166384 -0.141289 0.281487 -0.210445 0.205492 -0.146352 -0.282329 0.133487 -0.148684 0.000340 -0.181543 0.070953 -0.062214 -0.199186 -0.183999 -0.117897 0.107745 0.066983 0.099620 0.350967 -0.008891 -0.169221 -0.229145 -0.093054 0.298056 -0.115733 -0.266527 0.145592 -0.072908 0.089822 -0.043609 0.192620 -0.149494 0.142359 0.092689 0.097825 -0.123150 -0.061243 0.162116 -0.049281 -0.082157 0.143547 -0.201615 0.072392 -0.074244 -0.263726 -0.167242 0.166293 -0.021104 -0.050439 -0.295395 0.073049 -0.137906 0.328603 0.147705 -0.144878 -0.092775 -0.081942 0.026088 -0.151712 0.098048 -0.067253 0.280104 -0.125873 0.148410 0.081900 0.074778 -0.105400 -0.220014 0.082543 -0.192093 -0.007750 -0.144486 -0.120771 0.061909 -0.240709 0.176302 0.214177 -0.265423 
16 -0.052316 0.042116 -0.045131 -0.021435 0.201137 -0.093996 0.248237 -0.088719 0.015186 -0.206247 -0.156210 0.316976 -0.169962 -0.074520 0.027672 0.079897 0.019526 -0.128470 0.234113 0.044856 0.139225 -0.027312 0.085699 0.178946 -0.093683 0.172605 0.032124 -0.068058 -0.093604 0.245689 0.042439 -0.080899 0.171924 -0.241368 0.192941 0.285691 0.125530 0.144024 0.079838 -0.147021 -0.048442 0.209823 0.221118 -0.099915 -0.035412 0.040657 0.077467 -0.107654 0.072491 0.164513 -0.146212 0.280635 -0.196865 0.198818 -0.132381 -0.270588 0.132662 -0.153003 0.004545 -0.182397 0.066202 -0.058699 -0.196436 -0.189959 -0.109574 0.102774 0.071230 0.101993 0.344466 -0.013623 -0.160482 -0.225144 -0.094727 0.297188 -0.104873 -0.253643 0.147750 -0.072985 0.086469 -0.032986 0.190183 -0.147940 0.132538 0.096355 0.089619 -0.129582 -0.056091 0.153082 -0.044104 -0.088154 0.131442 -0.205411 0.071510 -0.072492 -0.259508 -0.163366 0.179693 -0.017888 -0.047900 -0.300245 0.077160 -0.136785 0.324343 0.144443 -0.144839 -0.084139 -0.083148 0.025678 -0.143227 0.093959 -0.070824 0.273692 -0.115584 0.146795 0.083365 0.078740 -0.107400 -0.214844 0.086912 -0.189352 -0.003525 -0.149961 -0.106549 0.058729 -0.237475 0.164987 0.207878 -0.254066 
17 -0.048530 0.045534 -0.051757 -0.018971 0.203223 -0.107013 0.251419 -0.093173 0.024743 -0.206205 -0.156302 0.301804 -0.166749 -0.073474 0.027776 0.072171 0.018482 -0.114600 0.236754 0.057300 0.118036 -0.035101 0.086297 0.181246 -0.096737 0.180316 0.018969 -0.073606 -0.108827 0.216852 0.046378 -0.084917 0.186982 -0.229896 0.191808 0.265837 0.125014 0.121743 0.084505 -0.150151 -0.042067 0.219567 0.225828 -0.102009 -0.027241 0.041922 0.064816 -0.107184 0.073224 0.147054 -0.146790 0.285330 -0.202196 0.199875 -0.125613 -0.266351 0.130266 -0.140326 -0.008049 -0.173567 0.062481 -0.050539 -0.188295 -0.167280 -0.120418 0.111031 0.062430 0.105983 0.323910 -0.011625 -0.169251 -0.227998 -0.083399 0.278248 -0.110649 -0.244766 0.121193 -0.055989 0.078271 -0.030951 0.166909 -0.136220 0.145451 0.082510 0.096338 -0.125865 -0.063496 0.157424 -0.045508 -0.079488 0.128340 -0.191688 0.061687 -0.063546 -0.255781 -0.161214 0.166227 -0.010790 -0.031710 -0.291338 0.065838 -0.148221 0.326121 0.154067 -0.146415 -0.093602 -0.079531 0.022298 -0.154496 0.097446 -0.064569 0.272063 -0.108887 0.155035 0.067085 0.075144 -0.100000 -0.201124 0.087455 -0.185847 -0.002022 -0.145296 -0.115395 0.063145 -0.233502 0.164428 0.208213 -0.251930 
18 -0.058343 0.047998 -0.060885 -0.009771 0.212659 -0.122263 0.246750 -0.071791 0.022260 -0.204357 -0.161619 0.318130 -0.162614 -0.064812 0.026973 0.071945 0.037340 -0.123514 0.230663 0.042193 0.125825 -0.058475 0.093027 0.188707 -0.085027 0.190876 0.006713 -0.069819 -0.105642 0.223515 0.079732 -0.067735 0.190470 -0.224440 0.192074 0.254475 0.132376 0.116053 0.088387 -0.165549 -0.043403 0.217327 0.224679 -0.095330 -0.037468 0.034209 0.068295 -0.093437 0.096332 0.169833 -0.151811 0.299832 -0.202041 0.201870 -0.124480 -0.273086 0.125499 -0.146775 -0.016630 -0.179393 0.075736 -0.043499 -0.203971 -0.177355 -0.129361 0.104219 0.056104 0.121491 0.350910 -0.006045 -0.171467 -0.238033 -0.069686 0.293010 -0.112435 -0.244162 0.120331 -0.045886 0.078574 -0.050165 0.160321 -0.138862 0.156284 0.091884 0.094763 -0.135736 -0.064740 0.185992 -0.042160 -0.085444 0.137742 -0.215414 0.045483 -0.085755 -0.262828 -0.170875 0.192356 -0.016916 -0.027305 -0.303050 0.057152 -0.142267 0.339513 0.158893 -0.161034 -0.095881 -0.082279 0.016477 -0.151035 0.104492 -0.064653 0.268280 -0.096201 0.150856 0.088460 0.063238 -0.072170 -0.214194 0.067912 -0.206602 -0.002453 -0.150491 -0.126417 0.058232 -0.231453 0.171136 0.208671 -0.269248 
19 -0.063201 0.049075 -0.056799 -0.016238 0.202696 -0.113182 0.240636 -0.075425 0.014830 -0.201268 -0.155812 0.305370 -0.168814 -0.072260 0.018278 0.059439 0.027534 -0.104387 0.227707 0.051961 0.110934 -0.048186 0.092187 0.184308 -0.083358 0.173328 0.002117 -0.063037 -0.098056 0.224917 0.072780 -0.063757 0.180827 -0.208801 0.191683 0.243546 0.132178 0.106652 0.080386 -0.162990 -0.050519 0.206570 0.218957 -0.093173 -0.024159 0.032115 0.062552 -0.099501 0.092912 0.167355 -0.152203 0.286030 -0.187888 0.194677 -0.107967 -0.251421 0.118061 -0.131447 -0.018238 -0.167917 0.071148 -0.040772 -0.184774 -0.163107 -0.131696 0.101712 0.050656 0.121095 0.335000 -0.003159 -0.156142 -0.213663 -0.076333 0.286321 -0.118937 -0.233987 0.115817 -0.038617 0.072896 -0.036334 0.156037 -0.143479 0.146492 0.089244 0.102628 -0.124737 -0.057295 0.175816 -0.044169 -0.076952 0.126768 -0.204545 0.043006 -0.073995 -0.249238 -0.169591 0.170030 -0.018891 -0.016896 -0.277889 0.057013 -0.146109 0.329310 0.159200 -0.146973 -0.092119 -0.077078 0.024499 -0.154347 0.093402 -0.065202 0.262629 -0.102427 0.145836 0.079946 0.069820 -0.071645 -0.204566 0.070411 -0.198055 -0.006739 -0.140697 -0.125503 0.056306 -0.230714 0.158256 0.204872 -0.259294 
20 -0.059464 0.032701 -0.061635 -0.012147 0.185464 -0.108168 0.227128 -0.073479 0.007950 -0.185218 -0.153174 0.295705 -0.168457 -0.072577 0.014221 0.050364 0.026596 -0.104742 0.208832 0.056009 0.090039 -0.034140 0.086339 0.170540 -0.080569 0.166244 0.007953 -0.049778 -0.091253 0.197088 0.077362 -0.052595 0.171445 -0.195670 0.179962 0.239801 0.134177 0.102914 0.075933 -0.167475 -0.056371 0.196927 0.219962 -0.074436 -0.024965 0.018056 0.051711 -0.091269 0.090628 0.147586 -0.152820 0.262106 -0.165284 0.184138 -0.098046 -0.222659 0.114757 -0.105692 -0.011733 -0.155182 0.076251 -0.051062 -0.151707 -0.159048 -0.126803 0.108783 0.066678 0.119277 0.316527 -0.014645 -0.139964 -0.186622 -0.062884 0.269681 -0.117940 -0.218814 0.123620 -0.026709 0.071038 -0.039120 0.143073 -0.145506 0.132223 0.083194 0.090637 -0.096290 -0.049673 0.150430 -0.053942 -0.083173 0.122661 -0.198108 0.040410 -0.068974 -0.232979 -0.159828 0.179956 -0.010574 -0.013351 -0.264358 0.053191 -0.156364 0.314737 0.137607 -0.144264 -0.080650 -0.069408 0.045113 -0.168681 0.080079 -0.059885 0.234160 -0.107060 0.123776 0.071401 0.059418 -0.080874 -0.214543 0.078813 -0.187798 0.004948 -0.118199 -0.122385 0.062309 -0.218520 0.138838 0.202894 -0.232064 
21 -0.042725 0.034039 -0.053052 -0.002923 0.191443 -0.121892 0.242882 -0.079690 0.011368 -0.191547 -0.157478 0.297213 -0.160114 -0.068969 0.026026 0.054684 0.040268 -0.107736 0.227910 0.052910 0.089843 -0.041474 0.085686 0.171221 -0.068567 0.175888 0.025102 -0.045297 -0.105597 0.187565 0.056900 -0.080833 0.168290 -0.206867 0.194474 0.253858 0.136211 0.116485 0.077295 -0.164430 -0.032011 0.220177 0.220694 -0.078853 -0.013124 0.022209 0.049691 -0.089616 0.086231 0.136385 -0.153195 0.272975 -0.184008 0.186472 -0.124404 -0.238600 0.116271 -0.139899 -0.000008 -0.165466 0.076211 -0.057907 -0.168993 -0.166102 -0.133751 0.112062 0.075922 0.105784 0.321261 -0.007043 -0.156632 -0.199464 -0.053945 0.272702 -0.126863 -0.209346 0.120367 -0.051126 0.064962 -0.029081 0.149184 -0.133721 0.136812 0.085491 0.102408 -0.102836 -0.046868 0.172705 -0.047230 -0.086039 0.125981 -0.200812 0.048553 -0.065849 -0.253418 -0.169125 0.174428 -0.013804 -0.015141 -0.281811 0.065629 -0.149616 0.327527 0.140935 -0.143137 -0.085513 -0.084641 0.032909 -0.160743 0.112097 -0.059981 0.253197 -0.114018 0.137401 0.073864 0.062537 -0.088193 -0.215681 0.084027 -0.199642 0.001801 -0.117321 -0.124857 0.058550 -0.213854 0.135942 0.198129 -0.252957 
22 -0.044587 0.039059 -0.057322 -0.006768 0.193269 -0.122804 0.241160 -0.072789 0.009960 -0.189330 -0.151105 0.283747 -0.166117 -0.068178 0.029515 0.054528 0.039534 -0.095702 0.230473 0.055451 0.095707 -0.029654 0.096979 0.162723 -0.080046 0.174962 0.015767 -0.040847 -0.114250 0.194284 0.057480 -0.079043 0.179793 -0.204311 0.191520 0.253847 0.144535 0.114557 0.084526 -0.172098 -0.038895 0.218450 0.225844 -0.079460 -0.015413 0.034339 0.053666 -0.100076 0.086604 0.134806 -0.151321 0.289103 -0.200373 0.191412 -0.132993 -0.236614 0.117442 -0.135942 -0.002287 -0.160798 0.077391 -0.050398 -0.163848 -0.173726 -0.142921 0.114482 0.073779 0.111769 0.317713 -0.012618 -0.153898 -0.210518 -0.068766 0.270037 -0.119093 -0.215646 0.114788 -0.050135 0.066846 -0.026815 0.157313 -0.138740 0.145652 0.079340 0.113562 -0.097539 -0.058441 0.173389 -0.053280 -0.093073 0.119278 -0.198806 0.039820 -0.059966 -0.264774 -0.173955 0.160793 -0.017566 -0.012010 -0.280602 0.061371 -0.157184 0.335930 0.148585 -0.138219 -0.093181 -0.083332 0.026436 -0.161432 0.107820 -0.058060 0.250030 -0.125095 0.146596 0.073767 0.077715 -0.096492 -0.215885 0.079092 -0.212208 -0.006418 -0.119224 -0.116037 0.066094 -0.219018 0.142271 0.198511 -0.254099 
23 -0.023386 0.054771 -0.056212 0.001674 0.200726 -0.116546 0.243786 -0.073075 0.014760 -0.191459 -0.148261 0.278625 -0.172989 -0.061070 0.017050 0.062413 0.035089 -0.098988 0.231641 0.060596 0.096429 -0.038528 0.098345 0.167024 -0.080278 0.182897 0.025249 -0.040584 -0.115124 0.204899 0.039056 -0.085097 0.166477 -0.215039 0.195189 0.267341 0.133606 0.122778 0.088019 -0.159450 -0.038818 0.210321 0.218956 -0.083741 -0.027036 0.026916 0.050924 -0.096421 0.091928 0.124550 -0.155042 0.292910 -0.190152 0.195175 -0.128898 -0.231414 0.119118 -0.136968 0.001027 -0.151063 0.074376 -0.060608 -0.166887 -0.183031 -0.142900 0.123071 0.073836 0.093108 0.311461 -0.011966 -0.158669 -0.203089 -0.069830 0.268126 -0.122873 -0.213736 0.120549 -0.060618 0.059455 -0.026193 0.147993 -0.122844 0.133815 0.076310 0.111369 -0.097328 -0.057411 0.171326 -0.042700 -0.087346 0.113880 -0.178481 0.043291 -0.052717 -0.270492 -0.167480 0.157718 -0.013579 -0.009071 -0.283747 0.073481 -0.158748 0.331036 0.142967 -0.130824 -0.079099 -0.086491 0.016686 -0.159078 0.120442 -0.057726 0.256410 -0.121215 0.146044 0.070073 0.079310 -0.096011 -0.208696 0.079408 -0.215476 -0.011799 -0.108077 -0.112705 0.058150 -0.215593 0.141713 0.182399 -0.264248 
24 -0.027954 0.059926 -0.052329 -0.011535 0.192474 -0.116494 0.236618 -0.057767 0.001034 -0.198982 -0.144623 0.278449 -0.169335 -0.060066 0.029024 0.061421 0.032388 -0.090762 0.224520 0.066267 0.102734 -0.032887 0.097884 0.154937 -0.088252 0.176738 0.020062 -0.030098 -0.110720 0.198678 0.060253 -0.088366 0.167494 -0.211428 0.182805 0.263411 0.143767 0.124782 0.085792 -0.174643 -0.048942 0.191576 0.209047 -0.079545 -0.028301 0.041054 0.050786 -0.108097 0.091279 0.141130 -0.135148 0.292431 -0.195197 0.195715 -0.129888 -0.232520 0.115811 -0.132654 -0.002973 -0.146504 0.071618 -0.055813 -0.185289 -0.181141 -0.139525 0.121465 0.071215 0.091308 0.325075 -0.001922 -0.160337 -0.211546 -0.059966 0.270463 -0.121596 -0.213249 0.120128 -0.049958 0.071567 -0.029002 0.149313 -0.115299 0.138375 0.083951 0.117185 -0.102267 -0.065079 0.189851 -0.036062 -0.097262 0.131282 -0.179204 0.044072 -0.051459 -0.269017 -0.170854 0.155997 -0.016742 -0.015389 -0.292720 0.053366 -0.167594 0.322646 0.145056 -0.140156 -0.090055 -0.074041 0.002313 -0.151690 0.101619 -0.054713 0.243896 -0.124040 0.136620 0.079913 0.058774 -0.085612 -0.211364 0.062894 -0.207449 -0.012310 -0.110021 -0.116290 0.056714 -0.221226 0.155622 0.174281 -0.270233 
25 -0.024268 0.046251 -0.057241 -0.006847 0.198785 -0.110840 0.242895 -0.066518 -0.001273 -0.195515 -0.140582 0.270325 -0.171882 -0.060848 0.020225 0.050772 0.032505 -0.081212 0.223122 0.064980 0.091731 -0.032780 0.094721 0.151726 -0.091752 0.174519 0.022820 -0.030896 -0.110482 0.201434 0.052693 -0.080197 0.166457 -0.208181 0.180544 0.251121 0.136896 0.114873 0.083670 -0.175624 -0.053842 0.204010 0.218707 -0.064725 -0.027023 0.034869 0.039195 -0.098458 0.078434 0.127055 -0.152309 0.279491 -0.184346 0.191951 -0.127386 -0.222442 0.103791 -0.115194 -0.006711 -0.152100 0.065460 -0.054932 -0.159816 -0.175438 -0.137039 0.121961 0.072071 0.097749 0.310017 -0.013868 -0.159370 -0.193030 -0.062628 0.260267 -0.124495 -0.211282 0.117427 -0.042556 0.068104 -0.018233 0.148282 -0.116073 0.124899 0.075599 0.117487 -0.086862 -0.059971 0.173360 -0.040344 -0.094169 0.118188 -0.178745 0.035665 -0.051457 -0.260157 -0.165633 0.150824 -0.016441 -0.018942 -0.286321 0.064925 -0.168296 0.327383 0.137255 -0.131956 -0.084946 -0.073717 0.020712 -0.168400 0.100000 -0.041727 0.230671 -0.126206 0.123957 0.072799 0.064972 -0.097108 -0.215498 0.068779 -0.202491 -0.007032 -0.105861 -0.112276 0.065939 -0.210687 0.146951 0.177253 -0.253752 
26 -0.020553 0.037769 -0.048068 0.012341 0.193913 -0.103839 0.230898 -0.055189 0.001576 -0.197145 -0.137522 0.259000 -0.164181 -0.065311 0.025452 0.041389 0.029660 -0.080496 0.235709 0.068590 0.077464 -0.022017 0.084737 0.143940 -0.070658 0.164648 0.031267 -0.035096 -0.101502 0.185670 0.037627 -0.084933 0.152638 -0.190309 0.191084 0.261479 0.143923 0.119590 0.091954 -0.171586 -0.058777 0.201140 0.199324 -0.057622 -0.008846 0.028730 0.037835 -0.106544 0.084284 0.112090 -0.143892 0.263245 -0.187103 0.177887 -0.135323 -0.224059 0.106273 -0.122899 -0.001437 -0.140082 0.078348 -0.055570 -0.164871 -0.173363 -0.140177 0.124533 0.080850 0.080276 0.304837 -0.005806 -0.159240 -0.189347 -0.043601 0.264128 -0.121429 -0.198739 0.115520 -0.047693 0.065109 -0.026154 0.130844 -0.108461 0.125744 0.076042 0.116548 -0.086056 -0.046796 0.167333 -0.043669 -0.087226 0.102712 -0.178294 0.032677 -0.026559 -0.258348 -0.168025 0.139467 -0.020104 -0.019212 -0.263599 0.055898 -0.168797 0.313269 0.115148 -0.117632 -0.069829 -0.070187 0.019058 -0.177707 0.107910 -0.045975 0.228731 -0.139306 0.129100 0.072545 0.062950 -0.094063 -0.186036 0.084265 -0.204702 -0.030101 -0.094683 -0.113758 0.065439 -0.204912 0.139283 0.170243 -0.243550 
27 -0.031328 0.037324 -0.048244 0.011296 0.193833 -0.096495 0.232132 -0.052484 -0.001873 -0.195784 -0.139441 0.258538 -0.170297 -0.073495 0.027562 0.034006 0.027287 -0.074231 0.230514 0.064366 0.062885 -0.004358 0.091844 0.143522 -0.071118 0.153865 0.038732 -0.037390 -0.092785 0.171965 0.038139 -0.066365 0.155824 -0.179631 0.190592 0.261546 0.148758 0.116505 0.093700 -0.176823 -0.060188 0.197922 0.205567 -0.039297 -0.008525 0.031032 0.026371 -0.108513 0.084422 0.104801 -0.152124 0.263372 -0.174970 0.172756 -0.130003 -0.224999 0.105192 -0.103226 -0.003468 -0.138437 0.084739 -0.057438 -0.150240 -0.172588 -0.146720 0.126071 0.083158 0.087290 0.305964 -0.014694 -0.151843 -0.177453 -0.032790 0.262083 -0.119582 -0.196459 0.125364 -0.032577 0.068385 -0.029902 0.116046 -0.115756 0.129971 0.079992 0.113416 -0.078346 -0.038559 0.153454 -0.045109 -0.087483 0.109027 -0.169539 0.033171 -0.031102 -0.246871 -0.163668 0.138045 -0.015814 -0.011474 -0.257234 0.052223 -0.174225 0.318947 0.114166 -0.116101 -0.062325 -0.053956 0.030524 -0.183610 0.092057 -0.036214 0.211265 -0.150978 0.115021 0.073205 0.061900 -0.097108 -0.184651 0.090026 -0.199246 -0.021660 -0.087360 -0.119684 0.067973 -0.202897 0.145164 0.175656 -0.221375 
28 -0.039794 0.038075 -0.046790 0.001840 0.189295 -0.090070 0.229485 -0.049096 -0.002006 -0.196690 -0.134286 0.255533 -0.168135 -0.064062 0.029716 0.041403 0.030069 -0.086467 0.227014 0.051598 0.073776 -0.005816 0.085857 0.148190 -0.077915 0.152450 0.032065 -0.029729 -0.088043 0.172323 0.038048 -0.062919 0.162405 -0.174556 0.178523 0.248841 0.142488 0.113081 0.087299 -0.173195 -0.061209 0.187645 0.204989 -0.041627 -0.017006 0.041565 0.037021 -0.111731 0.085787 0.116396 -0.143504 0.263186 -0.175354 0.168195 -0.127651 -0.219338 0.099109 -0.109864 -0.002664 -0.134706 0.083924 -0.058306 -0.157044 -0.169995 -0.131894 0.110358 0.081068 0.090723 0.306813 -0.021567 -0.146222 -0.183322 -0.047010 0.256582 -0.110926 -0.203603 0.123469 -0.037141 0.071114 -0.024222 0.130813 -0.124348 0.121899 0.081883 0.117166 -0.081608 -0.045586 0.156454 -0.040838 -0.080447 0.111398 -0.176899 0.031740 -0.046177 -0.244041 -0.165922 0.141395 -0.009257 -0.008514 -0.268139 0.057564 -0.158284 0.314785 0.114018 -0.125127 -0.071044 -0.060649 0.028330 -0.173461 0.085776 -0.038938 0.216067 -0.147262 0.109156 0.074231 0.061878 -0.081861 -0.184776 0.077968 -0.188030 -0.010856 -0.089805 -0.110627 0.065722 -0.201899 0.146640 0.176148 -0.225085 
29 -0.035841 0.034605 -0.045949 0.010833 0.184756 -0.086883 0.217324 -0.061985 0.002752 -0.186868 -0.135851 0.250102 -0.170109 -0.070204 0.016986 0.032982 0.018013 -0.073558 0.218049 0.068948 0.065895 -0.005716 0.085629 0.132822 -0.076773 0.147260 0.027956 -0.031184 -0.087906 0.167501 0.042774 -0.057653 0.159825 -0.178618 0.175504 0.233512 0.150069 0.109929 0.086907 -0.177028 -0.063539 0.184950 0.208053 -0.037629 -0.011167 0.021884 0.026135 -0.109652 0.079914 0.104741 -0.162841 0.247738 -0.169464 0.173748 -0.122495 -0.213066 0.105631 -0.096939 -0.000387 -0.130109 0.088555 -0.047252 -0.134256 -0.161863 -0.141426 0.122048 0.084351 0.096035 0.296022 -0.029925 -0.138215 -0.169394 -0.043606 0.250212 -0.119137 -0.199745 0.112166 -0.023815 0.063564 -0.029592 0.114197 -0.118640 0.134057 0.070495 0.118093 -0.079055 -0.041386 0.144226 -0.050870 -0.079392 0.099482 -0.164762 0.020062 -0.023018 -0.237763 -0.153709 0.139390 -0.027255 -0.008107 -0.246550 0.054113 -0.171811 0.302760 0.117161 -0.113558 -0.056954 -0.055545 0.039206 -0.184499 0.080909 -0.029993 0.204093 -0.150863 0.112425 0.069027 0.067757 -0.092792 -0.182273 0.087866 -0.182001 -0.026282 -0.086247 -0.113077 0.066373 -0.200593 0.137681 0.180057 -0.199879 
30 -0.032072 0.036138 -0.038214 0.011756 0.194045 -0.084040 0.227295 -0.051518 -0.010876 -0.185180 -0.142163 0.274121 -0.179293 -0.083509 0.016055 0.026129 0.022802 -0.083399 0.216091 0.073602 0.058936 -0.006585 0.082834 0.143395 -0.078174 0.149645 0.024309 -0.042209 -0.092546 0.174153 0.049430 -0.066576 0.169892 -0.183596 0.183414 0.252019 0.151553 0.113063 0.078381 -0.190141 -0.068514 0.183374 0.208994 -0.033527 -0.005133 0.021408 0.028158 -0.114238 0.088146 0.114235 -0.152056 0.256073 -0.169137 0.180348 -0.127424 -0.212738 0.091218 -0.106356 -0.000579 -0.149803 0.090430 -0.051380 -0.157343 -0.160674 -0.146331 0.127800 0.082216 0.091087 0.294214 -0.020565 -0.146871 -0.185877 -0.036114 0.256186 -0.116611 -0.203571 0.117221 -0.026007 0.064665 -0.022954 0.121847 -0.125423 0.116567 0.078890 0.114501 -0.089607 -0.033610 0.153596 -0.051984 -0.085127 0.113942 -0.168537 0.026308 -0.027213 -0.241272 -0.164886 0.138536 -0.028801 -0.019432 -0.263065 0.064674 -0.186343 0.320528 0.118717 -0.117136 -0.071669 -0.054584 0.031864 -0.195308 0.085182 -0.030910 0.209814 -0.155926 0.122350 0.070885 0.063388 -0.088859 -0.196713 0.088004 -0.207454 -0.031454 -0.085384 -0.120710 0.055354 -0.203163 0.143728 0.183843 -0.221212 
31 -0.011996 0.037487 -0.028526 0.002062 0.197828 -0.093070 0.231040 -0.046890 -0.014174 -0.191896 -0.149912 0.284205 -0.173171 -0.093211 0.027316 0.036563 0.018132 -0.087312 0.233021 0.083100 0.063252 -0.025948 0.081400 0.147955 -0.078916 0.162526 0.019377 -0.052669 -0.105758 0.177473 0.044184 -0.091006 0.158634 -0.212335 0.192348 0.270404 0.157476 0.130393 0.078869 -0.185160 -0.054365 0.195918 0.201438 -0.054857 0.001712 0.031641 0.027524 -0.114935 0.084910 0.111695 -0.147026 0.269187 -0.191180 0.188129 -0.148694 -0.228746 0.099650 -0.114309 0.003703 -0.159378 0.079082 -0.041761 -0.178463 -0.164708 -0.145775 0.143787 0.083368 0.066420 0.301165 -0.010767 -0.169462 -0.218380 -0.027950 0.270978 -0.117846 -0.204927 0.115369 -0.045976 0.071245 -0.041117 0.141625 -0.113197 0.120368 0.070353 0.104931 -0.096363 -0.036475 0.176127 -0.046690 -0.086999 0.114975 -0.172750 0.042495 -0.032331 -0.252273 -0.173875 0.142240 -0.026524 -0.016779 -0.269923 0.058783 -0.194708 0.324203 0.130133 -0.122004 -0.069431 -0.067182 0.025298 -0.201589 0.097805 -0.041931 0.229162 -0.158191 0.142370 0.059184 0.071562 -0.096615 -0.184264 0.084763 -0.216865 -0.046643 -0.088606 -0.117014 0.043040 -0.224603 0.153755 0.181336 -0.228605 
32 -0.022261 0.046915 -0.037750 -0.001208 0.192353 -0.096682 0.218513 -0.051784 -0.011995 -0.184618 -0.150795 0.269117 -0.170458 -0.090212 0.017890 0.031352 0.009528 -0.068921 0.237060 0.078942 0.060779 -0.014851 0.090068 0.150633 -0.083558 0.157564 0.019674 -0.052028 -0.114367 0.168644 0.054530 -0.079445 0.164828 -0.211275 0.186808 0.249533 0.161691 0.130081 0.086201 -0.173408 -0.063492 0.206057 0.206767 -0.046984 0.007194 0.024239 0.032604 -0.123869 0.074218 0.113894 -0.160592 0.264078 -0.180005 0.187167 -0.141105 -0.230322 0.106435 -0.107029 0.001451 -0.138109 0.079784 -0.041602 -0.151647 -0.148888 -0.156291 0.140984 0.069218 0.081967 0.303801 -0.008980 -0.159555 -0.199011 -0.026591 0.274694 -0.126990 -0.202231 0.117105 -0.039368 0.075395 -0.031396 0.129775 -0.110338 0.139065 0.068960 0.118913 -0.096756 -0.045452 0.166501 -0.053695 -0.075099 0.096925 -0.160654 0.039476 -0.022354 -0.254016 -0.169992 0.129729 -0.040971 -0.005152 -0.250232 0.056615 -0.199562 0.325587 0.133311 -0.114741 -0.071354 -0.058485 0.025251 -0.186459 0.089977 -0.038110 0.230004 -0.160347 0.143069 0.067735 0.079414 -0.095437 -0.185010 0.091623 -0.207072 -0.047186 -0.093049 -0.118533 0.053890 -0.206968 0.136018 0.177313 -0.217389 
33 -0.011442 0.039637 -0.034936 0.001952 0.204484 -0.079149 0.217632 -0.064734 -0.012329 -0.190311 -0.165130 0.288754 -0.165480 -0.099187 0.025360 0.048682 0.004992 -0.076089 0.239844 0.099832 0.048564 -0.009871 0.087532 0.150060 -0.082381 0.150909 0.033433 -0.072509 -0.121636 0.161178 0.057423 -0.105391 0.146727 -0.237932 0.190373 0.272671 0.185449 0.131210 0.088572 -0.181461 -0.045997 0.211111 0.210610 -0.047987 0.023781 0.027876 0.020614 -0.123051 0.078287 0.104286 -0.164783 0.249674 -0.182976 0.197369 -0.150063 -0.231206 0.109828 -0.111007 0.019838 -0.150489 0.078799 -0.037672 -0.165022 -0.150460 -0.156036 0.155503 0.083209 0.057046 0.302490 0.003194 -0.173580 -0.222610 -0.019565 0.273546 -0.131826 -0.203428 0.115441 -0.038006 0.081214 -0.053768 0.121410 -0.098583 0.131144 0.065497 0.110046 -0.100020 -0.045738 0.172325 -0.044327 -0.078005 0.102525 -0.153069 0.050575 -0.004031 -0.268423 -0.168331 0.133123 -0.030428 -0.000407 -0.240182 0.076547 -0.219484 0.330238 0.135468 -0.106556 -0.066694 -0.061015 0.024619 -0.198022 0.093312 -0.042582 0.238778 -0.159170 0.153854 0.054726 0.085112 -0.118043 -0.182298 0.102001 -0.202052 -0.054215 -0.088917 -0.115131 0.042039 -0.216938 0.130638 0.182282 -0.217605 
34 -0.010269 0.048870 -0.031587 -0.042827 0.218525 -0.089290 0.227220 -0.062069 -0.023006 -0.276032 -0.177543 0.335001 -0.123961 -0.135625 0.011390 0.048082 0.016936 -0.116242 0.330656 0.152854 0.061254 -0.024603 0.090584 0.152101 -0.087852 0.208410 0.019088 -0.085640 -0.145416 0.149707 0.050059 -0.176064 0.092867 -0.292801 0.188392 0.316631 0.229660 0.183234 0.102053 -0.177293 -0.042966 0.224995 0.196918 -0.080291 0.042575 0.028421 -0.006891 -0.132697 0.107608 0.078574 -0.151897 0.282400 -0.226239 0.221300 -0.206647 -0.282207 0.123451 -0.174636 0.023036 -0.170185 0.078290 -0.035389 -0.266075 -0.144852 -0.147836 0.189794 0.114243 0.043313 0.340781 0.065283 -0.223768 -0.273551 0.010505 0.311658 -0.171271 -0.262507 0.132337 -0.065278 0.099703 -0.074868 0.148581 -0.085723 0.134122 0.046641 0.097869 -0.141107 -0.059506 0.249440 -0.080581 -0.076369 0.116982 -0.179883 0.061166 0.006639 -0.306152 -0.156782 0.137192 -0.021322 0.001888 -0.263314 0.050648 -0.286016 0.359790 0.127216 -0.147803 -0.051752 -0.108818 0.009568 -0.259964 0.109240 -0.070838 0.279473 -0.141888 0.233124 0.080858 0.076277 -0.114621 -0.159570 0.105316 -0.238594 -0.126576 -0.077694 -0.152014 0.066540 -0.263081 0.157235 0.195238 -0.289508 
35 -0.014069 0.027689 -0.033911 -0.030493 0.213123 -0.081458 0.229425 -0.062093 -0.024593 -0.258906 -0.188087 0.327690 -0.141340 -0.127954 0.004338 0.051269 0.014829 -0.106726 0.295535 0.138320 0.056249 -0.026484 0.082232 0.147792 -0.085904 0.189150 0.018576 -0.078204 -0.128377 0.150128 0.062132 -0.169903 0.100458 -0.275364 0.185564 0.302522 0.220159 0.168858 0.107893 -0.184268 -0.042025 0.209004 0.200370 -0.072911 0.040319 0.029324 -0.012189 -0.130491 0.093898 0.083457 -0.159257 0.263792 -0.218713 0.217094 -0.183957 -0.257172 0.121812 -0.154003 0.036072 -0.160380 0.079331 -0.031831 -0.238327 -0.151757 -0.149515 0.174800 0.103341 0.049330 0.324641 0.045516 -0.205525 -0.249935 -0.005221 0.301211 -0.161048 -0.254777 0.124907 -0.063302 0.093188 -0.071777 0.145683 -0.083503 0.120671 0.050405 0.094783 -0.123241 -0.052381 0.213205 -0.076032 -0.076213 0.120954 -0.167860 0.056945 -0.001000 -0.295456 -0.153151 0.151378 -0.026764 0.000773 -0.262094 0.059829 -0.266424 0.345442 0.121803 -0.136280 -0.053996 -0.097376 0.020867 -0.253744 0.100675 -0.068978 0.266266 -0.152785 0.209914 0.071104 0.078323 -0.127991 -0.157889 0.102283 -0.228573 -0.102190 -0.073901 -0.140873 0.052879 -0.255128 0.143628 0.196688 -0.260519 
36 0.037727 -0.001483 -0.045005 -0.024672 0.249391 -0.103654 0.261309 -0.035045 -0.025836 -0.338838 -0.258820 0.401478 -0.139016 -0.143737 -0.006143 0.100937 0.030665 -0.161619 0.376505 0.184707 0.085144 -0.076619 0.079096 0.160490 -0.066502 0.235598 0.026432 -0.107201 -0.159179 0.168917 0.073789 -0.297052 0.060445 -0.375657 0.216936 0.417609 0.249250 0.203729 0.141372 -0.214591 -0.012607 0.238688 0.203875 -0.139846 0.038735 0.063651 -0.051884 -0.155296 0.123864 0.071320 -0.177417 0.331371 -0.256538 0.249529 -0.223442 -0.316417 0.169268 -0.227957 0.067027 -0.174341 0.094672 -0.028022 -0.346019 -0.187480 -0.182894 0.197558 0.102198 0.023023 0.399808 0.109975 -0.278030 -0.327483 -0.007354 0.345243 -0.194296 -0.282447 0.152928 -0.134049 0.084551 -0.113568 0.164418 -0.054088 0.126563 0.064080 0.068543 -0.163714 -0.045336 0.309464 -0.104761 -0.095561 0.147537 -0.187424 0.085309 0.006593 -0.381544 -0.205117 0.171875 -0.024678 0.000553 -0.303507 0.075617 -0.313257 0.398502 0.108356 -0.149609 -0.084280 -0.134729 -0.014474 -0.318292 0.170680 -0.120860 0.360417 -0.153264 0.282379 0.072989 0.081692 -0.142711 -0.141882 0.076045 -0.276769 -0.162453 -0.062811 -0.177204 0.022096 -0.312353 0.185258 0.189125 -0.332555 
37 0.031179 0.001978 -0.056233 -0.021772 0.265895 -0.096087 0.252975 -0.036553 -0.027966 -0.342053 -0.242235 0.374139 -0.149162 -0.157318 -0.017817 0.098916 0.037797 -0.159054 0.377277 0.186467 0.077382 -0.069392 0.083455 0.159896 -0.068700 0.234252 0.029976 -0.101109 -0.153450 0.157298 0.074462 -0.283281 0.053508 -0.366412 0.203375 0.393717 0.243283 0.212330 0.148028 -0.206500 -0.007982 0.248111 0.208668 -0.130574 0.042949 0.047589 -0.043041 -0.171500 0.115034 0.076075 -0.178440 0.331514 -0.262356 0.261814 -0.232816 -0.307924 0.148335 -0.236027 0.064980 -0.173790 0.099891 -0.038341 -0.338002 -0.179780 -0.196217 0.192535 0.093863 0.036232 0.385780 0.113734 -0.288392 -0.314347 -0.011292 0.344586 -0.187720 -0.280695 0.139077 -0.130048 0.090342 -0.107251 0.166980 -0.064611 0.135767 0.064478 0.086284 -0.150575 -0.047425 0.295831 -0.119845 -0.085075 0.126065 -0.189847 0.076802 0.006039 -0.368397 -0.208725 0.150579 -0.033107 0.011056 -0.283907 0.069006 -0.305189 0.398830 0.119736 -0.149868 -0.085314 -0.139562 -0.014536 -0.325793 0.165924 -0.115735 0.354189 -0.157657 0.273778 0.074806 0.089259 -0.147667 -0.125003 0.066611 -0.291746 -0.166275 -0.067049 -0.183660 0.013224 -0.314119 0.162856 0.204967 -0.333528 
38 0.017684 0.015787 -0.064329 -0.010748 0.256048 -0.103791 0.232234 -0.036884 -0.022259 -0.305693 -0.202731 0.337638 -0.164367 -0.136909 -0.007016 0.088488 0.017229 -0.139619 0.333518 0.166322 0.080126 -0.057274 0.076342 0.150232 -0.077036 0.198080 0.027469 -0.094343 -0.127049 0.150179 0.073479 -0.242738 0.072236 -0.317003 0.177427 0.349718 0.214765 0.202093 0.146682 -0.203166 -0.018293 0.228154 0.203891 -0.108556 0.028368 0.030925 -0.025085 -0.167350 0.103719 0.077727 -0.165229 0.294863 -0.240994 0.257095 -0.208159 -0.274217 0.129024 -0.199809 0.061447 -0.153968 0.098188 -0.045449 -0.283471 -0.155543 -0.190475 0.173344 0.081330 0.036357 0.367348 0.081466 -0.243073 -0.269868 -0.013148 0.319552 -0.165093 -0.271094 0.131408 -0.101132 0.096339 -0.093575 0.158427 -0.082585 0.144056 0.063769 0.082001 -0.125464 -0.061090 0.260644 -0.120844 -0.078619 0.127511 -0.185396 0.057094 -0.011472 -0.335571 -0.187279 0.136608 -0.039844 0.008777 -0.273910 0.051709 -0.286837 0.358151 0.113843 -0.145697 -0.084365 -0.124305 -0.000727 -0.300701 0.139718 -0.090433 0.328458 -0.145025 0.235452 0.069738 0.082374 -0.128376 -0.127900 0.059783 -0.275532 -0.126002 -0.069959 -0.171212 0.012244 -0.280473 0.153188 0.198236 -0.298063 
39 0.008225 0.007439 -0.061948 -0.026165 0.232016 -0.087153 0.217946 -0.042987 -0.026490 -0.277906 -0.198107 0.332814 -0.158229 -0.118781 -0.011294 0.081269 0.007687 -0.126087 0.308942 0.157227 0.090977 -0.040017 0.068360 0.152342 -0.090935 0.190021 0.004058 -0.080008 -0.108322 0.146276 0.072536 -0.215622 0.086006 -0.287245 0.170517 0.317583 0.212434 0.179795 0.136650 -0.204226 -0.024132 0.193190 0.202745 -0.084583 0.031562 0.044451 -0.013548 -0.137585 0.103497 0.083369 -0.167705 0.282161 -0.224210 0.237087 -0.185721 -0.252517 0.138770 -0.172846 0.060709 -0.155650 0.086901 -0.042262 -0.271997 -0.157561 -0.172326 0.154362 0.082128 0.038130 0.351182 0.071246 -0.207735 -0.257992 -0.020044 0.312937 -0.159923 -0.258723 0.121736 -0.090434 0.101289 -0.084056 0.151102 -0.092846 0.124546 0.058432 0.078377 -0.126943 -0.054845 0.235757 -0.106231 -0.080616 0.137769 -0.175042 0.041089 -0.016126 -0.307148 -0.175643 0.145287 -0.029740 -0.002485 -0.261677 0.049904 -0.261636 0.344286 0.107696 -0.151672 -0.075566 -0.100970 0.007717 -0.288858 0.107921 -0.081810 0.310430 -0.137826 0.224249 0.071694 0.071729 -0.116459 -0.145365 0.077116 -0.246609 -0.117398 -0.065159 -0.158693 0.024460 -0.279565 0.159476 0.175229 -0.260053 
40 0.001932 0.009732 -0.048861 -0.030422 0.201846 -0.082056 0.197396 -0.046642 -0.017670 -0.237392 -0.167463 0.302470 -0.166188 -0.090993 -0.015852 0.061944 0.002881 -0.098116 0.280516 0.126814 0.079823 -0.022980 0.078606 0.144726 -0.080729 0.170026 0.007017 -0.053345 -0.092506 0.149164 0.067080 -0.172369 0.101992 -0.243713 0.177033 0.297501 0.204647 0.162963 0.126254 -0.181779 -0.037485 0.186593 0.203721 -0.058525 0.032016 0.036287 -0.003874 -0.129495 0.105087 0.084805 -0.178350 0.255484 -0.192293 0.203580 -0.163813 -0.231063 0.140931 -0.136677 0.037676 -0.150658 0.082830 -0.035897 -0.213060 -0.151742 -0.160638 0.155461 0.091838 0.054168 0.327507 0.051672 -0.180764 -0.222871 -0.005944 0.285587 -0.168379 -0.221609 0.112146 -0.064763 0.080264 -0.052684 0.137878 -0.106831 0.115821 0.057817 0.081981 -0.111637 -0.038124 0.214892 -0.104678 -0.086923 0.118512 -0.164041 0.035984 -0.000859 -0.271387 -0.148694 0.143627 -0.031488 0.006200 -0.250231 0.040490 -0.244129 0.320215 0.093589 -0.143901 -0.045737 -0.067906 0.027550 -0.268142 0.104473 -0.072012 0.279112 -0.133237 0.192991 0.071166 0.085284 -0.114524 -0.148220 0.093564 -0.214339 -0.097800 -0.062100 -0.151448 0.042775 -0.241632 0.143114 0.162505 -0.233454 
41 -0.003342 0.004261 -0.055875 -0.031164 0.205764 -0.080369 0.198005 -0.053532 -0.020503 -0.250862 -0.179035 0.308032 -0.164405 -0.103902 -0.015946 0.058664 0.002814 -0.099276 0.280533 0.134767 0.073133 -0.031782 0.079347 0.135393 -0.078341 0.171258 0.010386 -0.065371 -0.093629 0.135764 0.065645 -0.165773 0.096949 -0.247067 0.177722 0.293720 0.205620 0.153425 0.128790 -0.199693 -0.033244 0.180138 0.208842 -0.068655 0.030917 0.034581 -0.017131 -0.124402 0.104965 0.084542 -0.177611 0.251680 -0.188339 0.208597 -0.157337 -0.223482 0.122434 -0.133604 0.038975 -0.146829 0.088545 -0.042216 -0.214308 -0.149872 -0.165511 0.150026 0.087006 0.059827 0.321982 0.052507 -0.172306 -0.223426 -0.007721 0.294498 -0.168731 -0.220769 0.116290 -0.063479 0.091931 -0.065117 0.132590 -0.106694 0.106585 0.057126 0.075347 -0.107467 -0.038881 0.205497 -0.101722 -0.086145 0.115152 -0.153431 0.030187 -0.001909 -0.268496 -0.138907 0.150520 -0.023477 -0.001973 -0.253696 0.052817 -0.256320 0.324185 0.095407 -0.144744 -0.044174 -0.078875 0.035058 -0.270755 0.100388 -0.065083 0.275009 -0.141337 0.188886 0.067132 0.073125 -0.117473 -0.145532 0.091150 -0.215729 -0.104849 -0.050953 -0.151415 0.051070 -0.239745 0.145238 0.169731 -0.235923 
42 -0.002153 0.026344 -0.046458 -0.034067 0.203104 -0.080352 0.210458 -0.057986 -0.008433 -0.246707 -0.188690 0.337953 -0.150438 -0.101509 -0.013066 0.062385 -0.007101 -0.111734 0.299073 0.141061 0.078580 -0.026617 0.080727 0.144669 -0.071513 0.187497 0.004816 -0.069909 -0.116532 0.156704 0.071067 -0.178704 0.120744 -0.255918 0.194561 0.312897 0.207411 0.143185 0.131921 -0.193453 -0.039570 0.196335 0.202434 -0.072702 0.024681 0.035632 -0.020857 -0.116554 0.114709 0.088259 -0.188764 0.259207 -0.170363 0.197335 -0.149183 -0.252415 0.137956 -0.130392 0.036714 -0.133982 0.082758 -0.037500 -0.223220 -0.152314 -0.166403 0.165031 0.098684 0.048615 0.344844 0.038196 -0.174620 -0.237312 -0.013730 0.297462 -0.176213 -0.225317 0.121758 -0.073241 0.084844 -0.068117 0.127635 -0.095631 0.113901 0.059233 0.067674 -0.134296 -0.041881 0.223161 -0.091912 -0.087770 0.126200 -0.153208 0.035809 0.002644 -0.282988 -0.149210 0.144794 -0.020345 0.001325 -0.256855 0.066125 -0.258603 0.330486 0.108995 -0.134892 -0.052697 -0.071157 0.032587 -0.250630 0.117069 -0.085166 0.273051 -0.141553 0.203764 0.064365 0.084012 -0.110949 -0.163034 0.099452 -0.197384 -0.105015 -0.070903 -0.141214 0.057111 -0.234979 0.158083 0.177098 -0.244762 
43 0.051618 0.057881 -0.005100 -0.042818 0.171446 -0.106929 0.248935 -0.089707 0.024764 -0.252371 -0.245808 0.438386 -0.077620 -0.078408 -0.006137 0.070199 0.013846 -0.150546 0.361994 0.137063 0.082163 -0.050616 0.104942 0.158436 -0.056203 0.234851 0.019317 -0.067743 -0.173582 0.200135 0.060918 -0.231356 0.169028 -0.305507 0.275115 0.382039 0.229752 0.130348 0.155474 -0.183997 -0.054456 0.244277 0.200366 -0.112131 0.012192 0.063159 -0.076005 -0.068520 0.166653 0.104529 -0.237829 0.293142 -0.106939 0.181812 -0.139350 -0.319296 0.201792 -0.123448 0.020146 -0.137669 0.046064 -0.036682 -0.304956 -0.178115 -0.157947 0.216439 0.117622 0.044059 0.437319 0.039485 -0.164989 -0.265271 -0.004743 0.331027 -0.216779 -0.200793 0.164432 -0.137405 0.079318 -0.098982 0.094742 -0.055136 0.093811 0.061486 0.012674 -0.206682 -0.043141 0.272904 -0.074495 -0.080894 0.168276 -0.155070 0.065312 0.017627 -0.347234 -0.160419 0.149942 -0.010310 -0.012418 -0.284272 0.094760 -0.279618 0.374926 0.124360 -0.099263 -0.019421 -0.034386 0.063373 -0.199811 0.200593 -0.116176 0.276533 -0.116736 0.224074 0.076578 0.111295 -0.100321 -0.219264 0.130953 -0.159844 -0.149594 -0.112836 -0.140723 0.083865 -0.221580 0.220210 0.168361 -0.277640 
44 0.117818 0.118075 0.014391 -0.056880 0.158487 -0.131338 0.304228 -0.141056 0.058841 -0.338436 -0.352403 0.601663 -0.027897 -0.075069 -0.020827 0.083015 0.036617 -0.234587 0.482545 0.151179 0.120870 -0.064118 0.154995 0.191220 -0.044108 0.334529 0.015821 -0.064762 -0.247163 0.257217 0.053221 -0.362455 0.196706 -0.411459 0.393851 0.527696 0.314899 0.094287 0.170657 -0.199852 -0.072081 0.303817 0.193439 -0.209463 0.008291 0.078575 -0.155924 -0.029398 0.282715 0.097667 -0.307656 0.331388 -0.066529 0.207868 -0.155442 -0.440159 0.280211 -0.191098 0.042936 -0.172483 0.027767 -0.038844 -0.468785 -0.256066 -0.186528 0.268493 0.121298 0.007705 0.581325 0.057019 -0.188692 -0.316811 0.009006 0.407168 -0.315660 -0.234135 0.227626 -0.227137 0.074982 -0.175227 0.063594 -0.017044 0.066551 0.094741 -0.047081 -0.323326 -0.048833 0.415117 -0.073643 -0.109438 0.233500 -0.219626 0.165208 0.023844 -0.439530 -0.189489 0.212812 -0.013036 -0.012815 -0.369080 0.116651 -0.352726 0.443364 0.195438 -0.083889 -0.004823 -0.028124 0.067101 -0.162553 0.299984 -0.163684 0.305297 -0.133168 0.283917 0.128554 0.124792 -0.052202 -0.254183 0.140943 -0.144527 -0.216431 -0.135172 -0.146138 0.124319 -0.232402 0.324397 0.185043 -0.375080 
45 0.089783 0.111506 0.004035 -0.048687 0.165176 -0.112386 0.301014 -0.137923 0.044998 -0.301754 -0.300816 0.534627 -0.055779 -0.089467 -0.007858 0.078636 0.012620 -0.204048 0.429866 0.160031 0.110459 -0.053623 0.142375 0.179544 -0.065195 0.292935 0.002509 -0.055360 -0.211247 0.249870 0.057487 -0.311574 0.187842 -0.371934 0.350465 0.450478 0.286521 0.102712 0.148634 -0.185854 -0.070799 0.278403 0.199364 -0.183410 0.021870 0.069475 -0.116527 -0.053101 0.236109 0.101833 -0.274345 0.323300 -0.096772 0.224916 -0.159203 -0.408748 0.240470 -0.158429 0.029539 -0.166736 0.028506 -0.043204 -0.406533 -0.222831 -0.184376 0.242203 0.110043 0.014441 0.530220 0.040350 -0.187542 -0.293395 -0.018211 0.382362 -0.279039 -0.226765 0.203770 -0.197620 0.072601 -0.141389 0.082796 -0.034277 0.082029 0.095943 -0.018922 -0.274519 -0.046540 0.362511 -0.078200 -0.109964 0.198355 -0.207910 0.140745 0.005583 -0.398262 -0.184148 0.198515 -0.008582 -0.011626 -0.333184 0.102961 -0.330080 0.405785 0.181692 -0.094362 -0.022513 -0.014178 0.054378 -0.169795 0.245112 -0.138203 0.293729 -0.138654 0.258780 0.108167 0.118381 -0.059124 -0.235169 0.120076 -0.147203 -0.192603 -0.130361 -0.134139 0.112398 -0.228682 0.291281 0.190284 -0.334125 
46 0.053997 0.074085 -0.004727 -0.044816 0.160913 -0.093694 0.247996 -0.103824 0.035076 -0.257576 -0.244543 0.446285 -0.075044 -0.078062 0.001820 0.069767 0.010382 -0.162458 0.366290 0.123768 0.093501 -0.046861 0.118130 0.153143 -0.057209 0.239056 0.014732 -0.045677 -0.173497 0.207291 0.058511 -0.236402 0.168962 -0.303274 0.283524 0.378797 0.238138 0.112999 0.149275 -0.181900 -0.062344 0.239472 0.196651 -0.119622 0.015798 0.063282 -0.085079 -0.065444 0.182110 0.109358 -0.239151 0.287443 -0.100924 0.187678 -0.133958 -0.330816 0.193777 -0.123519 0.020101 -0.138664 0.044669 -0.032499 -0.319892 -0.186476 -0.162023 0.213935 0.101447 0.041691 0.440676 0.034456 -0.158418 -0.253475 -0.007878 0.336813 -0.225934 -0.202698 0.165527 -0.145974 0.080825 -0.111739 0.092368 -0.048945 0.087333 0.076805 0.000888 -0.216778 -0.046057 0.294918 -0.081370 -0.090842 0.164119 -0.168055 0.078176 0.000885 -0.339601 -0.160762 0.158108 -0.019972 -0.007121 -0.290359 0.083410 -0.285527 0.365371 0.137504 -0.092642 -0.017847 -0.017906 0.058217 -0.185443 0.196501 -0.113481 0.268075 -0.115625 0.216005 0.091068 0.103268 -0.071967 -0.207078 0.114499 -0.148632 -0.157730 -0.115014 -0.129936 0.085785 -0.207610 0.234355 0.176178 -0.283369 
47 0.022708 0.063626 -0.018361 -0.026585 0.168031 -0.093670 0.235313 -0.078685 0.012873 -0.235168 -0.214294 0.391829 -0.098130 -0.075100 -0.004274 0.062259 0.013867 -0.122314 0.330936 0.120511 0.084232 -0.033267 0.113113 0.145257 -0.058458 0.228644 0.014503 -0.050372 -0.159199 0.192551 0.054994 -0.198165 0.169771 -0.282519 0.255533 0.356040 0.216018 0.120525 0.139176 -0.172911 -0.060515 0.220449 0.201286 -0.100976 0.017342 0.037782 -0.059927 -0.083654 0.141918 0.092626 -0.222257 0.269838 -0.117340 0.184074 -0.126484 -0.300231 0.184484 -0.122101 0.008713 -0.129821 0.051729 -0.038687 -0.263594 -0.185735 -0.156943 0.194504 0.097646 0.039396 0.401726 0.026915 -0.156959 -0.239081 -0.011228 0.312941 -0.210449 -0.200955 0.145788 -0.098098 0.059671 -0.096963 0.099228 -0.058047 0.111101 0.065168 0.033014 -0.189625 -0.039716 0.262471 -0.081471 -0.083033 0.139572 -0.158022 0.057097 0.006720 -0.320104 -0.165239 0.144340 -0.030511 -0.006027 -0.266260 0.082353 -0.262791 0.356504 0.128419 -0.101677 -0.027096 -0.037918 0.054501 -0.190103 0.173663 -0.096013 0.258149 -0.129154 0.201795 0.072638 0.109625 -0.092730 -0.204911 0.129875 -0.157604 -0.129370 -0.101555 -0.131406 0.085485 -0.208339 0.193619 0.165963 -0.262327 
48 0.012033 0.057481 -0.024564 -0.010811 0.158025 -0.095862 0.215493 -0.069145 0.017151 -0.220560 -0.201154 0.353575 -0.098466 -0.070562 -0.010664 0.043523 0.019196 -0.097016 0.303558 0.100550 0.070622 -0.035959 0.105883 0.136494 -0.062772 0.209388 0.020780 -0.045979 -0.139803 0.182264 0.061487 -0.168913 0.161628 -0.236124 0.233658 0.320967 0.206556 0.112443 0.132089 -0.179267 -0.065324 0.195731 0.196797 -0.072636 0.006367 0.032275 -0.060536 -0.080970 0.117401 0.085616 -0.201758 0.249349 -0.114899 0.162098 -0.109460 -0.272169 0.181108 -0.110156 -0.003897 -0.123859 0.062020 -0.037433 -0.215344 -0.175407 -0.153860 0.190193 0.096645 0.046005 0.370692 0.019138 -0.142974 -0.208048 -0.004497 0.284091 -0.196797 -0.199895 0.143153 -0.076383 0.060985 -0.079890 0.076802 -0.065768 0.124596 0.068098 0.051114 -0.168176 -0.042425 0.234826 -0.080246 -0.079134 0.129110 -0.150524 0.043387 0.018792 -0.301456 -0.156331 0.139484 -0.044437 -0.004894 -0.248902 0.067903 -0.244753 0.337265 0.106958 -0.110787 -0.015864 -0.038205 0.063235 -0.177488 0.152422 -0.077850 0.227380 -0.138978 0.180853 0.064996 0.090827 -0.085177 -0.192931 0.136051 -0.150036 -0.100689 -0.094815 -0.129653 0.086691 -0.181099 0.169495 0.162013 -0.235062 
49 0.006323 0.049598 -0.033519 -0.000711 0.147863 -0.091290 0.198205 -0.066966 0.012847 -0.199185 -0.192863 0.328582 -0.101595 -0.052565 -0.013577 0.039861 0.022403 -0.100462 0.285069 0.085396 0.070344 -0.024473 0.108505 0.131314 -0.060355 0.201399 0.022919 -0.036561 -0.131624 0.172887 0.058690 -0.136008 0.163101 -0.220164 0.218232 0.316320 0.197738 0.101109 0.133106 -0.180128 -0.075616 0.185443 0.195637 -0.062653 0.013062 0.020891 -0.061458 -0.074082 0.115494 0.085730 -0.212093 0.243127 -0.108896 0.160597 -0.103131 -0.254082 0.165001 -0.099256 -0.008478 -0.121987 0.076867 -0.031953 -0.192501 -0.169706 -0.150996 0.183286 0.102920 0.061272 0.360652 0.012968 -0.123491 -0.186409 -0.009371 0.278330 -0.191080 -0.182674 0.134322 -0.064790 0.054586 -0.072520 0.072571 -0.065909 0.113181 0.069337 0.047146 -0.145914 -0.031640 0.209916 -0.084470 -0.074341 0.119811 -0.154251 0.036711 0.014121 -0.277000 -0.142807 0.143655 -0.036385 0.001800 -0.240789 0.063051 -0.243713 0.317757 0.104713 -0.102347 -0.015965 -0.044916 0.064280 -0.175253 0.142485 -0.073607 0.217732 -0.141073 0.151368 0.061372 0.095570 -0.085493 -0.191601 0.135825 -0.142979 -0.091921 -0.084649 -0.129150 0.092218 -0.172105 0.154962 0.163254 -0.220504 
50 -0.007692 0.055844 -0.032355 -0.002925 0.156504 -0.094041 0.206199 -0.059567 -0.000123 -0.197848 -0.192730 0.326910 -0.115651 -0.067558 -0.012350 0.029317 0.013561 -0.089690 0.273804 0.099678 0.069787 -0.024548 0.099954 0.142067 -0.054539 0.202416 0.014248 -0.040424 -0.132151 0.173930 0.054861 -0.134800 0.161139 -0.221751 0.224121 0.307139 0.186916 0.110306 0.120519 -0.174698 -0.073776 0.199457 0.200636 -0.059997 0.005070 0.015589 -0.047413 -0.081803 0.114165 0.080036 -0.212783 0.241825 -0.121553 0.158323 -0.098934 -0.250652 0.163178 -0.096258 0.000178 -0.119615 0.072413 -0.032629 -0.177978 -0.167154 -0.144941 0.179318 0.095488 0.052955 0.358654 0.001066 -0.119471 -0.196184 -0.017563 0.282833 -0.178861 -0.192432 0.126265 -0.053783 0.051084 -0.061724 0.081729 -0.066282 0.121562 0.064863 0.054779 -0.146623 -0.021552 0.214060 -0.080567 -0.068656 0.119465 -0.148099 0.047967 0.017999 -0.278481 -0.141746 0.141670 -0.036546 -0.006563 -0.242374 0.077534 -0.244882 0.328719 0.114042 -0.109110 -0.016041 -0.048319 0.064176 -0.184411 0.128436 -0.067173 0.216468 -0.146815 0.156126 0.051269 0.108168 -0.103279 -0.187875 0.136492 -0.145182 -0.086729 -0.087558 -0.133337 0.079170 -0.195323 0.162502 0.171535 -0.219251 
51 -0.012801 0.055357 -0.025886 -0.013872 0.151031 -0.091562 0.201478 -0.061153 0.002592 -0.205578 -0.194066 0.339083 -0.118381 -0.066921 -0.010932 0.037358 0.006117 -0.086261 0.284651 0.099749 0.073804 -0.027653 0.098676 0.134312 -0.060018 0.197975 0.018098 -0.055003 -0.140129 0.178397 0.062690 -0.148051 0.171387 -0.228284 0.219393 0.309645 0.185906 0.100681 0.122564 -0.172554 -0.074889 0.192777 0.211120 -0.061971 0.008764 0.032192 -0.053418 -0.091511 0.115228 0.091083 -0.216684 0.247379 -0.129801 0.165875 -0.095769 -0.248176 0.175974 -0.097422 0.012641 -0.118417 0.081306 -0.028433 -0.175093 -0.165155 -0.141109 0.186024 0.098401 0.053663 0.350833 0.007950 -0.124462 -0.206096 -0.015371 0.281368 -0.177138 -0.194542 0.125613 -0.053836 0.050301 -0.067172 0.084052 -0.071283 0.118778 0.058523 0.055033 -0.145008 -0.022774 0.215410 -0.068459 -0.075618 0.120589 -0.146968 0.039663 0.011917 -0.279035 -0.142702 0.128502 -0.034518 0.000165 -0.249921 0.084178 -0.239776 0.333076 0.110331 -0.102185 -0.018950 -0.054295 0.060390 -0.189191 0.133662 -0.070820 0.218511 -0.136926 0.163769 0.049476 0.108197 -0.100077 -0.193010 0.134858 -0.153087 -0.083084 -0.097428 -0.130492 0.085964 -0.205326 0.164630 0.174983 -0.216066 
52 -0.009450 0.037912 -0.017956 -0.015849 0.141681 -0.098008 0.202015 -0.045485 -0.008351 -0.200106 -0.182356 0.334017 -0.111346 -0.071119 -0.022357 0.029650 0.000563 -0.098166 0.278371 0.093144 0.051297 -0.028101 0.095436 0.136429 -0.055537 0.210034 0.017159 -0.063737 -0.131567 0.158704 0.051557 -0.137519 0.151603 -0.217408 0.218475 0.313192 0.184685 0.098816 0.114342 -0.191117 -0.063622 0.184411 0.206123 -0.059488 0.007604 0.030630 -0.060115 -0.075526 0.114898 0.088817 -0.217296 0.237208 -0.127587 0.160740 -0.096539 -0.224332 0.173714 -0.091044 0.008932 -0.131718 0.091137 -0.036272 -0.168174 -0.149495 -0.129472 0.195493 0.117556 0.058074 0.350315 0.002544 -0.136215 -0.188262 -0.001106 0.256374 -0.179251 -0.197924 0.131635 -0.049984 0.041023 -0.074730 0.073664 -0.077319 0.103647 0.066036 0.045028 -0.120245 -0.015184 0.198726 -0.072764 -0.080871 0.121569 -0.151027 0.039464 0.019698 -0.271519 -0.122948 0.131309 -0.034333 -0.012382 -0.257921 0.081163 -0.244908 0.322809 0.115112 -0.104404 -0.011207 -0.072228 0.061888 -0.195682 0.131171 -0.059982 0.201789 -0.142097 0.146329 0.044109 0.104148 -0.106662 -0.218294 0.137440 -0.147679 -0.069862 -0.093932 -0.115492 0.090385 -0.205644 0.160419 0.181290 -0.207924 
53 -0.016095 0.042663 -0.007663 -0.027058 0.154053 -0.102242 0.208015 -0.046303 -0.015862 -0.201979 -0.187256 0.337646 -0.120313 -0.075013 -0.007733 0.038429 -0.021263 -0.094609 0.280368 0.116927 0.046895 -0.025166 0.087087 0.153375 -0.075265 0.218556 0.006877 -0.087311 -0.155543 0.178536 0.047772 -0.146893 0.164315 -0.258427 0.220700 0.305570 0.191256 0.103786 0.109267 -0.186662 -0.052472 0.197451 0.212832 -0.069595 0.012145 0.048280 -0.049925 -0.080680 0.108908 0.085522 -0.220763 0.252295 -0.136082 0.165297 -0.101891 -0.240292 0.181945 -0.102014 0.019522 -0.128826 0.084484 -0.032640 -0.175514 -0.155966 -0.126044 0.186349 0.126604 0.051770 0.354493 -0.004909 -0.144073 -0.222142 -0.021671 0.256247 -0.169283 -0.223847 0.134468 -0.066269 0.044467 -0.069671 0.093665 -0.084971 0.115599 0.065638 0.047098 -0.137331 -0.018708 0.191529 -0.060960 -0.067790 0.121454 -0.148283 0.039410 0.013169 -0.269983 -0.124660 0.128860 -0.023157 -0.001235 -0.272979 0.102533 -0.246537 0.334856 0.130359 -0.116632 -0.030524 -0.080355 0.046427 -0.203383 0.128985 -0.050527 0.222520 -0.147113 0.180849 0.027655 0.119490 -0.107262 -0.225797 0.148485 -0.141125 -0.067346 -0.108361 -0.123502 0.079583 -0.227845 0.169762 0.182292 -0.216667 
54 -0.015833 0.060215 -0.018279 -0.027901 0.152956 -0.105746 0.203694 -0.039666 0.004778 -0.202704 -0.186438 0.338120 -0.121754 -0.063125 -0.016421 0.044492 -0.008656 -0.101902 0.306072 0.113573 0.060812 -0.034384 0.094808 0.155568 -0.068430 0.229800 0.002977 -0.075823 -0.150060 0.183504 0.059305 -0.147805 0.165607 -0.250591 0.223610 0.312750 0.196934 0.103036 0.126164 -0.181291 -0.062913 0.199638 0.213274 -0.073969 0.008450 0.049826 -0.054332 -0.089999 0.112792 0.097097 -0.229744 0.261535 -0.134623 0.178030 -0.101375 -0.246957 0.198040 -0.117250 0.015514 -0.132591 0.089253 -0.039857 -0.189213 -0.155312 -0.140821 0.197335 0.117941 0.055065 0.370376 0.002280 -0.148833 -0.218046 -0.022732 0.271704 -0.176741 -0.217056 0.139650 -0.074304 0.040366 -0.080654 0.089274 -0.086272 0.132578 0.070768 0.052395 -0.145633 -0.019089 0.209811 -0.071230 -0.070021 0.118849 -0.147302 0.041694 0.017292 -0.292159 -0.133373 0.117278 -0.039138 0.007114 -0.264427 0.081213 -0.250052 0.348198 0.130467 -0.121314 -0.023023 -0.079143 0.048851 -0.205880 0.141861 -0.057428 0.235492 -0.154763 0.188409 0.032487 0.115425 -0.099054 -0.221597 0.141442 -0.144723 -0.083064 -0.118000 -0.126511 0.088821 -0.224997 0.171603 0.173891 -0.231741 
55 -0.015042 0.061829 -0.011513 -0.017418 0.158587 -0.111092 0.208663 -0.044291 0.009110 -0.199666 -0.203299 0.347697 -0.125396 -0.061569 -0.023117 0.047436 -0.003863 -0.094750 0.295539 0.108912 0.063836 -0.029942 0.098483 0.147776 -0.067659 0.222542 0.005146 -0.074703 -0.147358 0.174867 0.060615 -0.154600 0.175751 -0.231764 0.219830 0.324119 0.190500 0.105776 0.127876 -0.182692 -0.065705 0.204202 0.213685 -0.072708 0.013854 0.041711 -0.057560 -0.090060 0.103255 0.088206 -0.227402 0.255406 -0.129025 0.180183 -0.107402 -0.243870 0.192047 -0.113589 0.016456 -0.136453 0.090948 -0.032425 -0.182004 -0.161105 -0.146870 0.190269 0.116845 0.057408 0.365060 0.011861 -0.151948 -0.205690 -0.018234 0.269776 -0.168881 -0.220190 0.138289 -0.068266 0.053751 -0.070059 0.089054 -0.081323 0.124164 0.069251 0.055476 -0.150834 -0.020585 0.218793 -0.070009 -0.075779 0.113395 -0.149241 0.048009 0.012383 -0.287052 -0.137971 0.134539 -0.033221 0.004196 -0.270351 0.082353 -0.254190 0.335257 0.116371 -0.119605 -0.018112 -0.068455 0.060613 -0.196537 0.132560 -0.056087 0.226269 -0.152960 0.186886 0.031013 0.122349 -0.103854 -0.223871 0.139726 -0.146603 -0.088116 -0.115925 -0.116658 0.080470 -0.225858 0.173300 0.184360 -0.215040 
56 -0.015769 0.046607 -0.023325 -0.021896 0.148983 -0.102840 0.203839 -0.045012 0.004586 -0.199598 -0.206262 0.352443 -0.112530 -0.065903 -0.014384 0.048307 0.000196 -0.098224 0.282998 0.097437 0.055445 -0.034680 0.093963 0.149779 -0.065507 0.203762 0.013325 -0.077413 -0.128100 0.165028 0.070443 -0.146699 0.164103 -0.231424 0.221212 0.317590 0.185649 0.113524 0.113662 -0.201411 -0.060067 0.192059 0.204016 -0.064614 0.004630 0.032625 -0.056961 -0.069847 0.103799 0.073343 -0.213868 0.238261 -0.127327 0.169378 -0.105435 -0.233354 0.174471 -0.106484 0.017843 -0.135513 0.082685 -0.033784 -0.186768 -0.160576 -0.132898 0.184076 0.116463 0.049651 0.353104 0.009850 -0.138032 -0.196050 -0.015226 0.259265 -0.162562 -0.212448 0.130369 -0.069281 0.059213 -0.070722 0.087014 -0.080267 0.109183 0.054850 0.043245 -0.139526 -0.010725 0.203401 -0.072385 -0.066871 0.123623 -0.139946 0.049430 0.003482 -0.267922 -0.131277 0.154400 -0.031540 -0.005291 -0.275840 0.092241 -0.245356 0.337319 0.110538 -0.119863 -0.012559 -0.063874 0.063019 -0.205096 0.130013 -0.054807 0.223116 -0.149122 0.169138 0.027057 0.111099 -0.102787 -0.223373 0.131733 -0.141275 -0.072656 -0.104050 -0.114765 0.075805 -0.226624 0.169321 0.180515 -0.201447 
57 -0.026093 0.061136 -0.019767 -0.032995 0.150216 -0.098291 0.197889 -0.029495 0.008225 -0.202593 -0.200421 0.347799 -0.129131 -0.069534 -0.010056 0.037266 0.005034 -0.099295 0.292966 0.112501 0.063824 -0.031365 0.087426 0.154500 -0.059012 0.200414 0.008655 -0.078263 -0.145363 0.166429 0.073532 -0.140959 0.168517 -0.234556 0.215876 0.318295 0.187429 0.121793 0.128161 -0.200356 -0.073865 0.190397 0.214179 -0.075143 -0.000665 0.030947 -0.045825 -0.094474 0.105252 0.079920 -0.213553 0.254320 -0.142802 0.171843 -0.104893 -0.239306 0.176199 -0.114085 0.002936 -0.135646 0.085872 -0.034846 -0.194431 -0.162117 -0.136270 0.185642 0.105528 0.056196 0.351868 0.016575 -0.153031 -0.198563 -0.021123 0.265117 -0.174920 -0.228383 0.123825 -0.065665 0.058845 -0.061834 0.098114 -0.087325 0.123634 0.049113 0.056489 -0.149366 -0.024526 0.208272 -0.080504 -0.057802 0.107283 -0.149593 0.040889 -0.002084 -0.277590 -0.130827 0.151924 -0.041410 -0.011443 -0.261545 0.091760 -0.256340 0.342691 0.124493 -0.119820 -0.007487 -0.056403 0.046127 -0.197446 0.130129 -0.051669 0.224944 -0.141257 0.173023 0.028741 0.112143 -0.087884 -0.214388 0.128427 -0.147419 -0.079784 -0.112625 -0.121304 0.084340 -0.231331 0.180997 0.179762 -0.215224 
58 -0.020213 0.055186 -0.022904 -0.025210 0.162614 -0.096829 0.205687 -0.040409 0.000281 -0.199440 -0.187419 0.333432 -0.129279 -0.067074 -0.015690 0.044127 -0.001822 -0.095008 0.284935 0.114428 0.064316 -0.017320 0.082155 0.149217 -0.064169 0.200227 0.015044 -0.080335 -0.143989 0.166033 0.065614 -0.138838 0.171780 -0.226431 0.213300 0.316482 0.185888 0.126052 0.120119 -0.195321 -0.068108 0.193645 0.218023 -0.064709 0.005987 0.028475 -0.043927 -0.097986 0.096940 0.081570 -0.208187 0.251599 -0.135618 0.166296 -0.099515 -0.237555 0.162674 -0.103723 0.010822 -0.130716 0.081768 -0.031450 -0.175454 -0.158079 -0.140674 0.184400 0.113469 0.049938 0.339067 -0.001174 -0.144382 -0.200072 -0.019030 0.268226 -0.166722 -0.220703 0.121654 -0.057811 0.055201 -0.068039 0.091427 -0.093889 0.124744 0.052564 0.055748 -0.139424 -0.026930 0.197822 -0.070211 -0.056453 0.110746 -0.146730 0.043167 0.007521 -0.267465 -0.131406 0.152091 -0.036210 -0.003918 -0.260263 0.100202 -0.251792 0.336761 0.119251 -0.125492 -0.012700 -0.057823 0.047191 -0.201965 0.125907 -0.057274 0.229602 -0.142479 0.168931 0.026359 0.112413 -0.097746 -0.217618 0.136596 -0.156284 -0.082999 -0.106676 -0.127930 0.074344 -0.227363 0.171492 0.182110 -0.209057 
59 -0.006764 0.038956 -0.012356 -0.032684 0.156766 -0.091806 0.196316 -0.052019 0.000203 -0.192877 -0.200064 0.343027 -0.117533 -0.063066 -0.016784 0.043798 -0.004869 -0.096267 0.267243 0.109030 0.046961 -0.016487 0.092893 0.145649 -0.063683 0.194950 0.014709 -0.072096 -0.137789 0.166775 0.062854 -0.131901 0.177686 -0.224338 0.209247 0.315495 0.187752 0.105104 0.121104 -0.193766 -0.068020 0.185843 0.205637 -0.059877 0.019953 0.041235 -0.047213 -0.085896 0.106583 0.077230 -0.214433 0.238543 -0.118771 0.163426 -0.099227 -0.235752 0.157843 -0.098223 0.017278 -0.126513 0.079026 -0.036074 -0.163395 -0.161896 -0.135439 0.180623 0.119132 0.064202 0.335468 0.003903 -0.130035 -0.187956 -0.026582 0.255894 -0.157410 -0.206626 0.136362 -0.064195 0.059437 -0.064495 0.083694 -0.082407 0.114973 0.054604 0.043355 -0.137962 -0.014718 0.189036 -0.065345 -0.062270 0.118610 -0.139107 0.049655 0.005825 -0.264007 -0.122244 0.152539 -0.022128 -0.003343 -0.264313 0.100873 -0.250153 0.329942 0.107542 -0.116733 -0.015575 -0.063839 0.058835 -0.204236 0.116861 -0.054499 0.214944 -0.151896 0.168694 0.029022 0.105034 -0.096879 -0.221609 0.131001 -0.140129 -0.081916 -0.091049 -0.120576 0.080364 -0.226335 0.159837 0.183627 -0.192840 
60 -0.004893 0.051999 -0.020116 -0.029734 0.154138 -0.106006 0.202244 -0.048090 -0.002157 -0.195957 -0.197008 0.332141 -0.118710 -0.052865 -0.011155 0.047414 0.012670 -0.086879 0.271185 0.105737 0.076918 -0.023159 0.087776 0.141884 -0.061718 0.199195 0.023674 -0.060909 -0.124073 0.176800 0.059003 -0.128981 0.168334 -0.205169 0.200310 0.322569 0.191619 0.114624 0.131816 -0.193016 -0.071782 0.194667 0.202187 -0.072412 0.024959 0.034539 -0.037832 -0.101065 0.098863 0.083461 -0.194489 0.253625 -0.140488 0.167153 -0.092963 -0.238176 0.156537 -0.115513 0.007504 -0.128725 0.080096 -0.026373 -0.173195 -0.163207 -0.139061 0.186051 0.113370 0.056758 0.336763 0.007477 -0.140027 -0.180788 -0.019704 0.266983 -0.151602 -0.207509 0.139158 -0.060671 0.060337 -0.066301 0.084043 -0.074919 0.130183 0.066630 0.053122 -0.146352 -0.020834 0.197692 -0.081834 -0.064059 0.103439 -0.143660 0.050249 0.016602 -0.268616 -0.141200 0.136195 -0.035650 -0.014503 -0.254446 0.076242 -0.245574 0.323972 0.098544 -0.134263 -0.016591 -0.059944 0.046333 -0.206918 0.117838 -0.049946 0.230431 -0.144482 0.169937 0.025830 0.101925 -0.101835 -0.217507 0.127090 -0.141721 -0.078966 -0.093106 -0.124054 0.074715 -0.225380 0.164105 0.174633 -0.198137 
61 -0.018590 0.048755 -0.007600 -0.038323 0.154400 -0.111105 0.192984 -0.050222 -0.010230 -0.201882 -0.204238 0.335827 -0.117472 -0.058717 -0.010098 0.056828 0.004038 -0.088589 0.275884 0.103981 0.076080 -0.027311 0.083408 0.137234 -0.054760 0.190576 0.019762 -0.063493 -0.139203 0.168587 0.056069 -0.136555 0.178032 -0.223044 0.207654 0.320460 0.194869 0.116001 0.122919 -0.197519 -0.090778 0.198689 0.209697 -0.074460 0.019299 0.044624 -0.043668 -0.085384 0.108929 0.075018 -0.190888 0.257944 -0.123717 0.166243 -0.098219 -0.237665 0.166356 -0.115115 0.003725 -0.126444 0.085464 -0.035998 -0.170590 -0.165215 -0.139811 0.195754 0.113326 0.058160 0.336095 0.006582 -0.131712 -0.194505 -0.021029 0.264746 -0.149931 -0.219181 0.149291 -0.077775 0.063860 -0.061045 0.095666 -0.080128 0.131447 0.070707 0.061104 -0.148531 -0.017196 0.199870 -0.071712 -0.072338 0.114024 -0.148705 0.040726 0.013845 -0.272233 -0.138148 0.145247 -0.025435 -0.020664 -0.266244 0.083695 -0.252589 0.329313 0.102948 -0.138588 -0.016333 -0.063671 0.049291 -0.205250 0.117738 -0.053454 0.232375 -0.138629 0.180953 0.016556 0.108091 -0.108745 -0.229788 0.137720 -0.141620 -0.086131 -0.103330 -0.117894 0.088824 -0.242463 0.171081 0.179680 -0.192206 
62 -0.000026 0.054621 -0.013928 -0.044253 0.156343 -0.107269 0.204972 -0.055711 -0.012347 -0.198988 -0.198555 0.332169 -0.110647 -0.067251 -0.001475 0.059566 -0.001714 -0.090558 0.271153 0.115149 0.073110 -0.027130 0.085374 0.145372 -0.048424 0.188732 0.021916 -0.058559 -0.141203 0.167034 0.056184 -0.151713 0.173138 -0.223839 0.208021 0.330224 0.199471 0.116116 0.124850 -0.192851 -0.087072 0.201813 0.208424 -0.074013 0.018495 0.037239 -0.038471 -0.081996 0.108046 0.069231 -0.193352 0.263254 -0.126341 0.166693 -0.094149 -0.244207 0.160276 -0.111344 0.008322 -0.122003 0.075455 -0.037447 -0.170249 -0.163989 -0.147619 0.196750 0.108844 0.054744 0.339594 0.004145 -0.141279 -0.199507 -0.029833 0.268035 -0.152702 -0.213013 0.150742 -0.086735 0.059133 -0.068498 0.103708 -0.073350 0.123580 0.068301 0.055231 -0.142489 -0.012137 0.202930 -0.069133 -0.071527 0.109776 -0.150932 0.048729 0.014186 -0.267608 -0.144490 0.151154 -0.022943 -0.024898 -0.257362 0.087923 -0.252281 0.324946 0.107479 -0.137843 -0.014309 -0.065757 0.061911 -0.211613 0.124849 -0.045955 0.231175 -0.142227 0.175393 0.019052 0.112137 -0.104871 -0.217475 0.125735 -0.140792 -0.090463 -0.092256 -0.122753 0.085485 -0.237270 0.181040 0.175290 -0.193891 
63 -0.004435 0.050051 -0.010438 -0.051788 0.160069 -0.109024 0.196835 -0.045603 -0.009446 -0.202440 -0.209970 0.343923 -0.114797 -0.066344 -0.005621 0.060057 0.000507 -0.089996 0.272969 0.114513 0.073925 -0.026266 0.083033 0.147997 -0.051357 0.187589 0.026395 -0.068349 -0.136070 0.175122 0.060746 -0.156504 0.181753 -0.233026 0.210068 0.325592 0.200970 0.115101 0.122918 -0.194906 -0.089489 0.199207 0.204630 -0.068037 0.021667 0.050665 -0.033070 -0.084489 0.113006 0.072701 -0.192567 0.261555 -0.128494 0.170663 -0.095730 -0.244711 0.157682 -0.119446 0.000602 -0.130506 0.082560 -0.030388 -0.177560 -0.161811 -0.139840 0.189972 0.114345 0.056647 0.335616 0.004606 -0.141893 -0.207566 -0.037351 0.269573 -0.158727 -0.224017 0.149913 -0.089168 0.067791 -0.070339 0.107412 -0.070155 0.117768 0.065435 0.053654 -0.153017 -0.016239 0.204385 -0.070530 -0.066175 0.114652 -0.146162 0.051673 0.008222 -0.260089 -0.141675 0.144277 -0.024688 -0.025679 -0.271004 0.091323 -0.256350 0.333191 0.114830 -0.137235 -0.012708 -0.059036 0.057227 -0.213662 0.119959 -0.043632 0.235588 -0.142230 0.178939 0.026553 0.119070 -0.093615 -0.221446 0.124080 -0.137696 -0.085393 -0.095554 -0.124378 0.083833 -0.253836 0.180598 0.175456 -0.197293 
64 -0.000193 0.050191 -0.013194 -0.059217 0.148403 -0.109589 0.194154 -0.032882 -0.008874 -0.216202 -0.217777 0.365289 -0.112054 -0.068748 -0.006667 0.066624 0.004890 -0.109172 0.291384 0.122284 0.082336 -0.025987 0.076190 0.147140 -0.039952 0.202398 0.033334 -0.074072 -0.149392 0.178559 0.056607 -0.163043 0.176096 -0.238592 0.215662 0.352893 0.201465 0.120014 0.129595 -0.208144 -0.083212 0.210697 0.200271 -0.086838 0.013343 0.056472 -0.054562 -0.077836 0.127436 0.073175 -0.191818 0.268997 -0.127421 0.169921 -0.103447 -0.247438 0.180177 -0.126655 0.006558 -0.130770 0.081398 -0.034727 -0.199262 -0.170746 -0.138200 0.198597 0.124177 0.055005 0.358327 0.019407 -0.146782 -0.211222 -0.035734 0.280833 -0.161493 -0.223704 0.156017 -0.103183 0.059976 -0.079058 0.099373 -0.066828 0.116167 0.068595 0.047350 -0.168580 -0.014090 0.209434 -0.068086 -0.062190 0.121753 -0.149174 0.054976 0.006856 -0.270896 -0.145560 0.148058 -0.030729 -0.025213 -0.285849 0.094644 -0.258251 0.348310 0.111068 -0.136077 -0.010181 -0.077924 0.056872 -0.214928 0.127004 -0.056150 0.235945 -0.149422 0.188278 0.018763 0.115484 -0.094578 -0.224340 0.131678 -0.135265 -0.100721 -0.105196 -0.129511 0.081656 -0.260969 0.195892 0.174864 -0.216356 
65 -0.017431 0.031285 -0.025698 -0.049222 0.144720 -0.088698 0.185951 -0.034422 -0.007313 -0.205244 -0.197678 0.331089 -0.119954 -0.079199 0.002279 0.047672 0.004364 -0.095697 0.257593 0.109578 0.071186 -0.009371 0.083746 0.130566 -0.044928 0.178335 0.037401 -0.067720 -0.125672 0.166397 0.057461 -0.128230 0.179604 -0.216777 0.207570 0.323586 0.200964 0.124326 0.113689 -0.204010 -0.086084 0.187590 0.220742 -0.068821 0.007349 0.031611 -0.035632 -0.090463 0.115206 0.080495 -0.188671 0.241923 -0.136545 0.174441 -0.096632 -0.230711 0.160748 -0.111399 -0.002996 -0.130808 0.088295 -0.023495 -0.169936 -0.168310 -0.139547 0.180201 0.118595 0.068533 0.333843 -0.007312 -0.129820 -0.191390 -0.034081 0.271297 -0.155366 -0.219856 0.141645 -0.073517 0.054345 -0.071602 0.090190 -0.078437 0.109664 0.059703 0.061666 -0.133202 -0.018211 0.189616 -0.068833 -0.063051 0.105581 -0.151786 0.035097 -0.000002 -0.242499 -0.139274 0.154171 -0.027112 -0.025801 -0.264683 0.088875 -0.243464 0.329265 0.110582 -0.124869 -0.013565 -0.061078 0.070231 -0.206740 0.104102 -0.049673 0.216996 -0.153237 0.160410 0.022663 0.094616 -0.091465 -0.210494 0.134195 -0.141006 -0.075917 -0.094228 -0.120780 0.083570 -0.236157 0.177934 0.176859 -0.202530 
66 -0.011478 0.033456 -0.024880 -0.053810 0.143341 -0.081910 0.190937 -0.033087 -0.011404 -0.194917 -0.190045 0.325538 -0.127903 -0.084360 0.006738 0.047146 -0.002701 -0.085490 0.255930 0.112543 0.078694 -0.013130 0.067563 0.125593 -0.046921 0.175105 0.038295 -0.080144 -0.121593 0.175094 0.054588 -0.120199 0.174791 -0.218783 0.208775 0.314255 0.189952 0.134603 0.110448 -0.190344 -0.077114 0.190703 0.223026 -0.073454 0.002339 0.038920 -0.029097 -0.097721 0.104501 0.082908 -0.186246 0.241886 -0.145808 0.169784 -0.109646 -0.230213 0.168621 -0.117950 0.002060 -0.121314 0.087635 -0.025176 -0.173291 -0.164235 -0.148533 0.161442 0.112528 0.069090 0.319777 -0.009581 -0.126669 -0.187401 -0.038295 0.268110 -0.148319 -0.219031 0.128203 -0.070655 0.054146 -0.071851 0.096661 -0.084771 0.115377 0.050621 0.070085 -0.135634 -0.024948 0.171982 -0.058265 -0.055995 0.097805 -0.159766 0.035298 0.000491 -0.242380 -0.149575 0.151879 -0.032427 -0.020955 -0.256462 0.092552 -0.231616 0.321491 0.110745 -0.119066 -0.013060 -0.070815 0.067859 -0.215305 0.108053 -0.049883 0.219632 -0.151292 0.159876 0.028069 0.099131 -0.086705 -0.202911 0.128337 -0.141776 -0.076449 -0.106007 -0.118868 0.075971 -0.250155 0.173371 0.175646 -0.199971 
67 -0.022411 0.019968 -0.033702 -0.042359 0.134073 -0.078755 0.172860 -0.035883 -0.009971 -0.191169 -0.187321 0.315556 -0.134037 -0.081677 0.009651 0.027831 -0.008903 -0.091754 0.249868 0.091724 0.063187 -0.013510 0.071936 0.127189 -0.040178 0.170734 0.038380 -0.059478 -0.107843 0.164395 0.051886 -0.109926 0.171542 -0.198570 0.201787 0.300127 0.185818 0.127973 0.105794 -0.205095 -0.077085 0.169362 0.215766 -0.065857 0.002856 0.028991 -0.035514 -0.095444 0.105541 0.079051 -0.180380 0.231149 -0.131994 0.175235 -0.100478 -0.208695 0.156139 -0.104047 -0.000033 -0.115569 0.084613 -0.022191 -0.152355 -0.162443 -0.150681 0.158681 0.110229 0.080737 0.315377 -0.003520 -0.123310 -0.169821 -0.031307 0.257465 -0.148368 -0.214671 0.143701 -0.062473 0.054582 -0.071000 0.080478 -0.086720 0.107252 0.051218 0.057830 -0.120245 -0.016338 0.159800 -0.059687 -0.062885 0.105640 -0.157879 0.035841 -0.001151 -0.226250 -0.142408 0.159489 -0.028927 -0.011852 -0.261219 0.086916 -0.225470 0.304931 0.099664 -0.123603 -0.019343 -0.064605 0.077624 -0.214475 0.095051 -0.039366 0.199246 -0.156995 0.145221 0.026060 0.082575 -0.084218 -0.204754 0.122751 -0.146199 -0.060698 -0.091537 -0.124715 0.075520 -0.237789 0.163028 0.166908 -0.193092 
68 -0.027932 0.038728 -0.023631 -0.042437 0.150325 -0.095070 0.180117 -0.048441 -0.007581 -0.185920 -0.167506 0.298847 -0.136993 -0.077584 0.010670 0.022117 -0.016454 -0.067547 0.241178 0.099528 0.055365 -0.013949 0.074160 0.119951 -0.062227 0.158040 0.019207 -0.067633 -0.117801 0.168232 0.046691 -0.108597 0.184641 -0.213422 0.188732 0.278683 0.181123 0.127173 0.092835 -0.184976 -0.084041 0.173374 0.221796 -0.056554 0.003490 0.028102 -0.027643 -0.099494 0.098325 0.081810 -0.171354 0.227911 -0.134357 0.168150 -0.095464 -0.219144 0.147967 -0.099252 0.012650 -0.120701 0.079827 -0.023425 -0.144132 -0.149473 -0.149383 0.158365 0.099236 0.074730 0.299084 -0.009846 -0.122602 -0.173868 -0.046287 0.253260 -0.145049 -0.205130 0.127738 -0.053166 0.050732 -0.063545 0.078050 -0.093982 0.125261 0.055642 0.066045 -0.117598 -0.037083 0.166770 -0.064084 -0.055010 0.100659 -0.144605 0.030616 0.014606 -0.237524 -0.146938 0.139437 -0.032888 -0.006414 -0.246024 0.083474 -0.228064 0.315002 0.095051 -0.109053 -0.017146 -0.053933 0.077185 -0.200335 0.094805 -0.051804 0.205022 -0.142643 0.162664 0.017390 0.101150 -0.092874 -0.204921 0.125648 -0.141646 -0.075753 -0.098690 -0.122577 0.074920 -0.234358 0.167888 0.153505 -0.175295 
69 -0.042060 0.054000 -0.022408 -0.034535 0.160556 -0.098755 0.194445 -0.055319 -0.004145 -0.169325 -0.163367 0.286240 -0.147218 -0.057945 0.009976 0.008930 -0.007027 -0.055112 0.229948 0.098022 0.042248 0.007381 0.083129 0.114256 -0.066445 0.147819 0.006199 -0.052729 -0.119429 0.154345 0.041167 -0.089481 0.192256 -0.194344 0.187621 0.261923 0.181622 0.127128 0.093171 -0.181468 -0.087173 0.171661 0.228493 -0.030368 0.004045 0.011587 -0.014937 -0.103221 0.082678 0.075276 -0.176270 0.212321 -0.123185 0.164389 -0.085599 -0.210520 0.122219 -0.076289 0.013324 -0.116501 0.081560 -0.030479 -0.114508 -0.129937 -0.151580 0.153685 0.106331 0.084613 0.298218 -0.010523 -0.127751 -0.163340 -0.035999 0.255546 -0.134876 -0.195435 0.114667 -0.030119 0.064944 -0.052882 0.062881 -0.104653 0.139687 0.054129 0.080428 -0.103786 -0.046594 0.160317 -0.070161 -0.069569 0.087787 -0.128507 0.026259 0.018337 -0.236946 -0.144311 0.136417 -0.032523 -0.005681 -0.236999 0.077751 -0.238710 0.305750 0.100461 -0.108131 -0.027414 -0.045634 0.081939 -0.193227 0.087808 -0.036917 0.207151 -0.153573 0.149371 0.024670 0.111216 -0.112922 -0.206678 0.149720 -0.154732 -0.070233 -0.090732 -0.116082 0.091355 -0.218977 0.162626 0.158066 -0.166420 
70 -0.020665 0.063134 -0.019637 -0.040434 0.162882 -0.113457 0.198033 -0.038223 -0.001939 -0.189140 -0.164604 0.285740 -0.144374 -0.054124 0.008755 0.002983 0.003977 -0.064161 0.251443 0.106648 0.061387 0.003588 0.085858 0.116892 -0.051568 0.158394 0.009874 -0.061515 -0.125782 0.164947 0.036482 -0.111562 0.185078 -0.217267 0.198507 0.282350 0.196775 0.138717 0.109335 -0.172753 -0.095529 0.190360 0.226527 -0.042847 0.014132 0.000332 -0.010744 -0.111419 0.090165 0.069191 -0.177639 0.225075 -0.130217 0.156441 -0.102629 -0.225577 0.136918 -0.095164 0.013642 -0.118646 0.084112 -0.030843 -0.136522 -0.132441 -0.163154 0.169516 0.111040 0.075962 0.317284 0.009398 -0.151006 -0.183808 -0.021037 0.273674 -0.145720 -0.186200 0.124130 -0.026890 0.053250 -0.064790 0.057802 -0.095977 0.158581 0.037762 0.076417 -0.110891 -0.051219 0.189991 -0.067776 -0.067804 0.082333 -0.143132 0.031449 0.040609 -0.259047 -0.153658 0.141952 -0.040877 0.000334 -0.231335 0.079798 -0.259628 0.322858 0.082655 -0.111754 -0.022769 -0.046934 0.082221 -0.196975 0.105367 -0.051612 0.213090 -0.169883 0.177717 0.029018 0.117051 -0.114559 -0.214253 0.160959 -0.176491 -0.078719 -0.099300 -0.125119 0.102296 -0.221338 0.177186 0.159446 -0.193443 
71 -0.032522 0.061971 -0.014809 -0.033527 0.161504 -0.106310 0.194508 -0.038335 -0.014763 -0.188046 -0.159044 0.285908 -0.143975 -0.054396 0.014079 0.012703 0.003936 -0.061010 0.241543 0.095885 0.057110 0.006709 0.080231 0.119781 -0.049726 0.162942 0.011678 -0.056487 -0.121128 0.158702 0.038196 -0.113575 0.178177 -0.214864 0.190093 0.283112 0.189730 0.143864 0.099694 -0.167335 -0.080555 0.183281 0.222501 -0.042252 0.003891 -0.000350 -0.014089 -0.105659 0.090917 0.068108 -0.170968 0.225949 -0.130802 0.148891 -0.092762 -0.227178 0.136532 -0.096777 0.022207 -0.129260 0.088937 -0.024570 -0.130200 -0.130400 -0.156133 0.177470 0.105166 0.067054 0.312656 -0.000478 -0.144607 -0.182445 -0.020617 0.274233 -0.145918 -0.187921 0.126069 -0.031348 0.058878 -0.066137 0.053710 -0.094771 0.156665 0.044279 0.076470 -0.114614 -0.047404 0.188907 -0.069593 -0.065166 0.093447 -0.143724 0.030709 0.039233 -0.264285 -0.146373 0.138444 -0.038348 -0.006037 -0.231498 0.071381 -0.248564 0.316052 0.079072 -0.115638 -0.029865 -0.058217 0.084393 -0.197344 0.109352 -0.051247 0.218510 -0.167852 0.177907 0.032606 0.118131 -0.113678 -0.209336 0.161687 -0.172604 -0.073716 -0.094063 -0.126449 0.097647 -0.221723 0.175030 0.144080 -0.194015 
72 -0.023499 0.068057 -0.007000 -0.030615 0.159407 -0.107389 0.204989 -0.037239 -0.008508 -0.184569 -0.165486 0.288260 -0.148137 -0.056523 0.016967 0.004431 0.003626 -0.070398 0.248554 0.088462 0.064421 0.004188 0.085834 0.121835 -0.056869 0.154332 0.008301 -0.057027 -0.128515 0.161070 0.024063 -0.103472 0.173383 -0.207948 0.199650 0.287774 0.196355 0.138116 0.102302 -0.167387 -0.087288 0.190783 0.231654 -0.047116 0.011675 0.019747 -0.000450 -0.113493 0.090697 0.082315 -0.173469 0.223734 -0.132482 0.152390 -0.100162 -0.231979 0.126193 -0.109267 0.026779 -0.129291 0.075473 -0.019066 -0.135791 -0.126975 -0.149640 0.171630 0.101814 0.085760 0.315378 0.002408 -0.150830 -0.181031 -0.020474 0.268097 -0.142115 -0.187349 0.114688 -0.024915 0.064551 -0.070890 0.049425 -0.101892 0.157131 0.041565 0.083733 -0.107433 -0.046223 0.195448 -0.070935 -0.065450 0.091552 -0.134802 0.038938 0.032039 -0.270026 -0.146289 0.130870 -0.032572 0.002328 -0.243605 0.071195 -0.258654 0.321193 0.088450 -0.112262 -0.024324 -0.056198 0.080817 -0.197027 0.109223 -0.043140 0.217747 -0.153563 0.181003 0.025385 0.122003 -0.101161 -0.210240 0.153010 -0.170819 -0.076866 -0.087457 -0.128440 0.103039 -0.225244 0.166941 0.147610 -0.200630 
73 -0.031344 0.054896 -0.009383 -0.033139 0.161720 -0.101664 0.203279 -0.038639 -0.015325 -0.181586 -0.166311 0.289956 -0.137952 -0.053514 0.000400 0.008657 0.006952 -0.076341 0.236574 0.090232 0.053686 0.013687 0.090919 0.128276 -0.054404 0.158979 0.006981 -0.058582 -0.117961 0.157407 0.036994 -0.098102 0.167724 -0.216267 0.198044 0.283880 0.193689 0.131950 0.089599 -0.175364 -0.083877 0.180050 0.230456 -0.038929 0.011990 0.016733 -0.007491 -0.114116 0.084349 0.069108 -0.183778 0.220602 -0.133496 0.151473 -0.096171 -0.229708 0.132523 -0.106404 0.023978 -0.127431 0.081872 -0.023313 -0.120048 -0.125960 -0.150673 0.182714 0.112221 0.081079 0.304839 -0.006852 -0.151345 -0.170404 -0.022041 0.256605 -0.148489 -0.188708 0.125372 -0.026822 0.060872 -0.061402 0.054038 -0.103332 0.149015 0.042922 0.084825 -0.103429 -0.036245 0.175793 -0.065130 -0.063437 0.090626 -0.139933 0.038046 0.030731 -0.257819 -0.144713 0.136736 -0.036414 -0.009400 -0.237285 0.074875 -0.245128 0.317821 0.089760 -0.104894 -0.021861 -0.055520 0.081520 -0.205213 0.107175 -0.045974 0.216965 -0.159054 0.174116 0.022651 0.114467 -0.101084 -0.200934 0.148035 -0.153969 -0.073787 -0.073245 -0.125241 0.104674 -0.223142 0.170546 0.139891 -0.185005 
74 -0.037550 0.045191 -0.006885 -0.027505 0.156252 -0.094264 0.205937 -0.040769 -0.013756 -0.186009 -0.167397 0.292256 -0.141523 -0.061082 0.009284 0.002109 -0.004944 -0.077354 0.230414 0.082820 0.052334 0.010398 0.086491 0.124873 -0.057297 0.149705 0.015541 -0.058069 -0.118190 0.150164 0.027840 -0.092221 0.164644 -0.215934 0.204452 0.284266 0.190598 0.136113 0.090847 -0.177258 -0.082075 0.182151 0.231889 -0.038893 0.014196 0.023643 -0.000283 -0.110650 0.089574 0.071840 -0.182035 0.222128 -0.131890 0.151297 -0.094271 -0.227474 0.117576 -0.095245 0.022343 -0.135184 0.084477 -0.021831 -0.117715 -0.130721 -0.152673 0.177568 0.116552 0.078804 0.296858 -0.007501 -0.149847 -0.174812 -0.024305 0.252719 -0.149733 -0.186192 0.118579 -0.024228 0.071365 -0.058187 0.060210 -0.102983 0.142046 0.053230 0.088177 -0.093964 -0.036579 0.174564 -0.067700 -0.060201 0.089186 -0.132751 0.038927 0.031350 -0.253590 -0.142850 0.144213 -0.025671 -0.008227 -0.244802 0.069331 -0.252597 0.316661 0.091315 -0.105344 -0.026847 -0.056828 0.087712 -0.211201 0.094029 -0.045566 0.213084 -0.150577 0.167299 0.025476 0.105670 -0.105234 -0.208849 0.140528 -0.149230 -0.070599 -0.071383 -0.127683 0.097970 -0.227259 0.164085 0.145616 -0.181874 
75 -0.019778 0.050307 -0.004772 -0.033370 0.154409 -0.095992 0.202838 -0.043246 -0.005041 -0.189040 -0.166530 0.303311 -0.141688 -0.057908 0.008391 0.004783 -0.004418 -0.080407 0.231167 0.087823 0.055859 0.009929 0.091037 0.129326 -0.055552 0.149100 0.013733 -0.060199 -0.125281 0.154903 0.020832 -0.104448 0.160308 -0.224661 0.213215 0.295011 0.200107 0.137247 0.082174 -0.180518 -0.085922 0.188656 0.234236 -0.045645 0.020501 0.024099 -0.009695 -0.111940 0.099905 0.075120 -0.176577 0.224810 -0.125606 0.149707 -0.089136 -0.230233 0.128058 -0.099734 0.027309 -0.139635 0.074566 -0.026682 -0.135420 -0.138117 -0.144029 0.183232 0.115170 0.086196 0.297999 -0.008256 -0.148758 -0.179213 -0.026774 0.254367 -0.154638 -0.191304 0.127981 -0.033811 0.067489 -0.075767 0.054470 -0.099814 0.144611 0.053739 0.078960 -0.107925 -0.026332 0.185005 -0.064593 -0.065340 0.092380 -0.136689 0.039027 0.031103 -0.256822 -0.135370 0.151043 -0.027560 -0.011320 -0.241480 0.066330 -0.260303 0.326966 0.084109 -0.108089 -0.012886 -0.064435 0.081074 -0.217420 0.096820 -0.046482 0.212739 -0.156052 0.170506 0.023935 0.108882 -0.107058 -0.207887 0.138361 -0.147228 -0.072146 -0.076888 -0.123108 0.095973 -0.234109 0.169491 0.136671 -0.191898 
76 -0.024046 0.041981 -0.016520 -0.030302 0.154683 -0.091970 0.200891 -0.052059 -0.002157 -0.180531 -0.170577 0.303323 -0.143444 -0.053240 0.005627 0.006928 -0.005250 -0.077360 0.230279 0.090202 0.058661 0.000524 0.085300 0.125882 -0.059589 0.150885 0.013139 -0.067910 -0.131959 0.159011 0.025840 -0.105745 0.171503 -0.216746 0.207310 0.282623 0.191717 0.130513 0.080296 -0.184290 -0.082878 0.182405 0.226898 -0.037581 0.012396 0.025047 -0.011383 -0.105914 0.096346 0.066847 -0.170171 0.232512 -0.121266 0.151664 -0.099598 -0.227090 0.124991 -0.098743 0.028134 -0.135608 0.071316 -0.020236 -0.139720 -0.133472 -0.146613 0.179291 0.118656 0.077716 0.295703 -0.005067 -0.146036 -0.172652 -0.028287 0.259525 -0.151008 -0.193412 0.119115 -0.031373 0.057454 -0.072773 0.056604 -0.108879 0.138352 0.050938 0.076671 -0.112739 -0.035389 0.179768 -0.056393 -0.052905 0.103669 -0.129932 0.035928 0.017721 -0.260489 -0.132956 0.146553 -0.026340 -0.004802 -0.246795 0.071796 -0.244347 0.322673 0.088488 -0.111856 -0.023974 -0.062252 0.074578 -0.213118 0.097093 -0.043943 0.217522 -0.145518 0.178767 0.023235 0.100240 -0.106272 -0.207181 0.131960 -0.152252 -0.074623 -0.086599 -0.129963 0.096915 -0.238280 0.174567 0.135508 -0.195083 
77 -0.023990 0.053141 -0.007451 -0.029630 0.159649 -0.093963 0.210365 -0.049674 0.002005 -0.180472 -0.158710 0.288949 -0.151139 -0.049672 0.001094 -0.003174 -0.003002 -0.078392 0.230112 0.087923 0.055244 0.007768 0.088777 0.128882 -0.048289 0.144186 0.009939 -0.053323 -0.125651 0.164618 0.018979 -0.097755 0.164962 -0.209228 0.210535 0.288871 0.196677 0.126827 0.084676 -0.188710 -0.085250 0.180043 0.238833 -0.039442 0.017854 0.020732 -0.006821 -0.110678 0.099825 0.067962 -0.177208 0.228198 -0.124952 0.149138 -0.103381 -0.227104 0.120749 -0.097883 0.024047 -0.129765 0.079266 -0.020084 -0.133462 -0.139983 -0.160872 0.187736 0.118356 0.090654 0.296340 -0.005040 -0.141591 -0.162505 -0.021083 0.259623 -0.151807 -0.197325 0.123422 -0.023417 0.057366 -0.072553 0.047087 -0.110039 0.150935 0.052007 0.085176 -0.101381 -0.030126 0.181889 -0.073475 -0.057329 0.095941 -0.132151 0.037015 0.026058 -0.263626 -0.141149 0.148169 -0.025159 -0.000632 -0.246559 0.061063 -0.263076 0.329012 0.081444 -0.113188 -0.012525 -0.062711 0.086800 -0.218600 0.095078 -0.034601 0.217035 -0.158201 0.173682 0.026535 0.109022 -0.100490 -0.207846 0.137165 -0.152051 -0.071510 -0.085921 -0.130122 0.104547 -0.232380 0.173723 0.138559 -0.198018 
78 -0.025990 0.045950 -0.017214 -0.030298 0.156412 -0.099311 0.195553 -0.053126 -0.015291 -0.167613 -0.146427 0.265531 -0.139113 -0.065598 0.003941 0.003061 -0.002119 -0.063614 0.218793 0.086983 0.043480 0.015929 0.086720 0.113988 -0.057209 0.151659 0.015065 -0.045914 -0.110076 0.151677 0.035522 -0.090588 0.158551 -0.192430 0.185594 0.272099 0.190552 0.127401 0.083210 -0.173094 -0.085083 0.174210 0.222480 -0.024757 0.010229 0.005665 -0.009627 -0.109686 0.084055 0.067154 -0.176861 0.214646 -0.130378 0.147142 -0.092639 -0.210957 0.116955 -0.088741 0.018887 -0.126289 0.086249 -0.020692 -0.108104 -0.125817 -0.149946 0.172357 0.107622 0.077381 0.286325 -0.016278 -0.128141 -0.156165 -0.016345 0.250716 -0.149302 -0.192005 0.120515 -0.019672 0.060787 -0.059572 0.050778 -0.102058 0.136952 0.041774 0.082590 -0.096862 -0.030459 0.159006 -0.070938 -0.072821 0.087315 -0.131071 0.029414 0.032138 -0.245334 -0.132380 0.152408 -0.027868 0.001379 -0.231218 0.073687 -0.244226 0.308969 0.085223 -0.112441 -0.018545 -0.051683 0.087517 -0.201038 0.084535 -0.037123 0.200066 -0.153830 0.153563 0.028258 0.105868 -0.098214 -0.199789 0.147602 -0.156739 -0.057870 -0.070118 -0.128184 0.099362 -0.200752 0.152122 0.142966 -0.177272 
79 -0.037614 0.053873 -0.015984 -0.035649 0.167722 -0.109265 0.199447 -0.056738 -0.018706 -0.175548 -0.148619 0.273931 -0.126481 -0.068050 0.009355 0.004531 -0.008334 -0.065061 0.236801 0.092882 0.059831 0.006872 0.084381 0.124637 -0.060772 0.177782 -0.000942 -0.047670 -0.129712 0.168945 0.046570 -0.102133 0.160749 -0.213192 0.196899 0.286701 0.187934 0.132058 0.091771 -0.175858 -0.080820 0.192550 0.208070 -0.037713 0.011903 0.002250 0.001832 -0.112170 0.084284 0.082731 -0.176839 0.226378 -0.147198 0.166569 -0.092978 -0.223302 0.136880 -0.104765 0.016170 -0.139035 0.092272 -0.031473 -0.127469 -0.125604 -0.142463 0.178417 0.116381 0.056936 0.316337 -0.008799 -0.146914 -0.178814 -0.021154 0.259504 -0.152165 -0.208641 0.120499 -0.023809 0.078505 -0.055685 0.071199 -0.092554 0.141073 0.043725 0.080693 -0.103282 -0.048766 0.180305 -0.073499 -0.081477 0.098771 -0.140990 0.034139 0.031037 -0.257454 -0.146662 0.158575 -0.037102 -0.006928 -0.236871 0.085794 -0.240859 0.321095 0.097561 -0.116714 -0.030077 -0.055992 0.073601 -0.186616 0.102532 -0.051524 0.208327 -0.153751 0.179320 0.029972 0.109221 -0.096693 -0.187371 0.157188 -0.167485 -0.061766 -0.067670 -0.126377 0.086636 -0.198786 0.165520 0.152529 -0.197554 
80 -0.014804 0.045341 -0.019955 -0.045542 0.172914 -0.114658 0.210123 -0.057045 -0.017607 -0.187434 -0.165959 0.287880 -0.125912 -0.079675 0.010846 0.015671 0.001046 -0.075943 0.236259 0.116476 0.063024 0.015805 0.093095 0.137172 -0.055227 0.185403 0.007254 -0.054851 -0.148633 0.178689 0.037920 -0.123773 0.153159 -0.230910 0.208127 0.295067 0.200432 0.151322 0.095171 -0.174705 -0.063414 0.207747 0.220495 -0.046763 0.016291 0.005762 -0.010172 -0.112039 0.098631 0.072222 -0.165993 0.222217 -0.148944 0.175455 -0.102658 -0.232814 0.137326 -0.108372 0.022672 -0.143147 0.098462 -0.019226 -0.145492 -0.132714 -0.147137 0.182135 0.122859 0.057467 0.323055 0.007088 -0.162108 -0.190251 -0.016076 0.282499 -0.168942 -0.204417 0.117824 -0.034761 0.085311 -0.066447 0.079415 -0.095803 0.151648 0.036568 0.077394 -0.112548 -0.047584 0.179391 -0.067907 -0.071139 0.115528 -0.127162 0.034772 0.037805 -0.280871 -0.165544 0.157169 -0.027344 -0.006062 -0.258857 0.092481 -0.265248 0.332687 0.089829 -0.124245 -0.030076 -0.055637 0.068465 -0.189525 0.113929 -0.054708 0.220119 -0.165982 0.198970 0.028413 0.106774 -0.095796 -0.195632 0.160152 -0.166367 -0.084671 -0.067350 -0.138567 0.098182 -0.207140 0.167074 0.142785 -0.210407 
81 -0.013932 0.048032 -0.021891 -0.055549 0.168238 -0.107560 0.211601 -0.054392 -0.021040 -0.192932 -0.163728 0.294834 -0.129531 -0.078792 0.009924 0.018040 -0.003845 -0.076795 0.240375 0.112413 0.068793 0.012026 0.084354 0.133708 -0.069657 0.191738 -0.001540 -0.063526 -0.153416 0.178298 0.045299 -0.133119 0.167906 -0.235744 0.200945 0.291621 0.205075 0.137101 0.096681 -0.167564 -0.065847 0.200871 0.208200 -0.052613 0.009606 0.015732 -0.008871 -0.101951 0.095332 0.086940 -0.169416 0.226186 -0.140530 0.174047 -0.093875 -0.238876 0.133812 -0.099908 0.027004 -0.134763 0.092853 -0.020631 -0.166645 -0.139752 -0.150424 0.176298 0.114528 0.044161 0.327726 -0.001352 -0.156250 -0.200858 -0.027202 0.283536 -0.164620 -0.206413 0.112319 -0.043595 0.087209 -0.067131 0.081244 -0.103588 0.146313 0.042269 0.076555 -0.127985 -0.052284 0.183812 -0.055969 -0.058604 0.118530 -0.126872 0.035312 0.033662 -0.276753 -0.164292 0.153742 -0.027163 -0.001403 -0.256348 0.097046 -0.253927 0.333461 0.108840 -0.120678 -0.036838 -0.050106 0.065358 -0.192934 0.107977 -0.059673 0.220892 -0.160117 0.201898 0.037019 0.111186 -0.094394 -0.201227 0.160896 -0.159482 -0.083114 -0.079261 -0.134712 0.095298 -0.225991 0.181805 0.147413 -0.214012 
82 -0.024681 0.039320 -0.018431 -0.050645 0.171463 -0.104669 0.214010 -0.053719 -0.027484 -0.180200 -0.160415 0.288195 -0.134548 -0.083328 0.004437 0.015288 -0.007271 -0.072229 0.228115 0.106888 0.049341 0.016941 0.079968 0.129434 -0.072456 0.180907 0.010602 -0.063420 -0.136227 0.163547 0.042575 -0.114496 0.167321 -0.226647 0.192077 0.272872 0.204193 0.125080 0.091322 -0.172974 -0.070458 0.192567 0.205525 -0.038754 0.009902 0.012827 0.000691 -0.104114 0.087306 0.083453 -0.178944 0.222921 -0.146140 0.165535 -0.088925 -0.225320 0.124117 -0.097904 0.018069 -0.135421 0.101954 -0.030874 -0.144671 -0.137006 -0.151638 0.176806 0.117584 0.050780 0.307215 -0.003560 -0.155040 -0.186778 -0.023505 0.272961 -0.160849 -0.204558 0.112066 -0.027972 0.072372 -0.059297 0.085273 -0.113539 0.132747 0.040610 0.077417 -0.109792 -0.042629 0.159050 -0.058582 -0.064282 0.106422 -0.130363 0.019899 0.029518 -0.260365 -0.152764 0.163231 -0.023889 0.002759 -0.255361 0.087187 -0.241668 0.320780 0.103503 -0.115808 -0.034813 -0.051401 0.068137 -0.194579 0.098909 -0.047001 0.220329 -0.162139 0.177286 0.027949 0.108532 -0.099235 -0.199751 0.166256 -0.158751 -0.068085 -0.084491 -0.135704 0.087844 -0.218252 0.163165 0.148892 -0.200200 
