599 128
1 -0.242407 -0.241139 -0.128338 0.168967 -0.187160 -0.399097 0.139890 -0.204541 0.032972 0.050736 -0.000905 -0.597553 0.111318 0.035883 0.324730 0.282429 -0.442734 -0.434054 -0.222390 0.192804 -0.107415 -0.013457 0.073130 -0.205299 -0.229361 -0.028649 0.435669 0.037871 0.096215 -0.144801 -0.385264 -0.124554 0.110322 0.171306 0.101041 0.257894 -0.556636 -0.253520 0.242349 -0.113827 -0.129835 0.298854 -0.089561 0.740972 0.217647 -0.119761 -0.150627 0.122048 -0.546194 0.195949 0.119434 -0.034821 -0.196886 0.040229 -0.325739 0.075817 -0.321033 -0.164118 -0.067339 -0.112366 -0.350209 -0.185797 0.377101 -0.070264 0.299577 -0.099957 0.219688 -0.245054 0.204138 -0.168754 0.202472 0.047569 0.085757 -0.191191 -0.237114 0.036910 0.043023 0.240336 0.163477 -0.028500 0.198231 0.212573 -0.021866 0.255082 -0.129013 -0.464926 -0.077686 -0.045968 -0.010413 0.094252 -0.017529 -0.060250 0.117172 0.491382 -0.052239 -0.091346 -0.138304 -0.128733 0.209157 0.002903 -0.002992 0.089936 0.076040 -0.028994 -0.321676 0.023555 -0.317383 -0.398097 -0.046249 -0.095987 -0.226622 0.075016 0.490277 -0.423267 -0.351608 -0.335345 -0.208850 0.129739 -0.003425 -0.060997 -0.120900 -0.350630 0.405752 0.017684 0.007383 0.087001 -0.125314 0.153516 
2 -0.245682 -0.322852 -0.189785 0.194725 -0.205846 -0.426490 0.188881 -0.167088 0.043883 0.111286 -0.009187 -0.619067 0.101929 0.058970 0.355244 0.321408 -0.486553 -0.514533 -0.223002 0.193159 -0.161668 0.030178 0.099318 -0.175857 -0.295443 -0.063628 0.407459 -0.025745 0.037367 -0.119227 -0.386380 -0.091481 0.153827 0.250659 0.046724 0.275982 -0.565716 -0.245058 0.300157 -0.158146 -0.072469 0.280339 -0.130851 0.805178 0.228041 -0.141595 -0.135449 0.118823 -0.589162 0.217638 0.133712 -0.044277 -0.184165 0.035018 -0.340293 0.111089 -0.334751 -0.166669 -0.057578 -0.093535 -0.381786 -0.206438 0.385643 -0.039082 0.268474 -0.093379 0.234846 -0.300125 0.241817 -0.134626 0.242415 0.022769 0.062246 -0.183134 -0.257750 0.027206 0.054105 0.253018 0.172489 -0.027156 0.216854 0.193195 -0.007804 0.238690 -0.153990 -0.441655 -0.089740 -0.036185 -0.047041 0.085551 -0.063526 -0.099323 0.062757 0.479988 -0.057240 -0.076870 -0.189772 -0.142917 0.298839 -0.022089 0.030927 0.041642 0.047837 -0.038791 -0.367028 0.000775 -0.374384 -0.421995 -0.022775 -0.121246 -0.298054 0.131758 0.559200 -0.441975 -0.345062 -0.358978 -0.261614 0.054009 -0.050884 -0.041472 -0.125440 -0.348261 0.349060 0.020810 -0.015389 0.061786 -0.105467 0.100059 
3 -0.253187 -0.353414 -0.166520 0.170416 -0.229433 -0.405965 0.187781 -0.170855 0.040810 0.181262 -0.055433 -0.659714 0.182320 0.104050 0.377512 0.367833 -0.554794 -0.502476 -0.114330 0.194525 -0.178133 0.056801 0.165950 -0.154644 -0.345225 -0.057194 0.486746 -0.059828 0.086248 -0.070693 -0.381641 -0.078471 0.149302 0.258375 0.004185 0.230830 -0.577530 -0.299709 0.279140 -0.095555 -0.108738 0.248307 -0.199105 0.860032 0.229752 -0.202205 -0.139671 0.097359 -0.614429 0.225700 0.151132 -0.072813 -0.213997 0.017880 -0.420860 0.162118 -0.347604 -0.184804 -0.041712 -0.112837 -0.397545 -0.224975 0.388539 -0.069478 0.221359 -0.081377 0.261307 -0.262099 0.235318 -0.140708 0.295596 0.055622 0.045158 -0.190956 -0.249198 0.066591 0.086412 0.292067 0.214321 0.008398 0.272671 0.177057 -0.006063 0.272328 -0.100621 -0.436756 -0.083781 -0.029510 0.013850 0.049595 -0.073269 -0.098529 0.038295 0.519906 -0.044744 -0.087955 -0.231493 -0.095462 0.247118 0.034367 0.019933 -0.019491 0.040704 -0.008904 -0.299417 -0.042500 -0.299989 -0.377524 -0.018409 -0.124327 -0.280768 0.124970 0.593679 -0.487046 -0.285540 -0.417160 -0.297937 0.093404 -0.031583 -0.068289 -0.087600 -0.325833 0.373925 0.060530 -0.038400 0.054830 -0.076932 0.045384 
4 -0.247246 -0.360956 -0.156781 0.172077 -0.322282 -0.454997 0.252999 -0.186399 0.109309 0.178679 0.024352 -0.693803 0.301463 0.079052 0.326255 0.361772 -0.590864 -0.477812 -0.035661 0.203136 -0.205822 0.064624 0.115821 -0.182543 -0.430826 0.044909 0.549756 -0.076696 0.028540 -0.051287 -0.424029 -0.040089 0.184071 0.315578 0.038035 0.233255 -0.554150 -0.261579 0.295241 -0.089967 -0.112240 0.173575 -0.207081 0.952296 0.248474 -0.244081 -0.111674 0.177980 -0.587143 0.176184 0.119329 -0.063029 -0.180920 0.000699 -0.429338 0.127789 -0.393395 -0.229291 0.004658 -0.181631 -0.397880 -0.282480 0.368775 -0.097874 0.165334 -0.114034 0.340864 -0.307047 0.207775 -0.146191 0.317379 0.213081 -0.004272 -0.227793 -0.300793 0.012952 0.041851 0.389803 0.251711 0.051574 0.337619 0.158634 0.034570 0.219678 0.006784 -0.395675 -0.042983 0.098347 0.023475 0.016387 -0.080682 -0.095582 0.018590 0.503028 -0.071186 -0.048469 -0.264835 -0.038049 0.208918 0.089351 0.042742 -0.058615 0.065047 -0.060063 -0.345726 -0.042301 -0.255228 -0.454521 -0.088597 -0.163903 -0.212924 0.115558 0.525874 -0.446912 -0.277009 -0.430382 -0.291230 0.187260 -0.007982 -0.032630 -0.151439 -0.472149 0.315910 0.147101 0.027333 0.054158 -0.101292 0.030166 
5 -0.279391 -0.356170 -0.113506 0.114269 -0.342282 -0.483915 0.238365 -0.091120 0.141706 0.177785 -0.001136 -0.678737 0.331313 0.029643 0.311102 0.328385 -0.580482 -0.455996 0.006861 0.126839 -0.246174 0.095629 0.138344 -0.167458 -0.459079 0.031403 0.544751 -0.051747 -0.007455 -0.006961 -0.408750 0.028066 0.193513 0.295507 0.047867 0.190490 -0.538177 -0.264314 0.289817 -0.099032 -0.115042 0.139936 -0.214881 0.991100 0.251918 -0.256343 -0.151625 0.192705 -0.563711 0.137050 0.166900 -0.076725 -0.137185 0.059752 -0.392068 0.063300 -0.426661 -0.155393 -0.017049 -0.158581 -0.450196 -0.316792 0.394999 -0.055000 0.091684 -0.085855 0.315132 -0.287680 0.210489 -0.108236 0.303764 0.253741 -0.091100 -0.259475 -0.316305 0.023077 0.045562 0.388997 0.285275 0.064800 0.340053 0.112433 0.082598 0.247336 0.014109 -0.383533 -0.052105 0.143873 -0.002578 0.010044 -0.109667 -0.088315 -0.037014 0.476763 -0.035524 -0.055841 -0.269771 -0.003254 0.197409 0.099043 0.080928 -0.083265 0.043067 -0.125761 -0.371530 -0.051536 -0.213034 -0.459133 -0.110964 -0.171437 -0.150981 0.195729 0.492245 -0.448501 -0.264201 -0.395320 -0.258487 0.188809 -0.025944 -0.036125 -0.146455 -0.472749 0.258072 0.176226 0.041482 0.049065 -0.089185 0.065723 
6 -0.269988 -0.286347 -0.131873 0.071798 -0.403499 -0.507970 0.226606 -0.004262 0.150860 0.170703 0.039611 -0.627188 0.283324 0.038187 0.351413 0.401961 -0.510764 -0.390752 -0.074807 0.134111 -0.276442 0.059821 0.148811 -0.135512 -0.457186 0.062371 0.528472 -0.000627 0.021326 -0.009917 -0.411158 0.044226 0.122819 0.293563 -0.012631 0.288865 -0.518035 -0.288950 0.313616 -0.103816 -0.099887 0.098190 -0.232912 0.921158 0.270259 -0.283466 -0.170411 0.110885 -0.580061 0.134689 0.135465 -0.071436 -0.161232 0.025643 -0.422009 0.111874 -0.460097 -0.097801 0.094305 -0.136191 -0.447293 -0.343507 0.316474 -0.088344 0.174141 -0.048563 0.304418 -0.222759 0.285842 -0.126500 0.257431 0.302291 -0.099330 -0.264567 -0.341840 0.038108 0.035232 0.382072 0.309595 0.030143 0.384895 0.087092 0.043340 0.139925 0.002931 -0.341594 -0.036275 0.126662 0.059844 -0.086164 -0.078202 -0.191846 -0.096763 0.573099 0.015420 -0.135168 -0.214122 0.023303 0.219585 0.064715 0.172578 -0.086078 -0.040148 -0.094262 -0.336666 0.081726 -0.246803 -0.472124 -0.156174 -0.194577 -0.176327 0.101638 0.458760 -0.350481 -0.288974 -0.402050 -0.270417 0.158924 0.012423 0.086743 -0.157508 -0.392532 0.243402 0.210665 0.089615 0.050902 -0.110991 0.075375 
7 -0.236000 -0.341854 -0.097518 0.079816 -0.415276 -0.523229 0.273893 -0.057230 0.192437 0.160087 0.105259 -0.552212 0.272666 0.077104 0.300823 0.350491 -0.505566 -0.400421 -0.119100 0.127918 -0.255968 -0.009313 0.092182 -0.150437 -0.444625 0.085956 0.545507 0.005440 0.032696 -0.039812 -0.368469 0.004337 0.134187 0.249221 0.004597 0.281540 -0.527670 -0.275500 0.292730 -0.093707 -0.085299 0.111107 -0.198539 0.853023 0.291083 -0.273989 -0.196445 0.116297 -0.568536 0.078342 0.122484 -0.060676 -0.178755 0.013781 -0.345972 0.112100 -0.406462 -0.140139 0.092527 -0.156329 -0.505574 -0.337014 0.348375 -0.116598 0.193234 -0.000565 0.320520 -0.229361 0.280276 -0.154930 0.244941 0.277685 -0.105090 -0.278239 -0.365039 0.076097 0.014871 0.305769 0.278657 0.026927 0.326587 0.090545 0.056797 0.123437 0.020796 -0.300774 0.008308 0.090996 0.137410 -0.082708 -0.077383 -0.151028 -0.082681 0.593691 -0.006843 -0.124837 -0.233782 -0.045105 0.182973 0.045175 0.111337 -0.065367 -0.081662 -0.116751 -0.373393 0.108958 -0.223109 -0.471458 -0.154962 -0.150362 -0.179884 0.044821 0.415247 -0.373101 -0.237015 -0.403262 -0.251958 0.198663 0.031066 0.061999 -0.174307 -0.396140 0.252584 0.271231 0.145212 0.020572 -0.115253 0.026108 
8 -0.188766 -0.184545 -0.017265 0.083536 -0.541081 -0.428397 0.230181 0.018838 0.126581 0.031704 0.223655 -0.357769 0.252031 -0.031072 0.293489 0.457019 -0.418491 -0.318507 -0.212388 0.082865 -0.216915 -0.070958 0.089130 -0.183501 -0.344770 0.078370 0.409674 0.140442 0.022723 -0.022467 -0.457108 0.081560 0.057596 0.067024 0.077892 0.299788 -0.454390 -0.255220 0.234258 -0.147429 0.066559 0.050980 -0.134657 0.718394 0.291286 -0.267285 -0.227511 0.153886 -0.559957 0.054781 0.187024 -0.074966 -0.101596 0.023528 -0.249290 0.002276 -0.489257 -0.014062 0.196503 -0.142127 -0.542254 -0.342697 0.300364 -0.028890 0.285944 0.023410 0.279548 -0.066792 0.348307 -0.152796 0.175348 0.317401 -0.151309 -0.310160 -0.277973 0.001767 -0.023316 0.222844 0.276422 0.023151 0.314123 0.076783 0.063136 0.022794 0.014302 -0.233417 0.031032 0.125664 0.137387 -0.154769 -0.112467 -0.126020 -0.129622 0.579493 0.080098 -0.148025 -0.251597 -0.034189 0.235122 0.122488 0.134979 -0.028668 -0.143260 -0.208522 -0.256096 0.287669 -0.198847 -0.578140 -0.174372 -0.221065 -0.133903 0.066461 0.401039 -0.259598 -0.361244 -0.364966 -0.186990 0.206559 0.022515 0.113370 -0.181980 -0.368174 0.184890 0.241851 0.258710 0.003153 -0.046538 0.025969 
9 -0.142960 -0.232632 -0.060092 0.102987 -0.508929 -0.520221 0.256585 0.016244 0.154487 0.076204 0.240479 -0.345028 0.262972 -0.005014 0.289254 0.469582 -0.403086 -0.285912 -0.189941 0.112263 -0.215122 -0.099728 0.071805 -0.198398 -0.325563 0.084782 0.466663 0.159770 0.060488 -0.047925 -0.441704 0.050953 0.055949 0.047004 0.008377 0.311905 -0.453707 -0.280532 0.178912 -0.097614 -0.000152 0.030131 -0.161992 0.695229 0.227385 -0.273652 -0.231160 0.114151 -0.491265 0.001154 0.171667 -0.082603 -0.155499 -0.019366 -0.255070 0.020814 -0.470998 -0.054363 0.216240 -0.202669 -0.576774 -0.343154 0.295174 -0.029990 0.276111 0.042307 0.320105 -0.059235 0.370955 -0.153599 0.119496 0.289246 -0.096238 -0.338042 -0.268787 -0.000141 -0.015601 0.277573 0.261838 -0.017862 0.311991 0.045766 0.113435 -0.026630 0.055718 -0.159972 0.046333 0.161467 0.182310 -0.158936 -0.093866 -0.153931 -0.157647 0.634163 0.040083 -0.172884 -0.281358 -0.074900 0.206684 0.136723 0.165181 -0.068323 -0.186785 -0.178660 -0.284383 0.234680 -0.180878 -0.537733 -0.168253 -0.189243 -0.129853 0.041757 0.358127 -0.300163 -0.363661 -0.422317 -0.240573 0.236540 0.016222 0.141922 -0.183282 -0.376727 0.156351 0.286104 0.301632 0.035221 -0.022811 -0.033536 
10 -0.195166 -0.232572 -0.034320 0.089336 -0.561173 -0.473830 0.216285 -0.016846 0.119618 0.017283 0.266748 -0.325877 0.256110 -0.037215 0.280682 0.471539 -0.400302 -0.319845 -0.220481 0.061234 -0.202327 -0.125917 0.035992 -0.242501 -0.301769 0.109719 0.431141 0.157168 0.049561 -0.058843 -0.460390 0.060984 0.037393 0.025312 0.069965 0.310756 -0.498230 -0.260947 0.162244 -0.149352 0.081550 0.031432 -0.104815 0.644138 0.272458 -0.249489 -0.219031 0.119421 -0.544370 0.028028 0.188308 -0.057573 -0.116277 0.012916 -0.213730 0.000720 -0.480399 -0.048103 0.228677 -0.171248 -0.568284 -0.337698 0.295888 0.001883 0.342700 0.039780 0.335426 -0.069411 0.384307 -0.194034 0.120125 0.328247 -0.156057 -0.325601 -0.253567 0.006575 -0.030869 0.162002 0.281593 0.041862 0.312445 0.080598 0.090999 -0.028063 0.079001 -0.183189 0.060831 0.144663 0.179392 -0.139902 -0.130997 -0.150522 -0.114804 0.642009 0.081940 -0.169092 -0.266162 -0.091550 0.209936 0.117741 0.146861 -0.023097 -0.190875 -0.197868 -0.277067 0.260729 -0.180020 -0.588449 -0.175381 -0.241733 -0.119892 0.036970 0.391600 -0.238812 -0.353034 -0.419244 -0.194541 0.226711 0.018408 0.129688 -0.204814 -0.412808 0.186840 0.282320 0.287051 0.025426 -0.020430 0.001082 
11 -0.172250 -0.252317 -0.079801 0.127741 -0.533944 -0.437139 0.233617 0.035973 0.154210 0.095756 0.285575 -0.304648 0.295658 -0.003206 0.237185 0.444459 -0.332773 -0.246337 -0.188508 0.093985 -0.194342 -0.060311 0.006497 -0.252524 -0.345916 0.107287 0.392290 0.160003 -0.005997 0.032047 -0.371164 0.048188 0.032354 0.022597 0.057133 0.261752 -0.448073 -0.264333 0.202253 -0.172820 0.107112 -0.027532 -0.130860 0.623872 0.237053 -0.197353 -0.199526 0.083422 -0.492241 0.027105 0.187667 -0.080007 -0.093232 0.000723 -0.188953 -0.002949 -0.448110 -0.058138 0.254964 -0.222169 -0.510111 -0.364697 0.242380 0.010680 0.271181 0.079115 0.328573 -0.094937 0.330880 -0.182999 0.105003 0.324551 -0.154887 -0.322386 -0.225872 -0.006852 0.006973 0.240429 0.269859 0.020393 0.252638 0.096725 0.109928 -0.020963 0.048442 -0.107501 0.059385 0.131619 0.204106 -0.143969 -0.105026 -0.203309 -0.191684 0.605812 0.012682 -0.150611 -0.311669 -0.129160 0.258992 0.088492 0.154445 -0.089622 -0.254774 -0.241624 -0.239098 0.259149 -0.217604 -0.594092 -0.169794 -0.233165 -0.120964 0.092668 0.388470 -0.208543 -0.362344 -0.413549 -0.247888 0.168913 -0.024504 0.151807 -0.142761 -0.368833 0.071272 0.249148 0.283303 -0.018361 -0.028240 -0.065852 
12 -0.162225 -0.199870 -0.024552 0.169030 -0.558590 -0.414852 0.281100 0.022066 0.224632 0.060098 0.367429 -0.231322 0.361227 0.058007 0.260128 0.483369 -0.328492 -0.231372 -0.199398 0.128366 -0.155838 -0.050737 -0.030287 -0.335465 -0.333586 0.188594 0.447459 0.177790 -0.043911 0.032386 -0.375570 0.148608 0.034267 -0.027623 0.030429 0.243640 -0.441203 -0.273609 0.174551 -0.183807 0.149738 -0.042878 -0.120995 0.622485 0.262135 -0.189624 -0.223288 0.075054 -0.496889 0.019456 0.195319 -0.080455 -0.048327 -0.076795 -0.171735 -0.005988 -0.425440 -0.087782 0.316989 -0.286328 -0.545254 -0.359428 0.227153 -0.052454 0.246772 0.058120 0.387908 -0.095389 0.327144 -0.215692 0.159805 0.316033 -0.152680 -0.305450 -0.192943 -0.052411 -0.015340 0.300092 0.242857 0.032395 0.230828 0.117525 0.107691 -0.053271 0.059126 -0.103358 0.023523 0.173742 0.211919 -0.258717 -0.121910 -0.126043 -0.229923 0.572602 0.001220 -0.141865 -0.303754 -0.136798 0.275144 0.122698 0.119632 -0.021868 -0.245456 -0.327191 -0.240851 0.344923 -0.201887 -0.656771 -0.224623 -0.269459 -0.122241 0.011578 0.367284 -0.141721 -0.380496 -0.410785 -0.203425 0.176590 -0.001796 0.141964 -0.132885 -0.451639 0.106241 0.329628 0.345618 -0.041691 0.003086 -0.108464 
13 -0.246701 -0.214995 -0.028502 0.208952 -0.542091 -0.347351 0.343507 0.009457 0.228793 0.040803 0.334198 -0.223740 0.366958 0.120515 0.216139 0.423425 -0.322402 -0.202321 -0.176777 0.122038 -0.147724 -0.027591 0.042375 -0.389919 -0.315975 0.251975 0.479409 0.080184 -0.167939 0.054100 -0.405184 0.223721 0.073843 0.019736 0.037268 0.153788 -0.461114 -0.307315 0.268126 -0.218225 0.153070 -0.035172 -0.210887 0.593158 0.172303 -0.153502 -0.281646 0.066510 -0.448097 0.082391 0.128766 -0.124611 0.011701 -0.078929 -0.196805 0.058313 -0.356768 -0.122443 0.362883 -0.296438 -0.520461 -0.403042 0.284420 -0.062081 0.298162 0.011608 0.389003 -0.128951 0.312136 -0.253444 0.217453 0.221154 -0.153935 -0.255793 -0.159068 -0.077268 -0.025086 0.291210 0.238605 0.091547 0.245800 0.156450 0.080862 0.006549 0.038513 -0.061597 0.015111 0.151004 0.231772 -0.242477 -0.114952 -0.164990 -0.198119 0.506047 0.001565 -0.081773 -0.328111 -0.140393 0.298574 0.142188 0.101519 -0.035079 -0.270591 -0.389609 -0.199373 0.351078 -0.203517 -0.655389 -0.246720 -0.319147 -0.163672 -0.027785 0.373938 -0.114265 -0.378475 -0.388669 -0.165527 0.196908 -0.027998 0.138267 -0.190835 -0.404200 0.076815 0.319735 0.287620 -0.040798 0.014929 -0.137145 
14 -0.321025 -0.241871 -0.094126 0.259117 -0.521425 -0.382907 0.397548 0.003911 0.258067 0.122419 0.373624 -0.177816 0.405453 0.171999 0.194524 0.441330 -0.321099 -0.202064 -0.171769 0.156629 -0.149944 0.023155 0.027574 -0.420105 -0.363100 0.268845 0.488426 0.085347 -0.217529 0.101462 -0.313072 0.245440 0.091437 0.031414 0.022121 0.127704 -0.376597 -0.272895 0.279132 -0.268082 0.159330 -0.048858 -0.160494 0.632286 0.134917 -0.137494 -0.251186 0.050076 -0.371458 0.128266 0.158258 -0.158997 0.062187 -0.150634 -0.205310 0.105190 -0.354753 -0.147150 0.370198 -0.291274 -0.490658 -0.390228 0.299304 -0.098558 0.232014 -0.018611 0.388403 -0.113030 0.250128 -0.288043 0.226301 0.208479 -0.136377 -0.213268 -0.117309 -0.114599 -0.024725 0.359204 0.228472 0.132014 0.250967 0.110004 0.176948 -0.088646 0.051313 0.016879 -0.061902 0.194760 0.230190 -0.274204 -0.151449 -0.109486 -0.234772 0.495557 -0.062522 -0.040914 -0.337109 -0.096334 0.308220 0.144009 0.076711 -0.011235 -0.342946 -0.411100 -0.247860 0.299242 -0.188526 -0.629086 -0.290708 -0.323682 -0.188921 -0.035402 0.347829 -0.094743 -0.388254 -0.414121 -0.159949 0.200731 -0.102090 0.077552 -0.181634 -0.427612 0.015610 0.370434 0.247486 -0.009850 0.063723 -0.182008 
15 -0.307700 -0.235882 0.005135 0.298316 -0.568912 -0.307147 0.455443 0.016454 0.224475 0.108869 0.450889 -0.155148 0.366689 0.232359 0.195706 0.484643 -0.315821 -0.251601 -0.251307 0.068436 -0.068486 0.010786 -0.039609 -0.447947 -0.370263 0.246581 0.489449 0.129860 -0.267847 0.088323 -0.332145 0.311306 0.083000 0.018500 0.028492 0.168512 -0.372227 -0.299161 0.268668 -0.248619 0.236346 -0.043502 -0.200099 0.592980 0.134354 -0.155011 -0.287300 0.083605 -0.432509 0.075785 0.150730 -0.061880 0.036692 -0.225767 -0.176491 0.051675 -0.342857 -0.248603 0.391810 -0.332681 -0.451773 -0.350914 0.349024 -0.092026 0.232070 0.044702 0.376966 -0.149023 0.271437 -0.248683 0.303403 0.193887 -0.212111 -0.179118 -0.106520 -0.113140 -0.025429 0.304441 0.277721 0.201145 0.270612 0.126621 0.063521 -0.115874 0.092724 0.013046 -0.009445 0.136240 0.210219 -0.320616 -0.172033 -0.053150 -0.268931 0.487875 -0.028853 -0.040414 -0.357112 -0.150671 0.282055 0.127415 0.103519 0.022941 -0.298059 -0.412499 -0.179201 0.341471 -0.202616 -0.689083 -0.245831 -0.355138 -0.206402 -0.045453 0.391243 -0.061093 -0.396434 -0.411439 -0.134266 0.180930 -0.095678 0.118804 -0.163607 -0.377205 0.050708 0.374802 0.297288 -0.009977 0.127931 -0.145520 
16 -0.359037 -0.136647 0.134752 0.442249 -0.595257 -0.096691 0.526354 -0.001008 0.209261 0.099013 0.599451 -0.080272 0.325897 0.445336 0.153529 0.508972 -0.259047 -0.364825 -0.167597 0.015472 0.027321 0.068416 -0.157302 -0.545443 -0.312896 0.179365 0.397181 0.103328 -0.333377 0.139702 -0.193032 0.335038 0.027281 -0.081858 0.092203 0.111942 -0.189670 -0.323205 0.358849 -0.308602 0.231240 -0.014194 -0.134501 0.420017 0.082859 -0.089648 -0.279094 0.110813 -0.321617 0.125144 0.113577 0.046375 0.071773 -0.395955 -0.171530 0.035841 -0.171988 -0.395260 0.467125 -0.383998 -0.244700 -0.303752 0.400103 -0.185638 0.169818 0.058829 0.336433 -0.279049 0.130711 -0.276845 0.393700 0.140321 -0.310939 -0.022865 0.022800 -0.122876 -0.112062 0.316276 0.258441 0.265769 0.219264 0.154134 -0.076560 -0.129661 0.225306 0.078730 -0.047983 0.125737 0.094793 -0.226768 -0.177447 -0.083814 -0.233648 0.397119 0.035178 0.155163 -0.279914 -0.169815 0.263040 0.044229 0.027546 0.165134 -0.282887 -0.488447 -0.064939 0.298784 -0.195216 -0.727871 -0.247375 -0.317073 -0.107342 -0.127162 0.390144 0.078612 -0.428409 -0.415376 -0.086092 0.153442 -0.089404 0.064943 -0.140717 -0.276930 -0.040088 0.319005 0.303215 0.045033 0.176565 -0.065234 
17 -0.323442 -0.142466 0.129784 0.418929 -0.604434 -0.112120 0.536757 0.023471 0.170834 0.110959 0.621614 -0.117258 0.327463 0.423146 0.202493 0.502289 -0.280844 -0.329158 -0.195802 0.052276 0.011802 0.028986 -0.146651 -0.540032 -0.323703 0.210548 0.396111 0.136891 -0.355527 0.125324 -0.237702 0.349871 0.035473 -0.073537 0.071083 0.142429 -0.209602 -0.326880 0.352511 -0.357357 0.245546 -0.004956 -0.147053 0.436633 0.075461 -0.105351 -0.273744 0.128125 -0.327356 0.132707 0.095416 0.034227 0.031088 -0.422714 -0.180481 0.051983 -0.224744 -0.355855 0.469360 -0.377289 -0.318672 -0.338536 0.407032 -0.138932 0.186648 0.078851 0.365415 -0.268825 0.194812 -0.262165 0.368218 0.117983 -0.289775 -0.024571 -0.034924 -0.120254 -0.103587 0.334488 0.230116 0.265477 0.236258 0.151014 -0.052715 -0.155692 0.184782 0.069452 -0.058858 0.120139 0.162109 -0.228013 -0.181648 -0.115853 -0.243834 0.408621 0.081745 0.130722 -0.279841 -0.140263 0.257361 0.035241 0.049998 0.125840 -0.293219 -0.494981 -0.087777 0.338028 -0.224906 -0.739549 -0.265902 -0.327463 -0.162540 -0.140230 0.394833 0.044870 -0.459585 -0.403635 -0.125250 0.169286 -0.098124 0.096391 -0.151403 -0.274415 -0.032157 0.325419 0.307461 0.024994 0.180038 -0.061690 
18 -0.374896 -0.208337 0.024014 0.430048 -0.608940 -0.182554 0.560546 0.000787 0.228423 0.123646 0.554560 -0.170684 0.370474 0.420875 0.256420 0.551566 -0.335029 -0.381466 -0.182141 -0.000795 -0.000181 0.046136 -0.117063 -0.561237 -0.343692 0.221049 0.433215 0.082603 -0.333335 0.153284 -0.247825 0.341421 0.027613 -0.036014 0.065306 0.170184 -0.235139 -0.326124 0.395847 -0.322702 0.265425 0.023947 -0.165392 0.548773 0.123791 -0.069008 -0.287951 0.099883 -0.444943 0.103081 0.147757 0.018365 0.036659 -0.376134 -0.221557 0.086333 -0.290261 -0.403330 0.429895 -0.380507 -0.335812 -0.300165 0.397309 -0.165214 0.182706 0.059700 0.379081 -0.265265 0.194820 -0.271277 0.427159 0.157165 -0.297058 -0.086880 -0.054003 -0.116778 -0.115639 0.351746 0.262540 0.242854 0.260837 0.172996 -0.004649 -0.126699 0.197848 0.092386 -0.059924 0.104446 0.124624 -0.282220 -0.183510 -0.095793 -0.231198 0.478828 0.021515 0.068019 -0.305470 -0.165770 0.276434 0.064633 0.071145 0.099826 -0.283448 -0.423655 -0.094600 0.278741 -0.234632 -0.751976 -0.224092 -0.346944 -0.178987 -0.105421 0.471535 0.001341 -0.452255 -0.456853 -0.161421 0.174943 -0.155839 0.079334 -0.168170 -0.324492 0.005481 0.376166 0.324226 0.045570 0.163396 -0.089158 
19 -0.307374 -0.145259 0.032828 0.393947 -0.585653 -0.182972 0.502297 -0.038360 0.241120 0.124508 0.521075 -0.132729 0.353142 0.449582 0.294452 0.518952 -0.299915 -0.286813 -0.135519 0.014794 -0.009675 0.059166 -0.140643 -0.532672 -0.300868 0.179854 0.371134 0.062958 -0.358896 0.122753 -0.220976 0.312251 -0.007917 -0.081911 0.074009 0.140500 -0.173654 -0.267765 0.364398 -0.300857 0.248161 0.012351 -0.147684 0.531891 0.134783 -0.012812 -0.240333 0.064148 -0.383006 0.101736 0.124050 -0.029023 0.016827 -0.374247 -0.194938 0.083691 -0.292070 -0.396895 0.380226 -0.367512 -0.268340 -0.242473 0.361094 -0.210736 0.136396 0.081109 0.379653 -0.202533 0.178594 -0.251825 0.400862 0.184302 -0.228381 -0.072110 -0.085271 -0.099039 -0.115579 0.330026 0.233001 0.219113 0.188844 0.198969 -0.042036 -0.134712 0.156266 0.122282 -0.040241 0.085145 0.072969 -0.323416 -0.164946 -0.033492 -0.259555 0.456127 0.049268 0.037621 -0.198905 -0.054397 0.244389 0.040499 0.085916 0.112919 -0.278970 -0.316206 -0.043142 0.248608 -0.239255 -0.686110 -0.219984 -0.334634 -0.217161 -0.140801 0.383249 0.066059 -0.396621 -0.402990 -0.139591 0.163811 -0.137973 0.073317 -0.180011 -0.331825 0.021583 0.370131 0.343249 0.017088 0.132570 -0.094433 
20 -0.230966 -0.134539 -0.038938 0.410952 -0.546468 -0.199309 0.609248 -0.019225 0.211955 0.144450 0.484605 -0.147836 0.347707 0.460646 0.354073 0.579067 -0.273455 -0.345373 -0.243136 0.043433 0.063917 0.078457 -0.154006 -0.467296 -0.293439 0.171207 0.337402 0.123587 -0.380946 0.147320 -0.207432 0.354407 -0.016728 -0.033827 0.044908 0.223843 -0.145270 -0.186746 0.353607 -0.282258 0.282931 0.049722 -0.168550 0.621286 0.200559 -0.040388 -0.225416 0.099469 -0.435919 0.037545 0.110040 0.017482 0.000159 -0.367936 -0.189938 0.083820 -0.363225 -0.368330 0.282048 -0.386784 -0.319329 -0.166555 0.377826 -0.226118 0.061846 0.061350 0.377365 -0.156623 0.210422 -0.137768 0.504991 0.136255 -0.172242 -0.099053 -0.125881 -0.116201 -0.173755 0.411745 0.213814 0.223031 0.187714 0.157490 -0.024910 -0.138457 0.123188 0.103473 -0.035782 0.089689 0.053671 -0.417029 -0.218919 0.049024 -0.319541 0.458106 0.020000 -0.051344 -0.244666 -0.077502 0.287931 0.056834 0.095326 0.096101 -0.256686 -0.260262 -0.082000 0.248398 -0.225414 -0.664469 -0.181289 -0.334944 -0.247331 -0.072306 0.434738 0.042641 -0.422801 -0.386093 -0.137810 0.146594 -0.150858 0.075945 -0.222213 -0.342391 0.072038 0.437908 0.354684 0.006746 0.178511 -0.073830 
21 -0.200334 -0.117949 -0.067292 0.363050 -0.504789 -0.207969 0.533082 -0.065341 0.225906 0.143816 0.400133 -0.104009 0.347958 0.416772 0.350661 0.540332 -0.233870 -0.303481 -0.201187 -0.005175 0.081629 0.080050 -0.224728 -0.513547 -0.251164 0.153811 0.319885 0.150614 -0.366966 0.142855 -0.164729 0.247930 -0.007352 -0.077887 0.080129 0.201990 -0.119350 -0.171358 0.323157 -0.212632 0.328673 0.083954 -0.110314 0.614315 0.220451 0.019113 -0.181005 0.079648 -0.383980 0.057200 0.164268 -0.000984 0.022638 -0.380998 -0.141316 0.121389 -0.428856 -0.341646 0.220278 -0.344731 -0.339165 -0.102713 0.347531 -0.301647 0.002955 0.072215 0.320304 -0.109685 0.191841 -0.165636 0.461389 0.140383 -0.167315 -0.123867 -0.110113 -0.062086 -0.175186 0.381194 0.224605 0.218874 0.162174 0.159869 -0.004519 -0.099420 0.066353 0.088181 -0.066201 0.018763 0.107359 -0.437565 -0.206837 0.122633 -0.237844 0.446902 -0.004445 -0.069929 -0.201816 -0.097244 0.247063 0.098150 0.095255 0.145966 -0.189593 -0.206104 -0.091080 0.257514 -0.250921 -0.620341 -0.135901 -0.338085 -0.246278 -0.050608 0.385151 -0.000607 -0.397586 -0.352106 -0.172470 0.161813 -0.167403 0.010943 -0.213995 -0.331377 0.063315 0.446969 0.333465 0.002035 0.121741 -0.025743 
22 -0.193425 -0.129866 -0.107079 0.378215 -0.520289 -0.142080 0.565122 -0.000304 0.231312 0.115185 0.409064 -0.111219 0.350360 0.476780 0.412985 0.609728 -0.255777 -0.334122 -0.236816 0.053734 0.095964 0.054036 -0.168930 -0.524971 -0.295885 0.168952 0.312742 0.133169 -0.427917 0.161534 -0.177086 0.326450 -0.030000 -0.020205 -0.004371 0.237929 -0.121642 -0.157868 0.352140 -0.279298 0.366137 0.081823 -0.142917 0.617185 0.280607 0.008382 -0.168306 0.082219 -0.457866 0.024448 0.117883 -0.012227 0.055287 -0.369016 -0.185295 0.118669 -0.378024 -0.329119 0.251215 -0.354340 -0.370711 -0.090882 0.339894 -0.281310 -0.028104 0.042794 0.371665 -0.161045 0.196466 -0.173616 0.492637 0.093094 -0.177610 -0.124230 -0.142181 -0.104721 -0.194013 0.456282 0.244405 0.261778 0.242471 0.181692 0.001383 -0.127237 0.076078 0.118689 -0.027019 0.079482 0.134665 -0.464837 -0.214499 0.097557 -0.300137 0.445869 0.004345 -0.105764 -0.251984 -0.084789 0.263256 0.043412 0.062460 0.134763 -0.212655 -0.254952 -0.081409 0.283647 -0.245432 -0.660344 -0.150234 -0.375134 -0.269652 -0.074226 0.410172 -0.004482 -0.412595 -0.388965 -0.182347 0.167626 -0.188027 0.033850 -0.232427 -0.340528 0.130918 0.442099 0.359901 0.014334 0.149882 -0.028162 
23 -0.096409 -0.079418 -0.139358 0.329646 -0.458367 -0.161323 0.512484 -0.066412 0.223037 0.168828 0.355384 -0.090104 0.378610 0.409254 0.368753 0.602336 -0.253467 -0.364170 -0.206925 -0.023924 0.151497 0.088374 -0.161634 -0.443217 -0.285847 0.146823 0.294171 0.094723 -0.316866 0.219282 -0.097781 0.295934 -0.052232 -0.027403 0.064474 0.145780 -0.109030 -0.067273 0.267264 -0.167998 0.376382 0.128480 -0.089965 0.590144 0.310932 0.015098 -0.106986 0.033453 -0.468541 0.055426 0.191370 0.030925 0.008221 -0.372390 -0.178323 0.103895 -0.388499 -0.309870 0.183468 -0.353025 -0.283584 -0.001571 0.271374 -0.274524 -0.083184 0.071067 0.287978 -0.135401 0.195878 -0.027069 0.464913 0.100739 -0.249929 -0.111094 -0.127771 -0.117272 -0.160576 0.417607 0.141110 0.212938 0.117699 0.171666 -0.036147 -0.140492 0.014172 0.030778 -0.120174 0.064306 0.070120 -0.538625 -0.181222 0.245412 -0.324364 0.461995 -0.105030 -0.126512 -0.206958 -0.056645 0.320047 0.076123 0.032045 0.147777 -0.122555 -0.141421 -0.079694 0.255122 -0.153118 -0.527754 -0.072061 -0.298332 -0.241657 -0.000270 0.373139 0.006264 -0.322572 -0.337947 -0.099904 0.084202 -0.207909 -0.034825 -0.165415 -0.360879 0.115486 0.414946 0.340281 0.018505 0.164594 -0.069802 
24 -0.076801 -0.095568 -0.134614 0.322452 -0.458479 -0.165910 0.489067 -0.129038 0.240441 0.124294 0.324385 -0.092454 0.385766 0.408189 0.365984 0.591443 -0.214828 -0.353876 -0.254266 0.009364 0.176672 0.065365 -0.242284 -0.440966 -0.272128 0.187445 0.322895 0.134963 -0.345284 0.186155 -0.126283 0.238349 -0.072549 -0.017598 0.054305 0.160822 -0.126507 -0.043385 0.246920 -0.221566 0.414209 0.138719 -0.089279 0.559870 0.344613 -0.011682 -0.079687 0.066977 -0.478624 0.073853 0.172449 0.045744 0.055165 -0.358249 -0.098248 0.061387 -0.376238 -0.282589 0.147364 -0.351337 -0.347468 0.024637 0.253473 -0.307986 -0.066279 0.040822 0.296737 -0.117966 0.191502 -0.080701 0.460528 0.088808 -0.210288 -0.152409 -0.125447 -0.122482 -0.169698 0.388106 0.179910 0.224243 0.163562 0.218686 -0.045973 -0.117513 -0.007520 0.018802 -0.078326 0.032595 0.137364 -0.546547 -0.165743 0.226265 -0.306820 0.447789 -0.089924 -0.162845 -0.204801 -0.070646 0.319297 0.072512 0.037256 0.146390 -0.103437 -0.175139 -0.074190 0.341602 -0.182416 -0.589737 -0.079557 -0.321111 -0.245449 0.019673 0.318954 0.024584 -0.341471 -0.331770 -0.098239 0.095788 -0.218609 -0.065878 -0.178604 -0.344378 0.173079 0.436835 0.367098 0.013221 0.089990 -0.012471 
25 -0.078202 -0.118402 -0.170619 0.375706 -0.419953 -0.221275 0.510953 -0.108175 0.246743 0.192139 0.283675 -0.062003 0.449747 0.376776 0.375403 0.619857 -0.256017 -0.316418 -0.176072 -0.002886 0.157346 0.153752 -0.197695 -0.408992 -0.343956 0.136196 0.339616 0.132991 -0.305538 0.279501 -0.090771 0.288653 -0.060486 -0.015731 0.043242 0.121940 -0.087540 -0.034951 0.225698 -0.137757 0.371717 0.130855 -0.065647 0.650954 0.298423 -0.023491 -0.080612 0.087208 -0.441521 0.045718 0.290110 0.068404 0.063998 -0.406125 -0.131045 0.045767 -0.476518 -0.324755 0.141705 -0.412727 -0.290892 0.021629 0.265996 -0.324943 -0.143380 0.000902 0.230830 -0.072538 0.150993 -0.037318 0.478065 0.182318 -0.247957 -0.186408 -0.079225 -0.159351 -0.147779 0.456206 0.138711 0.178341 0.155172 0.170629 0.022146 -0.167739 -0.024690 -0.013806 -0.148961 0.058688 0.108574 -0.609319 -0.146965 0.265940 -0.367416 0.422863 -0.158925 -0.100420 -0.181649 -0.052088 0.336331 0.180721 0.057286 0.144293 -0.069894 -0.190379 -0.049525 0.253008 -0.134346 -0.592640 -0.083093 -0.277902 -0.276617 0.050618 0.380196 -0.014313 -0.334183 -0.355867 -0.102781 0.116698 -0.215108 -0.066503 -0.123841 -0.389288 0.083573 0.449475 0.287013 0.042277 0.190321 -0.053687 
26 -0.028251 -0.077335 -0.124183 0.440558 -0.354639 -0.258884 0.539263 -0.129000 0.206517 0.190387 0.335680 -0.048019 0.342702 0.344811 0.322038 0.657410 -0.336263 -0.308468 -0.180321 0.074984 0.113033 0.137444 -0.178620 -0.295258 -0.344141 0.115154 0.323526 0.134573 -0.210709 0.246653 -0.056471 0.247907 0.010575 0.016162 0.042015 0.103733 -0.076427 0.021433 0.181089 -0.109811 0.347286 0.071370 -0.027649 0.652932 0.236024 -0.064035 -0.040637 0.090771 -0.396425 0.096896 0.287391 0.060853 -0.020190 -0.417505 -0.132857 0.014345 -0.425010 -0.267970 0.056048 -0.331204 -0.271528 0.003354 0.207819 -0.299731 -0.134324 -0.021390 0.182130 -0.101772 0.146441 -0.049464 0.410416 0.180801 -0.143969 -0.098190 -0.052356 -0.170485 -0.119732 0.464194 0.008455 0.166550 0.054890 0.160251 -0.013703 -0.280379 -0.080083 -0.018267 -0.207673 0.141597 0.009079 -0.485614 -0.133696 0.332786 -0.362396 0.326748 -0.159218 -0.057533 -0.250671 0.041201 0.345976 0.138202 0.042263 0.160129 -0.132684 -0.200952 -0.071715 0.204211 -0.104772 -0.468832 -0.094507 -0.214535 -0.329825 0.025098 0.349565 -0.004886 -0.298783 -0.278578 -0.097774 0.093803 -0.200785 -0.101960 -0.068905 -0.396316 0.092166 0.378288 0.297076 -0.014041 0.238626 -0.111865 
27 -0.063670 -0.106866 -0.095050 0.443167 -0.376497 -0.300773 0.535652 -0.211664 0.215648 0.173374 0.299964 -0.085925 0.395914 0.348536 0.282513 0.693591 -0.392176 -0.395987 -0.110552 0.005876 0.133119 0.223706 -0.143900 -0.303816 -0.382418 0.092823 0.337100 0.108986 -0.207717 0.288296 -0.067212 0.282018 0.056036 0.049653 0.107600 0.074047 -0.115252 0.055738 0.162145 -0.036016 0.357828 0.097472 -0.029566 0.767839 0.236744 -0.084535 -0.051782 0.161398 -0.443916 0.083822 0.351965 0.107585 -0.003607 -0.407512 -0.140084 -0.034933 -0.572071 -0.289471 0.037674 -0.343116 -0.245051 -0.007955 0.268852 -0.326684 -0.130096 0.026181 0.139170 -0.096544 0.140409 -0.011808 0.455240 0.244649 -0.201010 -0.148980 -0.064783 -0.188561 -0.118158 0.471635 0.042913 0.199829 0.073766 0.136678 0.041582 -0.225452 -0.064776 -0.058542 -0.237696 0.131088 -0.031442 -0.495614 -0.114744 0.386155 -0.353767 0.301918 -0.191605 0.032243 -0.191591 0.031476 0.400830 0.249761 0.083444 0.163165 -0.039048 -0.211095 -0.061563 0.127439 -0.097733 -0.475641 -0.055884 -0.173743 -0.294919 0.102220 0.407753 -0.068091 -0.332308 -0.270700 -0.048804 0.083829 -0.182451 -0.129687 -0.061390 -0.458389 0.075157 0.347504 0.236667 0.032235 0.223738 -0.113732 
28 -0.053536 -0.037800 -0.104834 0.436052 -0.397125 -0.297922 0.564894 -0.194144 0.244295 0.250198 0.385825 -0.017782 0.395850 0.324960 0.230073 0.691694 -0.360608 -0.363968 -0.106190 -0.023918 0.109602 0.265306 -0.150761 -0.201482 -0.348966 0.062141 0.351568 0.101511 -0.144538 0.280765 -0.064123 0.264367 0.036374 0.009929 0.111408 0.039136 -0.039039 0.027062 0.226032 0.030629 0.358016 0.102167 0.041499 0.743586 0.143255 -0.059932 -0.057241 0.103527 -0.444776 0.161808 0.416512 0.085369 -0.053274 -0.446705 -0.115547 0.014437 -0.567666 -0.260324 0.066871 -0.326733 -0.205161 -0.022102 0.198616 -0.340080 -0.139943 0.040436 0.068399 -0.084012 0.208368 0.012749 0.437646 0.287345 -0.212641 -0.131668 -0.019644 -0.180627 -0.098543 0.403895 -0.009041 0.089089 -0.026410 0.095728 0.058939 -0.272000 -0.142901 -0.058436 -0.278298 0.128689 -0.081202 -0.561702 -0.135976 0.365507 -0.362897 0.323308 -0.254388 0.051916 -0.176840 0.075861 0.396381 0.230426 0.060927 0.143686 -0.092652 -0.162326 -0.072040 0.122994 -0.124951 -0.452045 -0.007535 -0.156232 -0.355123 0.077101 0.439265 0.018279 -0.258412 -0.283621 -0.050827 -0.040346 -0.164254 -0.155418 -0.013303 -0.383986 -0.054889 0.351255 0.280261 0.001434 0.266779 -0.208322 
29 -0.029000 -0.034604 -0.123528 0.489972 -0.416977 -0.289119 0.529991 -0.235693 0.286608 0.208811 0.399197 -0.056982 0.455093 0.365666 0.209144 0.726737 -0.422976 -0.382985 -0.102684 0.019969 0.152807 0.301544 -0.104060 -0.175036 -0.409994 0.081036 0.329593 0.104396 -0.151394 0.335721 -0.039826 0.242273 0.046560 0.007442 0.102460 -0.026655 -0.037952 0.047569 0.226487 0.051444 0.309966 0.090845 0.137609 0.782719 0.149927 -0.055420 -0.011732 0.144240 -0.418118 0.181515 0.432645 0.099695 -0.054562 -0.469453 -0.117972 0.023697 -0.606273 -0.228014 0.008675 -0.350732 -0.166129 -0.036315 0.190025 -0.366944 -0.208769 0.021533 0.053057 -0.091708 0.163348 0.011613 0.439394 0.310898 -0.179443 -0.143592 -0.048465 -0.211626 -0.068215 0.464784 -0.022194 0.113226 -0.029220 0.118244 0.081530 -0.307664 -0.108191 -0.045609 -0.304817 0.192067 -0.031490 -0.499177 -0.097984 0.410496 -0.363388 0.283510 -0.250977 0.144527 -0.167900 0.134375 0.388698 0.271177 0.047232 0.159313 -0.035742 -0.199449 -0.058035 0.086855 -0.112884 -0.442741 -0.003919 -0.085769 -0.332671 0.030023 0.439602 -0.028065 -0.264932 -0.283043 -0.045607 -0.011696 -0.123133 -0.177066 -0.025142 -0.391050 -0.090810 0.307719 0.283745 0.024071 0.298547 -0.209397 
30 -0.029635 0.001751 -0.055462 0.452702 -0.467888 -0.300647 0.513732 -0.251231 0.252264 0.215852 0.448643 -0.025460 0.472114 0.323392 0.196998 0.743315 -0.461466 -0.446036 -0.081243 0.012558 0.182765 0.321040 -0.070457 -0.109254 -0.387577 0.010751 0.338514 0.049807 -0.104000 0.345546 -0.081380 0.270360 0.102399 -0.025855 0.126993 -0.010957 -0.043062 0.079524 0.191609 0.091086 0.394151 0.085661 0.174246 0.766795 0.150811 -0.083141 -0.023527 0.165131 -0.433107 0.208000 0.514695 0.099241 -0.021440 -0.431689 -0.082978 -0.017063 -0.601945 -0.223473 -0.000536 -0.313713 -0.114121 -0.022697 0.126628 -0.371214 -0.242830 0.041495 0.042578 -0.025668 0.194580 -0.007920 0.453634 0.388631 -0.229017 -0.109372 -0.033621 -0.180780 -0.070849 0.380102 -0.039441 0.138500 -0.024793 0.136824 0.128827 -0.291626 -0.113803 -0.118065 -0.359120 0.206750 -0.119070 -0.541283 -0.083539 0.488692 -0.381849 0.307221 -0.250475 0.190537 -0.157727 0.145575 0.420773 0.267921 0.008171 0.166908 -0.001308 -0.235783 -0.059486 0.094218 -0.119509 -0.442357 0.041502 -0.100263 -0.358331 0.015224 0.475192 0.002304 -0.217387 -0.242982 -0.000953 -0.015189 -0.097420 -0.206930 -0.000767 -0.402125 -0.084820 0.268298 0.254542 0.001339 0.384105 -0.274358 
31 -0.005276 -0.003693 -0.058882 0.412050 -0.478800 -0.346275 0.540003 -0.234638 0.246218 0.179843 0.379087 -0.030600 0.436269 0.306546 0.229309 0.712014 -0.404854 -0.470260 -0.187636 0.001451 0.128421 0.288410 -0.095597 -0.133196 -0.478643 0.041200 0.364782 0.131307 -0.075958 0.377186 -0.104689 0.309419 0.101457 0.025313 0.075862 0.112879 -0.084956 0.039679 0.168467 0.074683 0.333014 0.077026 0.066207 0.743124 0.151916 -0.072996 -0.101807 0.105962 -0.497859 0.201947 0.471925 0.087110 -0.085433 -0.343977 -0.174767 -0.034058 -0.603379 -0.167285 0.027157 -0.276714 -0.167648 0.035221 0.157449 -0.305884 -0.150555 0.067804 0.056541 -0.039939 0.201690 0.037738 0.451350 0.362174 -0.149429 -0.156249 -0.014391 -0.218549 -0.067076 0.477262 -0.009026 0.065032 -0.010096 0.113480 0.123868 -0.335797 -0.114125 -0.150745 -0.318939 0.180332 -0.161926 -0.537598 -0.060992 0.476587 -0.366385 0.344546 -0.312084 0.126882 -0.187599 0.083603 0.451154 0.195172 0.000386 0.178424 -0.009460 -0.188451 -0.130375 0.102748 -0.121670 -0.404584 0.006895 -0.052196 -0.340422 0.040946 0.512733 -0.013418 -0.247652 -0.279025 -0.021763 -0.042505 -0.110817 -0.140574 0.064477 -0.406821 -0.092515 0.344626 0.222898 -0.047987 0.336966 -0.213496 
32 0.024359 0.014638 -0.012065 0.360158 -0.483712 -0.289665 0.510154 -0.197458 0.214660 0.236101 0.326085 -0.056606 0.413211 0.303813 0.197813 0.656605 -0.379060 -0.434469 -0.147808 0.045650 0.105311 0.251181 -0.021044 -0.085934 -0.476758 -0.048820 0.261133 0.075264 -0.062052 0.379251 -0.095790 0.327627 0.109390 0.063663 0.053023 0.107570 -0.051189 -0.006614 0.205177 0.060465 0.256022 0.025872 0.044272 0.699399 0.152202 -0.127390 -0.093845 0.098198 -0.411635 0.214041 0.414424 0.043521 -0.114698 -0.307913 -0.258046 0.003283 -0.537554 -0.132097 0.085548 -0.277770 -0.102957 0.044178 0.151683 -0.231813 -0.145399 0.096417 0.060194 -0.077949 0.170838 0.093638 0.404107 0.372747 -0.156524 -0.121760 -0.049740 -0.155493 -0.055521 0.479678 -0.093222 -0.007068 -0.072065 0.045333 0.115743 -0.309421 -0.096904 -0.209035 -0.288005 0.186459 -0.213880 -0.525577 -0.006276 0.460167 -0.363114 0.316079 -0.335070 0.120699 -0.186640 0.181696 0.390920 0.163575 -0.082708 0.127349 -0.007609 -0.134317 -0.142851 0.059374 -0.131052 -0.318450 -0.054788 0.000823 -0.300427 0.015448 0.516225 -0.062944 -0.165853 -0.245551 -0.034915 -0.045694 -0.061743 -0.126895 0.093320 -0.405440 -0.121572 0.291032 0.159410 -0.115980 0.301914 -0.186641 
33 0.009613 0.108193 0.015685 0.425840 -0.558171 -0.217395 0.499138 -0.106599 0.176106 0.212004 0.332708 -0.059019 0.406307 0.292306 0.260897 0.687786 -0.348540 -0.404492 -0.226243 0.033855 0.087012 0.283529 -0.027206 -0.142583 -0.485778 -0.063566 0.226617 0.126228 -0.128008 0.405426 -0.065132 0.406959 0.020558 0.004185 0.024918 0.098697 -0.057698 -0.031102 0.214995 0.016871 0.226900 -0.010856 0.014814 0.673367 0.200115 -0.117297 -0.098536 0.045668 -0.474179 0.221826 0.409865 0.073695 -0.050197 -0.254943 -0.281996 -0.010203 -0.523022 -0.072726 0.082749 -0.226930 -0.158339 0.018273 0.153778 -0.189348 -0.176812 0.019587 0.042772 -0.082338 0.146002 0.114235 0.425217 0.392600 -0.146379 -0.173700 -0.039864 -0.224917 -0.060833 0.599471 -0.009341 0.000739 -0.030868 0.091102 0.053248 -0.307711 -0.102130 -0.192701 -0.306180 0.199599 -0.258196 -0.473982 0.001703 0.475302 -0.448846 0.310273 -0.237393 0.113176 -0.153140 0.155702 0.470013 0.139564 -0.050057 0.205584 -0.024982 -0.204840 -0.091521 0.159824 -0.110274 -0.320318 -0.084304 -0.028346 -0.261461 0.051675 0.602482 0.010331 -0.211647 -0.239015 -0.006025 -0.088772 -0.033185 -0.139393 0.095218 -0.400380 -0.151077 0.287048 0.142646 -0.144427 0.344048 -0.113351 
34 -0.033685 0.118975 0.001016 0.381346 -0.512349 -0.282043 0.454015 -0.056047 0.079984 0.285795 0.342873 -0.118785 0.384463 0.223625 0.296066 0.613710 -0.310617 -0.387383 -0.250062 0.065804 0.053330 0.252294 -0.048712 -0.098004 -0.440878 -0.097252 0.296449 0.114911 -0.009301 0.297901 -0.048090 0.329777 0.021601 0.035529 -0.031865 0.122854 -0.121847 -0.088214 0.166801 0.018640 0.102294 0.040237 0.001432 0.641005 0.148230 -0.160568 -0.082102 0.027854 -0.448317 0.232235 0.376591 0.073749 -0.117787 -0.215304 -0.339869 0.028713 -0.455691 -0.023331 0.101819 -0.168945 -0.187641 -0.017966 0.153911 -0.118078 -0.127935 0.001638 0.041582 -0.048094 0.131308 0.154132 0.378436 0.344377 -0.144345 -0.202539 -0.039763 -0.188950 -0.053808 0.594030 -0.017080 -0.050443 -0.067428 0.009408 0.076593 -0.302248 -0.102073 -0.238559 -0.340987 0.170496 -0.264915 -0.451642 0.007075 0.468875 -0.407841 0.352052 -0.252879 0.086052 -0.116065 0.122854 0.431447 0.089738 -0.077087 0.208152 -0.035790 -0.134635 -0.159660 0.131276 -0.086552 -0.244350 -0.090651 -0.010587 -0.272441 0.024542 0.634946 -0.039688 -0.155845 -0.218277 -0.000351 -0.078256 -0.032875 -0.188643 0.117470 -0.443393 -0.149304 0.284535 0.022312 -0.121165 0.309880 -0.091766 
35 0.034630 0.192383 0.027734 0.371819 -0.570544 -0.161758 0.442152 0.069726 0.034705 0.350059 0.292952 -0.105335 0.359941 0.262444 0.286599 0.610476 -0.260798 -0.331495 -0.236382 0.066726 0.077915 0.245943 0.025142 -0.111030 -0.475445 -0.139007 0.203882 0.026089 -0.032746 0.351852 -0.048180 0.347436 -0.004451 0.041946 -0.155818 0.150041 -0.132605 -0.141102 0.162422 0.115250 0.095871 -0.026806 -0.075141 0.548938 0.106874 -0.205002 -0.103430 -0.025624 -0.486292 0.165096 0.340076 0.109509 -0.096550 -0.167763 -0.417012 0.066695 -0.366345 0.038633 0.182481 -0.158006 -0.200035 -0.010678 0.139732 -0.128289 -0.122388 0.017367 0.051772 -0.028859 0.054511 0.177952 0.397972 0.308589 -0.148175 -0.181672 -0.021035 -0.151140 -0.044314 0.612850 0.021201 -0.081688 -0.084182 -0.041276 0.053301 -0.290760 -0.065128 -0.226852 -0.323644 0.193951 -0.297011 -0.482678 0.027747 0.454633 -0.516247 0.301358 -0.251385 0.066190 -0.142878 0.163790 0.428078 0.030046 -0.157344 0.200859 -0.013880 -0.135876 -0.113035 0.160959 -0.107553 -0.190027 -0.077898 0.005446 -0.249767 0.013274 0.672879 0.005970 -0.055791 -0.192715 0.009105 -0.108021 0.005967 -0.115805 0.149923 -0.399238 -0.152566 0.255410 -0.066742 -0.216953 0.269929 -0.048602 
36 0.146037 0.288278 0.063198 0.382298 -0.564478 -0.184204 0.408432 0.065139 -0.011592 0.405698 0.356184 -0.105229 0.354447 0.274066 0.290628 0.611720 -0.299439 -0.306580 -0.273281 0.134800 0.117638 0.233542 0.045375 -0.108887 -0.460525 -0.142850 0.161612 -0.012347 -0.042450 0.300166 -0.050438 0.349665 0.034815 0.039214 -0.153963 0.170325 -0.148596 -0.129671 0.133211 0.118971 0.032421 -0.040774 -0.012675 0.533484 0.073673 -0.216495 -0.049323 -0.009766 -0.458278 0.145471 0.385179 0.153421 -0.103484 -0.167710 -0.456621 0.043447 -0.331371 0.035325 0.145662 -0.131302 -0.174262 -0.038412 0.128969 -0.115613 -0.121296 0.011318 0.067851 -0.012412 -0.026015 0.228743 0.378857 0.293869 -0.092019 -0.146868 -0.026371 -0.132281 -0.082155 0.663970 -0.025561 -0.072262 -0.121840 -0.030120 0.087116 -0.389237 -0.077935 -0.289645 -0.372415 0.244562 -0.341244 -0.434779 0.095101 0.528494 -0.554692 0.297616 -0.258943 0.094759 -0.139292 0.285212 0.415854 -0.033794 -0.195894 0.196769 -0.014049 -0.128981 -0.134187 0.175940 -0.086335 -0.158389 -0.101137 0.051815 -0.237483 0.029721 0.640385 0.084649 -0.079150 -0.133825 0.053774 -0.025721 0.028366 -0.104444 0.147920 -0.460635 -0.170670 0.282132 -0.100554 -0.244319 0.264923 -0.029225 
37 0.096804 0.280748 0.023933 0.389122 -0.614471 -0.167406 0.470621 0.051501 0.063628 0.389100 0.301703 -0.083097 0.410015 0.292713 0.304591 0.596413 -0.337835 -0.393362 -0.339928 0.165830 0.057104 0.250523 0.040628 -0.141714 -0.552142 -0.108843 0.194203 0.011945 -0.057143 0.359150 -0.065238 0.387140 0.045354 0.065349 -0.176689 0.121426 -0.205079 -0.150595 0.181318 0.095806 0.034624 -0.018410 -0.040893 0.604341 0.106076 -0.219978 -0.050816 -0.030625 -0.558763 0.140533 0.401426 0.162677 -0.070750 -0.098585 -0.499774 0.058351 -0.346021 0.030929 0.169410 -0.154092 -0.273608 -0.070757 0.198643 -0.174796 -0.108406 -0.016076 0.071927 -0.033180 -0.034127 0.217919 0.403049 0.310594 -0.105592 -0.186011 -0.024955 -0.166012 -0.085029 0.646503 0.035859 -0.058376 -0.136028 -0.029545 0.081740 -0.389242 -0.078286 -0.334143 -0.382442 0.222879 -0.355899 -0.436442 0.057540 0.492087 -0.532711 0.323824 -0.278465 0.080749 -0.167492 0.237487 0.472732 -0.027378 -0.211738 0.207276 -0.033234 -0.210078 -0.151547 0.256015 -0.135991 -0.241307 -0.087960 0.047600 -0.235749 0.081306 0.765334 0.076377 -0.121672 -0.202062 0.075677 -0.088772 0.035010 -0.125114 0.163689 -0.471568 -0.177333 0.339344 -0.097096 -0.285185 0.265099 0.007549 
38 0.138313 0.317456 0.011330 0.393083 -0.626854 -0.107436 0.425092 0.052173 0.138392 0.356233 0.230437 -0.050318 0.439711 0.344897 0.303620 0.614031 -0.400809 -0.395565 -0.270598 0.218092 0.048592 0.217585 0.140050 -0.201289 -0.526953 -0.144814 0.236287 -0.022253 -0.125442 0.312384 -0.051405 0.373775 0.047393 -0.006284 -0.118105 0.114971 -0.205400 -0.122412 0.210194 0.141501 0.004625 -0.001883 -0.015408 0.603487 0.099892 -0.249004 -0.041867 -0.041784 -0.532514 0.089291 0.428760 0.143685 -0.051608 -0.055181 -0.556939 0.087466 -0.303991 -0.033502 0.204548 -0.178280 -0.265417 -0.108705 0.216907 -0.230116 -0.110699 -0.029594 0.111482 -0.015232 -0.149257 0.200764 0.396406 0.329545 -0.142718 -0.149962 -0.009514 -0.218193 -0.065358 0.629661 0.054208 -0.052298 -0.144081 -0.064131 0.081553 -0.404596 -0.016227 -0.335205 -0.376544 0.217360 -0.358253 -0.411051 0.099068 0.484075 -0.525825 0.349390 -0.247170 0.064954 -0.177373 0.343532 0.409645 -0.036163 -0.221463 0.228032 0.005512 -0.232197 -0.147834 0.306198 -0.134816 -0.267619 -0.098993 0.068177 -0.176056 0.050553 0.732041 0.097338 -0.130319 -0.225982 0.101476 -0.030725 0.014161 -0.104568 0.155072 -0.489495 -0.186865 0.339294 -0.083042 -0.283895 0.240424 0.011811 
39 0.130488 0.296562 -0.029459 0.408387 -0.557654 -0.089455 0.403961 0.135000 0.185320 0.352701 0.192968 -0.044014 0.408621 0.350582 0.258698 0.637112 -0.414580 -0.417777 -0.299374 0.266764 0.051805 0.185438 0.218628 -0.185020 -0.498701 -0.130762 0.243103 -0.034456 -0.162997 0.292910 -0.020855 0.328621 0.051134 -0.024891 -0.129317 0.086207 -0.234179 -0.109458 0.225667 0.140775 -0.000701 -0.008681 -0.046127 0.541523 0.054945 -0.287785 -0.011313 -0.059014 -0.530971 0.037146 0.424752 0.093801 -0.051728 0.026804 -0.593661 0.089362 -0.218153 -0.032502 0.159735 -0.124964 -0.245176 -0.104911 0.215410 -0.226366 -0.076390 -0.019677 0.111257 0.031873 -0.217524 0.194349 0.374291 0.276087 -0.116081 -0.100043 -0.033589 -0.237394 -0.061852 0.616706 0.086025 -0.042292 -0.202325 -0.078622 0.054983 -0.439150 0.006565 -0.335813 -0.393057 0.207412 -0.393024 -0.329772 0.067580 0.412287 -0.521288 0.346930 -0.238279 0.021363 -0.250930 0.356899 0.377336 -0.081110 -0.181681 0.223067 -0.042587 -0.229674 -0.129637 0.329762 -0.139316 -0.189473 -0.084930 0.085615 -0.157587 0.063008 0.759629 0.114648 -0.115868 -0.280997 0.082767 -0.036248 0.005621 -0.102801 0.181141 -0.408040 -0.189909 0.340177 -0.044275 -0.282862 0.259899 0.024601 
40 0.121081 0.299533 -0.032578 0.404303 -0.533359 -0.060526 0.397956 0.153032 0.211178 0.351574 0.231304 -0.072766 0.428659 0.298814 0.280837 0.660730 -0.465920 -0.394765 -0.343420 0.360117 0.018817 0.145846 0.265383 -0.196899 -0.449591 -0.138404 0.227943 -0.039220 -0.167312 0.251254 0.000880 0.319785 -0.002157 -0.053767 -0.172048 0.047009 -0.230425 -0.159284 0.262824 0.167215 -0.085578 -0.028662 -0.019352 0.525404 0.059657 -0.316288 0.033306 -0.043905 -0.473486 0.008559 0.399495 0.057185 -0.011679 0.061356 -0.670390 0.141953 -0.137080 -0.048324 0.139710 -0.100450 -0.227736 -0.132769 0.202540 -0.195661 -0.111399 -0.092128 0.118876 0.027617 -0.239644 0.196741 0.332303 0.289808 -0.120377 -0.109421 -0.073699 -0.250087 -0.050151 0.654791 0.112281 0.001751 -0.198634 -0.050415 0.034272 -0.497111 0.097202 -0.329112 -0.384630 0.211458 -0.416719 -0.282890 0.052130 0.420978 -0.535505 0.361102 -0.204266 0.024500 -0.323196 0.367743 0.296531 -0.115524 -0.197678 0.215375 -0.043016 -0.198839 -0.120076 0.371562 -0.073843 -0.090830 -0.132907 0.059867 -0.087769 0.043377 0.794963 0.101564 -0.146376 -0.334485 0.086188 -0.006415 0.063274 -0.140330 0.175023 -0.423024 -0.176798 0.342987 -0.015911 -0.270574 0.303965 -0.007007 
41 0.087594 0.322705 0.006730 0.367041 -0.491207 0.034177 0.382042 0.153166 0.129014 0.259357 0.173639 -0.078783 0.396936 0.334914 0.259879 0.645388 -0.376733 -0.343309 -0.363930 0.341559 0.051942 0.114474 0.261631 -0.164469 -0.431764 -0.078860 0.135876 -0.064502 -0.208468 0.222111 -0.036986 0.364034 -0.040262 -0.044999 -0.195174 0.098545 -0.213318 -0.150995 0.263055 0.120230 -0.039130 -0.016712 -0.043122 0.494129 0.069261 -0.261759 0.032013 0.007011 -0.520535 -0.009960 0.336664 0.061398 -0.001314 0.036690 -0.627553 0.119797 -0.169229 0.005550 0.202469 -0.078411 -0.253562 -0.142975 0.196684 -0.193963 -0.088581 -0.088279 0.126647 0.035615 -0.192625 0.202906 0.332739 0.264348 -0.085707 -0.110833 -0.095203 -0.232950 -0.123809 0.600950 0.117937 0.014925 -0.167472 -0.022041 0.032499 -0.462636 0.117678 -0.298335 -0.281738 0.200038 -0.382740 -0.304574 0.047810 0.371680 -0.534800 0.318226 -0.143046 -0.001791 -0.291086 0.326988 0.266375 -0.136514 -0.252402 0.210415 -0.020420 -0.160557 -0.087080 0.331653 -0.055775 -0.105765 -0.123674 0.067077 -0.131922 0.067332 0.769134 0.091015 -0.093421 -0.296579 0.130847 -0.014272 0.049709 -0.076519 0.126004 -0.391833 -0.126695 0.306363 -0.058631 -0.297075 0.274359 0.058187 
42 0.138675 0.327287 -0.015411 0.346237 -0.410921 0.088527 0.351647 0.154639 0.081861 0.104868 0.199776 -0.160141 0.352993 0.316346 0.339812 0.662127 -0.316860 -0.293557 -0.465943 0.410402 0.039164 0.054030 0.288694 -0.104310 -0.337842 -0.020399 0.055601 -0.006491 -0.183055 0.096719 -0.120611 0.356072 -0.142977 -0.004736 -0.233906 0.193791 -0.185441 -0.127208 0.307337 0.062940 -0.072856 0.032209 -0.063220 0.456560 0.178071 -0.204718 0.035174 0.048285 -0.537347 0.036150 0.216759 0.051777 -0.030421 0.031158 -0.594181 0.102602 -0.137322 0.039712 0.113244 -0.042801 -0.274374 -0.162767 0.156030 -0.082777 -0.085673 -0.162595 0.147308 -0.045620 -0.044833 0.175873 0.314053 0.247648 -0.002942 -0.128473 -0.228614 -0.240295 -0.171909 0.648712 0.107882 0.044277 -0.046124 0.086729 0.010892 -0.416226 0.104586 -0.251592 -0.142262 0.193570 -0.347175 -0.281587 0.073133 0.362188 -0.545788 0.376277 0.008269 -0.076372 -0.289393 0.240804 0.261591 -0.232557 -0.261929 0.130991 -0.055557 -0.038266 -0.070159 0.304032 0.011798 -0.038704 -0.191749 -0.011931 -0.135410 0.090206 0.672164 0.110827 -0.147409 -0.366757 0.048466 0.022540 0.067529 -0.039791 0.043147 -0.332164 0.015640 0.321118 0.012573 -0.210043 0.327108 0.043644 
43 0.108248 0.302571 0.027963 0.233488 -0.344431 0.205477 0.320970 0.182235 0.030634 -0.023771 0.163508 -0.153425 0.256267 0.273367 0.306440 0.629250 -0.260374 -0.278471 -0.549755 0.465265 0.070890 -0.029679 0.273507 -0.029583 -0.259687 0.022299 -0.007680 0.044959 -0.148647 -0.050511 -0.160626 0.303302 -0.259723 0.029219 -0.332747 0.215692 -0.172152 -0.136227 0.257054 0.084303 -0.030416 0.034488 -0.067170 0.403924 0.227266 -0.208472 0.034745 0.138044 -0.466118 -0.005037 0.085297 0.079956 -0.013132 -0.019832 -0.490519 0.092797 -0.062264 0.060146 0.112517 -0.038209 -0.244356 -0.134909 0.111141 -0.099889 -0.147662 -0.192938 0.145860 -0.040561 0.009404 0.121351 0.217392 0.185790 0.039514 -0.071584 -0.237376 -0.207520 -0.180654 0.565121 0.109653 0.123583 0.065851 0.153444 -0.003539 -0.379297 0.156276 -0.267225 -0.035662 0.199093 -0.273812 -0.294427 0.063762 0.308403 -0.495983 0.289990 0.109606 -0.099655 -0.268427 0.159497 0.158915 -0.215473 -0.315520 0.148330 -0.103363 0.005918 0.003676 0.279940 0.054804 -0.021571 -0.149996 -0.071756 -0.115981 0.060053 0.600640 0.093056 -0.152542 -0.319298 0.077326 0.042593 0.162572 -0.040272 -0.021804 -0.257369 0.187897 0.252972 -0.002734 -0.208187 0.347723 0.058980 
44 0.132587 0.294136 0.016412 0.221543 -0.324464 0.256291 0.228884 0.183817 -0.008671 -0.046501 0.109915 -0.135718 0.205555 0.263613 0.245592 0.662543 -0.306896 -0.276885 -0.522807 0.466526 0.127219 -0.025715 0.355143 0.000036 -0.233253 0.011499 -0.100628 -0.007248 -0.177023 -0.051286 -0.131711 0.290054 -0.221112 0.040958 -0.340526 0.195740 -0.164713 -0.122453 0.262105 0.080706 0.001816 -0.017860 -0.082240 0.434345 0.221011 -0.220895 0.124637 0.193479 -0.444889 -0.008550 0.031958 0.067625 0.005066 0.067639 -0.557059 0.072242 -0.021739 0.141581 0.089231 -0.027855 -0.198874 -0.161205 0.060198 -0.078217 -0.159112 -0.190433 0.150628 -0.007803 -0.067520 0.145303 0.204281 0.164760 0.102693 -0.055997 -0.304214 -0.185087 -0.128332 0.626994 0.131277 0.212077 0.114148 0.157349 -0.004442 -0.376562 0.180127 -0.244949 0.012748 0.274862 -0.282167 -0.199569 0.082257 0.396513 -0.495383 0.203602 0.166988 -0.090272 -0.266191 0.169436 0.176062 -0.146124 -0.323820 0.149228 -0.076764 0.012008 0.033727 0.242025 0.100184 0.014624 -0.128232 -0.030156 -0.046747 0.079521 0.629930 0.031772 -0.132981 -0.283833 0.023117 0.072432 0.210795 -0.037760 -0.063411 -0.290853 0.244184 0.165084 0.017577 -0.219925 0.315729 0.100575 
45 0.143118 0.333638 0.001980 0.207946 -0.284843 0.261058 0.213005 0.199162 0.001344 -0.061785 0.125697 -0.149916 0.166409 0.289196 0.318566 0.629106 -0.285870 -0.245778 -0.505689 0.469951 0.136661 -0.044473 0.353536 -0.050138 -0.210050 0.027094 -0.102422 -0.005487 -0.213254 -0.063384 -0.171949 0.301173 -0.229609 0.027208 -0.360924 0.214511 -0.187225 -0.137602 0.259914 0.100564 -0.034612 -0.029548 -0.070150 0.421877 0.224388 -0.169962 0.112741 0.155007 -0.434389 -0.018693 0.059938 0.080749 0.056391 0.008230 -0.559977 0.121758 -0.014752 0.106577 0.091430 0.001907 -0.202135 -0.177884 0.068870 -0.050755 -0.159134 -0.153635 0.132556 -0.053884 -0.054868 0.117140 0.204785 0.128594 0.103187 -0.016393 -0.285566 -0.186419 -0.131483 0.606864 0.087182 0.183904 0.080020 0.193286 -0.046374 -0.382489 0.161658 -0.232901 -0.008079 0.263817 -0.232545 -0.152825 0.054651 0.351789 -0.494161 0.230408 0.189235 -0.089892 -0.268342 0.219458 0.122977 -0.219101 -0.320898 0.161644 -0.072241 0.035273 0.008868 0.238641 0.112421 0.063265 -0.159281 -0.029483 -0.083215 0.032048 0.608922 0.071421 -0.109708 -0.281087 0.030402 0.093184 0.246072 0.016502 -0.107148 -0.273818 0.237720 0.150412 0.011872 -0.180708 0.330100 0.130847 
46 0.134234 0.324754 -0.035254 0.271366 -0.356958 0.247782 0.213015 0.116316 0.046811 -0.037541 0.154566 -0.246625 0.271390 0.360086 0.361948 0.668441 -0.358095 -0.271566 -0.510105 0.532170 0.090509 -0.025864 0.330772 -0.084251 -0.292731 0.060600 -0.064602 -0.013148 -0.237457 0.004150 -0.123113 0.275715 -0.272901 0.057102 -0.341283 0.176397 -0.196032 -0.148120 0.310880 0.019755 -0.102448 0.013604 0.026226 0.435302 0.269718 -0.186221 0.164317 0.143112 -0.476507 0.039395 0.041475 0.061868 0.016627 -0.010598 -0.637868 0.121058 -0.029090 0.109955 0.082476 -0.049207 -0.260370 -0.191827 0.101979 -0.083528 -0.166905 -0.192933 0.229374 -0.103906 -0.063703 0.093770 0.219221 0.196222 0.098732 -0.077061 -0.344233 -0.217001 -0.138142 0.685115 0.091820 0.174412 0.071423 0.260406 -0.052466 -0.406651 0.234745 -0.257949 -0.039056 0.241002 -0.209598 -0.153314 0.067141 0.320290 -0.528430 0.298638 0.162512 -0.099766 -0.279828 0.239228 0.192781 -0.282967 -0.350403 0.175210 -0.062914 -0.010290 -0.019992 0.266540 0.063359 -0.001151 -0.239805 -0.016128 -0.121210 0.040043 0.648374 0.048706 -0.176340 -0.365724 0.037381 0.117108 0.189105 -0.024154 -0.075969 -0.291872 0.214571 0.221243 0.006894 -0.204684 0.332663 0.120077 
47 0.119088 0.290765 -0.025030 0.353131 -0.363355 0.260395 0.243905 0.125543 0.058311 0.068604 0.181520 -0.214823 0.309418 0.378541 0.316247 0.732344 -0.408602 -0.315292 -0.517489 0.504194 0.089157 0.042987 0.373639 -0.031022 -0.318796 -0.023477 -0.115193 -0.123487 -0.218038 0.069733 -0.070236 0.262999 -0.258535 0.042239 -0.304464 0.124577 -0.127023 -0.113804 0.315286 -0.008000 -0.066777 0.020850 0.064940 0.461470 0.292253 -0.212835 0.119710 0.166024 -0.474337 0.065506 0.080187 -0.005092 0.012697 -0.053824 -0.662585 0.142768 -0.023947 0.118621 0.029218 -0.048848 -0.265946 -0.131280 0.116941 -0.083094 -0.194670 -0.247355 0.258218 -0.050267 -0.076780 0.102420 0.229057 0.185775 0.070760 -0.080720 -0.325840 -0.148902 -0.137073 0.690954 0.062129 0.168951 0.030403 0.197904 -0.055092 -0.418050 0.285862 -0.211725 -0.110309 0.296617 -0.225472 -0.161709 -0.002374 0.355270 -0.561005 0.282937 0.139215 -0.077401 -0.297712 0.284646 0.255852 -0.292283 -0.401106 0.140173 -0.120318 -0.019725 -0.035215 0.198382 0.083637 0.005314 -0.233614 0.015996 -0.165919 0.019835 0.669109 0.000168 -0.166035 -0.364238 0.035304 0.095143 0.101752 -0.082371 0.009964 -0.264892 0.167242 0.204222 -0.025485 -0.211926 0.407048 0.075073 
48 0.094048 0.207458 -0.009095 0.362232 -0.443323 0.279219 0.226919 0.068045 0.113502 0.082276 0.201422 -0.301269 0.384527 0.466438 0.259414 0.747580 -0.414236 -0.349422 -0.464691 0.501699 0.142269 0.023929 0.355171 -0.052276 -0.376177 0.038339 -0.110656 -0.215199 -0.251223 0.130790 -0.030565 0.267797 -0.235997 0.111660 -0.293954 0.083504 -0.137362 -0.117253 0.300404 -0.065245 -0.058695 -0.024585 0.096325 0.462265 0.374606 -0.220108 0.138788 0.223657 -0.459135 0.063902 0.028063 0.039150 -0.008240 -0.072916 -0.703557 0.114891 -0.005314 0.124376 0.069919 -0.171230 -0.275213 -0.135665 0.161844 -0.145650 -0.173597 -0.263827 0.367473 -0.071030 -0.066766 0.023761 0.284572 0.223609 0.091031 -0.088954 -0.368681 -0.135251 -0.133815 0.644115 0.072581 0.205706 0.036183 0.271536 -0.078527 -0.341772 0.361354 -0.220088 -0.013315 0.274348 -0.199707 -0.190877 -0.042021 0.311397 -0.610163 0.308926 0.091613 -0.096881 -0.299438 0.276096 0.298468 -0.297032 -0.466090 0.190612 -0.104792 -0.065413 -0.055588 0.149588 0.085452 -0.102066 -0.284133 0.025331 -0.181263 0.040579 0.637396 -0.011916 -0.106352 -0.426208 0.101294 0.134891 0.101429 -0.054221 -0.048892 -0.285562 0.210752 0.252089 -0.027394 -0.260524 0.417300 0.060435 
49 0.109295 0.178324 -0.021731 0.361149 -0.434357 0.227404 0.246344 0.078507 0.111334 0.078056 0.218725 -0.364071 0.384423 0.462759 0.311473 0.731164 -0.423282 -0.382417 -0.424798 0.543719 0.142684 0.010067 0.360869 -0.040859 -0.382987 0.001960 -0.125201 -0.224607 -0.218995 0.148984 -0.058566 0.265140 -0.222952 0.154522 -0.326772 0.084627 -0.174178 -0.125350 0.264305 -0.066495 -0.072343 -0.031261 0.035970 0.517679 0.388340 -0.235700 0.131570 0.240202 -0.466879 0.046560 -0.011727 0.047569 0.005002 -0.107011 -0.694385 0.143763 -0.004456 0.097748 0.060685 -0.183465 -0.246845 -0.121311 0.182068 -0.152719 -0.223946 -0.259223 0.325412 -0.066519 -0.076705 0.056209 0.283411 0.231986 0.071723 -0.053519 -0.362729 -0.136891 -0.093212 0.715160 0.004224 0.163255 0.047652 0.275045 -0.059302 -0.308158 0.357829 -0.243044 -0.057413 0.305341 -0.169336 -0.154427 0.000888 0.270633 -0.565144 0.275612 0.058135 -0.059881 -0.278334 0.292340 0.301510 -0.270261 -0.424245 0.202189 -0.075427 -0.092915 -0.054547 0.086688 0.093093 -0.082479 -0.271167 0.051863 -0.169892 -0.027671 0.659048 -0.052224 -0.108454 -0.373078 0.098273 0.169821 0.120643 -0.065246 -0.060115 -0.300830 0.208010 0.187070 -0.039409 -0.216383 0.376107 0.067567 
50 0.096343 0.136602 -0.009243 0.378135 -0.409047 0.259539 0.257889 0.074361 0.120495 0.114888 0.240230 -0.351776 0.352195 0.429377 0.251606 0.714741 -0.435242 -0.391507 -0.443411 0.507041 0.170357 0.040710 0.418594 0.016844 -0.307656 -0.024573 -0.130838 -0.296517 -0.197881 0.133091 -0.026556 0.211838 -0.225185 0.152208 -0.330653 0.041474 -0.125585 -0.104995 0.256656 -0.101347 -0.072242 -0.034593 0.059470 0.460339 0.368464 -0.300262 0.118552 0.232646 -0.440617 0.019371 -0.028497 0.031758 -0.000756 -0.074543 -0.653134 0.145696 0.072218 0.105227 0.001951 -0.173599 -0.227086 -0.107534 0.161708 -0.089427 -0.217711 -0.310638 0.383639 -0.023807 -0.027454 0.033296 0.292912 0.223783 0.034011 -0.038685 -0.344302 -0.091844 -0.093566 0.640684 0.004367 0.163048 0.045133 0.245570 -0.113878 -0.322400 0.416510 -0.192055 -0.037899 0.299461 -0.190902 -0.129038 -0.064642 0.255148 -0.607877 0.296318 0.105710 -0.080258 -0.290947 0.292227 0.329608 -0.311174 -0.443111 0.140707 -0.076943 -0.059970 -0.061084 0.076404 0.106961 -0.033132 -0.260092 0.039040 -0.151098 -0.017181 0.646999 -0.039334 -0.074590 -0.391345 0.079308 0.141652 0.110285 -0.087882 -0.029157 -0.218768 0.238497 0.172028 -0.013833 -0.238179 0.450598 -0.016973 
51 0.033232 0.061988 -0.028514 0.420403 -0.428303 0.229914 0.267761 0.058456 0.112636 0.135191 0.243152 -0.320615 0.323458 0.429238 0.247031 0.712337 -0.449394 -0.370117 -0.399859 0.492275 0.149516 0.038660 0.367699 -0.007995 -0.352201 -0.038441 -0.097108 -0.228415 -0.231261 0.163905 0.030594 0.154251 -0.226379 0.135104 -0.298391 0.011712 -0.076154 -0.145158 0.294657 -0.184115 -0.029627 0.011022 0.090650 0.475608 0.348080 -0.261802 0.084568 0.198502 -0.417881 0.053817 -0.045339 0.013107 0.013438 -0.132055 -0.593549 0.205933 0.062296 0.067993 -0.003140 -0.137092 -0.260830 -0.102041 0.146856 -0.121766 -0.199520 -0.284101 0.389675 -0.065503 -0.026592 -0.043164 0.272908 0.215491 0.036864 -0.078224 -0.324621 -0.043809 -0.062331 0.633020 0.041501 0.165704 0.073322 0.252867 -0.118431 -0.307524 0.416467 -0.129612 -0.045181 0.266748 -0.083235 -0.077426 -0.081467 0.210451 -0.556544 0.296242 0.130589 -0.103133 -0.277698 0.282651 0.321807 -0.336830 -0.443907 0.110520 -0.119886 -0.113564 -0.084349 0.076586 0.026450 -0.101410 -0.256093 0.016756 -0.195284 -0.038528 0.591617 -0.051899 -0.089981 -0.409478 -0.002031 0.154172 0.067079 -0.127035 -0.019519 -0.243792 0.228887 0.181928 0.006855 -0.252231 0.439841 -0.041178 
52 0.073819 0.091793 0.064718 0.419966 -0.436536 0.245217 0.379606 -0.004995 0.036145 0.142162 0.275306 -0.299916 0.312802 0.426467 0.198077 0.690184 -0.539659 -0.418951 -0.403445 0.499170 0.181710 -0.032576 0.327550 0.119692 -0.349439 -0.045865 -0.026905 -0.294899 -0.175563 0.149816 0.067100 0.073303 -0.187269 0.096679 -0.275661 0.003111 -0.083061 -0.168989 0.212021 -0.149464 -0.041039 -0.038511 0.043639 0.423088 0.308604 -0.354758 0.105496 0.202629 -0.423327 0.016307 -0.148145 0.090986 0.003936 -0.144931 -0.515098 0.265006 0.075382 0.099714 0.000177 -0.126404 -0.196529 -0.004442 0.130517 -0.173733 -0.137572 -0.228673 0.399314 -0.018596 -0.058492 -0.048380 0.272173 0.223780 0.094126 -0.118100 -0.327719 -0.029553 -0.006215 0.550815 0.039541 0.185089 0.067011 0.236767 -0.216211 -0.357010 0.436315 -0.149093 0.005295 0.262234 -0.029894 -0.031126 -0.059534 0.246130 -0.579786 0.262657 0.184323 -0.151607 -0.264468 0.325085 0.296280 -0.290313 -0.458067 0.055759 -0.065124 -0.096358 -0.029608 0.092392 0.053740 -0.071014 -0.253350 0.053260 -0.150770 -0.137755 0.535835 -0.063987 -0.035551 -0.297266 0.021531 0.162008 0.181978 -0.140871 -0.030696 -0.263807 0.250820 0.134417 0.127667 -0.339600 0.400595 -0.098067 
53 -0.010485 -0.030688 0.124451 0.314311 -0.338774 0.168096 0.346462 -0.001474 -0.062342 0.191231 0.224467 -0.219661 0.193826 0.291201 0.125620 0.692774 -0.577840 -0.414569 -0.497622 0.391975 0.110934 -0.137596 0.260254 0.247886 -0.242621 -0.077150 0.101509 -0.222321 -0.076737 -0.066516 0.077477 0.039018 -0.149350 0.031341 -0.193327 0.058011 -0.134361 -0.172253 0.117237 -0.102923 0.072235 -0.071394 -0.018703 0.182565 0.236018 -0.378787 0.009991 0.171994 -0.410420 0.061817 -0.185579 0.089356 -0.067333 -0.008054 -0.366926 0.197520 0.126505 0.128277 -0.042021 0.018628 -0.050460 0.044778 0.054830 -0.065198 0.021241 -0.201442 0.284160 0.102049 -0.013989 -0.036689 0.231149 0.177999 0.101386 -0.102194 -0.340050 -0.099531 0.065109 0.366296 0.078954 0.210537 0.077194 0.137385 -0.282948 -0.417265 0.388343 -0.223434 0.041970 0.216171 -0.009466 0.050332 -0.093704 0.310969 -0.504031 0.251948 0.233708 -0.196368 -0.355942 0.219577 0.175809 -0.230035 -0.358358 -0.004780 -0.095727 -0.029730 0.059463 0.173820 0.027946 -0.020862 -0.218252 0.027437 -0.171622 -0.225187 0.508967 -0.013381 0.068301 -0.297811 0.056974 0.057087 0.277500 -0.173923 0.037066 -0.163671 0.331944 0.052204 0.232678 -0.248959 0.391738 -0.058877 
54 0.009423 -0.111557 0.148977 0.324330 -0.353611 0.072390 0.295725 -0.083954 -0.103264 0.181587 0.221888 -0.277751 0.220428 0.302132 0.122741 0.677946 -0.687308 -0.411383 -0.438345 0.413135 0.082349 -0.271401 0.236794 0.255477 -0.266421 -0.080082 0.190278 -0.193430 -0.071083 -0.149543 0.079769 -0.007531 -0.093271 0.014175 -0.135525 0.049377 -0.240880 -0.166476 0.095383 -0.160208 0.081500 -0.078382 -0.014564 0.191821 0.227351 -0.403079 -0.014945 0.147640 -0.388264 0.097172 -0.200081 0.121765 -0.137744 0.000247 -0.378227 0.230167 0.124850 0.109782 -0.012839 0.027860 -0.084616 0.009721 0.026124 -0.069639 0.126083 -0.173155 0.291037 0.005053 -0.000136 -0.071320 0.179721 0.136283 0.151771 -0.149577 -0.393504 -0.066009 0.094774 0.361306 0.098583 0.217840 0.115462 0.177207 -0.328659 -0.388086 0.336217 -0.255502 0.065963 0.173511 0.077458 0.176858 -0.026611 0.327506 -0.421447 0.222163 0.219773 -0.218910 -0.401166 0.245788 0.117996 -0.189476 -0.397220 -0.024217 -0.066952 -0.080668 -0.003394 0.200930 -0.022385 -0.070521 -0.215620 0.046802 -0.172007 -0.293684 0.439144 -0.037846 0.056454 -0.300348 0.010335 0.115188 0.311609 -0.128815 0.001976 -0.239964 0.395759 0.033869 0.301785 -0.267610 0.342570 -0.068467 
55 0.030327 -0.167177 0.178203 0.364811 -0.394828 -0.000311 0.348209 -0.157952 -0.044923 0.292950 0.288833 -0.276862 0.259841 0.351447 0.029803 0.757399 -0.711602 -0.356785 -0.412673 0.441728 0.085825 -0.241819 0.151862 0.236577 -0.256163 -0.048070 0.298666 -0.264514 -0.054672 -0.085977 0.156461 -0.041059 -0.076301 0.006757 -0.048479 0.065241 -0.204112 -0.179515 0.111559 -0.131592 0.044079 -0.128474 0.014352 0.211069 0.249941 -0.415698 0.007063 0.155114 -0.310523 0.149875 -0.194658 0.079342 -0.187970 0.006617 -0.442891 0.255216 0.130470 0.067022 0.024911 -0.028711 -0.018896 0.044062 0.010576 -0.104374 0.160609 -0.172425 0.344835 -0.008754 -0.082216 -0.056976 0.237746 0.163089 0.182901 -0.166798 -0.372568 -0.063340 0.116373 0.411832 0.065256 0.260546 0.076911 0.082872 -0.337970 -0.452132 0.368270 -0.201769 0.031465 0.253530 0.123010 0.149292 -0.014950 0.389533 -0.481472 0.218329 0.095458 -0.215118 -0.421858 0.242987 0.141928 -0.176565 -0.376552 -0.066816 -0.107739 -0.082060 -0.058140 0.157604 0.001032 -0.054719 -0.258565 0.113679 -0.155554 -0.377353 0.425031 -0.088185 0.091017 -0.302779 -0.016263 0.132826 0.266098 -0.146683 0.041251 -0.312043 0.317445 0.123955 0.317041 -0.289548 0.397881 -0.170595 
56 0.001785 -0.274809 0.222982 0.316622 -0.548575 0.038837 0.514813 -0.210330 -0.012814 0.384164 0.328703 -0.243789 0.401833 0.263774 0.017974 0.863387 -0.782942 -0.336621 -0.340137 0.379046 0.082394 -0.236352 0.065220 0.291668 -0.286401 -0.091404 0.323436 -0.380049 -0.042155 0.001509 0.099767 -0.076291 -0.010421 -0.043869 0.139025 -0.035132 -0.097159 -0.265947 0.184659 -0.166072 0.078652 -0.154440 0.087901 0.227705 0.258235 -0.504040 -0.148527 0.284262 -0.333681 0.243857 -0.162422 0.008977 -0.204075 0.080986 -0.453188 0.341932 0.087030 0.122291 0.101960 -0.045001 0.015713 0.052184 0.048675 -0.064742 0.215196 -0.136876 0.384825 -0.034177 -0.151345 0.033694 0.271804 0.276356 0.026737 -0.236307 -0.370604 0.026112 0.159653 0.243572 0.058344 0.293875 -0.035837 0.015141 -0.356912 -0.500371 0.474771 -0.245455 0.018965 0.190734 0.244777 0.177781 0.035923 0.349445 -0.470115 0.183282 -0.004647 -0.275580 -0.640223 0.227608 0.083623 -0.083837 -0.413244 -0.188209 -0.178900 -0.151462 -0.065617 0.191830 0.004725 -0.130384 -0.253770 0.193655 -0.092539 -0.500307 0.510963 -0.274186 0.071073 -0.255360 -0.040525 0.114812 0.208456 -0.251124 0.033413 -0.321869 0.260317 0.175956 0.393273 -0.418589 0.443715 -0.297869 
57 -0.000366 -0.296090 0.205974 0.261430 -0.518618 0.005975 0.474550 -0.193160 -0.007446 0.386468 0.265211 -0.229361 0.329206 0.233252 0.018751 0.796632 -0.730825 -0.357560 -0.319123 0.332322 0.055564 -0.244079 0.023799 0.294074 -0.287410 -0.053909 0.352150 -0.340904 -0.045915 0.009415 0.111439 -0.076445 0.023234 -0.013976 0.120025 0.004110 -0.117224 -0.253888 0.172391 -0.173538 0.067686 -0.153943 0.038113 0.205681 0.228541 -0.476196 -0.140389 0.269150 -0.320842 0.242294 -0.144953 -0.023804 -0.206020 0.112110 -0.430676 0.304685 0.076969 0.100308 0.118685 -0.039953 0.037989 0.048525 0.024296 -0.042306 0.240539 -0.075701 0.332053 -0.041946 -0.170632 0.025447 0.295397 0.246278 0.006112 -0.226398 -0.355922 0.009967 0.183643 0.215511 0.039929 0.275761 -0.045392 0.014623 -0.323528 -0.462982 0.437195 -0.282290 0.017662 0.177658 0.239363 0.155594 0.017826 0.283171 -0.414097 0.194110 -0.030926 -0.278507 -0.629586 0.153420 0.081525 -0.066807 -0.331897 -0.179335 -0.193941 -0.142107 -0.083122 0.213202 -0.030370 -0.131467 -0.234071 0.190147 -0.114954 -0.475649 0.512778 -0.270289 0.063215 -0.248632 -0.038320 0.107766 0.215592 -0.229204 0.029425 -0.291859 0.242484 0.149040 0.394638 -0.382873 0.420314 -0.300950 
58 0.032252 -0.258782 0.241269 0.281543 -0.518419 0.007694 0.528489 -0.228917 0.002630 0.348924 0.328107 -0.226134 0.362913 0.283610 0.015822 0.824347 -0.736449 -0.405404 -0.364144 0.379556 0.097127 -0.272052 0.031031 0.313030 -0.268799 -0.052468 0.356769 -0.349497 -0.044966 -0.016481 0.087032 -0.077251 0.002990 -0.006236 0.076745 0.021204 -0.118389 -0.242726 0.120092 -0.172097 0.109386 -0.149480 0.054025 0.183302 0.272963 -0.511440 -0.139549 0.287785 -0.359479 0.260195 -0.182215 0.038731 -0.186899 0.089456 -0.432582 0.330406 0.116279 0.132431 0.075838 -0.023195 0.001929 0.085853 0.024746 -0.094349 0.222673 -0.107375 0.372363 -0.019432 -0.120920 0.015836 0.275100 0.266483 0.035427 -0.210630 -0.361611 0.003468 0.152886 0.222747 0.054990 0.294031 -0.028367 0.030901 -0.342694 -0.518268 0.446855 -0.262695 -0.004582 0.200679 0.230573 0.124104 0.027461 0.366317 -0.414761 0.186960 0.026351 -0.254167 -0.600289 0.186038 0.108473 -0.091608 -0.400924 -0.152255 -0.188952 -0.150226 -0.101287 0.215003 -0.010820 -0.096050 -0.257333 0.171444 -0.120618 -0.540848 0.482321 -0.220970 0.066389 -0.230810 -0.021713 0.097593 0.237722 -0.248173 0.042741 -0.325345 0.273361 0.181996 0.407568 -0.383273 0.468117 -0.284688 
59 0.051638 -0.194672 0.221350 0.342651 -0.442217 0.013200 0.472147 -0.179070 0.005621 0.313767 0.287893 -0.267191 0.340441 0.273612 0.028215 0.782645 -0.702531 -0.372133 -0.369901 0.436834 0.068354 -0.218542 0.071156 0.255336 -0.281341 -0.109519 0.341813 -0.312207 -0.006905 -0.017044 0.130071 -0.037779 -0.040464 -0.015109 -0.005707 0.032049 -0.150144 -0.239650 0.127317 -0.122279 0.056321 -0.152029 0.025221 0.192669 0.273688 -0.499403 -0.110108 0.216323 -0.335477 0.194962 -0.154662 0.071441 -0.128540 0.045808 -0.396932 0.313505 0.102244 0.092127 0.050389 -0.033765 -0.010968 0.102973 0.083721 -0.120336 0.164651 -0.146545 0.323309 0.025516 -0.097541 -0.038696 0.249870 0.214162 0.115468 -0.179261 -0.299316 -0.030612 0.142463 0.309247 0.093148 0.256661 0.008450 0.018131 -0.363666 -0.465955 0.374785 -0.260821 -0.010127 0.187754 0.167133 0.128032 -0.001510 0.372507 -0.461012 0.176731 0.051365 -0.244046 -0.541873 0.264993 0.114645 -0.107934 -0.381830 -0.121058 -0.152314 -0.118005 -0.034231 0.206131 -0.024360 -0.051673 -0.255006 0.129009 -0.130085 -0.445478 0.466742 -0.153200 0.048270 -0.252021 -0.022295 0.068790 0.272837 -0.225968 0.060566 -0.279607 0.294130 0.143097 0.310001 -0.366078 0.429743 -0.203273 
60 0.034835 -0.207957 0.217702 0.340296 -0.465459 -0.008312 0.415339 -0.195641 -0.026996 0.306067 0.309680 -0.285441 0.306683 0.332777 0.042544 0.765363 -0.742405 -0.375623 -0.349289 0.410162 0.054406 -0.216344 0.075622 0.211522 -0.319169 -0.087471 0.323968 -0.334463 -0.029741 -0.050742 0.143125 -0.082090 -0.016897 -0.000012 0.001369 0.031126 -0.176379 -0.249210 0.159081 -0.140676 0.084624 -0.104864 0.028126 0.213855 0.274759 -0.484161 -0.073265 0.167816 -0.335698 0.222801 -0.175991 0.082976 -0.178186 0.011847 -0.406762 0.313625 0.093547 0.092663 0.025421 -0.022885 -0.059854 0.074438 0.070551 -0.114934 0.173813 -0.110269 0.352216 -0.024480 -0.063741 -0.080980 0.226763 0.169886 0.143798 -0.192578 -0.346614 -0.005868 0.160852 0.349353 0.084057 0.268925 0.051863 0.049290 -0.375954 -0.454522 0.371098 -0.200898 0.016553 0.179742 0.212078 0.181610 -0.018389 0.366899 -0.455375 0.189170 0.071857 -0.259893 -0.515206 0.258667 0.116263 -0.155397 -0.392398 -0.121213 -0.158110 -0.103177 -0.092421 0.175539 -0.044626 -0.060913 -0.239547 0.112821 -0.177488 -0.429745 0.428257 -0.165266 0.108891 -0.281851 -0.074651 0.077707 0.261581 -0.196797 0.022710 -0.284061 0.308213 0.148407 0.334649 -0.376101 0.416365 -0.231319 
61 0.066419 -0.128358 0.217290 0.300801 -0.351304 -0.032404 0.296457 -0.192166 -0.055200 0.253108 0.281014 -0.287735 0.133693 0.279189 0.008385 0.676644 -0.674073 -0.388476 -0.431905 0.411020 0.072068 -0.256148 0.072982 0.147359 -0.263658 0.009380 0.340689 -0.249650 -0.044247 -0.113454 0.100137 -0.067839 -0.037713 0.034520 -0.102817 0.094292 -0.221824 -0.178662 0.059238 -0.087460 0.121291 -0.127158 -0.002205 0.132231 0.186741 -0.409498 0.038242 0.127924 -0.252706 0.169620 -0.170124 0.059269 -0.174009 -0.047743 -0.370191 0.286185 0.117929 0.036473 0.019333 -0.000515 -0.011939 0.089314 -0.012658 -0.062506 0.175558 -0.110276 0.352399 -0.008465 -0.014370 -0.133376 0.191166 0.106356 0.218091 -0.074302 -0.323007 -0.062216 0.182261 0.387387 0.101275 0.285350 0.113430 0.076059 -0.388316 -0.508679 0.359309 -0.204910 -0.041156 0.209148 0.201068 0.150936 -0.063920 0.335296 -0.398312 0.243358 0.161096 -0.213289 -0.342960 0.203876 0.156782 -0.171099 -0.289725 -0.036320 -0.110248 -0.047542 -0.120214 0.248485 -0.066835 0.054931 -0.221698 0.083354 -0.182008 -0.424238 0.354332 -0.084453 0.071876 -0.274344 -0.047719 0.117638 0.287746 -0.073827 -0.008458 -0.237589 0.375422 0.130620 0.336734 -0.263818 0.479513 -0.167740 
62 0.063262 -0.068606 0.199126 0.209749 -0.195496 -0.099699 0.132163 -0.188399 -0.014590 0.182423 0.282233 -0.281500 -0.042604 0.287383 0.036047 0.573900 -0.654423 -0.424148 -0.470539 0.307017 0.075888 -0.275277 0.098603 -0.080338 -0.099683 0.140782 0.308423 -0.169706 -0.116333 -0.197885 0.030274 0.038872 0.032067 0.079871 -0.148184 0.210024 -0.406184 -0.054173 -0.093775 0.038828 0.126509 -0.183181 -0.079225 0.082320 0.030370 -0.217028 0.116959 0.004956 -0.221987 0.159319 -0.081474 0.045138 -0.229253 -0.158666 -0.437268 0.331969 0.035016 -0.081406 0.006888 0.030596 -0.004242 -0.048305 -0.047191 0.085842 0.246570 -0.016934 0.300424 -0.120983 0.074362 -0.079671 0.240497 -0.056436 0.153859 0.106704 -0.311367 -0.125415 0.242570 0.349234 0.028999 0.381651 0.119704 0.123044 -0.369530 -0.546627 0.228113 -0.164487 -0.090436 0.161947 0.153134 0.128545 -0.184970 0.478919 -0.358394 0.361616 0.330716 -0.158629 -0.110662 0.149039 0.121221 -0.216968 -0.147978 0.042991 -0.109086 0.095936 -0.314523 0.345150 -0.086461 0.268814 -0.188463 -0.053458 -0.258736 -0.404959 0.230769 0.016566 0.037293 -0.252461 -0.011225 0.180010 0.293339 0.123905 -0.160214 -0.225045 0.530063 0.252401 0.337791 -0.049285 0.556552 -0.060825 
63 0.071995 -0.080692 0.189203 0.219992 -0.132361 -0.127797 0.116524 -0.160402 -0.007609 0.215262 0.226649 -0.251513 -0.178233 0.270362 -0.006582 0.510147 -0.613984 -0.428868 -0.435069 0.237447 0.086770 -0.291753 0.112248 -0.120624 -0.066260 0.127530 0.290480 -0.138808 -0.080079 -0.173312 0.075298 0.104272 0.104000 0.070172 -0.225791 0.193263 -0.440964 -0.066416 -0.169197 0.097616 0.184178 -0.265618 -0.198001 0.043780 -0.003003 -0.156429 0.123826 0.001917 -0.140307 0.135503 -0.057534 -0.000473 -0.206985 -0.184156 -0.404455 0.365269 0.030302 -0.097265 -0.009310 0.049655 0.029618 -0.021534 -0.070848 0.110752 0.206351 0.037902 0.224929 -0.095624 0.068429 -0.082074 0.237953 -0.053557 0.124154 0.146083 -0.272883 -0.081831 0.299774 0.342350 0.028739 0.409614 0.127516 0.111445 -0.354555 -0.515415 0.201828 -0.160752 -0.186771 0.153623 0.145065 0.097399 -0.233177 0.499665 -0.291260 0.404672 0.375300 -0.113921 -0.045635 0.128334 0.117590 -0.153243 -0.110402 0.034227 -0.118509 0.069876 -0.345133 0.401276 -0.084051 0.367090 -0.157638 -0.044149 -0.241889 -0.457585 0.176029 0.002982 0.045889 -0.186456 -0.046351 0.219582 0.321270 0.136259 -0.176736 -0.202259 0.517801 0.239005 0.379151 0.042959 0.616389 -0.060249 
64 0.078729 -0.022376 0.195977 0.221864 -0.162769 -0.098520 0.046690 -0.192664 0.055755 0.177263 0.240832 -0.197334 -0.182390 0.274725 0.066923 0.435044 -0.589474 -0.416304 -0.497339 0.250103 0.042071 -0.280355 0.031377 -0.180649 -0.059219 0.149644 0.327042 -0.133049 -0.075287 -0.256665 0.102811 0.071164 0.079379 0.057461 -0.246759 0.162804 -0.432133 -0.081328 -0.187272 0.115160 0.137686 -0.206187 -0.115752 0.004146 -0.000342 -0.147621 0.182539 -0.014949 -0.139105 0.158368 -0.012931 -0.025578 -0.179711 -0.189002 -0.380974 0.335737 0.036161 -0.121522 -0.039976 0.010233 0.030161 -0.068705 -0.019917 0.126354 0.173930 0.004197 0.204052 -0.090505 0.103272 -0.072080 0.210510 -0.040069 0.035117 0.201131 -0.236358 -0.103253 0.293142 0.274358 -0.021611 0.377860 0.062286 0.132487 -0.333060 -0.523358 0.177084 -0.179208 -0.181139 0.103510 0.105965 0.021852 -0.249273 0.565698 -0.283880 0.428858 0.419939 -0.153676 0.006155 0.109734 0.085821 -0.150016 -0.103247 0.132486 -0.090309 0.101555 -0.348057 0.457933 -0.156014 0.326370 -0.170236 -0.040809 -0.247180 -0.398360 0.095704 0.045509 0.031751 -0.211423 0.032490 0.225194 0.319265 0.083694 -0.190644 -0.247769 0.498083 0.327667 0.367416 0.075974 0.562388 -0.017105 
65 0.116623 -0.056030 0.217823 0.212219 -0.151490 -0.094079 0.021350 -0.190068 0.052330 0.181779 0.269370 -0.199786 -0.189413 0.307201 0.025750 0.440018 -0.616201 -0.393316 -0.492331 0.270304 0.124125 -0.292702 0.021596 -0.167975 -0.007376 0.190244 0.362335 -0.178017 -0.098802 -0.214210 0.081828 0.059261 0.085792 0.055732 -0.287152 0.195453 -0.461481 -0.039868 -0.215033 0.157207 0.188432 -0.249334 -0.148761 -0.013374 -0.009067 -0.142978 0.216120 -0.023045 -0.073231 0.127740 -0.014046 -0.026017 -0.198881 -0.235755 -0.382267 0.393368 0.062804 -0.163779 -0.035846 -0.002676 0.052049 -0.061750 -0.069200 0.086724 0.175549 0.051916 0.217271 -0.107578 0.075223 -0.119830 0.259348 -0.067094 0.089148 0.258107 -0.285180 -0.073026 0.307418 0.275777 -0.045666 0.424692 0.074037 0.135251 -0.354314 -0.519846 0.146582 -0.200415 -0.190450 0.146629 0.125866 0.009228 -0.211357 0.561363 -0.274736 0.429995 0.401262 -0.111330 0.014572 0.143801 0.090790 -0.165279 -0.103151 0.131665 -0.070440 0.132928 -0.360043 0.437316 -0.129217 0.403676 -0.180601 -0.033512 -0.300015 -0.451914 0.076184 0.057425 0.097446 -0.202979 0.002535 0.284517 0.337371 0.134672 -0.212621 -0.261241 0.536909 0.306762 0.376837 0.074610 0.608636 -0.023139 
66 0.044252 -0.148355 0.217484 0.257090 -0.180138 -0.091903 0.064621 -0.198779 0.072427 0.211075 0.288553 -0.205022 -0.192364 0.298064 -0.002777 0.511957 -0.650716 -0.383037 -0.499248 0.209695 0.137911 -0.271067 0.071655 -0.143086 -0.019202 0.194330 0.324694 -0.224931 -0.087762 -0.199402 0.114867 0.111332 0.113319 0.082577 -0.194119 0.186581 -0.421392 -0.052164 -0.178114 0.067535 0.169660 -0.253625 -0.150235 0.042298 0.008679 -0.092142 0.209552 0.042690 -0.104666 0.135085 -0.001161 -0.039646 -0.213480 -0.227390 -0.432421 0.340826 0.009341 -0.103947 -0.030249 0.018712 0.045602 -0.067646 -0.013060 0.153785 0.214884 -0.002024 0.288847 -0.106046 0.087536 -0.039426 0.288295 -0.069362 0.063285 0.203081 -0.271134 -0.040188 0.310982 0.271770 -0.019971 0.446444 0.075524 0.074858 -0.358221 -0.532022 0.213554 -0.146117 -0.172546 0.159004 0.145063 0.069070 -0.237596 0.632621 -0.276284 0.411566 0.380105 -0.067750 0.002058 0.144138 0.145782 -0.162669 -0.115546 0.082777 -0.082219 0.131250 -0.405945 0.422319 -0.085261 0.391548 -0.212732 -0.049470 -0.264788 -0.448076 0.103742 -0.038113 0.101521 -0.272846 -0.065023 0.300612 0.294326 0.103910 -0.215045 -0.318543 0.557103 0.338961 0.328206 0.035791 0.646521 -0.026013 
67 0.058931 -0.149524 0.190950 0.286847 -0.217425 -0.068450 0.049445 -0.195137 0.088368 0.214651 0.282863 -0.215261 -0.167394 0.341067 0.033492 0.496380 -0.634809 -0.373364 -0.457306 0.213011 0.081604 -0.247932 0.052865 -0.167392 -0.012012 0.157738 0.324227 -0.254790 -0.084371 -0.203683 0.110871 0.062752 0.071191 0.060612 -0.220667 0.183431 -0.418664 -0.108498 -0.153662 0.074718 0.164233 -0.225054 -0.113797 0.048418 0.027763 -0.100120 0.219186 -0.003855 -0.134135 0.172094 -0.005044 -0.048978 -0.213578 -0.222208 -0.432755 0.341340 0.063546 -0.088020 -0.013449 -0.010408 0.041942 -0.053442 -0.015208 0.108724 0.209335 0.000634 0.316130 -0.121021 0.102456 -0.063273 0.285450 -0.045937 0.073681 0.193486 -0.279492 -0.036993 0.324761 0.299260 -0.044954 0.431632 0.075563 0.095531 -0.397287 -0.502163 0.200095 -0.115380 -0.169562 0.140741 0.154592 0.079769 -0.214829 0.591987 -0.277137 0.405773 0.332363 -0.057370 0.002387 0.136486 0.150529 -0.186211 -0.108361 0.103638 -0.081957 0.110441 -0.384992 0.429141 -0.091608 0.342908 -0.206940 -0.068081 -0.250337 -0.444707 0.121508 -0.037593 0.089723 -0.291500 -0.101332 0.279561 0.274150 0.116059 -0.164422 -0.293798 0.534621 0.312399 0.319675 0.029864 0.606599 -0.044395 
68 0.024583 -0.170074 0.198437 0.252732 -0.191252 -0.150686 0.076106 -0.232017 0.121376 0.243786 0.286736 -0.237112 -0.171488 0.350786 0.009949 0.501224 -0.643738 -0.424155 -0.460565 0.190410 0.080967 -0.255969 0.020100 -0.234691 -0.027300 0.221697 0.430042 -0.206889 -0.067389 -0.199816 0.068675 0.054018 0.134013 0.084767 -0.173651 0.236622 -0.484303 -0.068669 -0.138298 0.068117 0.150119 -0.234649 -0.154678 0.086933 0.005251 -0.087222 0.180052 0.005221 -0.168623 0.160697 0.065429 -0.025465 -0.224109 -0.243401 -0.392771 0.358152 0.009453 -0.168595 -0.037258 0.011638 -0.016592 -0.036943 0.044155 0.138661 0.285425 0.008897 0.313324 -0.158463 0.112377 -0.075165 0.343130 -0.081295 0.069235 0.149109 -0.247614 -0.099731 0.308110 0.301376 -0.025530 0.427128 0.097331 0.092202 -0.356084 -0.506283 0.176115 -0.133708 -0.173287 0.128645 0.142803 0.100998 -0.267794 0.606686 -0.264228 0.472969 0.348824 -0.028499 0.005522 0.070761 0.140122 -0.207193 -0.065921 0.112159 -0.073867 0.145153 -0.438999 0.447186 -0.101154 0.360090 -0.206978 -0.058774 -0.307692 -0.423710 0.133095 -0.033348 0.092326 -0.331394 -0.087656 0.281765 0.265145 0.103987 -0.159513 -0.314116 0.552068 0.347630 0.334843 0.079554 0.626261 -0.063371 
69 0.023319 -0.147878 0.192797 0.214966 -0.154208 -0.137452 0.084340 -0.189746 0.099157 0.278730 0.259894 -0.225737 -0.246118 0.411575 -0.005661 0.529373 -0.608818 -0.368415 -0.404454 0.199527 0.111453 -0.289781 0.079090 -0.259150 0.019019 0.228212 0.390802 -0.193302 -0.094636 -0.150304 0.080201 0.110363 0.076621 0.082530 -0.247974 0.254294 -0.498195 -0.084129 -0.143802 0.087923 0.197426 -0.330012 -0.160310 0.040706 0.028949 -0.092441 0.235400 0.028428 -0.126754 0.124288 0.096066 0.003046 -0.244333 -0.228129 -0.376780 0.319675 0.007414 -0.139410 -0.043443 -0.023362 0.012789 -0.031583 0.029427 0.148501 0.237885 0.057731 0.341680 -0.164989 0.105173 -0.051881 0.356329 -0.091523 0.065906 0.205003 -0.221488 -0.106080 0.306594 0.335020 -0.024819 0.488063 0.176282 0.111844 -0.350795 -0.494367 0.184078 -0.104189 -0.210672 0.156674 0.108357 0.159832 -0.284632 0.581267 -0.306007 0.460397 0.409709 -0.026285 0.059680 0.098575 0.116150 -0.218777 -0.037539 0.133780 -0.058838 0.130172 -0.373652 0.458989 -0.068959 0.430951 -0.185436 -0.042583 -0.269008 -0.450781 0.126861 -0.074839 0.106224 -0.271562 -0.102221 0.307027 0.300164 0.184188 -0.190694 -0.284890 0.595553 0.253384 0.329583 0.096905 0.660784 -0.046364 
70 -0.005264 -0.145799 0.195047 0.161086 -0.148070 -0.121450 0.044591 -0.180018 0.022884 0.256773 0.252865 -0.271443 -0.266751 0.363114 -0.018722 0.508062 -0.574834 -0.314140 -0.340586 0.179472 0.103147 -0.289278 0.072278 -0.213007 0.093816 0.216800 0.388150 -0.208065 -0.074747 -0.181053 0.029501 0.047155 0.022432 0.065384 -0.213849 0.283066 -0.447908 -0.105479 -0.125779 0.090585 0.184792 -0.281286 -0.088843 -0.001054 0.011637 -0.103161 0.228895 0.030141 -0.147851 0.187097 0.111669 0.008702 -0.259566 -0.238388 -0.340533 0.330836 0.024093 -0.172060 -0.048224 0.017754 0.020846 -0.008704 0.000579 0.191002 0.264496 0.048266 0.324681 -0.119837 0.123536 -0.053740 0.286378 -0.076192 0.009647 0.194126 -0.182501 -0.082320 0.295608 0.322331 -0.066400 0.482239 0.198675 0.128724 -0.365773 -0.444698 0.171433 -0.106907 -0.222233 0.096550 0.124356 0.174277 -0.249304 0.540015 -0.266352 0.454000 0.402326 -0.015140 0.064698 0.089320 0.063596 -0.257441 -0.048699 0.130850 -0.042155 0.163691 -0.257412 0.482476 -0.032479 0.406566 -0.171462 -0.055599 -0.271125 -0.434247 0.152635 -0.089457 0.126243 -0.253619 -0.107838 0.261458 0.235801 0.165228 -0.151151 -0.202163 0.597808 0.206500 0.276996 0.078014 0.633605 -0.100870 
71 -0.012573 -0.138226 0.192012 0.134350 -0.097602 -0.177392 0.047575 -0.202230 -0.005906 0.321765 0.277204 -0.236544 -0.293179 0.343118 -0.029296 0.490670 -0.553071 -0.298179 -0.325579 0.201680 0.106351 -0.295795 0.042991 -0.274826 0.110735 0.248184 0.402070 -0.123059 -0.073002 -0.180117 0.011411 0.044147 0.069972 0.075288 -0.214426 0.302022 -0.492276 -0.106457 -0.177967 0.081108 0.195279 -0.285116 -0.088231 0.021597 -0.023684 -0.058287 0.262729 0.035955 -0.109490 0.216493 0.140296 0.028813 -0.224146 -0.263476 -0.320982 0.328856 0.061099 -0.197656 -0.041924 0.038258 -0.017151 -0.017038 -0.014817 0.206795 0.249493 0.069176 0.279154 -0.099543 0.113364 -0.093942 0.264590 -0.137728 0.036322 0.191245 -0.171445 -0.070771 0.313668 0.333824 -0.063086 0.513617 0.210730 0.157714 -0.311566 -0.431469 0.128759 -0.083852 -0.250732 0.105470 0.136714 0.200951 -0.274557 0.551327 -0.263543 0.452306 0.401280 0.013843 0.087716 0.100563 0.054112 -0.241197 0.001987 0.114166 -0.036297 0.165253 -0.314410 0.470504 -0.061849 0.434427 -0.150178 -0.080884 -0.278352 -0.444278 0.155783 -0.090096 0.104012 -0.254271 -0.169946 0.277767 0.249901 0.171257 -0.158809 -0.208678 0.598335 0.205126 0.282140 0.109262 0.615006 -0.120866 
72 -0.008508 -0.118095 0.167300 0.078309 -0.084592 -0.120904 0.069897 -0.187952 0.022510 0.321141 0.277279 -0.230410 -0.227974 0.318602 -0.023501 0.486535 -0.597039 -0.357189 -0.321109 0.217534 0.061123 -0.306209 0.072214 -0.310550 0.119814 0.246815 0.456493 -0.153129 -0.073502 -0.160636 -0.019633 0.050878 0.112517 0.089407 -0.228238 0.335805 -0.528152 -0.105120 -0.202730 0.160313 0.147424 -0.316876 -0.103683 0.028147 -0.040923 -0.070580 0.240097 0.045984 -0.151805 0.167089 0.100381 0.066189 -0.188562 -0.240374 -0.329409 0.408598 0.083679 -0.247914 -0.055238 0.034198 -0.007321 0.044100 0.017570 0.167063 0.259542 0.036851 0.289632 -0.147586 0.088432 -0.098450 0.328300 -0.183470 0.017750 0.196712 -0.137540 -0.016203 0.309544 0.308245 -0.061003 0.500649 0.183641 0.156409 -0.299130 -0.405369 0.118380 -0.036748 -0.275628 0.110982 0.114078 0.175463 -0.277863 0.545924 -0.240886 0.484930 0.408016 0.039198 0.058527 0.074897 0.031944 -0.223364 0.039197 0.088220 -0.074883 0.159537 -0.342679 0.422052 -0.004955 0.446961 -0.141653 -0.107974 -0.262297 -0.406597 0.177909 -0.035791 0.095015 -0.250809 -0.090260 0.261702 0.224847 0.155000 -0.141084 -0.207974 0.543703 0.225401 0.265303 0.098095 0.613920 -0.126082 
73 -0.003108 -0.134880 0.156361 0.039736 -0.089270 -0.118649 0.004844 -0.201860 -0.014821 0.266005 0.292692 -0.215452 -0.220819 0.294353 -0.015835 0.428359 -0.581283 -0.353377 -0.334001 0.171721 0.051782 -0.336679 0.069822 -0.345929 0.160921 0.285002 0.488526 -0.105822 -0.061814 -0.176836 -0.060462 0.039935 0.086906 0.081332 -0.198993 0.334226 -0.502399 -0.099757 -0.198956 0.159962 0.120360 -0.263019 -0.026051 -0.016497 -0.054086 -0.028910 0.247893 0.022374 -0.166898 0.224500 0.105087 0.049686 -0.187299 -0.276980 -0.295059 0.432834 0.095919 -0.251688 -0.043687 0.060236 -0.057109 0.011825 -0.048252 0.186587 0.285593 0.096668 0.306099 -0.198107 0.139400 -0.125602 0.301819 -0.201108 0.018820 0.181821 -0.179393 -0.039828 0.338564 0.245680 -0.053913 0.508653 0.174246 0.221948 -0.266847 -0.451495 0.099708 -0.023007 -0.268183 0.077733 0.180131 0.170382 -0.249016 0.555953 -0.220696 0.511136 0.387931 0.045789 0.027001 0.014586 0.050334 -0.268396 0.044487 0.088051 -0.112731 0.178334 -0.381368 0.458177 -0.027651 0.474750 -0.149581 -0.135363 -0.291770 -0.458853 0.173335 -0.082181 0.123189 -0.279422 -0.140371 0.254257 0.200957 0.148179 -0.131965 -0.188178 0.537746 0.269224 0.280187 0.108287 0.597072 -0.130751 
74 0.049154 -0.126716 0.199124 -0.001564 -0.081053 -0.129928 -0.007121 -0.188468 -0.054804 0.275563 0.283656 -0.232966 -0.175727 0.294100 0.029149 0.396644 -0.564799 -0.330764 -0.348734 0.188544 0.040949 -0.302240 0.015499 -0.328153 0.130424 0.226916 0.526845 -0.044766 -0.094695 -0.129860 -0.069902 0.014049 0.124027 0.068134 -0.193068 0.374596 -0.503571 -0.074877 -0.159607 0.161580 0.050665 -0.255867 0.012511 0.038669 -0.061452 -0.042192 0.220374 0.015562 -0.211789 0.170722 0.125595 0.111369 -0.123215 -0.290651 -0.265093 0.443691 0.108489 -0.261602 -0.057711 0.103666 -0.077602 -0.025314 -0.048516 0.130107 0.279307 0.110912 0.308230 -0.252585 0.105170 -0.114616 0.320448 -0.209982 0.117280 0.151013 -0.192223 -0.061175 0.338068 0.307109 -0.046122 0.492762 0.201436 0.235307 -0.216056 -0.411428 0.054642 -0.057192 -0.224204 0.086357 0.196703 0.213447 -0.208641 0.562249 -0.267598 0.487413 0.366576 0.011883 -0.052573 0.058566 0.031516 -0.325545 0.028979 0.074055 -0.105722 0.198921 -0.403342 0.406658 -0.035647 0.427844 -0.139521 -0.115044 -0.316780 -0.429946 0.163710 -0.044040 0.115463 -0.292662 -0.163631 0.251614 0.247413 0.137419 -0.104511 -0.181301 0.523964 0.260549 0.287118 0.083740 0.531940 -0.102803 
75 0.065825 -0.038628 0.204914 -0.003183 -0.084840 -0.059291 -0.031543 -0.181662 -0.068859 0.234798 0.230675 -0.196833 -0.124578 0.301539 0.074688 0.426436 -0.565979 -0.319051 -0.348447 0.174830 0.018998 -0.262108 0.028337 -0.321415 0.132572 0.224410 0.531039 -0.043999 -0.076137 -0.091485 -0.101013 0.050336 0.096817 0.100491 -0.211675 0.406344 -0.476152 -0.084624 -0.173785 0.181534 0.026652 -0.212534 0.049287 0.053707 -0.062138 -0.058583 0.185555 -0.029113 -0.294572 0.168383 0.115958 0.150805 -0.104719 -0.253287 -0.345283 0.482023 0.114194 -0.202804 -0.044250 0.152233 -0.131702 0.017480 -0.029580 0.041676 0.274416 0.103371 0.336702 -0.187243 0.092743 -0.092120 0.332537 -0.208727 0.143147 0.162533 -0.217173 -0.071676 0.320002 0.382940 -0.030528 0.473241 0.238847 0.222264 -0.199287 -0.408650 0.075901 -0.060350 -0.207002 0.098480 0.219778 0.175695 -0.175157 0.577531 -0.298826 0.457607 0.322440 -0.019390 -0.083242 0.054214 0.006884 -0.334524 0.010304 0.080251 -0.101648 0.242662 -0.370660 0.370393 0.051738 0.413146 -0.126132 -0.110707 -0.314463 -0.429587 0.270135 -0.080693 0.105043 -0.314788 -0.165644 0.188149 0.197417 0.130937 -0.089563 -0.125460 0.531782 0.249498 0.279981 0.024234 0.457844 -0.074660 
76 0.014027 -0.047315 0.179342 -0.063624 -0.032598 -0.065176 -0.054457 -0.181713 -0.099524 0.254350 0.299771 -0.179513 -0.124610 0.221344 0.103958 0.382803 -0.522943 -0.335401 -0.370631 0.161294 -0.019739 -0.304877 0.004993 -0.329492 0.229009 0.249265 0.584252 -0.037029 -0.039313 -0.117828 -0.142053 0.010079 0.158396 0.089169 -0.194620 0.464985 -0.463083 -0.068972 -0.196420 0.181376 0.013302 -0.179232 0.086242 0.000454 -0.123279 -0.031716 0.212263 -0.088006 -0.297632 0.199772 0.159344 0.143156 -0.013887 -0.300778 -0.250443 0.584183 0.132657 -0.261610 -0.071505 0.251684 -0.099598 0.013309 -0.082770 0.108677 0.274404 0.159866 0.286629 -0.217940 0.117599 -0.126168 0.346796 -0.256433 0.064132 0.203093 -0.164076 -0.069417 0.366089 0.296671 -0.073268 0.453639 0.220413 0.250892 -0.149386 -0.461187 0.064476 -0.074307 -0.260033 0.056476 0.231100 0.203507 -0.188598 0.632836 -0.269051 0.561644 0.325078 -0.001181 -0.150434 0.015165 -0.014600 -0.385094 0.031043 0.037812 -0.123249 0.321678 -0.386859 0.409018 0.032285 0.497320 -0.095155 -0.160202 -0.370622 -0.451878 0.319330 -0.060067 0.137671 -0.289022 -0.175369 0.135370 0.153335 0.088646 -0.100735 -0.063036 0.490778 0.279353 0.283890 0.052064 0.482847 -0.089497 
77 0.030623 -0.040272 0.203798 -0.041841 -0.063146 -0.036780 -0.094199 -0.189426 -0.105337 0.217300 0.315770 -0.214503 -0.099556 0.194942 0.056104 0.391663 -0.484322 -0.285224 -0.343060 0.181500 -0.021595 -0.312434 0.045118 -0.273632 0.200559 0.235726 0.559350 -0.071694 -0.053506 -0.106268 -0.116071 0.046705 0.203058 0.082442 -0.120492 0.451744 -0.442328 -0.061835 -0.161043 0.144538 0.012921 -0.173695 0.076652 0.001248 -0.160794 -0.037958 0.211072 -0.120371 -0.271839 0.179209 0.116966 0.143922 -0.023080 -0.315394 -0.255895 0.598527 0.135008 -0.211448 -0.039517 0.231661 -0.085403 -0.006867 -0.137678 0.111405 0.299641 0.180011 0.302438 -0.225145 0.107289 -0.129533 0.361016 -0.243047 0.035883 0.215084 -0.172215 -0.078225 0.395757 0.272547 -0.094134 0.425834 0.168422 0.239219 -0.190911 -0.471331 0.099154 -0.107114 -0.213965 0.046302 0.272168 0.216293 -0.147954 0.660028 -0.278043 0.525768 0.265703 -0.031161 -0.151608 0.047087 -0.061093 -0.403790 -0.014512 0.031901 -0.118544 0.292676 -0.368546 0.419000 0.057832 0.487902 -0.131915 -0.162973 -0.375801 -0.492095 0.269097 -0.035802 0.193419 -0.265786 -0.145258 0.129216 0.125440 0.113348 -0.083386 -0.039974 0.484214 0.239524 0.280158 0.015500 0.522586 -0.085616 
78 0.041918 -0.012165 0.137804 0.045057 -0.114381 -0.118990 -0.035190 -0.184970 -0.019973 0.174096 0.283182 -0.193916 -0.094699 0.204049 0.067375 0.430174 -0.471837 -0.307947 -0.321794 0.189335 0.005434 -0.295360 0.022819 -0.304591 0.124261 0.232816 0.555934 -0.081301 -0.067855 -0.108136 -0.123785 0.022358 0.182708 0.092838 -0.178911 0.455391 -0.464142 -0.102228 -0.154381 0.210980 0.015128 -0.212791 -0.015236 0.074542 -0.153647 -0.020571 0.172016 -0.111364 -0.272273 0.160786 0.144107 0.193491 -0.028787 -0.366449 -0.268677 0.560408 0.060954 -0.208628 -0.020209 0.195511 -0.086940 0.001686 -0.097060 0.090131 0.291463 0.167184 0.308866 -0.240274 0.102388 -0.133422 0.332460 -0.203258 0.071123 0.157929 -0.116178 -0.104692 0.327352 0.301721 -0.021672 0.370173 0.171917 0.238667 -0.168102 -0.509865 0.097754 -0.078765 -0.206648 0.089120 0.221437 0.192873 -0.147699 0.604842 -0.279358 0.480274 0.250748 -0.040373 -0.137753 0.052265 -0.046875 -0.346098 -0.014635 0.059178 -0.108503 0.290809 -0.377659 0.385198 0.038243 0.431637 -0.143616 -0.159734 -0.364546 -0.487923 0.227661 -0.023912 0.171577 -0.266164 -0.119124 0.135950 0.212178 0.172124 -0.090100 -0.139159 0.504116 0.252084 0.270727 0.024773 0.519421 -0.069025 
79 0.055045 -0.004533 0.191838 0.112593 -0.095791 -0.049763 -0.063731 -0.206099 -0.022356 0.166277 0.279755 -0.179610 -0.139700 0.175470 0.015477 0.499171 -0.536659 -0.252880 -0.421047 0.192646 0.071425 -0.320220 0.079681 -0.296546 0.084143 0.215653 0.512242 -0.145040 -0.097485 -0.169760 -0.077090 0.060977 0.232459 0.118152 -0.125791 0.448054 -0.503400 -0.100044 -0.143851 0.169631 0.079286 -0.242155 -0.009719 0.082880 -0.121989 -0.051695 0.146153 -0.082448 -0.272590 0.156558 0.172179 0.193373 -0.025328 -0.381567 -0.318590 0.489691 0.036165 -0.173010 -0.029163 0.227784 -0.072868 0.054327 -0.126093 0.163213 0.346941 0.133982 0.309939 -0.201863 0.051795 -0.136272 0.354131 -0.268071 0.111874 0.196412 -0.137016 -0.053129 0.333984 0.280369 0.036369 0.427750 0.189759 0.233989 -0.242663 -0.543987 0.146052 -0.099106 -0.170216 0.078155 0.194632 0.240164 -0.188457 0.698217 -0.291228 0.462968 0.260908 -0.060782 -0.167478 0.165225 -0.074838 -0.405222 -0.048424 0.075333 -0.100925 0.303825 -0.401266 0.419426 0.093896 0.458407 -0.149427 -0.155085 -0.397327 -0.488991 0.205416 -0.039128 0.228355 -0.238794 -0.105568 0.149483 0.196799 0.154491 -0.123602 -0.155696 0.573172 0.254937 0.228439 0.013523 0.544014 -0.031770 
80 0.099144 0.083446 0.063634 0.232297 -0.159206 0.001007 -0.061703 -0.183783 0.120680 0.081674 0.202958 -0.156734 0.029721 0.174286 0.095290 0.553714 -0.486314 -0.166932 -0.400600 0.222860 0.079955 -0.255327 0.101741 -0.353006 -0.060731 0.172440 0.484701 -0.167527 -0.124168 -0.092642 -0.025897 -0.011694 0.222901 0.159893 -0.188516 0.414524 -0.440131 -0.237762 -0.060005 0.199633 0.048880 -0.202163 0.037715 0.134964 -0.107412 -0.051563 0.115138 -0.131554 -0.304120 0.121109 0.232029 0.274202 0.026982 -0.377520 -0.418543 0.480274 -0.025364 -0.007884 -0.004296 0.232370 -0.114614 0.137771 -0.135162 -0.016823 0.276490 0.108199 0.326507 -0.279177 -0.029006 -0.180170 0.306045 -0.213075 0.124695 0.153517 -0.086950 -0.045384 0.298744 0.336138 0.151956 0.322261 0.126491 0.281533 -0.185722 -0.546215 0.153570 -0.094035 -0.159409 0.110953 0.135160 0.263478 -0.140194 0.680156 -0.353222 0.485932 0.086079 -0.128980 -0.256262 0.182588 -0.054650 -0.475015 -0.077547 0.150785 -0.116752 0.286692 -0.450370 0.374271 0.121758 0.375934 -0.110195 -0.106049 -0.411109 -0.427470 0.282253 -0.021077 0.286838 -0.207804 -0.122497 0.019130 0.184343 0.047754 -0.072241 -0.183365 0.432680 0.295750 0.157701 -0.074386 0.459487 0.006637 
81 0.041967 0.143434 -0.010026 0.260621 -0.160084 0.033941 -0.054088 -0.206845 0.152298 0.000046 0.206442 -0.093899 0.036875 0.075548 0.169055 0.454690 -0.409555 -0.065037 -0.454839 0.224378 0.077536 -0.234773 0.117501 -0.411625 -0.095842 0.161467 0.504262 -0.169015 -0.065033 -0.190469 -0.079037 -0.066532 0.211748 0.151836 -0.186972 0.404567 -0.443395 -0.345025 -0.023128 0.238545 0.041203 -0.129089 0.081129 0.121222 -0.072184 -0.060568 0.124355 -0.151342 -0.294875 0.123863 0.307608 0.277943 0.132474 -0.448330 -0.397655 0.445250 -0.036660 -0.017716 -0.000272 0.248157 -0.132520 0.200654 -0.142541 -0.078380 0.264950 0.120034 0.332724 -0.286011 -0.061957 -0.300288 0.190415 -0.183591 0.106003 0.151132 -0.049488 -0.045501 0.327697 0.220210 0.237120 0.235071 0.129976 0.341674 -0.168670 -0.518953 0.142308 -0.139027 -0.113490 0.027465 0.085968 0.235748 -0.116588 0.660175 -0.330290 0.586008 0.046126 -0.169775 -0.333871 0.155535 -0.073832 -0.570410 -0.079343 0.213716 -0.118219 0.278094 -0.441344 0.374176 0.085710 0.339840 -0.051545 -0.185950 -0.425273 -0.382482 0.300164 -0.053555 0.372373 -0.188706 -0.108729 -0.035720 0.215430 -0.037506 -0.089492 -0.204943 0.393730 0.293869 0.102216 -0.077506 0.417324 0.040704 
