2620 128
726 -0.11759931 0.01535251 0.15781792 0.038992424 0.29609203 0.023116462 0.27605146 0.08415044 -0.23137142 -0.0066131526 -0.29001737 0.24987382 -0.071805514 -0.00647303 -0.18294951 0.118157126 0.061004743 -0.13150007 -0.041637097 -0.02290366 0.06491873 -0.029589754 0.022381864 -0.0049694628 -0.0154099185 -0.07508814 0.20868482 0.070683256 0.13600606 -0.10353436 0.0066216476 0.32417682 0.22909269 -0.00081611885 0.07500636 0.026003908 0.07631052 -0.120919876 0.0064517814 -0.20054641 0.18667875 -0.04092564 -0.07734113 -0.07016234 0.17923112 0.25763565 0.10687405 -0.13019593 -0.022265442 -0.36146212 -0.14535572 -0.046770513 0.13695404 -0.054768126 -0.10950274 0.007655621 0.06647182 -0.11160252 0.037091047 0.041539814 0.4309145 -0.17930865 -0.08945534 0.119140424 -0.089243926 -0.007954797 0.08627263 -0.09804857 -0.28554597 -0.2055172 0.017751561 -0.008451301 0.1270853 -0.03125404 0.2442884 0.03391842 -0.19469519 -0.11757 0.3817321 -0.07856786 -0.054066155 -0.028048817 -0.061053116 0.0878595 -0.008068585 -0.052740637 -0.0209191 -0.18919392 -0.04787792 0.08595226 -0.13081162 0.100652255 0.2610172 0.16751198 -0.12309482 -0.096785754 -0.14821963 -0.14021383 -0.0014201566 -0.04786613 0.0008513855 -0.05948958 -0.05292922 0.18315311 -0.29842183 0.098876536 -0.29476762 -0.015717447 0.06947989 0.005952655 0.11882306 0.15579641 0.15194367 -0.1054821 -0.21031706 -0.1269079 -0.106976725 0.13247682 -0.080360524 0.022222925 -0.28168124 -0.023725657 -0.33253062 -0.06245569 0.02043565 -0.08997605 -0.23176824 0.13034788
91 0.08787972 0.16880925 -0.037590846 0.06624093 0.040749583 -0.026538178 0.28117588 -0.37701508 0.12979676 0.0037895895 -0.077565566 0.10335239 0.047500413 0.2064922 0.12037452 0.026940044 0.063437246 -0.13807271 -0.12262623 -0.082933605 0.28863958 0.01508609 -0.041027546 -0.20543684 0.1378518 -0.09832492 -0.016459918 0.039809227 0.006061714 0.08777402 0.0564705 -0.06932105 -0.08589719 0.09490117 0.07176002 0.27295917 -0.10917439 0.0036204774 0.40528858 0.24514857 0.021843754 0.11520906 0.110858366 -0.28957307 -0.09572511 0.24073273 -0.1361732 -0.29982638 -0.14008923 0.019588288 -0.07137664 0.09937646 -0.24199492 0.13206577 0.20104353 0.16308732 -0.27528897 0.1393482 0.1946179 -0.376067 -0.07807342 0.16913721 -0.068299375 0.004300587 -0.15311633 0.021719053 0.016840007 0.1175644 -0.082446136 -0.09219004 0.06107068 -0.11303682 -0.04836307 0.04343239 -0.18180503 0.19722211 -0.2589147 -0.15159693 0.04061982 0.11908853 -0.0023523902 -0.14617258 0.005405881 -0.18816482 0.0039697248 -0.080531366 0.1344854 0.2289546 0.33355793 -0.023184363 0.077846296 -0.23132603 0.07371358 -0.011405446 -0.01990462 -0.23824997 -0.020003125 -0.31904227 -0.033352837 0.16944738 -0.08238592 0.0089198 0.14363815 0.058632486 -0.30111247 0.013691055 0.045980617 -0.04882458 -0.16181634 -0.063345075 -0.06424995 0.2654754 0.010257452 0.24773274 -0.030472692 0.18711229 -0.41541728 0.03201105 -0.27604708 -0.0006302582 -0.20011054 -0.15225443 -0.22304523 0.10385549 0.16192563 -0.18462482 0.0014208924 0.18423112
1144 0.2029495 0.029024733 -0.13996153 0.09803123 -0.18149124 0.083360225 -0.11579288 0.013214286 -0.102755204 -0.011344812 -0.08851605 0.05198648 0.14570016 -0.09778293 -0.21845244 -0.12013052 0.13011177 0.24900483 0.17570886 0.041296545 0.0596678 0.050589476 0.27625248 0.03574003 0.17044011 -0.13705982 0.015823577 0.06857259 -0.037352834 -0.086959004 0.34561986 0.16114786 -0.018723993 -0.098660074 0.008587269 0.074150346 0.05308406 0.0559844 -0.22216927 0.13054717 0.094383724 -0.080781005 0.19171697 -0.0708725 -0.04149858 -0.095679566 0.015381282 -0.12691474 -0.18892115 -0.2907232 0.11299538 0.04876136 0.28615898 -0.28566 -0.21177293 -0.05418708 -0.029340567 0.23328012 0.20471497 -0.2985229 0.12692183 0.095616095 -0.023693843 -0.11659544 0.046239693 -0.08151722 -0.15507093 0.035404354 -0.39469022 -0.18238622 -0.30251968 -0.08500086 -0.09066426 0.043693375 0.014169156 0.026699506 -0.14186148 -0.08442866 0.008267098 -0.27179155 -0.17674461 -0.040343456 0.13271306 0.049779575 0.10977911 -0.15157832 0.0024164577 -0.14800069 -0.0013824773 -0.024231622 -0.1273846 -0.19680837 0.17000729 0.007241695 -0.08010835 0.08123969 -0.16370595 0.05915818 0.14458063 0.075517625 -0.15174043 -0.24162877 -0.14116165 0.24479038 -0.24529071 -0.017815808 -0.058657244 0.025456104 -0.16811115 -0.058109935 -0.024964057 0.07421827 -0.2477935 0.3496224 0.16092359 0.03182261 -0.29434562 -0.131373 -0.0042371415 0.0011174853 -0.111265905 -0.3454696 -0.25319293 0.11563984 0.07444006 0.05012782 -0.055420075 -0.13284081
1173 -0.12880343 0.08312847 -0.17413525 -0.10556805 0.34051383 -0.08446056 0.17287348 -0.2295295 0.012344434 0.122816145 -0.077573895 0.1480864 -0.19909869 -0.21169177 0.12597351 -0.01454014 0.1640966 -0.12424815 0.056426197 -0.05689885 0.32976854 0.037408758 0.06766677 -0.015162035 0.074318 -0.07915017 -0.015880477 0.15685664 0.21330562 0.009034655 -0.004072114 -0.186064 0.031148905 -0.1361615 0.038990982 -0.013638054 0.2254302 0.35956183 0.23834616 -0.019409833 0.32185662 0.10523522 0.03617561 -0.20747258 -0.055005603 -0.030202735 0.03606668 -0.12691931 -0.015564417 0.08669801 0.053865816 0.04715012 0.118353054 0.10414408 0.10291627 -0.09920343 -0.23364402 -0.01667022 0.2993146 -0.008652484 0.16802464 -0.05407986 -0.1403195 0.039387126 -0.07441997 -0.10748291 0.045543395 0.16586332 -0.08754428 0.105110064 -0.123296864 0.046027407 -0.13770868 0.20900002 0.05670931 0.07437838 -0.1678983 -0.09904692 -0.1719119 -0.09155345 0.22724786 0.19251484 0.16334309 0.059385166 0.075445436 -0.15608034 0.11273803 -0.071036026 0.008787588 0.16259758 -0.08129439 -0.20296969 0.08861681 0.18133283 -0.107067354 -0.21105944 0.14917275 -0.12929775 0.11803868 0.024293914 0.24647129 0.21303219 0.13697165 0.16066372 -0.18512547 0.07242382 -0.14449424 -0.16251767 -0.116336845 0.057440154 0.043527216 0.17936634 0.07407355 -0.024024202 -0.048553914 0.09582739 0.027153192 -0.02907522 -0.10390245 0.00013570992 0.053493258 -0.09369241 0.005816504 0.08416339 0.05273767 -0.22236545 -0.118927866 -0.010942274
1723 -0.06562371 0.2276255 -0.20353006 -0.093977906 -0.21112642 -0.013770601 0.15262231 0.22656977 -0.050786182 0.13130574 -0.13244379 0.3823546 0.08596383 -0.08712304 0.1521996 -0.18415903 -0.21421754 -0.18629552 -0.06966126 -0.21937993 0.28189465 -0.21524186 0.1169209 -0.076104835 -0.023049064 -0.02113503 0.21949996 0.3155981 0.2532418 -0.048806213 0.06761366 -0.006895379 -0.17188643 0.23834236 0.115716025 -0.05550074 0.13115646 -0.028015865 -0.1818739 0.018226136 0.095159106 0.11451765 0.085123554 0.07835411 -0.077781774 -0.12971057 -0.0816398 0.06480661 -0.13514607 0.040747274 -0.15991521 0.004852532 -0.0096427845 0.23691776 -0.030963002 0.07758424 0.1574308 -0.13838403 -0.11796048 -0.13150366 -0.13570407 0.105334535 -0.039635666 0.047107667 0.13804674 -0.15379685 0.0033760504 0.018758057 -0.15537575 0.10133667 0.01669621 0.14558674 -0.06460146 0.16785142 -0.015661621 0.096688 0.21210514 0.009551084 0.08497291 -0.05692258 0.007920217 -0.11724714 0.08682637 -0.057321277 -0.0627169 -0.114608064 -0.05033394 0.18275718 -0.010919521 -0.056559827 -0.09221994 -0.1445642 0.030380528 0.066060625 -0.121850416 0.030239688 -0.20972383 0.20223555 0.11635263 -0.09033285 -0.26912412 -0.2440673 0.107328855 0.36735955 -0.08686924 0.16717032 -0.056372892 -0.047065098 0.051047515 0.054567024 -0.023736041 0.16566378 0.07663618 0.17209455 -0.14785336 0.07347768 -0.048572972 0.11880644 0.14970058 0.11850605 0.033507306 -0.19193648 0.132069 0.015600539 -0.044854388 -0.31094542 -0.0027761362 -0.124897204
960 -0.045670517 0.15120678 -0.31898186 -0.07741548 0.112297885 0.05415838 -0.021517439 0.21133412 0.038467936 -0.1556403 0.16493888 -0.06429669 -0.23936419 -0.035715546 0.05710384 0.13742046 0.057515055 -0.05418548 -0.13695498 -0.25915816 0.1682895 0.009551241 -0.08913527 0.106341444 -0.041626956 -0.27854624 -0.1633421 -0.17988454 0.029622333 -0.04345793 0.05017325 0.027955262 0.20033363 0.17185014 0.016664503 -0.039455973 0.10585922 0.17522389 -0.08502253 0.15331788 0.19101717 0.015316824 -0.036253724 -0.055339325 0.24584033 -0.27700898 -0.15128693 0.092197634 -0.34251326 -0.1914255 -0.078485094 -0.097367875 0.028737394 0.15465951 0.057261202 0.15896486 -0.17015707 0.22920842 0.033903513 -0.06575026 0.19295941 0.1035972 -0.017387899 -0.047516026 0.06641918 0.034552634 -0.04440976 -0.14062801 0.08105844 -0.005716743 -0.09979103 0.1921056 -0.28092 0.06692413 -0.20763782 0.07857627 -0.07240576 -0.12695913 0.46999255 -0.16053213 -0.049614333 0.027793013 0.13485935 0.08341025 -0.114146546 -0.034167018 0.123414814 0.25853148 0.05584052 -0.20434995 0.20901747 0.22709152 0.33540925 -0.19083393 -0.06519979 -0.040712077 -0.1387486 -0.1771782 0.31644598 0.13479677 -0.2079429 -0.09491496 0.17202114 -0.0046242443 -0.3784404 0.34067672 -0.013507902 0.16149077 0.107243344 -0.003012198 -0.14192145 0.25434348 -0.17058747 -0.055846512 -0.15721822 0.20871559 0.08078864 0.38059643 0.2106552 0.008137314 -0.16687326 -0.062270135 0.08517638 -0.0066557205 0.024281237 0.042805586 0.018943978 0.14980388
915 0.005635798 0.15241826 -0.04559618 0.20775978 -0.05787147 0.0212916 0.10326437 0.03446148 -0.32670978 0.2897564 -0.00877384 0.162695 0.11089096 -0.24019022 0.04523148 0.17096488 -0.03788044 -0.09666908 -0.10443714 -0.019126317 -0.0645669 -0.15856574 -0.017786255 -0.16434404 -0.033787936 -0.23683995 0.008256227 0.03970647 -0.024150968 -0.19557871 -0.036952104 0.08381399 0.16942567 0.2327345 0.10121808 -0.1302526 0.18410976 0.14794397 -0.08287642 0.06868623 0.25884938 0.07275643 0.19482337 0.15783782 0.0143848965 -0.19337747 -0.01169255 -0.12671228 -0.1526591 -0.2995512 0.06308798 0.3437117 0.11001836 0.07744661 -0.1195726 0.008849923 -0.19861339 -0.0373362 -0.31548634 -0.12447777 0.0097060045 0.050850417 0.16816814 0.19482993 0.0712528 -0.13058896 -0.13920563 0.098360695 -0.14354567 -0.028358975 -0.11309976 0.26074716 0.0662843 0.1032459 -0.047391865 0.15186797 0.24228074 -0.24717599 0.3275501 -0.07308088 0.14273238 -0.1519616 -0.010102752 0.20145464 -0.1622031 0.13128443 0.046723325 -0.07206163 0.107281744 0.009193376 0.03307091 0.04552295 0.23514219 0.017288493 0.045373663 0.22377613 -0.2161298 -0.061707206 0.11990648 0.23610173 0.1048694 0.10658164 0.06634674 -0.010839063 -0.11551021 -0.07295471 -0.20567632 -0.09859923 -0.16285948 0.015889993 -0.09346536 0.022101494 -0.106663786 0.009741431 0.035940174 0.0696461 -0.003713994 -0.040418454 -0.082663216 0.20902474 -0.039860044 -0.2716888 -0.15450811 -0.11291613 0.12690516 0.022839706 -0.00959507 0.049074806
1198 0.06782459 0.25267938 0.33423743 0.160064 0.0809353 -0.1373955 0.4398103 -0.11517478 -0.08210467 -0.36365855 -0.19403853 0.09525696 -0.15228416 -0.16799062 0.119995356 -0.06606755 0.037945118 -0.03317888 -0.07224355 -0.13341407 -0.16517678 -0.31767732 -0.10631993 -0.107806936 0.04570862 -0.08722312 -0.084856756 0.23963681 0.11084955 0.007852717 0.108903736 0.27678466 -0.30266002 0.18679996 0.16454253 -0.015034305 0.057744186 0.17559971 0.056895267 -0.07460411 -0.038403668 -0.15337607 -0.08286369 0.11091291 -0.3179289 -0.31719503 -0.051380537 -0.21750814 0.0775102 -0.025731998 -0.042727746 -0.016471399 0.121437 -0.1511803 0.064433254 0.006021808 0.20516865 -0.071938396 -0.09706519 0.024288688 0.18960983 0.39210647 -0.04208422 0.111814365 0.08146328 -0.10986477 0.056227196 -0.14484023 -0.018090112 -0.1041881 -0.010720488 -0.15322645 -0.18499061 0.46005386 0.109060355 -0.049113665 0.15409817 0.06941199 0.12214158 -0.054501552 -0.2063178 0.025283268 0.17198035 0.14643112 0.093298316 -0.032849927 0.2634466 0.03524297 -0.032201517 -0.1062003 -0.055745438 0.0709091 -0.23452042 0.14557722 0.20099832 -0.018280847 -0.118664265 -0.20623313 0.16729842 0.04654347 0.048742447 -0.09607552 0.11413864 -0.031863168 -0.17618854 0.17017466 -0.1651146 -0.12817763 0.20628409 0.23707616 0.13644814 0.3146458 0.19877526 0.21573913 -0.03073608 0.37379837 0.12370198 -0.10306591 0.0051593278 0.023699317 0.021703776 -0.15372011 -0.111977965 -0.11045909 0.0009452844 -0.2732614 -0.16867988 -0.16988026
400 0.026319465 0.16253296 -0.052309632 0.0106631145 -0.049526706 0.1843131 0.015904224 -0.054873846 0.0075775655 0.11395149 -0.09891664 0.19872785 0.27512515 -0.2366546 0.1777442 -0.1740669 -0.10083848 -0.07227231 -0.026090857 0.096952535 0.067360476 -0.13957608 0.2198764 -0.30212796 0.12529697 -0.1001022 0.1639637 -0.38399553 0.16438034 0.065537155 -0.02246889 -0.035699114 -0.013464283 -0.01073575 -0.03476913 -0.0031833583 0.27029303 0.017404066 0.142973 0.18583076 0.012295039 0.25380242 -0.004042877 0.17577039 -0.020219564 0.109868325 -0.041641787 -0.17102847 0.024147205 0.16778111 0.15848063 0.19195938 -0.017862199 0.036635276 -0.01991954 -0.15905698 0.06738947 0.09675064 0.05054217 0.027252736 0.087090455 0.051976535 -0.023784641 0.054965973 -0.07447698 0.119113676 -0.3913908 0.14241245 -0.18770553 0.20325384 -0.13478258 -0.04247927 0.05632588 0.18056564 -0.18933749 0.19919431 -0.058198377 -0.123915985 0.23675722 0.15075475 -0.1238797 -0.037579253 -0.06475901 -0.29215354 0.10921562 -0.0445985 0.15175612 -0.080854006 0.0011228478 -0.10269029 -0.21529822 -0.0551641 0.27931145 0.042626202 0.059715398 0.035514392 -0.05618443 -0.34163937 0.3187911 0.09829553 0.06518493 -0.1659485 0.23301762 -0.12031061 -0.18200357 0.277948 -0.15108187 -0.15396167 0.07626744 0.17433703 0.26849145 0.11458978 0.3174891 -0.14783737 0.07929571 -0.0056951432 0.013685586 0.04391662 -0.04766443 -0.008201924 -0.039001938 -0.23025116 -0.09099964 -0.075620875 -0.057460878 0.12176745 0.02709728 -0.14657855
916 -0.12104445 0.15919459 0.10477766 -0.2685166 -0.08759601 -0.18577439 0.016532099 -0.0013622963 0.040155403 0.007706236 -0.062994696 0.12644914 -0.11565761 -0.24830489 0.09790316 -0.14498186 0.086264454 -0.32316506 -0.07182751 0.102063864 0.09972019 0.12029186 0.124578 -0.24706076 0.08812669 0.15086788 0.06651342 -0.07587947 0.029271727 -0.028245743 0.04717947 0.041054443 0.19301297 -0.06671189 -0.31904146 0.21998829 0.028524673 0.17895365 0.070139036 0.25272846 0.3360081 0.15946257 -0.014030328 0.14563914 0.05910742 0.06446596 -0.11155366 0.0667906 0.03529366 0.0644439 -0.014420664 0.013997629 -0.016513413 0.32783654 -0.017216716 0.062987864 -0.18982366 0.029795084 -0.03137142 0.032197174 -0.00774038 0.19223064 0.04677855 -0.081220284 -0.024337716 -0.21390332 0.16560264 -0.020435836 0.011306869 -0.058368813 -0.099426806 0.24885586 -0.14026055 0.12875098 0.15021394 0.19138977 -0.13836513 -0.013062986 0.35124695 -0.020565165 0.06136644 0.08818176 0.1509049 0.021287136 0.120939784 -0.04458139 0.019494478 0.23953503 -0.028427476 -0.1836805 0.049424965 -0.03095892 0.06656733 0.17533469 -0.06403082 0.19447465 -0.3482516 -0.049448505 0.37442094 -0.056456868 0.28201377 -0.04746338 -0.1525385 0.09665639 0.22001374 0.0060927067 0.13020712 0.07117967 -0.12232433 0.09805951 0.134129 0.10543368 -0.1966052 0.38221467 0.07289956 0.05765272 -0.30375424 0.2573147 -0.045254927 0.17271063 -0.20602123 -0.08450826 -0.04910321 0.11747554 0.13506599 0.16451336 -0.19341575 0.001175482
892 -0.0723637 0.124905914 0.15401524 -0.108896025 -0.3127994 0.090551965 0.12003493 0.047487725 -0.34601885 -0.01109433 -0.3781399 -0.0715366 -0.29287177 -0.11503337 -0.12952632 0.19438279 0.01822445 -0.08733192 0.04321537 -0.18433659 0.079227045 -0.109734826 -0.012402692 -0.037584532 0.014774914 -0.32582694 -0.22538984 -0.106127016 0.039751194 -0.2768196 0.049056765 0.23473422 -0.12085244 0.14482714 -0.021415064 0.021945301 0.3889253 -0.014263801 -0.093694076 -0.07337782 0.14937301 0.18024597 -0.38447773 0.09517174 -0.07604981 -0.17745054 -0.058750086 -0.0035412572 -0.34623513 -0.10301593 -0.0862032 -0.110331275 -0.07242073 -0.31247476 -0.04367657 0.015064508 -0.065162025 0.1157066 0.02438208 0.0080720885 0.1754206 0.11240245 0.011635473 0.32820824 -0.006950758 -0.030273123 0.020999646 -0.15823182 -0.19266573 0.114428714 -0.1024139 -0.027293209 0.03100873 0.26983854 0.07172679 0.24431482 0.07649818 -0.123031035 -0.118309006 -0.15503927 0.32232177 -0.15573882 -0.091825135 0.21895109 0.08885774 0.062179316 -0.028324304 0.049288824 0.2672748 -0.06368748 -0.17648141 -0.13064404 -0.25196677 0.057063777 -0.07212433 -0.14324234 0.12595369 -0.0371941 -0.026790762 -0.10470022 0.08486512 -0.30057815 -0.008981371 -0.18047307 -0.13710733 0.021793092 -0.01648612 -0.06127259 -0.024796747 0.088828705 -0.06699875 0.10525386 -0.07147229 0.32597426 -0.11824433 0.012938145 -0.02216239 -0.14158803 -0.22072081 0.05305286 0.2074007 -0.3907987 -0.061488047 -0.17373247 0.18353355 -0.104381494 -0.028000368 0.046626978
672 0.053950377 0.07624546 0.0808028 -0.037008118 0.034427453 -0.13805112 -0.057366088 0.0040731286 0.054129023 0.141983 -0.23927754 0.06170936 -0.17449374 -0.16219266 0.053566426 0.044973064 0.13171409 -0.46234947 -0.07325393 0.111869395 0.29516646 0.06304719 0.1272561 0.02735259 0.17639485 -0.1927198 0.11895245 -0.027094085 0.057792988 -0.15066734 -0.10756579 -0.12968615 -0.29366294 -0.008018089 -0.16111419 0.26836777 0.17881745 -0.088180855 0.13119507 0.32946277 0.06119571 -0.043026295 -0.016181568 -0.09156103 -0.11617006 0.1585526 0.04324929 -0.07622085 -0.119573414 -0.054050658 0.18211703 0.17819342 -0.006116615 -0.10825095 -0.16647728 0.059883118 -0.06992775 0.29219276 -0.16058779 -0.16655128 0.029390313 0.14075585 0.098198146 0.05216549 -0.019282173 0.13609499 0.06442023 -0.08712154 -0.044333752 -0.21598381 -0.14520961 -0.013834196 -0.14764063 -0.08327874 0.1702219 -0.017004399 0.13007222 0.07036416 0.41509172 0.0603117 0.00012501047 -0.16009083 -0.041052956 0.028939277 0.08297863 -0.1802855 0.1708341 -0.072040714 -0.12485446 -0.23220846 0.040616475 -0.08935154 -0.050077777 0.2628746 0.10472316 -0.08054945 -0.16845286 0.1536608 0.22612308 -0.052332733 -0.020395664 -0.27591875 -0.062805496 0.33708268 -0.21112588 0.25296772 -0.092153065 -0.0006950568 0.04178802 -0.04406946 -0.017869854 0.15327951 -0.08886435 0.020113615 -0.044573426 -0.07090619 -0.30054983 0.04168612 -0.24018113 0.11632637 -0.0668836 -0.015736943 0.03808896 0.05315059 0.118908964 -0.12578961 -0.16788702 0.12993613
912 -0.009264312 0.05739295 0.20091054 0.09061307 0.17251918 -0.015954832 0.14501545 -0.20492096 -0.11499211 -0.3508538 -0.18598257 0.10728621 -0.15431726 -0.02794327 0.26898804 -0.12167046 0.16167688 -0.21366984 -0.13155825 -0.06652447 0.24178785 0.0577071 0.04699007 -0.3273673 0.1764253 0.05549964 0.032681096 0.18490472 -0.039991315 -0.091630325 -0.10352083 0.046439376 0.065747045 0.05341613 -0.07205527 0.1119538 -0.03835328 0.05230539 -0.0987146 -0.22010481 -0.25040448 0.14444862 -0.086770035 -0.2777204 -0.055362172 -0.30551144 0.013042225 0.09636412 -0.053511526 -0.15513861 -0.047553826 -0.26907572 -0.12608573 -0.053309646 -0.12197388 0.12020515 0.108469516 0.08909741 -0.29680514 -0.06463644 0.28507826 -0.1397574 0.007066892 0.0042720316 -0.085076936 -0.08937566 0.36091515 0.04003919 -0.21448272 -0.14427143 -0.04233579 0.068707794 -0.045522302 -0.0054781395 0.097808264 0.20006464 0.020845743 -0.040083937 0.14308655 -0.4830619 0.1476734 -0.026139308 0.22852659 0.0018181695 0.16372882 -0.028764138 0.02799205 0.1793836 0.080857016 -0.03968462 -0.024877002 -0.045995798 0.08050511 0.11745411 0.020844828 -0.1114273 -0.041433744 -0.0568941 0.019542556 0.16906841 0.23622073 0.08756992 -0.11524876 0.38409153 0.034077056 0.27566317 0.18964197 0.106267035 -0.20200025 -0.034012526 -0.08415929 0.23727958 -0.01568225 0.07345165 0.26288518 0.2640838 -0.15604913 -0.093418665 -0.11371424 -0.13080986 -0.10174918 -0.06274 0.07928839 -0.12544009 0.13545196 0.0404089 0.03249816 -0.15875404
899 0.008175008 0.20046097 -0.119722925 0.1501369 -0.29954302 -0.0033257206 0.0077647804 0.072972216 -0.32971272 -0.28304645 -0.17160478 0.27998704 -0.20814024 -0.14724074 -0.061528955 0.32254007 0.31683406 -0.15836823 -0.014552988 0.1346241 0.33607915 0.02436472 0.18412404 0.052060828 -0.04441034 -0.026084887 0.030019552 0.01967986 -0.2501535 0.24771807 0.078780524 0.11068597 0.1429411 -0.09239049 -0.19080713 -0.07868926 0.042401306 -0.0062285597 0.46454924 0.05551997 0.025715735 0.06858438 -0.15617874 0.04666782 0.062289618 0.04789879 0.10974698 -0.14344409 -0.15462443 -0.042886492 0.08491382 0.16275187 0.10874565 -0.09297383 0.036191206 0.122124374 0.031723402 -0.25245127 -0.19832149 0.16809587 0.13651614 0.09231524 -0.018875303 -0.046766683 -0.2032314 -0.31795624 -0.21767777 0.046419244 -0.06273927 0.03764728 -0.119245365 0.13237911 0.01633123 0.16004285 -0.14314035 0.028803347 -0.30255234 -0.13597748 0.028750068 -0.0448563 -0.039377365 0.07593684 0.13959995 0.05005492 0.058123026 -0.056139585 0.08268141 0.05220554 -0.25170016 -0.25025725 0.110478565 0.09605872 0.032665696 0.21830979 -0.10786448 -0.31197095 -0.082955696 0.048043046 -0.054444205 0.08162121 -0.04244878 -0.1921529 -0.029837174 0.101544835 -0.15195918 0.012787966 0.04517169 -0.16546232 -0.23960717 0.18506859 -0.024440097 0.2562008 -0.10385597 -0.08742368 -0.082487054 0.012481253 -0.07131065 0.08780049 0.08127546 0.06389546 -0.025391605 -0.077559754 0.08813437 0.27502394 0.14624614 -0.021847544 -0.09033226 0.09808923
1871 0.10415957 0.1134864 -0.12730484 -0.013732254 -0.078660004 -0.06825623 -0.03998736 -0.02457843 -0.12820134 -0.07478523 0.023124723 0.28096855 -0.22348769 0.0789867 -0.064491384 -0.18312107 0.033552457 -0.083827145 -0.09377519 -0.06843778 0.26338437 -0.38559386 -0.0456985 -0.19665338 -0.221852 -0.13158579 -0.024886277 0.023145905 -0.06344951 -0.23800042 -0.1743457 -0.060390577 -0.11102384 0.13021618 -0.036759906 -0.22829667 -0.10955982 0.27092302 0.06832911 -0.10779343 -0.10863584 -0.022836747 0.0006964294 -0.34576243 -0.0030289092 0.107998 -0.0062541286 -0.058345307 -0.04540658 -0.25815096 -0.14532441 0.0037744658 0.07449454 0.052619807 0.13143446 0.35775465 0.0576644 -0.09189364 -0.23081206 -0.12937357 0.16542928 -0.14236927 0.06521847 -0.2556215 0.044890244 0.12988392 0.17042428 0.10143003 -0.3444642 0.10909731 -0.08157393 0.07068127 -0.02160553 0.016387863 -0.16385329 0.15950744 -0.13593943 0.08977932 0.10065111 -0.065672934 0.10344566 0.21115291 0.15162389 0.13089336 -0.15328416 0.25732553 -0.028013121 -0.050449543 0.0037875287 0.097163744 -0.013454388 -0.22473106 0.10853935 -0.0144771915 -0.12195588 0.13867475 -0.23877023 -0.03071643 -0.0077777947 0.03992721 0.10352559 -0.27448088 0.2527242 -0.02894258 0.047549233 0.2656343 -0.08671802 -0.095003046 -0.038988095 -0.18706632 0.22203049 0.32542056 -0.11190006 0.06433041 -0.06691374 0.015155215 -0.045224484 0.18090981 -0.12352955 0.039712697 0.0063414453 -0.25794664 0.08959358 -0.11675182 -0.00011100318 -0.08055518 -0.10931394 -0.0521233
1408 0.04119255 0.09405684 0.031995557 -0.09280578 0.016716098 0.15584949 0.09829392 0.06058094 0.119114496 -0.051299006 -0.07271927 0.3196449 -0.17015506 -0.030209718 0.21811447 -0.1499665 -0.075634204 -0.18809341 0.123286486 0.17759447 0.15679483 0.032071516 -0.03639446 0.030044135 -0.17800586 0.19848888 0.07073027 0.011990701 -0.15083995 0.093489625 0.2793193 -0.04471429 0.033862792 0.019352488 0.22122641 -0.29599836 0.16927975 0.14732589 0.2037103 -0.032955408 0.25082046 0.04193927 -0.03816153 -0.3021985 -0.1898166 0.12141304 -0.11503451 -0.10622337 -0.084229626 -0.12548798 0.1882031 0.08917903 -0.08125957 -0.10817378 -0.06131982 0.1819011 -0.028213006 -0.012894052 0.002321365 0.026793757 0.1461937 -0.15142561 -0.059876326 -0.0612976 -0.0052969838 0.17344776 0.0825514 -0.102938816 -0.18639106 -0.132905 -0.12299481 0.14294031 -0.02222503 0.059740838 -0.21762183 0.21033676 0.115816556 0.18044011 0.038654912 0.21368586 0.10063339 0.24961889 0.003771945 0.08082967 0.3370386 -0.03118794 0.20246203 -0.23513368 0.08272001 0.030715939 -0.07646601 -0.15314871 -0.14542556 0.05489693 -0.0927092 -0.081982315 -0.43873346 -0.06712149 0.12366807 0.1701718 0.243816 -0.09867554 0.08028027 -0.039928816 -0.0152628245 -0.16513766 -0.294115 -0.1597949 -0.18086329 -0.002713388 0.50851214 0.22954561 -0.0668476 -0.080305316 0.09107476 -0.37362757 -0.14402056 0.16334116 0.12280547 -0.07366708 -0.0738 -0.2278345 -0.0922759 0.15894823 0.1667273 0.24589881 0.011479055 -0.22081411
1166 -0.05143895 0.08748125 0.14777927 0.067942336 -0.065651596 0.041692976 0.064151876 0.05083532 -0.34706596 -0.08397515 -0.28143978 0.13613781 -0.22813654 -0.025353113 0.18195869 -0.10813236 0.093445204 -0.18533644 -0.054157883 0.17339684 0.10926669 -0.029809918 0.031518392 -0.18823184 0.18313447 -0.32881957 0.03650649 0.03851926 -0.08492289 0.084453896 0.08176107 0.1468064 0.2423874 -0.02202027 -0.04161436 -0.017406898 0.02633841 0.052780125 0.5160231 -0.026786929 -0.1912203 0.066649005 0.2052533 -0.40086818 -0.08837445 0.088417344 0.15355358 -0.19764957 0.11950305 -0.11433191 0.08073869 0.07766554 0.0906158 0.03775148 0.17701063 -0.2024741 -0.06977057 0.01154919 -0.06609108 -0.17102957 0.27504376 0.32472807 -0.041043334 0.13080065 -0.083697066 0.06282253 0.19427964 -0.17702058 -0.20667592 0.078598745 0.15707244 -0.009189461 0.02449681 -0.05124837 -0.023203766 -0.022529822 0.12828617 -0.044724073 0.15546054 -0.08463978 0.26600114 -0.021833299 -0.01098881 -0.09114484 0.11801401 -0.055996444 -0.031963605 0.17580466 0.016705757 -0.10932325 -0.047838088 0.054814942 0.26280886 0.14601874 0.15955216 0.0771108 0.061702933 -0.03591584 -0.12911928 0.16916624 -0.119567215 -0.25558674 -0.24041338 -0.014269295 -0.16524509 0.18871629 -0.14623445 0.030799873 -0.397608 0.1358745 0.0019860796 0.2665692 -0.180491 -0.09985099 0.059653968 0.007973619 0.1681803 0.08800645 0.029092463 0.06306625 0.10374621 0.06714402 -0.16074555 -0.26162735 0.11082109 -0.014308602 -0.023261257 -0.27155662
962 -0.14505759 0.0940924 -0.12258518 0.015744003 -0.08954544 -0.08283179 0.0830957 -0.062154822 0.044621687 -0.059859134 -0.3283157 0.14603253 -0.27056205 -0.016561896 -0.25546393 0.22677654 -0.0841585 -0.013085091 -0.30724707 -0.051139638 0.121286415 0.114154406 -0.01517007 -0.24769434 -0.46498433 -0.255696 0.22722903 0.15490612 0.1108371 0.2843381 0.14710453 -0.28365454 0.04597768 -0.25314188 -0.008931033 -0.13915952 -0.12511688 0.30973822 0.1283031 0.12709576 -0.0941903 0.2172129 0.13041133 -0.32681572 0.12608905 0.2791003 -0.0023596971 0.035351727 -0.09934885 -0.021495428 0.041510873 0.066579714 -0.18694057 -0.03376241 0.12807511 -0.07179272 -0.11616216 0.050559513 -0.15026309 -0.15721466 0.09243067 -0.26634213 0.18649745 0.13420115 0.029139671 -0.12326021 -0.008014582 0.09850704 0.026726238 -0.1306168 -0.08004622 0.12277854 0.14296104 0.3709759 -0.018379664 0.18938063 -0.06960099 0.07125197 0.13823198 -0.031327948 -0.03644257 0.12522408 0.0892843 0.27743658 0.14820993 -0.03114298 0.0044869636 0.064155616 -0.09657139 0.13111879 0.18019389 -0.084188595 -0.022623584 0.0776674 0.07654593 -0.11804886 -0.07725982 -0.09752135 0.027873218 0.06896607 0.04326572 -0.30384088 0.0033991258 0.046752922 0.006403007 0.28475684 -0.046732206 0.07477529 -0.0071482304 -0.10970107 0.15693104 0.25427458 0.053718805 0.14888826 0.30637327 -0.16942327 0.089178525 0.020016847 -0.186329 0.20382309 -0.19672985 -0.23081987 0.013439304 -0.19949362 0.16449875 -0.052588396 -0.1566462 0.085853994
720 -0.2142264 -0.050891172 0.20804125 -0.077376455 -0.08447015 0.09681957 -0.11628628 0.12608777 -0.19946994 0.026357898 -0.14800888 0.09254504 -0.06994115 -0.15446903 -0.113565415 -0.02404041 0.15090364 -0.13709927 0.09267553 0.04537546 -0.016160024 0.011742141 0.110303834 -0.039267313 0.069658816 -0.12401775 -0.07488284 0.35748497 0.16175696 -0.09002465 0.2350841 -0.03217005 -0.13791811 0.03587094 0.20685792 -0.37992045 0.0735947 0.17339428 -0.0048755286 -0.03398898 0.0646056 0.13976017 -0.04226382 0.092784755 0.17182496 0.17484502 0.035332955 -0.21913853 0.093439326 -0.12141456 0.03388436 -0.25163952 -0.21553048 0.20012756 0.08980386 -0.06342767 -0.13975963 0.05588031 -0.24794544 -0.012168667 -0.17120428 0.12019787 0.12268334 -0.23606563 0.029988173 -0.20121185 -0.09219239 -0.02905501 -0.5216879 -0.21380286 -0.02545727 0.1747892 0.33138642 -0.008525999 -0.052540243 -0.0012520102 0.23814087 -0.05681144 0.12892033 -0.17953761 0.1314666 -0.13713388 0.24444361 0.3015125 0.18012188 -0.100720316 0.184891 0.09183465 0.13782524 -0.087063715 -0.055827316 0.17439847 0.14885746 0.28311786 -0.14191568 0.22039562 -0.15726352 -0.017140895 -0.011065466 -0.08902207 -0.0074726194 0.17875868 -0.046316467 0.10795631 -0.014559087 0.029409004 0.08326238 -0.09125845 -0.3655903 -0.16874853 0.13118282 0.00072081166 0.07984684 0.28285146 -0.14364515 0.009518042 -0.11616457 0.080537505 0.009932906 0.017580248 -0.076187685 -0.12638803 -0.0732203 -0.0412801 -0.03527501 0.21814851 0.012902716 0.03835639
882 -0.12643194 0.14525205 -0.09608569 -0.08205319 -0.05972904 -0.043023057 0.15382531 -0.018883973 -0.1835024 0.03155507 -0.15418991 0.119189106 0.12199091 -0.15836838 0.10851453 0.057552114 -0.09311631 0.070520565 0.48901737 0.0021342929 0.14637102 0.22195184 -0.062536485 0.08950205 0.17013073 -0.18268222 -0.021271154 -0.012250684 -0.0032693006 0.2469066 0.017612861 0.14172283 0.024071263 -0.012639158 -0.14561233 -0.10717263 -0.031246861 0.0048091793 0.09510216 0.3886012 0.20233625 0.16432059 -0.19765788 -0.26632196 0.3331366 -0.1508084 -0.1789284 0.17103602 0.076925054 0.13482139 -0.033751156 -0.0077761402 0.079458885 -0.11406026 -0.015223674 -0.10011061 -0.1492648 0.16451548 -0.046278093 -0.24353719 0.1935509 0.1910168 -0.11359067 -0.12609953 0.058849208 -0.0092378175 -0.120160684 0.34707665 0.1388236 -0.0847269 -0.16729273 0.25469896 0.02758595 0.06041941 0.027871655 0.18393792 -0.015158325 -0.23989889 0.06195026 -0.10098855 0.069580555 -0.08359438 0.23500621 -0.14714053 0.2373973 0.09255862 0.30206957 -0.09162099 0.36192468 -0.046771806 -0.13078435 -0.09674527 -0.10840845 0.061474185 0.09524959 -0.07525108 -0.14383149 -0.010744038 -0.051869232 0.038191665 0.32813844 -0.050368756 -0.018173393 0.059901655 -0.2668747 0.24444823 -0.11423752 -0.07838647 -0.13381958 0.10191682 0.05695981 0.07276767 -0.13138573 0.097318344 -0.09603542 -0.28201494 0.060664866 0.09093376 0.17123097 -0.09060522 0.33543077 -0.015217581 0.14100042 0.09338571 0.036988426 -0.13343307 0.008652205 -0.13994783
1581 -0.111857675 0.23889035 -0.08179842 -0.009652731 0.15342453 -0.06789305 0.087587364 -0.026241152 -0.10896576 -0.21891147 -0.13911383 -0.12414772 -0.04494702 -0.20727713 -0.07869087 -0.029024964 0.05968312 -0.06655164 0.037471194 -0.016418327 0.08232787 -0.40917265 0.06903 -0.117841795 0.010341914 0.10038864 -0.13401538 0.005110775 0.40734214 0.0058336062 0.16840295 0.4017079 0.04444208 0.07870942 0.12351738 -0.10471478 0.14751886 -0.085563645 -0.07985663 0.08596655 -0.012806947 0.15635009 0.017232422 -0.1320549 0.06691717 0.19338429 0.01879546 0.03723476 -0.027543515 0.010786362 0.30671948 0.11455097 -0.19994326 0.08530003 -0.14545141 0.087727726 0.02920791 0.007654246 0.03500117 -0.0041725356 0.27124298 0.15533833 -0.094241455 0.24690309 -0.024325036 0.09225447 0.14850698 -0.19011019 -0.20964682 -0.00037056266 -0.19052492 0.08726874 0.17872398 0.10463351 0.06559116 0.16137141 -0.01944473 -0.13613854 0.0924795 0.075751424 -0.11039669 -0.0034931037 -0.0018664593 0.12693375 -0.06525987 -0.10462873 -0.013707819 0.28848967 -0.18515581 0.077914625 -0.11427498 -0.15424545 -0.020020254 0.1284619 -0.021602737 0.13230065 0.32377982 0.0038036888 -0.0093922485 0.19098462 -0.106862344 0.21901008 0.00011575933 0.02352012 -0.51973176 0.21367604 -0.1199263 -0.19105035 -0.14506565 -0.2798235 -0.2576322 -0.1286411 -0.029664092 -0.04996881 -0.24500059 -0.14591381 -0.19609804 -0.012189674 0.046321087 -0.17891954 0.20353176 -0.019176139 -0.033349518 -0.18470307 0.18980291 0.32413685 -0.059392806 0.08587756
927 0.0037648575 0.16960904 0.1516922 -0.029353961 -0.008644453 -0.013944536 0.08860905 0.09787814 0.1095946 0.013257519 0.032996424 0.058474906 0.044167835 0.20494168 0.014759648 -0.12560117 0.33775994 -0.22962572 -0.0156030245 -0.16010639 0.095942445 0.17286743 0.10789829 -0.0955046 0.13268748 -0.4020569 0.024795303 -0.1468779 0.110174865 -0.06745305 0.02398802 0.21552752 -0.08161745 0.08491497 0.19152705 -0.14359236 0.23948584 -0.099634275 0.06915474 0.29113877 0.03473866 0.0621502 -0.17342836 -0.22572596 -0.040630225 -0.14845057 0.17102362 -0.11334166 -0.04027479 -0.16723445 0.044607703 0.08637203 -0.09000257 -0.12603511 -0.09249557 -0.1099592 0.100757994 0.027712656 -0.17760009 -0.2404473 0.1367783 -0.005102153 -0.012496361 -0.18233481 -0.09224711 0.14635968 -0.04891139 0.14506003 -0.17994124 0.10147523 -0.011277003 0.06012033 -0.122817 0.16905808 -0.19510596 0.41846278 -0.021420682 -0.17534935 -0.11875813 -0.005597239 0.19480288 0.0040472182 0.11375543 0.064020224 -0.045671754 0.08968567 0.081410125 0.04320507 0.09990126 -0.3304859 0.025890851 -0.010133254 0.19461878 0.055579584 0.14511903 -0.06325147 -0.116049126 -0.22850606 0.08992998 0.02196921 -0.034735046 -0.056582753 -0.016519701 0.18810922 -0.12580223 0.026273878 0.11905477 0.005082025 -0.038677398 -0.24530427 -0.14616737 0.2749182 0.19774467 0.21904543 -0.0906248 0.11565701 -0.24059603 0.40235618 0.034153894 -0.04109335 -0.10421123 0.045525935 -0.032947917 0.24869817 -0.1293338 0.123168774 0.082800865 -0.02285905
884 0.055630624 0.16592251 -0.09739166 0.23976713 -0.06460795 0.11611094 0.03617145 0.054983623 -0.21619615 0.060019985 0.027784528 -0.02858621 -0.13579424 0.17620145 -0.054541074 0.14755787 0.059881452 -0.4502536 0.062875174 0.041692626 0.1358595 -0.040758207 0.19720279 -0.0075334413 0.031300895 -0.0782125 -0.09291569 0.090457566 0.1769625 -0.07117867 -0.19478974 0.32305422 -0.064972125 0.17781572 0.38543972 -0.055410054 0.116209894 0.19397362 0.027938422 -0.1157939 0.2914771 -0.17742833 -0.00487831 0.04493328 0.10308886 0.08894192 -0.17402357 0.051344007 -0.062315922 -0.057481926 -0.10884537 0.0199202 0.0022654831 0.26356474 -0.16267996 -0.05958324 -0.13474976 -0.07822376 0.096541256 -0.094455406 0.08284453 -0.06391254 -0.10420652 -0.10166586 -0.026195722 -0.124675535 -0.07697437 0.033055723 -0.16748159 -0.069999 -0.49906752 0.1429911 -0.116884924 0.2562117 -0.15884395 0.23293482 -0.123093136 0.026553987 0.0051066377 -0.016359981 0.122773565 0.2561184 -0.03489316 0.0019464783 0.06967947 -0.22798268 0.13804938 -0.20351969 0.005140402 0.092453465 0.007699336 0.13108763 0.027145643 -0.16412906 -0.09558362 -0.029192312 -0.027617553 0.14303225 0.19695474 0.19749819 0.109959446 -0.052412752 0.02914338 0.044445008 -0.166951 0.15338111 -0.15607905 -0.044713754 0.117540896 0.07613546 0.16535975 0.32839444 -0.01105027 0.06222329 -0.26002634 -0.008394431 -0.00045614896 -0.02557889 -0.31630874 0.06754152 0.0004473045 0.11253295 -0.17245343 -0.27343106 0.19795711 -0.1719609 -0.012618128 0.1175902
1180 -0.13651782 -0.13474877 0.092734955 -0.09429922 -0.17279482 -0.16567858 -0.045412544 -0.2651302 -0.06543489 -0.03023382 -0.2211539 0.16145429 -0.1058038 -0.1620262 0.1534312 0.07635727 -0.03154223 0.087746546 -0.10714183 -0.18942644 0.23136473 -0.21923845 0.09032182 -0.110173635 0.026711617 -0.013134633 -0.08576945 0.0073368074 0.026546637 -0.011488198 0.20433779 0.116411306 0.25837457 -0.18678685 0.06614524 0.08794696 0.24739023 0.23267433 0.18409976 0.17909 0.19727978 -0.0012833838 -0.15606973 0.00099757 0.2669043 -0.057243213 0.07801069 -0.10001145 -0.149682 -0.3942516 0.13771202 -0.26015058 -0.14649475 -0.0106273135 -0.22640562 0.048859254 -0.1839178 0.13789639 0.009390073 -0.103707455 -0.024304267 0.20276363 0.08251542 0.113997 0.11773329 -0.2169957 -0.008222384 0.097250275 -0.17533244 -0.30737385 0.09964475 -0.1973328 -0.015825944 0.05420229 -0.20599306 0.06655972 0.0029654885 -0.14188461 0.09365746 0.08052227 0.25270793 0.09416812 0.2620169 -0.12627497 0.20798594 2.725671e-05 0.085175626 -0.3801961 -0.10090998 0.09010066 0.2909474 -0.012310174 0.020160057 -0.07682297 -0.13015693 -0.23802345 -0.02297222 0.10622543 -0.14205447 0.007895402 0.07733404 -0.041259795 0.020413242 0.33653045 -0.10290358 -0.058739685 0.3135447 0.08519767 -0.012816167 0.33603582 -0.030891838 0.23665482 0.31613043 0.3889898 -0.0058195433 0.030103562 0.04852566 -0.2807602 0.048296567 -0.009358347 0.06347886 -0.29795724 0.008774076 -0.10520943 0.09776912 0.13352183 -0.039430995 -0.2907478
1179 -0.013649777 0.044999223 -0.031932816 -0.037561167 0.18090375 -0.055637386 -0.101589575 -0.2116696 -0.06140871 0.05290453 -0.0027203811 0.14056495 -0.19199419 -0.24020298 0.121660806 -0.30702096 -0.17756616 0.07128257 -0.020521987 -0.132728 0.25556806 -0.083102494 -0.009258221 0.06544781 -0.1023818 0.017944152 -0.18751776 0.07900859 0.15687694 -0.07150356 0.2003379 0.0204262 0.020240115 -0.17599298 -0.10751617 -0.08550192 0.3542421 -0.27849907 -0.05957523 0.16288345 0.07668514 0.19152771 -0.07522828 0.09327405 -0.3871997 -0.0155568775 -0.08521405 0.088688985 0.18178943 0.1370582 -0.14886773 -0.022988625 0.05762419 0.45408568 0.083109066 -0.28522518 0.13918103 -0.053382058 -0.10746728 -0.1521224 0.20417333 0.20630316 -0.008309287 -0.15040936 -0.082487054 0.10138149 0.14978743 -0.16320598 -0.31144384 0.034690343 0.18225905 0.16836114 -0.2741542 0.29057217 0.13428238 0.06837333 0.064426504 0.06894615 0.24821892 -0.19192356 0.12263733 -0.19408302 0.13421203 -0.1640318 -0.039628256 -0.21303852 0.2651146 -0.12098338 -0.06631487 0.01901234 -0.024242679 -0.03177189 -0.024539333 0.06433081 -0.09360089 -0.07075997 0.026328815 -0.034612805 0.0040624687 0.06988905 -0.011781386 0.15194935 0.001201197 -0.097465895 -0.13605136 0.08332072 0.11991805 -0.006931958 -0.13762401 -0.025887128 -0.05910268 0.35353896 0.04474706 0.033304643 -0.031949136 0.08788578 -0.4691061 0.15612349 0.095465474 0.25094673 -0.024140341 -0.12334747 -0.059422243 0.1231198 0.026889345 0.20547117 0.13587697 0.00798227
349 -0.11656932 0.063768625 -0.18377131 -0.12073061 -0.053273074 -0.112556346 0.19008695 -0.3070149 0.007632667 -0.4366894 -0.06352676 0.1818417 -0.08881822 -0.17182004 -0.13112235 0.120570846 -0.089670464 -0.0066695227 -0.12780578 0.13509104 -0.052422877 -0.004805432 -0.16457158 -0.09421182 -0.019021451 -0.21877632 -0.017451365 -0.01741786 -0.06742876 -0.034443244 -0.048430346 -0.19035809 0.17449565 0.022526093 -0.08090526 0.068493955 0.107666105 0.33232573 0.06019837 -0.056005124 0.33801347 0.050664872 -0.10869436 0.20067292 0.20434554 -0.01592202 0.10442077 -0.046123307 -0.07896122 0.16531521 0.10152564 0.06539512 0.0014078632 -0.004231308 -0.1225626 0.14589204 -0.026192304 -0.086052045 0.004400025 -0.035310958 0.26660562 0.23061492 0.003348523 0.067225575 -0.08897304 -0.031593557 -0.096167184 -0.06765468 -0.22668554 -0.13872817 -0.047524013 0.14136232 -0.18776457 -0.085081905 -0.045837212 0.3034482 0.02175852 -0.0463044 0.04984678 -0.18597752 0.09948328 -0.08725437 -0.18459176 -0.049291577 0.18084703 -0.14297307 -0.14192286 0.059026416 -0.023728684 0.05104304 -0.14825396 -0.25658932 0.18716256 0.19264472 -0.03798334 -0.12611027 -0.024753803 -0.26477653 0.05247188 0.27320114 0.25764793 -0.095266744 0.3001164 0.17799513 -0.19167505 0.22945698 0.031351972 -0.21551718 -0.0024947391 0.04126236 -0.08150302 -0.057471525 0.20207576 -0.07451565 -0.12276613 -0.33940378 -0.10934629 0.034914974 0.13801955 -0.16869137 0.047849998 -0.12916234 -0.22194831 -0.3109589 -0.1948373 -0.23998275 0.40492165 -0.062408213
917 0.19535041 0.24089171 -0.024521261 -0.27151266 0.007244516 -0.12770578 -0.09996063 -0.100674346 0.026096797 0.0726823 -0.020536266 0.12126491 0.027817192 0.06455781 0.12199678 -0.2673966 0.10584505 -0.016532779 -0.2512587 0.12453693 0.20190546 -0.13257359 0.11091551 -0.22867054 0.18280591 -0.09311421 0.20328408 0.11994848 -0.086749695 -0.08428548 0.108776495 -0.018434616 -0.12727003 -0.1032428 0.048803806 -0.2463527 0.12050541 -0.11509172 0.22113729 0.10869331 0.28230762 -0.10754576 -0.29696283 0.113152534 0.01126332 0.043676354 0.13104387 -0.19251728 -0.031557336 -0.04560644 -0.053700168 0.1345444 0.107483186 -0.026597872 0.020402985 0.22334006 -0.20356469 -0.066958 -0.020264065 0.049796823 -0.0028700095 0.3203899 -0.1975801 0.05585295 0.0007990939 0.27075502 0.16642545 -0.10817525 0.25614142 -0.031724926 -0.08770682 0.17045055 -0.28132236 0.07577442 -0.19283256 0.11090265 -0.054684572 0.25249103 0.20136333 0.12041423 0.22631367 -0.0036578032 0.05720825 0.08177958 -0.020236269 -0.32172737 0.20957945 0.18801862 0.14695737 0.024684867 0.11441287 0.05909552 0.33314258 0.1387699 0.04980506 -0.06996608 -0.013346261 -0.071237504 0.13662204 0.29410675 0.28988436 0.009993558 -0.008722418 0.23706694 0.029679408 0.14718229 -0.30727008 0.10977376 0.13227434 -0.11134289 0.21732666 0.14153916 0.1286843 0.07324287 -0.23715867 -0.1432923 0.11488805 0.16248254 -0.06674816 0.08415475 -0.015417022 -0.29518795 0.029526683 0.37356853 0.28472108 0.26075688 0.21355912 -0.17386666
1729 0.003603502 0.38492337 0.15371345 -0.012933725 0.08945723 -0.11896645 -0.21605207 -0.0375459 -0.17823155 -0.011469346 -0.3295146 0.24348883 0.13558401 -0.029627424 0.24530376 0.21067452 -0.08603975 0.09028685 -0.17185429 0.029550008 0.21649584 -0.13805841 0.08211294 0.11933233 -0.041386764 -0.12034657 -0.15365916 -0.011511652 0.09136048 -0.029768053 -0.034918625 -0.038724635 0.0085040415 0.024260955 0.093259946 -0.07595958 0.13237439 0.005582389 0.2616041 0.389073 0.08133756 0.17019525 0.01377043 -0.014780364 0.068304494 -0.021521766 0.04643464 -0.04235563 -0.21321309 0.13426858 -0.14427547 0.069500774 0.094705865 0.025670754 0.14328578 0.13000815 0.0012029399 0.16128303 0.109704405 -0.21972844 0.306274 0.11972159 -0.33551255 -0.14963788 0.09252789 -0.1756624 0.1296267 -0.04731112 -0.22253944 0.15045321 -0.18603018 -0.2289866 0.07935675 0.16113189 -0.037582334 0.14981 0.04621147 -0.021646708 -0.037555095 -0.029101362 -0.13742468 -0.0064836834 -0.045953706 -0.036650293 -0.09142017 0.06930902 0.05398677 0.085962646 0.074509636 -0.11352585 -0.041754402 0.077231035 0.0032555677 0.09194159 -0.070260346 -0.17040673 0.07353048 -0.08580554 -0.08051152 0.19067012 -0.34905872 0.022246849 0.060583588 0.13784894 -0.1490808 -0.16873488 0.0948803 0.080062486 -0.043013934 0.028151188 0.17716217 0.24680325 -0.073949024 -0.039719835 -0.08010932 -0.13642603 -0.007966512 0.014583437 -0.018902201 0.1340795 -0.021631664 -0.191312 0.014460048 -0.050085496 0.04984057 0.28865284 0.047647193 0.0333455
1586 -0.03368511 0.0026640727 0.051153228 0.15484957 -0.059726235 -0.1676641 0.114547975 0.042798504 0.06658211 0.025758652 -0.45584327 -0.0017449947 -0.075750396 -0.041229922 0.002822118 -0.027864812 -0.2601364 -0.0960497 0.070288226 -0.011129828 0.043639343 -0.18496457 0.11424736 0.14209518 -0.057310827 -0.12925887 -0.06415288 -0.053517263 -0.14487849 0.058584824 0.015128234 -0.060760356 -0.041301876 0.033836477 0.15459946 0.104015164 0.07219813 -0.07625112 -0.056135252 0.10046953 -0.00833974 0.03138362 -0.12478855 -0.015949255 -0.15793338 -0.26723993 -0.020055564 0.14421873 -0.06906465 -0.0859011 0.19315004 0.1896537 0.06428578 0.026550328 -0.117904656 0.12540315 -0.15883303 0.06844968 0.14884236 0.09962135 -0.0062134326 0.07904739 0.0022207699 -0.09110482 0.0020113774 -0.059160713 0.048153147 0.15234512 -0.2882626 -0.2918218 0.18288584 -0.1175296 -0.19614549 0.09055546 -0.16004913 0.13464902 0.06156551 -0.11716859 0.040377345 -0.090527676 0.14325497 0.14608799 0.35375893 0.08533338 0.01731233 0.00027681087 0.32861224 0.08873665 -0.004468517 -0.060453657 -0.3189692 -0.077195995 -0.07350592 0.2190074 -0.21574555 0.06326796 -0.32886583 0.105325446 -0.037150398 -0.22792569 -0.09189477 0.20356579 0.07439173 0.30387452 -0.07881522 0.25002253 0.12051258 0.053541996 -0.14341328 0.2089343 0.1961758 0.111052826 -0.035622552 0.20832612 0.1664826 -0.046305306 -0.040947985 0.21273173 0.020664377 -0.2452978 0.20346193 -0.10167261 0.11244189 -0.037269767 0.2183194 0.11816479 0.019558756 -0.057599183
2272 -0.1323115 0.08745181 0.10931228 -0.20602272 0.0407105 0.1621672 0.19456394 -0.087293506 0.15392756 -0.101582356 -0.11130647 0.3213413 0.020465756 -0.046566185 0.17871167 0.060648598 0.09385562 -0.02948299 -0.15413454 -0.06338815 0.18492839 0.044146087 -0.070887044 0.045692515 -0.1722291 0.140878 -0.27395865 0.14093335 0.13418844 0.10534738 0.41068104 0.16654153 0.12570556 0.23989944 0.14285697 0.06662832 0.14606182 0.23678356 -0.06999889 0.33370936 0.140228 0.12567551 0.08038186 -0.07594283 -0.25623724 -0.28755143 -0.052172653 -0.0501694 -0.055465553 0.051090762 -0.08634773 -0.20811032 -0.046625946 -0.01802912 -0.079649255 0.17916594 -0.17608166 -0.005187405 -0.02389945 -0.025926195 -0.00028914865 -0.031716123 -0.074708305 -0.1111308 0.12182722 0.054521047 0.109589905 -0.11024399 -0.36424655 -0.015042278 -0.17164305 0.1354768 -0.010238795 0.18139748 -0.21163021 0.048008524 0.008416059 0.039427787 0.071207434 -0.12680013 0.075895466 0.18735173 0.18033966 -0.041237216 0.23155548 -0.06438027 -0.15686747 0.059287757 0.11880208 -0.026684314 -0.041969784 0.00939172 -0.11783532 0.073599555 -0.08415632 -0.10719639 -0.043852564 -0.19806166 0.08218124 0.00019755149 -0.18867956 0.13894416 0.048446078 0.02116828 -0.14187406 0.13861203 0.08080377 0.115766466 -0.06185647 -0.090912335 0.020185553 0.26361537 0.001394093 -0.13737631 -0.17463616 -0.16887777 0.116791084 -0.09423827 -0.15914346 0.03334524 -0.09127512 -0.07528643 0.11049969 0.0029407444 -0.051007904 0.09451252 -0.10743812 0.12366928
687 -0.35064667 0.046177953 0.18982698 0.00077812036 -0.15564302 -0.062174905 -0.020101205 -0.14602451 -0.09857516 0.18003145 0.03516101 0.16476963 -0.3074651 -0.03607773 0.0629772 -0.25339597 0.19146922 -0.16234314 0.06417583 0.08870562 -0.0373553 -0.30566162 0.09885744 0.080662526 0.06427981 -0.062055457 -0.056531347 -0.009316946 0.14719686 -0.08383499 -0.012117775 0.040818427 -0.035599276 -0.084167756 -0.17368214 -0.19533522 0.10085537 0.025035067 -0.020183777 -0.06574573 0.19747098 -0.059610624 -0.00024265512 -0.12514113 -0.08463069 0.16370033 -0.18707396 0.0034623342 -0.108277895 -0.1715031 -0.08002549 0.053577583 -0.14201933 -0.07270255 -0.08150883 -0.18963969 -0.04788279 -0.11942561 -0.072443746 0.1775731 0.18625674 0.18467173 -0.16554175 -0.04928212 0.0018154904 -0.14338979 -0.23086677 -0.014311717 -0.007401311 -0.03209369 -0.2758762 0.26925263 -0.018448919 0.0916547 -0.0652024 0.17665742 0.07058948 0.0632628 0.24656534 0.05068841 -0.12426674 0.110891655 -0.010033261 0.1065977 0.1933916 -0.20139343 0.07675628 0.003615187 0.033229396 0.02335826 -0.015965346 -0.2315467 0.0906176 0.15723704 -0.255537 -0.082757525 -0.1799944 -0.19753984 0.021761645 0.40209216 0.09881739 0.4121004 -0.14540474 0.09690486 -0.056851253 0.4214237 -0.03297977 -0.27568844 -0.022420967 0.07127856 -0.11995847 0.25323704 0.011268839 -0.0025485065 0.09910475 -0.27320555 -0.17378817 -0.07292773 0.03040857 0.09700116 0.08775259 -0.26814464 -0.17631553 0.027470635 0.2776099 0.123537466 0.020321237 0.028994592
1851 0.07594203 -0.1320219 -0.086027525 -0.094939396 0.1033284 -0.1422127 0.09689264 0.19524808 -0.039604362 0.22056265 -0.15614958 0.052275587 -0.22104053 0.10637194 -0.049177922 -0.28157812 0.084855765 0.051563025 -0.09971568 0.041290034 0.15059578 -0.0051570283 0.062167946 -0.06490251 -0.16049147 -0.41622853 -0.031287026 0.1357026 0.09675441 0.055242617 0.19943292 -0.064252295 0.122982025 0.0037965607 0.09090091 0.052452628 0.42378154 0.09065696 0.02829393 0.002557769 -0.02100522 0.045385953 0.08878718 -0.21557762 -0.15978801 0.10133057 -0.03925107 -0.26582512 -0.046093073 0.028392602 -0.19014336 -0.0059720166 0.032940887 -0.13888967 0.048413377 -0.030508224 -0.2853431 -0.27080974 0.012833053 -0.08748469 0.074471325 -0.047151797 -0.16801764 -0.21306568 -0.062240124 -0.2848273 0.20615773 -0.29914495 0.029951353 -0.04746329 -0.23609564 0.08602989 0.135307 0.2703986 -0.017218266 0.109669626 0.13721901 -0.03803927 0.050230276 -0.1808008 0.20869447 0.043031197 0.23658736 -0.07216423 0.022360161 0.033163957 -0.13792537 -0.10579132 0.1461689 -0.044803668 -0.09526757 -0.054456495 0.13666157 -0.033369288 0.31652802 -0.21115148 -0.0039622686 -0.35119465 0.011364023 0.12627514 -0.001637671 -0.02780949 -0.066386566 -0.023045735 0.05876619 0.12247292 0.043833606 -0.33479518 0.05110945 -0.12728624 0.17268129 0.22028053 0.0027219907 0.11772711 -0.19981878 -0.09933356 -0.07816915 0.09738291 0.015599932 0.09854203 0.009566215 -0.17828473 0.15374993 0.08150329 0.116033204 -0.051295698 -0.11965704 0.0329866
1570 0.0109268995 -0.06502756 -0.2112789 0.19386017 -0.059089195 -0.057279505 0.07182535 -0.08085943 0.026049536 0.061556865 -0.28190213 -0.01964227 -0.085169144 -0.111056276 0.22575991 0.007717397 -0.27668244 -0.1787505 0.17947748 -0.0061717234 0.0068088276 0.03784754 0.13249788 0.09507172 0.018299123 -0.21057056 -0.1412513 0.05950135 -0.02782037 0.09689629 0.25917283 -0.08991066 0.15596358 -0.064939715 -0.015880026 0.20122659 0.18765905 0.038105436 0.03949129 -0.22570097 0.020237818 -0.07403444 0.076821625 -0.14369963 -0.118828535 -0.059342906 -0.28577 -0.0065653594 -0.012366408 -0.122385964 -0.03618543 -0.10987498 -0.008532567 0.03748782 0.0045094984 -0.12485827 -0.067678936 -0.033072636 -0.17579472 -0.09792619 0.24181467 0.05414867 0.15000735 0.15034392 0.22046863 0.17307222 -0.01664442 0.07099172 -0.27994937 -0.05967994 0.03556772 0.15985781 0.023082888 0.36348775 0.028608555 -0.07028458 -0.18353118 -0.10951311 -0.08249912 -0.033890806 0.10826977 0.36387777 -0.20313674 0.035989594 0.0874279 -0.12274887 0.027019197 0.3200914 0.19935913 -0.07623378 -0.05416583 0.032412883 0.04959218 -0.098170206 -0.05807847 -0.0073127397 0.1344924 0.061137564 0.16979964 0.22468817 -0.08903305 0.11362648 -0.16476221 0.23411895 -0.27406862 0.09898115 -0.19858994 -0.27698982 0.019800873 0.17901418 0.3206522 0.26523313 0.082950525 0.2338689 0.07966039 0.18968835 -0.10712852 0.16089916 -0.25902802 0.3364015 0.087416634 0.09602544 0.26120478 0.25488064 0.12310153 0.0047992687 0.19778341 -0.28907874
1769 -0.21492222 0.19279888 0.19289 0.099299416 0.013533179 0.0052363933 -0.16648439 -0.034568198 -0.27699587 -0.26909223 -0.10438449 0.33773234 -0.10424293 0.12625849 -0.23368838 -0.18410029 0.16110761 -0.11132557 -0.10382081 0.08802904 0.03324291 0.20919333 -0.109989904 -0.14532822 -0.02752085 0.039697487 -0.052821297 0.22927561 -0.24803324 -0.12396747 0.068740204 0.41115078 -0.059222884 0.17380759 -0.036243994 0.06964408 0.1181371 0.085970215 0.19803317 0.019059923 0.34819126 -0.017242987 -0.17703639 -0.06545002 0.118555166 0.06283198 -0.0046102945 0.15843062 -0.14604996 -0.12872751 0.2522034 -0.01968373 -0.11412957 0.02118759 -0.22213711 0.06707909 0.056221668 0.0010939525 -0.31108394 -0.17392358 0.11033753 0.12556148 -0.06621725 0.25419885 0.33538958 0.10559149 0.012422311 -0.07516849 -0.20693673 -0.030790763 -0.07903321 -0.04348677 0.103733584 -0.064152054 0.051029805 -0.03653203 0.06491034 0.0047966107 -0.06599923 0.09943771 -0.033036225 0.020216387 0.124232836 0.09042591 -0.016451227 -0.12284476 0.3474635 0.23475681 0.07185514 -0.029916922 0.069924355 -0.0065615023 0.12111174 0.06589848 -0.3203852 0.11696669 0.16587664 0.18922193 0.12303539 -0.07093765 0.05169796 0.097377606 0.2935951 0.16563955 -0.20037566 0.16258128 -0.07393356 -0.023044262 -0.18292592 -0.093405224 0.24198827 0.23173963 0.06867231 0.0027667875 -0.0992379 -0.26189417 0.09705281 0.08783677 -0.023617523 -0.21184932 0.22861345 -0.04555998 0.056036662 0.03484641 0.085262395 0.10151906 0.13394666 -0.16098906
2286 0.06055976 0.13731466 -0.06769804 -0.09000894 -0.011060473 0.09329464 0.2936188 -0.07433099 -0.032705072 0.056118403 0.27138847 0.22054422 0.108915254 -0.131859 -0.1054569 0.13744102 -0.18736301 -0.011797531 -0.15291375 0.062342983 -0.07504382 -0.070603475 0.038106978 -0.06599596 -0.039622393 0.11395864 -0.098405756 0.0682979 0.16996078 0.098483294 -0.040183734 0.29717758 -0.13470727 -0.039179068 0.10724158 0.038068485 0.12336726 0.20263377 0.24241121 0.35146534 -0.08232443 0.15059319 0.110054485 -0.10809491 -0.11976556 0.103367835 -0.05269449 0.12506051 -0.13506298 -0.17651793 0.015989065 0.14511618 0.18736812 -0.12002524 0.02357974 -0.15743667 -0.013785827 -0.09097984 -0.0724452 -0.0075476533 0.23979618 0.123535685 0.35887247 0.19312409 -0.071336694 -0.16475357 0.12036733 0.18303578 -0.15678108 -0.08865886 -0.046923056 -0.22643398 -0.012257279 -0.019750236 -0.26959133 0.2117037 -0.11553282 -0.19770008 0.057651255 -0.029682359 0.051186852 -0.07571331 -0.05440035 0.024713753 0.1757542 0.005112028 0.29372132 0.17116605 -0.24746524 0.03149821 -0.14336114 0.03796649 0.05290105 -0.019261762 -0.03971199 -0.11289842 -0.08015147 0.059959255 0.045546584 0.17518543 0.20908661 0.035041377 -0.11999674 0.09529561 -0.14733031 -0.09866567 0.001178328 0.18416835 -0.15299617 0.17962135 -0.010278561 0.14584608 -0.06514121 0.13113363 -0.24450445 -0.048218373 -0.07074951 0.08035536 -0.14050761 0.1391824 -0.027992947 0.1340654 -0.48017392 -0.061179876 0.31872037 0.20699073 -0.04578233 -0.22148529
1724 -0.2210649 0.30605668 -0.16292411 -0.1495063 0.32787243 0.07922522 -0.14779359 -0.040651117 -0.20795263 -0.22761014 -0.233467 0.041392792 -0.09703743 -0.23736651 -0.2841026 -0.048766006 -0.20818467 -0.14792626 -0.18288535 -0.17721051 -0.0024668055 -0.087124996 -0.17103498 0.17665619 -0.14139117 0.003786985 -0.07220783 0.08135536 -0.09823089 0.09435905 -0.06697446 0.07673863 0.113385364 -0.056428492 0.04404128 -0.07499361 0.13880265 -0.046865147 -0.0034497113 -0.022589765 0.09231918 0.24835087 0.077836886 -0.17937781 0.025176771 -0.24692912 0.16868992 -0.11667221 -0.13221174 -0.07605722 -0.022288766 -0.027497847 0.08910888 0.12185982 -0.34160024 0.16987374 0.05342726 0.081122644 0.10677474 0.035721224 0.16881946 -0.09645664 -0.1022111 0.016984638 0.04538975 -0.01777571 -0.102372825 0.1162458 -0.160821 -0.16576493 -0.18456018 -0.14526471 -0.056687407 0.2826509 -0.021006722 -0.037636925 -0.08882602 0.060244776 0.02989913 -0.038896266 0.026912423 -0.030025559 -0.00705392 0.18833569 -0.016310727 -0.1175916 0.085580625 0.25078458 0.06111949 -0.0019765839 -0.26752585 -0.3572672 0.034697194 -0.063525945 0.051635683 -0.075019784 -0.07351359 -0.10855774 -0.02515119 0.17503268 0.19515185 -0.07021854 0.15265077 -0.16630922 -0.09279263 0.035000626 -0.04290532 0.084949195 0.015957156 0.0062528444 0.011399362 0.17027476 -0.10898355 0.022616915 0.044219397 0.0030704534 -0.15431702 0.13953184 -0.040655073 -0.13108757 -0.118751556 -0.2676583 -0.15960726 0.05487852 -0.09830776 -0.33731607 0.066252016 -0.12718616
1147 -0.13799788 -0.005384185 -0.05093486 0.12291884 0.10740953 0.29407 0.098712906 0.02662647 0.08569935 0.026612405 -0.1341972 -0.0054550045 -0.07583923 0.09555742 -0.19727978 -0.23499453 -0.113857225 -0.0708256 -0.24303001 0.14676844 0.32099062 -0.1435995 -0.19588941 -0.11938894 -0.16162726 0.22615539 -0.18405797 -0.032304358 0.15806821 -0.12533161 0.09596245 -0.022779739 -0.014115888 0.028350897 0.2017982 -0.018188816 0.245553 -0.11768503 0.15417801 0.15084618 0.15341945 -0.030491002 -0.084828004 -0.12434185 -0.00457026 -0.05425874 -0.010899615 -0.39922842 0.08814219 0.0027245423 0.020464713 0.09823731 0.2598673 0.25916982 -0.040398456 0.1304356 0.025620602 -0.004048701 -0.23662712 -0.0807195 0.31404805 0.07603277 -0.03949151 -0.0140609015 -0.068509646 -0.10475083 -0.041442264 -0.23994362 -0.16799664 0.2030571 0.12950173 -0.15448087 -0.048032332 0.070991434 0.16555671 0.24494128 -0.22600259 -0.063583836 -0.06518809 0.08215089 0.011037949 -0.021489283 -0.056947105 -0.34432936 0.014572374 0.08683676 0.11048996 0.17126271 -0.003185106 -0.10209603 0.060031034 -0.067678235 0.18357593 -0.03909627 -0.041761275 -0.037436407 0.20035668 0.07532576 -0.028297197 0.22789545 -0.23981303 -0.1827914 0.071588546 0.17168637 0.08476435 0.16218494 -0.06381171 -0.009928266 -0.2669878 0.24823947 0.0767063 0.25960064 0.23654565 0.06122918 -0.048442174 -0.04906444 -0.27660254 0.1652924 -0.045941766 -0.15448774 0.117645845 -0.24765283 -0.048816733 -0.107750356 0.03398694 0.15576012 -0.11390555 0.2201034
2460 -0.07605897 -0.25140688 0.054527592 0.028271757 -0.06259907 0.16381425 0.17517263 -0.037381053 -0.08698092 0.18492113 -0.21675824 0.24268493 0.09559142 -0.3649012 0.20055424 -0.26863605 -0.29471526 -0.08094557 0.047693983 0.122901425 -0.01934345 -0.04374541 -0.21520513 0.13205814 0.005959089 -0.13469242 -0.30249673 0.13943271 0.1411641 -0.223782 0.11584373 0.1260854 -0.1770797 0.19732842 -0.1852843 0.13605575 0.12374756 0.13240495 0.075067654 0.25770405 0.1281287 -0.078226045 -0.092456825 -0.23344894 -0.1383797 -0.20833546 -0.025522118 0.029424494 0.09237253 -0.30631027 0.05450378 -0.076776125 0.062655285 0.13505904 -0.02148283 0.06399939 -0.15820433 0.07746969 -0.08545251 0.07932642 -0.18401287 -0.0726763 -0.0037860589 0.03738355 0.059650548 0.066364534 -0.081244685 -0.16604301 -0.012550267 0.075806014 -0.24741219 0.21517369 0.07778176 0.19720578 -0.02833624 0.18431239 -0.01655271 -0.296188 0.1933277 -0.19755529 0.20818958 0.047595855 -0.11096109 0.054251477 0.07607592 0.05085998 -0.018459896 -0.14094934 -0.083882935 -0.038682308 -0.12378083 -0.031820953 0.19565661 -0.25596094 -0.16811244 0.03942508 -0.13572711 -0.0075114705 0.05382736 0.038043696 0.16981077 -0.11927499 -0.13197224 0.09513024 -0.2786416 0.20606194 0.10930093 0.085145146 0.1144738 -0.01160798 -0.04952173 0.24010247 0.1873533 0.13764153 -0.011008545 -0.21092421 -0.12596022 0.14400643 0.10362857 -0.13470657 -0.07667801 -0.009763202 0.20987636 0.058474634 0.03793524 -0.14636487 -0.0325315 -0.30653274
2278 0.002166696 -0.2203888 -0.30638945 0.17744415 0.15326911 -0.048676595 0.08433959 0.09122043 -0.13844405 0.08233833 -0.07925857 0.04306581 -0.03922395 0.07374764 -0.14864376 -0.07507642 0.0085387705 -0.08375893 0.15961269 -0.11732729 0.11034013 0.24351977 -0.12212665 -0.034992717 -0.15744273 -0.18265158 -0.10070313 -0.0369091 0.047446404 0.0012152403 0.07055062 -0.09128388 0.045288213 -0.03219921 0.05934727 0.1625271 -0.0040524085 0.27358177 0.10961341 0.20680082 0.16418816 0.3302986 -0.042997036 -0.18558583 -0.0064138616 0.096979745 -0.04029311 -0.10430302 0.11616898 -0.050826535 0.1660445 0.06244997 0.010025788 0.10316369 0.054108407 -0.16747418 0.1234903 -0.23547791 0.1423221 -0.22748591 0.0020179045 -0.008873108 0.2624408 -0.093297385 0.05463375 -0.08944569 0.079727754 0.021458084 -0.2614199 -0.07656384 -0.43780836 -0.16619024 -0.080809765 0.30162826 -0.33614078 0.100802146 0.011296181 0.046668053 -0.024342641 -0.049907323 0.006033341 0.30869433 0.24272856 0.16348185 0.10801592 -0.04226632 0.05823168 -0.071579374 0.25907898 -0.014734898 -0.1753922 0.043530267 0.115917034 0.3724528 -0.10999584 -0.12337871 0.018273538 -0.1275528 0.30302566 0.26193538 0.056497578 -0.08358541 0.04631053 0.042290013 -0.07022933 -0.020505307 -0.05156165 0.11745816 0.005993168 -0.030964743 0.07264888 0.18020433 0.2577163 -0.08090102 -0.12469534 -0.35810047 -0.09684839 -0.08338968 0.1244719 0.08648574 -0.056229986 -0.08870847 -0.0039733537 -0.08194224 0.3456886 0.027290214 -0.16604024 0.04109989
1155 0.09206655 0.17525358 -0.03588843 -0.09682772 0.015537538 -0.088002756 -0.23240057 -0.3691703 0.01599965 -0.085229 -0.039242104 -0.12103919 0.19546011 0.12271263 -0.01840121 -0.20454334 -0.42369077 -0.30850747 -0.049385935 -0.13639054 -0.0036849363 0.0844562 -0.019381663 0.37475473 -0.07848706 -0.07684939 -0.12226409 0.49161252 0.05096526 -0.13273652 0.26162148 -0.13093168 0.07226134 0.043135643 0.16652745 0.18212496 0.093572 0.08584216 0.24475913 0.21896338 0.028315 -0.020614479 -0.23034988 0.16978505 -0.09954172 -0.18940449 0.029689627 -0.0933694 -0.08852773 -0.045886483 0.27915528 -0.012502949 0.043085888 0.19152163 0.18537612 0.11565996 -0.21402325 0.11410404 -0.16270465 0.2300498 -0.09548236 0.047828596 0.021733431 -0.15849483 0.11669716 -0.024065206 0.18314542 -0.029314712 -0.105872504 0.08692037 -0.034229472 0.248242 0.23123585 0.090551525 0.0778427 -0.15992425 -0.2377894 -0.1403489 0.12079855 -0.251005 -0.120381 0.071349695 0.13162689 -0.12352004 -0.056345757 -0.21149582 0.01983318 0.009638585 -0.20090853 -0.09780797 -0.15265475 -0.01334872 0.04562172 0.10215476 0.06834528 -0.13205616 -0.014741538 -0.21187805 0.014787259 -0.043374714 0.14684866 -0.05904108 -0.07983404 0.16089165 -0.42322293 0.12556596 0.1698181 -0.008236565 0.16134949 0.18560989 0.17591394 0.28747937 0.18091159 0.0551219 -0.04549326 -0.24150352 -0.060415454 0.110969864 -0.19427411 0.05280509 0.039944455 -0.34366113 0.11743275 0.20792793 -0.052764926 -0.00019372124 0.014325654 -0.14086987
286 -0.05875961 0.07554217 0.055691313 -0.16141264 -0.042778432 -0.33549848 0.19071685 -0.3083681 0.053288642 -0.036648124 -0.13298044 -0.0051345313 -0.023378199 -0.24973677 0.08700761 0.18136887 -0.22401755 -0.05923196 -0.13214934 0.06109144 -0.04739104 0.0090317065 0.13458505 0.023054766 -0.06347787 0.09291889 0.10436526 0.28009403 -0.018194843 0.069897756 -0.011282435 0.2278499 0.02594099 -0.14413692 0.11795018 0.4246659 0.13563167 -0.03146904 0.016619472 0.26597726 0.019162746 0.26975372 0.240945 0.15718462 -0.11593182 -0.019567609 0.015729183 -0.24005118 -0.24015248 -0.2639164 0.028449707 -0.14694282 0.22299848 0.07606082 -0.09041798 -0.17939961 -0.15293014 0.11573113 -0.19943574 -0.064764805 0.22084771 0.060166534 -0.024742302 -0.013996946 0.10777312 0.0220427 -0.004405179 -0.08388 0.08662299 -0.1410877 0.015443509 -0.30812395 0.009306159 -0.105408266 0.0033156541 0.27639318 -0.17984597 -0.15130799 -0.05404217 0.2281217 0.07111747 -0.087034754 0.21393803 -0.11138708 0.06555532 0.027474275 -0.018720921 0.19049202 -0.19554998 0.06351875 -0.24203742 0.00421531 0.30974773 0.14617181 0.18740828 -0.17517407 -0.1432716 0.21269336 0.17943156 0.11813334 0.13606025 -0.012008888 0.42390317 0.18623862 -0.20364623 0.06220352 0.027280668 -0.1967298 -0.029485779 0.09282506 0.32440647 -0.034084424 0.0864934 0.32493103 -0.14703704 0.037045714 -0.08062145 0.12141829 0.079259 0.27568 0.17132354 -0.036818754 -0.1829589 -0.33974773 0.24638428 0.13228449 0.16368887 -0.087845996
352 0.1656415 0.016439203 0.06255049 -0.048592426 -0.072893575 0.16838387 -0.1384725 -0.1813187 -0.13065201 -0.23612218 -0.13798562 -0.19128604 -0.4213288 -0.19813216 0.010916805 -0.028845642 -0.15988533 0.025161868 -0.06038707 0.013396841 0.017941609 -0.046683114 -0.08132313 -0.30463305 0.080465175 -0.14190994 0.06696563 -0.028221747 0.19728136 -0.25470936 -0.021703126 0.034678783 0.113112174 -0.14860938 -0.08062638 0.07991874 0.046410497 0.1953428 -0.07907123 0.25014338 0.07798113 0.024971822 0.14243841 0.036168143 -0.0071483064 -0.28328508 -0.21428691 0.061044034 -0.10750043 0.1581471 0.00037847398 -0.31585193 0.06534228 -0.17454806 -0.27068654 -0.0004550314 0.116331026 -0.06744613 0.16676648 -0.19002345 0.042977072 0.2205866 0.24752264 -0.20723201 0.11611721 -0.26803625 0.036209557 -0.10021767 -0.16062519 -0.17437778 -0.042551845 0.06487517 0.12987952 0.38998437 -0.19826533 0.15006883 0.12243674 0.07856012 0.29325375 -0.008008903 0.15052447 0.16694854 -0.009237802 -0.03278957 0.32150164 -0.15328583 -0.10832849 -0.19412649 0.19176978 0.09833062 0.07473897 -0.25016057 0.03821406 -0.094222695 0.012300446 0.027400192 -0.099482454 0.01846559 -0.009392255 -0.21641538 -0.18715411 -0.15493426 0.10716453 -0.03950932 -0.2772918 0.15585567 -0.029566495 -0.09696667 0.1144237 -0.08119154 -0.13759159 0.3350017 -0.015660364 0.007843242 -0.15233731 -0.017513912 0.14861935 0.043663826 0.068677455 0.050511833 0.06301595 0.06842522 -0.17253187 -0.11081262 0.2735148 0.04430563 -0.03316392 -0.21455637
1145 -0.27928162 0.1961043 -0.16659364 -0.18086523 0.21285236 0.04148336 0.0019148217 -0.1451834 0.0027217995 -0.27089703 -0.20289615 0.1675074 -0.19318347 -0.050873954 -0.12317933 -0.1681676 0.002011439 0.04861934 -0.03311501 -0.23126225 0.34060335 -0.029282814 0.005949733 -0.13173681 -0.034045294 -0.09990635 0.12564704 0.03004615 0.14506479 -0.27330887 -0.115841664 -0.26745665 -0.10404245 -0.07604125 0.097610906 -0.06463152 0.047664262 0.100794874 0.12407385 0.35779515 0.07968893 0.1100061 -0.087586 0.017509595 0.017473426 0.034460798 0.07237703 -0.06647119 0.09611652 -0.24384801 -0.011971951 0.21755351 0.1964701 -0.1810844 -0.18784615 -0.06378466 -0.062332466 0.36674106 0.12778509 -0.15934545 -0.13785344 0.18148912 0.15732455 -0.028569868 0.0463475 -0.1916156 -0.15449345 -0.059539344 -0.13201933 -0.1278418 -0.052621465 -0.056709293 -0.117777385 0.16460046 0.04805475 0.27883482 0.047334243 0.101411685 0.1260355 0.18927039 0.09427059 0.10755723 0.09392439 0.19075397 -0.03533547 -0.013717061 -0.3165318 0.070780516 0.018107913 -0.001907361 -0.09962705 0.014708145 0.15566295 -0.09135122 0.039859418 -0.06973915 -0.14070636 -0.10244081 -0.03551647 -0.044004418 -0.048411362 0.07128913 0.004880568 0.13875565 0.030949542 0.13288777 -0.083044566 -0.24137388 0.04163314 -0.05948985 0.018263597 0.14945157 0.097855866 -0.14536072 -0.20589623 0.14461601 -0.023585612 0.03131715 -0.23017018 0.24769773 0.00051876146 -0.19626586 0.0922831 0.011174998 0.08648544 -0.035843533 -0.04312333 -0.20035419
941 -0.10579723 0.06800544 -0.2099232 -0.18842547 0.09437818 0.06962054 0.17867543 -0.15162759 -0.13189174 -0.053802036 -0.119741485 -0.08321355 -0.053240176 0.027887817 0.19548234 -0.23912464 -0.25477055 -0.10316254 0.21328749 -0.25511247 0.11272408 -0.26139125 0.11805737 -0.06924905 -0.09563627 -0.16060065 0.082780324 0.2418226 -0.14654224 -0.01575585 0.06699382 0.22415929 -0.19922937 0.049718477 0.23559433 0.13499437 0.14207599 -0.19253404 -0.11468746 0.006420126 -0.137429 0.017427566 0.1495471 0.04282315 0.12092067 -0.032945614 -0.06930681 -0.031206736 0.019310141 -0.07455334 -0.1415169 -0.019618351 -0.010874625 -0.24785984 -0.08477788 0.045744628 -0.15132552 0.061738834 0.21283942 -0.2686144 -0.014736029 -0.10049407 -0.14799978 -0.03578466 -0.14644134 0.09226929 -0.021109005 0.00085349364 -0.28673676 0.16006452 -0.11629364 -0.1489325 0.08725049 0.24522036 0.28418538 0.095970884 -0.03172763 0.16011101 0.16528782 -0.21146479 -0.080910966 0.09908219 -0.08258457 -0.16908222 0.10461899 0.14494132 0.18738626 -0.10471659 -0.009448608 -0.08786841 0.04180325 -0.07858549 0.21726482 0.28978902 -0.091197155 -0.19788007 -0.010666722 -0.10458296 0.20635895 0.17983365 -0.007286695 -0.01631477 -0.025953773 0.2709036 0.07027732 0.10746199 0.07500475 0.0045910696 0.0460553 -0.103568755 0.08844084 0.26857588 -0.13330294 0.27359456 -0.13174888 -0.2573449 -0.10216839 0.11799981 0.21985073 0.12635052 -0.18172945 -0.25121704 0.007891463 -0.24224456 0.11526183 0.082305156 0.17982209 0.06760668
1896 -0.21421601 0.08548625 0.11352412 0.046593297 0.09199262 0.21189858 -0.1211576 0.08405418 -0.005491856 -0.14174472 -0.08105263 0.15312003 0.09923532 -0.20128663 -0.18060642 0.10571285 0.08304743 -0.016253227 0.16367638 0.13352805 0.24987929 -0.046942323 -0.011284779 0.008044286 -0.075469546 -0.18089595 -0.1010249 -0.34158263 0.17445956 0.1951227 0.15092434 0.15109143 0.018049615 0.1738557 -0.15159847 -0.1677775 -0.07194992 0.061101068 0.09946351 0.27998757 0.13135052 -0.041364014 -0.062008616 -0.1504236 -0.25433862 0.032143194 0.1455927 0.08169813 0.04205211 -0.091801316 -0.09308078 -0.13386549 -0.14634944 0.18946204 0.06473324 0.29864419 -0.014220415 0.06888004 -0.22006018 -0.06449607 -0.09234352 0.19117445 -0.07772301 0.2880406 0.19332641 -0.012027402 -0.036707014 0.05847551 0.013520198 -0.007874031 -0.029972013 -0.048424974 0.17425299 0.09576641 -0.010655001 0.2223865 -0.3201396 -0.02887084 0.024186194 0.019102637 0.22451353 -0.018899273 0.07551821 -0.123936154 0.08776917 -0.013398831 -0.12534529 0.07564085 0.0043172226 -0.30989257 0.03446132 -0.13481699 0.08008426 0.38946357 0.056546554 0.17711864 0.054715175 -0.06961824 -0.068924226 0.2309397 -0.09891958 -0.028329464 -0.035631236 0.098061025 -0.17853214 0.10655212 0.074583046 -0.31247932 -0.33401617 0.01624226 0.11513877 0.27119726 0.0038386518 -0.22341278 -0.41162157 0.061120927 -0.020004265 -0.04756032 -0.1859636 0.13728258 -0.05384797 -0.04388732 0.12509473 0.01600424 -0.015180802 0.19511263 0.09667206 -0.09463147
1161 -0.088074006 0.037192006 -0.287448 -0.032911066 -0.06480355 0.4843197 0.11285918 0.025306601 -0.18504457 -0.18484174 -0.040841095 0.17830567 -0.26147708 0.20879625 -0.28125453 -0.0839437 -0.39475742 -0.07443154 0.041764185 -0.07399575 0.27457154 0.14066802 0.15315285 -0.08652433 0.017325023 -0.16023618 0.012476102 -0.03806583 -0.2672787 -0.29538947 0.09275726 0.082149684 0.1979081 -0.09966282 -0.04255717 0.003546111 0.1878715 0.16656122 -0.12460852 0.1358372 0.19734475 0.19395623 -0.24804421 0.06912227 -0.03652596 0.0769772 0.072650984 -0.29729867 -0.16186792 -0.03538148 -0.017037243 -0.2807669 0.006709162 -0.06954243 0.12264203 0.0012143209 0.0519137 0.036855634 -0.11295651 0.077178225 0.25402707 -0.039694592 0.02173635 0.06215937 -0.044511463 0.0049324688 -0.09554394 0.023906725 -0.16949889 0.022642601 -0.17319927 0.112220064 -0.052833747 0.17160603 0.02388134 0.097071394 0.08837431 -0.20370579 0.07736125 -0.049315885 0.081172615 -0.15264364 0.105164535 0.037856854 -0.31517497 -0.0690838 0.027064811 0.21902391 0.025931315 0.13036449 -0.08175604 0.011500156 0.15453371 0.21552187 0.173694 -0.06803784 -0.08820875 -0.09505394 0.0046780375 -0.0239552 0.13289884 -0.29295754 -0.21124738 0.062396996 -0.086351745 -0.013659933 -0.008254744 -0.2618509 0.19322081 0.29319987 0.1442505 0.17888843 -0.17504948 -0.080448635 -0.061907474 0.015346519 0.0049968855 0.16428083 -0.087022424 -0.0968629 0.053523093 0.03407826 -0.08823593 -0.30470333 -0.038645387 0.32867578 0.17196181 -0.012832887
1159 -0.31451517 0.12897992 0.121027865 0.1518019 -0.036886297 0.17930162 0.21964808 -0.16172235 0.053810704 -0.08699805 -0.1014348 0.15725754 0.024502786 0.035674155 -0.069685794 -0.0054832827 -0.07119773 -0.038398966 -0.12921825 0.13558066 0.11909977 0.18741208 0.20137985 0.12837961 0.19048986 -0.07167916 0.0669563 0.18100886 0.20980126 0.1404678 0.03681482 0.026185682 -0.25111088 -0.14774258 -0.32586184 0.09241797 0.08024313 0.08186955 -0.0941752 0.11852595 0.01995934 0.019304214 -0.15486567 0.046494685 -0.1484523 -0.06759827 0.11551266 -0.112367816 -0.008828663 0.12577312 -0.0024368304 -0.03474842 -0.025438927 -0.023258451 -0.12699479 0.12551342 -0.053173322 -0.13690981 -0.20215033 -0.025544465 0.24664286 0.13900413 -0.057539344 0.14356425 0.09452282 -0.19496688 0.025646025 -0.36616156 -0.14551489 -0.07615945 -0.3371915 -0.18082333 0.15846986 0.104192734 -0.031767916 0.025957663 0.14224797 -0.023452751 0.070675895 -0.06795226 0.023518505 -0.18270549 0.13465646 -0.13683677 0.17555645 -0.018838469 0.44058928 0.18581021 -0.07272004 0.050424527 -0.07749567 -0.24833548 -0.02737609 0.3195316 -0.040820938 -0.094811834 -0.10715787 0.014893539 0.076021984 0.035098188 0.10099147 0.021424655 0.023319772 0.1933649 0.05035155 0.17270923 -0.034841966 0.15037338 0.06735916 -0.06310065 -0.018503044 0.1535838 0.11166532 0.17084298 0.09220216 -0.12839665 0.07056869 0.15434323 0.048367903 0.05070547 -0.12073991 -0.091618195 0.11337162 0.14544517 -0.049827747 0.016326787 -0.030236676 -0.013218795
1897 0.16389321 -0.018929906 0.21244979 -0.019914616 0.20697859 -0.16747986 0.020370262 -0.10323988 -0.003374263 0.059936263 -0.43600428 0.085104935 0.20994806 -0.20339696 -0.058688972 0.21184722 -0.32652658 -0.09316973 0.039095573 0.28186062 0.009364701 0.18478522 -0.1429937 -0.015629008 0.18312162 0.08603664 -0.077004015 -0.0076991073 0.36767042 0.2701333 0.27591774 0.008437612 0.00073903264 0.11615693 0.05119898 0.04924112 0.1897486 -0.03355558 0.11155428 0.3457469 0.17516351 0.033976912 0.13352329 -0.08358323 0.14444202 0.063022 -0.06430661 -0.09769486 -0.12963678 -0.2001285 0.030508474 0.17746381 0.029379774 0.055189405 0.05174627 0.20639366 -0.20724244 -0.18242317 -0.3271828 -0.17126751 0.28469315 0.0734812 0.3045218 0.09215538 -0.066846885 0.08572333 -0.07334031 0.08180605 0.037624877 -0.17435978 -0.21826991 0.12116304 -0.065404214 -0.055262953 -0.05494834 0.0788434 0.06820638 -0.07862539 0.12524268 -0.17528392 -0.05999182 -0.2568262 0.00908073 0.085714266 0.070205495 -0.0036802024 -0.07784329 -0.054896213 0.1565309 -0.0050266725 0.043690816 0.035041295 0.20186502 0.23587579 -0.24570054 -0.047643386 -0.11917115 0.15499383 -0.080955386 0.3309651 -0.0031706886 0.041751202 -0.16592652 -0.017504435 -0.25161082 0.20472835 -0.1177734 0.13811083 -0.0696427 0.088659815 0.09399895 0.17486005 0.18671875 -0.052400704 0.065196544 0.023223989 0.08158651 0.21484937 -0.20016573 0.13978733 0.064305976 -0.056474894 0.04169659 -0.10985063 -0.10177815 -0.36238194 -0.0034919754 0.120509736
1596 -0.26992935 0.07511983 -0.10232388 -0.20161588 -0.031094119 0.07876216 -0.079683825 0.08189928 0.2644622 -0.05168863 -0.083189525 0.028794046 0.029606666 0.060128048 -0.3657921 0.18377584 -0.009390331 0.19340765 0.091751486 -0.10437443 0.17134258 -0.0687382 0.053478174 -0.06790176 -0.025201527 -0.13144009 0.00070935255 -0.12192025 0.14843842 0.21995482 -0.033694927 0.296144 0.063730285 -0.08188438 0.23108178 -0.23281841 0.18482645 -0.016062321 0.13879192 0.12880862 0.16897497 0.01068317 0.07356433 0.030541295 0.071817145 0.2842899 -0.18654485 0.0064734453 -0.11402489 0.21457672 -0.037351508 0.12720904 0.17619708 -0.15539093 -0.03970301 -0.07008783 0.005022789 0.07263271 -0.091179594 0.044848844 -0.016548606 0.27147782 0.033989485 0.09646587 -0.10109778 0.032526672 0.109086744 -0.045311306 -0.15977997 -0.022725612 -0.1099429 0.17647712 -0.01074916 0.014801158 0.06253502 0.0699701 0.003771273 -0.031152153 0.26489258 -0.31674138 -0.008866828 0.04628879 -0.24232255 0.02228733 -0.16134349 -0.14722855 -0.0031080446 -0.14384206 -0.023798237 -0.15537868 -0.04424962 -0.099059746 0.069813326 0.13883676 -0.0057976367 -0.21998167 -0.029212968 0.016406115 0.09619317 0.18349129 0.05666784 -0.24877708 -0.076839305 0.03133398 -0.34968966 0.19289127 0.13540277 -0.097744256 -0.15465596 -0.069619805 0.22113569 0.267906 0.22014306 -0.10633835 -0.11081972 -0.08160056 -0.18960647 0.1384261 0.04958697 0.1315285 0.29761708 -0.16393463 0.26930553 -0.05309242 0.005818802 -0.0177856 -0.32638514 0.13196008
2226 0.06852663 0.07408124 -0.015125213 -0.16440123 -0.032033253 -0.0053042476 -0.14410949 -0.0513979 -0.24538317 -0.08669546 0.09609663 0.17674723 0.020730818 -0.2325991 -0.08283941 0.38058916 -0.12414754 0.0419027 -0.15024492 -0.11725606 0.10481409 -0.31500107 -0.02386485 0.091607325 -0.11825331 -0.04865832 -0.09163884 -0.16258502 0.014389547 0.07804305 0.081034355 0.06920647 0.20699716 -0.2505834 0.32006115 0.08669205 0.28647777 0.015941039 0.08948575 -0.018985342 0.09201627 0.11093543 -0.020360371 -0.074944414 -0.0037132676 -0.059272837 0.22507602 -0.29056972 0.16765065 -0.19895531 -0.006276656 -0.04751727 -0.04023483 0.07510903 -0.026643338 -0.013201713 0.1062359 -0.09894503 -0.05555485 0.206681 -0.062763125 0.1590515 0.21364875 0.019316645 0.04756319 -0.26218435 -0.010838716 -0.16049254 -0.12918894 -0.053093713 -0.3784136 0.21509649 0.117479205 0.3240476 -0.10888776 0.08507898 0.018961916 -0.07916785 0.11420941 -0.04059635 0.014757273 -0.18189338 0.15931134 -0.017538555 -0.097369544 -0.2964796 -0.039161105 0.11925983 -0.07700141 -0.08084421 -0.082221776 0.16018653 0.30828208 0.19756171 0.2303457 0.19266307 -0.08131906 -0.18816946 0.12817492 0.1584337 -0.11558031 0.10661111 -0.14610249 -0.35413954 -0.18840642 0.136852 -0.02003475 -0.130403 -0.2037457 0.19073068 0.07569926 0.17094152 -0.07512885 0.040074494 -0.042286552 0.2846455 0.09761548 0.05541971 -0.03904088 0.014576201 0.01654633 -0.1310776 -0.088469684 0.122905254 0.04515848 0.1413676 0.106849074 0.08094161
1872 0.14382069 0.14503066 -0.09694556 0.16807525 0.0066068796 0.13785915 0.23568967 -0.20487602 -0.031186279 0.070030645 0.012549959 -0.08941457 -0.08587159 0.081918426 0.011924724 0.08099726 -0.058134798 -0.22895294 -0.055662613 0.0012926877 -0.09885255 -0.0027440186 0.017140625 -0.11495505 -0.063433185 -0.3132012 0.02867353 -0.101457074 -0.044035412 -0.16979866 0.025319507 0.12143599 0.21369976 0.08933938 0.010637638 0.18097405 -0.11239664 0.051821146 -0.050816014 0.23496915 -0.15053722 0.17244004 -0.29493845 0.03364225 -0.13604571 -0.13421564 -0.0449256 0.09862303 -0.17522642 0.015982615 -0.2600857 -0.14415738 -0.12886447 0.1554049 -0.3012994 -0.14463548 -0.11729229 -0.020218324 -0.17871252 -0.0904385 0.26318845 0.104410686 0.17817071 -0.095077954 0.05386433 -0.15421286 0.086121835 0.054511305 -0.4398523 0.056035317 -0.16035016 -0.2050646 -0.0037212146 0.14520952 -0.053235114 -0.0064642853 -0.056874122 0.06188422 0.005002179 -0.03862469 -0.0816211 0.15468732 0.2962888 0.10019927 0.18585645 -0.20172335 -0.09211097 -0.11372891 0.14534347 -0.1891898 -0.011060356 -0.40522784 0.15316808 -0.08067969 0.029713878 0.09122314 -0.020769676 0.15876976 0.138209 0.20595105 0.15634967 -0.11553931 0.14729898 -0.11373929 -0.11087698 0.13938783 0.045171563 0.015758334 0.16969709 0.0063263476 0.17416343 -0.01680238 -0.08185724 0.15966643 -0.115531474 -0.12498121 0.083925925 0.09679558 0.083637 0.21920739 -0.16276518 -0.24360414 0.022747118 -0.16578643 0.2719454 0.13815846 -0.13637319 -0.010416204
1227 -0.11151555 0.039831404 0.060341503 -0.23630454 0.05030559 0.111570716 -0.2909174 0.09320847 0.24223563 0.085217185 -0.03911427 -0.060306598 -0.15267885 -0.10568279 -0.10062805 -0.24943788 -0.25530398 -0.1304847 -0.027464747 -0.093171276 0.15871046 0.15008458 -0.012721827 0.022635996 -0.005289686 -0.10858167 0.010591093 -0.006235842 0.304922 0.01102532 0.28702992 -0.12238988 0.045842428 -0.1058106 0.018337704 -0.049781974 0.17745815 0.18294868 0.13537613 0.264566 0.09836191 -0.1546302 -0.05156628 -0.3764493 -0.094122134 0.20785567 -0.053200107 -0.22968635 -0.18142042 -0.08363299 0.0517871 0.103551574 0.25980705 -0.23237652 0.039114323 -0.27030832 -0.08008786 -0.038565893 -0.093556345 -0.13910721 0.19682467 0.06862008 -0.0912127 0.08578067 -0.16012938 -0.12152648 0.19484273 -0.033485856 -0.18579099 0.14141537 -0.23843147 -0.24875629 0.13034797 0.25511092 -0.16136856 0.058796566 0.10465664 -0.027996378 0.22725293 -0.075831965 -0.03595083 0.01772881 0.35498077 0.10781382 -0.044839703 -0.07839053 0.18441981 -0.0811252 0.2111361 -0.06716751 -0.12833849 -0.040869895 0.1227045 -0.021276187 -0.03962277 -0.11036443 -0.18784006 -0.095191 0.1452721 0.08667066 -0.050658945 0.060061127 0.053315725 -0.097317465 -0.24928269 0.13583758 -0.05152138 -0.083470576 -0.06492761 -0.4084179 0.16367105 0.17116459 0.014797464 -0.14811501 -0.03990855 -0.066583075 0.06561602 0.056429647 -0.07105042 0.05621965 0.106193624 0.06073781 0.0034630653 -0.030597348 0.05045484 0.02725168 -0.021197656 -0.15647936
229 0.019190626 0.1583869 -0.1116456 -0.06458127 -0.2210888 0.11676449 0.07396799 0.18964835 0.2168019 -0.16865559 -0.076213524 -0.052918002 -0.050037466 0.024644528 0.0460987 -0.058074214 0.01606538 0.00043130128 -0.17305662 -0.14871438 -0.08601415 0.13147074 -0.08742557 -0.3305985 -0.07067401 -0.11558723 0.017885046 0.1792222 0.007234239 -0.1113353 0.085403465 0.12175389 0.32830995 -0.23113918 0.07023492 0.28245285 -0.0037485044 0.31129873 0.06814561 0.10788954 0.15150893 0.044832554 0.03434678 0.10343899 0.20534535 0.09072217 -0.14597057 0.054343116 0.23972179 -0.35174778 -0.29764786 -0.27991778 0.061394148 -0.056911893 -0.0690459 -0.0141992485 -0.055107992 0.029353682 -0.09309557 -0.093905464 0.238774 0.33232063 0.1749372 0.036603507 0.07845347 -0.028013704 -0.119938284 -0.10779315 -0.30931973 -0.14262494 -0.16931327 0.16813368 0.14165017 0.044588637 0.050511815 0.19467647 -0.16052264 -0.117076844 -0.021222945 -0.24827804 0.003047568 -0.085157186 -0.11252619 -0.07541493 0.16987647 0.110026255 -0.09470025 0.40402716 -0.09211967 0.15415998 0.11966919 -0.024198806 0.07587055 -0.026752125 -0.04280723 0.19324884 -0.16225168 0.18306656 0.09513456 0.30560368 -0.046148587 0.24100831 0.08908289 0.19664897 -0.31003895 0.14411414 0.08053342 -0.073055625 -0.03826092 0.072572924 -0.27458706 0.21414189 -0.18534614 -0.05719685 0.0049866494 0.020531507 -0.13449231 0.11830116 -0.10949831 -0.045579243 0.040376727 0.056356806 -0.11060351 -0.045696422 -0.033977564 -0.041023284 -0.00093328964 -0.14897652
1154 0.069621235 0.2379813 0.20444539 0.25705236 0.026977526 0.04707383 0.110728085 0.21686631 0.013977946 -0.17632572 -0.09100774 0.082504086 -0.35561055 -0.14924793 0.03918161 -0.0299759 0.044019327 0.1649346 0.12975666 -0.11002988 0.035604082 -0.15866034 0.041261252 -0.3584547 0.25160155 -0.14098158 0.045091704 0.0046656677 0.19067185 0.21606985 0.016732119 0.017361457 -0.09952595 0.1389276 0.031231355 0.15197977 -0.057947062 -0.0730345 0.1860009 -0.11411798 -0.07280719 0.07470545 -0.1452763 -0.036763526 -0.054658126 0.1947719 -0.3245835 -0.19182315 -0.12687393 0.13443542 0.046902347 -0.15536606 0.4192386 0.24461733 -0.0091859335 0.15374812 -0.1230479 -0.048609637 -0.27894944 -0.23104681 -0.108538955 0.013563973 0.14585873 -0.16474997 -0.16016628 -0.24411418 0.06339259 0.03848797 -0.066519454 -0.26609284 -0.106495924 0.005297508 0.05240326 0.27611253 -0.11424915 0.257963 0.010184221 0.14713016 -0.119822234 -0.2786494 0.20658764 -0.09320392 0.023728503 -0.3124658 -0.08166687 -0.067985184 -0.014854429 -0.0038342914 -0.0042641195 -0.014502245 -0.026378768 -0.032507263 0.052464005 -0.09597912 -0.17437902 0.014013438 -0.10774238 -0.28547692 -0.017043889 -0.11243496 0.26993915 0.037684146 0.09711863 -0.113820195 -0.15930536 0.08000853 -0.121871546 -0.11420202 -0.025643704 0.28477857 0.11934383 0.43113473 0.3738778 0.059119936 -0.0017111549 0.026847396 -0.45397165 0.16499287 0.09752154 -0.06959557 -0.0627341 0.032842305 0.14351644 -0.11773322 0.1850527 0.019211756 0.04168246 0.23514429
1669 -0.004343731 -0.1440768 0.011054212 -0.14169215 -0.10448691 0.028396662 0.12941425 -0.020115048 0.06694634 -0.18251596 -0.035159577 0.18753581 -0.15386567 0.024759954 0.08807918 -0.0032051543 0.20865963 -0.3539121 0.059646744 -0.027630856 0.05421184 -0.088081785 -0.071620286 -0.19340916 -0.22981143 0.09706284 0.048636228 0.11492879 0.0631531 0.008756792 0.019489322 0.3213734 0.03025776 0.025977693 0.0034274212 0.060556192 -0.0059815682 0.062073912 0.10873079 0.2331149 -0.08050394 0.16956662 -0.1173158 -0.28860852 0.05949428 0.11946495 -0.18461387 0.11324029 -0.19274318 -0.0902917 -0.1354495 0.023934672 -0.13692005 0.07223237 0.08355616 0.21818955 0.006557989 -0.074888855 0.052445535 0.21137032 0.1183077 0.3056108 0.026418135 -0.15430307 0.13968788 -0.18378447 0.109474786 0.17025003 -0.16122226 0.050953954 -0.19193996 -0.09248232 -0.020616306 0.34556922 -0.029937852 0.29533163 -0.36430082 -0.06319487 0.050095074 -0.09292898 -0.013077805 -0.12278532 0.03698673 0.020296883 -0.003944953 -0.064052194 0.033139065 0.16440398 -0.1200598 -0.042524606 -0.040038418 -0.15858395 0.045953438 0.10760913 -0.13030565 -0.23471867 -0.023057684 -0.12724544 -0.0678654 -0.08653772 -0.027430857 0.07889664 0.10365562 -0.064089805 0.2502583 0.2533162 -0.06921891 -0.041809857 -0.06763957 0.071207866 -0.19418852 0.17568353 0.024566015 0.18942913 -0.024594383 -0.025678067 0.15696754 0.2484111 -0.13554952 0.21123056 -0.25760198 -0.17122512 0.069255374 0.11849749 0.17442562 0.1526049 0.08759044 0.28289863
135 -0.16266996 0.035948724 -0.13414167 -0.31426153 -0.10390385 -0.396185 -0.04816623 -0.060193047 0.10652015 0.13315114 -0.01814999 0.20941716 -0.15116529 0.052511178 0.13388501 0.01602822 0.013981974 -0.05409574 -0.13694544 0.0009448965 0.18238032 -0.23744564 -0.056713667 -0.21448533 0.15586708 0.046380736 -0.37252825 0.020562654 -0.038685102 -0.15105365 0.0754282 -0.001227487 -0.110781394 0.025999917 0.029088488 -0.08680095 0.13162263 -0.13874252 -0.04415332 0.39833787 0.16409782 0.0015349075 -0.1250427 0.2441692 0.1177335 -0.18938111 0.22368889 -0.08584697 -0.25270492 -0.1602588 -0.11046931 -0.15313926 -0.040436897 -0.0072175954 0.037168942 0.1582627 0.05394935 -0.045344766 -0.059541196 -0.32013246 -0.025577363 0.13986783 0.02328499 0.16173984 -0.20662375 0.035506163 -0.0731283 0.23551403 -0.10408599 -0.13862216 -0.10751995 -0.15912354 0.051001493 -0.019210845 -0.033326365 -0.23000085 0.17667972 0.056687437 0.08147435 -0.053261522 -0.23604994 -0.07263008 0.14553028 -0.09882101 0.1892165 -0.084598236 0.32618815 0.1264087 0.15017653 0.00036340396 0.0049930955 -0.16658133 0.30770925 0.2057153 0.09099305 0.05524377 -0.30326095 -0.25940895 0.032628246 -0.31284243 -0.023166662 0.016621953 0.053198367 0.05563564 -0.30723462 0.4960999 0.23067288 -0.0068157576 0.2848324 0.059968878 0.0585627 0.03654499 0.046898335 -0.016531393 -0.35756433 0.089437194 0.09754488 0.28619185 0.03113551 -0.07024237 -0.024309441 -0.19874354 -0.050651487 -0.19152905 0.12865013 -0.05154697 -0.14407688 0.1415311
1601 0.05736126 0.11548645 0.28997937 -0.04493638 0.03468791 0.04281338 0.28682575 -0.09010128 -0.22381926 -0.1008879 -0.28442398 -0.009675807 -0.002781975 -0.17664668 -0.25264037 -0.108387776 -0.17263338 0.07422735 -0.13659067 -0.10089954 0.06890081 -0.21999377 0.1016213 0.3067484 -0.4306316 -0.06233806 -0.057039525 -0.16140427 -0.21364745 -0.055212 -0.028355509 0.32547045 0.14027348 0.10135342 -0.050219294 0.23984055 -0.042644735 -0.023743885 -0.087402545 0.18340927 0.0992406 0.25461802 -0.11562395 0.019257331 -0.11942747 -0.11063165 -0.17340447 -0.0015163874 0.025772462 -0.13051482 -0.022988653 0.10949348 0.059968207 -0.17219056 -0.19040124 0.04693733 -0.15378973 0.015297223 -0.27150646 0.045069586 -0.14105335 -0.08376345 0.08429826 -0.018551914 -0.10015626 -0.05802958 -0.0481423 -0.18099605 0.11289785 -0.15976599 -0.16807036 -0.01898062 0.0036356559 0.18972862 0.09654969 0.059033103 0.067631155 -0.28326857 0.18824255 -0.111233845 -0.03658004 0.29766744 0.08784699 -0.20022015 -0.063793585 -0.091635555 -0.041721568 0.25317115 0.09104296 -0.019701364 0.018903738 0.18122286 0.24359758 0.32397524 -0.18307082 0.04856094 0.011375213 0.020720506 0.29082364 -0.05793156 0.25283408 0.08450032 0.21178965 -0.019914933 -0.27459362 -0.07394058 -0.09931652 0.12105734 -0.074568555 0.086672984 -0.06574089 0.25355318 -0.19841677 0.09882685 -0.051533524 -0.11432724 0.022711374 0.05929086 0.01440039 0.058209777 -0.21954136 -0.19319034 -0.032955308 0.061433885 0.19864812 0.15168853 -0.016272036 0.11853816
902 0.074872285 0.07014328 0.09073288 0.014863716 0.073644266 0.006998746 0.14221995 0.01707803 -0.013892804 -0.0064867395 -0.12308668 0.04360144 -0.10204829 0.06017553 0.03137996 -0.012368085 -0.2047233 -0.00014327289 -0.06842736 0.07622132 0.14923783 -0.06689309 -0.017761663 0.15079351 -0.15734357 0.0579806 0.2590508 0.17718056 -0.020748949 -0.14733465 0.1672044 0.13123365 -0.04432978 0.13659406 0.10009578 0.19761585 0.15952551 -0.43306187 -0.08352177 0.10768206 0.4073288 0.21910469 0.0044494835 0.023840273 -0.13422483 -0.29812065 -0.051971365 -0.028251994 0.16223459 0.04899205 -0.024877649 -0.07948437 -0.06155396 -0.15333705 -0.32662156 0.024827763 -0.17101362 0.06254946 -0.23346744 -0.25691882 0.05180787 0.13347384 0.19335651 0.04739973 -0.0053037116 0.19820869 -0.20758875 -0.13305975 -0.28888375 -0.35084853 -0.45881346 0.03630112 -0.12206662 0.186312 -0.10613025 0.08497299 -0.102616504 0.08319784 0.20332494 0.01550292 0.042931687 -0.042350896 0.09309092 -0.05876334 0.14645886 0.13115664 -0.09932935 0.11331519 0.1110147 -0.19944124 -0.025225198 -0.13765247 0.18290259 0.11154379 0.04459629 0.015569788 -0.045592107 -0.23589352 -0.15744361 0.010110876 0.12076301 0.099602446 0.10307825 0.3174169 0.08187783 0.050522733 -0.097484544 0.34484583 -0.14073475 -0.078162566 -0.02668013 0.16230115 0.06448288 -0.048709005 0.006059425 -0.24822126 0.01940918 0.12048895 -0.20067933 -0.14543435 0.1177499 0.022129264 -0.07718211 0.044696297 0.08284404 0.08835995 -0.11426408 0.15488432
893 -0.16748205 0.11317497 0.1330928 0.009918315 0.16732395 0.07444631 0.11822585 -0.05073684 0.029046198 0.054802977 -0.1715005 0.06695526 0.035724916 -0.18686019 0.057144143 0.08962827 0.08858913 -0.04871145 -0.17554739 0.010664976 0.09168623 -0.23616986 0.07321829 -0.1797129 0.06461391 0.06945112 0.25394002 0.18559451 -0.16416383 -0.019746229 -0.037663665 0.2561289 0.11879913 -0.380114 0.060130462 -0.04121103 0.23285113 -0.055076465 -0.040157057 0.19092575 0.084781714 0.06324067 -0.24801706 -0.038369864 0.21826021 0.1701689 -0.005220646 0.15051451 0.04105661 -0.057797574 -0.05554137 0.13296051 -0.012010008 0.15310405 0.05056061 0.13640466 -0.12072892 0.05012353 -0.24993375 -0.17447606 -0.28671473 0.20317861 0.12496079 0.08095999 0.25834367 -0.054880463 0.022106007 -0.036278926 -0.30411315 0.10898099 -0.19590008 0.044116333 0.033255532 0.21839932 -0.2544361 0.039155986 -0.031571794 -0.058506828 0.25465053 0.059294958 0.14874575 0.24201183 -0.050482247 0.07008226 -0.2633509 -0.21256913 -0.029677931 0.04747445 0.3659779 -0.0650941 -0.120545894 -0.0060722567 0.3722797 -0.09486831 -0.05462333 -0.08739386 -0.02932645 0.09750243 0.042779703 -0.08488688 0.0972458 0.117031105 0.10643835 0.1955711 -0.00798944 0.22664621 -0.096993335 -0.021765186 0.1636548 0.19501287 0.1099489 -0.061682783 -0.04977919 0.15734813 -0.06403275 -0.13363558 -0.021329744 0.10989972 -0.27443442 0.07856268 -0.114100404 -0.15456942 -0.0007138875 0.29353032 0.15941449 0.092375524 0.013302359 0.25503674
1585 0.11963628 -0.07931268 -0.028271835 0.15710475 -0.056766197 0.17910439 -0.08560442 -0.09022456 -0.14041035 -0.09299364 -0.19400135 -0.038171403 0.004361063 -0.25873968 -0.11006184 -0.009114584 0.16490445 0.0051625287 0.058642644 -0.011208802 -0.025706049 -0.21715644 0.10647173 0.11268122 0.16814066 0.075049356 -0.10112954 -0.14432792 0.114954025 0.100129135 0.35432142 -0.16508609 -0.03910811 0.010848172 -0.09928624 -0.029270453 0.0038265302 0.12541285 0.1792148 0.2668861 -0.077251315 0.4351501 -0.07548394 0.03766297 -0.25699216 -0.062329773 -0.08964801 0.12652107 -0.08866961 -0.21234217 0.018850744 0.10716698 -0.10825496 -0.1781992 -0.09600245 -0.05699645 0.25887942 0.15120013 0.0011263898 0.023595266 -0.043203577 0.1695828 0.20178472 -0.21366183 0.10315342 0.16084191 0.034962945 0.12270805 0.090945065 -0.05364583 -0.117334865 0.06390199 0.14178446 -0.083825566 -0.0212728 -0.09820476 0.038320314 -0.06566371 0.23333746 -0.17572226 0.21240136 -0.10545297 -0.051056456 0.009576794 -0.10111686 0.0016383129 0.4343627 0.167147 0.008191945 -0.06301595 -0.19806476 -0.16489609 0.332219 0.0891112 0.18299632 0.15709122 -0.11637356 -0.00782038 -0.10666373 -0.20771061 -0.020488562 -0.21514226 0.09775225 0.03784394 -0.012323685 0.15675531 -0.16371606 -0.06792615 -0.25766954 -0.03830449 0.09701266 0.19809735 0.26162162 0.0015306938 -0.031554863 -0.3078371 0.013903099 0.43395847 0.095895946 0.21164696 0.071527466 -0.29705644 0.14619115 -0.060701232 0.07439408 0.04968375 -0.12415312 0.025401695
728 -0.013408084 -0.042442497 0.06326063 -0.31419563 -0.114026256 0.04883245 0.16301568 0.22350742 -0.112093605 -0.046689324 -0.28379565 -0.17800699 -0.27343875 -0.21166994 -0.176548 0.015918877 -0.32932505 -0.15302445 -0.22370921 0.20155776 0.11444974 -0.25622052 -0.119944856 -0.21770225 -0.17785461 -0.10590249 0.2586984 0.34150183 -0.26492843 -0.20322648 0.20299138 -0.20418383 -0.06342006 -0.3138289 0.061183184 -0.24398105 0.093400866 0.23608358 0.17644472 0.22985843 0.21356438 0.021924375 0.05616667 -0.069031425 -0.16447248 -0.38223642 0.098532505 -0.19557834 0.16185938 -0.22186667 -0.06707509 0.100231715 -0.22427192 0.13183649 -0.035216957 0.065848775 -0.12528707 0.031725716 0.0002755699 0.05965233 0.093216136 0.014717453 -0.048883382 -0.050207965 -0.20969886 -0.017370844 0.10872392 0.13250801 -0.22659336 -0.19526309 -0.27306268 -0.059943542 0.06388932 0.014589798 -0.11815534 0.018725915 0.13098653 -0.104485065 -0.046899524 -0.24755237 -0.021245845 0.07328744 0.22603199 0.09295423 0.25477988 0.07553474 0.036020305 0.063430004 0.005489725 -0.022506207 0.1267043 0.07943562 0.19511096 -0.2548492 0.073872715 0.16299987 0.021890612 -0.20804667 0.21253243 0.07896397 0.20679766 -0.11010622 -0.16004527 -0.10079983 0.060106423 0.21015692 -0.068968795 0.005155354 0.19020265 -0.027499454 -0.05777717 0.15194613 0.11572075 -0.27439174 0.050103214 -0.19307515 -0.033673983 -0.023608962 -0.0070549394 0.14597005 0.17497917 -0.062010363 0.08342975 -0.10981423 0.2528215 0.11597095 -0.13198516 0.10448347
1157 -0.21192448 0.10028273 -0.034711227 -0.14699297 0.07580735 -0.07834486 0.23628803 -0.078645706 0.036680043 -0.05868659 -0.21878591 0.014627847 -0.041296117 0.03840412 -0.17137921 -0.074869856 0.11363601 0.09266352 -0.07018463 0.028144088 0.1017315 0.011331712 0.03298029 -0.05218481 0.02256029 -0.3807156 -0.23158145 0.036417462 0.2163087 -0.13305685 0.08641974 0.13830476 -0.13937697 -0.12339267 0.035582744 0.04082367 0.051138766 -0.0030125459 -0.08906307 0.19600521 0.20175901 0.1138596 -0.1079958 -0.0010173039 -0.084242 -0.06421958 -0.023486776 -0.03691154 -0.04982749 -0.34629238 0.28825122 -0.11575414 -0.22232457 -0.0015639022 0.020507265 0.088518634 -0.2160368 0.0049654297 0.034672525 -0.1419913 0.061363976 0.08471281 0.17110616 -0.045835674 -0.1476374 -0.061426416 0.104407474 -0.15781285 -0.41826 -0.28823105 -0.11282871 0.23432995 0.037772577 -0.14218381 -0.015602649 0.0077700457 -0.11971141 0.012010187 -0.16837455 -0.01110012 0.15421592 -0.054233328 -0.115441374 -0.24538924 0.067603916 -0.28489292 0.17373013 0.05334126 -0.11880277 0.14439353 -0.15748225 -0.22252096 0.16143368 0.05978757 -0.049987648 -0.2505132 -0.056753185 0.020708663 0.2090542 -0.12943545 0.3148648 0.15299053 -0.21573132 -0.25229958 -0.3334899 0.024428843 -0.016386816 0.13944484 -0.16798043 -0.042175055 0.079461806 -0.11397123 0.08334764 -0.0022033534 -0.034456063 0.038946804 -0.07838817 0.061259788 -0.11500818 0.21788569 -0.15722725 -0.25059766 0.15979852 0.035071988 -0.11518381 -0.031262767 -0.23397826 -0.12058068
351 -0.07911127 -0.041133806 -0.12250632 -0.04042791 0.113515384 0.077525534 -0.13237043 -0.07000427 0.10324629 0.120635666 0.010602803 0.28997037 -0.02865635 0.25160432 -0.06762681 -0.29619578 -0.13747744 0.05930433 -0.044208705 -0.033655472 0.14179905 -0.14670068 0.15979019 -0.16589631 -0.3080936 0.007892043 0.11336734 0.2582235 -0.06906594 -0.07929972 0.25156868 0.3130592 0.07156785 0.35708463 -0.09057812 0.20933804 0.22164503 0.16512667 -0.20446202 0.09016846 -0.008925487 0.29619446 0.12541771 -0.074620895 -0.03431439 -0.0067995116 -0.13449042 0.12931025 -0.14103687 -0.12801133 0.22346953 0.09653243 0.23640123 -0.13393691 0.15960398 0.16197005 -0.1416318 -0.07314995 0.2537157 -0.15398595 0.047339022 0.105040856 0.26452094 -0.039788797 0.22133903 -0.056502335 0.018251289 -0.2523662 0.03299915 0.04024727 -0.30123502 -0.04790252 0.049719468 0.18306114 -0.11576596 0.16831303 -0.14768906 0.07894173 0.05742214 -0.07630472 0.0032746901 -0.016903399 -0.010393056 0.14701188 -0.07527621 -0.05247195 0.26367086 0.19156809 -0.0069874143 -0.037971288 -0.31251964 -0.053081643 0.18015149 0.16549434 -0.18256189 -0.1667827 -0.020903144 -0.17993706 -0.15568136 -0.12694924 -0.005674768 0.070495516 0.13670954 0.21493004 -0.012577233 0.38952985 0.10596649 -0.037780657 0.05339108 -0.070824265 -0.16285355 0.19953415 -0.0955941 0.36503577 0.20336825 -0.042261392 0.16309631 0.24700882 0.064618915 -0.09504869 -0.011573588 -0.32419008 0.2496472 0.25169876 -0.23119114 -0.051111486 -0.23047175 0.12348082
2279 -0.24293078 0.053974245 0.11426908 0.166049 0.16013362 0.1971461 0.015120914 0.08259451 -0.18356445 -0.16194668 -0.41484556 0.24316053 -0.16082604 -0.18562672 -0.21529298 -0.025158921 -0.13570781 0.059183054 -0.20112343 0.13328914 0.20159747 -0.11948168 0.061858136 -0.06369692 -0.08362854 -0.048341848 0.29992858 -0.06572809 -0.0065666456 0.16791458 0.2734524 -0.007356637 0.027406642 -0.119631216 -0.24180436 0.18657199 0.092637464 -0.028609646 0.023567889 0.14838405 -0.07645227 0.07989316 0.13250893 -0.031475317 -0.28442824 -0.15143032 0.2063898 0.009526996 0.07282887 -0.1967827 0.18259282 0.13363728 -0.14673506 -0.10960018 -0.03848872 0.20111127 0.08729454 -0.017548872 -0.2378025 -0.05045916 -0.07472877 -0.009008752 0.059982937 -0.023972651 0.08872523 -0.1868429 0.09479274 -0.03879339 -0.18563706 -0.19506386 -0.2554858 -0.019784078 -0.123603806 0.02253053 -0.14079323 -0.029830204 -0.042940553 -0.013074828 -0.16390704 -0.1804719 -0.22023179 -0.19631013 -0.25541344 0.21304582 -0.007641965 -0.1690097 0.23021792 0.19275549 -0.10142325 -0.15024549 0.20753263 -0.13568401 -0.07197249 0.10567269 -0.12148044 -0.08002224 0.1114464 0.09898956 0.12580149 -0.07379223 -0.18066967 0.26164326 0.07127629 -0.008099452 -0.040951986 0.19472024 -0.011494177 -0.054197744 0.0051993676 0.06505182 0.09393673 0.19212757 0.19409417 -0.041842896 -0.004010858 -0.07463618 -0.123956285 0.31985217 -0.24385579 -0.07853671 0.002729491 -0.09709591 -0.004861594 0.08280344 0.1706176 0.045616582 0.2542809 -0.037016205
1185 -0.17211188 0.039687436 -0.20692374 -0.11849207 -0.24324302 -0.0153424265 0.051837005 -0.040536486 0.08843796 -0.35676146 -0.21758318 0.0926203 0.05042338 -0.040775284 0.2013421 0.39787897 -0.038441442 0.06398151 0.13038506 -0.022541929 0.16990303 -0.20760456 -0.21911106 -0.17295028 0.10248545 -0.094283596 -0.09153781 -0.080016315 0.14842877 0.15390138 0.009801639 0.10412082 -0.15102354 0.0741242 -0.22310455 -0.15363039 0.046361018 0.0037292223 0.21513614 0.065023534 0.2970659 -0.025144866 0.057764962 -0.1981842 0.077301726 0.2889223 -0.09830495 0.024123877 -0.07646849 0.25163424 0.037187 -0.0034806938 -0.23899208 -0.10019429 -0.054960627 -0.00025557645 -0.08228019 0.16043301 -0.030089222 0.022821775 0.104575634 0.09453353 0.054321837 0.011397224 -0.11246776 -0.10828449 -0.03295945 0.026278527 -0.24544564 -0.033058345 -0.25192928 0.1062894 -0.02289164 0.1271695 -0.11226622 0.1735569 0.048152912 -0.020630147 0.27254245 -0.1889604 0.06706543 0.07348039 -0.07040716 0.0089932745 -0.22087565 -0.13995406 0.019101428 -0.05553685 0.1318462 0.027424842 -0.09671713 0.12679723 0.098259814 -0.0043600234 -0.22142121 0.026629325 -0.13546558 -0.030822625 -0.07548786 0.17007154 -0.120140664 0.18638988 0.1885632 0.13962176 -0.13346966 0.20156522 -0.086908214 -0.26311335 0.19055352 -0.013368463 0.091799326 0.22911793 -0.029907353 0.04900331 -0.117849246 0.043058872 -0.14409022 0.083967134 0.020022063 -0.1077093 0.03426447 -0.2575035 -0.11515152 -0.107464634 -0.0147770755 0.2235039 -0.11337558 0.034217995
1688 -0.27639475 0.2274823 -0.04166357 0.08065076 -0.07506516 -0.009729053 0.17967482 -0.09556971 0.004632866 0.16450454 -0.09154353 0.14932509 -0.12206944 -0.22339736 -0.123865955 0.34519464 0.08823473 0.04540017 -0.028470788 -0.049536355 0.29633155 -0.08289001 0.29710335 0.1396111 -0.07398737 0.21439858 0.16141857 0.030598566 -0.018376239 -0.36236104 -0.09912851 0.12048776 0.008051296 -0.055648252 -0.24767889 -0.09224338 0.03218903 0.13567191 -0.018159 -0.1530867 -0.30356127 0.14818873 -0.354262 0.0641731 -0.11721325 0.11579633 -0.12505513 -0.2847568 -0.160039 -0.0084348 0.10033625 0.23704375 0.1343901 0.1011775 0.010653897 0.08513767 -0.06447313 -0.05962885 0.0407583 -0.10183958 -0.07815074 0.30055147 -0.13104093 0.06648601 0.012803346 -0.0095954845 0.2058014 -0.0031501683 -0.39540747 0.05090567 -0.14218254 0.3097404 -0.12842636 0.24758849 0.13120937 -0.06272003 -0.09232147 0.064823136 0.037335705 0.22585541 0.01082418 0.012514993 0.053507093 0.113831595 0.01719515 -0.095190674 -0.037314985 0.0010908901 0.09319749 -0.07087451 -0.06939006 -0.28713405 0.18403865 -0.0023367782 0.106580466 0.015606307 -0.096009366 0.17719519 -0.06910455 0.10311615 -0.02480563 0.33491483 0.0005502745 -0.033407643 -0.032100543 0.29542848 0.093489066 -0.36748564 -0.15664998 -0.09854509 0.10425852 0.14458892 0.2108811 0.08378452 -0.21362574 -0.14326352 -0.09211121 0.05987907 -0.33943352 0.016789882 0.107595734 -0.244893 -0.30520546 -0.07586267 -0.085494265 -0.27309737 -0.2394818 -0.21787746
