1880 128
1150 -0.0146347415 0.11953998 -0.032955427 -0.22238162 -0.074100554 0.0086782025 0.2149723 0.270106 -0.13682574 0.11594801 0.28907394 0.03432949 -0.25777173 -0.039431803 0.2068103 0.08144522 -0.110734254 -0.0026608186 -0.037613228 -0.06717005 0.17785718 -0.20575543 -0.2995327 -0.043936796 -0.008844637 0.23994365 -0.14578006 -0.115170725 0.028216038 0.047512934 -0.10019245 0.11534993 0.10065048 0.14713538 -0.061001338 -0.049069043 0.1010875 -0.2138272 0.1667407 0.058139406 0.09180291 -0.038876623 0.15504566 -0.03275146 0.026649516 0.063763775 0.03150111 -0.1025109 0.015266313 -0.120547935 -0.046830352 0.23456137 0.054768514 0.1633505 0.09277216 -0.07151256 0.00894196 -6.3637344e-05 0.14215297 -0.090944186 -0.109380744 0.114209294 0.14953582 -0.11509491 -0.053971075 0.24123192 -0.051742826 0.036705136 0.042512972 0.003298942 -0.17133297 0.17108211 0.046047866 0.31111684 -0.26727667 0.07864291 0.12964554 0.04012862 0.18189108 0.093550146 -0.029602703 0.110226184 -0.04698987 0.12098315 -0.13961673 -0.056348532 -0.07883213 0.3278428 -0.16120154 0.1892699 0.23894927 0.15209666 -0.07465519 -0.17454426 -0.014375805 0.0245735 0.100238755 0.10980896 0.11001152 0.14880735 -0.056746997 0.33889824 0.04579726 -0.039548043 0.13066079 0.05667328 -0.030433476 -0.12771724 -0.15704358 -0.12082069 -0.122227035 0.027250746 -0.11773709 -0.08954241 0.27132687 -0.118870005 -0.34977022 -0.034122877 0.27191284 0.22707771 -0.16569734 0.07317121 0.1484676 0.17068663 0.08046149 0.112994105 0.15389487 0.07933237
416 -0.18831724 -0.14613874 -0.0044008885 -0.049456928 0.23219533 0.011359114 0.14902952 0.026926948 0.14223342 0.13149759 0.11139037 -0.09143161 -0.03712764 0.016939625 -0.22974023 0.19507034 0.09104898 0.16588329 -0.12562959 0.18613328 -0.004639962 -0.1608974 0.2101124 0.2029749 -0.006186812 -0.21638766 0.027198019 -0.07205951 -0.07897612 0.15736195 -0.058696646 -0.039619748 -0.10312189 -0.4182971 0.017707562 0.15923503 0.25365388 -0.24691449 0.17339975 -0.06616634 -0.020036193 0.16943279 -0.3557546 -0.20245853 -0.11105921 -0.104158476 0.3105712 -0.27199247 0.04488186 -0.23653011 0.19658458 0.0076001883 0.22745407 -0.05131918 0.036460016 -0.041962802 0.13564041 0.22650726 0.0330799 -0.017776202 -0.10680903 0.11161548 0.03839396 -0.3428382 0.050218105 0.31658238 -0.077327766 0.103795335 -0.048622303 -0.1312392 -0.02302668 0.12680858 -0.13985787 -0.19105682 0.15363862 0.1094957 0.095870405 -0.07565628 0.12495066 0.21942134 0.15223525 -0.06788609 -0.02690261 -0.17476468 -0.0899238 0.030550668 -0.13034084 0.1948596 -0.13363269 0.1288909 0.3319158 -0.16620442 -0.12570955 -0.34433925 -0.00015884853 -0.1611936 0.18417136 0.1858763 -0.119300246 1.4420948e-05 -0.06867223 0.15883486 0.10742776 0.03225512 0.12133097 -0.043431483 0.17393543 -0.2642234 0.17317559 0.19706066 -0.04769291 -0.041264456 -0.205079 0.3334876 0.12800829 -0.0658322 -0.045513604 -0.25488257 0.17451212 0.18497594 0.10255576 -0.0150100365 0.115184575 -0.1389138 -0.0791397 -0.17284575 0.11847922 -0.22610658
1065 -0.171696 -0.1262899 -0.23268145 0.09119019 0.08568277 0.0946222 0.20524393 0.105425954 -0.38348556 0.064270414 -0.0029584647 -0.111928694 -0.19043687 -0.17277668 0.0040881364 0.21504286 0.0022015073 0.043741938 0.263197 0.21556687 0.19987072 0.2800726 0.02449601 -0.04198757 -0.06599113 0.040971752 -0.16093 0.25647804 -0.06888331 -0.09704199 0.23824562 -0.11281701 0.019486783 -0.10561725 -0.09524607 -0.1883816 -0.13522904 -0.21050882 -0.073510796 -0.19961016 0.099944994 -0.0048167813 -0.080249876 -0.2681631 0.11340451 0.18484627 0.11731649 0.032158982 0.15806314 -0.15701038 0.28883934 0.13498731 0.02557632 -0.014622495 -0.0905518 -0.004154049 -0.015781183 0.22545719 0.0043969085 0.10318934 0.22279367 -0.09336386 -0.049155448 -0.13895026 -0.10710365 0.011182449 -0.035033252 0.19321644 -0.08167883 0.09998916 0.06281946 0.07134527 -0.021493565 0.059874486 -0.26082256 0.053810477 0.284143 0.18023098 0.13082139 0.088971 0.08759956 -0.13937046 -0.059536863 -0.1254011 0.0047414647 -0.19884922 0.13116214 0.051594667 -0.008211376 0.35461783 -0.11511377 -0.19417994 0.17290844 0.06171 -0.00014695818 -0.024985626 0.024547203 0.022185355 -0.072609104 0.08871951 -0.1964633 -0.08779102 -0.10764623 0.0639347 0.076237224 0.12434649 -0.13315037 -0.13934818 -0.27014828 -0.16316624 -0.029193144 -0.019829798 0.10898008 0.065732405 0.16045527 0.31656662 0.03344379 -0.19527192 0.252447 0.06212364 -0.22718206 -0.17524673 0.21993303 0.07388142 0.045896944 0.2088111 0.039223865 -0.13857237
901 0.08203813 0.08595111 0.16052826 0.2015794 0.36280125 0.07435932 0.084704414 -0.062029645 0.018500213 0.034753107 0.23733415 0.22750524 -0.09666706 -0.02090203 0.12593934 -0.03028605 -0.10348285 0.004915426 -0.24606487 0.079025894 -0.055686332 0.010712999 -0.038642015 -0.23232397 -0.05482871 0.1134016 -0.07141274 0.06323872 -0.23548095 0.34747195 0.24359915 0.28060865 0.030404853 -0.099260844 0.07986518 -0.15198795 -0.07012968 0.008622696 -0.015026625 0.11988906 -0.03262447 0.0913517 -0.011699989 -0.10464048 0.28446844 0.16794749 0.15710081 -0.13133249 0.08173421 -0.084721334 0.22616729 -0.044021443 -0.20131563 0.02172422 0.13850456 0.03460436 0.06242501 0.07750181 -0.07061637 0.098851375 0.3111575 -0.10194992 0.20058282 -0.22492726 -0.21842594 0.22095077 0.0936147 0.23729002 -0.023208892 -0.252274 -0.41278264 -0.07257313 0.13365369 -0.07833455 0.22311711 0.05353215 -0.033294816 -0.005538006 -0.22963314 -0.18965273 -0.00058791385 0.046324782 0.15023515 0.09253453 0.12477164 -0.14965077 0.11287833 -0.019707715 0.064334854 0.15081884 0.3575417 0.12580566 0.12810855 0.012017072 -0.040233918 0.0047214967 0.09518454 0.057018105 0.009514508 -0.06153592 -0.28871155 0.08809175 -0.11163317 0.048639517 -0.020989062 -0.014725858 0.0024278325 -0.24842376 0.00086446345 -0.14350587 0.19124626 -0.0009529378 0.059310444 -0.15899652 -0.04053368 0.15397394 -0.14338401 0.09889484 0.18822809 -0.06683247 0.053706296 0.22447538 0.03562283 -0.06235686 0.003026672 -0.010782042 -0.0016114281 0.026806137
877 0.18297939 -0.23258033 -0.23909137 0.013172551 -0.14643498 0.15277585 -0.041378614 -0.16829444 -0.3695587 0.13929723 0.23927373 0.15307733 0.006994114 0.08286084 0.11974267 -0.06983708 -0.25499752 -0.007848988 0.07387734 0.16251066 -0.15849108 0.25876495 -0.076617286 -0.20314196 -0.1686753 -0.1457984 0.06883013 -0.19443718 -0.05151618 0.20846818 0.07135316 0.096829794 -0.06208856 -0.32238242 -0.23063274 -0.24369226 0.1364812 -0.07001786 0.18760888 0.030795163 0.08108256 -0.049941164 0.14042018 -0.35352993 0.16115175 0.16886275 0.226738 -0.04675609 -0.027974997 0.06709633 -0.39021373 -0.08331793 0.16694906 0.05811268 -0.0055674417 -0.10237393 0.014277294 0.20986216 -0.17258774 0.27133837 0.070644505 0.13296843 0.2512651 0.10989283 -0.085328996 0.19960573 -0.07912724 0.05443813 0.052461393 0.2988287 -0.19034764 -0.036172874 0.044776265 -0.0070736203 -0.029360209 0.07296446 -0.09432321 -0.122338556 -0.04945522 -0.17278688 0.34448805 -0.02853913 -0.32522225 -0.010079002 0.0018061103 -0.03171154 0.09289929 -0.02130799 0.33264488 0.010274692 0.07128323 -0.09011306 0.11338565 -0.1113056 -0.04890826 -0.049500838 0.23092854 -0.015928268 0.09761293 0.01991967 -0.099348605 -0.17156434 -0.015766408 -0.2757039 0.054443702 -0.06906602 0.04568939 -0.28476235 -0.12542151 0.19471806 -0.3306974 -0.17459913 0.09626511 0.013483261 -0.053212743 -0.14662394 -0.010012796 -0.14258352 -0.08119783 0.16452771 0.26317918 -0.020578474 0.24627143 0.016659355 0.12765728 -0.27635252 -0.0003528914 0.010671078
959 0.014679176 -0.24944541 0.20603453 0.08923878 0.43940777 0.046166677 -0.24501297 0.059868626 -0.04853803 0.023026127 -0.010862569 0.14666522 -0.17614709 0.08391613 0.09859124 -0.055488415 0.09296423 0.108332485 -0.0041917893 -0.08584816 -0.16970627 0.035805378 -0.14484416 -0.09998001 0.03025146 -0.0056184395 -0.22394879 0.34135532 -0.06879126 -0.018805753 0.08076214 0.0053930953 0.16914481 0.24939936 0.10966491 -0.21837865 -0.16123381 -0.22819851 0.19102557 -0.15387823 -0.020056324 0.056049414 -0.15766929 0.057519253 0.3908454 0.12108739 0.3680397 -0.20910953 0.25429285 0.09484173 0.01721189 0.08837946 -0.08555767 0.05901797 0.0046106325 0.048584804 -0.14370525 0.1546129 -0.170674 0.07978502 0.117947586 0.06261835 -0.05596573 -0.25855768 0.16165635 -0.08451079 0.025161734 0.13080713 0.14164762 0.09225942 -0.072277255 0.013071 0.16630775 -0.2433918 -0.17660862 0.08047663 -0.07034547 -0.010593537 -0.13783507 0.02666503 -0.07555399 0.3149441 0.09247841 -0.30448964 -0.1395644 0.15135878 -0.029810652 0.05536202 -0.1750561 0.13848771 -0.22657801 -0.22027215 -0.20795152 0.20049588 0.029075118 0.10542744 0.14480048 0.18008937 0.12044601 0.011414882 -0.22688507 0.08408142 0.1441167 0.06366683 -0.22820427 0.40843925 0.09398475 -0.046659246 -0.051106542 0.013190384 -0.13743144 0.0006016901 -0.013757143 -0.06041531 0.1203869 0.048616894 -0.027465792 -0.26927865 0.011441115 0.21980879 0.123246364 0.0055971653 0.17179045 -0.18161242 -0.10314284 -0.37605542 -0.20191856 -0.11773769
824 0.057166923 0.42442605 -0.008582913 0.110860646 -0.108311795 0.03838129 -0.100525185 -0.073597245 -0.056454856 0.083405875 0.1655656 0.1874566 0.092149876 0.21743518 0.2495628 -0.14195254 -0.1260703 -0.046163194 -0.030171867 0.114702895 -0.09847596 -0.047886327 0.24021198 -0.10285115 -0.05523611 0.13334298 -0.20068209 -0.085835405 -0.16354807 0.067470334 -0.0403476 -0.04343914 -0.040602427 -0.24652281 -0.069278575 -0.006662522 0.02481932 -0.11338293 0.3385392 -0.090406865 -0.19769011 0.022726757 -0.16999428 -0.09635786 0.19967957 0.11687631 0.26205936 -0.03465683 -0.008728123 0.066755675 0.11041214 0.07541491 0.02580685 0.006666626 0.04936709 0.054170307 0.067096464 0.1291678 -0.096427575 0.20514973 0.084022135 -0.03133169 0.081878 -0.035368405 -0.43340826 0.1323632 -0.062794015 0.06054133 0.22979514 -0.020437462 -0.103752576 0.06490642 0.089724176 -0.022344809 -0.250136 -0.10397887 0.26386374 0.055434264 0.12028872 -0.10274628 0.094499074 -0.30412993 0.034832045 0.24791633 -0.008977357 0.012770865 -0.050118368 0.071316406 0.03665016 0.07327524 -0.11728353 -0.113528624 0.011510651 0.03619746 0.11606637 0.2828385 0.24064554 0.03951247 0.048054777 0.057091985 -0.38308108 0.07663076 -0.099455155 0.15259139 0.1308261 0.051796656 -0.028250758 -0.32215652 -0.08946212 -0.11674808 -0.06876722 0.09203015 0.15268819 -0.007451686 0.068303436 0.18031266 0.05790097 -0.058827527 -0.1843121 0.1570936 0.3577031 0.14517038 0.12890233 -0.27990773 -0.08522106 0.031540755 -0.13159171 0.08338641
1115 0.10364992 0.089020126 -0.18961567 0.035691064 0.10719451 0.025864305 0.13551942 0.19201377 -0.014021185 -0.10758376 0.31487352 0.063288696 -0.23468985 -0.04704994 -0.06631307 -0.04434363 -0.0034330043 -0.13550721 -0.08823651 0.02858494 -0.04625069 -0.063329294 -0.35981742 0.21877263 -0.00010319299 -0.060777854 -0.4732596 -0.14234309 0.18166777 0.22116616 0.080634594 0.03436827 -0.14498548 -0.15032068 -0.11672174 0.21078563 -0.075636484 -0.09300144 0.20059913 -0.07420655 -0.067760006 0.051191576 -0.12125628 0.083365016 0.12751202 -0.067134336 0.19165829 -0.0012339886 0.08729746 -0.06137693 -0.080174424 0.032020967 -0.009460523 -0.053550065 -0.055250514 -0.0982995 -0.052781727 0.06904822 -0.09844769 0.09038851 -0.2830151 0.009368311 -0.20274773 -0.13579091 -0.078849055 -0.08963811 -0.0424201 0.08473007 0.1792772 0.10066294 0.07205866 0.0061400565 0.30295745 0.108009756 -0.012841793 0.012443299 0.12796709 0.06902892 0.052563414 -0.10567201 0.24562079 0.025200058 0.0032227752 -0.094291896 -0.05370605 -0.23698542 0.18740721 0.07460906 -0.24373627 0.11080337 -0.06643523 0.1481586 -0.1111586 0.19775613 0.06549936 0.09229977 0.24398884 0.08859753 -0.10455426 -0.05549713 0.1656781 0.23204646 -0.16436067 0.02352373 0.046072174 0.16397595 0.032222364 -0.14215106 -0.17983483 0.041704055 -0.034935605 -0.032514546 -0.015509744 0.037637874 -0.0035729231 0.23454414 0.0064761066 -0.3296092 0.08987095 0.13797927 0.15789269 -0.09609012 -0.04744185 -0.14161016 -0.10441243 0.015833847 -0.051958308 -0.11385151
1114 -0.036460403 0.24022008 -0.024289742 -0.020708574 0.037367478 -0.11729906 0.22310047 0.10090503 -0.29235417 0.21419594 0.29778916 -0.00043570562 -0.047538802 0.084583364 -0.13744079 -0.22249757 -0.111348785 -0.10422656 -0.18742654 0.0764283 -0.31236848 0.014153842 -0.5265258 0.05444288 -0.065304615 0.018442366 -0.09243589 -0.21351717 -0.21776724 0.044619214 -0.0016120503 0.022663016 -0.07945726 -0.19322671 -0.121325456 -0.005962477 -0.016533136 -0.09429713 0.19694811 -0.22988415 0.050127726 -0.13552038 0.27712867 -0.18100262 0.1915773 0.11045972 0.05059617 -0.24335498 0.12406651 0.08603716 0.0033647742 -0.08789823 0.047608066 -0.049547993 -0.018902829 -0.12095923 -0.12571128 -0.2239282 -0.06480029 -0.3349235 0.05880066 0.0042330716 0.070050254 0.14901446 0.08812046 0.24420136 -0.054644134 -0.04460601 0.112057164 -0.13700315 -0.08195739 0.064925745 0.07862985 -0.16176791 0.22339332 0.17647517 0.03804227 0.12573534 -0.12855461 -0.19546667 0.31006914 -0.30582917 -0.05251452 0.16041887 0.24975325 0.09544696 0.17766199 0.05540935 -0.23622139 -0.09350264 0.051947493 -0.17205907 -0.012589831 -0.11437704 -0.1515392 -0.038312476 0.11705565 0.01031819 0.15073183 0.04263381 -0.068454 0.14626497 0.093573645 -0.13027051 -0.15794134 -0.055638757 0.03406876 -0.0025603152 0.090093635 0.3126903 0.048955794 -0.2804405 -0.048305452 -0.21310483 0.04703842 0.2467395 -0.22324543 -0.15275447 -0.01647567 -0.17234333 0.26741138 -0.036360912 0.13235688 0.037447467 0.08029239 -0.2638512 0.12671536 0.19175093
880 -0.21272244 -0.10577653 -0.02338708 -0.046563495 0.133096 0.063957565 0.22229652 0.099159 -0.02583815 0.1409019 0.10867576 0.27736384 -0.046950694 0.17403682 0.13802534 -0.057956 -0.032651387 0.082728915 -0.04449965 0.1916851 -0.07987148 0.10000491 -0.19296502 -0.061569892 -0.14743632 0.12124755 -0.22047164 -0.19833922 0.020167118 0.12770185 0.014710438 -0.041049395 -0.027184255 -0.23594469 -0.07021698 -0.09120297 0.18077807 -0.036847115 0.30404207 -0.05691513 0.121090546 0.050452176 0.031711344 -0.100883745 0.1152611 -0.027133597 0.05809878 -0.042308275 0.12478668 -0.04225449 0.056215655 0.27091664 0.004785468 -0.07427923 0.3229292 -0.123407245 -0.08054776 0.25654843 -0.041421443 -0.00932298 0.014567086 0.23307821 -0.019178914 -0.036804095 0.019891744 0.2375223 0.14737181 0.22310667 0.03463442 -0.007961458 -0.09279237 0.04022615 0.2944512 0.17405088 -0.038971193 0.13712221 -0.13223574 0.059935313 -0.114165 -0.17298827 0.119209684 0.13385051 -0.14034118 0.0605757 -0.011473523 0.13635772 0.016384596 -0.014575676 -0.11787876 -0.09288962 -0.3666259 -0.021641059 0.09279799 0.06602454 -0.07276306 -0.01634753 -0.039373796 -0.109814994 0.27563223 0.07547397 -0.07255702 0.24825013 -0.12402418 -0.06682965 0.014841436 0.14930461 -0.24522698 0.048938323 0.06042345 0.12084366 0.12251848 0.02314048 -0.0072000925 0.18963443 -0.18320002 0.07288021 -0.10810165 -0.18486966 0.20653942 0.06927942 0.09356502 -0.048948336 -0.024873627 -0.14298229 -0.2509091 -0.18137002 -0.045888573 0.24345104
795 0.073153816 -0.043284 -0.032663282 0.18257776 0.25105304 -0.016420577 -0.06288231 -0.072327666 0.16170742 -0.14116016 0.24484076 -0.048291516 -0.08831644 0.112420164 -0.030362599 -0.082186066 0.015324574 -0.09529615 -0.2571733 0.15078957 0.037837636 0.22486842 -0.17328435 -0.29141867 -0.10450741 -0.21038333 -0.10773704 -0.11411497 -0.18066864 0.02005418 0.08564465 0.081131 -0.09555225 0.013217933 -0.18213959 -0.1818849 0.06632187 -0.2530862 0.05152758 0.0027607512 -0.007853079 0.007000991 -0.16010487 -0.13449052 0.047627326 -0.106563 0.34874535 -0.096172646 0.07400238 -0.13631554 0.07648776 0.1216566 0.15815538 -0.2172746 -0.17438352 0.040401883 0.11800889 -0.02053332 0.16954347 -0.069830894 -0.008683758 -0.12134135 -0.0030707524 -0.06945168 -0.31026608 -0.024522567 0.038205434 0.061659973 0.06256346 -0.01773541 -0.17734243 -0.004093547 0.014064325 0.006177595 -0.13618366 0.03834665 -0.044401504 0.10208906 -0.050819606 -0.061951306 0.096864074 0.16120104 0.26573002 -0.053795125 -0.277411 -0.08816843 0.014769801 0.0390046 0.04293582 0.11817584 0.12120949 -0.08969445 -0.08611483 0.12699349 0.18947381 -0.18419817 0.037059426 0.22093812 -0.1919068 -0.04776085 0.1207439 0.023774223 0.08304183 -0.05047258 -0.05096805 -0.15004195 0.015982613 -0.22405154 -0.017687604 0.23050433 -0.15938468 -0.1372466 -0.21903378 0.16648975 0.29216507 -0.0903182 -0.03467184 0.054177266 0.023310406 -0.06395886 0.10451034 0.32641315 0.037606213 0.065767825 -0.11509652 -0.116367444 -0.09097969 0.012981438
1008 -0.04925974 0.103372745 0.112303264 -0.091101356 0.1824294 -0.016887633 0.066606976 -0.026259689 0.043940112 0.18094592 0.20870848 0.18839037 -0.037676666 -0.09229138 0.19543536 0.20786569 0.19911204 0.067587525 -0.37431517 0.051520918 -0.1869268 0.228905 0.0033578586 -0.020034542 -0.31933847 0.09940378 0.042563763 -0.16507426 -0.017952142 0.11124086 0.09360584 0.23321941 -0.2385363 -0.3326501 -0.19621255 -0.09970057 -0.21771371 -0.11170645 0.067605644 0.1874501 0.3045252 0.07424 -0.22262771 -0.019594315 0.080248326 0.282878 0.15226017 -0.065113485 -0.21778657 -0.078756705 0.09530056 -0.027112741 0.17277956 0.13946308 0.0076595987 -0.087612845 -0.060797226 0.49641687 -0.18500772 0.115860954 0.020237321 -0.019985912 -0.074237995 -0.124932796 -0.168076 0.20807402 0.18185662 0.049544845 0.1368794 0.09440814 -0.21488662 -0.2838432 0.26204884 -0.028040407 -0.22162896 0.0650325 -0.1035317 0.22038992 0.10545191 -0.1045743 -0.2882368 -0.021609658 0.010572799 0.23742822 -0.176925 0.028736431 0.23534782 -0.022960877 -0.11935345 0.014744861 0.035569012 -0.07277225 -0.15004048 -0.06870189 -0.0358343 -0.04161308 -0.014668757 0.11224913 -0.08507302 -0.091498606 -0.18871003 -0.07370494 0.12602319 -0.036679175 0.006524824 0.024780473 -0.0559176 -0.08213774 -0.1596874 -0.1129546 -0.07962995 -0.11572074 -0.06572215 0.027129946 -0.16362824 -0.0036897168 -0.05346168 0.17000675 -0.057251103 -0.023740018 0.06301372 0.039159704 0.27535573 -0.0769381 -0.053517252 -0.29864264 0.027277876 0.058171082
958 -0.021892672 -0.17146401 0.0003982098 0.093729906 -0.018820303 0.07131313 -0.013919387 0.4176699 -0.032769576 0.29773703 0.24902935 0.1210554 -0.3366465 0.058458418 0.1196119 -0.016167771 0.11241732 -0.3006968 -0.12769903 -0.13564119 -0.17039314 0.21632454 -0.26700664 -0.16366437 -0.01835385 0.13777533 0.052312836 0.11451 -0.023510542 -0.03272489 0.20345111 -0.03462045 -0.12525807 0.22008634 0.12219985 -0.16997904 0.02590908 -0.16878378 0.1945802 0.0461947 0.029653225 -0.029714944 0.07488711 0.04624774 0.07914162 0.18706949 0.13681643 -0.090844706 0.022647323 0.05530458 0.0030340136 -0.006008297 0.020435981 0.027706914 0.3184247 0.04005308 0.0027319458 0.17322499 -0.03640025 0.06839586 0.23986742 0.06986182 0.032339163 0.19525044 -0.04659896 0.038490027 0.019074056 -0.14537776 0.023867233 -0.07785365 -0.12062531 0.075741 0.025889697 -0.1374907 -0.18395934 -0.07740822 0.029915875 0.20204236 -0.097933084 0.12337235 0.019337667 -0.2010105 -0.14321654 -0.18009621 -0.031194653 0.038631473 -0.049023747 0.15965289 -0.25693673 0.11535734 -0.22050883 0.17204441 -0.067033276 0.16031006 -0.06525138 -0.044484243 0.18005611 0.1527049 0.15725034 -0.05686334 -0.29476684 0.04310203 -0.097422615 0.20720144 0.062891886 -0.06670343 -0.05612755 0.0060238163 -0.09313619 -0.28134885 -0.048366897 -0.22781469 -0.021771163 0.19107331 0.026619412 -0.11364885 -0.18255073 -0.052170422 0.10041648 0.18376993 0.23462726 -0.133327 0.115483634 -0.021311952 0.048339203 -0.12521116 0.09688006 -0.32882896
1377 -0.09144268 0.14999066 0.015371015 -0.22889882 0.11430895 -0.0038205897 0.16092558 -0.053943336 -0.21577112 -0.01290131 0.22334732 0.009340747 0.0075335507 -0.17426866 -0.0044876863 0.022609986 0.098795764 0.03791366 0.006849524 0.14001592 -0.11310452 0.07932142 0.12184436 -0.15866171 -0.0072437003 -0.006273678 -0.22861832 -0.036336496 -0.1646382 -0.014274456 -0.0056415484 0.057793207 0.03638106 0.032899056 -0.14235379 -0.016573392 -0.00592902 -0.17014009 0.020219589 -0.13843608 0.050141647 -0.09875871 -0.06549011 -0.20363547 0.3045861 0.23134384 0.21084024 -0.080052406 0.071838 -0.14093219 -0.12668063 -0.07014636 -0.18117501 -0.052082393 -0.03439257 -0.009021337 0.06048388 0.1459876 0.13822587 0.22400315 0.13547924 0.1265898 -0.026244562 -0.091181226 0.05207116 0.20496064 -0.16952205 -0.10775208 -0.14396971 0.018577129 -0.03237028 0.2542198 0.15384224 -0.07878884 0.09206138 0.1655347 -0.24869172 0.042343013 0.13853817 -0.12385713 0.13459735 0.33731505 -0.098321676 0.020906148 -0.13445783 0.06447257 0.25060394 0.12648049 -0.2589082 0.081890814 0.032674737 0.32106054 -0.076543525 0.028125055 0.142022 -0.2862802 -0.04671609 0.07924977 0.06176927 -0.05555551 -0.004723307 -0.25665602 0.034516748 0.07102912 -0.061201125 0.0723608 -0.184476 -0.0343553 -0.11686526 0.12173958 0.07827116 -0.17685144 0.103897 -0.12207701 0.12468811 -0.09246572 -0.09435747 -0.18276277 -0.20313674 0.21285322 0.16144241 0.047960684 0.26356104 0.07458262 0.04455228 0.010176594 0.15664662 0.115388826
667 -0.22814012 0.00015701691 -0.20155782 -0.26416695 0.11394599 0.08545615 0.118944675 0.06375282 -0.10137683 0.098199196 0.1982022 0.05027172 -0.31088507 0.11410306 -0.04088221 -0.068861485 0.110531844 -0.133016 0.06554633 -0.16585472 0.09696714 -0.028672174 -0.038466897 -0.15992786 0.15228441 0.06242289 -0.019286405 0.018218786 -0.053835 -0.07657549 0.23008642 -0.0041765394 -0.052932408 -0.32622463 -0.29333398 -0.08136656 -0.06280046 -0.20492473 0.033773195 -0.09136984 -0.26997033 0.05812018 -0.0057263593 0.11366068 0.039295908 -0.15016964 0.22244857 -0.16978985 0.019528534 -0.20746541 0.2969609 -0.008957608 0.1033933 -0.024729464 0.13199201 -0.04991448 0.16794217 -0.008678489 -0.25785133 0.08787646 -0.193399 -0.14409915 -0.108279295 0.14452831 0.07201493 0.42150044 -0.12122229 -0.035941027 -0.06331434 -0.21726073 -0.0140170455 0.18267006 0.05670584 0.12084602 -0.28502417 -0.1220183 -0.1745526 -0.22151412 0.21370468 -0.031505857 0.23079622 0.16437836 -0.07508402 0.1135836 0.048628125 -0.11132831 -0.00053198345 -0.08426999 -0.021110129 0.14145432 0.091445774 -5.617204e-05 -0.24907823 0.20038846 -0.099820845 0.095393255 0.09600824 -0.01659844 -0.09537549 -0.24739176 -0.21169983 0.1462504 0.16366652 0.09523137 -0.11939647 0.099335596 -0.022672722 0.08318504 0.08829281 -0.05388353 0.015732333 -0.19666785 -0.08605534 0.07748804 0.06465792 -0.032209024 0.14509068 -0.072399214 0.17972858 0.20156801 0.18607827 0.123686366 0.106820665 -0.05838678 0.21528657 -0.15868136 0.043026395 0.31898764
966 -0.03665801 -0.06232048 0.19396622 0.13823667 0.10747086 0.08415831 0.116267174 0.041622512 0.091311455 0.02483115 0.42633185 0.2508411 0.14399119 0.014890314 -0.025085079 -0.07762895 0.05538141 0.016555758 -0.25547948 0.09125435 -0.2386542 0.23924689 -0.14674316 0.06684599 -0.051587433 -0.22026546 -0.038548086 0.10498999 -0.33616546 0.062794544 0.07995308 0.28889748 0.01884101 -0.37359732 0.04613065 -0.08862013 -0.3306309 0.0077810404 -0.0073089134 -0.0538049 -0.33678263 -0.24670686 -0.13592976 -0.3411267 0.19281484 -0.25188085 0.121407785 -0.18155593 -0.15211396 -0.18140899 -0.0137125105 -0.11208954 0.06446409 -0.06523979 0.06835036 -0.09168612 0.19143899 0.074807994 0.12071961 0.13892639 -0.09225767 -0.008210346 0.00039798478 -0.37329873 0.011846506 -0.08736335 0.121788144 -0.00062778615 -0.15448646 0.03108114 -0.24065593 0.12754938 0.18234842 -0.21053556 0.23631985 -0.14857961 0.27277666 0.09425267 -0.02357307 -0.03930601 -0.07923044 0.24597643 0.06210513 -0.001940835 -0.050738316 -0.094285265 0.17783514 -0.14743848 -0.027702533 0.16292457 0.05934709 0.047594465 0.12825425 0.08286492 -0.053078417 -0.22080912 -0.3429537 0.17409733 -0.09497165 0.12987593 0.061650548 -0.06060282 -0.17476845 0.11944985 -0.04865229 0.37306714 -0.0326751 -0.17539702 -0.12863392 -0.06309307 -0.055921424 0.03498996 -0.044780243 -0.14503077 0.29052258 0.23141606 -0.04387634 -0.37805158 0.002697835 -0.032790553 0.030474562 0.22126876 0.14069444 -0.042263936 -0.05386071 0.094242945 -0.20545216 0.12463304
1225 0.005286374 0.047124267 0.112989895 -0.14207344 -0.15685298 0.29169717 0.27828753 0.05420852 -0.081109956 0.11531279 -0.002578856 -0.15632805 0.002081841 0.095588125 -0.07666587 -0.11218328 0.123665266 0.07669305 0.07311646 0.08811878 -0.10572603 -0.18643168 -0.1533773 -0.0052469624 0.058093805 0.08327167 0.2700547 -0.06435179 -0.089905836 0.09378075 0.22568175 0.10012031 -0.26147956 -0.12755595 -0.17131649 -0.07396043 -0.16084966 -0.2466904 0.33491915 -0.1861865 0.012651258 0.050890964 -0.070927344 -0.14025185 0.06011178 -0.075864725 0.3191256 -0.13827449 0.0031889812 -0.15680437 -0.041742448 0.06814137 -0.20790944 -0.1315969 0.21061519 0.25235665 0.020863542 -0.072453775 0.016492113 0.11535533 0.16173273 0.24977164 0.14343567 0.16768485 -0.018415239 0.083059214 0.0035615189 0.16494855 -0.05534529 -0.07941472 -0.31214687 -0.30080932 -0.120640695 -0.23876463 -0.20725541 -0.06750996 -0.12812825 -0.041331667 -0.05050377 -0.040441524 0.059386756 0.018486002 -0.04496263 0.24405342 -0.06427301 0.0735895 0.10949349 -0.13183962 0.017906351 -0.15032345 -0.10898929 0.10075337 0.08049551 -0.097694784 -0.005235157 -0.2032899 -0.014126698 0.30791482 -0.017270017 -0.07268076 -0.13378233 -0.07004652 0.037663676 0.011936421 0.13237715 0.029047824 0.02112595 -0.05213872 0.028224632 -0.002790651 -0.22193928 -0.19361472 0.13492453 0.07156352 0.25326002 0.16846186 0.023832655 0.04952729 0.14490862 0.014658082 -0.05582223 -0.032016374 0.11199605 -0.17861307 0.09294857 -0.09955532 0.1555587 0.08356757
583 -0.080165565 -0.013214504 0.07025989 0.04867162 0.043492205 0.011601117 0.040825337 0.06589996 0.06847686 0.07590693 -0.031316932 -0.12725656 -0.06714588 0.22629899 0.076879196 0.09762723 0.027074229 -0.0070415386 -0.1228085 0.06896803 -0.14382598 0.13361597 -0.2560788 -0.12545325 -0.0037706634 0.24209048 -0.010770025 0.15783611 -0.0050975285 0.22851792 0.21212037 -0.06440375 0.008159987 -0.37777406 -0.01619735 0.003148794 -0.034146667 -0.24914864 0.1613594 -0.08859234 -0.16210307 -0.014851351 -0.07879139 -0.08362276 0.04456632 0.10536715 -0.061701987 0.070697844 0.16840328 -0.11346366 0.110408254 0.11716809 0.10746768 0.07592465 -0.02996728 0.0071817916 0.1225201 -0.045715876 -0.4542597 -0.07930758 -0.12286436 0.009618084 0.098227866 -0.12272227 -0.15584551 -0.14355096 0.17071377 0.012002252 -0.22846116 0.16638167 -0.08179074 -0.0730798 0.21333796 0.02218739 0.100415446 0.12485878 0.24359144 0.03340708 0.08219883 0.04635981 -0.06539113 0.22589034 -0.09612788 0.14161137 -0.14871286 -0.17737514 0.13931201 -0.32091808 -0.02703649 0.25458735 -0.037915085 0.01718465 -0.06897459 -0.016479572 -0.14232555 -0.05876693 0.13126533 -0.13122712 0.15230279 -0.14915572 -0.20232923 0.17544189 -0.060610358 0.15837277 0.049152404 -0.2276619 -0.19129145 0.15668717 -0.0693324 0.05320318 0.21653645 0.061839614 -0.10307055 -0.18506712 0.08132137 0.033844322 -0.24366298 -0.09720594 0.10950104 0.1425175 0.11774658 0.057206966 0.43009073 -0.066328906 -0.07703563 -0.09866219 0.094779074 -0.22682144
608 -0.006343767 -0.16858557 0.01916066 -0.042867932 0.13402873 0.113378085 0.067868054 0.215946 0.0157359 -0.06081684 0.054498263 -0.11031416 -0.0715115 -0.0008367668 -0.08635573 0.1586815 0.08195254 -0.13844806 -0.20943743 0.06699424 0.112953745 0.11210724 -0.10604576 0.13324066 0.14588891 0.19975862 -0.23418282 0.17730397 0.12923 0.16069749 0.12925291 -0.028583352 -0.08064665 -0.21381314 0.037654184 0.11231575 -0.0030611213 0.16499344 0.04426768 -0.053948406 -0.11449803 0.021470474 0.028263496 -0.27867904 0.25146008 -0.1451144 0.14037858 -0.21406548 -0.00074218155 0.018762589 -0.11610799 0.10136055 0.00588102 -0.12913924 0.16902176 0.13879094 0.168673 0.2440034 -0.16311522 -0.014091613 0.01404249 -0.17745526 -0.056652814 0.037293304 -0.2926002 -0.047865663 -0.118514895 0.22574691 0.060830057 0.09992463 -0.07931824 0.120735124 -0.12568673 -0.110403754 0.060465846 0.013984553 -0.13315438 0.014296593 0.1266905 -0.18655455 0.16456924 -0.11735407 -0.027895834 -0.018023122 -0.25493422 0.01105674 0.15737481 -0.04680743 0.13577852 0.27493167 -0.05044977 0.16374338 0.020557867 -0.16449738 -0.004023945 -0.15905105 -0.18668102 0.1747518 0.11295497 0.0032554117 -0.102762006 -0.00028274837 -0.21172434 0.20898396 -0.12515423 -0.20924991 -0.17662099 -0.10778444 0.21790126 0.0047142804 0.13590837 -0.33148253 0.29908195 -0.1668545 -0.031078337 -0.21726985 -0.22057952 -0.35096684 0.028249737 0.03076295 0.110301465 0.039215077 -0.08705806 -0.05586143 -0.02618162 -0.19308606 0.0787332 0.035905324
1049 0.06233144 0.02786615 0.009931141 -0.001601453 -0.117756136 -0.053556412 0.11678258 0.04139136 -0.086603075 0.104030445 -0.04610392 -0.07464637 -0.15043904 0.11820405 -0.060214397 0.017717555 0.21828046 -0.1069649 -0.06731714 -0.115542024 -0.0015848812 0.05759073 -0.14233387 0.02845439 -0.0108356625 0.35729825 -0.053631153 -0.049089648 -0.13973576 0.038563788 0.16165411 0.013998261 -0.29560587 -0.051654655 -0.07462523 0.033898707 -0.11053578 -0.20353785 0.2771447 -0.053295277 0.04331043 0.2633158 0.118975565 -0.121929996 0.031514503 -0.12209897 0.12933289 -0.1191755 0.070420936 -0.11667795 0.29140955 -0.018483695 -0.052610602 -0.021497235 0.25775844 -0.043731794 0.13033043 0.2972504 -0.14642903 0.41480425 -0.100523025 -0.03871068 -0.049918 -0.1941651 0.028626345 0.10076758 0.18362 0.08583426 0.0065124575 0.033579897 -0.26127222 -0.069048986 -0.0068752132 0.062935516 -0.09203662 0.06154581 0.109822646 -0.15284117 -0.07665669 -0.20611815 0.017545946 -0.03667813 0.2873655 0.23858237 -0.11194419 -0.05691 0.06119493 0.2118176 0.16443072 0.015043443 -0.036410354 -0.079430155 0.041120574 -0.015431107 0.10317122 -0.237005 0.20314968 0.061342172 0.04465466 0.044276174 0.004139659 0.2847931 0.36765456 -0.101762794 0.032119676 0.12596294 0.11688196 -0.24123448 -0.09361357 -0.09842197 0.06271104 0.048412345 0.21891813 0.14932932 -0.2606143 -0.05792236 -0.28292102 -0.3106706 0.35257807 0.11853394 0.02706625 0.0055511906 0.18514533 -0.024550334 -0.010749282 -0.09561983 -0.10298614 -0.20555133
690 0.16569272 0.032349322 -0.22847722 0.021034071 -0.08032634 -0.23712541 -0.13261189 0.3463568 -0.085900314 0.03946928 0.18759014 0.07039055 -0.14028123 0.22477 0.14733867 0.002743386 0.017564172 -0.25637212 0.08236635 0.11387484 -0.28414944 0.18523711 0.015868118 0.085168086 -0.041354176 0.1391453 -0.029077861 0.105109006 -0.010790462 0.10963935 -0.07785607 0.17005226 -0.2866095 -0.013318646 0.2034966 -0.19962043 -0.032977812 -0.30568996 -0.05569521 -0.122212835 -0.08239701 0.30873933 0.04840676 -0.3295366 0.15861645 -0.30436805 0.52305925 -0.03228209 0.09570939 0.19732681 -0.07250964 -0.007930217 0.051463164 0.032426428 -0.048132595 -0.09506279 -0.020289147 0.23456159 -0.1464495 -0.13621645 0.027021596 0.17249535 0.015340938 0.3263845 -0.07134334 0.06964528 0.09559312 -0.100388594 0.34691763 0.1785084 -0.28458333 0.12543604 -0.023045203 0.013429251 -0.14733934 0.14436664 -0.11572073 -0.042683605 0.025372688 0.33164454 -0.08418027 0.17767332 -0.29904675 -0.06957164 -0.17169769 -0.1743924 -0.031166226 -0.039600372 0.21781316 0.06667224 -0.026105607 0.045527305 0.048773628 0.016671026 0.2587021 -0.0049931956 0.17601706 -0.19365644 -0.03037248 0.07790983 0.017117076 0.08641946 -0.021661524 0.12069949 0.21426319 -0.07625493 -0.25474888 -0.05709818 -0.10936192 0.050694596 -0.18219537 0.05418622 0.045025233 0.10467997 0.16061437 0.21010742 -0.45654175 0.08763925 0.13215616 -0.11097039 0.19218183 0.02440415 -0.0014659064 -0.033635847 -0.20860887 0.043158054 0.13818797 0.12733687
1527 -0.2513459 0.07538531 0.018705765 -0.11403997 0.086374864 -0.060550343 -0.10697698 0.16594027 -0.5146094 0.027294822 0.4131051 0.060928192 -0.109660886 -0.07309593 -0.087656066 0.190243 0.10815713 -0.26532143 -0.18363571 0.11636229 -0.03751922 -0.097894244 -0.18937086 0.031778496 0.26633513 0.18061389 -0.060994845 -0.24390897 -0.047652494 0.10362084 0.2079432 0.15052073 -0.065520145 0.19644749 0.080556154 0.12894672 0.04970637 -0.20199293 0.183426 -0.047133982 -0.15259904 0.0625146 0.00037537995 0.2583112 0.07137771 -0.11655359 0.32063133 -0.07713224 0.0017873034 0.12344435 0.2762756 0.07790288 0.19315517 -0.10881915 0.28051737 0.02131418 0.073142804 0.010618599 -0.009406164 0.105096005 -0.04859606 -0.31064108 -0.10234907 -0.16755602 -0.116078414 0.28058195 0.07818271 -0.0020117722 -0.14933626 0.064041406 -0.24836807 -0.045544524 -0.007990391 -0.14880511 -0.1901897 0.03273018 -0.014806988 0.0866576 0.06920853 0.13782546 -0.098416686 0.026631793 -0.16918786 -0.0520688 0.01663117 0.20169026 0.12490302 0.17837377 -0.17733988 -0.054295126 -0.20722695 -0.25843543 -0.14470352 -0.17604505 0.23252003 -0.09769337 0.13584365 0.0012241259 0.092320114 0.073989734 -0.00428157 -0.1282545 -0.024900297 -0.037432354 -0.03006013 0.019804986 0.019194307 -0.38248086 -0.04594616 0.11031696 0.01992452 0.082557164 0.14725837 -0.17642835 0.015317403 0.21737523 -0.086104184 0.0736768 0.057599578 0.27929562 0.058865998 0.00042646346 -0.11056764 0.18013838 0.12428992 0.26151466 0.17160434 0.14863448
1291 0.0005601654 0.0674766 -0.09433566 -0.18175872 -0.14493428 -0.033508208 -0.10377901 0.28619447 0.02059244 -0.048783258 0.053451028 -0.1523884 -0.038368117 0.03237093 0.32860622 0.05279898 0.0642975 -0.032334913 -0.0872091 0.015090473 -0.13713028 0.2888761 0.14363477 0.056413118 -0.2307416 0.02862162 -0.3747031 0.035485413 -0.12179098 0.10763411 0.0042322376 0.06501989 -0.17468014 -0.22707725 -0.036126107 0.1408808 0.1469397 -0.041097935 0.13832824 -0.0066542155 -0.1046642 -0.13792902 0.03659327 -0.16358848 0.28058213 -0.024509227 0.255817 -0.0016567347 -0.057004124 -0.12720466 0.14637041 0.07882295 -0.34945384 0.23983198 0.05335913 -0.15993191 -0.016237617 0.030334892 0.08174037 -0.06428734 -0.07976836 0.08895094 0.13928346 -0.17036088 -0.1649087 -0.02108926 -0.15492325 0.18160236 -0.13534562 -0.029381612 0.012080835 0.06946796 0.26152208 0.013462214 0.13448794 0.09999184 0.10497122 0.12416729 0.14808089 0.0094885165 -0.0032163702 0.07042958 -0.0052816174 0.061035186 -0.07953734 -0.074582376 0.1840511 -0.07307351 0.006088491 -0.039242283 -0.00856811 0.04857384 -0.24860157 -0.13376993 0.19380291 0.08782393 0.35102478 0.28791696 0.0032770948 -0.12912577 -0.05504841 -0.16613045 -0.10579983 -0.052308682 0.10728206 0.2833987 0.06300381 -0.08075472 0.13380542 0.38871908 0.03858061 -0.25091022 -0.2032788 0.10145272 0.15092881 -0.09778831 -0.029070253 -0.010749679 0.32283378 -0.012353832 0.06273465 -0.0044485936 0.08725137 -0.1009791 -0.055110905 0.052728362 0.3304557 -0.19471493
738 -0.18780145 -0.012815399 -0.15323944 -0.058387794 0.20921743 0.05682506 0.042868856 -0.22377814 -0.1426725 0.044870347 0.05742449 0.124065764 0.113532804 0.050235454 0.0042951517 -0.11933437 0.17254943 0.12886152 0.09609564 0.04006839 -0.060189772 0.008310171 -0.24520257 0.18572816 0.033471666 0.03939126 -0.14492044 -0.049749404 -0.078701675 0.028455723 0.13457133 -0.07597695 -0.038235273 -0.065678984 0.05916933 0.12891471 0.09943539 -0.27366334 -0.038678914 -0.10643631 -0.01269877 -0.18260166 0.025049439 -0.13551155 -0.07567863 -0.32983047 0.09487987 -0.18781699 -0.04158909 -0.18900469 0.1251677 0.19426611 -0.023619657 -0.08365824 -0.19724162 0.051895127 0.18269272 0.09053359 -0.29632244 -0.03750331 0.07098992 -0.046272475 -0.03145307 0.08222227 -0.18900771 -0.026526697 0.045620073 0.2234251 0.2657652 0.188511 -0.13414356 -0.138859 0.22020406 -0.13158983 0.13129796 -0.09561943 0.014274715 0.106256105 -0.18210217 0.17115256 -0.33085766 0.1330548 0.008481734 -0.043906055 0.08455939 0.0228464 0.19531494 0.06370669 -0.04808735 -0.07095654 -0.12682964 -0.09002472 -0.24938524 -0.06564504 -0.10245396 -0.3121217 0.10862704 0.059291914 0.18567374 0.055518493 -0.2681387 0.14414603 -0.100559175 0.011979594 -0.1782698 -0.14536348 -0.109116144 -0.082160786 -0.03582876 -0.15876122 -0.15484445 -0.026387783 0.19375734 0.16529733 0.15455383 0.08069685 0.06423863 -0.26454368 0.03774518 0.073090635 0.46837172 -0.11230431 0.04921102 -0.14623407 -0.0040783104 -0.024057481 0.2773926 -0.14111479
944 -0.24738741 -0.007095333 -0.18755114 0.032826763 -0.10175738 -0.09245346 -0.06831253 -0.17625585 0.08409372 -0.08457333 0.24012432 -0.069407955 -0.1698355 -0.18838994 0.08443495 -0.016009891 -0.26339814 0.12508142 -0.0973235 0.286988 -0.13007578 -0.018504083 -0.080331266 0.3283525 0.16052552 0.16217652 0.19153312 0.11467741 -0.24180192 -0.16520108 0.15762278 -0.12394972 -0.09656384 -0.21353315 -0.14917906 0.016100524 -0.05484682 -0.15505105 -0.22782135 0.06694631 0.13471323 -0.04925581 -0.07910298 -0.274758 0.033541933 0.23655841 0.47432253 0.1258975 0.087174125 -0.29722193 -0.07237672 0.07726693 -0.08457221 -0.12891786 -0.083707616 0.10546245 0.20693207 0.0001369008 -0.0900258 -0.20116809 -0.04569775 0.11217221 -0.08732831 -0.052506004 0.027560005 0.03690406 -0.08061389 -0.1021495 -0.16581684 -0.06937039 -0.12295107 0.13582793 0.16925861 -0.07767665 0.034063704 0.15416819 0.22080617 -0.008738846 0.10277236 0.046617795 0.06855389 0.030694705 0.09723184 0.22023425 -0.10564774 -0.21767546 0.09752158 -0.07470716 0.13580671 0.071858615 -0.044633858 0.29822075 0.07062774 -0.106214456 -0.08339255 -0.11145592 0.15662022 -0.103443734 -0.07913535 0.2116411 0.20046279 0.015357837 -0.18522725 0.18356052 -0.08581901 0.33746728 -0.22701031 0.07117004 -0.08138651 0.121842735 0.15443726 -0.05028827 -0.12919754 0.22006953 0.13015437 -0.25685257 -0.11237659 -0.055925496 0.045702934 0.27794614 -0.015326441 -0.028695742 0.06131063 -0.116649635 -0.17641848 0.13587074 0.26957595 0.09109724
731 -0.18695691 0.0062175724 0.1640225 -0.023879685 0.06611676 -0.03263528 -0.04756732 -0.11113274 -0.16738397 0.052621156 0.15596765 -0.03563936 0.14289925 0.14973485 -0.041630797 -0.26853126 0.07814935 -0.23312834 0.120826155 0.24086611 -0.02766054 0.12646633 -0.35153145 0.037537392 -0.09580302 0.061292272 0.1450589 0.05846263 -0.23376048 0.013205193 0.3321938 -0.014647062 -0.22228105 -0.15233095 -0.06777459 0.13036068 0.21355933 -0.48727113 0.10024047 -0.051087443 -0.110117644 0.08479337 -0.09736217 -0.32305485 0.002312736 -0.091659166 0.23721609 -0.107521474 0.26399583 -0.17061831 -0.17216559 0.008026209 0.036471978 0.08283503 -0.24654119 -0.17693138 -0.02334703 0.060021274 0.1502595 -0.005934325 -0.060460392 -0.105233714 0.07293675 0.3528803 -0.2542053 0.21004772 0.029152956 -0.104232155 0.20185374 -0.062065426 -0.16299236 0.13406837 0.15192567 0.12030139 -0.211173 -0.13230385 -0.059306305 0.04625825 -0.05038576 0.04395912 -0.1829833 0.39709553 -0.018449884 -0.10271469 -0.122562036 0.13079818 0.07941212 0.036805514 -0.10553662 0.07306669 0.069079496 -0.017840138 -0.049265165 -0.2782687 -0.27905515 0.21061517 -0.058545116 -0.13694566 0.15630499 -0.16290073 -0.058951568 0.12384739 0.09391219 -0.034249872 0.004273743 0.15688832 -0.15828086 -0.18475197 -0.14192525 0.010318847 -0.079004206 -0.18792199 -0.10584008 0.037567116 0.016541582 -0.037557434 -0.03910119 -0.07565179 0.028516885 0.046659697 0.056174975 -0.21664694 0.05664795 -0.091114335 -0.14681996 0.012207805 -0.12818006 -0.05188226
597 -0.059411597 0.0011882214 -0.03306908 -0.106685646 0.010288957 -0.0026816134 0.20557576 0.104569495 -0.1442223 -0.1162135 0.29467517 -0.08032395 -0.17254096 0.04363487 -0.03706708 -0.19811833 -0.1369018 0.11667401 -0.09786863 -0.020090077 0.17247562 0.11352426 -0.1674592 0.08901955 -0.058881644 -0.30854118 0.33214077 0.14969485 0.123801015 0.35355628 0.01287635 0.1694823 -0.014848642 -0.03962147 -0.26331717 -0.0016251254 -0.04040522 -0.062285963 -0.11547732 -0.15040852 0.18368265 -0.2003892 0.059727404 -0.13257848 0.23378624 -0.074032426 0.26977795 0.023879185 0.060917303 -0.1818921 0.21422087 0.047732748 0.16376153 -0.12837432 0.056607496 -0.09192836 0.20003237 -0.017438749 -0.022907907 0.14271568 0.1073846 -0.07489306 0.042555816 -0.21813977 -0.44144458 0.19698405 -0.10314662 0.007674321 0.07478421 0.20356609 0.2520159 -0.11608775 -0.10943558 0.030972576 -0.03543861 0.20216724 0.12002209 -0.08915125 -0.00085791963 -0.29330614 0.12918647 0.44640148 -0.028589388 0.054600555 -0.04949407 0.14725514 -0.1104169 -0.03119319 -0.032805275 -0.02026834 -0.0057027624 -0.036213033 -0.1121168 -0.06625194 0.11032476 -0.06536613 -0.03423259 0.19549246 0.08575835 -0.017709227 -0.13474588 0.1328665 0.0598877 0.37203643 0.026340183 -0.0055242493 -0.12820362 0.0771365 -0.02446086 -0.022370389 0.12237547 -0.28775868 -0.03921934 0.009436378 0.19053873 0.2234675 -0.09085635 0.027854346 -0.018327016 0.022903789 0.19715373 -0.18726695 -0.018640775 -0.19012673 0.08710063 -0.09404268 0.06918711 0.14540108
1023 -0.018638797 -0.14948848 -0.14758949 0.26649863 -0.007426315 -0.0786132 -0.080730125 0.14994751 0.04701278 -0.048273705 0.12510253 0.09393758 -0.2989042 -0.10851106 0.22828342 -0.101375215 -0.03387759 0.16459413 0.27877948 0.051045604 0.14484052 0.17333725 -0.21734928 0.040627576 -0.08749529 0.05675062 0.011268073 -0.2535072 -0.19235708 -0.07071932 0.2790621 -0.12995648 -0.040999703 -0.12218929 0.039930195 -0.054532625 -0.099139065 -0.19061968 -0.03971117 0.094972886 -0.09208429 -0.13609505 -0.06757006 0.08002768 0.12201253 0.24068877 0.24714653 -0.12993418 0.0034549313 -0.12644349 -0.08174214 0.20444214 0.04210104 -0.13583457 0.0043815426 0.08225756 0.21091124 0.06081978 0.010196844 -0.04505206 -0.12598091 0.2004394 0.14458995 0.017261792 -0.25305805 0.21884592 -0.053420372 0.0026939146 -0.12305431 -0.048852745 0.10536287 -0.14832352 -0.0568479 -0.14784901 0.017802274 -0.18592112 0.10777523 0.16800454 0.25971112 0.0769029 0.13804424 0.04989409 0.2399706 0.13320993 -0.12823099 0.016443197 -0.0659092 0.04528855 0.05121567 -0.1302798 -0.4255956 0.009448694 -0.2993612 -0.009545897 -0.12969488 -0.032799542 0.013550378 0.20254198 0.15906164 -0.0015907867 -0.21826214 0.087472774 -0.20462541 -0.016483393 0.00711118 0.14942896 -0.20240518 -0.061596666 0.070551395 -0.083655514 -0.0064114397 0.10567861 0.12875098 0.0027064597 0.23386896 -0.0141620515 -0.13700634 -0.041363623 0.07535596 -0.120984726 0.023969894 -0.16151585 -0.12164828 -0.06177499 -0.051919013 -0.28170866 -0.010707796 0.052638795
1010 -0.185366 -0.07741583 -0.10601006 -0.16308877 0.10782587 -0.15765472 0.055949792 -0.22605301 0.037860725 -0.18332276 0.16581233 0.2818858 -0.179816 -0.23011832 0.22715533 -0.14931898 0.0020043012 -0.0715137 -0.21937732 0.09991201 -0.2514376 0.27441344 -0.10809141 0.013139331 -0.119642176 0.13068661 -0.3398713 -0.14331228 0.04674108 0.16889456 -0.14377908 0.07627287 0.015315545 -0.37444502 0.19347347 0.14735988 -0.25492883 -0.12965253 -0.0045380574 -0.21387991 0.26440844 -0.103218056 -0.028683912 0.03746507 0.06651117 -0.013633276 0.36868596 -0.09324601 0.051341083 -0.09075715 0.020157378 0.07196787 -0.10998685 0.010659435 0.16831373 -0.052718475 0.0926119 -0.086283185 -0.1393628 0.17985483 0.015161863 -0.09841838 -0.2218104 -0.12590213 -0.14581253 0.267899 0.07722049 0.08516676 0.028068718 0.06270252 0.058376607 0.016569102 -0.23821956 0.017344547 -0.013130041 0.10884177 0.25371173 -0.11308464 0.11819159 0.101934806 0.101120174 0.1640846 0.042534754 -0.14968881 -0.05336378 -0.26015896 0.01636994 -0.14342684 0.028273923 0.015612813 -0.09411626 -0.098413065 -0.121907175 -0.052625466 -0.13622281 -0.009459359 -0.13413855 -0.0015979316 -0.16624765 -0.15076073 -0.010809842 0.2779927 -0.028778303 0.22793424 -0.19936626 0.10848133 0.1844611 0.13063732 0.028416814 -0.1547805 -0.11821959 0.20712388 -0.014769704 0.5195671 0.08222872 -0.18985693 0.1210361 -0.026127335 0.08027679 0.21023312 0.21647047 -0.066188596 -0.18907836 -0.15291323 0.004529348 -0.13261822 0.10114883 0.0016739025
1522 -0.07687222 -0.21650884 0.0559898 0.060068347 -0.066280484 0.033485796 0.028935265 0.0891076 -0.04013851 -0.10074991 -0.024104992 -0.07177392 0.06736094 0.4675244 -0.27009448 -0.29551217 0.1164513 -0.19571014 -0.14342605 0.023148814 0.14572956 -0.025451008 -0.054160267 0.06608627 -0.36111447 0.06394846 -0.20530468 -0.09032612 0.022928031 -0.106431335 0.1932054 0.06249404 -0.07867839 -0.03578999 -0.17030844 0.23369095 -0.26084012 -0.20355007 0.14247788 0.15997006 0.3762436 -0.04093696 -0.01059079 -0.36335656 0.14064907 0.16391602 0.30299821 -0.10315055 -0.088410094 -0.22744802 -0.05319584 0.077092156 -0.11771026 0.17407852 -0.078290366 -0.011603524 -0.03366709 -0.07601176 0.052704338 -0.23264079 -0.27692926 0.13522242 0.17506196 -0.23336881 -0.04614601 -0.089134425 0.12338169 -0.015103753 0.16459823 -0.04408492 0.08124531 -0.01917185 0.16494673 -0.11019417 0.14930071 -0.03521834 -0.12579489 0.059969384 -0.03785261 0.07324545 0.12010333 0.10575811 0.09931569 0.25925785 -0.17299607 0.10720631 0.16829771 0.06740263 0.09935428 0.10729704 0.077856824 0.108800605 -0.23829833 0.045132756 -0.11818748 0.036768742 0.24727173 0.052409027 0.27081785 0.012074625 -0.0051880074 -0.17913586 0.021164143 0.26823738 0.10240719 0.110089205 -0.040657274 0.09274747 -0.03497767 -0.02487965 -0.055175386 -0.07362775 -0.09080497 -0.12549314 0.4566722 -0.15550068 -0.28166512 -0.15178052 -0.073152445 0.14704685 0.10866501 -0.030591536 -0.09348746 0.12530051 0.041117463 -0.112098865 0.118858986 0.08274082
1154 -0.09853846 -0.16270302 0.09554101 -0.16925551 0.3832838 -0.015891796 -0.009116063 -0.073409125 -0.04070152 0.17920987 0.13200387 -0.12986167 -0.053042922 -0.099667534 0.11089206 0.054846343 0.076414526 -0.06774047 -0.01283873 0.1895514 -0.0015913602 0.1449129 -0.22857182 -0.051432576 -0.025773872 0.043783054 -0.061644208 0.12111975 -0.009928551 0.048983067 0.22074974 -0.02835664 -0.19252516 -0.26316568 -0.05519292 0.014429923 0.029433792 -0.24453396 0.15880242 -0.17999123 0.048297536 0.0639248 0.029508255 -0.13873202 -0.1404329 0.087316334 0.11766485 -0.041173927 0.0064863013 -0.15862523 0.13400708 -0.21544294 0.014442959 -0.09206819 0.1211709 -0.100510694 -0.12087967 0.027369123 -0.056668255 -0.04123466 0.06508344 0.08357242 0.059577554 -0.1730265 -0.11941063 -0.010839275 0.00023449589 0.08386617 -0.038235843 -0.063171625 0.044470552 -0.14693123 -0.02880312 0.119835645 -0.060959343 0.030779563 -0.098494284 0.22041468 0.0072092703 -0.088349395 0.1484903 0.08520547 -0.17026623 0.083705574 -0.23738576 -0.039930157 -0.04947357 0.08400147 -0.078228876 0.13378076 0.12059655 -0.10910657 0.028078537 0.075153336 0.108397484 -0.0036373953 0.04632594 0.02004542 -0.23966226 0.24737307 -0.22441694 0.089082174 -0.008236549 0.019533578 -0.08270927 0.11919597 -0.15638459 0.14270784 -0.19721645 0.21235612 -0.068591334 -0.2627307 0.008312189 -0.12723188 0.24424542 0.15304998 -0.10330544 -0.30611265 -0.14288777 0.19819888 -0.21306115 0.05022855 -0.060231376 -0.01836437 -0.24506922 0.19335604 0.10965589 0.14609744
1403 -0.046870835 0.117167115 0.047917437 -0.336364 0.03984064 -0.0587118 0.26752117 0.050462674 -0.107664205 -0.23233335 0.080146186 -0.072651364 -0.14739498 0.026693711 0.08268445 -0.08985855 -0.0139026055 0.029153245 -0.097764894 0.047026105 0.0038718646 -0.046535067 -0.07094984 0.10404537 0.14547579 0.14027981 0.040847037 -0.086376674 0.083444364 -0.042260926 0.1959174 -0.19510758 -0.03883439 -0.096043676 -0.095470645 -0.11010858 -0.21584527 -0.27975944 -0.016994262 0.03032927 0.057297356 0.04643235 -0.0948131 -0.16918334 0.15501583 0.0025516117 0.46637142 -0.10230746 0.12714265 -0.43390277 -0.2989582 0.23978385 0.14837691 0.13842948 -0.014481087 -0.123205125 0.08195707 -0.14908852 0.0044885627 -0.06019093 0.09814939 0.21830073 -0.18433568 -0.16517758 -0.0032358675 -0.10625534 -0.015093757 0.10749619 0.124482796 0.081086844 0.02675133 -0.09098561 0.033926982 -0.03006671 0.10225844 0.009482524 0.08180655 0.09875115 -0.043825608 0.084580734 0.07288316 -0.031392936 -0.05180572 0.124461815 0.19343466 0.029296836 -0.072213694 0.10178043 0.013206354 0.12889625 0.04276666 0.30307192 -0.074026845 -0.18893684 -0.19495022 0.17418784 0.25461614 0.25830162 -0.06378066 0.10888957 0.007583275 -0.062250894 0.16635506 0.30381054 0.047997314 -0.02056692 0.12513348 -0.14976954 0.0065448 -0.040134836 0.050562996 0.031204665 -0.0020362472 0.106783964 0.13583845 0.111169495 0.07117199 -0.05443273 0.09143389 0.1928072 0.06569659 0.005887427 0.11676264 -0.21185757 -0.045184053 0.0028281896 0.22609115 0.011833926
852 0.18879822 0.08696199 0.06321682 -0.16248646 -0.1908368 -0.023481915 0.23563036 -0.0046623717 -0.23624752 0.1864596 0.09994305 0.06488308 0.05515313 -0.09928872 -0.20244986 -0.040827543 -0.13920559 0.17314066 0.13572526 0.19043526 -0.2849615 0.23246434 -0.3359697 -0.04138968 -0.071450144 -0.0042085154 -0.09826596 -0.04484699 0.16922706 0.37437022 0.014282255 0.16866583 0.042044636 -0.22184089 -0.1428374 0.049957782 -0.00039651434 -0.10108974 0.04310571 -0.085263714 0.059764255 -0.038778096 0.004966148 -0.25480425 0.1088632 0.0068229698 0.24953724 0.023400791 -0.17459683 -0.06807848 -0.13292292 0.04718788 -0.040652603 0.027733043 0.026147427 0.13467902 0.041208778 0.0411078 -0.03402939 0.1498487 -0.022474527 0.09010835 0.011587036 0.10203883 -0.31873897 0.017366525 -0.05750785 0.031920694 0.05373274 -0.11298734 -0.07870526 0.008796142 0.037384946 -0.041014895 -0.2375457 -0.37417713 0.20158808 0.0109235095 0.0013820003 -0.20456362 0.023459127 -0.033827145 0.12875749 0.0076649087 -0.080189645 -0.06103041 0.104916885 -0.07377679 0.26702458 0.07648054 0.086692594 0.21523963 -0.25988472 -0.1654802 -0.17370324 -0.072972454 0.061735377 0.11303958 0.012138207 -0.11080975 -0.3899384 0.21324898 -0.047293298 -0.04617212 -0.06228403 0.043457083 0.08898134 -0.19211262 0.05535795 -0.25437212 -0.017355112 -0.135396 0.13627028 0.01656433 0.12770656 0.07665635 -0.08439734 -0.14496738 0.18244256 0.1102873 0.054187316 0.038005136 -0.17900147 0.0049413578 0.10994285 0.033917524 0.10121077 -0.04706724
1152 -0.24541849 0.2545844 0.05383393 -0.21286502 -0.039753024 -0.28856608 0.008633625 -0.07724996 -0.00264233 0.0801859 0.02319387 -0.18945844 0.017932128 0.067472965 0.039371554 -0.19038872 -0.10901342 0.097192526 0.025167072 0.20098554 -0.09006196 0.07541701 -0.215945 0.042679388 0.18168916 0.033931974 0.02134583 -0.2374642 -0.1277211 -0.183452 -0.010319257 0.336299 -0.105139285 -0.21553823 -0.07325525 0.12618817 -0.11066954 -0.21233182 -0.039235327 -0.17376284 -0.032909404 0.2246862 0.023545565 -0.15061079 0.20553187 -0.034846805 0.31576666 -0.12446492 0.15541242 0.17800948 0.12730446 0.056613225 0.07446696 -0.08547031 0.18918881 -0.10297228 0.22318023 -0.028995814 -0.27524975 0.14726071 0.104297906 0.01880785 0.07378196 -0.1761496 -0.2013799 0.28570855 -0.11694609 0.12892023 -0.08629397 0.05388869 -0.21427234 0.066830255 0.23576134 0.1382637 -0.28731793 -0.09831854 0.037039768 0.098001786 0.123779915 -0.14811344 0.0841032 0.063389875 0.034276426 0.16706075 0.0020866476 -0.026390148 0.04882759 -0.035010677 -0.015687352 -0.21543376 0.12076877 0.114356704 0.1491586 -0.18343876 0.19692309 0.070407294 -0.013336089 -0.04071865 0.066340335 0.054472603 -0.1726677 0.053301204 0.12303923 0.11733942 0.22157194 0.021780672 0.028421573 0.03980836 0.20629273 0.1991107 -0.096003346 -0.09871178 -0.0077458024 0.19005466 -0.06999432 0.093469754 0.07355883 -0.10576981 0.29768384 0.005605923 0.11091149 -0.014618852 0.045300886 -0.16301951 0.18356523 -0.3287445 -0.13526794 -0.0803525
862 -0.048240114 -0.10316132 -0.2957148 -0.061906863 0.067725 -0.04349401 0.036577143 -0.07744871 -0.040605355 0.06124959 0.003728137 0.18161507 -0.027500223 0.015995562 0.09831999 -0.17242305 0.15289313 -0.15344796 -0.16282137 -0.07010458 -0.2567092 0.14986326 -0.34361634 0.0030677018 0.18061838 -0.13638684 -0.006811536 -0.13296974 -0.15258633 -0.022448678 0.20637958 0.13887006 -0.056638006 0.14774816 0.10640486 -0.123140156 0.090390414 -0.29626343 0.056955423 0.2973812 -0.112948015 -0.07263168 0.0037806712 -0.38742784 -0.15496558 0.023754196 0.2561507 -0.12015787 0.14858231 -0.04997669 -0.06535277 0.07034673 0.11517889 0.07987474 0.11314189 0.09012328 -0.034210846 0.09895391 -0.13844381 -0.0009608996 0.03733276 0.053440344 0.25322345 -0.011549042 -0.015306845 0.12319687 0.044322103 0.09007305 -0.18688196 0.12351216 -0.1651901 0.08993124 0.111113094 -0.07049043 -0.02579572 -0.17269339 0.1854861 -0.050953954 0.091794945 -0.16727269 0.23270386 0.10124986 -0.108592756 0.052605357 0.3070365 -0.21138196 -0.09762825 -0.07059074 0.032923162 0.31753996 0.061473094 -0.036095843 -0.01398174 0.31455043 0.11778069 -0.19725277 0.110592686 0.0456846 0.13263662 0.23799331 -0.06485491 0.2967178 0.028725054 0.06777251 0.0036628977 -0.046117514 -0.16234125 0.029455913 0.007618553 0.26980597 -0.36016902 -0.18832633 -0.0787299 -0.09795147 -0.06922873 0.1530338 0.08993524 -0.11852841 0.033638798 0.2161061 0.059727844 -0.15283185 -0.041182566 -0.23202056 -0.08693574 -0.05243119 0.036173332 -0.09757062
940 -0.05228493 0.016301354 0.21620387 -0.15084946 -0.00921459 -0.16352521 -0.09787285 0.27301013 0.104949616 -0.12840702 0.12597483 -0.027550127 -0.078392886 -0.0850377 0.18264034 -0.19749089 -0.23665215 -0.086469725 0.04376795 0.13957934 0.08361329 0.09968223 0.07529855 -0.016134799 0.17044929 -0.039769627 -0.017252026 -0.28988203 0.11425821 -0.081394404 0.22982171 -0.06322741 0.25180137 -0.2721887 0.045731563 -0.11996244 -0.1782216 -0.3487446 -0.11198184 -0.17618158 -0.10481657 0.09570463 -0.14295211 0.08099791 0.11355432 -0.0016383457 0.2809085 -0.13744687 0.053393446 -0.040988475 -0.12925027 0.16607773 -0.05020303 -0.1566282 0.13558789 0.020824373 0.11842445 0.025543338 -0.05395228 -0.1850731 -0.034919713 0.06495759 0.28375322 0.035602503 -0.0502324 0.20041119 0.058259763 -0.019479075 0.14113668 -0.109827735 -0.03250723 0.058858406 -0.15696228 -0.02949419 -0.080707416 0.06988707 0.124775454 0.18160729 -0.01407125 0.02359995 -0.032534532 0.012310456 -0.041085772 0.12223157 0.1616699 0.0826852 0.12249992 0.20973581 0.07567386 0.010861756 0.010692385 -0.07592664 -0.26504114 0.022159958 -0.13790035 -0.41714486 0.06577061 0.15887097 -0.081572816 -0.16538954 -0.19595468 -0.15386815 -0.14835866 -0.078995295 0.20473573 0.13234729 0.12128448 -0.063572764 0.024778713 0.0015511742 -0.13009734 0.016245903 0.099549435 0.062143303 0.17535459 -0.042682443 -0.0785404 -0.33270997 -0.14958261 0.15282977 -0.027121823 -0.01574317 -0.023299428 -0.12008005 0.12055348 0.052276477 0.07622581 -0.2475247
644 -0.18906125 -0.1491902 -0.043077864 0.16656774 0.15101069 0.26809227 0.22768272 -0.06910299 -0.084649645 -0.073804915 -0.048232026 0.18025494 0.08227614 0.15589002 0.15960187 0.11020225 -0.13160262 0.014937925 -0.114511 0.110311046 0.10085429 0.09755723 -0.34026006 -0.08331431 -0.0066245203 -0.014922732 -0.037392627 0.120286435 -0.25497803 0.067682356 -0.22110511 0.1289275 0.15918897 -0.32377756 -0.061969616 -0.018179802 -0.23406728 -0.10669999 0.02807663 0.11648868 0.0214101 -0.034890324 -0.028692447 0.008589467 -0.19492877 -0.15516144 0.06448152 -0.12415108 -0.1485584 -0.2404954 -0.076494046 0.061484378 0.01677917 -0.09549829 -0.015787996 -0.15828775 -0.02715744 -0.01166303 0.012714866 0.04332864 -0.0061219693 0.037400465 0.20002605 -0.037847467 -0.015962375 0.0990937 0.3019527 0.108417496 0.16744553 0.21951962 0.06513199 0.03139744 0.14556083 -0.030406885 -0.115708545 0.19346227 -0.010979806 0.27385062 0.17657124 0.04933111 0.041452236 0.021362895 0.06819013 -0.21256168 -0.25956577 -0.16364111 0.10885345 -0.3244344 0.24423558 0.11093933 -0.107009724 0.23367725 -0.20645386 0.22294475 -0.11931318 -0.21652628 0.27404967 0.020540575 0.05990139 -0.23565347 -0.03798061 0.070515394 0.20039086 0.0030694075 -0.038325418 0.03614872 -0.24718513 0.09632533 0.17829433 0.036448445 -0.16202326 -0.42367813 -0.061525967 0.035228517 0.08082577 0.17027381 -0.09515053 -0.23013414 -0.09142987 -0.0130368415 0.13691774 -0.04919579 0.06710907 -0.24912255 -0.09394765 -0.19442971 0.34458292 0.293298
1191 -0.13023597 -0.06438863 -0.18486355 -0.26161054 0.043634087 -0.0033677956 -0.022887649 0.1292549 0.009574036 0.046197053 0.21357161 0.19117597 -0.17902742 -0.101807155 -0.120939 -0.12066158 -0.16762106 -0.12226511 -0.008690776 0.13911471 -0.09964395 0.3120109 -0.20810363 0.14745744 0.17492503 0.002755589 -0.17498077 -0.101744294 0.094050206 0.08342143 0.082677834 0.0816085 -0.07896059 0.03881028 -0.014473673 0.30552575 -0.07487631 -0.09008105 -0.22423755 -0.04925189 -0.07986743 -0.012573548 0.059668448 -0.19637209 0.06664445 0.3888944 0.36029604 0.1283245 -0.06870805 -0.16547002 -0.019132076 0.07950246 0.10105497 -0.14257507 0.28938195 -0.13223001 0.12174937 0.2868249 -0.14330107 0.0026095477 0.1684342 0.015766392 0.25619826 -0.13317686 -0.25043666 0.050018195 -0.021008914 0.42650408 -0.1183712 -0.013638741 0.11399476 0.2574357 -0.113166295 -0.10584561 -0.12578331 -0.029300205 0.10249877 0.29510188 0.22491863 -0.13199726 0.20622064 -0.07159988 -0.15156366 0.27903113 -0.16416104 0.049603064 0.15327077 -0.013751313 -0.06147619 0.00685251 0.094234005 -0.29748365 0.04799798 0.028535333 0.053178895 -0.13533236 -0.1333825 -0.0049939677 0.18635648 -0.09445252 0.2275367 0.11645016 0.035718974 -0.10434185 0.058116656 0.08173761 0.18924677 -0.014710219 -0.013948175 0.18018378 0.10522979 0.17181285 0.046340734 -0.21598873 0.08110428 -0.18535562 -0.03753737 -0.20987515 -0.11454372 -0.005899811 0.08544617 0.07651884 0.079461075 0.093693 -0.3792154 -0.016316885 0.39884606 -0.06939598
1428 -0.01504056 0.05915526 -0.020892961 -0.17456892 0.05537118 0.15197133 -0.1735461 0.12350381 -0.075909525 -0.25311643 0.13215275 0.087212056 -0.18251087 0.15576003 0.14717667 -0.24109146 -0.08069783 0.14444043 0.047530252 0.079451784 0.024366908 0.17667747 -0.37639278 -0.099899895 0.07716167 0.048212875 -0.23385996 0.06605703 -0.032626443 0.083324455 0.1051599 0.06539775 0.24648346 -0.21159638 0.081661984 -0.075530306 -0.013205094 -0.16895281 0.044895306 0.03795872 -0.0821958 -0.016012384 0.29081222 -0.02058809 0.14698072 -0.033351313 0.26540282 -0.08570291 0.07495742 -0.17967546 -0.10579977 -0.041632194 0.1148956 0.27066898 0.024448419 -0.0045642606 -0.040915463 0.029773023 -0.03498856 -0.011805122 0.3256736 0.3446226 0.10153899 0.11613082 -0.23709829 -0.20507258 0.03850265 0.3008223 0.25841165 0.26873422 0.12389379 -0.027541768 0.2047216 -0.021834578 -0.010305868 0.112076856 -0.014657655 0.2168212 -0.03648445 -0.0871466 0.034564797 -0.018148761 -0.035044692 0.054549843 -0.14900652 -0.052095145 0.09317407 0.10476835 -0.18755183 -0.041797206 -0.1379962 -0.22245418 0.04329298 -0.016199298 0.045748066 -0.08264883 -0.050590746 0.23862885 0.0048240926 -0.03112393 0.19227034 -0.20396923 0.0101857055 -0.010077614 -0.14289945 0.029795809 -0.019402878 -0.042791698 0.06029065 0.00851363 -0.012350086 -0.118461624 0.014212526 -0.027699014 0.12612836 -0.098845914 -0.32515833 -0.21746685 0.06299448 0.22344312 0.08033941 0.20108603 -0.13029297 -0.058797363 0.16864361 -0.08133621 0.09916718 -0.01883695
806 0.002816822 -0.037454102 -0.045803554 0.03706329 0.23169288 0.23980694 0.3858987 0.0649313 -0.13858552 -0.35119426 0.20101894 0.09393744 -0.12783432 0.30381995 0.08500232 -0.2307835 -0.08719867 0.14022584 0.09050967 -0.008564843 0.15711686 -0.053573404 0.04657525 -0.026246322 0.13160141 -0.090799324 -0.21492425 0.01738037 0.0821311 0.028050357 0.027420431 0.045543723 -0.14332122 -0.24903227 -0.18124968 0.13374147 0.05957527 -0.18178262 0.2696596 0.19221598 0.006733055 -0.32063207 0.06145242 -0.011806009 0.25989157 -0.041493226 0.23643878 -0.16371207 -0.004283028 -0.08624516 0.16503277 0.008425053 -0.109365776 0.2262264 0.181759 -0.12438842 0.08757748 0.037562378 -0.004337012 -0.023939412 0.2499971 0.19386546 0.043229565 -0.041038144 0.18302983 0.20569485 -0.044239223 -0.014825019 -0.012922343 -0.105528384 -0.028126031 0.06717362 0.09727037 -0.1807257 -0.08707232 -0.07337228 -0.019269569 0.22690256 0.029895103 0.12193603 -0.18696673 0.18109204 -0.08122274 0.11000341 -0.19028652 0.07692543 -0.013857176 -0.1258022 0.28435877 -0.12214617 -0.057212055 -0.03003148 -0.32526502 -0.098597236 -0.16479257 0.054954816 -0.025093192 -0.285618 -0.010158947 0.038120765 -0.113402985 -0.08626972 -0.055797916 -0.07515432 0.010248276 0.33449215 0.064955495 -0.14152984 0.16779168 0.0026526332 0.038120106 -0.2400177 0.006048538 0.18995433 0.09277957 0.27413508 -0.15792438 -0.32356793 0.088498324 -0.06427783 0.11365617 -0.02828919 -0.042775095 -0.05910793 0.046224374 0.37300682 -0.036515694 -0.0072709084
1000 -0.053092726 0.12323358 -0.022824414 -0.04817675 0.17170754 -0.037955113 -0.18481913 0.027225967 -0.022292275 -0.0460291 0.28916278 0.026081115 -0.17962967 0.0038946532 -0.08062655 0.04876161 -0.036034867 -0.16422231 -0.25068238 0.1813099 -0.043699842 0.10672524 -0.17136495 -0.07667084 0.08306802 -0.014974888 -0.16569094 -0.022448283 0.04316678 0.33879122 0.09084327 0.1730459 0.12826817 -0.09578935 0.12267153 -0.22995357 -0.02537221 -0.28180078 0.19825645 0.06763302 0.040247772 0.082857765 0.040339794 0.10146865 0.22548962 6.931093e-05 0.16228855 -0.09123737 -0.21323988 -0.16432816 0.094179235 0.016447438 0.09362047 0.19257234 0.0758104 -0.14716876 0.13279936 0.06722894 0.18157779 -0.14948401 -0.058936115 0.08634565 -0.12986517 -0.17636849 -0.13602641 0.23793826 0.05108298 -0.13331394 0.16212648 0.012488779 -0.012386254 -0.0053846003 0.26895085 -0.032257374 -0.0111343125 -0.15041393 -0.2942337 0.10817859 -0.09907389 -0.07586336 0.32313228 0.037124235 0.05675374 -0.056286972 -0.14052412 -0.09158886 -0.038653698 -0.1319733 0.09580128 0.23226744 -0.084545195 0.070033856 -0.055873327 -0.007888844 -0.085063815 -0.09576698 0.2108822 0.07651516 -0.062090848 0.24715357 -0.08496182 0.08061956 0.11877316 0.103685394 0.093436755 -0.057729732 -0.26119465 -0.2503417 -0.09897441 -0.06365868 0.12050533 0.025104577 0.03476739 -0.013763726 -0.031066127 0.04063548 -0.12136281 -0.1639446 -0.024286743 0.10636263 -0.29807404 -0.101808764 -0.038596407 -0.109223194 -0.11876372 0.102782756 -0.08991574 -0.14991
1035 -0.12852977 -0.102850266 0.038837917 -0.092355646 0.052146018 0.18181454 0.0152680995 -0.1296043 -0.19142415 0.07791211 0.14879064 0.10342503 -0.27549735 0.16900772 0.1636396 0.023109883 -0.08316856 0.12622623 0.053655434 0.06501766 0.06665451 0.21557474 -0.1886929 -0.17264774 0.22986338 0.07728364 -0.16956013 -0.22767131 -0.13810454 -0.038849 0.08094528 0.2008099 -0.062281054 -0.1532774 0.1571424 0.030303638 -0.11443798 0.00520921 0.051845785 -0.036885202 0.024695892 -0.28848004 0.04509743 0.018774077 0.10002229 0.3170852 0.28986832 -0.14374033 0.029353386 0.06418125 -0.1247489 -0.114609316 -0.013844843 -0.08755822 -0.1361738 -0.28215393 0.088281736 -0.014610065 0.05555597 0.18087073 -0.005865311 -0.01458068 -0.068925865 0.085554935 -0.15993641 -0.023787705 0.1980641 0.2635043 0.09215766 -0.104855694 -0.15857628 0.034949657 0.22663462 0.3918534 -0.17458788 0.12984762 -0.06490505 0.15864587 -0.18673994 0.0409329 0.057846833 0.20769343 -0.17828871 -0.0240246 0.10336503 0.07424042 -0.07117812 -0.09457795 0.19424789 0.0009398706 -0.103193365 -0.11733231 -0.26068833 -0.114958294 -0.09112461 -0.1006541 -0.050684918 0.27893102 0.17467506 0.07101856 -0.053214826 -0.10212665 -0.079511635 0.025906624 -0.30837664 0.09656556 0.25211352 0.22030772 -0.120578825 -0.0782422 -0.032041546 -0.12821047 -0.12170434 0.119410135 0.04449664 0.3051182 -0.0706799 -0.21545057 0.02235826 0.040939998 0.2650314 -0.12040002 -0.13111854 0.11218923 -0.032296043 -0.10526826 0.1493336 0.20735107
602 -0.16331944 -0.19555525 -0.035103537 0.146073 -0.34450778 -0.0059072273 -0.062718004 0.08173896 -0.01701841 0.1502553 0.3334572 -0.013533575 -0.11809032 0.18026657 0.10827725 0.21458061 0.0054275296 0.12721062 -0.009063424 0.13402243 0.08091747 0.09988364 -0.4458674 -0.015855638 0.068676814 0.13337289 -0.061581958 0.059764978 0.027769066 -0.09564672 0.023243904 -0.09027062 -0.29755232 0.28014475 0.04866458 -0.13300972 0.0472938 0.013490964 0.37418297 2.018039e-05 -0.20889042 -0.07483679 -0.010355918 -0.10422244 0.15378477 -0.02580692 -0.0056750523 -0.21910466 0.018247817 0.071697176 0.030643195 -0.24858534 -0.03426731 -0.06217753 0.11558519 0.005001395 -0.043241724 0.24220987 -0.0152545255 -0.110605106 0.019951211 -0.1459864 0.14111388 -0.17534256 0.153932 0.088843144 -0.105172195 0.0875278 0.21592855 0.26322573 -0.030261265 0.19069389 0.0002844884 0.07939932 0.027545027 0.1716875 0.0964303 0.121981226 -0.21522836 -0.055350456 0.029659636 -0.02068278 0.005975399 0.0126494765 -0.01903483 -0.20636022 0.029780675 0.23430835 -0.013186236 0.38953263 -0.25048962 0.04423738 0.009370302 -0.04598641 -0.0047571105 0.10423289 0.16177493 0.041572616 0.05583675 -0.075741604 -0.2911956 0.021360623 -0.062732436 0.33865324 0.088488914 -0.27823293 0.017506586 0.008207288 -0.08218391 0.19687131 -0.1151675 -0.033680994 0.29668728 0.020518798 0.15761559 0.14951141 -0.054808337 -0.14605103 -0.05077104 0.3248636 0.18164808 0.13047476 0.05563926 0.10461231 -0.022524174 -0.19087632 0.17246075 0.056039073
900 -0.057633605 0.020233242 -0.0018398159 -0.20099449 0.07433388 -0.0773565 0.014011935 0.0030492514 -0.22977412 0.34233478 0.20559259 0.027435623 -0.2203708 -0.16127533 -0.09769589 0.045587577 -0.18984054 -0.08219014 0.06652683 0.07928211 0.011772458 -0.046379197 -0.18061179 -0.05755464 0.04992405 0.08902505 0.04007502 0.18987751 -0.2398908 -0.2230545 0.28338385 -0.06134609 0.13286577 -0.13645525 0.02682113 -0.12946689 0.1808958 -0.0361427 0.26929468 -0.08701645 -0.053084966 0.07946713 0.03454748 -0.17609577 0.082014315 0.17072786 0.33689028 0.03189233 0.16436437 -0.1207487 -0.041054595 -0.14567345 -0.035284325 -0.11447894 -0.07403508 0.26765537 0.373073 0.04022522 -0.034261335 0.09436405 0.0021535077 0.071877025 -0.0875665 -0.174276 0.13191843 0.12650375 0.08424148 -0.10550091 -0.021986663 -0.056798745 -0.11797197 0.3105638 0.17412709 -0.117528625 0.040465426 0.023733469 0.02149938 0.14696422 0.08057196 -0.019551985 0.33376512 -0.13060167 0.21522512 0.11792151 0.16293755 0.09560483 0.21255709 0.08816419 -0.18855734 0.07589964 0.05427894 0.08558115 0.10618921 0.051072527 -0.24663973 -0.03180845 0.18799 0.12813579 -0.07271046 -0.14238042 -0.1893699 -0.29883936 -0.1341151 0.14043802 0.05284191 0.0344044 0.08463272 -0.19092661 -0.043984536 -0.09798873 -0.018011259 -0.272446 0.13074812 0.050476693 0.2062058 -0.023983978 -0.13087271 0.06527379 0.0480669 -0.0061457753 0.13214746 -0.10111582 0.16917062 -0.100657165 -0.006201596 -0.07866607 0.13903861 0.040599182
859 -0.053937707 -0.1482656 -0.13943909 0.06387207 0.077754825 0.13719575 -0.090292566 0.23528932 0.052418076 -0.00871336 0.1369571 -0.16981702 0.047126364 -0.074963406 -0.13990633 0.033189222 -0.06965591 -0.12965006 -0.070618376 0.11947494 0.0030185995 -0.05401376 -0.04321616 -0.2244526 -0.12214928 0.094701104 -0.22198346 -0.101581864 -0.0012702874 0.027110068 -0.004966656 0.08822077 0.0058711357 -0.3209074 -0.13705672 -0.068496756 0.1437979 -0.08070782 0.058859706 -0.15318827 -0.07224152 0.030771872 0.006308997 0.019485239 0.30921897 -0.053971373 0.16387242 -0.21425143 0.017469581 -0.021222971 0.1714723 -0.16405323 -0.26130036 -0.31869122 -0.04075712 -0.2371378 0.001137512 0.124577776 0.03369334 -0.10453505 0.18163896 0.11356282 -0.31582952 -0.18229668 0.08429675 -0.0252691 -0.12881334 -0.026589902 0.16505331 0.25995538 -0.046451747 0.07559331 0.06449991 -0.038600978 -0.019771459 0.025241543 -0.08045515 -0.012099255 0.08879084 -0.051727332 0.023445137 0.2589376 0.18961088 0.0072317254 0.00022030355 -0.08117865 -0.0726803 -0.022277648 0.13219175 0.24828026 -0.094926625 0.10194923 -0.2626474 -0.055466134 0.053541683 0.008002892 0.20109853 -0.13026975 0.004475202 0.04837801 -0.14609773 0.44996336 -0.0816715 0.100829795 0.13310584 -0.037726227 -0.18670924 -0.2941982 -0.18717405 -0.053264223 0.06488629 -0.21974316 0.044648606 0.049986422 0.1730501 -0.039175805 -0.29522586 -0.077448 -0.010650193 -0.054921385 -0.03448153 0.092046 0.12643616 0.041442867 -0.03807608 -0.062197223 0.08401239 -0.13569115
890 -0.12447797 -0.032252643 0.006172874 -0.016721409 0.15649334 0.036560822 0.012232731 -0.100865066 -0.08023255 0.17701511 0.09865238 0.019641845 -0.12231848 -0.034857165 -0.19164026 -0.22294696 -0.020472888 -0.08159776 -0.061696623 -0.004424701 0.049736246 -0.05903585 -0.3129227 -0.014744025 0.088608496 0.11862646 -0.35896462 0.022886503 -0.10622514 0.131401 0.008282819 0.043034803 -0.02704021 0.11288248 0.115226075 0.24429287 -0.18371113 0.10702429 0.28586143 0.01589522 -0.058121197 -0.046717063 0.2332754 -0.46831444 0.034387086 -0.0625912 0.2090221 0.045073308 0.113946654 -0.12181789 0.24900164 0.2036624 -0.10929315 -0.08753822 -0.023607265 -0.09726978 -0.15133736 -0.24115218 -0.07487328 0.033950843 -0.100557685 -0.039820176 0.20578894 -0.2168683 0.06446326 0.096994884 -0.1118604 0.3987289 0.08691296 -0.013007138 0.06805636 -0.065333486 0.1406284 0.04446484 -0.06264599 0.19646251 -0.08090358 0.06568739 0.07033347 0.04899291 0.21115564 0.11036702 -0.20153672 -0.037079893 -0.097444974 0.04265732 0.0041421466 0.09852393 0.011541 0.11404484 0.1490165 -0.18164146 -0.023750052 -0.17690408 -0.07068916 -0.21008891 0.12660179 0.036753073 -0.011480623 -0.00069560757 -0.036436923 0.2956504 0.155808 0.1951315 -0.13859594 -0.06109096 0.055969868 0.2011603 0.03296071 -0.16363902 -0.18473154 0.09174469 0.2564064 -0.18554722 0.05035258 -0.06345373 -0.29274037 0.14792253 0.23108822 0.17382023 0.18594062 0.007538336 0.06336538 0.0012739366 0.21923022 -0.11623165 0.14542006 0.1539086
726 0.12717563 -0.005557313 0.0062600803 -0.27645004 0.037782162 0.04696921 -0.017398642 -0.019398749 -0.1444423 0.015819928 0.06877649 0.099655256 -0.004462579 0.08379358 0.08496841 0.026483288 0.09140697 -0.10721207 -0.19941662 0.12230897 -0.19660877 0.05315152 -0.2102729 -0.26497337 -0.1374155 0.045601428 0.116525024 0.18131296 -0.06398115 0.11442687 0.04927006 -0.10740791 -0.025770657 -0.120952584 0.06068116 -0.09067596 0.06371533 -0.17425624 0.24432553 0.076379575 -0.4247869 0.015019682 0.13272132 -0.05535786 0.075088374 0.27640116 0.104818895 -0.17219597 -0.068225406 0.019209133 -0.050501045 -0.018032473 -0.0036751842 -0.13089538 -0.07234242 -0.1395124 0.29881722 0.10906672 0.03839693 -0.11946286 0.15713131 0.08972268 -0.035576325 -0.15318927 0.104935005 0.25347987 0.07650012 0.04325556 0.14807655 0.22885133 -0.1823323 0.061894476 0.36098465 -0.021132214 0.08880001 0.14678302 -0.019446967 0.0018363907 -0.00022583423 -0.14702925 0.1898674 -0.21705006 0.29972908 -0.114301056 0.0942569 -0.10537849 0.19787933 -0.087840475 0.08469178 0.43385315 -0.06269584 0.033068262 -0.059594613 -0.110412955 0.24569198 -0.049476013 0.38864037 -0.045739435 -0.26767457 -0.08248161 0.065351844 0.10359496 0.18228783 0.094737634 -0.09292154 0.14989693 0.005672709 0.2125192 0.014835102 0.06990813 -0.15082826 -0.11069362 -0.043951873 -0.023345592 0.22246209 -0.035615105 0.17784654 0.01876258 0.21549235 0.17981322 -0.047331072 -0.11113232 0.17028092 -0.064935386 0.022673815 -0.21646312 0.24769324 0.098028675
997 -0.10128885 -0.2562335 -0.22319575 -0.003550207 -0.19630267 0.01925944 -0.12943181 0.13784572 -0.026139935 0.0897204 -0.05546627 -0.18642521 0.056360543 -0.05459941 0.14154793 -0.12025226 -0.020129925 0.0043518515 0.08895078 0.04329303 -0.020488674 0.14246385 -0.243152 0.1200056 -0.009807942 -0.063950464 -0.10136505 -0.08210207 -0.13722582 0.12076456 0.11785779 0.11817601 0.077314615 -0.032607235 -0.11210755 -0.030102178 0.02216589 -0.1317506 0.07505738 -0.25235614 -0.2999763 0.038416937 -0.067885704 -0.32103553 -0.21033572 0.12824363 0.35609668 -0.0879989 -0.0823934 -0.11883736 -0.00609451 -0.043439515 -0.03335623 -0.037510056 -0.007498459 0.010910515 -0.015773356 0.08464999 -0.061361723 0.15814318 0.041758694 0.24132332 0.08351627 -0.16613343 0.04220248 0.27849302 -0.1984077 0.086313404 0.086454995 -0.0037214768 -0.26902682 0.06959845 0.10981214 -0.32269546 0.07063783 -0.020045161 0.26668307 0.06299652 0.06314647 0.060593065 0.011875926 0.07322097 0.045707293 -0.2728235 0.19767559 0.042321224 0.0032793484 0.113308236 0.14465435 -0.010964638 -0.23957184 -0.10211032 -0.25771168 -0.23545861 -0.19007309 -0.05902841 0.047873273 0.04118482 -0.088979095 0.14063807 -0.03675517 0.2978295 -0.22121954 -0.01830882 0.08055058 0.24921452 0.13556689 -0.18226114 -0.22934183 -0.062357645 -0.17558706 -0.025990343 -0.064268924 0.3400478 0.28454512 -0.1384879 0.16300553 -0.16454491 0.17177619 0.10507894 -0.19345511 -0.06363503 0.16889833 0.011190735 0.111266814 -0.009795618 -0.051119212 0.10748747
964 0.12028483 -0.07127836 0.009105169 -0.034116905 0.25775173 0.3174546 0.040057663 0.117801376 0.053004716 -0.06690755 0.29027072 0.22602744 -0.18444762 0.24555917 0.23268713 0.053069767 -0.15154757 -0.07073206 -0.19084536 0.068606555 0.026961964 -0.037558608 -0.3037839 0.065928996 0.03710879 -0.06714521 -0.17233172 -0.17537384 0.07685747 0.050328404 0.10059647 -0.03848091 -0.23833671 0.021022582 -0.21066277 0.13209824 0.08411272 0.05306775 -0.054139137 -0.016930968 -0.11368094 -0.31786752 0.06626184 -0.14001194 0.25151318 -0.1295216 0.1344585 -0.0331276 0.15475923 -0.071790285 -0.075902216 -0.13735594 -0.03645657 0.07873081 -0.29234284 -0.013633848 0.0044366 0.0826033 -0.044553157 -0.12593928 0.028049074 0.111312024 -0.062283482 -0.067776844 -0.09796618 0.19005652 -0.04395596 0.10431601 0.35795224 0.025972765 0.023706738 -0.068067424 -0.04154237 0.09500872 -0.1777547 0.023171207 0.15539345 -0.01782456 0.1863336 -0.041105468 -0.17853285 0.12267244 0.12571357 0.0460282 -0.07602629 0.08925415 -0.02743773 -0.0775084 0.03923178 0.1402615 -0.16645107 -0.14940405 -0.16059613 -0.15306267 -0.09458427 0.009117591 0.06345506 0.2976394 0.07155842 -0.06988545 -0.18960117 0.10491435 -0.05729585 0.004131092 0.040092368 0.06014937 0.14118977 0.18885142 -0.10745547 -0.10116655 -0.20167768 -0.10674547 -0.059105277 0.09820128 0.1468332 0.097810596 0.21134526 -0.30783483 -0.024123948 0.024444465 0.1813996 0.08020127 0.20029004 -0.036557928 0.0581531 0.004152724 0.016281711 0.08839107
1664 -0.2312031 -0.11672384 0.053545557 -0.07700244 0.060279056 -0.024112528 -0.06677763 0.11392557 0.088898204 -0.13370718 0.18001956 0.104072645 -0.0619642 -0.016081095 0.125545 -0.13695838 -0.13284238 -0.039392937 -0.038141936 0.22568136 -0.15112829 0.11733988 -0.08196095 0.012458014 0.04271096 0.067396075 -0.1424578 -0.11156391 -0.051744707 -0.093751796 -0.05264772 0.1992087 0.08229262 0.059181154 -0.11083623 -0.08220385 0.1648998 -0.081863396 0.08959451 -0.12181766 -0.09230095 0.27458787 0.03200461 0.036779262 0.12879132 0.27378836 0.22417514 -0.18361346 -0.08404792 0.038547996 -0.0054306434 0.19234231 0.17124914 0.20462231 0.03450578 -0.0328625 -0.10095345 -0.33716443 0.026138267 -0.09834243 0.036183663 -0.015359406 0.24387725 -0.18550399 -0.16296741 -0.0009925711 -0.1199326 0.019695494 -0.0056074737 0.17565838 -0.34194335 -0.046888962 0.043541573 0.12280882 -0.27258494 0.2182837 0.07697069 0.110710084 -0.0452148 -0.22157004 -0.006214025 0.36234167 -0.0055757007 -0.013537815 0.17642958 0.022936473 0.1922065 -0.08234509 -0.23186822 -0.030067258 -0.19208598 -0.17500131 -0.5037038 0.0037319402 0.06479055 -0.13338818 -0.11952746 0.013797722 0.17436455 -0.014822009 -0.021118285 0.043532975 0.11960263 -0.16565122 0.017741099 0.18278658 0.07508631 -0.05944723 0.13481748 0.2087741 -0.005067992 -0.0007973149 0.0125099765 0.21812408 -0.07921181 0.21131472 0.06465464 -0.22753766 0.15761244 0.08206949 0.5757957 0.0032159335 -0.026039299 -0.055609897 -0.16089149 -0.30453113 0.1436739 0.07917233
1071 0.075737566 -0.045053616 0.009600946 -0.0060571427 0.081218064 0.13489397 0.38124928 -0.038689386 -0.07532942 -0.14066768 0.21770489 -0.07555218 -0.020366851 -0.058718514 -0.094801195 -0.06893396 -0.118346356 -0.3370441 -0.122693084 -0.00029424063 0.1597143 0.087387815 -0.17262307 0.08377598 0.22378033 -0.010838355 -0.3112237 -0.114351414 -0.2247411 -0.2750513 0.1702312 0.38953054 -0.10477136 -0.14444529 -0.19789697 0.15781766 0.14706798 -0.42059928 0.229069 -0.253409 0.15176493 -0.05320974 0.034719013 0.012483153 0.120358184 0.1123278 0.06243443 -0.119612 0.039805632 0.15003572 -0.010351686 0.16464159 0.17801045 -0.09521753 0.09307819 0.09885768 0.10704267 0.033630583 -0.046454012 -0.28341356 -0.021753622 0.15685919 -0.03446564 0.008606327 -0.25614274 -0.075946555 0.13290147 0.06196327 -0.06076328 -0.034721386 0.15950596 -0.10224869 0.0938937 0.22463048 -0.11677003 0.05446892 -0.035822935 -0.020939365 -0.13567144 -0.06284349 0.017115055 0.31353828 0.19208796 -0.03159693 -0.11558581 -0.10842877 -0.1158878 0.16312808 -0.30287978 0.18809474 0.2060286 -0.33156595 0.09207572 0.21288005 0.0093447855 -0.19248815 0.13933162 0.17853914 0.015688136 0.06130576 -0.053715285 0.13613605 0.0051227384 0.09783094 0.06231186 -0.015473886 0.010562789 0.23112619 -0.06499427 0.25214252 -0.16306552 -0.11600824 0.20520557 0.18812422 0.020056698 0.1389219 -0.10796631 0.22543195 0.16077624 0.14445639 0.08756866 -0.26411498 -0.020157661 0.021431534 -0.2321768 -0.21705891 0.11739272 -0.053130258
1043 -0.24763887 0.19661401 0.009382747 -0.014346546 -0.010284602 -0.018738506 0.2498705 -0.09809067 -0.24711494 0.17162392 0.13186644 0.16989107 0.08650592 0.10027987 0.11346423 -0.2035893 0.009169422 -0.34246984 -0.12933406 -0.10960709 -0.2089933 0.17057493 -0.017342543 0.1182984 0.08547287 0.2670667 0.18611188 0.14053482 -0.16971675 -0.33177033 -0.054777537 0.059836823 -0.21896894 -0.25055718 -0.068055674 -0.021471696 -0.1311499 -0.27229005 0.0056862845 0.21609178 -0.111135095 0.008013614 -0.16959049 -0.04286033 0.08597928 0.10293953 0.42400992 -0.13419123 0.12882635 0.022669258 -0.021951921 0.038655553 -0.043930933 0.0608924 0.013773797 0.20385103 0.0725463 0.21624972 -0.021591803 -0.19424571 -0.073322736 -0.07279191 0.044364884 -0.18470006 0.09065603 -0.16456193 -0.08960099 0.10249783 0.33756045 -0.13096239 -0.08718468 0.15237291 -0.039167535 0.12407764 0.2587139 0.07233707 -0.042463906 0.037931457 0.039732307 -0.08723627 0.08636088 0.13122402 0.06332006 0.14773312 0.03281432 -0.09394298 0.1505482 0.13371192 0.012063445 0.0044813957 0.1656923 -0.14327547 -0.04529772 -0.0037088834 0.016611984 0.0012029454 0.46495616 -0.11462983 0.029998573 0.045639105 0.039399225 0.11375186 0.073263325 0.052468818 -0.13820212 -0.07514546 0.016065111 0.07494943 -0.14032108 0.062127855 -0.2619367 -0.3586072 -0.069046475 0.3398749 -0.0065530795 -0.16386248 0.02012878 -0.07036362 -0.09562273 0.16280112 -0.08221726 0.010749495 0.064135484 -0.15593621 0.04035551 0.09063884 -0.03162921 0.1725983
835 -0.013244478 0.12826973 0.17272824 -0.035913102 -0.24362059 -0.008380917 -0.035217512 0.020485913 0.018426908 0.060888432 0.13288529 0.0784924 -0.16891846 0.0073940554 -0.01665969 -0.017262967 -0.2408788 -0.06322277 -0.14663458 0.17274745 0.072617956 0.08469781 -0.0517175 -0.10154625 0.1961474 0.03983533 -0.21855566 -0.02991844 -0.24585398 0.19012687 0.35645857 -0.04297105 -0.23748462 -0.03126411 -0.07616471 -0.16563435 0.015806928 0.053037595 0.13365062 0.066409096 0.10647055 0.10854964 0.096222565 -0.032012254 0.55531704 -0.1399887 0.14111169 -0.024790158 0.20386824 -0.22700274 0.115236975 0.22759967 0.1553767 0.08884307 -0.23285863 0.14217523 0.20875083 0.086854145 -0.066168554 -0.14906095 -0.058905452 0.1452038 0.23289749 -0.08635218 -0.22024846 0.08118252 -0.062100057 -0.09025222 0.11508766 0.10126941 -0.08657635 0.022021323 -0.004627312 -0.0920742 0.03302926 0.025201961 -0.14621587 -0.01893284 0.010969934 -0.008804099 0.023329616 -0.012617037 0.07517237 0.03010133 0.13919117 0.06837628 -0.033479393 -0.10881929 0.043273196 -0.102675386 -0.12600563 0.037883464 0.12583348 -0.03187919 0.14373621 -0.26936904 0.049533673 -0.0982997 -0.020608973 0.1456999 -0.14016438 0.02404666 -0.11847205 0.054139078 0.27408022 0.19209982 -0.04528387 0.027443668 0.047780253 0.06369901 0.08114103 -0.14752014 0.13671649 0.2501701 0.10293286 0.23848967 0.24120723 -0.1918043 -0.036933843 0.29900187 0.06677388 -0.06354978 0.1045061 -0.0897114 0.017857613 -0.09578478 -0.22013037 0.2840758
718 -0.06451541 -0.1410268 -0.102703564 -0.06796742 -0.12093721 0.08757232 -0.14075667 0.0053625354 -0.058727186 -0.03962001 0.21440296 0.1415986 -0.06526821 -0.0312896 0.08027336 -0.2122725 0.19213746 0.0063868808 0.098850556 0.29405951 0.013073045 0.016283814 -0.11263754 -0.15739657 -0.14373732 0.14071219 -0.15290746 0.26351002 -0.11593148 0.12652345 0.20263544 0.015630545 -0.12811072 -0.06973104 -0.035415027 0.117938854 -0.18366517 -0.042218357 0.087062165 -0.1240503 -0.09571283 0.015507806 -0.027108418 -0.269029 0.29400873 -0.19514304 0.34713918 0.2817555 0.15427929 -0.11957521 0.117062986 0.02547688 -0.088104 0.0030735307 -0.13769922 -0.17111588 -0.10116183 0.003675555 -0.14722088 0.0044069695 -0.11500382 0.0330296 0.0036179146 -0.001131123 -0.08257694 0.10361314 -0.16564561 0.08347057 -0.028933708 -0.09994138 -0.08376964 0.05429644 0.20658228 -0.08958917 -0.14483096 0.31338173 0.10612003 0.18704168 0.15600358 0.15114866 0.19218414 -0.095971614 -0.23207077 -0.3744516 -0.08241121 -0.030714972 -0.080529146 -0.2557496 0.18487167 0.3340302 -0.08545623 0.05689553 -0.06930634 -0.21347259 -0.044793516 0.09672746 -0.05600063 -0.012020057 -0.107821554 0.15874505 -0.043841053 0.108254224 0.06257621 -0.018495932 0.0144569855 -0.2436616 -0.16684115 -0.05029072 -0.10675305 -0.10245086 0.10560377 0.0065134317 -0.08000139 -0.104799785 0.1356144 -0.18931389 -0.18786378 0.07224163 0.13215253 0.28708914 0.2764731 0.10367744 -0.087445915 -0.1783127 -0.2198866 -0.033743996 0.016681 0.2388669
474 -0.026829176 -0.032186754 -0.042709667 -0.2271331 0.11920978 0.063895166 -0.2247311 0.20767187 0.09150719 -0.02227932 0.16952327 -0.06255484 -0.045038506 0.045557123 0.080221765 0.16079651 0.099289164 -0.15781632 -0.07651465 0.023978269 0.035587583 0.15413214 -0.09490305 0.2684812 0.19470985 -0.05275968 -0.1807494 -0.24840142 0.0056263898 0.15271966 0.0350017 -0.024210768 -0.035912108 -0.32253584 -0.16178471 0.15866818 0.067197315 -0.3094556 0.10711085 0.11545982 -0.027126329 -0.10288974 0.11761018 -0.040836614 0.21446875 -0.020289415 0.1797111 -0.24271472 0.09151326 0.14821023 0.29529178 0.07583726 0.09180296 -0.21865855 -0.050456792 -0.27325296 0.09792915 -0.14348023 -0.15157057 -0.07891241 0.042642377 0.16272035 -0.014187182 0.17462331 0.020496177 0.19763912 0.1317246 0.056826893 0.19117968 -0.01960454 -0.118044645 -0.091110855 0.0125037385 0.15188088 -0.10116158 -0.06429515 -0.08336757 -0.029368069 0.26927352 -0.048280127 -0.04775906 -0.040928077 -0.1348704 -0.01097599 -0.013908888 0.03763206 0.0373127 -0.08045049 0.021919938 0.06491876 -0.058349773 -0.09105764 -0.10758996 -0.08498016 -0.12638336 0.055655304 0.10217749 0.14931278 0.2124226 -0.16500436 0.050781295 -0.012261791 0.024612611 0.074347965 0.010742949 0.08174608 0.1375625 -0.037322763 0.07957247 0.04899341 -0.04858958 -0.37776506 0.21587302 0.16524689 -0.08796522 -0.09937506 -0.1826893 0.03000511 -0.08744569 0.14664371 0.29321164 -0.07590917 0.004506572 -0.096594796 -0.10218514 -0.09285679 -0.20817709 0.09956334
826 -0.15078542 0.04270135 0.17236428 -0.055602025 0.02805726 -0.20549819 -0.13824785 0.1189889 -0.09559435 0.14659399 0.18325478 -0.043420933 -0.18742697 -0.06891653 0.075289875 -0.14115629 0.16243066 0.05257617 0.04180507 0.20204133 0.20929098 -0.03682317 -0.14008038 0.118593276 0.08480795 0.37569296 -0.029221976 -0.10985179 -0.04124214 0.06829874 0.03341017 -0.14832057 0.04569975 -0.16046518 -0.15829743 -0.12937868 0.18531008 -0.041053224 0.07005075 -0.11678959 -0.36263803 0.08015587 0.019767607 0.23654251 0.06169434 0.25216162 0.5072966 0.10363959 -0.14462647 -0.11887143 0.06874391 0.041376762 0.04630925 -0.14539942 0.029550094 0.019088823 0.11138783 0.18740189 -0.015171475 -0.061096746 -0.005407819 -0.20715338 -0.07835527 0.21607529 -0.111633934 0.20023216 0.29415002 0.13285115 0.16837454 0.003861838 -0.0039376286 0.12478581 0.015531847 0.052321337 -0.057457447 0.021408975 0.0040425453 0.29125607 0.120911606 -0.021038145 0.04903457 0.030380161 -0.17233063 -0.11392628 0.06440834 0.13604853 0.06564801 -0.10191185 0.003313183 0.13694285 0.0738132 0.17551847 -0.061234903 -0.29233226 0.0832894 -0.080952145 0.15124716 0.26190913 -0.08394009 0.023208044 -0.008019699 -0.060049303 -0.0020756628 -0.02088569 0.06280462 -0.10460356 0.13870373 -0.17783155 -0.0016397113 0.14583264 -0.15946323 -0.17458144 0.12686576 0.030808063 0.15290831 -0.20957711 -0.12162109 -0.0182599 -0.14898033 0.0204054 -0.12612012 0.1640014 0.22046949 0.17061399 -0.04215746 0.1100043 0.055211194 -0.008994517
805 -0.15989229 -0.047546864 -0.10331696 0.014163508 0.044703048 -0.14173885 -0.019059788 0.10523425 -0.0090866955 -0.06650985 0.28928563 -0.14780357 -0.42626363 -0.1548889 0.16037743 0.03369013 0.10101484 -0.3242129 -0.2008049 -0.03538308 -0.068748504 0.23348367 -0.12502186 0.0726272 -0.1608708 0.05722185 -0.16207093 0.10861511 0.13841717 0.0053466074 0.32224903 -0.06766615 -0.05964478 -0.17487669 0.0036610607 0.059849765 0.11137019 0.03969889 0.095591426 0.10668992 -0.17532282 0.09866686 0.108545646 -0.10069484 0.021771206 0.02219192 0.011653271 0.10472097 -0.02694764 -0.09189188 0.039759845 -0.12523651 -0.08019793 0.0005343926 -0.08284332 -0.013870265 0.055974048 -0.1324463 0.018032385 0.062810555 -0.2056749 -0.089286104 0.23862696 0.0005352376 -0.19661851 0.18296033 -0.07271505 0.26606146 0.19290315 0.052441325 -0.076265566 -0.12638414 0.076641664 -0.13104202 -0.07915398 -0.048132595 0.0047257245 0.29327574 0.1817562 0.05761813 -0.032259986 0.07384003 -0.10755029 -0.13445202 0.12967195 0.025485458 0.12258825 -0.023163091 0.13109207 0.11912745 -0.07303734 0.0075022043 -0.17776702 0.024116319 -0.09061303 -0.016935714 0.17771459 -0.13972324 0.053228654 0.14412126 -0.0067906743 0.10531941 -0.37899584 0.21511644 0.28246292 0.058337454 0.129646 0.04856756 0.1557498 0.14735456 0.16793425 0.082069695 -0.10150572 0.021006014 0.092987664 -0.13919777 -0.20158239 -0.23073684 -0.039694443 0.32509974 -0.018506736 0.22727074 0.26457128 0.4632546 0.1994739 -0.0976329 -0.048615072 -0.042395953
657 -0.3045744 0.008333186 -0.0037325353 0.03247894 0.09107547 0.028726388 0.38417268 -0.08665624 -0.19168055 0.02694451 0.21260853 0.060826544 -0.05899124 0.06817218 0.035684254 -0.08850436 -0.064892195 -0.046195786 -0.093743615 0.08173194 0.010747308 0.29632404 -0.18596877 -0.08035259 0.31159282 0.08693124 -0.097434044 0.08925979 -0.07990281 -0.035811324 0.047671508 -0.055446673 -0.07181581 -0.16829869 0.0055071386 0.16571672 -0.09876034 -0.12078767 0.09642244 -0.036448408 0.08748628 0.03615794 0.21340515 0.06919286 0.11884811 0.1624222 0.32171053 0.06258255 -0.066700995 -0.009736803 0.07831633 0.23752572 0.3414665 -0.14988875 -0.03117016 -0.23529412 0.14968416 -0.0624981 -0.17208005 0.12429037 -0.23139663 0.12459526 -0.16393808 -0.02791717 0.085811995 0.16314702 0.18606682 0.17558913 0.123055644 0.020013364 -0.004684897 -0.052137017 0.11740978 -0.04077421 -0.0013763742 -0.08594019 0.1850205 0.033443533 0.068887256 -0.06831032 0.13991122 0.030164668 -0.06628041 0.102721 0.16099364 -0.050149586 -0.22725143 0.024387818 0.17920847 0.053578716 -0.23741074 0.069358826 -0.33796376 0.04456248 0.11644544 -0.2124664 -0.02176074 -0.034643278 -0.14774576 0.18795303 0.12096413 0.086676516 0.14344849 0.011187491 0.06571032 -0.20985661 -0.1386387 0.1557683 0.11396669 -0.20470402 -0.107118174 0.12636223 0.13443951 0.15427837 0.34670195 0.053613584 0.20453346 -0.11549333 0.17816004 0.14901532 -0.022999289 -0.047231957 -0.21224378 0.35619873 0.1752562 0.010000147 -0.031210251 -0.09524142
1090 -0.17823797 -0.17437746 -0.026744228 0.0941924 -0.2506462 0.13068122 -0.055519607 -0.066638 -0.23033592 0.0658183 0.2029103 -0.24726789 0.046367463 0.019345386 0.102702744 0.03898204 -0.06940953 0.008046863 -0.24563685 -0.016869351 -0.06682691 0.12566024 -0.16315007 0.14563957 0.090579964 -0.07830653 -0.27033108 -0.051330317 0.07450254 0.09682467 -0.04642127 -0.055079836 0.09279609 -0.4461905 -0.13078818 -0.15359452 -0.060422212 0.09494504 0.41341907 -0.020856543 -0.05852739 -0.053317096 -0.15375291 -0.03592613 0.040178217 0.26401353 0.25956854 0.09477702 -0.1144531 0.06628873 -0.39757824 0.13275489 -0.15747245 -0.15632136 -0.17804794 0.061290346 0.029322173 0.0050353045 0.06627611 0.035911005 -0.13441741 -0.032316815 0.051759746 -0.113991134 -0.2644311 0.3177406 -0.10089909 0.2603192 0.008648588 0.39972 0.12872119 -0.23620936 0.3588654 0.035808254 -0.0069329166 0.05390978 -0.2166191 0.087058276 0.18270609 0.091276765 0.03268593 0.07916047 -0.06979957 -0.26696888 -0.048932094 -0.2274168 0.017243654 -0.1674088 0.09547647 0.08130711 -0.15442124 -0.114050865 -0.17807122 -0.07646477 -0.18811488 -0.069470786 -0.017018553 0.09824193 0.09990581 -0.063103706 0.025493665 0.011062896 -0.073331796 0.00064103625 0.118519686 -0.14625286 0.20962435 0.15178072 -0.13811798 0.19707358 0.064203866 -0.3048081 0.053250372 0.39316714 -0.001417122 0.014315828 0.0028690938 -0.16462146 -0.006006676 0.24398337 0.15373378 -0.19569536 0.1588294 -0.0515777 0.13784832 -0.31641737 -0.17119524 -0.14924961
559 -0.03734569 0.14282504 0.15883043 0.09770756 -0.008777355 -0.044333026 0.15065481 -0.02645974 0.06433832 -0.0904897 0.258147 -0.034689855 -0.119890034 0.09887221 0.20195122 0.008523374 0.2356883 -0.14567865 0.022148909 0.04605069 0.1604482 -0.06327404 -0.20509358 -0.018017078 -0.007929145 0.07659353 -0.050527014 -0.18228404 -0.21367113 0.09057137 -0.19551872 0.072992615 -0.29524451 -0.08285507 -0.17201649 -0.08151544 -0.014595491 -0.2117153 0.13676247 -0.05453105 0.0617656 -0.12146034 -0.12788072 -0.112941146 -0.09987275 -0.2589848 0.36016977 -0.06582668 -0.13781013 -0.28069153 0.06652059 0.022684792 -0.081681155 -0.16312736 0.19790363 0.13585114 0.21574126 -0.084290326 -0.32633546 -0.015285991 -0.22087775 -0.0893634 0.12963867 0.0117653515 -0.1213901 0.2183032 -0.1995852 0.094220944 0.008710671 0.14146303 0.14241304 -0.1549182 -0.022116307 0.1438229 0.019859064 0.013766459 -0.0039770845 0.065917835 0.36439607 -0.020865198 0.07329975 0.30681866 -0.06953741 -0.2521708 -0.14145242 0.08590334 0.09918395 -0.2194671 -0.15651 0.24185081 0.20588404 -0.032798707 0.027451564 -0.16066246 -0.042911097 -0.034311406 -0.034833398 -0.0078098057 0.1227976 0.13976447 0.19102506 0.08201008 -0.08097804 0.27550957 0.42035127 -0.030947354 0.14442044 -0.11385546 -0.059951305 0.066856 0.034247987 0.0043009967 0.23847552 0.058118794 0.17733726 -0.009454584 -0.19661209 -0.0079700155 -0.2182102 0.04492882 0.2109102 0.03477825 -0.23366313 -0.093763515 0.12216711 -0.1139208 0.05742302 0.24829514
748 -0.25206196 -0.096555114 0.05038981 -0.024131471 0.22004181 0.082303904 -0.04273635 0.10914771 0.08734438 0.03529085 -0.008110572 -0.121439986 -0.26446193 0.069251776 0.18592873 0.16173404 -0.20073225 -0.14290334 -0.017036417 0.22178553 -0.2405549 -0.048512585 -0.16815317 0.19624802 0.027330121 0.074786074 0.05863807 0.047952514 -0.22689797 0.22384763 0.12138306 -0.2465188 -0.04680149 -0.13874118 -0.02907811 0.03422095 0.14244956 -0.25970507 0.07496012 0.09402318 0.007409789 -0.23097722 -0.056344967 -0.0915034 0.07509163 -0.05449477 -0.0963986 0.004224561 0.20565182 -0.019413449 0.053129263 0.09907893 0.23817587 0.15159915 -0.112556815 -0.1387908 0.0068687177 0.07214826 0.0003677113 0.011839314 -0.17532618 0.051098038 0.091593936 -0.008686805 -0.013423254 0.19393949 0.22787718 -0.011604188 -0.07490401 0.08782189 -0.21640693 -0.19047402 0.011207302 0.035546556 -0.11529298 -0.17651828 -0.056612987 0.12635142 0.13780692 -0.03641155 0.19437857 0.20582357 0.12589565 0.13323599 0.05077894 -0.014415007 -0.05202549 0.08618259 0.13047412 0.18935499 -0.07066297 0.11549607 -0.14610133 0.09069588 -0.2512714 -0.017737137 0.091201484 0.089117065 0.046139434 0.057732895 -0.13630256 0.29829517 0.11208065 0.21227512 0.050684236 -0.036399208 0.06435555 -0.09068519 -0.26074162 0.16279532 -0.2216989 -0.17087753 0.17279541 0.04116411 -0.019577507 -0.016802032 -0.08365587 -0.046891615 0.33349335 0.0745994 0.024882305 0.12269642 -0.081534006 -0.16030662 0.27113745 0.008448137 -0.002060314 -0.057114772
546 -0.11315316 0.15549685 0.16510831 0.19478208 0.36504364 -0.07029678 0.15663509 -0.23049614 -0.028743036 -0.032738477 0.028810142 -0.06765616 -0.31449413 -0.091244124 0.005405195 -0.01679947 -0.04382578 -0.17340565 -0.12956218 -0.058986854 0.09187559 0.21896413 -0.052913547 0.14324522 0.027937248 0.081052534 0.022955349 -0.054507975 0.10443803 0.11229074 0.05528881 0.24793096 0.09353203 -0.08628238 0.15739506 -0.20757452 -0.2510388 -0.00040149572 0.29448625 0.27103695 -0.057061475 0.032587744 -0.064638086 -0.14030756 0.10415601 -0.07098929 0.19587323 0.018037574 0.07519698 -0.16874793 0.09975538 0.10379902 0.12227531 -0.020607213 0.095614344 0.09122725 0.17467341 0.0014201088 -0.25893924 0.21163215 -0.1883138 -0.0030309535 0.077213764 0.18460716 -0.17454702 0.06735123 0.042738423 0.018460486 -0.13312273 0.109274566 -0.051198006 -0.09197651 -0.021910839 -0.13414468 -0.09276356 0.24456218 0.020152891 -0.08569925 0.058350015 0.10247356 -0.1518097 0.13852736 0.023995424 0.12621632 0.02384406 0.10785539 0.12617922 -0.06014455 0.08005334 0.08359004 0.06712496 -0.13078389 -0.12795939 0.1931167 0.109315135 -0.03159368 -0.04140062 0.21089382 0.026962996 0.022865582 0.0060626054 0.09393722 -0.063527286 0.16170022 0.0762483 0.19807224 -0.13980165 -0.05228942 0.13162562 0.24879144 0.05990792 -0.3532172 0.06630112 -0.07329577 0.055409465 0.03417453 -0.23005012 -0.13564587 0.1302714 0.31381872 -0.19504298 0.06407643 0.10169393 0.012111962 -0.07799104 -0.097180724 0.07652933 0.11784867
1079 0.13512397 -0.26032346 0.042388465 0.16535582 -0.07917842 0.0137648005 0.042281415 0.113457374 -0.0010716398 -0.3002311 0.13403025 0.13418953 -0.15264198 -0.20641993 0.12545024 -0.0835534 -0.23401588 -0.015034341 -0.20302443 0.25896424 -0.3954997 0.043699924 -0.32863364 0.16359153 0.12929992 0.107588775 0.013622361 0.10350759 -0.073535986 0.074441165 0.3041588 0.18720485 -0.24163826 -0.09627379 -0.068275414 -0.13434261 -0.10963449 -0.07696007 -0.019906295 0.11933426 -0.27443972 -0.1572412 -0.24399018 -0.3037062 0.02291877 -0.115338534 0.37287518 -0.074575044 0.25491253 -0.13876247 -0.050524328 0.16920759 0.17416984 -0.20763217 -0.12951723 -0.24629734 0.012092901 -0.19333085 0.04552971 -0.027656445 -0.0037559746 0.022199068 0.113090955 0.17280337 0.13945396 0.05310915 0.08040429 0.103780985 0.05271189 -0.06365785 -0.24672708 0.0579334 -0.19825333 0.043435715 -0.08742963 -0.051759303 0.0072095613 0.06460972 0.22076696 0.14694752 -0.068856746 -0.04814822 -0.1292581 0.17865652 0.10018911 0.06779575 -0.1103133 0.045126323 0.14883536 -0.01278628 0.061231334 -0.106354564 0.025694765 0.020943655 0.1638639 -0.048830666 -0.029245058 0.05644022 0.04319081 0.13024488 -0.10448578 0.09421572 -0.124218896 -0.06785922 -0.08964836 -0.017396634 -0.13116802 0.12193288 0.0039479285 -0.048966702 -0.0035357855 -0.24977894 0.27577153 0.21052156 0.18986799 -0.05147948 -0.0040651364 -0.023894746 0.019666329 -0.16297893 -0.07427911 0.15643573 0.05918396 -0.08675406 -0.038781814 -0.07327542 -0.07063233 0.057319034
651 -0.02522632 0.24872698 0.14886367 -0.26052526 -0.2088206 0.33909076 -0.002903416 0.10853749 0.0029948824 -0.10243281 0.3001839 0.08441031 -0.14362319 -0.24341834 0.051324964 -0.061219215 -0.23004766 -0.031582803 0.09450111 0.17594485 -0.11176101 0.19852832 -0.14126012 -0.26085728 0.14360884 -0.027918031 0.06831604 0.2029284 -0.23776343 0.10665636 0.22345115 -0.067203715 -0.24395384 -0.08929483 -0.026899619 -0.041679334 0.16019337 0.03195614 0.028794395 -0.11131322 0.14771813 -0.019844623 0.079070605 -0.29713884 0.14135605 -0.13898446 0.023786103 -0.058040526 0.0061737127 -0.09243316 0.04150786 0.27960956 -0.06745324 -0.034220163 0.00706106 0.052763656 0.17274366 -0.097233325 -0.12781222 0.013487178 -0.058814276 0.48658973 0.0065346924 -0.17819217 -0.19126631 0.2117509 0.22690478 -0.059759762 0.08521184 -0.0055265636 -0.37365964 0.05650709 -0.053062975 -0.029850934 0.11828925 0.0074204295 -0.056661133 0.21239994 0.00706894 -0.07073182 0.08593331 -0.00073422864 0.13838978 -0.07690697 0.003957526 0.041102566 0.13732426 0.046670664 0.057792004 0.079201646 0.042949848 -0.35394248 -0.1551989 -0.2167241 0.09143246 -0.2205578 0.114945255 0.09880402 0.112878494 0.16956301 -0.14133249 -0.01736722 -0.0137312 -0.06455202 0.11605021 0.019508198 -0.10929736 0.32287115 0.2335725 0.12195939 0.025803015 0.031435102 0.055497758 0.0020716318 0.2487257 0.14011903 -0.007145835 0.15750095 0.044977915 0.22709413 -0.21552812 0.09157223 -0.010950569 0.11950103 0.164229 0.05057496 0.024031116 -0.009106921
765 -0.117291436 0.004359156 0.23282129 0.10024258 -0.110525645 0.22944318 0.22642149 0.25688413 0.040762316 -0.14873601 0.09047594 0.25697938 -0.12150804 0.07057669 -0.042739883 -0.021047067 0.0038146311 -0.023586052 0.13918535 0.1293971 -0.014974461 -0.045521867 -0.16775803 -0.12621528 0.046100926 0.100881115 -0.13820548 0.20307255 -0.064892024 -0.118818976 0.17717214 0.06996334 -0.203151 -0.24233064 -0.35898015 -0.187194 0.09866515 -0.06157293 0.100298405 -0.08832488 -0.13091199 -0.03767332 0.030467914 0.23641293 0.15593356 -0.019642152 0.013858473 -0.01801794 -0.10576886 -0.30508325 -0.015404057 0.35878733 -0.02454048 0.12131535 0.19110139 0.07109023 0.03248486 0.033463266 -0.11386292 -0.051168736 0.0700409 0.21431705 -0.026875876 0.025018625 -0.02743024 0.18789287 0.2827625 -0.21729289 0.048099495 0.029621905 -0.090213336 0.093098395 0.11533554 -0.23141594 -0.02704496 -0.20760684 0.15140006 0.056992963 -0.09246661 -0.1319945 0.06480232 0.007266838 -0.17054878 -0.070165716 0.08658857 -0.35262606 0.0068341256 0.11785489 0.059030265 -0.048458852 -0.19993237 0.1415163 -0.13238345 0.092791356 -0.04679077 -0.36477783 0.16341184 0.1771864 -0.097413875 -0.02116625 0.052536238 0.12447923 0.07613527 -0.16864738 0.16401185 -0.026011677 0.049762014 -0.12461563 -0.08765305 0.09567444 -0.077463016 -0.21035379 -0.018218562 0.25865892 -0.17379975 0.055227637 -0.16112807 -0.030352553 0.101177014 0.28614032 0.06795098 -0.042632446 0.035918996 0.026480928 0.041292462 -0.13887398 -0.07709419 0.11883244
479 -0.07073209 -0.15753007 -0.0627129 -0.14972283 0.06150693 -0.18435705 0.23297563 0.121936224 -0.16368361 -0.025775863 0.11744312 0.14276278 -0.013269984 -0.23415142 0.19778347 -0.09004768 -0.13384077 0.06981518 -0.049384754 0.3441315 -0.05994572 0.27343276 -0.21318406 0.15151227 0.005387333 -0.030620625 0.11976304 0.110098176 -0.051470235 0.32760662 0.18152583 -0.10212252 -0.0550907 -0.19899233 -0.00884347 0.11068328 -0.041878678 -0.13677835 0.08770769 0.20444615 -0.04029043 -0.05329033 0.02780488 -0.021915684 0.04051677 0.19556147 0.046113357 -0.031517137 0.18607028 -0.05750632 0.07387079 -0.18834226 -0.05353361 -0.14578393 -0.1180194 0.073467344 0.05022757 0.0861125 -0.28256416 -0.012046906 0.30222982 0.050713614 -0.093165405 -0.11488471 0.17693861 0.067772046 0.042246353 0.11408774 -0.08258487 0.026134083 0.09859773 -0.026928654 -0.08123317 0.30863518 -0.09389713 0.05390696 0.030857716 0.17960835 -0.111162476 -0.098593 0.08740365 0.061448485 0.048497584 0.18008831 -0.024151396 -0.026137218 0.09593705 -0.05739921 0.055060234 0.035881538 -0.27148175 -0.17797881 -0.020095991 0.14455663 -0.06820085 -0.16697122 0.14128433 -0.22645397 0.077711105 0.0073625925 -0.30007517 0.28240344 -0.017781869 0.123582095 -0.088717215 0.10957517 0.050656207 -0.011997984 -0.08317919 -0.20185451 0.12683022 -0.26215363 0.17548 0.015981657 0.0073180757 0.19880992 -0.059623748 -0.010493661 0.028800983 0.07836477 0.14515701 -0.12832321 0.034110527 -0.05713712 -0.21847387 -0.03596011 0.09019409 0.49020585
