2613 128
2 -0.052124 0.038129 0.187191 0.100989 -0.116795 0.062929 -0.086625 -0.019306 -0.120977 0.084586 0.123708 0.010575 -0.017281 -0.178813 -0.093483 -0.020036 0.058041 0.127069 0.295315 -0.226345 0.079105 0.241669 0.127200 -0.100082 0.061513 0.073373 -0.068898 -0.067247 0.112729 0.036702 -0.091250 -0.101021 0.113408 0.052467 0.013098 -0.135692 -0.021999 -0.043133 0.036166 -0.034552 0.098760 -0.022599 -0.031413 0.018998 -0.072322 0.124698 0.062752 -0.038474 0.085213 0.024591 0.068581 0.188295 -0.080993 -0.070438 -0.155037 -0.118619 0.037509 -0.084760 -0.141498 -0.003307 0.036425 -0.134058 -0.167511 0.190688 0.016582 -0.021114 0.031917 0.002633 0.037651 0.069386 0.121226 -0.070777 0.053234 0.051656 0.019016 -0.021265 -0.031304 0.089125 0.018131 0.089250 0.002682 -0.159860 -0.080999 0.070466 -0.032191 -0.086610 -0.248656 0.043573 -0.002693 0.045345 0.058252 -0.029948 0.081085 0.291773 -0.245311 -0.066949 0.312048 -0.006722 0.108288 0.353292 0.012214 -0.168052 0.091608 -0.033812 -0.054975 -0.075878 0.165520 -0.058694 0.053893 -0.173724 -0.112641 -0.116335 0.049901 0.182379 -0.026043 -0.175122 -0.084423 0.016714 -0.209790 -0.170874 -0.083830 0.095190 -0.020572 -0.147978 -0.103923 -0.045111 -0.311489 -0.215168 
3 -0.069971 -0.040512 0.258434 0.212588 -0.151832 0.035416 -0.047561 -0.026885 -0.134394 0.061268 0.188295 0.037464 0.027674 -0.280101 -0.167496 0.031863 0.110993 0.172473 0.305049 -0.331719 0.113196 0.321147 0.194785 -0.097949 0.108727 0.078756 -0.169476 -0.055549 0.167248 0.089279 -0.145479 -0.088672 0.139965 0.005998 0.042774 -0.243017 -0.041274 -0.063119 0.077538 0.018788 0.195927 -0.014391 -0.050801 0.116595 0.001436 0.127502 0.122476 -0.080219 0.159638 0.061012 0.050968 0.294697 -0.067091 -0.056065 -0.113607 -0.258841 -0.020460 -0.175808 -0.173497 0.012828 0.061692 -0.149298 -0.231106 0.310274 0.027671 0.023987 -0.042383 -0.033229 0.085877 0.142545 0.249092 -0.014292 0.094775 0.071311 -0.004404 -0.032579 -0.140586 0.078624 0.006039 0.106190 -0.046083 -0.212083 -0.106167 0.092316 -0.008393 -0.084341 -0.236852 0.047407 0.009898 0.043690 0.126140 0.005062 0.104899 0.335918 -0.249061 -0.064730 0.427171 -0.079130 0.124566 0.489283 0.074313 -0.128658 0.106372 -0.050483 -0.071351 -0.082478 0.219561 -0.071019 0.103664 -0.327361 -0.150210 -0.161006 0.055495 0.202546 -0.050547 -0.230764 -0.133877 -0.076349 -0.315058 -0.208508 -0.081212 0.147653 -0.037240 -0.193395 -0.173792 -0.073808 -0.439511 -0.319369 
4 -0.046067 0.000178 0.223226 0.155731 -0.129863 0.044554 -0.067312 -0.026060 -0.121251 0.068296 0.147652 0.015591 0.016131 -0.227068 -0.124790 0.012910 0.080065 0.158406 0.299004 -0.276567 0.101075 0.269172 0.150390 -0.086217 0.077162 0.073911 -0.121287 -0.055767 0.134771 0.069534 -0.104299 -0.084791 0.118087 0.030233 0.035942 -0.183779 -0.036459 -0.060716 0.062167 -0.004159 0.143037 -0.008186 -0.040161 0.061376 -0.039827 0.127041 0.091254 -0.059123 0.119178 0.048442 0.057748 0.245282 -0.081501 -0.065387 -0.128667 -0.189408 0.000944 -0.135158 -0.161412 0.005531 0.061861 -0.139792 -0.194841 0.246354 0.020631 0.006707 -0.000615 -0.009108 0.052668 0.107140 0.187136 -0.036670 0.079684 0.071326 0.013534 -0.019847 -0.079957 0.072785 0.002148 0.097785 -0.020487 -0.190310 -0.087225 0.082850 -0.014206 -0.089249 -0.234053 0.045988 0.004542 0.052575 0.091798 -0.013532 0.084685 0.299264 -0.233033 -0.062123 0.364171 -0.044736 0.129943 0.412243 0.039988 -0.139988 0.087191 -0.051889 -0.068828 -0.081047 0.193863 -0.060574 0.082962 -0.255673 -0.135996 -0.143398 0.055673 0.191904 -0.039558 -0.191084 -0.099789 -0.039230 -0.255891 -0.182080 -0.073439 0.117087 -0.036911 -0.168788 -0.144522 -0.048448 -0.370763 -0.263128 
5 -0.047314 -0.007826 0.210399 0.157547 -0.128995 0.037377 -0.058620 -0.025495 -0.114403 0.062029 0.145024 0.023723 0.013623 -0.220806 -0.120829 0.017079 0.080971 0.146156 0.279192 -0.270018 0.096613 0.262380 0.146077 -0.086308 0.078545 0.071555 -0.125420 -0.058716 0.126776 0.065822 -0.108325 -0.074789 0.114458 0.021782 0.034526 -0.186632 -0.034377 -0.054180 0.055603 0.001819 0.138458 -0.009882 -0.042860 0.066698 -0.024155 0.112873 0.088009 -0.059837 0.114911 0.045357 0.056347 0.236152 -0.068672 -0.056996 -0.119176 -0.190945 -0.002057 -0.137102 -0.158518 0.009520 0.060303 -0.133109 -0.186422 0.242328 0.023649 0.008806 -0.008281 -0.013577 0.055731 0.105819 0.184239 -0.028631 0.080994 0.070034 0.009378 -0.014391 -0.084668 0.065206 0.004495 0.099403 -0.026406 -0.180542 -0.090661 0.076267 -0.012330 -0.085171 -0.218240 0.046354 0.007747 0.048385 0.097460 -0.005254 0.085552 0.287295 -0.226359 -0.056013 0.348605 -0.051133 0.119914 0.394413 0.045438 -0.123567 0.087809 -0.046471 -0.068139 -0.072769 0.186668 -0.059382 0.078127 -0.247350 -0.124860 -0.136278 0.059321 0.182735 -0.045333 -0.181282 -0.099119 -0.042087 -0.245112 -0.170759 -0.067823 0.111942 -0.030222 -0.160410 -0.139249 -0.042863 -0.361640 -0.248327 
6 -0.036646 0.003706 0.189979 0.121312 -0.109331 0.048048 -0.059465 -0.029807 -0.102896 0.062606 0.115701 0.012415 0.006715 -0.183912 -0.088179 -0.002785 0.058234 0.139572 0.279721 -0.229986 0.088126 0.232558 0.123028 -0.079104 0.064303 0.065122 -0.099691 -0.053790 0.111202 0.054694 -0.084912 -0.075518 0.095416 0.033334 0.033384 -0.158137 -0.039790 -0.054689 0.049774 -0.008166 0.113058 -0.008784 -0.039626 0.037839 -0.044235 0.113142 0.068766 -0.054554 0.096953 0.046014 0.051038 0.210525 -0.079616 -0.057380 -0.123279 -0.143318 0.005339 -0.106929 -0.144805 0.008902 0.053065 -0.128670 -0.166768 0.205450 0.017211 0.003991 0.007361 0.001871 0.038555 0.095144 0.151721 -0.039948 0.074046 0.067786 0.017030 -0.010390 -0.054933 0.064253 0.004181 0.091300 -0.010869 -0.166083 -0.074917 0.079143 -0.009972 -0.094804 -0.211617 0.045188 0.000615 0.047616 0.077442 -0.018058 0.065999 0.258721 -0.208643 -0.063307 0.308337 -0.027618 0.116273 0.344594 0.028966 -0.127189 0.078936 -0.042907 -0.069612 -0.074568 0.166282 -0.049195 0.071242 -0.205713 -0.118805 -0.114039 0.051816 0.176043 -0.036077 -0.164185 -0.082780 -0.022178 -0.218568 -0.156015 -0.071892 0.097370 -0.031612 -0.146103 -0.119312 -0.029004 -0.318378 -0.220438 
7 -0.036131 0.007497 0.185889 0.117324 -0.112233 0.044094 -0.057393 -0.026897 -0.095513 0.066149 0.111393 0.006866 0.003007 -0.176651 -0.088162 -0.000461 0.058123 0.127136 0.270391 -0.226051 0.080977 0.222706 0.116392 -0.074593 0.059001 0.060831 -0.090637 -0.055283 0.100307 0.054229 -0.084988 -0.076623 0.087899 0.037231 0.025735 -0.146597 -0.035014 -0.053707 0.051860 -0.010092 0.102684 -0.005134 -0.041683 0.035532 -0.042192 0.104114 0.066906 -0.045968 0.091165 0.039464 0.052355 0.198708 -0.080933 -0.056180 -0.120360 -0.142297 0.009868 -0.102354 -0.139568 0.006161 0.048042 -0.117711 -0.156183 0.199923 0.017044 0.000105 0.016920 0.000605 0.035628 0.086904 0.145263 -0.043350 0.070894 0.067772 0.017083 -0.014730 -0.048760 0.063182 0.003315 0.091253 -0.009204 -0.158431 -0.076939 0.079131 -0.006658 -0.086848 -0.201071 0.048741 -0.000012 0.054118 0.072475 -0.021266 0.069146 0.252087 -0.201743 -0.056558 0.294081 -0.026396 0.118285 0.334492 0.029350 -0.131826 0.077008 -0.036050 -0.067969 -0.076699 0.162806 -0.050988 0.066515 -0.201508 -0.114268 -0.116558 0.050609 0.167595 -0.035919 -0.153809 -0.075170 -0.011107 -0.211234 -0.144916 -0.063874 0.095643 -0.023246 -0.144544 -0.113567 -0.033440 -0.302494 -0.211994 
8 -0.035462 0.012501 0.183353 0.115143 -0.103276 0.045074 -0.064393 -0.032766 -0.087990 0.069461 0.105327 0.008033 0.002470 -0.165237 -0.080868 -0.006607 0.055546 0.127080 0.273531 -0.218102 0.078108 0.219272 0.107467 -0.075265 0.062580 0.059357 -0.088115 -0.053813 0.096490 0.046634 -0.076306 -0.079852 0.084506 0.045225 0.025573 -0.137990 -0.036351 -0.060935 0.052338 -0.011728 0.100540 -0.009078 -0.041342 0.024418 -0.051859 0.106823 0.058366 -0.046739 0.085000 0.039890 0.050837 0.188433 -0.079638 -0.054362 -0.128033 -0.133103 0.015273 -0.100431 -0.142480 0.013428 0.054464 -0.121138 -0.153733 0.191300 0.012789 0.002150 0.023825 0.006372 0.035759 0.085278 0.139530 -0.050326 0.064497 0.062438 0.024530 -0.012812 -0.037313 0.060593 0.007317 0.086359 -0.005170 -0.157240 -0.068108 0.072045 -0.011331 -0.096222 -0.203363 0.052292 0.002866 0.050656 0.061584 -0.019987 0.061489 0.258049 -0.203614 -0.055646 0.286853 -0.014057 0.113027 0.326957 0.024539 -0.135448 0.070934 -0.043961 -0.063651 -0.076157 0.156163 -0.048182 0.064438 -0.189810 -0.115131 -0.112345 0.058124 0.174490 -0.032808 -0.156564 -0.073220 -0.006321 -0.206957 -0.143829 -0.066632 0.094974 -0.026651 -0.140418 -0.113944 -0.022376 -0.295487 -0.211001 
9 -0.026724 0.021517 0.181538 0.108169 -0.102637 0.046040 -0.063216 -0.029481 -0.086017 0.070105 0.093930 0.007876 0.005644 -0.165260 -0.073845 -0.009010 0.045675 0.128381 0.274805 -0.208828 0.079185 0.212465 0.100184 -0.074315 0.061259 0.063197 -0.086423 -0.051491 0.092077 0.048705 -0.068617 -0.075730 0.089435 0.047932 0.028606 -0.136259 -0.041681 -0.055034 0.050479 -0.018458 0.095429 -0.005172 -0.038369 0.015914 -0.060017 0.110260 0.051202 -0.045033 0.082012 0.043881 0.055074 0.189098 -0.086737 -0.060457 -0.138719 -0.122526 0.018872 -0.099735 -0.135722 0.007116 0.050145 -0.123435 -0.148828 0.184666 0.010078 0.001222 0.030895 0.010930 0.023637 0.085494 0.130671 -0.048644 0.062431 0.062492 0.021334 -0.006357 -0.022497 0.058279 0.005247 0.090444 0.003728 -0.156249 -0.062740 0.078370 -0.007062 -0.099179 -0.205991 0.053432 -0.002572 0.049846 0.058157 -0.022744 0.061094 0.250614 -0.210023 -0.062162 0.277550 -0.009779 0.117110 0.319229 0.018096 -0.138357 0.065158 -0.036345 -0.069720 -0.073280 0.156075 -0.049222 0.068896 -0.180209 -0.115321 -0.110807 0.059520 0.171104 -0.036804 -0.147019 -0.074172 0.001353 -0.199714 -0.147901 -0.071082 0.092295 -0.025916 -0.136398 -0.105151 -0.020300 -0.291579 -0.199907 
10 -0.027594 0.018020 0.179846 0.101975 -0.105483 0.055280 -0.069910 -0.029487 -0.090196 0.072202 0.092201 0.006394 -0.000805 -0.165659 -0.069501 -0.012693 0.049596 0.130395 0.281691 -0.215250 0.083942 0.213634 0.108188 -0.072327 0.063585 0.061993 -0.089060 -0.052246 0.092582 0.044165 -0.070769 -0.081026 0.091824 0.044170 0.031673 -0.135512 -0.039685 -0.058525 0.051168 -0.013993 0.098092 -0.003328 -0.037965 0.010746 -0.062051 0.111333 0.054201 -0.049249 0.082683 0.041588 0.057445 0.188450 -0.083962 -0.066005 -0.138415 -0.122837 0.022394 -0.096358 -0.138056 0.010685 0.050800 -0.120674 -0.155347 0.182663 0.011887 0.002176 0.031402 0.009852 0.027924 0.085280 0.132207 -0.047772 0.069391 0.068617 0.023796 -0.011069 -0.026883 0.060359 0.006549 0.093963 0.004932 -0.158245 -0.066706 0.081439 -0.014519 -0.103250 -0.213483 0.051820 0.001172 0.057980 0.059446 -0.023740 0.062181 0.259647 -0.217018 -0.064178 0.289862 -0.009122 0.117335 0.325299 0.019127 -0.133859 0.070866 -0.040415 -0.071193 -0.079160 0.158807 -0.057007 0.067936 -0.178297 -0.116285 -0.116504 0.057936 0.178552 -0.039415 -0.154232 -0.077676 0.002088 -0.201290 -0.150782 -0.069842 0.093552 -0.024111 -0.141241 -0.110350 -0.020651 -0.302170 -0.209283 
11 -0.025002 0.020200 0.181365 0.103874 -0.104185 0.049431 -0.066854 -0.030023 -0.097847 0.069079 0.093632 -0.001512 -0.001653 -0.169714 -0.073318 -0.006864 0.047769 0.138933 0.292136 -0.216403 0.078546 0.223498 0.104377 -0.078386 0.064650 0.058928 -0.090358 -0.059921 0.097620 0.046869 -0.068283 -0.078470 0.087946 0.052292 0.030676 -0.139441 -0.044667 -0.059261 0.047285 -0.019699 0.098671 -0.006662 -0.042497 0.018017 -0.061734 0.115230 0.060853 -0.053593 0.085985 0.038538 0.059280 0.189943 -0.081380 -0.065605 -0.140496 -0.119311 0.021769 -0.103167 -0.141178 0.011320 0.052415 -0.123602 -0.159009 0.182839 0.019213 0.000709 0.024973 0.010295 0.027821 0.089513 0.131142 -0.054688 0.072758 0.071658 0.022174 -0.012328 -0.021488 0.060465 -0.000160 0.095853 -0.000165 -0.156409 -0.069571 0.079155 -0.014556 -0.101257 -0.213334 0.053356 0.000290 0.053191 0.060484 -0.024893 0.063673 0.265847 -0.217667 -0.060466 0.295545 -0.009231 0.125380 0.327301 0.020074 -0.139941 0.068192 -0.044917 -0.067852 -0.074822 0.165005 -0.056667 0.068993 -0.186203 -0.113864 -0.110439 0.060158 0.174738 -0.041517 -0.152179 -0.078461 0.002093 -0.201170 -0.155731 -0.064695 0.097875 -0.026908 -0.141468 -0.108967 -0.026480 -0.303407 -0.204934 
12 -0.028070 0.029506 0.173576 0.102353 -0.102434 0.054716 -0.071156 -0.028435 -0.094000 0.066833 0.096601 0.005111 -0.000181 -0.160582 -0.071628 -0.007976 0.040179 0.132287 0.277632 -0.205845 0.082080 0.212581 0.105494 -0.071230 0.053341 0.062839 -0.084151 -0.052582 0.095314 0.047671 -0.071357 -0.084965 0.082631 0.047521 0.028680 -0.134464 -0.042120 -0.058769 0.049282 -0.014411 0.093473 -0.005199 -0.036266 0.014435 -0.062137 0.104185 0.055232 -0.052047 0.075801 0.040181 0.058354 0.187129 -0.078650 -0.061524 -0.137616 -0.115911 0.022509 -0.097058 -0.139311 0.013476 0.049963 -0.119849 -0.151687 0.176316 0.017264 -0.002202 0.027214 0.017522 0.029215 0.083112 0.123669 -0.050483 0.067457 0.069274 0.026578 -0.004661 -0.019851 0.061054 0.006484 0.091865 0.005509 -0.155036 -0.062613 0.078781 -0.010847 -0.102155 -0.206415 0.047931 0.003712 0.056124 0.062138 -0.029003 0.065268 0.251596 -0.212863 -0.060654 0.283889 -0.013346 0.116014 0.312070 0.017793 -0.133643 0.066191 -0.042436 -0.066532 -0.072750 0.156245 -0.053467 0.063127 -0.180042 -0.112097 -0.108509 0.059871 0.172773 -0.039492 -0.146209 -0.071257 -0.004486 -0.198405 -0.149393 -0.064089 0.092409 -0.027760 -0.141382 -0.103954 -0.018587 -0.294372 -0.197482 
13 -0.026255 0.022099 0.169218 0.098466 -0.099316 0.048446 -0.062262 -0.026441 -0.082712 0.060554 0.091236 -0.002233 0.002981 -0.154059 -0.067717 -0.010062 0.036324 0.120023 0.264037 -0.191238 0.074009 0.198966 0.100929 -0.068512 0.053233 0.051964 -0.081097 -0.050997 0.091912 0.043276 -0.064179 -0.078603 0.077272 0.042017 0.028583 -0.125167 -0.036893 -0.058913 0.043754 -0.016482 0.084575 -0.006004 -0.038961 0.016136 -0.057369 0.103174 0.051509 -0.049709 0.076694 0.040062 0.056185 0.174424 -0.079957 -0.058309 -0.129044 -0.112005 0.018186 -0.092473 -0.132081 0.005384 0.043624 -0.114541 -0.140626 0.164664 0.012831 -0.001501 0.024294 0.013951 0.025718 0.081880 0.121500 -0.045439 0.061127 0.062592 0.024721 -0.007719 -0.026040 0.055079 -0.000372 0.081440 0.001331 -0.140481 -0.063194 0.077058 -0.010273 -0.095367 -0.193364 0.049723 0.001029 0.048410 0.061304 -0.027398 0.056683 0.240566 -0.199029 -0.062343 0.267464 -0.005994 0.106998 0.300993 0.014600 -0.125952 0.065034 -0.040775 -0.065336 -0.070038 0.148975 -0.051055 0.062594 -0.167271 -0.101970 -0.106602 0.052384 0.158545 -0.034751 -0.138943 -0.071213 0.000756 -0.182193 -0.139469 -0.059078 0.088416 -0.029740 -0.125556 -0.102713 -0.020716 -0.278600 -0.186367 
14 -0.022260 0.024054 0.159369 0.092293 -0.094130 0.051796 -0.064211 -0.027214 -0.079606 0.060056 0.086467 -0.003640 0.000733 -0.146230 -0.064789 -0.014613 0.036144 0.121518 0.252837 -0.184805 0.072690 0.193756 0.094005 -0.064109 0.050240 0.055057 -0.074670 -0.046908 0.082483 0.040683 -0.058090 -0.077347 0.079586 0.043070 0.032287 -0.119281 -0.038393 -0.050940 0.039567 -0.013365 0.080328 -0.006711 -0.032045 0.012164 -0.062751 0.096297 0.049666 -0.048908 0.069322 0.036200 0.056210 0.169687 -0.076393 -0.051819 -0.120578 -0.098997 0.017432 -0.086540 -0.129087 0.007991 0.042360 -0.111085 -0.138133 0.160125 0.014597 -0.004481 0.031347 0.014041 0.024142 0.075991 0.108105 -0.048402 0.056933 0.060586 0.019248 -0.004285 -0.019741 0.056637 -0.001200 0.078201 0.007119 -0.136563 -0.059477 0.071730 -0.006688 -0.095956 -0.188773 0.048188 -0.004180 0.045950 0.051115 -0.024039 0.057036 0.227521 -0.193723 -0.054621 0.256458 -0.005747 0.105579 0.288395 0.011126 -0.119214 0.058340 -0.036064 -0.066178 -0.066811 0.142227 -0.047679 0.058654 -0.155971 -0.102708 -0.100718 0.051598 0.154718 -0.030781 -0.130372 -0.066593 0.000957 -0.176063 -0.128336 -0.057568 0.077554 -0.022492 -0.121188 -0.094331 -0.021795 -0.261610 -0.181898 
15 -0.029688 0.029324 0.163957 0.091787 -0.100391 0.048935 -0.061523 -0.026177 -0.080799 0.068380 0.083818 -0.002284 0.004210 -0.147784 -0.058834 -0.010799 0.033975 0.125774 0.266908 -0.192491 0.075216 0.201690 0.091678 -0.073178 0.048309 0.056760 -0.075542 -0.052938 0.083955 0.042707 -0.056799 -0.075263 0.078300 0.049315 0.033863 -0.124860 -0.038720 -0.053898 0.037673 -0.013445 0.081281 0.000596 -0.031292 0.005648 -0.062952 0.099698 0.049722 -0.049040 0.069032 0.032237 0.054029 0.169845 -0.081445 -0.059585 -0.134736 -0.106494 0.019242 -0.084416 -0.135967 0.006473 0.047956 -0.118918 -0.139549 0.163604 0.016733 -0.006853 0.033824 0.011218 0.022155 0.073206 0.118314 -0.049599 0.065387 0.060523 0.022546 -0.000265 -0.017471 0.060612 -0.000544 0.083701 0.006889 -0.143677 -0.054866 0.077098 -0.011099 -0.098760 -0.197305 0.042882 -0.000845 0.052621 0.056069 -0.030615 0.058505 0.234907 -0.203509 -0.056307 0.257975 -0.009940 0.113864 0.295567 0.013437 -0.130328 0.060395 -0.035698 -0.068043 -0.071331 0.147390 -0.050201 0.055351 -0.162543 -0.109324 -0.105262 0.056041 0.163907 -0.033608 -0.137246 -0.062053 0.002541 -0.186525 -0.138621 -0.060582 0.083951 -0.024695 -0.130230 -0.095466 -0.017417 -0.271184 -0.184020 
16 -0.028425 0.024326 0.160754 0.095371 -0.092794 0.047052 -0.066721 -0.031793 -0.084160 0.059834 0.080644 0.001733 0.004445 -0.140861 -0.062451 -0.018238 0.037847 0.118738 0.256281 -0.188328 0.074238 0.189764 0.090480 -0.066972 0.049026 0.056481 -0.073262 -0.048553 0.086854 0.043066 -0.062991 -0.076273 0.078234 0.045266 0.033321 -0.121204 -0.033216 -0.053903 0.038845 -0.018988 0.073719 -0.000032 -0.033393 0.002481 -0.065179 0.093872 0.050825 -0.044947 0.070905 0.037069 0.059558 0.166445 -0.077933 -0.054263 -0.127987 -0.102400 0.014923 -0.082967 -0.127526 0.012556 0.045280 -0.114210 -0.140545 0.158174 0.010222 -0.003217 0.031543 0.016694 0.024773 0.072640 0.108250 -0.046807 0.063436 0.058755 0.018565 0.000581 -0.014609 0.057085 0.001646 0.083439 0.008225 -0.136468 -0.052601 0.070502 -0.014916 -0.095036 -0.190925 0.047929 -0.003112 0.046911 0.055337 -0.025281 0.052266 0.228340 -0.195787 -0.057456 0.251513 -0.002217 0.112441 0.290072 0.012649 -0.129608 0.061259 -0.033296 -0.068291 -0.070945 0.138182 -0.044197 0.058228 -0.161237 -0.100428 -0.099343 0.053964 0.161591 -0.038708 -0.133698 -0.064478 0.000072 -0.181045 -0.129781 -0.064557 0.083108 -0.025155 -0.126149 -0.092646 -0.020103 -0.264550 -0.176746 
17 -0.025633 0.020983 0.169074 0.098679 -0.102231 0.050335 -0.063032 -0.028127 -0.088812 0.068088 0.083847 -0.003941 -0.001750 -0.153977 -0.059788 -0.016685 0.034827 0.118529 0.260965 -0.196803 0.071745 0.201482 0.096854 -0.074451 0.047580 0.053928 -0.072549 -0.054057 0.088580 0.046460 -0.063692 -0.078963 0.081508 0.050826 0.027095 -0.126129 -0.034029 -0.051041 0.038022 -0.017099 0.084767 0.001792 -0.038421 0.010466 -0.059377 0.098749 0.051111 -0.047327 0.071428 0.034834 0.059703 0.176396 -0.075641 -0.056552 -0.129180 -0.106037 0.020603 -0.087040 -0.135613 0.009162 0.050723 -0.114629 -0.140876 0.167116 0.015912 -0.005934 0.030415 0.013803 0.028861 0.070894 0.120973 -0.054036 0.065429 0.060058 0.022582 0.000299 -0.017797 0.057750 0.000588 0.084725 0.008055 -0.142443 -0.055999 0.074914 -0.010409 -0.098788 -0.197810 0.044448 0.001098 0.046734 0.057103 -0.023857 0.052898 0.237072 -0.202636 -0.059962 0.256444 -0.008970 0.114654 0.300170 0.017819 -0.130969 0.061461 -0.035079 -0.064152 -0.069989 0.144789 -0.048088 0.057299 -0.166470 -0.108840 -0.107134 0.053057 0.163432 -0.038681 -0.143571 -0.064106 -0.001726 -0.185680 -0.138453 -0.060571 0.083402 -0.028924 -0.131522 -0.098388 -0.016708 -0.277973 -0.190565 
18 -0.023058 0.028094 0.163892 0.095757 -0.091164 0.053029 -0.061221 -0.027238 -0.085570 0.067268 0.079946 -0.001361 0.001223 -0.142029 -0.057922 -0.015560 0.037183 0.120338 0.255343 -0.187967 0.076046 0.191210 0.093275 -0.065903 0.050551 0.056237 -0.071953 -0.051115 0.087140 0.044280 -0.054597 -0.070825 0.075390 0.051186 0.033282 -0.113768 -0.035977 -0.055340 0.038541 -0.018386 0.074884 -0.002269 -0.036938 0.002410 -0.059194 0.095750 0.043404 -0.046947 0.065763 0.034428 0.056187 0.168646 -0.075534 -0.053500 -0.124304 -0.099744 0.018445 -0.085464 -0.129584 0.009685 0.048915 -0.112521 -0.136811 0.161635 0.016150 -0.004900 0.027341 0.010227 0.025505 0.070390 0.114184 -0.048638 0.061101 0.058679 0.022768 -0.000705 -0.013313 0.054266 0.003024 0.082357 0.005661 -0.135259 -0.052970 0.069027 -0.009820 -0.091645 -0.194174 0.043788 -0.003576 0.052977 0.055409 -0.027757 0.051115 0.231539 -0.198339 -0.058460 0.248578 -0.002736 0.107006 0.284072 0.014738 -0.126976 0.064518 -0.033149 -0.069048 -0.065919 0.136533 -0.046229 0.059653 -0.160512 -0.103565 -0.103091 0.054700 0.162027 -0.039458 -0.134447 -0.059730 -0.003591 -0.179757 -0.131561 -0.057668 0.075647 -0.022349 -0.123669 -0.095370 -0.017125 -0.267543 -0.184337 
19 -0.028276 0.025969 0.156345 0.095205 -0.096594 0.049351 -0.062185 -0.027291 -0.079884 0.063974 0.077974 0.002441 0.004028 -0.144421 -0.056648 -0.017695 0.036235 0.118040 0.260174 -0.183272 0.073336 0.189086 0.091087 -0.068236 0.048311 0.052594 -0.068345 -0.045824 0.085058 0.039907 -0.054062 -0.075683 0.074985 0.044557 0.032344 -0.115590 -0.034492 -0.051971 0.039785 -0.016685 0.075143 -0.001857 -0.030736 0.006423 -0.064379 0.098022 0.049524 -0.048762 0.068937 0.032914 0.058069 0.166236 -0.074337 -0.051629 -0.124014 -0.100051 0.015337 -0.084714 -0.132098 0.007531 0.045786 -0.113236 -0.136632 0.162744 0.015075 -0.003941 0.034239 0.011772 0.022805 0.070484 0.113973 -0.050546 0.059245 0.055798 0.019637 -0.001962 -0.013711 0.056455 0.005765 0.080492 0.006457 -0.136018 -0.054128 0.075317 -0.010466 -0.095145 -0.188761 0.043391 -0.002006 0.049229 0.053828 -0.025903 0.056848 0.229717 -0.191499 -0.060392 0.250917 -0.005821 0.106348 0.285944 0.017091 -0.125891 0.057746 -0.034187 -0.066478 -0.070294 0.139660 -0.044664 0.057194 -0.158432 -0.104258 -0.096383 0.051327 0.155520 -0.037977 -0.134746 -0.066848 -0.003430 -0.179415 -0.134364 -0.063305 0.081030 -0.021207 -0.125780 -0.096544 -0.012589 -0.261696 -0.181422 
20 -0.025790 0.022388 0.156058 0.092562 -0.098588 0.045946 -0.059503 -0.030126 -0.077717 0.063863 0.080880 -0.001156 0.004908 -0.148151 -0.058899 -0.016835 0.037333 0.116343 0.260806 -0.183992 0.068375 0.196589 0.094914 -0.066136 0.050186 0.049352 -0.071653 -0.049415 0.085571 0.038289 -0.054347 -0.074254 0.079776 0.046419 0.033535 -0.118356 -0.035624 -0.053702 0.038728 -0.015161 0.074749 0.000569 -0.033019 0.007675 -0.059497 0.093676 0.045358 -0.049515 0.071300 0.033235 0.052533 0.169356 -0.071728 -0.056235 -0.129909 -0.104901 0.022394 -0.083635 -0.125610 0.006525 0.045204 -0.110534 -0.135990 0.158842 0.011285 -0.004916 0.031943 0.017811 0.019719 0.075452 0.113685 -0.055291 0.061238 0.062702 0.024610 -0.003895 -0.020258 0.054093 -0.000777 0.083446 0.008835 -0.143189 -0.053574 0.073668 -0.005460 -0.093841 -0.195026 0.042850 0.003138 0.050856 0.050580 -0.029987 0.051622 0.234245 -0.191946 -0.060296 0.248706 -0.010663 0.104432 0.285218 0.010706 -0.126294 0.057855 -0.034780 -0.070618 -0.068180 0.138606 -0.045013 0.055867 -0.158096 -0.100786 -0.103552 0.052309 0.160669 -0.036871 -0.136035 -0.068065 -0.000475 -0.175600 -0.133365 -0.060685 0.083278 -0.023301 -0.128193 -0.097382 -0.018153 -0.262014 -0.177900 
21 -0.029001 0.023700 0.165412 0.094488 -0.095809 0.049828 -0.067937 -0.029314 -0.079557 0.066531 0.085304 -0.002011 0.005456 -0.147885 -0.064288 -0.013787 0.037296 0.117011 0.261723 -0.190304 0.071582 0.200629 0.091728 -0.074330 0.048310 0.054985 -0.071576 -0.051738 0.091298 0.041595 -0.063521 -0.075723 0.082301 0.043826 0.029197 -0.122270 -0.034943 -0.054961 0.042424 -0.020008 0.079501 -0.002407 -0.038235 0.009672 -0.058109 0.096223 0.047207 -0.043021 0.069962 0.036713 0.056330 0.171947 -0.073957 -0.057858 -0.129968 -0.106164 0.018629 -0.086463 -0.129399 0.009638 0.048144 -0.118408 -0.137748 0.166159 0.016771 -0.005219 0.035311 0.017029 0.022802 0.078789 0.113714 -0.054167 0.058740 0.060326 0.019210 -0.007203 -0.020148 0.058258 0.003915 0.079836 0.001621 -0.148173 -0.063018 0.077462 -0.008795 -0.091245 -0.195638 0.043507 0.003913 0.047256 0.058103 -0.025036 0.055881 0.239592 -0.200393 -0.059101 0.254745 -0.007292 0.105894 0.291356 0.016951 -0.128148 0.060193 -0.039377 -0.067740 -0.071342 0.142720 -0.052012 0.055960 -0.163929 -0.105126 -0.104580 0.050216 0.158723 -0.034415 -0.134626 -0.070190 -0.002432 -0.182507 -0.133159 -0.062057 0.086844 -0.021959 -0.130189 -0.100625 -0.016471 -0.271656 -0.189042 
22 -0.024822 0.021697 0.157844 0.090760 -0.092108 0.048322 -0.061758 -0.023834 -0.078107 0.059006 0.078613 -0.000722 0.001812 -0.144957 -0.059799 -0.010857 0.039771 0.118565 0.249062 -0.177673 0.072079 0.190938 0.087555 -0.067264 0.050007 0.051313 -0.070394 -0.052687 0.082465 0.038825 -0.056432 -0.070023 0.075904 0.046168 0.032388 -0.112668 -0.031225 -0.049841 0.041995 -0.013532 0.078459 -0.003368 -0.036420 0.004035 -0.060048 0.091425 0.045370 -0.041489 0.066367 0.031644 0.049742 0.166794 -0.073582 -0.051297 -0.118881 -0.100500 0.019711 -0.083383 -0.127220 0.013295 0.044022 -0.111353 -0.129823 0.159794 0.014277 -0.002206 0.030377 0.011442 0.024782 0.072703 0.108912 -0.049250 0.062460 0.054122 0.020956 -0.007326 -0.018902 0.054756 0.003229 0.075420 0.003347 -0.139982 -0.060479 0.067166 -0.012045 -0.090474 -0.186275 0.045194 0.004064 0.046143 0.052902 -0.028081 0.055457 0.222327 -0.190374 -0.058425 0.244836 -0.006169 0.106567 0.283092 0.010624 -0.123773 0.061967 -0.030735 -0.064423 -0.068114 0.138946 -0.047388 0.052723 -0.156306 -0.099443 -0.096135 0.048689 0.153551 -0.035328 -0.129193 -0.059793 0.000902 -0.175454 -0.126317 -0.060821 0.076021 -0.021537 -0.122076 -0.097795 -0.016104 -0.259130 -0.176748 
23 -0.023143 0.024204 0.164562 0.097645 -0.094733 0.046235 -0.065775 -0.033235 -0.086865 0.062680 0.083041 -0.002647 0.004414 -0.151562 -0.068924 -0.007078 0.043317 0.119592 0.268140 -0.194355 0.072358 0.201034 0.094690 -0.073937 0.049655 0.055985 -0.077668 -0.052510 0.087678 0.046233 -0.066819 -0.079194 0.084873 0.045945 0.031832 -0.123419 -0.036736 -0.058496 0.039526 -0.015163 0.085685 0.000366 -0.033559 0.010771 -0.061332 0.103751 0.052720 -0.043398 0.069114 0.035389 0.054105 0.176748 -0.082852 -0.056876 -0.127853 -0.107243 0.017551 -0.088200 -0.129572 0.012174 0.044161 -0.118296 -0.141391 0.169538 0.012586 -0.002556 0.029296 0.009694 0.021709 0.075639 0.118387 -0.051032 0.065601 0.058931 0.026931 -0.009252 -0.017276 0.057135 0.001660 0.080993 0.000307 -0.145968 -0.058215 0.076002 -0.006460 -0.093274 -0.194524 0.045810 0.001755 0.053952 0.053448 -0.024508 0.053525 0.239533 -0.201000 -0.063958 0.260445 -0.008449 0.111088 0.300590 0.018870 -0.126505 0.061597 -0.036100 -0.069531 -0.069301 0.142355 -0.050215 0.054790 -0.163268 -0.111843 -0.104023 0.055720 0.162635 -0.035888 -0.136732 -0.069987 -0.001411 -0.185315 -0.134810 -0.060485 0.083455 -0.026655 -0.130937 -0.098572 -0.020238 -0.275380 -0.189464 
24 -0.023303 0.023258 0.173510 0.098628 -0.100327 0.051199 -0.063723 -0.028135 -0.085236 0.067928 0.091292 -0.000440 -0.002451 -0.152457 -0.067992 -0.009494 0.040472 0.122059 0.269539 -0.196837 0.078717 0.205769 0.091667 -0.068686 0.055208 0.060288 -0.072461 -0.048946 0.089013 0.042179 -0.061646 -0.074842 0.079313 0.048546 0.027566 -0.124233 -0.034524 -0.053453 0.044024 -0.020863 0.078557 -0.003499 -0.035904 0.008482 -0.062541 0.106019 0.049722 -0.047471 0.071940 0.031963 0.052782 0.178398 -0.082148 -0.056842 -0.131730 -0.106042 0.019134 -0.085438 -0.136637 0.009411 0.046260 -0.122473 -0.142963 0.168750 0.011663 -0.000436 0.026082 0.012697 0.028163 0.076723 0.119202 -0.054324 0.062114 0.062366 0.020737 -0.006388 -0.017065 0.056815 -0.000677 0.086967 -0.000854 -0.148795 -0.057307 0.075678 -0.008409 -0.094259 -0.200267 0.047224 0.001628 0.054974 0.057200 -0.029661 0.054617 0.239301 -0.206480 -0.058730 0.262208 -0.012133 0.113447 0.305337 0.012613 -0.134343 0.064350 -0.033527 -0.070998 -0.071591 0.147114 -0.053717 0.058117 -0.170574 -0.112224 -0.107784 0.057573 0.170317 -0.036461 -0.136844 -0.071448 -0.004189 -0.181546 -0.138207 -0.061673 0.088909 -0.028467 -0.131021 -0.100019 -0.014857 -0.282688 -0.188821 
25 -0.018345 0.024421 0.152368 0.091198 -0.094862 0.050737 -0.065164 -0.032153 -0.082289 0.059738 0.080717 -0.001516 0.001377 -0.139477 -0.060089 -0.011624 0.037565 0.113226 0.248471 -0.178493 0.074567 0.186422 0.086288 -0.064835 0.049229 0.051509 -0.070324 -0.044857 0.078949 0.035067 -0.061250 -0.071523 0.075111 0.048056 0.026474 -0.112356 -0.036582 -0.055496 0.041711 -0.019742 0.069172 -0.006440 -0.035098 0.003522 -0.064041 0.096566 0.049029 -0.043726 0.069457 0.034367 0.054025 0.160880 -0.077193 -0.057862 -0.125347 -0.101208 0.022056 -0.081113 -0.122152 0.006319 0.045134 -0.109054 -0.131493 0.160724 0.010870 -0.004180 0.025244 0.009610 0.019182 0.068854 0.104752 -0.048080 0.057692 0.056037 0.025185 -0.004913 -0.018020 0.057109 0.003092 0.079641 0.002635 -0.135451 -0.053143 0.067008 -0.008429 -0.091255 -0.185236 0.040486 -0.003053 0.052998 0.049686 -0.028579 0.050227 0.226621 -0.190047 -0.059121 0.245730 -0.005945 0.101379 0.274133 0.011326 -0.119596 0.062651 -0.035313 -0.062114 -0.066315 0.135967 -0.049987 0.058172 -0.152883 -0.099788 -0.093244 0.051029 0.155689 -0.032893 -0.127653 -0.060868 -0.000860 -0.167574 -0.126290 -0.061662 0.074170 -0.022296 -0.120735 -0.092647 -0.015863 -0.252861 -0.178093 
26 -0.020531 0.027746 0.166422 0.095976 -0.100445 0.053667 -0.065592 -0.033996 -0.086050 0.069082 0.084964 -0.002722 -0.003545 -0.152020 -0.063157 -0.008708 0.037690 0.124123 0.270995 -0.194771 0.075252 0.197338 0.098006 -0.072394 0.051009 0.058777 -0.073315 -0.049579 0.089250 0.041316 -0.066031 -0.073900 0.080171 0.048223 0.031896 -0.123754 -0.038011 -0.056287 0.041625 -0.014190 0.077510 0.000922 -0.038206 0.004151 -0.062810 0.108034 0.045213 -0.040190 0.072213 0.037772 0.057108 0.171297 -0.078078 -0.061389 -0.133778 -0.104450 0.020459 -0.087576 -0.132132 0.006662 0.050365 -0.116260 -0.143037 0.172372 0.012869 -0.006032 0.029654 0.013475 0.024615 0.082733 0.114764 -0.054390 0.059988 0.065735 0.025870 -0.005437 -0.018486 0.060488 0.002766 0.087005 0.006907 -0.142204 -0.057301 0.071404 -0.006806 -0.092669 -0.198806 0.045342 0.000314 0.050271 0.057970 -0.028512 0.061291 0.239739 -0.203486 -0.059009 0.260222 -0.006309 0.110181 0.295786 0.015075 -0.126733 0.063037 -0.038863 -0.064757 -0.073608 0.143089 -0.045857 0.060672 -0.167473 -0.107637 -0.098931 0.054468 0.163539 -0.033690 -0.132979 -0.068488 -0.002991 -0.185720 -0.132568 -0.061388 0.085851 -0.022481 -0.126390 -0.101176 -0.017610 -0.272981 -0.189850 
27 -0.022505 0.029328 0.161519 0.091748 -0.095895 0.052277 -0.060782 -0.032115 -0.085974 0.067302 0.082962 0.002337 -0.001604 -0.140052 -0.063599 -0.009043 0.041008 0.119601 0.258543 -0.186504 0.073948 0.188378 0.091404 -0.070005 0.052557 0.054434 -0.070479 -0.052668 0.083006 0.040972 -0.060869 -0.072523 0.078697 0.041947 0.027106 -0.119908 -0.040168 -0.059031 0.037238 -0.015692 0.076540 -0.006122 -0.029913 0.002561 -0.063833 0.100466 0.044599 -0.039233 0.065303 0.038368 0.053921 0.169745 -0.072370 -0.058841 -0.128696 -0.101652 0.021832 -0.081617 -0.129704 0.006117 0.048832 -0.108306 -0.136046 0.165538 0.013348 -0.002203 0.026001 0.009552 0.023591 0.076234 0.107691 -0.047756 0.060780 0.061294 0.020823 -0.007304 -0.016538 0.060765 -0.001180 0.079340 0.003467 -0.138544 -0.057475 0.072036 -0.011838 -0.091004 -0.194099 0.044217 -0.003583 0.052011 0.049664 -0.026562 0.055709 0.232880 -0.194604 -0.055991 0.251634 -0.011788 0.105888 0.283517 0.018270 -0.123263 0.057572 -0.038782 -0.062044 -0.072680 0.140444 -0.042183 0.053846 -0.160982 -0.105540 -0.101603 0.052135 0.155722 -0.035902 -0.132026 -0.066353 0.001424 -0.177006 -0.125678 -0.064603 0.084274 -0.022472 -0.121144 -0.100742 -0.020231 -0.265356 -0.177497 
28 -0.026913 0.026612 0.170230 0.093342 -0.100321 0.046090 -0.067769 -0.032894 -0.087931 0.064323 0.085641 -0.004510 0.003588 -0.143566 -0.062024 -0.013082 0.035335 0.120101 0.263597 -0.196398 0.074094 0.195057 0.089512 -0.067912 0.051459 0.057017 -0.068954 -0.049465 0.087620 0.044134 -0.059172 -0.070740 0.076411 0.047393 0.031738 -0.119718 -0.041730 -0.059982 0.037503 -0.015072 0.074745 -0.007721 -0.032742 0.001163 -0.065522 0.101097 0.049662 -0.045333 0.073674 0.035797 0.056156 0.169828 -0.075448 -0.054278 -0.135463 -0.104156 0.022846 -0.081123 -0.134545 0.005945 0.052605 -0.114014 -0.143878 0.168473 0.018439 -0.007681 0.026248 0.015142 0.022648 0.081850 0.116723 -0.049038 0.057370 0.065756 0.020855 -0.001951 -0.013363 0.061165 0.000826 0.084251 0.003318 -0.142687 -0.061723 0.077537 -0.012102 -0.092622 -0.198707 0.047550 -0.004013 0.051698 0.052564 -0.028302 0.058440 0.241532 -0.197998 -0.062269 0.262940 -0.006312 0.109686 0.297722 0.015928 -0.126409 0.060495 -0.035950 -0.069436 -0.076726 0.145810 -0.048680 0.054740 -0.162364 -0.111988 -0.100927 0.054437 0.165125 -0.031683 -0.137660 -0.069431 -0.003759 -0.184866 -0.134165 -0.060529 0.085645 -0.027577 -0.128683 -0.099942 -0.018702 -0.273632 -0.184135 
29 -0.021156 0.024028 0.165621 0.089725 -0.102400 0.048215 -0.060444 -0.027913 -0.083362 0.065209 0.082402 -0.004205 0.004374 -0.143091 -0.061907 -0.012009 0.040235 0.120715 0.263801 -0.190623 0.073834 0.191631 0.087445 -0.072097 0.047950 0.050775 -0.069324 -0.049985 0.084452 0.041490 -0.062917 -0.071510 0.077139 0.045925 0.029047 -0.117659 -0.038777 -0.055381 0.043111 -0.020258 0.074886 -0.007612 -0.039649 0.004451 -0.065766 0.098901 0.049780 -0.044505 0.072019 0.030796 0.051218 0.171695 -0.074927 -0.058023 -0.129771 -0.100553 0.021571 -0.081276 -0.132956 0.004525 0.053843 -0.113184 -0.141814 0.171517 0.014989 -0.004391 0.034555 0.015568 0.020516 0.080060 0.112381 -0.049001 0.064959 0.064680 0.023512 -0.002493 -0.014334 0.058505 0.005944 0.081960 0.005836 -0.145675 -0.058868 0.078945 -0.009685 -0.097998 -0.201011 0.045477 -0.001049 0.048631 0.057123 -0.029738 0.060386 0.240130 -0.192524 -0.060186 0.261257 -0.007428 0.111868 0.293500 0.016451 -0.128456 0.059268 -0.038410 -0.063889 -0.071464 0.141766 -0.050455 0.059198 -0.161805 -0.109530 -0.097207 0.052999 0.167087 -0.032874 -0.138290 -0.066720 -0.000501 -0.177248 -0.134525 -0.060976 0.081566 -0.022108 -0.123284 -0.098500 -0.018937 -0.271740 -0.181812 
30 -0.023898 0.023892 0.164378 0.090361 -0.100825 0.052063 -0.065914 -0.026782 -0.088374 0.062836 0.085749 -0.002787 -0.000534 -0.140953 -0.058548 -0.012829 0.043145 0.122631 0.257981 -0.193641 0.073401 0.190585 0.089117 -0.072481 0.051978 0.055488 -0.069884 -0.051794 0.089423 0.040786 -0.059329 -0.072282 0.078882 0.044874 0.026610 -0.120131 -0.038261 -0.055217 0.043880 -0.016327 0.082191 -0.007393 -0.036932 0.009789 -0.064663 0.105170 0.045775 -0.046614 0.068546 0.031231 0.053084 0.170212 -0.073094 -0.053862 -0.131865 -0.104570 0.016259 -0.088264 -0.125689 0.008894 0.052309 -0.109996 -0.142458 0.166018 0.015916 0.000923 0.025026 0.009579 0.025956 0.075435 0.109639 -0.051428 0.056616 0.058471 0.028074 -0.004212 -0.020435 0.054776 0.003684 0.079673 0.003945 -0.140300 -0.059392 0.075161 -0.005264 -0.091204 -0.197070 0.043787 -0.003489 0.053183 0.054030 -0.025633 0.058521 0.233673 -0.195910 -0.056584 0.252160 -0.012658 0.108529 0.288869 0.014469 -0.128123 0.064023 -0.035026 -0.067955 -0.071589 0.141102 -0.050810 0.057049 -0.164171 -0.105025 -0.100014 0.058206 0.163949 -0.031626 -0.136213 -0.069420 -0.002646 -0.180225 -0.132123 -0.058306 0.082100 -0.026206 -0.125359 -0.102378 -0.014404 -0.271997 -0.179604 
31 -0.021068 0.026526 0.162414 0.087225 -0.099633 0.047817 -0.059759 -0.033861 -0.081501 0.060394 0.084926 0.001163 0.002291 -0.139794 -0.058166 -0.014341 0.042261 0.119784 0.259553 -0.188403 0.078386 0.189377 0.091848 -0.065282 0.048763 0.057675 -0.068820 -0.048049 0.089882 0.036416 -0.064181 -0.072466 0.078245 0.045021 0.030735 -0.119877 -0.037048 -0.055621 0.043901 -0.012682 0.077275 -0.001300 -0.036878 0.007426 -0.059819 0.101767 0.044191 -0.046793 0.067339 0.031121 0.049385 0.166090 -0.072876 -0.056753 -0.123326 -0.103254 0.016936 -0.078771 -0.124838 0.005781 0.050794 -0.116929 -0.134015 0.168151 0.013694 -0.000159 0.024783 0.013731 0.025324 0.073182 0.109445 -0.050864 0.058582 0.056251 0.021208 -0.001946 -0.015966 0.057197 0.001741 0.080378 0.008759 -0.143263 -0.064314 0.076209 -0.008133 -0.094495 -0.192323 0.046250 0.000504 0.053367 0.056921 -0.027089 0.060188 0.235195 -0.189415 -0.062464 0.251933 -0.006098 0.103537 0.285972 0.016188 -0.130406 0.059649 -0.034311 -0.064521 -0.068047 0.142485 -0.046614 0.052659 -0.158740 -0.105590 -0.095839 0.059784 0.158546 -0.031728 -0.127686 -0.064780 -0.002717 -0.176360 -0.130087 -0.064419 0.077300 -0.023777 -0.120874 -0.101379 -0.019840 -0.268208 -0.178522 
32 -0.020669 0.024435 0.168589 0.094087 -0.104644 0.049085 -0.065350 -0.034191 -0.091333 0.067424 0.085739 0.001545 0.000701 -0.148264 -0.062224 -0.015812 0.040718 0.128298 0.276400 -0.195387 0.081547 0.201365 0.091447 -0.070783 0.050432 0.059155 -0.071435 -0.047968 0.094265 0.042233 -0.065165 -0.078982 0.079813 0.052830 0.034020 -0.123680 -0.037641 -0.058415 0.041018 -0.017834 0.085248 -0.002071 -0.033205 0.005423 -0.064726 0.106993 0.053665 -0.043554 0.072035 0.038069 0.058644 0.181189 -0.079145 -0.057329 -0.131465 -0.111288 0.020697 -0.085405 -0.135199 0.011867 0.054214 -0.117323 -0.142823 0.177042 0.014529 -0.000398 0.031164 0.013963 0.024488 0.079072 0.119084 -0.056134 0.061407 0.062565 0.021213 -0.006245 -0.014874 0.059641 0.006934 0.084656 0.003500 -0.153844 -0.063319 0.074954 -0.006783 -0.099177 -0.204017 0.044073 -0.003455 0.054063 0.057410 -0.028652 0.061044 0.247674 -0.203318 -0.063401 0.265695 -0.013002 0.117690 0.300122 0.013280 -0.138162 0.065293 -0.040092 -0.069581 -0.074106 0.145543 -0.048151 0.060540 -0.163802 -0.112250 -0.101410 0.061996 0.168443 -0.032100 -0.135613 -0.072400 -0.004513 -0.182716 -0.137548 -0.066916 0.081640 -0.024173 -0.127334 -0.108575 -0.017904 -0.280736 -0.192685 
33 -0.021954 0.024847 0.167231 0.096533 -0.098560 0.047111 -0.062400 -0.032237 -0.089527 0.063761 0.083282 -0.004331 0.000037 -0.151039 -0.062592 -0.015888 0.043810 0.120866 0.266950 -0.193312 0.079170 0.194286 0.091186 -0.069871 0.052132 0.052140 -0.072971 -0.052485 0.094381 0.041319 -0.061588 -0.072725 0.081957 0.048723 0.029572 -0.121270 -0.036603 -0.060970 0.038436 -0.020844 0.075373 -0.003164 -0.040163 0.008005 -0.066649 0.105002 0.047115 -0.045594 0.074477 0.035231 0.058807 0.178750 -0.074997 -0.057140 -0.131016 -0.107245 0.020833 -0.088994 -0.130376 0.006510 0.051211 -0.114581 -0.141457 0.169642 0.016346 0.000458 0.031407 0.011601 0.022779 0.082282 0.113703 -0.055411 0.063218 0.061998 0.021427 -0.003073 -0.014238 0.057031 0.005260 0.083648 0.005215 -0.148982 -0.063062 0.077076 -0.011095 -0.093069 -0.203431 0.046406 -0.001203 0.057146 0.053638 -0.030207 0.060022 0.241364 -0.199606 -0.063780 0.261213 -0.005799 0.113005 0.302152 0.014936 -0.132396 0.061603 -0.039190 -0.072442 -0.075098 0.143781 -0.046145 0.058918 -0.167784 -0.111537 -0.106029 0.061271 0.169377 -0.033510 -0.135150 -0.069450 0.001907 -0.180031 -0.136591 -0.068249 0.079680 -0.026208 -0.129281 -0.104711 -0.015076 -0.276547 -0.185796 
34 -0.027042 0.031400 0.172286 0.099812 -0.102449 0.055388 -0.066203 -0.032813 -0.089349 0.069268 0.086017 -0.005539 0.000312 -0.157211 -0.067429 -0.016193 0.040479 0.131783 0.279412 -0.201387 0.085436 0.203036 0.098270 -0.072954 0.051420 0.056719 -0.072312 -0.049948 0.094695 0.046341 -0.063811 -0.076699 0.087889 0.052520 0.031168 -0.125134 -0.043125 -0.056719 0.043312 -0.014227 0.081531 -0.005893 -0.040049 0.009014 -0.072216 0.110401 0.052535 -0.045697 0.079197 0.039718 0.059069 0.186362 -0.080354 -0.063625 -0.136758 -0.107443 0.022365 -0.092607 -0.139346 0.011105 0.054696 -0.126009 -0.146660 0.176566 0.018017 -0.002140 0.033286 0.018088 0.024084 0.083168 0.119472 -0.056351 0.062348 0.065207 0.027330 -0.002037 -0.019479 0.060418 0.004531 0.090587 0.000656 -0.151740 -0.068067 0.081637 -0.012990 -0.096837 -0.207394 0.052284 -0.004816 0.053053 0.058646 -0.026800 0.063767 0.253443 -0.205550 -0.060031 0.275343 -0.009835 0.112982 0.312623 0.013491 -0.139245 0.064331 -0.042129 -0.070051 -0.079625 0.149214 -0.050453 0.064685 -0.176743 -0.118025 -0.109757 0.057732 0.176566 -0.038044 -0.141045 -0.068687 -0.000257 -0.193388 -0.140865 -0.066414 0.086062 -0.027899 -0.138342 -0.105058 -0.018732 -0.292770 -0.196575 
35 -0.027382 0.022350 0.174141 0.094966 -0.099505 0.048820 -0.064870 -0.030476 -0.090446 0.071685 0.084357 0.001893 -0.003727 -0.156916 -0.067502 -0.010346 0.038181 0.122447 0.276582 -0.197156 0.081304 0.200804 0.097120 -0.075922 0.050883 0.058497 -0.077167 -0.053802 0.093072 0.040013 -0.063314 -0.079812 0.085677 0.050066 0.035195 -0.127730 -0.034942 -0.058522 0.046419 -0.019723 0.081578 -0.000450 -0.033483 0.008621 -0.068506 0.104782 0.045700 -0.045868 0.076907 0.039575 0.061223 0.182223 -0.081228 -0.056873 -0.133795 -0.112721 0.022979 -0.088163 -0.132246 0.007370 0.048670 -0.123077 -0.145060 0.177607 0.015076 -0.001702 0.032993 0.012010 0.021723 0.081938 0.121013 -0.052735 0.061212 0.060792 0.025495 -0.001550 -0.022179 0.058448 0.006364 0.084924 0.003279 -0.150469 -0.060171 0.074484 -0.007943 -0.097902 -0.206566 0.048411 -0.005653 0.053597 0.052710 -0.026956 0.059293 0.244709 -0.204151 -0.060680 0.265135 -0.007382 0.116692 0.306388 0.015257 -0.129401 0.062394 -0.034727 -0.065944 -0.075155 0.150835 -0.051019 0.060210 -0.168300 -0.106901 -0.104501 0.055545 0.170276 -0.039097 -0.138147 -0.063640 -0.002462 -0.190209 -0.141377 -0.065029 0.086894 -0.029305 -0.130227 -0.102654 -0.014678 -0.282292 -0.195636 
36 -0.021211 0.023915 0.161618 0.091967 -0.095759 0.048603 -0.063063 -0.033740 -0.082353 0.065767 0.086794 -0.001132 -0.001968 -0.150465 -0.061215 -0.012971 0.038868 0.120051 0.268482 -0.186023 0.080362 0.192605 0.088046 -0.066959 0.045828 0.057686 -0.076271 -0.048438 0.090706 0.045442 -0.065348 -0.073664 0.075340 0.048743 0.031457 -0.122214 -0.039739 -0.056313 0.043268 -0.017499 0.082061 -0.005214 -0.031672 0.002113 -0.064727 0.104804 0.047148 -0.049014 0.071549 0.032607 0.054919 0.171898 -0.075778 -0.056846 -0.129718 -0.102022 0.020290 -0.085919 -0.130547 0.004587 0.049570 -0.120141 -0.136163 0.166723 0.017310 -0.001128 0.029282 0.017505 0.026192 0.079364 0.109597 -0.055331 0.060773 0.061871 0.028735 -0.004394 -0.021299 0.057356 0.001956 0.082520 0.005360 -0.141415 -0.058106 0.077533 -0.012627 -0.096768 -0.196790 0.046170 -0.002785 0.051502 0.050366 -0.027249 0.053244 0.240266 -0.197238 -0.059928 0.253584 -0.011050 0.107823 0.292321 0.014572 -0.131808 0.065378 -0.032470 -0.068487 -0.074847 0.146919 -0.046920 0.058265 -0.158320 -0.109775 -0.102587 0.053683 0.165084 -0.036563 -0.131885 -0.060813 0.004214 -0.180111 -0.131318 -0.069380 0.079254 -0.022150 -0.126466 -0.097177 -0.013615 -0.272162 -0.188797 
37 -0.024192 0.022417 0.159356 0.088230 -0.087329 0.045510 -0.062664 -0.025141 -0.076943 0.056815 0.082389 0.004073 0.002323 -0.140601 -0.058129 -0.011952 0.034709 0.115884 0.244036 -0.177301 0.074009 0.181950 0.088989 -0.064428 0.048839 0.053308 -0.071007 -0.043194 0.088173 0.042176 -0.055272 -0.066097 0.075009 0.048655 0.025634 -0.114574 -0.036796 -0.048352 0.039923 -0.014980 0.073621 0.000015 -0.028009 0.009029 -0.063032 0.099754 0.041440 -0.045701 0.071824 0.031266 0.051889 0.163461 -0.070764 -0.050066 -0.119454 -0.105232 0.021276 -0.082366 -0.122523 0.002719 0.043033 -0.111294 -0.128719 0.157760 0.015092 0.001180 0.026181 0.016105 0.020544 0.075410 0.103634 -0.051281 0.057551 0.062945 0.020842 0.000332 -0.022483 0.050960 0.000865 0.083088 0.003369 -0.134782 -0.063140 0.072790 -0.013207 -0.089525 -0.188129 0.042981 -0.002811 0.052928 0.050587 -0.029119 0.055308 0.222309 -0.186794 -0.050985 0.242683 -0.013468 0.105524 0.274100 0.014768 -0.117498 0.063255 -0.032948 -0.057888 -0.067719 0.136444 -0.041827 0.051515 -0.151012 -0.098895 -0.092412 0.049930 0.153452 -0.038364 -0.129331 -0.062119 0.001789 -0.168245 -0.128128 -0.064246 0.078913 -0.021421 -0.115849 -0.098356 -0.021980 -0.256909 -0.179332 
38 -0.021517 0.021652 0.164819 0.090774 -0.095582 0.050931 -0.063505 -0.027077 -0.079556 0.062709 0.080314 -0.004609 -0.002872 -0.146044 -0.062302 -0.009541 0.041254 0.116537 0.258621 -0.184202 0.076893 0.194857 0.091853 -0.071750 0.045266 0.056161 -0.070695 -0.049941 0.086656 0.036786 -0.059109 -0.073717 0.075329 0.045276 0.032518 -0.122052 -0.035434 -0.051743 0.038890 -0.019627 0.076007 -0.004743 -0.036794 0.008100 -0.061028 0.099225 0.043920 -0.043484 0.067229 0.032923 0.058255 0.170075 -0.079531 -0.052118 -0.124074 -0.102656 0.023833 -0.088658 -0.128134 0.008074 0.045752 -0.115436 -0.138030 0.160526 0.015292 -0.006687 0.029632 0.012611 0.020325 0.074933 0.111953 -0.048923 0.058918 0.060690 0.026744 -0.000554 -0.020691 0.059561 0.001771 0.085626 0.003738 -0.143599 -0.060568 0.076791 -0.013087 -0.097690 -0.191778 0.045228 -0.003996 0.054169 0.050885 -0.028437 0.055397 0.235032 -0.192881 -0.054748 0.256951 -0.006120 0.109298 0.284643 0.017729 -0.125543 0.065600 -0.029984 -0.067208 -0.070595 0.143015 -0.043941 0.058418 -0.159520 -0.102841 -0.096772 0.055965 0.161769 -0.032057 -0.130159 -0.063788 -0.000679 -0.174260 -0.130893 -0.064105 0.082109 -0.027977 -0.123347 -0.096453 -0.018566 -0.265393 -0.181989 
39 -0.021780 0.026059 0.167227 0.095129 -0.094320 0.051666 -0.066259 -0.028431 -0.086262 0.064840 0.084857 -0.002357 0.001507 -0.144176 -0.058927 -0.010069 0.041883 0.119034 0.262083 -0.192753 0.074250 0.199971 0.095067 -0.071339 0.051085 0.054747 -0.078494 -0.054044 0.090360 0.038057 -0.064210 -0.076763 0.083558 0.052198 0.028321 -0.122742 -0.036277 -0.052216 0.043840 -0.013366 0.084546 -0.005365 -0.035078 0.008480 -0.061242 0.099199 0.047474 -0.045003 0.067016 0.037539 0.055551 0.177109 -0.082510 -0.058247 -0.129158 -0.106361 0.021524 -0.084542 -0.128885 0.006599 0.046702 -0.118841 -0.139042 0.166283 0.010236 -0.006668 0.026915 0.017257 0.021535 0.081057 0.116306 -0.054708 0.058473 0.062051 0.028426 -0.008578 -0.022574 0.061995 0.000322 0.079727 0.006410 -0.144571 -0.063559 0.075725 -0.008413 -0.097728 -0.194819 0.041992 -0.005617 0.050684 0.051984 -0.022086 0.056020 0.236303 -0.196021 -0.057611 0.257104 -0.011795 0.108064 0.291384 0.018190 -0.128338 0.066512 -0.032105 -0.063350 -0.074393 0.144346 -0.044211 0.062299 -0.164935 -0.107955 -0.098503 0.057234 0.162666 -0.038697 -0.134298 -0.064358 -0.002323 -0.177416 -0.138188 -0.064039 0.085441 -0.026840 -0.123161 -0.099231 -0.022885 -0.273709 -0.186644 
40 -0.017887 0.023206 0.161380 0.090960 -0.095871 0.051612 -0.060908 -0.032827 -0.083291 0.062355 0.078402 -0.002768 -0.000753 -0.140752 -0.056760 -0.010054 0.034647 0.116203 0.254360 -0.184472 0.077329 0.188707 0.085420 -0.065603 0.044101 0.051865 -0.075465 -0.046227 0.087566 0.042130 -0.059405 -0.068415 0.079957 0.045225 0.027337 -0.114791 -0.038672 -0.052305 0.041612 -0.014924 0.076372 -0.005939 -0.030799 0.006247 -0.056692 0.095321 0.050188 -0.044432 0.065890 0.031889 0.053069 0.167717 -0.077345 -0.057326 -0.130481 -0.102651 0.017656 -0.082845 -0.124367 0.008896 0.050378 -0.114889 -0.137920 0.156266 0.015484 -0.007801 0.030174 0.018226 0.025373 0.074139 0.109372 -0.054064 0.059818 0.060971 0.027231 -0.000467 -0.019914 0.059075 0.004543 0.079337 0.000161 -0.138643 -0.058554 0.067275 -0.013162 -0.093300 -0.191373 0.043451 -0.003166 0.046679 0.057098 -0.025801 0.049639 0.224431 -0.188984 -0.062284 0.251444 -0.010486 0.107612 0.283794 0.018036 -0.126488 0.063910 -0.031895 -0.064081 -0.068270 0.137489 -0.048129 0.058845 -0.155230 -0.099597 -0.100366 0.056826 0.158792 -0.032741 -0.131294 -0.058511 -0.002363 -0.174045 -0.130902 -0.059535 0.078520 -0.023125 -0.118400 -0.095753 -0.020322 -0.263319 -0.176572 
41 -0.023017 0.023241 0.159347 0.091049 -0.095802 0.051396 -0.060892 -0.032593 -0.082536 0.066022 0.080389 -0.004047 0.000330 -0.139829 -0.059144 -0.009673 0.036635 0.120565 0.256024 -0.180805 0.069837 0.188081 0.092709 -0.063562 0.051350 0.052110 -0.072587 -0.045909 0.085200 0.040943 -0.055861 -0.068063 0.077580 0.047564 0.031466 -0.119333 -0.036525 -0.051142 0.042975 -0.012939 0.073593 -0.000894 -0.030779 0.006197 -0.059950 0.101376 0.049223 -0.045025 0.066632 0.036690 0.055282 0.167548 -0.076747 -0.053879 -0.127823 -0.097924 0.015941 -0.086911 -0.127305 0.010328 0.050352 -0.116491 -0.134777 0.156523 0.013966 -0.005794 0.031068 0.017517 0.021891 0.075220 0.107892 -0.054231 0.057547 0.060920 0.023589 -0.005658 -0.021044 0.054645 0.002586 0.078261 0.004837 -0.142373 -0.062700 0.069017 -0.013347 -0.094458 -0.189550 0.044825 -0.000697 0.051946 0.055459 -0.026004 0.051201 0.229866 -0.188163 -0.057869 0.247553 -0.007569 0.107180 0.280119 0.018109 -0.121935 0.064240 -0.034044 -0.068695 -0.068498 0.135028 -0.042276 0.055154 -0.153596 -0.106327 -0.092871 0.050578 0.161319 -0.031992 -0.133115 -0.057239 0.005226 -0.177310 -0.134336 -0.058076 0.077738 -0.025853 -0.119592 -0.097397 -0.015443 -0.263919 -0.175123 
42 -0.025614 0.024128 0.171886 0.092999 -0.106599 0.053267 -0.067941 -0.029327 -0.084718 0.067049 0.091121 0.002088 0.001335 -0.153836 -0.061690 -0.012226 0.043328 0.128513 0.276870 -0.196559 0.082181 0.210041 0.094459 -0.074452 0.054285 0.061305 -0.081992 -0.050611 0.091077 0.045273 -0.069095 -0.078524 0.085890 0.053389 0.028674 -0.131126 -0.042181 -0.063600 0.047200 -0.022338 0.082458 0.000549 -0.034081 0.010208 -0.068216 0.104591 0.049385 -0.045024 0.073610 0.038561 0.058077 0.185525 -0.085993 -0.063898 -0.134721 -0.108165 0.021321 -0.091006 -0.139817 0.011695 0.053601 -0.120326 -0.144223 0.173780 0.014361 -0.001560 0.032678 0.015486 0.022515 0.079491 0.119639 -0.058821 0.070086 0.067596 0.025099 -0.005623 -0.016199 0.064553 0.003478 0.083699 0.005526 -0.155125 -0.066440 0.082146 -0.010206 -0.099730 -0.205739 0.052306 -0.003903 0.054869 0.057545 -0.030299 0.062750 0.250568 -0.210406 -0.061757 0.269940 -0.006445 0.114761 0.306867 0.019939 -0.139546 0.066840 -0.037448 -0.071931 -0.073535 0.150278 -0.048139 0.059956 -0.163967 -0.116209 -0.105868 0.057521 0.176073 -0.040717 -0.142601 -0.071313 0.001788 -0.190648 -0.142696 -0.064132 0.084785 -0.030517 -0.135081 -0.108483 -0.017419 -0.286626 -0.199049 
43 -0.019800 0.027679 0.175197 0.092731 -0.099870 0.053189 -0.062304 -0.029042 -0.082093 0.066690 0.093141 -0.000243 0.001658 -0.151292 -0.059698 -0.008265 0.041289 0.130064 0.272289 -0.190702 0.078161 0.206987 0.095643 -0.074621 0.051315 0.057155 -0.080080 -0.052374 0.088348 0.040342 -0.063565 -0.074098 0.084471 0.054421 0.028546 -0.125717 -0.038750 -0.060206 0.046933 -0.018178 0.080440 0.001090 -0.038876 0.010630 -0.061292 0.108684 0.046168 -0.044535 0.069144 0.039566 0.059546 0.182944 -0.081544 -0.059843 -0.134093 -0.114085 0.022567 -0.090193 -0.138928 0.010434 0.053079 -0.122956 -0.146953 0.176111 0.014278 -0.002803 0.030886 0.014637 0.023147 0.079621 0.117076 -0.057359 0.069480 0.068032 0.026358 -0.006552 -0.021805 0.062618 0.007902 0.083629 0.005155 -0.152520 -0.067298 0.076602 -0.012124 -0.098429 -0.210675 0.043627 0.001117 0.051344 0.059550 -0.031738 0.060540 0.240633 -0.199061 -0.061174 0.264914 -0.011806 0.118364 0.300780 0.019062 -0.137449 0.063324 -0.033012 -0.068005 -0.071175 0.151633 -0.048300 0.058057 -0.165797 -0.107355 -0.103596 0.054193 0.169795 -0.034821 -0.141903 -0.067467 -0.000808 -0.181870 -0.141565 -0.062797 0.087311 -0.024408 -0.128594 -0.108157 -0.023278 -0.282597 -0.190289 
44 -0.022460 0.028740 0.172660 0.096449 -0.097237 0.051148 -0.065359 -0.034610 -0.081888 0.067035 0.087764 0.001702 -0.004294 -0.149453 -0.063558 -0.011570 0.041975 0.129560 0.269748 -0.190173 0.076304 0.202528 0.097092 -0.070128 0.050239 0.053901 -0.075505 -0.050631 0.085781 0.039166 -0.068832 -0.076599 0.080506 0.052161 0.026656 -0.124057 -0.034003 -0.061385 0.041102 -0.022080 0.085464 0.001349 -0.032960 0.009430 -0.063690 0.107195 0.045604 -0.048719 0.069720 0.040424 0.052807 0.177843 -0.082133 -0.064565 -0.135935 -0.112607 0.021385 -0.092629 -0.134210 0.009027 0.049951 -0.123440 -0.141961 0.171838 0.015884 -0.004508 0.029714 0.012927 0.024754 0.082030 0.117337 -0.051217 0.065173 0.066281 0.023991 -0.002506 -0.015114 0.060484 -0.000369 0.081883 0.002451 -0.144898 -0.063651 0.080145 -0.008087 -0.102160 -0.208852 0.049380 -0.004502 0.051946 0.060558 -0.029681 0.063155 0.245351 -0.203739 -0.062813 0.266779 -0.012985 0.113952 0.304043 0.016881 -0.136284 0.067873 -0.033141 -0.066788 -0.078508 0.149240 -0.047093 0.055563 -0.164029 -0.110931 -0.102181 0.055602 0.171504 -0.032608 -0.141855 -0.064883 0.001823 -0.183321 -0.135013 -0.070029 0.083914 -0.033043 -0.132644 -0.102810 -0.019816 -0.277439 -0.192395 
45 -0.020924 0.029454 0.163847 0.087133 -0.101405 0.053515 -0.060324 -0.028804 -0.080349 0.068079 0.084792 -0.000986 -0.001998 -0.142643 -0.059174 -0.011345 0.042345 0.126617 0.266492 -0.189986 0.077073 0.198331 0.090818 -0.066609 0.050004 0.054772 -0.075515 -0.050094 0.084294 0.044269 -0.062737 -0.071175 0.083861 0.052718 0.032388 -0.122792 -0.038837 -0.061646 0.038311 -0.018624 0.083382 -0.004621 -0.032220 0.003123 -0.063007 0.103628 0.044438 -0.040952 0.068413 0.036278 0.055670 0.176000 -0.085782 -0.062466 -0.133645 -0.104655 0.018418 -0.084518 -0.134028 0.010757 0.051954 -0.113946 -0.143692 0.164180 0.016228 -0.007030 0.027068 0.011126 0.027613 0.081067 0.107793 -0.052052 0.059883 0.065429 0.026889 -0.001713 -0.019412 0.057261 0.006624 0.084014 0.002834 -0.141368 -0.058048 0.074718 -0.012603 -0.092695 -0.198802 0.045245 0.002101 0.050493 0.057411 -0.026705 0.060289 0.231310 -0.198972 -0.058235 0.255004 -0.007563 0.108659 0.290013 0.010783 -0.132301 0.059818 -0.033984 -0.067231 -0.070366 0.143944 -0.049242 0.059544 -0.158807 -0.106253 -0.103189 0.056740 0.168070 -0.031146 -0.141060 -0.059921 -0.002384 -0.177349 -0.134133 -0.065837 0.083249 -0.027438 -0.132226 -0.100312 -0.024377 -0.274352 -0.184300 
46 -0.022255 0.028961 0.163505 0.090948 -0.103117 0.053044 -0.060530 -0.034183 -0.084438 0.066288 0.083355 -0.003241 -0.004965 -0.145020 -0.066781 -0.011116 0.038581 0.128365 0.265863 -0.188392 0.081195 0.199334 0.092588 -0.076348 0.048768 0.058853 -0.078667 -0.055412 0.086548 0.045896 -0.068954 -0.080063 0.082206 0.048351 0.027746 -0.128147 -0.040796 -0.060882 0.045736 -0.017621 0.077939 0.000779 -0.034941 0.009313 -0.061814 0.107158 0.047274 -0.044012 0.068203 0.038175 0.054464 0.175616 -0.085967 -0.062028 -0.135568 -0.109842 0.021272 -0.088176 -0.139703 0.010521 0.052705 -0.114718 -0.144083 0.167622 0.011725 0.001103 0.029307 0.011531 0.025903 0.075402 0.112193 -0.050874 0.060420 0.063672 0.030915 -0.007678 -0.016294 0.057315 0.006814 0.087367 0.004955 -0.142071 -0.062853 0.070779 -0.006099 -0.098533 -0.203296 0.048127 -0.006068 0.053592 0.053784 -0.022841 0.060033 0.236672 -0.198754 -0.062924 0.263197 -0.013202 0.112416 0.296668 0.016043 -0.133315 0.061321 -0.039169 -0.065182 -0.075332 0.143432 -0.044521 0.053751 -0.165431 -0.108131 -0.097721 0.059560 0.163735 -0.037958 -0.143087 -0.060988 0.004387 -0.182612 -0.140069 -0.067267 0.086772 -0.033033 -0.130682 -0.104642 -0.026074 -0.273659 -0.184392 
47 -0.027000 0.032415 0.165399 0.091626 -0.097681 0.051270 -0.063457 -0.032518 -0.086597 0.067361 0.083732 -0.005698 -0.004929 -0.147088 -0.064452 -0.012721 0.040577 0.128334 0.269953 -0.188678 0.082719 0.198098 0.094304 -0.072152 0.053257 0.059450 -0.078713 -0.058110 0.087514 0.043589 -0.067320 -0.074195 0.082916 0.051619 0.026110 -0.120894 -0.037482 -0.058515 0.043404 -0.022474 0.076563 0.001904 -0.035516 0.007428 -0.064605 0.105025 0.047153 -0.049845 0.065815 0.039723 0.059130 0.178886 -0.085313 -0.064209 -0.137766 -0.104355 0.018541 -0.090164 -0.139205 0.011546 0.051954 -0.117554 -0.139234 0.168929 0.012321 -0.001624 0.031454 0.011877 0.026097 0.077196 0.111083 -0.057723 0.063940 0.062953 0.033225 -0.008406 -0.011219 0.058643 0.005825 0.086090 0.007032 -0.149585 -0.060406 0.079444 -0.010554 -0.104108 -0.201680 0.050053 -0.005557 0.056429 0.059374 -0.027825 0.060821 0.237390 -0.199237 -0.066563 0.266052 -0.004783 0.111858 0.294730 0.012528 -0.133546 0.068467 -0.038773 -0.067369 -0.074461 0.146200 -0.046574 0.054495 -0.164765 -0.109610 -0.105112 0.055223 0.169852 -0.035986 -0.138159 -0.065963 0.000619 -0.186308 -0.134906 -0.063301 0.079511 -0.031835 -0.135193 -0.105292 -0.023470 -0.275584 -0.190226 
48 -0.020663 0.024230 0.158071 0.082138 -0.089359 0.050598 -0.058640 -0.027548 -0.080488 0.063938 0.078136 -0.002320 0.000538 -0.135125 -0.062058 -0.009041 0.038429 0.120937 0.245976 -0.173117 0.073597 0.180985 0.087221 -0.068931 0.049161 0.048207 -0.070273 -0.050286 0.078395 0.037335 -0.061826 -0.069815 0.072314 0.043045 0.021933 -0.116877 -0.031434 -0.056723 0.040911 -0.016599 0.071046 0.001811 -0.031415 0.003641 -0.056849 0.100747 0.041689 -0.042401 0.066351 0.034299 0.048534 0.164960 -0.077665 -0.057712 -0.122367 -0.095605 0.017330 -0.081268 -0.123910 0.011232 0.050441 -0.113179 -0.128215 0.156949 0.014799 -0.003205 0.024642 0.017274 0.025188 0.075362 0.103471 -0.050425 0.061090 0.063188 0.029416 -0.002814 -0.018505 0.053640 0.000008 0.075851 0.007669 -0.131315 -0.053980 0.068206 -0.011563 -0.095193 -0.188826 0.041711 0.000190 0.050988 0.056143 -0.026227 0.050219 0.218173 -0.186655 -0.055870 0.246325 -0.005412 0.106448 0.273446 0.017716 -0.124631 0.057932 -0.031939 -0.058096 -0.071627 0.133062 -0.043329 0.052686 -0.153001 -0.098928 -0.098570 0.056878 0.155710 -0.033626 -0.126249 -0.059675 -0.000262 -0.167049 -0.124719 -0.065182 0.076748 -0.028178 -0.118540 -0.097336 -0.022598 -0.256589 -0.177501 
49 -0.019866 0.028022 0.171416 0.091419 -0.100407 0.054438 -0.064650 -0.033325 -0.088557 0.065524 0.089475 -0.004462 -0.004105 -0.145005 -0.061912 -0.016294 0.043671 0.128216 0.268172 -0.190109 0.077608 0.198273 0.097321 -0.071454 0.049129 0.055725 -0.071633 -0.054075 0.083784 0.046130 -0.062219 -0.077293 0.078039 0.051914 0.026660 -0.127623 -0.038804 -0.056282 0.045845 -0.022238 0.082599 -0.001888 -0.032493 0.009106 -0.068370 0.106575 0.046862 -0.049037 0.069661 0.041217 0.060531 0.174872 -0.081475 -0.059195 -0.136850 -0.107016 0.022115 -0.087823 -0.139358 0.005050 0.055575 -0.120999 -0.142472 0.170607 0.016537 -0.002127 0.030839 0.017142 0.021956 0.080820 0.115958 -0.051884 0.068179 0.069028 0.031180 -0.001713 -0.016018 0.056152 0.004950 0.084566 0.002361 -0.147368 -0.065994 0.075009 -0.015548 -0.101868 -0.208127 0.050485 0.001644 0.050028 0.059305 -0.031728 0.055572 0.239978 -0.199241 -0.062194 0.260670 -0.010391 0.110253 0.299476 0.013120 -0.129849 0.068285 -0.037448 -0.068876 -0.075245 0.145266 -0.050577 0.058755 -0.163252 -0.110862 -0.100933 0.056959 0.165122 -0.035203 -0.142956 -0.059591 0.003636 -0.178924 -0.136675 -0.065800 0.085279 -0.031413 -0.127013 -0.107498 -0.024237 -0.280571 -0.191522 
50 -0.024225 0.030183 0.162035 0.090970 -0.092467 0.054320 -0.064371 -0.033479 -0.081032 0.066115 0.081541 0.002768 -0.005517 -0.144687 -0.057814 -0.013513 0.041024 0.120342 0.257549 -0.183629 0.078161 0.193431 0.089384 -0.071515 0.052366 0.050953 -0.071308 -0.049994 0.081498 0.045424 -0.060637 -0.074708 0.079517 0.046715 0.027258 -0.115322 -0.033708 -0.053531 0.041736 -0.013718 0.076605 -0.000408 -0.037547 0.007897 -0.059979 0.104416 0.047295 -0.039708 0.065092 0.038389 0.057129 0.166658 -0.075939 -0.053905 -0.130109 -0.102442 0.023432 -0.087966 -0.127794 0.008350 0.049948 -0.112746 -0.139771 0.165956 0.014888 -0.001115 0.024465 0.011063 0.027881 0.072926 0.110503 -0.047208 0.066312 0.065320 0.029174 -0.001116 -0.015776 0.054986 0.001702 0.079696 0.003080 -0.139511 -0.060076 0.074767 -0.009267 -0.089963 -0.194632 0.048562 -0.001550 0.046838 0.056324 -0.030923 0.051602 0.229249 -0.194973 -0.059348 0.252459 -0.013241 0.105857 0.283445 0.012277 -0.127540 0.067770 -0.034207 -0.066362 -0.072490 0.140004 -0.046355 0.058598 -0.156190 -0.101405 -0.096604 0.052486 0.157361 -0.036443 -0.132067 -0.058820 -0.000264 -0.178741 -0.130350 -0.067914 0.083290 -0.030383 -0.123488 -0.102468 -0.024569 -0.267545 -0.184016 
51 -0.023854 0.025327 0.164521 0.097244 -0.098679 0.053437 -0.064669 -0.032824 -0.084035 0.064143 0.085862 -0.005820 0.001034 -0.146084 -0.064262 -0.015211 0.036699 0.129847 0.271026 -0.193736 0.081825 0.198314 0.093095 -0.067585 0.053342 0.054935 -0.078242 -0.050345 0.083935 0.040066 -0.063946 -0.080198 0.079281 0.050730 0.029896 -0.123926 -0.035188 -0.055769 0.046412 -0.018492 0.083848 -0.002778 -0.032223 0.006142 -0.066675 0.102319 0.044452 -0.041932 0.066656 0.034064 0.056940 0.173289 -0.083807 -0.055251 -0.132177 -0.105910 0.024990 -0.084170 -0.134487 0.005312 0.051067 -0.115562 -0.138462 0.173548 0.012954 -0.002890 0.027215 0.019206 0.022856 0.081979 0.109612 -0.055430 0.067450 0.064822 0.024054 -0.005580 -0.013485 0.056333 0.004114 0.080282 0.001583 -0.142673 -0.065847 0.076309 -0.013811 -0.101082 -0.207050 0.043548 -0.000657 0.048650 0.054467 -0.024461 0.056764 0.238897 -0.196248 -0.063700 0.262213 -0.007039 0.111833 0.295414 0.015616 -0.135752 0.067021 -0.034389 -0.064422 -0.074382 0.143588 -0.045052 0.056889 -0.160476 -0.105038 -0.100296 0.060722 0.167419 -0.037445 -0.141078 -0.066675 0.000185 -0.178716 -0.134677 -0.061957 0.083965 -0.024347 -0.133545 -0.105956 -0.022723 -0.276835 -0.187605 
52 -0.021160 0.023515 0.157277 0.091525 -0.095169 0.055209 -0.067050 -0.027872 -0.084660 0.066312 0.081875 -0.003158 0.001222 -0.142969 -0.057606 -0.014817 0.035142 0.123680 0.262501 -0.187626 0.073136 0.191041 0.089457 -0.072788 0.046824 0.052782 -0.073274 -0.047746 0.086576 0.039760 -0.063292 -0.075651 0.076228 0.048263 0.025668 -0.121795 -0.037394 -0.058840 0.045804 -0.013858 0.078082 -0.003650 -0.032114 0.009900 -0.064509 0.101679 0.049397 -0.046303 0.067354 0.032935 0.050471 0.167795 -0.082926 -0.059861 -0.132045 -0.104141 0.017763 -0.085985 -0.133517 0.008986 0.051849 -0.115277 -0.132500 0.166860 0.016252 -0.002902 0.029263 0.019396 0.027335 0.074306 0.107107 -0.049084 0.061395 0.066041 0.025282 -0.006893 -0.019927 0.062590 0.004098 0.081162 0.002877 -0.142898 -0.057132 0.072207 -0.010784 -0.090583 -0.197673 0.047812 -0.004576 0.049942 0.059420 -0.025919 0.050029 0.228738 -0.190628 -0.060382 0.248084 -0.007222 0.109650 0.284091 0.013909 -0.128090 0.061446 -0.032113 -0.062093 -0.069443 0.138644 -0.043838 0.052796 -0.154649 -0.103341 -0.097166 0.057304 0.161982 -0.031794 -0.137150 -0.064798 0.003574 -0.174636 -0.133209 -0.061415 0.082298 -0.024207 -0.127283 -0.097520 -0.020187 -0.263057 -0.181614 
53 -0.023371 0.021956 0.159485 0.090860 -0.096097 0.053836 -0.059982 -0.033109 -0.075085 0.065696 0.084223 0.001917 -0.005059 -0.145338 -0.058113 -0.014607 0.036801 0.123071 0.250240 -0.185300 0.074648 0.186659 0.093779 -0.070429 0.045499 0.055707 -0.070498 -0.048162 0.083011 0.039122 -0.061758 -0.068905 0.072627 0.043474 0.029593 -0.120387 -0.034918 -0.050098 0.042612 -0.016094 0.080786 -0.000818 -0.030288 0.002320 -0.058482 0.094366 0.049001 -0.043579 0.063694 0.035212 0.051737 0.168459 -0.076711 -0.056358 -0.127783 -0.103582 0.022989 -0.078953 -0.127968 0.011800 0.050959 -0.111134 -0.134039 0.159870 0.014502 0.000854 0.031659 0.014481 0.019324 0.074784 0.103753 -0.052117 0.064031 0.062940 0.023714 -0.004215 -0.013484 0.058146 0.003921 0.076850 0.000536 -0.137761 -0.055657 0.073005 -0.010072 -0.091668 -0.188441 0.040164 -0.006069 0.046766 0.054511 -0.029243 0.056600 0.222988 -0.189700 -0.056182 0.251788 -0.011127 0.105882 0.279642 0.017923 -0.123706 0.059830 -0.033897 -0.066252 -0.066779 0.133517 -0.044941 0.054381 -0.157345 -0.105439 -0.096877 0.052986 0.154127 -0.034518 -0.128365 -0.058288 -0.000723 -0.176060 -0.130075 -0.063474 0.074137 -0.030695 -0.126453 -0.101865 -0.020453 -0.264719 -0.174067 
54 -0.025172 0.022147 0.157971 0.093058 -0.097723 0.049342 -0.062834 -0.026888 -0.078531 0.066826 0.083059 -0.000253 0.000376 -0.143469 -0.056904 -0.011021 0.042010 0.122239 0.255958 -0.186621 0.074419 0.191430 0.091485 -0.072601 0.046080 0.050130 -0.073185 -0.048708 0.087550 0.040905 -0.058117 -0.074187 0.074119 0.049099 0.029487 -0.115930 -0.033596 -0.056664 0.042762 -0.017975 0.078417 -0.001896 -0.037669 0.007715 -0.058025 0.101336 0.042896 -0.046920 0.066599 0.035577 0.052246 0.166927 -0.080937 -0.057088 -0.124137 -0.099576 0.020079 -0.085710 -0.127865 0.007348 0.050929 -0.117143 -0.138810 0.164874 0.011330 -0.000206 0.026772 0.012572 0.022766 0.076354 0.110897 -0.051943 0.064100 0.060464 0.029321 -0.005627 -0.018512 0.061785 0.007216 0.074793 0.004239 -0.137553 -0.061475 0.068716 -0.007221 -0.090411 -0.192823 0.041424 -0.002194 0.052530 0.052361 -0.029660 0.051826 0.228744 -0.191977 -0.061186 0.250439 -0.008185 0.106027 0.287283 0.015528 -0.129369 0.065444 -0.033960 -0.063108 -0.065573 0.137682 -0.049028 0.052019 -0.151839 -0.104151 -0.096313 0.052998 0.155574 -0.030805 -0.132829 -0.057919 0.005265 -0.173007 -0.129842 -0.064635 0.080495 -0.022749 -0.121119 -0.103389 -0.021836 -0.266107 -0.179945 
55 -0.025478 0.028763 0.168191 0.095038 -0.098392 0.050883 -0.063855 -0.034069 -0.085537 0.061457 0.083867 -0.001519 -0.003440 -0.148039 -0.058093 -0.010707 0.040102 0.123081 0.262727 -0.185292 0.077454 0.193587 0.090943 -0.074418 0.052490 0.053570 -0.072446 -0.048237 0.087952 0.042910 -0.064731 -0.077358 0.081605 0.047598 0.031378 -0.124385 -0.033934 -0.057602 0.046774 -0.022233 0.083233 -0.001303 -0.035569 0.008429 -0.062156 0.100924 0.043982 -0.044658 0.070347 0.034473 0.050153 0.169911 -0.079925 -0.057019 -0.128354 -0.102589 0.018687 -0.082993 -0.127979 0.007345 0.053421 -0.119277 -0.142606 0.169352 0.016269 -0.001122 0.026969 0.018207 0.023964 0.074205 0.111504 -0.049737 0.063334 0.060647 0.027120 -0.000100 -0.016336 0.061038 0.004098 0.079873 0.004468 -0.139374 -0.062058 0.076189 -0.012498 -0.093266 -0.199131 0.040720 -0.005570 0.052671 0.056661 -0.024418 0.051084 0.232647 -0.197689 -0.062782 0.257167 -0.011178 0.110997 0.293796 0.014815 -0.127144 0.061004 -0.035656 -0.065340 -0.069355 0.141921 -0.045664 0.060874 -0.156357 -0.110281 -0.096304 0.051957 0.160652 -0.030202 -0.134858 -0.061017 0.004101 -0.181534 -0.133308 -0.065894 0.077373 -0.025792 -0.130748 -0.103510 -0.019608 -0.266789 -0.179724 
56 -0.023354 0.022811 0.155775 0.087877 -0.094811 0.054512 -0.061616 -0.032614 -0.078608 0.064588 0.084199 -0.002111 -0.000851 -0.140847 -0.061794 -0.012577 0.040763 0.114767 0.252488 -0.184590 0.071680 0.187183 0.092543 -0.066359 0.046044 0.052158 -0.070086 -0.049563 0.079162 0.038957 -0.059140 -0.069198 0.076725 0.052211 0.031445 -0.119840 -0.032992 -0.054160 0.042562 -0.018201 0.078665 -0.000366 -0.037251 0.007932 -0.057890 0.097735 0.042659 -0.045773 0.066305 0.031939 0.050925 0.161388 -0.081341 -0.058121 -0.123210 -0.099816 0.021922 -0.079374 -0.128262 0.010908 0.045565 -0.108252 -0.132812 0.161155 0.014494 -0.006957 0.026354 0.019197 0.021702 0.076967 0.109982 -0.053854 0.062371 0.060273 0.026732 0.000028 -0.017712 0.061007 0.001427 0.077965 0.002488 -0.138174 -0.058631 0.072288 -0.009446 -0.089804 -0.188267 0.044088 0.000809 0.051030 0.056463 -0.023279 0.053112 0.222598 -0.185108 -0.055774 0.244800 -0.007855 0.109798 0.275296 0.012035 -0.121654 0.057893 -0.035232 -0.068132 -0.072371 0.137259 -0.043005 0.056504 -0.151893 -0.101360 -0.093437 0.057536 0.160530 -0.029862 -0.131079 -0.057452 0.005123 -0.167422 -0.128656 -0.064960 0.073927 -0.026093 -0.126344 -0.098791 -0.019543 -0.260876 -0.178820 
57 -0.026540 0.024942 0.166710 0.091334 -0.099783 0.050428 -0.062403 -0.033321 -0.079932 0.065942 0.088172 -0.005611 0.001709 -0.147856 -0.062832 -0.013933 0.043278 0.124913 0.268592 -0.188991 0.077024 0.193812 0.095212 -0.067354 0.052331 0.051931 -0.075946 -0.053915 0.082309 0.040786 -0.060437 -0.072095 0.082733 0.052824 0.028031 -0.124453 -0.036068 -0.059068 0.042788 -0.015442 0.078512 -0.001838 -0.035034 0.006028 -0.060222 0.098635 0.051209 -0.043013 0.070894 0.037219 0.049646 0.166386 -0.079783 -0.060346 -0.134262 -0.103816 0.020018 -0.083418 -0.130579 0.007182 0.044465 -0.118518 -0.134756 0.165944 0.012966 -0.001544 0.032537 0.014248 0.023994 0.079486 0.111597 -0.048260 0.062571 0.062002 0.028580 -0.005045 -0.013189 0.058801 0.006837 0.084966 0.004183 -0.143071 -0.063013 0.074759 -0.013955 -0.099999 -0.200574 0.041948 -0.000309 0.052064 0.060440 -0.027838 0.051335 0.227957 -0.194783 -0.062703 0.256487 -0.006671 0.114789 0.292361 0.014336 -0.131864 0.061904 -0.033933 -0.070915 -0.072311 0.139665 -0.044874 0.056130 -0.156098 -0.110894 -0.099197 0.055573 0.159633 -0.035666 -0.138447 -0.065798 -0.000829 -0.176945 -0.131033 -0.064885 0.075951 -0.029669 -0.125779 -0.104422 -0.021470 -0.272834 -0.185870 
58 -0.023321 0.028146 0.167611 0.088033 -0.100934 0.052781 -0.065386 -0.029309 -0.085126 0.068820 0.085113 -0.000170 0.002347 -0.150303 -0.063723 -0.009741 0.036849 0.124543 0.263777 -0.187576 0.072810 0.199421 0.094424 -0.072380 0.052083 0.056894 -0.071919 -0.055461 0.087949 0.042397 -0.059671 -0.075681 0.082756 0.055538 0.034030 -0.119282 -0.037443 -0.058959 0.045713 -0.013579 0.078368 -0.004645 -0.037249 0.004011 -0.062623 0.102759 0.047508 -0.041495 0.070256 0.031842 0.053698 0.173199 -0.080565 -0.062890 -0.133618 -0.107349 0.019831 -0.086032 -0.130911 0.014305 0.044939 -0.119286 -0.139215 0.169472 0.017666 -0.007938 0.027503 0.018081 0.025738 0.078927 0.108824 -0.052785 0.059978 0.067332 0.026713 -0.002743 -0.019117 0.060450 0.002070 0.085819 0.002800 -0.143853 -0.064841 0.070138 -0.011845 -0.098831 -0.198085 0.044123 -0.000126 0.053121 0.059391 -0.028983 0.057527 0.235242 -0.191433 -0.062305 0.257334 -0.012275 0.113085 0.294954 0.011827 -0.130877 0.059768 -0.032822 -0.071066 -0.075160 0.146851 -0.046203 0.054815 -0.165062 -0.111605 -0.099332 0.054425 0.166006 -0.036450 -0.142623 -0.064682 0.003917 -0.180637 -0.138159 -0.062211 0.079913 -0.027253 -0.126281 -0.103228 -0.021741 -0.269218 -0.189520 
59 -0.019047 0.027112 0.157298 0.088630 -0.093920 0.048009 -0.060723 -0.031699 -0.075314 0.059543 0.079773 -0.002724 0.001842 -0.144123 -0.055687 -0.013721 0.038457 0.112545 0.249735 -0.178274 0.068669 0.184587 0.082890 -0.063609 0.047673 0.055551 -0.069730 -0.045890 0.086167 0.037451 -0.056389 -0.068190 0.073097 0.050697 0.030633 -0.118966 -0.032865 -0.049861 0.040745 -0.016413 0.076608 0.000012 -0.030829 0.005251 -0.064613 0.098607 0.046230 -0.041001 0.066631 0.033901 0.054747 0.157816 -0.079898 -0.053708 -0.121615 -0.095537 0.022614 -0.080092 -0.123105 0.010677 0.048929 -0.106883 -0.133615 0.159238 0.016011 -0.005533 0.026393 0.014998 0.023909 0.075731 0.108130 -0.048795 0.056728 0.060406 0.029006 -0.008146 -0.016371 0.058172 0.001445 0.076774 0.005720 -0.133865 -0.059038 0.070184 -0.014127 -0.095647 -0.185273 0.039728 -0.006702 0.047893 0.050062 -0.028281 0.055287 0.218627 -0.181447 -0.054245 0.243005 -0.005586 0.103732 0.276523 0.010557 -0.122965 0.057868 -0.033205 -0.066123 -0.071637 0.133375 -0.047097 0.056741 -0.153933 -0.102511 -0.097287 0.050067 0.155442 -0.032267 -0.132881 -0.057145 0.004776 -0.166083 -0.122309 -0.061879 0.074723 -0.023203 -0.120691 -0.100730 -0.017602 -0.254478 -0.171935 
60 -0.019380 0.026531 0.165428 0.087870 -0.095184 0.054518 -0.067453 -0.029650 -0.082274 0.060455 0.085666 -0.004089 0.000691 -0.150009 -0.059532 -0.009526 0.037749 0.122575 0.255560 -0.184791 0.075158 0.186153 0.087104 -0.067288 0.044605 0.052821 -0.070178 -0.054155 0.085032 0.039130 -0.057806 -0.072149 0.078151 0.051989 0.033083 -0.119191 -0.030344 -0.058491 0.037347 -0.017160 0.080158 0.002803 -0.038192 0.005925 -0.060465 0.096218 0.046009 -0.038897 0.071014 0.030578 0.050053 0.166457 -0.078491 -0.054021 -0.124640 -0.105384 0.015548 -0.082441 -0.127595 0.013586 0.043669 -0.113386 -0.133188 0.166287 0.014949 -0.008353 0.031794 0.014691 0.021036 0.075985 0.107114 -0.053937 0.064574 0.063622 0.024749 -0.005181 -0.018850 0.063336 0.006099 0.084058 0.007349 -0.138994 -0.061617 0.072273 -0.012952 -0.094785 -0.193481 0.038997 -0.006179 0.051260 0.053710 -0.031233 0.058017 0.227614 -0.187013 -0.058111 0.251710 -0.009327 0.110620 0.288497 0.011134 -0.131782 0.065091 -0.038637 -0.066495 -0.070743 0.141825 -0.044304 0.056545 -0.154367 -0.104121 -0.097642 0.056403 0.162985 -0.033739 -0.132786 -0.066147 0.003756 -0.173177 -0.133503 -0.065072 0.076277 -0.025964 -0.127845 -0.104258 -0.016968 -0.265418 -0.180573 
61 -0.027070 0.030444 0.161754 0.091901 -0.094887 0.052032 -0.067374 -0.028321 -0.081855 0.060157 0.088243 0.002635 -0.001211 -0.146885 -0.059891 -0.013146 0.036891 0.120982 0.266884 -0.190074 0.079618 0.195266 0.092278 -0.072620 0.049182 0.057020 -0.070721 -0.055977 0.087177 0.041139 -0.057028 -0.072372 0.084231 0.050148 0.031124 -0.124792 -0.036892 -0.053423 0.040219 -0.020102 0.076850 -0.001867 -0.033885 0.004139 -0.065868 0.100782 0.045148 -0.045919 0.074072 0.034220 0.051191 0.168639 -0.074956 -0.054323 -0.134079 -0.102951 0.019463 -0.085687 -0.130893 0.011521 0.049438 -0.118302 -0.135309 0.168433 0.016394 -0.007730 0.025477 0.012031 0.024818 0.080567 0.115638 -0.049132 0.063014 0.063152 0.025754 -0.004817 -0.022338 0.058608 0.005942 0.082929 0.005750 -0.145329 -0.062316 0.074796 -0.011950 -0.098699 -0.199045 0.042403 -0.002234 0.053108 0.055622 -0.027911 0.056098 0.232225 -0.196332 -0.057654 0.261122 -0.012543 0.116121 0.293754 0.017659 -0.129142 0.060154 -0.038400 -0.063157 -0.067640 0.140206 -0.050296 0.055348 -0.161111 -0.108637 -0.099360 0.058411 0.164930 -0.036330 -0.132452 -0.064040 -0.000799 -0.178764 -0.132788 -0.062992 0.083938 -0.025594 -0.125874 -0.103224 -0.019533 -0.268594 -0.183678 
62 -0.018618 0.025738 0.156345 0.087168 -0.094379 0.048841 -0.060126 -0.028691 -0.074584 0.059890 0.079198 -0.004712 0.000286 -0.141782 -0.054833 -0.010031 0.040479 0.119251 0.249875 -0.179767 0.075101 0.181171 0.088921 -0.064910 0.046844 0.048935 -0.069450 -0.049277 0.084662 0.041228 -0.053376 -0.071322 0.079963 0.046643 0.028589 -0.112547 -0.030879 -0.051996 0.039067 -0.015715 0.073668 0.001664 -0.035451 0.005910 -0.063837 0.097056 0.042462 -0.036801 0.065179 0.030679 0.052871 0.165958 -0.072357 -0.051412 -0.126582 -0.099653 0.020377 -0.082327 -0.125751 0.010890 0.041766 -0.108858 -0.134558 0.157296 0.015261 -0.000324 0.025431 0.014101 0.019273 0.073459 0.107683 -0.051190 0.058499 0.063297 0.024056 -0.004669 -0.020062 0.054867 0.002861 0.078910 0.001688 -0.131649 -0.057301 0.069044 -0.007158 -0.090135 -0.188666 0.043503 -0.004954 0.047074 0.054006 -0.024089 0.051347 0.222566 -0.180989 -0.053482 0.243381 -0.005022 0.108309 0.271504 0.016410 -0.122166 0.056962 -0.033450 -0.065695 -0.065613 0.131875 -0.047966 0.053628 -0.148778 -0.098377 -0.092597 0.052453 0.157667 -0.030428 -0.125271 -0.063408 -0.001820 -0.167715 -0.123687 -0.060535 0.078936 -0.026922 -0.118146 -0.094820 -0.016759 -0.256077 -0.177433 
63 -0.022383 0.026457 0.159016 0.085918 -0.095807 0.053177 -0.059605 -0.027556 -0.078183 0.058589 0.082547 -0.000508 -0.001056 -0.144909 -0.060354 -0.008486 0.035795 0.118898 0.253920 -0.180768 0.072458 0.186503 0.088522 -0.068417 0.051774 0.050825 -0.073293 -0.047148 0.085915 0.038555 -0.060124 -0.069304 0.079814 0.047200 0.027148 -0.119488 -0.038190 -0.049729 0.035831 -0.018312 0.077271 0.002357 -0.032626 0.007665 -0.059356 0.094013 0.043868 -0.043878 0.064488 0.033677 0.054273 0.162567 -0.074884 -0.055892 -0.127223 -0.097615 0.019875 -0.083067 -0.130074 0.012340 0.043362 -0.109099 -0.133797 0.160845 0.008678 -0.001494 0.026089 0.013375 0.026902 0.076246 0.108619 -0.053996 0.060301 0.059803 0.028319 -0.000704 -0.017112 0.053011 0.003180 0.073779 0.001389 -0.132802 -0.055876 0.072987 -0.010989 -0.087590 -0.188745 0.040448 -0.004127 0.052336 0.050631 -0.030402 0.055102 0.227479 -0.189220 -0.052944 0.241158 -0.008091 0.110789 0.273883 0.011623 -0.124560 0.056524 -0.036492 -0.067868 -0.072058 0.135593 -0.041537 0.058124 -0.151189 -0.102920 -0.096095 0.051069 0.160378 -0.035589 -0.133295 -0.063011 -0.002965 -0.174927 -0.124902 -0.064354 0.079942 -0.025243 -0.121471 -0.101173 -0.016357 -0.259617 -0.172458 
64 -0.023835 0.025852 0.166292 0.092971 -0.098214 0.057497 -0.064340 -0.027718 -0.081576 0.063594 0.082798 -0.003519 0.002808 -0.152717 -0.061207 -0.016298 0.037508 0.125089 0.270802 -0.188357 0.077748 0.196780 0.091522 -0.074278 0.045778 0.051556 -0.074300 -0.055248 0.090665 0.040192 -0.061542 -0.076645 0.079088 0.052136 0.031664 -0.125554 -0.040125 -0.055178 0.038582 -0.016747 0.080847 0.002130 -0.032042 0.003190 -0.064224 0.101636 0.051724 -0.044526 0.069490 0.037220 0.053907 0.174583 -0.078572 -0.060533 -0.138751 -0.105273 0.020014 -0.081612 -0.134365 0.006705 0.044643 -0.114018 -0.137888 0.171580 0.013790 -0.003448 0.027006 0.012340 0.025554 0.075622 0.111926 -0.056536 0.060306 0.064825 0.027009 -0.001373 -0.017512 0.056373 0.001448 0.080894 0.002212 -0.148284 -0.061420 0.073934 -0.008299 -0.093560 -0.203434 0.049390 0.000492 0.054435 0.059899 -0.028676 0.052532 0.241885 -0.194176 -0.058565 0.255668 -0.012224 0.114913 0.295074 0.013944 -0.131261 0.059044 -0.032913 -0.069155 -0.074791 0.144665 -0.047341 0.061645 -0.162050 -0.107306 -0.103875 0.061257 0.164762 -0.032166 -0.137043 -0.061230 0.000194 -0.182453 -0.132829 -0.071059 0.081477 -0.031672 -0.128941 -0.106003 -0.021696 -0.275381 -0.184575 
65 -0.022753 0.022918 0.143753 0.084246 -0.090570 0.045249 -0.055239 -0.029629 -0.075818 0.052436 0.075768 0.003264 -0.001677 -0.128512 -0.053640 -0.015168 0.036968 0.110146 0.239183 -0.167675 0.070426 0.175257 0.079600 -0.064192 0.039745 0.044115 -0.063274 -0.045522 0.079368 0.039881 -0.054162 -0.072144 0.075714 0.049664 0.023794 -0.107853 -0.033011 -0.046132 0.039232 -0.016072 0.070555 0.002099 -0.027896 0.007199 -0.061743 0.094249 0.045491 -0.037585 0.060093 0.029219 0.051284 0.151522 -0.074623 -0.048918 -0.122819 -0.092983 0.017018 -0.074291 -0.114233 0.010353 0.038797 -0.105471 -0.126143 0.146398 0.009483 -0.001329 0.025742 0.017877 0.016384 0.068756 0.101111 -0.049889 0.056935 0.061607 0.025925 -0.000444 -0.016474 0.054297 0.007606 0.070631 0.006706 -0.127187 -0.056834 0.068258 -0.010878 -0.089220 -0.177865 0.039819 -0.004551 0.046848 0.051198 -0.025835 0.051258 0.213383 -0.176498 -0.058530 0.230424 -0.009690 0.097370 0.256123 0.008685 -0.118852 0.056013 -0.032779 -0.059276 -0.068210 0.123996 -0.042285 0.051844 -0.145934 -0.092011 -0.086326 0.047612 0.142676 -0.034104 -0.121940 -0.056335 0.004213 -0.156780 -0.120895 -0.062703 0.071213 -0.023979 -0.113192 -0.090124 -0.016667 -0.243705 -0.164175 
66 -0.018306 0.026074 0.151028 0.085878 -0.087214 0.050861 -0.058764 -0.031064 -0.077806 0.058023 0.080328 -0.004259 0.003217 -0.138504 -0.061614 -0.007505 0.038626 0.118118 0.249014 -0.172640 0.072090 0.184250 0.086292 -0.068903 0.043347 0.051134 -0.070608 -0.050213 0.085676 0.037010 -0.055694 -0.074267 0.073908 0.044955 0.029927 -0.115040 -0.036272 -0.055908 0.041080 -0.014990 0.070003 0.002272 -0.030269 0.005735 -0.063733 0.095137 0.046213 -0.041217 0.068489 0.031351 0.051936 0.163608 -0.076116 -0.055046 -0.128571 -0.099582 0.016773 -0.079848 -0.121079 0.010965 0.047705 -0.106638 -0.128841 0.156755 0.016493 -0.000023 0.025476 0.017122 0.020584 0.068637 0.108333 -0.050729 0.056415 0.064182 0.025163 -0.002791 -0.015299 0.052875 0.006691 0.074590 0.006904 -0.130724 -0.058452 0.066291 -0.009211 -0.090459 -0.189180 0.039312 -0.001185 0.052704 0.048826 -0.021067 0.048783 0.222986 -0.180824 -0.054291 0.236897 -0.010515 0.108354 0.274109 0.016012 -0.120892 0.058208 -0.031290 -0.065577 -0.071547 0.129117 -0.043738 0.051044 -0.150311 -0.096406 -0.091148 0.055980 0.153810 -0.032474 -0.125640 -0.058257 0.003500 -0.162443 -0.125670 -0.060763 0.076800 -0.023768 -0.115184 -0.094496 -0.017777 -0.254370 -0.168042 
67 -0.023686 0.027578 0.166456 0.089165 -0.094569 0.054078 -0.066424 -0.026833 -0.084189 0.059236 0.080723 0.002945 -0.001737 -0.142759 -0.061834 -0.011628 0.036192 0.117566 0.260845 -0.184870 0.073042 0.195547 0.086896 -0.070971 0.052453 0.051930 -0.074455 -0.057086 0.089121 0.037731 -0.055884 -0.073109 0.080390 0.052082 0.024192 -0.120457 -0.032654 -0.051992 0.042874 -0.015116 0.079240 0.002697 -0.034640 0.003925 -0.059209 0.104258 0.047230 -0.039160 0.070442 0.037948 0.052230 0.172729 -0.082369 -0.061290 -0.133957 -0.102868 0.015515 -0.087443 -0.131902 0.010826 0.048877 -0.115024 -0.136426 0.169012 0.008964 -0.001156 0.032438 0.014051 0.026909 0.074467 0.107252 -0.051391 0.062569 0.068108 0.024159 -0.000239 -0.016882 0.062035 0.003925 0.077993 0.008471 -0.145618 -0.065862 0.072445 -0.015248 -0.091423 -0.200003 0.046590 -0.006294 0.054668 0.053812 -0.025648 0.052780 0.235784 -0.193862 -0.058978 0.250573 -0.005532 0.107562 0.286912 0.017969 -0.127698 0.063638 -0.034454 -0.068500 -0.069124 0.143502 -0.049364 0.058783 -0.160692 -0.101791 -0.097272 0.055143 0.164821 -0.030945 -0.131515 -0.061191 0.006076 -0.172354 -0.136528 -0.070161 0.083530 -0.032189 -0.127803 -0.102712 -0.017747 -0.268616 -0.183458 
68 -0.023169 0.027110 0.149575 0.080406 -0.088375 0.042868 -0.061565 -0.025828 -0.071426 0.055500 0.074166 -0.001170 -0.001451 -0.134155 -0.054682 -0.010980 0.032360 0.112723 0.233834 -0.171332 0.063564 0.175070 0.085006 -0.067803 0.046353 0.048188 -0.069151 -0.047045 0.078264 0.034146 -0.050784 -0.065617 0.074623 0.048082 0.028811 -0.111436 -0.031165 -0.048768 0.037751 -0.014660 0.068326 -0.000255 -0.028161 0.007358 -0.052322 0.086929 0.040863 -0.033973 0.063378 0.032219 0.047868 0.154390 -0.073543 -0.047560 -0.120510 -0.094386 0.015434 -0.074947 -0.113054 0.011203 0.039811 -0.105757 -0.120636 0.150815 0.012244 -0.003929 0.029256 0.011506 0.024464 0.063918 0.101723 -0.043985 0.053600 0.061267 0.024482 -0.006731 -0.017461 0.055758 0.005115 0.073035 0.001466 -0.130035 -0.055573 0.060376 -0.009708 -0.087500 -0.178681 0.037014 -0.001723 0.048942 0.051732 -0.026820 0.047574 0.212889 -0.170389 -0.052932 0.226764 -0.009163 0.097977 0.261038 0.013582 -0.113456 0.052303 -0.031084 -0.057713 -0.065199 0.121809 -0.041162 0.048615 -0.141419 -0.095246 -0.086412 0.050128 0.142459 -0.028516 -0.122566 -0.053024 0.003090 -0.161708 -0.117633 -0.055664 0.068906 -0.025807 -0.110089 -0.086020 -0.018658 -0.239198 -0.160377 
69 -0.026808 0.026254 0.163606 0.089043 -0.092803 0.047667 -0.065533 -0.025344 -0.079432 0.065733 0.081882 -0.001842 -0.002556 -0.143257 -0.060929 -0.011985 0.037184 0.118154 0.255546 -0.186911 0.072398 0.194753 0.090318 -0.065852 0.049467 0.053089 -0.070425 -0.054610 0.088601 0.036102 -0.057849 -0.072836 0.078573 0.046095 0.029507 -0.118319 -0.036855 -0.052089 0.037312 -0.016115 0.078524 -0.001185 -0.031893 0.007170 -0.059128 0.098609 0.046397 -0.042783 0.065909 0.033737 0.049906 0.164293 -0.075835 -0.054632 -0.129784 -0.098702 0.021291 -0.080765 -0.125662 0.014409 0.045175 -0.116417 -0.131941 0.161433 0.009660 -0.003599 0.031089 0.013570 0.019376 0.069485 0.110703 -0.049228 0.058294 0.062288 0.024896 -0.008122 -0.014860 0.056382 0.002066 0.079952 0.007690 -0.138419 -0.060388 0.067541 -0.011324 -0.097291 -0.195037 0.040337 -0.004406 0.050465 0.054961 -0.026778 0.056451 0.231606 -0.193712 -0.062808 0.253915 -0.007057 0.105893 0.279963 0.016771 -0.130945 0.058181 -0.037749 -0.065291 -0.073154 0.141400 -0.045176 0.053017 -0.153668 -0.104553 -0.099883 0.058754 0.155225 -0.034487 -0.130748 -0.065597 0.006605 -0.171713 -0.126593 -0.066701 0.075562 -0.031687 -0.120137 -0.095546 -0.021652 -0.262506 -0.178323 
70 -0.019314 0.031148 0.158155 0.091775 -0.092501 0.053387 -0.062607 -0.027830 -0.077438 0.061468 0.080902 -0.001666 -0.002319 -0.140574 -0.056008 -0.008207 0.035791 0.120468 0.255600 -0.177979 0.076351 0.185315 0.092848 -0.071085 0.048102 0.049702 -0.074186 -0.053176 0.088278 0.036383 -0.059147 -0.077607 0.079727 0.044827 0.029109 -0.118195 -0.030780 -0.050692 0.039409 -0.016955 0.073917 0.000441 -0.030857 0.003877 -0.060489 0.100259 0.044970 -0.040876 0.066729 0.030953 0.049520 0.169134 -0.082080 -0.053523 -0.131699 -0.096635 0.023943 -0.086418 -0.128471 0.011727 0.043364 -0.113699 -0.135745 0.163080 0.009321 -0.005429 0.034814 0.019151 0.025996 0.068868 0.109295 -0.051085 0.060774 0.064390 0.021476 -0.000738 -0.010773 0.058661 0.001470 0.078974 0.005379 -0.141741 -0.059686 0.073617 -0.009733 -0.097340 -0.196411 0.046671 -0.004998 0.049925 0.057557 -0.022418 0.051781 0.230217 -0.192174 -0.059958 0.247665 -0.011824 0.110538 0.274921 0.011424 -0.131353 0.059608 -0.038387 -0.061978 -0.069625 0.140264 -0.047307 0.057133 -0.156516 -0.101041 -0.094743 0.059276 0.162417 -0.035797 -0.129358 -0.062136 0.007200 -0.170783 -0.128644 -0.068219 0.079438 -0.031944 -0.125635 -0.094914 -0.020824 -0.262392 -0.180383 
71 -0.028770 0.027124 0.175105 0.094575 -0.102635 0.057643 -0.066551 -0.034910 -0.086321 0.073506 0.092084 0.001620 -0.004230 -0.157719 -0.064108 -0.008447 0.038385 0.131346 0.285268 -0.197873 0.082106 0.205586 0.101058 -0.070289 0.049694 0.060684 -0.077558 -0.056310 0.087701 0.043839 -0.065343 -0.076356 0.088769 0.049225 0.026402 -0.127953 -0.033983 -0.056101 0.041542 -0.022721 0.087176 0.001021 -0.041029 0.001098 -0.070382 0.107400 0.054885 -0.043687 0.077094 0.034259 0.055625 0.176992 -0.088229 -0.061558 -0.136545 -0.109689 0.018454 -0.088621 -0.135026 0.006479 0.050635 -0.118078 -0.141295 0.173100 0.009511 -0.006306 0.033234 0.018605 0.025636 0.077987 0.115385 -0.054523 0.067457 0.070056 0.024261 -0.002399 -0.010743 0.063308 0.008113 0.089205 0.005018 -0.148503 -0.062973 0.073551 -0.016069 -0.106510 -0.216007 0.047141 -0.001592 0.051264 0.061912 -0.026755 0.056563 0.250258 -0.207851 -0.064859 0.273829 -0.010952 0.121572 0.299062 0.019614 -0.136324 0.066485 -0.037590 -0.068295 -0.073005 0.149006 -0.055096 0.063826 -0.163279 -0.117644 -0.105920 0.062347 0.176900 -0.041457 -0.147342 -0.064232 0.001698 -0.184178 -0.143497 -0.073236 0.088343 -0.032593 -0.136796 -0.108679 -0.020974 -0.285596 -0.198153 
72 -0.022965 0.030575 0.159727 0.089928 -0.088613 0.050986 -0.065186 -0.031660 -0.079152 0.067049 0.079989 -0.000299 0.000109 -0.142195 -0.058710 -0.009361 0.031917 0.120849 0.258093 -0.175551 0.068690 0.186586 0.087902 -0.065753 0.045554 0.052660 -0.072377 -0.055976 0.081327 0.040908 -0.063501 -0.068411 0.074759 0.044955 0.030292 -0.117878 -0.031171 -0.057095 0.036475 -0.016397 0.075866 0.002832 -0.033046 0.003991 -0.063940 0.099817 0.047198 -0.043096 0.069989 0.035518 0.055391 0.159009 -0.074582 -0.059629 -0.127413 -0.098598 0.016097 -0.079642 -0.120718 0.012277 0.041898 -0.113897 -0.130908 0.155422 0.014724 -0.005433 0.031973 0.012424 0.026013 0.067618 0.106874 -0.048043 0.056165 0.065625 0.026305 -0.007669 -0.009690 0.060114 0.007346 0.076131 0.003960 -0.136263 -0.063798 0.070722 -0.013978 -0.093803 -0.188000 0.041319 -0.005135 0.048864 0.049416 -0.026453 0.047964 0.221852 -0.187172 -0.057657 0.249269 -0.008918 0.110166 0.270995 0.017487 -0.126303 0.063861 -0.035374 -0.067257 -0.065969 0.140127 -0.050028 0.056639 -0.146900 -0.107305 -0.095828 0.054222 0.159930 -0.034162 -0.131545 -0.061680 0.000656 -0.173581 -0.128572 -0.064688 0.080798 -0.031623 -0.121533 -0.097387 -0.014784 -0.257766 -0.180750 
73 -0.024723 0.026176 0.162600 0.092983 -0.093710 0.052650 -0.066684 -0.029702 -0.078619 0.064149 0.084777 0.001062 0.001603 -0.143090 -0.062039 -0.013971 0.039269 0.119484 0.264163 -0.181027 0.077725 0.194090 0.087993 -0.067102 0.051974 0.054566 -0.073205 -0.053966 0.090076 0.038387 -0.064810 -0.074180 0.079741 0.046176 0.029441 -0.118349 -0.034007 -0.055541 0.040549 -0.020199 0.081979 -0.004734 -0.039194 -0.000379 -0.069565 0.099625 0.048951 -0.041483 0.070494 0.030785 0.059103 0.170486 -0.077103 -0.057083 -0.135022 -0.104850 0.022315 -0.085536 -0.126742 0.005167 0.043619 -0.113339 -0.136733 0.158485 0.010755 -0.001722 0.027554 0.017383 0.027061 0.077675 0.109312 -0.047718 0.056917 0.066610 0.024562 -0.009181 -0.010989 0.058954 0.006342 0.076359 0.007722 -0.136676 -0.057516 0.067691 -0.008010 -0.099702 -0.200906 0.045727 -0.000577 0.055595 0.054452 -0.022467 0.050880 0.230753 -0.190811 -0.055676 0.258240 -0.010691 0.112771 0.279150 0.010689 -0.133367 0.058098 -0.033284 -0.069624 -0.072978 0.135657 -0.043157 0.055712 -0.160129 -0.105176 -0.096435 0.055676 0.157649 -0.034975 -0.136061 -0.065917 0.001282 -0.170570 -0.132937 -0.062664 0.077835 -0.030949 -0.127591 -0.097718 -0.019476 -0.265206 -0.186344 
74 -0.026050 0.031375 0.163514 0.094964 -0.094617 0.056150 -0.067783 -0.034387 -0.080339 0.067963 0.085051 -0.001071 0.000968 -0.152429 -0.059432 -0.007924 0.037191 0.121308 0.267119 -0.187753 0.076704 0.197671 0.096571 -0.069132 0.053290 0.054928 -0.072933 -0.056362 0.085544 0.038641 -0.064413 -0.077500 0.084490 0.052556 0.030038 -0.119942 -0.032512 -0.057222 0.045648 -0.016189 0.082735 0.001179 -0.037144 0.006588 -0.066954 0.104092 0.052085 -0.044444 0.068002 0.037270 0.057361 0.168355 -0.079037 -0.062664 -0.132031 -0.103951 0.022853 -0.084657 -0.133028 0.007929 0.044361 -0.113401 -0.140301 0.169397 0.009366 -0.001127 0.026828 0.017172 0.027955 0.079609 0.115036 -0.049749 0.058925 0.062556 0.023175 -0.008543 -0.014810 0.058383 0.001275 0.083722 0.008031 -0.145046 -0.066643 0.071540 -0.008698 -0.098200 -0.206818 0.048523 0.001066 0.050687 0.055547 -0.030040 0.054319 0.234838 -0.198648 -0.062518 0.261205 -0.006900 0.109781 0.294489 0.019061 -0.135523 0.065267 -0.040537 -0.069551 -0.070854 0.140474 -0.045185 0.054452 -0.157824 -0.108554 -0.099887 0.061055 0.161318 -0.036903 -0.140993 -0.063985 0.003310 -0.179441 -0.136012 -0.071148 0.085474 -0.032611 -0.128251 -0.099174 -0.020430 -0.271085 -0.188759 
75 -0.019933 0.026341 0.164372 0.096786 -0.094576 0.053425 -0.067027 -0.035381 -0.088302 0.063937 0.090455 0.002786 -0.001299 -0.147993 -0.065603 -0.007230 0.043052 0.124648 0.276555 -0.190192 0.077016 0.200166 0.094456 -0.070784 0.050146 0.054379 -0.078091 -0.052854 0.085991 0.039706 -0.065839 -0.077738 0.082072 0.053157 0.033573 -0.123406 -0.039041 -0.055551 0.041950 -0.016379 0.079407 -0.005778 -0.038796 0.006186 -0.067222 0.102821 0.047585 -0.042798 0.075032 0.039789 0.058778 0.171762 -0.080311 -0.064173 -0.133967 -0.104226 0.019700 -0.086209 -0.136784 0.014517 0.044676 -0.116435 -0.138563 0.171476 0.014137 -0.002840 0.029932 0.020695 0.028044 0.078108 0.119137 -0.049572 0.060934 0.068058 0.028570 -0.002597 -0.012762 0.060335 0.001806 0.080473 0.002803 -0.150813 -0.064419 0.075214 -0.009508 -0.101929 -0.209692 0.049084 -0.004133 0.057883 0.058179 -0.025369 0.057470 0.241052 -0.195814 -0.058227 0.268164 -0.006782 0.116393 0.293356 0.015492 -0.136608 0.065479 -0.036271 -0.070391 -0.076901 0.148088 -0.051027 0.055735 -0.167114 -0.108488 -0.107089 0.061339 0.170905 -0.032688 -0.135954 -0.068883 0.000463 -0.179968 -0.133996 -0.069257 0.082106 -0.030379 -0.132826 -0.106532 -0.023740 -0.277942 -0.185944 
76 -0.020934 0.030327 0.148492 0.081483 -0.090045 0.046095 -0.058037 -0.031761 -0.079511 0.060990 0.081713 0.003357 0.000419 -0.136473 -0.052853 -0.006569 0.037727 0.111949 0.249628 -0.174036 0.071497 0.179742 0.079530 -0.067735 0.043173 0.054344 -0.069588 -0.047622 0.082815 0.040838 -0.061172 -0.073612 0.073985 0.048991 0.030885 -0.112923 -0.036458 -0.051149 0.038877 -0.015461 0.075903 -0.001601 -0.032188 0.008123 -0.062611 0.096607 0.040578 -0.043343 0.065038 0.031185 0.050420 0.153063 -0.073596 -0.051073 -0.124716 -0.095419 0.019184 -0.073784 -0.118594 0.013913 0.043122 -0.108002 -0.125192 0.151573 0.013657 -0.000214 0.027756 0.016109 0.019803 0.065081 0.099832 -0.050780 0.054708 0.063501 0.024199 -0.005693 -0.010560 0.050800 0.005967 0.075699 0.003636 -0.131638 -0.060566 0.070217 -0.015564 -0.090787 -0.187900 0.039840 -0.005549 0.046280 0.049794 -0.023040 0.050732 0.212211 -0.180530 -0.053706 0.236857 -0.007431 0.101058 0.261968 0.017713 -0.122184 0.055172 -0.033296 -0.062431 -0.069021 0.129294 -0.046862 0.050897 -0.146307 -0.099344 -0.096698 0.055751 0.148657 -0.028935 -0.120997 -0.056173 0.001596 -0.159562 -0.118314 -0.058469 0.077474 -0.024609 -0.119963 -0.095225 -0.020887 -0.247592 -0.172061 
77 -0.022285 0.025240 0.153002 0.086465 -0.087058 0.047411 -0.062145 -0.028565 -0.079993 0.065370 0.080840 -0.000069 0.003903 -0.134981 -0.055669 -0.013243 0.036648 0.114584 0.251103 -0.178401 0.067257 0.184951 0.082243 -0.069773 0.042588 0.055813 -0.067112 -0.049586 0.080987 0.037259 -0.057359 -0.072407 0.080585 0.049802 0.027864 -0.118937 -0.036525 -0.051433 0.041306 -0.013103 0.072073 0.000312 -0.029650 0.008743 -0.060051 0.094162 0.048758 -0.040859 0.066675 0.030110 0.051786 0.160894 -0.076008 -0.052624 -0.124313 -0.096187 0.021386 -0.082977 -0.124007 0.010760 0.046402 -0.105026 -0.129483 0.158199 0.015837 0.000251 0.024260 0.016663 0.025443 0.067037 0.106054 -0.049278 0.061840 0.062560 0.022474 -0.003943 -0.011728 0.057997 0.000630 0.075024 0.004530 -0.132949 -0.060496 0.070713 -0.015559 -0.087666 -0.193127 0.039287 -0.002480 0.049478 0.052651 -0.026170 0.055889 0.224106 -0.184805 -0.053264 0.240889 -0.010624 0.102089 0.274298 0.013430 -0.124424 0.055275 -0.031224 -0.066283 -0.063090 0.129448 -0.042321 0.051541 -0.150522 -0.102269 -0.094971 0.057873 0.148305 -0.033210 -0.132434 -0.055991 -0.000228 -0.170317 -0.128447 -0.066009 0.074044 -0.030569 -0.121618 -0.096700 -0.020871 -0.257755 -0.173247 
78 -0.019095 0.031001 0.161575 0.088443 -0.091596 0.052810 -0.067446 -0.029353 -0.085152 0.067599 0.080513 0.005669 0.001203 -0.147304 -0.064651 -0.007045 0.034541 0.123545 0.265940 -0.186619 0.071577 0.193589 0.088394 -0.065600 0.050911 0.052015 -0.072085 -0.056840 0.089329 0.041752 -0.062639 -0.076932 0.079439 0.050337 0.026539 -0.122700 -0.037935 -0.050567 0.037507 -0.019996 0.081020 -0.005874 -0.030108 0.009518 -0.064650 0.103838 0.049664 -0.038317 0.069401 0.035980 0.057929 0.164628 -0.078143 -0.054664 -0.130208 -0.105774 0.022061 -0.081024 -0.126603 0.011301 0.046816 -0.115489 -0.132102 0.162235 0.016875 -0.004979 0.027588 0.018179 0.020044 0.071441 0.115551 -0.049244 0.061925 0.063182 0.027842 -0.008041 -0.017441 0.054175 0.005619 0.084126 0.000001 -0.142999 -0.062210 0.076167 -0.007996 -0.094241 -0.201522 0.047684 -0.001560 0.053428 0.054830 -0.024178 0.051022 0.229846 -0.188093 -0.055566 0.253882 -0.011416 0.112129 0.279791 0.016074 -0.133426 0.059409 -0.040491 -0.065588 -0.067744 0.136224 -0.045226 0.052695 -0.154878 -0.103582 -0.096510 0.055858 0.159699 -0.036346 -0.137854 -0.065078 0.000900 -0.180179 -0.129928 -0.070128 0.084556 -0.029771 -0.124560 -0.099241 -0.016832 -0.262136 -0.181176 
79 -0.027540 0.025748 0.166118 0.089442 -0.098705 0.049969 -0.068868 -0.030406 -0.082421 0.068370 0.082450 0.004065 0.001939 -0.151165 -0.063559 -0.008892 0.037532 0.123786 0.273829 -0.191405 0.075720 0.201225 0.089189 -0.069655 0.051863 0.057002 -0.073815 -0.052671 0.089287 0.042955 -0.063272 -0.080400 0.083825 0.053762 0.025811 -0.123877 -0.037246 -0.051659 0.042518 -0.017796 0.079417 -0.004662 -0.036744 0.009174 -0.068767 0.107468 0.051274 -0.038815 0.068043 0.034817 0.058073 0.169688 -0.081238 -0.061810 -0.130770 -0.107182 0.025219 -0.084868 -0.133997 0.013870 0.046862 -0.114266 -0.141734 0.166400 0.015184 -0.004273 0.032429 0.021231 0.019077 0.078809 0.117112 -0.052997 0.057589 0.065749 0.028276 -0.007739 -0.017873 0.057034 0.000456 0.083737 0.004110 -0.141795 -0.064445 0.075853 -0.015791 -0.102459 -0.207583 0.045966 -0.005363 0.054315 0.054460 -0.028760 0.055053 0.242812 -0.199487 -0.057068 0.261368 -0.011426 0.115606 0.288773 0.017667 -0.130464 0.065170 -0.037931 -0.064009 -0.071776 0.141243 -0.044796 0.057048 -0.163905 -0.110127 -0.105675 0.054693 0.163613 -0.039967 -0.135678 -0.064840 0.007185 -0.179671 -0.138541 -0.069535 0.086100 -0.030300 -0.134431 -0.099143 -0.015466 -0.273089 -0.190259 
80 -0.022114 0.028703 0.167163 0.095319 -0.099153 0.048328 -0.063404 -0.033223 -0.081965 0.062190 0.085973 -0.002661 -0.002043 -0.148592 -0.062607 -0.016098 0.041054 0.127397 0.277548 -0.194850 0.073765 0.201054 0.091465 -0.076482 0.050170 0.054180 -0.077185 -0.059278 0.090212 0.039556 -0.062547 -0.080521 0.081359 0.052993 0.026871 -0.123186 -0.034688 -0.053805 0.043991 -0.016799 0.082022 -0.002506 -0.032610 0.007158 -0.066245 0.106540 0.046839 -0.047814 0.071603 0.038916 0.059465 0.173517 -0.085830 -0.060318 -0.134384 -0.103366 0.018577 -0.085953 -0.131826 0.013531 0.046330 -0.118792 -0.141602 0.173428 0.013957 -0.002160 0.031628 0.018470 0.024998 0.078820 0.110468 -0.051021 0.062242 0.069329 0.029718 -0.006895 -0.018428 0.063371 0.000052 0.081503 0.008463 -0.147940 -0.066208 0.072426 -0.014351 -0.096769 -0.206507 0.045398 -0.005606 0.050827 0.056632 -0.024433 0.059368 0.236862 -0.200005 -0.057600 0.265759 -0.009824 0.112512 0.293887 0.014554 -0.134180 0.060498 -0.035539 -0.069709 -0.068576 0.142835 -0.048910 0.060147 -0.160246 -0.109957 -0.099611 0.055645 0.167206 -0.041085 -0.137457 -0.068999 0.005552 -0.183679 -0.138924 -0.068813 0.085363 -0.030341 -0.133949 -0.105445 -0.022417 -0.270309 -0.186340 
81 -0.020324 0.028667 0.156970 0.092816 -0.097624 0.055374 -0.065263 -0.028215 -0.080892 0.067542 0.082085 0.001776 0.003156 -0.143767 -0.064271 -0.010323 0.040269 0.124832 0.260872 -0.190128 0.078393 0.198520 0.091537 -0.071440 0.048600 0.052166 -0.075031 -0.057359 0.086209 0.040817 -0.062810 -0.077298 0.082356 0.045387 0.030778 -0.114852 -0.030598 -0.056235 0.038495 -0.012857 0.079270 -0.006276 -0.034973 0.002523 -0.062848 0.106158 0.045025 -0.041370 0.068563 0.037340 0.050756 0.171014 -0.080356 -0.056975 -0.127715 -0.099331 0.021967 -0.079795 -0.134092 0.011912 0.046235 -0.113041 -0.136763 0.167849 0.011640 -0.006113 0.034977 0.021048 0.022509 0.074413 0.105095 -0.051181 0.056900 0.061926 0.024970 -0.002280 -0.015864 0.053573 0.004203 0.074828 0.008677 -0.142884 -0.060616 0.076138 -0.008424 -0.089329 -0.200041 0.047164 -0.002390 0.049603 0.054662 -0.023859 0.059304 0.227860 -0.194338 -0.054097 0.253003 -0.012578 0.112875 0.279605 0.018375 -0.131139 0.058295 -0.032274 -0.062806 -0.066909 0.143235 -0.048982 0.057814 -0.152072 -0.103495 -0.096437 0.050873 0.161231 -0.040018 -0.137448 -0.059629 0.002212 -0.171940 -0.133991 -0.067807 0.079545 -0.029139 -0.123763 -0.096323 -0.013770 -0.261531 -0.181942 
82 -0.019134 0.024670 0.154361 0.086772 -0.094971 0.049396 -0.059340 -0.030412 -0.078665 0.066342 0.085481 0.000404 -0.004017 -0.148109 -0.059275 -0.015555 0.035914 0.121937 0.259517 -0.187110 0.069993 0.196206 0.091918 -0.073259 0.045362 0.051398 -0.071270 -0.053870 0.087790 0.036084 -0.059273 -0.072195 0.082203 0.050512 0.027808 -0.120363 -0.029044 -0.052760 0.041003 -0.019938 0.081323 -0.000594 -0.037069 -0.001369 -0.066027 0.098946 0.046838 -0.045802 0.068358 0.031138 0.050164 0.167099 -0.077661 -0.059038 -0.132078 -0.098736 0.020059 -0.079942 -0.128669 0.006572 0.046201 -0.112836 -0.135328 0.159965 0.009314 -0.004151 0.033962 0.016002 0.018911 0.071835 0.108755 -0.047250 0.063820 0.065417 0.027580 -0.005977 -0.019388 0.054997 0.003943 0.075666 0.007414 -0.142400 -0.058532 0.074993 -0.013681 -0.088999 -0.197324 0.047121 -0.004793 0.048563 0.055349 -0.024509 0.053106 0.229216 -0.189983 -0.055260 0.249487 -0.010996 0.109520 0.280801 0.013369 -0.128168 0.058028 -0.034883 -0.064294 -0.072828 0.136934 -0.050749 0.057937 -0.156182 -0.106349 -0.102937 0.052721 0.155478 -0.036635 -0.133429 -0.063385 0.002016 -0.171091 -0.130009 -0.068209 0.078912 -0.025138 -0.127636 -0.097202 -0.017959 -0.258507 -0.181732 
